{"learner":{"attributes":{"best_iteration":"34","best_score":"0.28790756665760703"},"feature_names":["ret_1d","ret_5d","ret_10d","ret_21d","ret_63d","mom_12_1","dist_sma20","dist_sma50","dist_sma200","sma20_50","hi52_dist","lo52_dist","rsi_5","rsi_14","boll_z","down_streak","vol_21d","vol_63d","atr_pct","range_pos","gap","vol_ratio","turnover_z","nifty_ret_5d","nifty_ret_21d","nifty_vol_21d","nifty_dist_sma50","rs_21d","rs_63d"],"feature_types":[],"gradient_booster":{"model":{"cats":{"enc":[],"feature_segments":[],"sorted_idx":[]},"gbtree_model_param":{"num_parallel_tree":"1","num_trees":"85"},"iteration_indptr":[0,1,2,3,4,5,6,7,8,9,10,11,12,13,14,15,16,17,18,19,20,21,22,23,24,25,26,27,28,29,30,31,32,33,34,35,36,37,38,39,40,41,42,43,44,45,46,47,48,49,50,51,52,53,54,55,56,57,58,59,60,61,62,63,64,65,66,67,68,69,70,71,72,73,74,75,76,77,78,79,80,81,82,83,84,85],"tree_info":[0,0,0,0,0,0,0,0,0,0,0,0,0,0,0,0,0,0,0,0,0,0,0,0,0,0,0,0,0,0,0,0,0,0,0,0,0,0,0,0,0,0,0,0,0,0,0,0,0,0,0,0,0,0,0,0,0,0,0,0,0,0,0,0,0,0,0,0,0,0,0,0,0,0,0,0,0,0,0,0,0,0,0,0,0],"trees":[{"base_weights":[1.3904001E-4,-1.4503218E-2,1.4835993E-2,-2.1094937E-2,3.206507E-2,2.135278E-2,-2.4086278E-2,-1.2216735E-2,-4.7392868E-2,-4.406285E-2,6.885568E-2,-2.0488312E-2,2.6873222E-2,-4.4510607E-2,6.0032155E-2,-2.3688914E-2,2.1110043E-2,-9.802115E-2,-3.438354E-2,4.5725193E-2,-1.2567759E-1,1.1246699E-1,-1.8320795E-2,-8.251189E-3,-1.4198334E-2,4.7056664E-2,1.8112153E-2,-1.4483192E-2,-8.462644E-2,1.4513437E-1,1.1213838E-2,-8.636577E-5,-1.7281435E-3,1.6564494E-3,-3.1667706E-3,1.8937588E-3,-5.8561717E-3,-7.2098686E-3,-1.4496665E-3,-4.6566906E-3,4.0828893E-3,-1.057583E-2,-2.4594015E-3,6.477449E-3,2.535186E-4,-6.9337483E-3,9.6750725E-4,-4.9281786E-3,-1.18835655E-4,4.8200334E-3,1.8959529E-3,3.111998E-3,7.150495E-4,-4.7570583E-3,2.7966508E-4,-6.679255E-3,-1.785278E-3,2.085717E-3,1.0680079E-2,-2.8264117E-3,4.8802914E-3],"categories":[],"categories_nodes":[],"categories_segments":[],"categories_sizes":[],"default_left":[0,0,0,0,0,0,0,0,0,0,0,0,0,0,0,0,0,0,0,0,0,0,0,0,0,0,0,0,0,0,0,0,0,0,0,0,0,0,0,0,0,0,0,0,0,0,0,0,0,0,0,0,0,0,0,0,0,0,0,0,0],"id":0,"left_children":[1,3,5,7,9,11,13,15,17,19,21,23,25,27,29,31,33,35,37,39,41,43,45,-1,47,49,51,53,55,57,59,-1,-1,-1,-1,-1,-1,-1,-1,-1,-1,-1,-1,-1,-1,-1,-1,-1,-1,-1,-1,-1,-1,-1,-1,-1,-1,-1,-1,-1,-1],"loss_changes":[6.116963E0,4.3715515E0,3.5987666E0,2.9118304E0,4.949233E0,2.807436E0,3.4989293E0,3.5664992E0,2.0700288E0,4.2266903E0,4.5301013E0,1.2858871E0,1.8975787E0,1.9718685E0,1.651882E0,1.6570389E0,2.4268026E0,1.6736183E0,1.4791698E0,1.3797352E0,1.9724641E0,1.4559727E0,1.8071574E0,0E0,1.3551426E0,1.4612737E0,1.2584288E0,1.519463E0,1.6741958E0,1.0178175E0,1.4920199E0,0E0,0E0,0E0,0E0,0E0,0E0,0E0,0E0,0E0,0E0,0E0,0E0,0E0,0E0,0E0,0E0,0E0,0E0,0E0,0E0,0E0,0E0,0E0,0E0,0E0,0E0,0E0,0E0,0E0,0E0],"parents":[2147483647,0,0,1,1,2,2,3,3,4,4,5,5,6,6,7,7,8,8,9,9,10,10,11,11,12,12,13,13,14,14,15,15,16,16,17,17,18,18,19,19,20,20,21,21,22,22,24,24,25,25,26,26,27,27,28,28,29,29,30,30],"right_children":[2,4,6,8,10,12,14,16,18,20,22,24,26,28,30,32,34,36,38,40,42,44,46,-1,48,50,52,54,56,58,60,-1,-1,-1,-1,-1,-1,-1,-1,-1,-1,-1,-1,-1,-1,-1,-1,-1,-1,-1,-1,-1,-1,-1,-1,-1,-1,-1,-1,-1,-1],"split_conditions":[-1.5817802E-1,4.0060863E-2,1.12423645E-2,5.4722675E-4,9.702019E-3,-7.111113E-2,5.0704336E-1,1.8272197E-2,-2.343171E-1,-4.3493964E-2,-2.4301764E-1,-2.0666766E-1,4.9563665E-3,-8.081628E-2,4.1515517E-1,2.1524929E-2,3.7226643E-2,1.8000082E1,-7.511464E-2,7.474993E0,-1.7656788E-1,2.915867E-1,6.9122654E-1,-8.251189E-3,5.6618243E-1,1.5412521E-2,-6.865837E-2,-3.6428705E-2,3.0725637E-1,8.9179515E-4,3.0283699E-2,-8.636577E-5,-1.7281435E-3,1.6564494E-3,-3.1667706E-3,1.8937588E-3,-5.8561717E-3,-7.2098686E-3,-1.4496665E-3,-4.6566906E-3,4.0828893E-3,-1.057583E-2,-2.4594015E-3,6.477449E-3,2.535186E-4,-6.9337483E-3,9.6750725E-4,-4.9281786E-3,-1.18835655E-4,4.8200334E-3,1.8959529E-3,3.111998E-3,7.150495E-4,-4.7570583E-3,2.7966508E-4,-6.679255E-3,-1.785278E-3,2.085717E-3,1.0680079E-2,-2.8264117E-3,4.8802914E-3],"split_indices":[10,18,25,28,25,5,11,24,5,6,10,5,25,10,5,18,27,12,4,12,5,5,21,0,21,18,28,4,11,23,16,0,0,0,0,0,0,0,0,0,0,0,0,0,0,0,0,0,0,0,0,0,0,0,0,0,0,0,0,0,0],"split_type":[0,0,0,0,0,0,0,0,0,0,0,0,0,0,0,0,0,0,0,0,0,0,0,0,0,0,0,0,0,0,0,0,0,0,0,0,0,0,0,0,0,0,0,0,0,0,0,0,0,0,0,0,0,0,0,0,0,0,0,0,0],"sum_hessian":[2.8423E4,1.4238E4,1.4185E4,1.2473E4,1.765E3,1.2151E4,2.034E3,9.326E3,3.147E3,5.75E2,1.19E3,1.416E3,1.0735E4,1.637E3,3.97E2,6.938E3,2.388E3,6.42E2,2.505E3,2.74E2,3.01E2,7.93E2,3.97E2,5.8E1,1.358E3,3.248E3,7.487E3,9.37E2,7E2,1.44E2,2.53E2,2.298E3,4.64E3,2.091E3,2.97E2,7.9E1,5.63E2,1.16E2,2.389E3,5.6E1,2.18E2,1.41E2,1.6E2,6.84E2,1.09E2,9.4E1,3.03E2,1.66E2,1.192E3,5.06E2,2.742E3,5.94E2,6.893E3,1.86E2,7.51E2,3.49E2,3.51E2,5.8E1,8.6E1,1.42E2,1.11E2],"tree_param":{"num_deleted":"0","num_feature":"29","num_nodes":"61","size_leaf_vector":"1"}},{"base_weights":[6.3325017E-4,-1.4404464E-2,9.554603E-3,7.873981E-2,-1.8685965E-2,4.2126246E-2,4.0769572E-3,-3.0157154E-3,1.1110053E-1,1.02246925E-2,-2.0140644E-2,-2.4730567E-2,5.1997945E-2,-7.649074E-4,4.0509593E-2,-9.159402E-4,1.4141388E-1,-1.8473167E-2,-1.61225E-1,3.5351575E-3,-5.9297383E-2,7.842675E-2,2.874396E-2,4.0676255E-2,-4.6742E-3,-3.5230856E-2,5.296005E-2,3.995293E-3,9.643367E-3,-1.4075827E-3,2.2656591E-4,-1.1409176E-2,-4.519949E-3,-4.488423E-3,1.6044647E-3,5.575201E-3,2.3034902E-3,-3.2850632E-3,2.0797818E-3,-4.078845E-4,5.2117063E-3,-1.3885995E-3,2.1993944E-4,3.8057656E-4,-1.0337483E-2,4.23662E-3,1.3821399E-3],"categories":[],"categories_nodes":[],"categories_segments":[],"categories_sizes":[],"default_left":[0,0,0,0,0,0,0,0,0,0,0,0,0,0,0,0,0,0,0,0,0,0,0,0,0,0,0,0,0,0,0,0,0,0,0,0,0,0,0,0,0,0,0,0,0,0,0],"id":1,"left_children":[1,3,5,7,9,11,13,-1,15,-1,17,19,21,23,25,-1,27,29,31,-1,33,35,37,39,41,43,45,-1,-1,-1,-1,-1,-1,-1,-1,-1,-1,-1,-1,-1,-1,-1,-1,-1,-1,-1,-1],"loss_changes":[3.8352761E0,4.246668E0,3.2011442E0,2.1126504E0,3.3084598E0,1.7060409E0,2.7097404E0,0E0,1.493381E0,0E0,2.3761535E0,1.1027062E0,1.3811536E0,2.1969864E0,1.7011576E0,0E0,9.593468E-1,2.2257226E0,5.389762E-1,0E0,6.8511975E-1,1.1218672E0,1.4580542E0,3.6291704E0,2.597064E0,1.8753839E0,1.2428513E0,0E0,0E0,0E0,0E0,0E0,0E0,0E0,0E0,0E0,0E0,0E0,0E0,0E0,0E0,0E0,0E0,0E0,0E0,0E0,0E0],"parents":[2147483647,0,0,1,1,2,2,3,3,4,4,5,5,6,6,8,8,10,10,11,11,12,12,13,13,14,14,16,16,17,17,18,18,20,20,21,21,22,22,23,23,24,24,25,25,26,26],"right_children":[2,4,6,8,10,12,14,-1,16,-1,18,20,22,24,26,-1,28,30,32,-1,34,36,38,40,42,44,46,-1,-1,-1,-1,-1,-1,-1,-1,-1,-1,-1,-1,-1,-1,-1,-1,-1,-1,-1,-1],"split_conditions":[-7.5539045E-2,-2.4522898E-1,1.02405595E-2,-1.3377976E-1,-1.546576E-1,5.840759E-1,7.052599E1,-3.0157154E-3,8.734431E0,1.02246925E-2,4.02212E0,3.6907368E1,5.015597E-3,-1.248792E-1,1.8099826E-2,-9.159402E-4,1.082691E-2,1.8272197E-2,-2.0967652E-1,3.5351575E-3,5.499403E-3,2.3543055E-1,8.814071E-3,2.2147564E-2,-8.273397E-3,3.2201007E-2,1.4276183E-1,3.995293E-3,9.643367E-3,-1.4075827E-3,2.2656591E-4,-1.1409176E-2,-4.519949E-3,-4.488423E-3,1.6044647E-3,5.575201E-3,2.3034902E-3,-3.2850632E-3,2.0797818E-3,-4.078845E-4,5.2117063E-3,-1.3885995E-3,2.1993944E-4,3.8057656E-4,-1.0337483E-2,4.23662E-3,1.3821399E-3],"split_indices":[5,4,16,9,7,21,13,0,12,0,21,13,25,8,8,0,25,24,5,0,25,11,17,16,8,9,4,0,0,0,0,0,0,0,0,0,0,0,0,0,0,0,0,0,0,0,0],"split_type":[0,0,0,0,0,0,0,0,0,0,0,0,0,0,0,0,0,0,0,0,0,0,0,0,0,0,0,0,0,0,0,0,0,0,0,0,0,0,0,0,0,0,0,0,0,0,0],"sum_hessian":[2.8586E4,1.0644E4,1.7942E4,4.67E2,1.0177E4,2.582E3,1.536E4,8.8E1,3.79E2,6.5E1,1.0112E4,3.32E2,2.25E3,1.3559E4,1.801E3,7.2E1,3.07E2,9.995E3,1.17E2,8.8E1,2.44E2,1.052E3,1.198E3,1.168E3,1.2391E4,2.54E2,1.547E3,1.41E2,1.66E2,7.035E3,2.96E3,5.9E1,5.8E1,1.83E2,6.1E1,5.19E2,5.33E2,1.43E2,1.055E3,6.61E2,5.07E2,3.494E3,8.897E3,2.04E2,5E1,6.85E2,8.62E2],"tree_param":{"num_deleted":"0","num_feature":"29","num_nodes":"47","size_leaf_vector":"1"}},{"base_weights":[7.458458E-4,-1.2217833E-2,1.6235456E-2,-3.6280494E-2,-2.1904778E-4,2.3550421E-2,-3.3055365E-2,-1.9586546E-2,-9.66571E-2,4.4148017E-2,-1.3150875E-2,-1.2011116E-2,2.8766947E-2,-8.2999885E-2,5.603819E-2,-6.5669775E-2,-5.053614E-3,3.1618935E-3,-1.0921957E-1,2.3184499E-2,9.653776E-2,-3.2056466E-2,1.7416015E-2,9.170274E-3,-8.228483E-2,4.2606533E-2,1.5928645E-2,-7.0065424E-2,-1.0561681E-2,3.519705E-2,1.5686707E-1,-1.9420804E-3,-5.8631757E-3,4.7480685E-4,-2.8686484E-3,-4.0993784E-3,-7.96344E-3,3.5546874E-3,-1.3977649E-3,6.4367615E-3,9.810938E-4,-5.5768975E-4,-2.749577E-3,-1.1578153E-3,2.0119704E-3,-2.550499E-3,2.706287E-3,4.4854535E-4,-6.3469307E-3,1.9346947E-3,6.7303204E-3,2.0445678E-4,2.9659222E-3,-2.4844427E-3,-7.5042895E-3,3.0778246E-3,-4.7266684E-3,3.128749E-3,1.2407124E-2],"categories":[],"categories_nodes":[],"categories_segments":[],"categories_sizes":[],"default_left":[0,0,0,0,0,0,0,0,0,0,0,0,0,0,0,0,0,0,0,0,0,0,0,0,0,0,0,0,0,0,0,0,0,0,0,0,0,0,0,0,0,0,0,0,0,0,0,0,0,0,0,0,0,0,0,0,0,0,0],"id":2,"left_children":[1,3,5,7,9,11,13,15,17,19,21,23,25,27,29,31,33,-1,35,37,39,41,43,45,47,49,51,53,-1,55,57,-1,-1,-1,-1,-1,-1,-1,-1,-1,-1,-1,-1,-1,-1,-1,-1,-1,-1,-1,-1,-1,-1,-1,-1,-1,-1,-1,-1],"loss_changes":[5.7180448E0,4.475772E0,4.678692E0,5.196979E0,5.9359956E0,2.0962114E0,7.466856E0,2.7066941E0,2.250599E0,2.56223E0,4.6299963E0,2.1531184E0,1.7499704E0,1.7682328E0,1.2616162E0,1.3367014E0,2.3405766E0,0E0,1.3989487E0,4.091153E0,1.6492963E0,2.372437E0,2.8363378E0,3.0112004E0,1.366235E0,1.7013712E0,2.6263769E0,1.5872107E0,0E0,1.7190493E0,8.709471E-1,0E0,0E0,0E0,0E0,0E0,0E0,0E0,0E0,0E0,0E0,0E0,0E0,0E0,0E0,0E0,0E0,0E0,0E0,0E0,0E0,0E0,0E0,0E0,0E0,0E0,0E0,0E0,0E0],"parents":[2147483647,0,0,1,1,2,2,3,3,4,4,5,5,6,6,7,7,8,8,9,9,10,10,11,11,12,12,13,13,14,14,15,15,16,16,18,18,19,19,20,20,21,21,22,22,23,23,24,24,25,25,26,26,27,27,29,29,30,30],"right_children":[2,4,6,8,10,12,14,16,18,20,22,24,26,28,30,32,34,-1,36,38,40,42,44,46,48,50,52,54,-1,56,58,-1,-1,-1,-1,-1,-1,-1,-1,-1,-1,-1,-1,-1,-1,-1,-1,-1,-1,-1,-1,-1,-1,-1,-1,-1,-1,-1,-1],"split_conditions":[-1.3799948E-1,5.216452E-3,1.1356757E-2,2.0177478E-2,-1.2263519E-1,-1.7543962E-2,2.1155024E-2,5.881407E-1,-1.942309E-2,1.2003987E-2,2.055416E-2,1.3272168E-1,1.4276093E-2,9.063337E-2,-1.14093935E-2,1.4633693E-1,1.6397562E-2,3.1618935E-3,3.6499966E-3,7.419555E-3,1.9965895E-2,7.939498E-3,9.158211E-3,1.3415086E-2,9.23323E-1,1.6876297E-2,9.5309675E-2,1.5098345E-2,-1.0561681E-2,1.752726E0,5.266455E-1,-1.9420804E-3,-5.8631757E-3,4.7480685E-4,-2.8686484E-3,-4.0993784E-3,-7.96344E-3,3.5546874E-3,-1.3977649E-3,6.4367615E-3,9.810938E-4,-5.5768975E-4,-2.749577E-3,-1.1578153E-3,2.0119704E-3,-2.550499E-3,2.706287E-3,4.4854535E-4,-6.3469307E-3,1.9346947E-3,6.7303204E-3,2.0445678E-4,2.9659222E-3,-2.4844427E-3,-7.5042895E-3,3.0778246E-3,-4.7266684E-3,3.128749E-3,1.2407124E-2],"split_indices":[10,25,25,17,28,26,17,21,23,25,17,8,17,24,10,11,16,0,23,25,6,25,25,17,21,16,27,25,0,14,22,0,0,0,0,0,0,0,0,0,0,0,0,0,0,0,0,0,0,0,0,0,0,0,0,0,0,0,0],"split_type":[0,0,0,0,0,0,0,0,0,0,0,0,0,0,0,0,0,0,0,0,0,0,0,0,0,0,0,0,0,0,0,0,0,0,0,0,0,0,0,0,0,0,0,0,0,0,0,0,0,0,0,0,0,0,0,0,0,0,0],"sum_hessian":[2.8474E4,1.5501E4,1.2973E4,5.157E3,1.0344E4,1.1297E4,1.676E3,4.041E3,1.116E3,2.334E3,8.01E3,1.445E3,9.852E3,1.074E3,6.02E2,9.68E2,3.073E3,8.1E1,1.035E3,1.668E3,6.66E2,4.949E3,3.061E3,1.111E3,3.34E2,4.74E3,5.112E3,9.77E2,9.7E1,5E2,1.02E2,6.38E2,3.3E2,2.405E3,6.68E2,6.72E2,3.63E2,8.61E2,8.07E2,4.69E2,1.97E2,2.59E3,2.359E3,1.102E3,1.959E3,4.75E2,6.36E2,1.1E2,2.24E2,4.548E3,1.92E2,4.017E3,1.095E3,7.8E2,1.97E2,4.16E2,8.4E1,5.1E1,5.1E1],"tree_param":{"num_deleted":"0","num_feature":"29","num_nodes":"59","size_leaf_vector":"1"}},{"base_weights":[3.0478564E-4,-1.5819173E-2,9.887714E-3,-2.268962E-3,-3.519561E-2,3.859265E-2,5.102286E-3,-1.3921372E-2,3.2070987E-2,-7.830623E-2,-2.0594347E-2,6.480361E-2,1.5246023E-2,1.4979432E-3,5.887332E-2,6.676961E-2,-2.0385386E-2,6.765529E-2,-7.897016E-3,-1.06300876E-1,6.88303E-3,-7.4603893E-3,-5.1036697E-2,7.105192E-2,-2.8671285E-3,-6.7610234E-2,2.360701E-2,7.985043E-3,6.994496E-4,-1.4682307E-2,1.0065479E-1,-1.3153506E-3,5.105131E-3,-3.2638555E-4,-3.5737832E-3,3.8237404E-3,-3.347811E-3,-1.6304919E-3,1.7273944E-3,-9.81544E-4,-6.4612343E-3,3.727097E-3,-3.3233135E-3,-4.733647E-3,-1.6033003E-4,-3.0542358E-3,5.227669E-3,3.2308232E-3,8.839367E-3,-4.0017438E-4,-5.457184E-3,-1.3436921E-3,2.145434E-3,3.539057E-4,-9.017714E-4,5.262581E-3,-3.6655453E-3,6.351636E-3,4.4703577E-4],"categories":[],"categories_nodes":[],"categories_segments":[],"categories_sizes":[],"default_left":[0,0,0,0,0,0,0,0,0,0,0,0,0,0,0,0,0,0,0,0,0,0,0,0,0,0,0,0,0,0,0,0,0,0,0,0,0,0,0,0,0,0,0,0,0,0,0,0,0,0,0,0,0,0,0,0,0,0,0],"id":3,"left_children":[1,3,5,7,9,11,13,15,17,19,21,23,25,27,29,31,33,35,37,39,41,43,45,47,-1,49,51,-1,53,55,57,-1,-1,-1,-1,-1,-1,-1,-1,-1,-1,-1,-1,-1,-1,-1,-1,-1,-1,-1,-1,-1,-1,-1,-1,-1,-1,-1,-1],"loss_changes":[4.3965645E0,2.784839E0,2.4513636E0,2.49854E0,2.7460213E0,1.5594523E0,2.9648058E0,2.4330034E0,2.2505078E0,2.6335988E0,1.30386E0,9.2068624E-1,9.3682206E-1,1.8111221E0,2.9548829E0,1.1405684E0,3.055937E0,9.9881387E-1,7.836309E-1,1.6485004E0,1.3647437E0,8.455394E-1,1.5431812E0,7.663379E-1,0E0,3.061099E-1,1.1966985E0,0E0,1.705084E0,2.46173E0,1.4818497E0,0E0,0E0,0E0,0E0,0E0,0E0,0E0,0E0,0E0,0E0,0E0,0E0,0E0,0E0,0E0,0E0,0E0,0E0,0E0,0E0,0E0,0E0,0E0,0E0,0E0,0E0,0E0,0E0],"parents":[2147483647,0,0,1,1,2,2,3,3,4,4,5,5,6,6,7,7,8,8,9,9,10,10,11,11,12,12,13,13,14,14,15,15,16,16,17,17,18,18,19,19,20,20,21,21,22,22,23,23,25,25,26,26,28,28,29,29,30,30],"right_children":[2,4,6,8,10,12,14,16,18,20,22,24,26,28,30,32,34,36,38,40,42,44,46,48,-1,50,52,-1,54,56,58,-1,-1,-1,-1,-1,-1,-1,-1,-1,-1,-1,-1,-1,-1,-1,-1,-1,-1,-1,-1,-1,-1,-1,-1,-1,-1,-1,-1],"split_conditions":[-7.5539045E-2,-2.9146945E-2,1.02405595E-2,2.3613332E-2,-2.313348E-1,5.0313505E-3,3.0283699E-2,-1.4139228E-1,-1.6590503E-1,7.419555E-3,-1.1415328E-1,1.6392401E-1,8.669098E-3,-1.0145363E-1,8.803149E-3,-3.039082E-1,6.5166606E-3,1.995827E0,1.0342257E-2,2.1278814E1,6.647683E1,3.9117333E-1,2.854544E-1,1.5725148E-1,-2.8671285E-3,8.9658365E-2,-4.421694E-3,7.985043E-3,1.082691E-2,2.4913158E-2,9.2067346E-2,-1.3153506E-3,5.105131E-3,-3.2638555E-4,-3.5737832E-3,3.8237404E-3,-3.347811E-3,-1.6304919E-3,1.7273944E-3,-9.81544E-4,-6.4612343E-3,3.727097E-3,-3.3233135E-3,-4.733647E-3,-1.6033003E-4,-3.0542358E-3,5.227669E-3,3.2308232E-3,8.839367E-3,-4.0017438E-4,-5.457184E-3,-1.3436921E-3,2.145434E-3,3.539057E-4,-9.017714E-4,5.262581E-3,-3.6655453E-3,6.351636E-3,4.4703577E-4],"split_indices":[5,28,16,26,5,25,16,7,5,25,5,28,17,9,25,28,25,21,23,12,13,21,4,4,0,5,5,0,25,17,1,0,0,0,0,0,0,0,0,0,0,0,0,0,0,0,0,0,0,0,0,0,0,0,0,0,0,0,0],"split_type":[0,0,0,0,0,0,0,0,0,0,0,0,0,0,0,0,0,0,0,0,0,0,0,0,0,0,0,0,0,0,0,0,0,0,0,0,0,0,0,0,0,0,0,0,0,0,0,0,0,0,0,0,0,0,0,0,0,0,0],"sum_hessian":[2.8452E4,1.0606E4,1.7846E4,6.242E3,4.364E3,2.549E3,1.5297E4,4.661E3,1.581E3,1.103E3,3.261E3,1.2E3,1.349E3,1.4337E4,9.6E2,3.45E2,4.316E3,8.36E2,7.45E2,8.3E2,2.73E2,2.279E3,9.82E2,1.142E3,5.8E1,1.23E2,1.226E3,7.1E1,1.4266E4,3.48E2,6.12E2,9.5E1,2.5E2,3.396E3,9.2E2,7.85E2,5.1E1,4.71E2,2.74E2,1.74E2,6.56E2,1.42E2,1.31E2,1.05E2,2.174E3,9.23E2,5.9E1,1.078E3,6.4E1,5.1E1,7.2E1,3.39E2,8.87E2,1.0643E4,3.623E3,1.14E2,2.34E2,4.75E2,1.37E2],"tree_param":{"num_deleted":"0","num_feature":"29","num_nodes":"59","size_leaf_vector":"1"}},{"base_weights":[-1.0354852E-3,-1.2922556E-2,1.1340017E-2,5.49413E-2,-1.7334178E-2,1.8182434E-2,-2.0949047E-2,9.5455475E-2,-6.0996027E-3,-2.4982726E-2,6.831931E-3,2.3759117E-2,-8.992166E-3,-6.8288825E-2,5.2360393E-2,7.258666E-2,1.4623532E-2,-4.291846E-2,7.330015E-3,3.6935823E-3,-4.167567E-2,-4.0122684E-2,4.3787017E-2,1.6977206E-2,6.700428E-2,2.8059967E-3,-6.674765E-2,-1.9986643E-2,-9.593484E-2,-7.1677216E-3,7.702761E-2,1.042494E-3,6.953818E-3,3.51054E-4,-8.580027E-3,-2.3454598E-3,8.7188877E-4,-1.3485998E-4,-2.5705227E-3,-6.4119175E-3,-1.3726533E-3,4.3697E-3,2.683983E-4,1.094797E-3,-1.7983621E-3,-3.6922158E-3,3.8057342E-3,-1.1099249E-3,1.623913E-3,-5.3236436E-4,-5.618341E-3,-1.9842812E-3,5.23E-3,9.8574E-5,-5.7622283E-3,6.5326574E-3,-1.9148028E-3,5.3746444E-3,2.1196099E-3],"categories":[],"categories_nodes":[],"categories_segments":[],"categories_sizes":[],"default_left":[0,0,0,0,0,0,0,0,0,0,0,0,0,0,0,0,0,0,0,0,0,0,0,0,0,0,0,0,0,0,0,0,0,0,0,0,0,0,0,0,0,0,0,0,0,0,0,0,0,0,0,0,0,0,0,0,0,0,0],"id":4,"left_children":[1,3,5,7,9,11,13,15,17,19,21,23,25,27,29,31,-1,33,-1,35,37,39,41,43,45,47,49,51,53,55,57,-1,-1,-1,-1,-1,-1,-1,-1,-1,-1,-1,-1,-1,-1,-1,-1,-1,-1,-1,-1,-1,-1,-1,-1,-1,-1,-1,-1],"loss_changes":[4.180528E0,4.340606E0,3.0764623E0,2.1892068E0,2.5159693E0,1.7413044E0,8.454128E0,2.3756976E0,1.9965631E0,4.949349E0,5.6811056E0,2.7947474E0,1.333704E0,1.9744191E0,1.404336E0,1.6414027E0,0E0,1.8391331E0,0E0,2.6471736E0,2.4795475E0,1.6063163E0,3.0687516E0,2.1471658E0,1.6634994E0,1.2071153E0,8.484752E-1,1.3294351E0,1.7792301E0,1.210531E0,7.087436E-1,0E0,0E0,0E0,0E0,0E0,0E0,0E0,0E0,0E0,0E0,0E0,0E0,0E0,0E0,0E0,0E0,0E0,0E0,0E0,0E0,0E0,0E0,0E0,0E0,0E0,0E0,0E0,0E0],"parents":[2147483647,0,0,1,1,2,2,3,3,4,4,5,5,6,6,7,7,8,8,9,9,10,10,11,11,12,12,13,13,14,14,15,15,17,17,19,19,20,20,21,21,22,22,23,23,24,24,25,25,26,26,27,27,28,28,29,29,30,30],"right_children":[2,4,6,8,10,12,14,16,18,20,22,24,26,28,30,32,-1,34,-1,36,38,40,42,44,46,48,50,52,54,56,58,-1,-1,-1,-1,-1,-1,-1,-1,-1,-1,-1,-1,-1,-1,-1,-1,-1,-1,-1,-1,-1,-1,-1,-1,-1,-1,-1,-1],"split_conditions":[-1.5284725E-1,-1.3046224E-1,1.082691E-2,-2.0208666E-2,1.12423645E-2,1.8307801E-2,2.079504E-2,1.8811527E-1,-1.06469005E-1,2.191462E-2,2.079504E-2,7.148051E1,8.6029434E1,8.727844E-1,4.044051E-2,3.8291607E-2,1.4623532E-2,4.5921993E-2,7.330015E-3,5.615006E-1,-1.5701713E-2,1.40619455E-2,1.1848702E-2,4.075721E-2,-1.8068394E-2,6.7493157E-4,2.6441615E-2,4.9967572E-1,2.745904E1,-3.54019E-2,4.075721E-2,1.042494E-3,6.953818E-3,3.51054E-4,-8.580027E-3,-2.3454598E-3,8.7188877E-4,-1.3485998E-4,-2.5705227E-3,-6.4119175E-3,-1.3726533E-3,4.3697E-3,2.683983E-4,1.094797E-3,-1.7983621E-3,-3.6922158E-3,3.8057342E-3,-1.1099249E-3,1.623913E-3,-5.3236436E-4,-5.618341E-3,-1.9842812E-3,5.23E-3,9.8574E-5,-5.7622283E-3,6.5326574E-3,-1.9148028E-3,5.3746444E-3,2.1196099E-3],"split_indices":[10,7,25,26,25,24,17,11,3,18,17,13,12,21,7,18,0,5,0,21,26,17,7,1,24,0,26,11,12,1,1,0,0,0,0,0,0,0,0,0,0,0,0,0,0,0,0,0,0,0,0,0,0,0,0,0,0,0,0],"split_type":[0,0,0,0,0,0,0,0,0,0,0,0,0,0,0,0,0,0,0,0,0,0,0,0,0,0,0,0,0,0,0,0,0,0,0,0,0,0,0,0,0,0,0,0,0,0,0,0,0,0,0,0,0,0,0,0,0,0,0],"sum_hessian":[2.8416E4,1.4494E4,1.3922E4,8.84E2,1.361E4,1.1488E4,2.434E3,5.31E2,3.53E2,1.0338E4,3.272E3,9.532E3,1.956E3,1.479E3,9.55E2,4.77E2,5.4E1,2.85E2,6.8E1,3.804E3,6.534E3,1.441E3,1.831E3,8.241E3,1.291E3,1.625E3,3.31E2,5.39E2,9.4E2,2.8E2,6.75E2,2.69E2,2.08E2,2.06E2,7.9E1,8.12E2,2.992E3,1.306E3,5.228E3,1.8E2,1.261E3,8.57E2,9.74E2,7.541E3,7E2,7.8E1,1.213E3,8.82E2,7.43E2,1.49E2,1.82E2,4.66E2,7.3E1,1.55E2,7.85E2,5.1E1,2.29E2,3.58E2,3.17E2],"tree_param":{"num_deleted":"0","num_feature":"29","num_nodes":"59","size_leaf_vector":"1"}},{"base_weights":[6.9611833E-6,-1.1354833E-2,1.1412622E-2,-2.0650677E-2,1.01750195E-2,1.6533885E-2,-2.0752223E-2,-3.227879E-3,-3.9940048E-2,9.471974E-2,-6.2872106E-3,1.7558705E-2,-6.628953E-3,-6.926423E-2,5.6075163E-2,4.0495605E-3,-7.488294E-2,7.341885E-2,-4.5552723E-2,6.4092524E-2,2.0439866E-1,-4.7950752E-2,2.0177359E-2,1.2066868E-2,4.9740445E-2,-5.8786195E-2,-1.8028966E-1,8.19021E-3,7.948413E-2,-1.955848E-3,6.541311E-4,-5.897191E-3,4.928729E-4,7.9519564E-4,9.150677E-3,-4.190119E-3,-1.6307837E-3,5.2797166E-3,1.5179503E-4,1.2067573E-2,7.973733E-3,9.4848825E-4,-3.531877E-3,3.5392113E-3,1.12086535E-4,1.2607255E-3,1.3246467E-4,3.6753744E-3,4.0218458E-4,-2.0799828E-3,-7.36909E-3,-6.407544E-3,-1.1352962E-2,5.5560065E-3,-1.956668E-3,2.6945793E-4,5.270645E-3],"categories":[],"categories_nodes":[],"categories_segments":[],"categories_sizes":[],"default_left":[0,0,0,0,0,0,0,0,0,0,0,0,0,0,0,0,0,0,0,0,0,0,0,0,0,0,0,0,0,0,0,0,0,0,0,0,0,0,0,0,0,0,0,0,0,0,0,0,0,0,0,0,0,0,0,0,0],"id":5,"left_children":[1,3,5,7,9,11,13,15,17,19,21,23,-1,25,27,29,31,33,35,37,39,41,43,45,47,49,51,53,55,-1,-1,-1,-1,-1,-1,-1,-1,-1,-1,-1,-1,-1,-1,-1,-1,-1,-1,-1,-1,-1,-1,-1,-1,-1,-1,-1,-1],"loss_changes":[3.6991112E0,2.8621857E0,2.3468451E0,3.356586E0,6.0034056E0,1.8802588E0,7.297722E0,2.737475E0,3.019154E0,2.3483887E0,3.9824839E0,2.15665E0,0E0,1.3853955E0,8.490195E-1,1.8588985E0,1.7672768E0,1.4090358E0,2.2324476E0,1.3958914E0,2.1550035E-1,2.131391E0,2.0048754E0,1.2911167E0,1.762413E0,1.665741E0,2.2206855E-1,1.2221012E0,9.773183E-1,0E0,0E0,0E0,0E0,0E0,0E0,0E0,0E0,0E0,0E0,0E0,0E0,0E0,0E0,0E0,0E0,0E0,0E0,0E0,0E0,0E0,0E0,0E0,0E0,0E0,0E0,0E0,0E0],"parents":[2147483647,0,0,1,1,2,2,3,3,4,4,5,5,6,6,7,7,8,8,9,9,10,10,11,11,13,13,14,14,15,15,16,16,17,17,18,18,19,19,20,20,21,21,22,22,23,23,24,24,25,25,26,26,27,27,28,28],"right_children":[2,4,6,8,10,12,14,16,18,20,22,24,-1,26,28,30,32,34,36,38,40,42,44,46,48,50,52,54,56,-1,-1,-1,-1,-1,-1,-1,-1,-1,-1,-1,-1,-1,-1,-1,-1,-1,-1,-1,-1,-1,-1,-1,-1,-1,-1,-1,-1],"split_conditions":[-1.5817802E-1,9.663619E-3,1.13292355E-2,1.6777119E-2,-3.733938E-1,4.6619204E-1,2.095448E-2,7.939498E-3,-1.546576E-1,1.407742E-2,1.9360946E-2,7.148051E1,-6.628953E-3,9.063337E-2,3.8199216E-2,5.4187095E-1,-1.5682725E-2,-3.6920434E-1,-2.4169952E-1,1.0168833E0,-2.1557305E-2,-9.90767E-2,1.2495125E-1,5.879848E-2,1.7884787E-2,1.5406423E-2,8.727844E-1,4.2170177E1,-2.5700335E-4,-1.955848E-3,6.541311E-4,-5.897191E-3,4.928729E-4,7.9519564E-4,9.150677E-3,-4.190119E-3,-1.6307837E-3,5.2797166E-3,1.5179503E-4,1.2067573E-2,7.973733E-3,9.4848825E-4,-3.531877E-3,3.5392113E-3,1.12086535E-4,1.2607255E-3,1.3246467E-4,3.6753744E-3,4.0218458E-4,-2.0799828E-3,-7.36909E-3,-6.407544E-3,-1.1352962E-2,5.5560065E-3,-1.956668E-3,2.6945793E-4,5.270645E-3],"split_indices":[10,25,25,17,10,8,17,25,7,25,17,13,0,24,7,21,27,10,5,21,2,28,11,8,26,25,21,12,20,0,0,0,0,0,0,0,0,0,0,0,0,0,0,0,0,0,0,0,0,0,0,0,0,0,0,0,0],"split_type":[0,0,0,0,0,0,0,0,0,0,0,0,0,0,0,0,0,0,0,0,0,0,0,0,0,0,0,0,0,0,0,0,0,0,0,0,0,0,0,0,0,0,0,0,0,0,0,0,0,0,0,0,0,0,0,0,0],"sum_hessian":[2.8543E4,1.4299E4,1.4244E4,9.987E3,4.312E3,1.2288E4,1.956E3,5.248E3,4.739E3,7.02E2,3.61E3,1.2205E4,8.3E1,1.199E3,7.57E2,4.765E3,4.83E2,2.23E2,4.516E3,5.5E2,1.52E2,1.402E3,2.208E3,1.0427E4,1.778E3,1.097E3,1.02E2,2.49E2,5.08E2,8.24E2,3.941E3,3.2E2,1.63E2,1.47E2,7.6E1,1.14E3,3.376E3,3.27E2,2.23E2,8.1E1,7.1E1,3.55E2,1.047E3,5.77E2,1.631E3,4.351E3,6.076E3,1.132E3,6.46E2,9.2E2,1.77E2,5E1,5.2E1,7.8E1,1.71E2,1.32E2,3.76E2],"tree_param":{"num_deleted":"0","num_feature":"29","num_nodes":"57","size_leaf_vector":"1"}},{"base_weights":[-1.4792154E-5,-1.1326828E-2,1.1174893E-2,-3.8266845E-2,-2.5191796E-3,1.7141191E-2,-1.5238877E-2,-1.4258857E-2,-9.544157E-2,7.695242E-2,-6.18396E-3,1.822918E-2,-8.258985E-3,-5.8297418E-2,5.776409E-2,7.991686E-2,-1.9797228E-2,-4.5623455E-2,-1.324734E-1,4.2360622E-2,1.027288E-2,-1.0246355E-2,4.54772E-2,1.2364034E-2,5.2837715E-2,-5.0157964E-2,-9.945723E-3,-3.304731E-3,6.524867E-2,7.4629597E-3,1.4755742E-3,6.7745906E-4,-1.975563E-3,-4.4450196E-3,6.3143636E-4,-5.696392E-3,-1.4260567E-2,1.0408171E-3,8.835491E-3,-3.7878743E-4,-5.343246E-3,6.568792E-3,3.9666353E-4,-5.204991E-3,6.982355E-4,3.9299275E-3,9.542802E-5,-2.8359294E-3,3.2976517E-3,2.9045162E-3,9.055865E-3],"categories":[],"categories_nodes":[],"categories_segments":[],"categories_sizes":[],"default_left":[0,0,0,0,0,0,0,0,0,0,0,0,0,0,0,0,0,0,0,0,0,0,0,0,0,0,0,0,0,0,0,0,0,0,0,0,0,0,0,0,0,0,0,0,0,0,0,0,0,0,0],"id":6,"left_children":[1,3,5,7,9,11,13,15,17,19,21,23,-1,25,27,29,31,33,35,37,-1,39,41,43,45,47,-1,-1,49,-1,-1,-1,-1,-1,-1,-1,-1,-1,-1,-1,-1,-1,-1,-1,-1,-1,-1,-1,-1,-1,-1],"loss_changes":[3.5849454E0,3.3417306E0,2.2440624E0,4.7617364E0,3.0920515E0,2.3069975E0,8.251653E0,1.2768455E0,1.8867769E0,2.0716617E0,2.130207E0,2.3432038E0,0E0,1.8796682E0,9.072397E-1,4.7094595E-1,1.5191109E0,1.107831E0,1.6330814E0,1.0672705E0,0E0,2.426996E0,2.3854373E0,1.8423607E0,2.1947875E0,1.1936111E0,0E0,0E0,7.517228E-1,0E0,0E0,0E0,0E0,0E0,0E0,0E0,0E0,0E0,0E0,0E0,0E0,0E0,0E0,0E0,0E0,0E0,0E0,0E0,0E0,0E0,0E0],"parents":[2147483647,0,0,1,1,2,2,3,3,4,4,5,5,6,6,7,7,8,8,9,9,10,10,11,11,13,13,14,14,15,15,16,16,17,17,18,18,19,19,21,21,22,22,23,23,24,24,25,25,28,28],"right_children":[2,4,6,8,10,12,14,16,18,20,22,24,-1,26,28,30,32,34,36,38,-1,40,42,44,46,48,-1,-1,50,-1,-1,-1,-1,-1,-1,-1,-1,-1,-1,-1,-1,-1,-1,-1,-1,-1,-1,-1,-1,-1,-1],"split_conditions":[-1.5817802E-1,5.008853E-3,9.821807E-3,1.8819015E-2,-2.7137983E-1,4.6619204E-1,2.079504E-2,-9.6766815E-2,2.8524881E1,1.327823E-2,2.9788565E-2,7.148051E1,-8.258985E-3,7.1673736E-2,-4.5435328E-2,-9.4301715E-2,1.2818128E-2,-5.5055045E-2,-1.8315263E-1,3.0405074E-2,1.027288E-2,7.808457E-2,-1.2964614E-1,-4.3389942E-2,1.7884787E-2,9.130053E1,-9.945723E-3,-3.304731E-3,1.7970882E-2,7.4629597E-3,1.4755742E-3,6.7745906E-4,-1.975563E-3,-4.4450196E-3,6.3143636E-4,-5.696392E-3,-1.4260567E-2,1.0408171E-3,8.835491E-3,-3.7878743E-4,-5.343246E-3,6.568792E-3,3.9666353E-4,-5.204991E-3,6.982355E-4,3.9299275E-3,9.542802E-5,-2.8359294E-3,3.2976517E-3,2.9045162E-3,9.055865E-3],"split_indices":[10,25,25,17,8,8,17,7,12,25,17,13,0,1,9,2,17,3,10,24,0,8,8,9,26,12,0,0,25,0,0,0,0,0,0,0,0,0,0,0,0,0,0,0,0,0,0,0,0,0,0],"split_type":[0,0,0,0,0,0,0,0,0,0,0,0,0,0,0,0,0,0,0,0,0,0,0,0,0,0,0,0,0,0,0,0,0,0,0,0,0,0,0,0,0,0,0,0,0,0,0,0,0,0,0],"sum_hessian":[2.832E4,1.4083E4,1.4237E4,3.469E3,1.0614E4,1.1614E4,2.623E3,2.444E3,1.025E3,4.67E2,1.0147E4,1.1546E4,6.8E1,1.65E3,9.73E2,1.35E2,2.309E3,4.38E2,5.87E2,3.69E2,9.8E1,9.408E3,7.39E2,9.874E3,1.672E3,1.561E3,8.9E1,5.5E1,9.18E2,5.6E1,7.9E1,8.58E2,1.451E3,2.51E2,1.87E2,5.25E2,6.2E1,3.19E2,5E1,9.156E3,2.52E2,2.24E2,5.15E2,1.33E2,9.741E3,1.11E3,5.62E2,1.478E3,8.3E1,8.66E2,5.2E1],"tree_param":{"num_deleted":"0","num_feature":"29","num_nodes":"51","size_leaf_vector":"1"}},{"base_weights":[2.1550454E-4,-1.3457338E-2,8.532051E-3,5.4895308E-2,-1.6587397E-2,4.4264033E-2,5.7461206E-3,-5.086121E-3,1.2848142E-1,8.111915E-3,-2.4908083E-2,-1.0437842E-2,7.8840554E-2,-1.878524E-2,1.3684366E-2,5.2285302E-2,-7.820615E-3,1.1573379E-2,7.3863775E-2,3.1105135E-2,-2.0532288E-2,-2.782588E-2,8.30869E-2,3.690774E-2,-6.92529E-2,3.5328064E-2,1.4539894E-1,-2.5209073E-2,3.4048192E-2,-1.1408383E-2,1.891405E-2,-3.440901E-3,4.981891E-3,5.858025E-3,4.3811143E-4,7.3364767E-4,5.6842966E-3,-5.751341E-3,-4.1775426E-4,-1.3107493E-3,-7.110532E-3,9.279192E-3,1.3275013E-3,3.6595275E-3,-3.0653027E-3,1.5579948E-4,-5.5424306E-3,-9.349222E-5,6.770103E-3,8.376754E-3,1.4848604E-3,-1.0675158E-3,-6.3364357E-3,7.4409256E-3,-9.5182954E-4,-1.4200535E-3,3.4498312E-3,1.5446509E-3,-3.3339235E-5],"categories":[],"categories_nodes":[],"categories_segments":[],"categories_sizes":[],"default_left":[0,0,0,0,0,0,0,0,0,0,0,0,0,0,0,0,0,0,0,0,0,0,0,0,0,0,0,0,0,0,0,0,0,0,0,0,0,0,0,0,0,0,0,0,0,0,0,0,0,0,0,0,0,0,0,0,0,0,0],"id":7,"left_children":[1,3,5,7,9,11,13,15,17,19,21,23,25,27,29,31,-1,-1,33,35,37,39,41,43,45,47,49,51,53,55,57,-1,-1,-1,-1,-1,-1,-1,-1,-1,-1,-1,-1,-1,-1,-1,-1,-1,-1,-1,-1,-1,-1,-1,-1,-1,-1,-1,-1],"loss_changes":[3.2392817E0,2.3059835E0,1.7630186E0,2.0839674E0,2.117625E0,2.423707E0,3.2003531E0,2.2741272E0,1.1753736E0,1.7110813E0,2.4308457E0,1.3865186E0,2.2683187E0,1.3645401E0,1.6295314E0,1.0964208E0,0E0,0E0,3.9358914E-1,1.9537436E0,1.3303748E0,1.3791561E0,1.1714289E0,9.880053E-1,6.6861784E-1,1.7721837E0,7.889929E-1,1.4008965E0,2.6591878E0,2.9285681E0,2.4101055E0,0E0,0E0,0E0,0E0,0E0,0E0,0E0,0E0,0E0,0E0,0E0,0E0,0E0,0E0,0E0,0E0,0E0,0E0,0E0,0E0,0E0,0E0,0E0,0E0,0E0,0E0,0E0,0E0],"parents":[2147483647,0,0,1,1,2,2,3,3,4,4,5,5,6,6,7,7,8,8,9,9,10,10,11,11,12,12,13,13,14,14,15,15,18,18,19,19,20,20,21,21,22,22,23,23,24,24,25,25,26,26,27,27,28,28,29,29,30,30],"right_children":[2,4,6,8,10,12,14,16,18,20,22,24,26,28,30,32,-1,-1,34,36,38,40,42,44,46,48,50,52,54,56,58,-1,-1,-1,-1,-1,-1,-1,-1,-1,-1,-1,-1,-1,-1,-1,-1,-1,-1,-1,-1,-1,-1,-1,-1,-1,-1,-1,-1],"split_conditions":[-7.111113E-2,-1.3046224E-1,-1.2133197E-1,9.285051E-3,1.929111E-2,1.9113675E-2,-1.5284725E-1,-1.2322539E-2,2.9434147E-1,-1.6590503E-1,3.458792E-2,-9.015469E-2,-1.06313944E-1,1.0091091E-1,-1.7543962E-2,-3.2795718E-1,-7.820615E-3,1.1573379E-2,-7.540263E-2,2.2917103E-2,-1.0126002E-1,4.02212E0,3.3270136E-2,1.721872E-2,9.429215E-1,2.9219255E-2,-6.8315887E-3,5.0064858E-2,-2.0990806E-2,2.2338511E-2,1.3881517E-2,-3.440901E-3,4.981891E-3,5.858025E-3,4.3811143E-4,7.3364767E-4,5.6842966E-3,-5.751341E-3,-4.1775426E-4,-1.3107493E-3,-7.110532E-3,9.279192E-3,1.3275013E-3,3.6595275E-3,-3.0653027E-3,1.5579948E-4,-5.5424306E-3,-9.349222E-5,6.770103E-3,8.376754E-3,1.4848604E-3,-1.0675158E-3,-6.3364357E-3,7.4409256E-3,-9.5182954E-4,-1.4200535E-3,3.4498312E-3,1.5446509E-3,-3.3339235E-5],"split_indices":[5,7,8,11,18,17,10,26,19,5,17,28,22,28,26,8,0,0,27,6,8,21,27,17,21,17,27,18,8,17,24,0,0,0,0,0,0,0,0,0,0,0,0,0,0,0,0,0,0,0,0,0,0,0,0,0,0,0,0],"split_type":[0,0,0,0,0,0,0,0,0,0,0,0,0,0,0,0,0,0,0,0,0,0,0,0,0,0,0,0,0,0,0,0,0,0,0,0,0,0,0,0,0,0,0,0,0,0,0,0,0,0,0,0,0,0,0,0,0,0,0],"sum_hessian":[2.8485E4,1.0773E4,1.7712E4,4.71E2,1.0302E4,1.28E3,1.6432E4,2.6E2,2.11E2,2.596E3,7.706E3,4.96E2,7.84E2,4.017E3,1.2415E4,1.89E2,7.1E1,7.2E1,1.39E2,1.44E3,1.156E3,7.504E3,2.02E2,2.75E2,2.21E2,4.75E2,3.09E2,3.582E3,4.35E2,2.141E3,1.0274E4,5.3E1,1.36E2,8.3E1,5.6E1,1.202E3,2.38E2,1.31E2,1.025E3,7.401E3,1.03E2,7.1E1,1.31E2,2.01E2,7.4E1,8.1E1,1.4E2,3.47E2,1.28E2,2.59E2,5E1,3.452E3,1.3E2,1.37E2,2.98E2,1.768E3,3.73E2,6.374E3,3.9E3],"tree_param":{"num_deleted":"0","num_feature":"29","num_nodes":"59","size_leaf_vector":"1"}},{"base_weights":[-1.3624683E-4,-9.568161E-3,1.0140906E-2,-3.4460057E-2,-7.788432E-4,1.506627E-2,-1.9240107E-2,-1.1710756E-2,-7.8771554E-2,4.9993014E-3,-3.8395613E-2,-1.5885692E-2,1.9700559E-2,-6.076249E-2,4.8427053E-2,3.333213E-2,-2.0951334E-2,7.0492695E-3,-9.014499E-2,4.124469E-2,-1.5623247E-3,-5.9927467E-2,4.402116E-2,2.4670663E-3,-9.077811E-2,1.4603362E-2,4.935869E-2,-5.1023092E-2,-9.80617E-3,7.6072984E-3,3.8106117E-2,4.800174E-3,3.1966568E-4,6.3168694E-4,-2.0894164E-3,-4.9325037E-3,3.5766182E-3,1.3027007E-3,8.671621E-3,3.5703358E-6,-6.199248E-3,-4.626403E-3,-1.2170323E-3,4.7821575E-3,-3.3297527E-3,-4.7610418E-4,6.5663354E-3,1.1826904E-3,-6.2930295E-3,1.5665072E-3,-2.2049109E-4,7.430742E-3,1.6323704E-3,4.1740476E-3,-2.9050445E-3,-4.2841243E-4,3.128193E-3],"categories":[],"categories_nodes":[],"categories_segments":[],"categories_sizes":[],"default_left":[0,0,0,0,0,0,0,0,0,0,0,0,0,0,0,0,0,0,0,0,0,0,0,0,0,0,0,0,0,0,0,0,0,0,0,0,0,0,0,0,0,0,0,0,0,0,0,0,0,0,0,0,0,0,0,0,0],"id":8,"left_children":[1,3,5,7,9,11,13,15,17,19,21,23,25,27,29,31,33,-1,35,37,39,41,43,45,47,49,51,53,-1,-1,55,-1,-1,-1,-1,-1,-1,-1,-1,-1,-1,-1,-1,-1,-1,-1,-1,-1,-1,-1,-1,-1,-1,-1,-1,-1,-1],"loss_changes":[2.7575567E0,3.2453976E0,1.9704016E0,3.9012594E0,2.3832738E0,1.6728275E0,5.495909E0,1.0658114E0,3.2944126E0,2.260626E0,2.5935338E0,2.0880628E0,1.5324793E0,1.5878139E0,7.9063666E-1,7.354816E-1,1.4869285E0,0E0,1.7245283E0,2.9211676E0,1.6098547E0,1.3412032E0,1.7365689E0,1.8875948E0,1.2033291E0,2.7530003E0,2.4616315E0,1.0825052E0,0E0,0E0,7.7450675E-1,0E0,0E0,0E0,0E0,0E0,0E0,0E0,0E0,0E0,0E0,0E0,0E0,0E0,0E0,0E0,0E0,0E0,0E0,0E0,0E0,0E0,0E0,0E0,0E0,0E0,0E0],"parents":[2147483647,0,0,1,1,2,2,3,3,4,4,5,5,6,6,7,7,8,8,9,9,10,10,11,11,12,12,13,13,14,14,15,15,16,16,18,18,19,19,20,20,21,21,22,22,23,23,24,24,25,25,26,26,27,27,30,30],"right_children":[2,4,6,8,10,12,14,16,18,20,22,24,26,28,30,32,34,-1,36,38,40,42,44,46,48,50,52,54,-1,-1,56,-1,-1,-1,-1,-1,-1,-1,-1,-1,-1,-1,-1,-1,-1,-1,-1,-1,-1,-1,-1,-1,-1,-1,-1,-1,-1],"split_conditions":[-1.4788948E-1,5.0313505E-3,1.12423645E-2,1.7806517E-2,1.07242316E-1,-1.7543962E-2,2.105031E-2,-5.4047443E-2,-2.0887513E-2,-3.733938E-1,2.7269183E-2,1.3506098E-1,3.8392004E-1,7.1673736E-2,2.9911436E1,4.612944E-3,1.2602638E-2,7.0492695E-3,4.8267764E-1,1.407742E-2,9.467822E-2,1.7805837E-2,7.869444E-3,6.448357E-1,5.368974E-3,1.4276093E-2,4.668261E-3,3.0370363E1,-9.80617E-3,7.6072984E-3,-9.745253E-4,4.800174E-3,3.1966568E-4,6.3168694E-4,-2.0894164E-3,-4.9325037E-3,3.5766182E-3,1.3027007E-3,8.671621E-3,3.5703358E-6,-6.199248E-3,-4.626403E-3,-1.2170323E-3,4.7821575E-3,-3.3297527E-3,-4.7610418E-4,6.5663354E-3,1.1826904E-3,-6.2930295E-3,1.5665072E-3,-2.2049109E-4,7.430742E-3,1.6323704E-3,4.1740476E-3,-2.9050445E-3,-4.2841243E-4,3.128193E-3],"split_indices":[10,25,25,17,4,26,17,2,23,10,17,8,5,1,12,25,17,0,5,25,8,16,23,11,25,17,25,13,0,0,23,0,0,0,0,0,0,0,0,0,0,0,0,0,0,0,0,0,0,0,0,0,0,0,0,0,0],"split_type":[0,0,0,0,0,0,0,0,0,0,0,0,0,0,0,0,0,0,0,0,0,0,0,0,0,0,0,0,0,0,0,0,0,0,0,0,0,0,0,0,0,0,0,0,0,0,0,0,0,0,0,0,0,0,0,0,0],"sum_hessian":[2.8446E4,1.4833E4,1.3613E4,3.87E3,1.0963E4,1.1659E4,1.954E3,2.558E3,1.312E3,9.504E3,1.459E3,1.518E3,1.0141E4,1.211E3,7.43E2,4.35E2,2.123E3,6.4E1,1.248E3,1.456E3,8.048E3,1.157E3,3.02E2,1.22E3,2.98E2,8.655E3,1.486E3,1.131E3,8E1,6.6E1,6.77E2,1.3E2,3.05E2,8.13E2,1.31E3,1.186E3,6.2E1,1.307E3,1.49E2,7.943E3,1.05E2,6.03E2,5.54E2,2.06E2,9.6E1,1.117E3,1.03E2,7E1,2.28E2,4.604E3,4.051E3,2.13E2,1.273E3,5.6E1,1.075E3,2.33E2,4.44E2],"tree_param":{"num_deleted":"0","num_feature":"29","num_nodes":"57","size_leaf_vector":"1"}},{"base_weights":[5.21567E-4,-1.9057827E-2,4.7699194E-3,-4.089193E-2,1.0046342E-2,1.8427173E-2,-3.2383949E-3,-5.086704E-2,3.231904E-2,-4.38255E-3,5.848878E-2,-7.946062E-2,2.4528598E-2,-8.712166E-3,3.2471366E-2,-1.34115545E-2,-6.2234703E-2,1.7275554E-1,-2.5005179E-2,2.7252357E-3,-8.138304E-3,8.092044E-2,-2.664882E-3,9.902038E-4,-9.0848684E-2,3.9303638E-2,5.8006677E-3,-7.48369E-3,-1.2452723E-1,6.803163E-2,2.8351601E-3,1.2120799E-3,-2.2813573E-3,6.785646E-4,-3.5924637E-3,3.7322862E-3,1.3373901E-2,2.2617145E-3,-5.823759E-3,5.050358E-4,-5.2462975E-3,-2.0616103E-3,5.0215004E-3,-5.520283E-3,-5.703784E-4,-1.4457022E-3,2.2946873E-3,1.8579906E-3,-7.527382E-4,-6.2121777E-4,8.3955016E-4,-1.2335096E-2,-2.202102E-3,-4.2738034E-3,4.0823906E-3,-8.285837E-4,5.7836706E-3],"categories":[],"categories_nodes":[],"categories_segments":[],"categories_sizes":[],"default_left":[0,0,0,0,0,0,0,0,0,0,0,0,0,0,0,0,0,0,0,0,0,0,0,0,0,0,0,0,0,0,0,0,0,0,0,0,0,0,0,0,0,0,0,0,0,0,0,0,0,0,0,0,0,0,0,0,0],"id":9,"left_children":[1,3,5,7,9,11,13,15,17,19,21,23,25,27,29,31,33,35,37,39,-1,41,-1,-1,43,45,47,49,51,53,55,-1,-1,-1,-1,-1,-1,-1,-1,-1,-1,-1,-1,-1,-1,-1,-1,-1,-1,-1,-1,-1,-1,-1,-1,-1,-1],"loss_changes":[2.3653188E0,3.2222104E0,2.555636E0,2.1172867E0,1.5198187E0,5.1604404E0,2.8795128E0,1.084907E0,2.8058639E0,1.8872108E0,1.2555827E0,5.749285E-1,2.2496681E0,1.816359E0,2.0632868E0,7.228521E-1,1.42659E0,9.186473E-1,1.59862E0,1.2753963E0,0E0,9.9552894E-1,0E0,0E0,7.056415E-1,2.0445852E0,2.346488E0,1.5161636E0,1.3067906E0,1.8672457E0,2.3428483E0,0E0,0E0,0E0,0E0,0E0,0E0,0E0,0E0,0E0,0E0,0E0,0E0,0E0,0E0,0E0,0E0,0E0,0E0,0E0,0E0,0E0,0E0,0E0,0E0,0E0,0E0],"parents":[2147483647,0,0,1,1,2,2,3,3,4,4,5,5,6,6,7,7,8,8,9,9,10,10,11,11,12,12,13,13,14,14,15,15,16,16,17,17,18,18,19,19,21,21,24,24,25,25,26,26,27,27,28,28,29,29,30,30],"right_children":[2,4,6,8,10,12,14,16,18,20,22,24,26,28,30,32,34,36,38,40,-1,42,-1,-1,44,46,48,50,52,54,56,-1,-1,-1,-1,-1,-1,-1,-1,-1,-1,-1,-1,-1,-1,-1,-1,-1,-1,-1,-1,-1,-1,-1,-1,-1,-1],"split_conditions":[5.881407E-1,5.6090835E-3,2.191462E-2,3.744288E-1,3.7826996E-2,-2.0714886E-2,4.11441E-2,1.3223926E-2,4.6724407E-3,1.5721133E-1,1.2003987E-2,-5.3348756E-1,5.216452E-3,4.02212E0,-7.04448E-2,-6.096826E-1,-1.7578304E0,-2.5837116E-2,1.1504987E-2,4.185427E-2,-8.138304E-3,-1.7944506E-1,-2.664882E-3,9.902038E-4,6.362243E-1,-2.38125E-1,8.756759E-2,2.915867E-1,-1.9605982E-1,9.243815E0,2.8461203E-1,1.2120799E-3,-2.2813573E-3,6.785646E-4,-3.5924637E-3,3.7322862E-3,1.3373901E-2,2.2617145E-3,-5.823759E-3,5.050358E-4,-5.2462975E-3,-2.0616103E-3,5.0215004E-3,-5.520283E-3,-5.703784E-4,-1.4457022E-3,2.2946873E-3,1.8579906E-3,-7.527382E-4,-6.2121777E-4,8.3955016E-4,-1.2335096E-2,-2.202102E-3,-4.2738034E-3,4.0823906E-3,-8.285837E-4,5.7836706E-3],"split_indices":[21,25,18,5,9,26,18,17,25,8,25,22,25,21,8,22,14,27,26,18,0,5,0,0,14,5,14,5,5,12,8,0,0,0,0,0,0,0,0,0,0,0,0,0,0,0,0,0,0,0,0,0,0,0,0,0,0],"split_type":[0,0,0,0,0,0,0,0,0,0,0,0,0,0,0,0,0,0,0,0,0,0,0,0,0,0,0,0,0,0,0,0,0,0,0,0,0,0,0,0,0,0,0,0,0,0,0,0,0,0,0,0,0,0,0,0,0],"sum_hessian":[2.8434E4,5.069E3,2.3365E4,2.896E3,2.173E3,8.636E3,1.4729E4,2.549E3,3.47E2,1.675E3,4.98E2,5.06E2,8.13E3,1.2772E4,1.957E3,5.94E2,1.955E3,1E2,2.47E2,1.604E3,7.1E1,4.15E2,8.3E1,5.2E1,4.54E2,4.544E3,3.586E3,1.2639E4,1.33E2,8.89E2,1.068E3,2.74E2,3.2E2,2.2E2,1.735E3,5E1,5E1,1.4E2,1.07E2,1.502E3,1.02E2,5.7E1,3.58E2,3.64E2,9E1,4E2,4.144E3,1.432E3,2.154E3,1.0502E4,2.137E3,5.2E1,8.1E1,7.2E1,8.17E2,9.12E2,1.56E2],"tree_param":{"num_deleted":"0","num_feature":"29","num_nodes":"57","size_leaf_vector":"1"}},{"base_weights":[-2.2946575E-4,-3.0274296E-3,2.8064923E-2,1.05959335E-2,-1.2305886E-2,1.7565219E-2,1.04224384E-1,-5.9740555E-2,1.4567191E-2,-1.8649317E-2,1.8357905E-2,2.5305951E-2,-9.223129E-2,-6.987545E-4,1.455778E-1,-7.476298E-2,9.169606E-4,-2.3838047E-2,2.2108156E-2,-4.7481805E-2,-1.0839556E-2,4.0975858E-2,-2.0756193E-2,1.8789979E-2,8.355371E-3,4.2538726E-4,-9.654264E-3,2.3703668E-3,1.7273489E-1,-2.3657093E-3,-6.348992E-3,-1.4656853E-3,6.230227E-3,1.783691E-3,2.7457846E-4,-1.6469129E-3,-7.1183867E-3,9.87885E-4,-9.329132E-4,-5.432127E-4,3.3522905E-3,-8.713764E-3,1.3588955E-4,6.3755416E-4,7.840695E-3,1.0712195E-2,5.683012E-3],"categories":[],"categories_nodes":[],"categories_segments":[],"categories_sizes":[],"default_left":[0,0,0,0,0,0,0,0,0,0,0,0,0,0,0,0,0,0,0,0,0,0,0,0,0,0,0,0,0,0,0,0,0,0,0,0,0,0,0,0,0,0,0,0,0,0,0],"id":10,"left_children":[1,3,5,7,9,11,13,15,17,19,21,23,25,-1,27,29,-1,31,33,35,37,39,41,43,-1,-1,-1,-1,45,-1,-1,-1,-1,-1,-1,-1,-1,-1,-1,-1,-1,-1,-1,-1,-1,-1,-1],"loss_changes":[2.2450933E0,3.2622328E0,2.0388808E0,2.921485E0,2.9865158E0,1.9095218E0,1.5124116E0,6.5704894E-1,2.8671126E0,2.8639345E0,2.3293304E0,1.9344344E0,1.505313E0,0E0,6.023307E-1,6.662049E-1,0E0,1.3244864E0,1.8648877E0,3.7364311E0,2.39531E0,2.2549794E0,3.4780486E0,1.6700256E0,0E0,0E0,0E0,0E0,4.1458035E-1,0E0,0E0,0E0,0E0,0E0,0E0,0E0,0E0,0E0,0E0,0E0,0E0,0E0,0E0,0E0,0E0,0E0,0E0],"parents":[2147483647,0,0,1,1,2,2,3,3,4,4,5,5,6,6,7,7,8,8,9,9,10,10,11,11,12,12,14,14,15,15,17,17,18,18,19,19,20,20,21,21,22,22,23,23,28,28],"right_children":[2,4,6,8,10,12,14,16,18,20,22,24,26,-1,28,30,-1,32,34,36,38,40,42,44,-1,-1,-1,-1,46,-1,-1,-1,-1,-1,-1,-1,-1,-1,-1,-1,-1,-1,-1,-1,-1,-1,-1],"split_conditions":[4.0060863E-2,2.2067057E-2,1.6051635E-2,-2.0714886E-2,5.152232E-1,1.752726E0,2.2687253E-2,3.982735E-2,5.795072E-1,5.0313505E-3,8.046478E-1,1.1976446E0,-1.338027E-1,-6.987545E-4,8.235527E-1,-1.4497246E-2,9.169606E-4,4.1515517E-1,5.216452E-3,2.2043232E-2,-1.0396769E-1,4.0250476E-3,2.3025072E-1,1.5464397E-1,8.355371E-3,4.2538726E-4,-9.654264E-3,2.3703668E-3,4.897369E-2,-2.3657093E-3,-6.348992E-3,-1.4656853E-3,6.230227E-3,1.783691E-3,2.7457846E-4,-1.6469129E-3,-7.1183867E-3,9.87885E-4,-9.329132E-4,-5.432127E-4,3.3522905E-3,-8.713764E-3,1.3588955E-4,6.3755416E-4,7.840695E-3,1.0712195E-2,5.683012E-3],"split_indices":[18,18,25,26,11,14,17,3,21,25,11,11,10,0,21,6,0,5,25,17,28,9,5,2,0,0,0,0,18,0,0,0,0,0,0,0,0,0,0,0,0,0,0,0,0,0,0],"split_type":[0,0,0,0,0,0,0,0,0,0,0,0,0,0,0,0,0,0,0,0,0,0,0,0,0,0,0,0,0,0,0,0,0,0,0,0,0,0,0,0,0,0,0,0,0,0,0],"sum_hessian":[2.8357E4,2.5806E4,2.551E3,1.0455E4,1.5351E4,2.243E3,3.08E2,5.58E2,9.897E3,1.272E4,2.631E3,2.096E3,1.47E2,8E1,2.28E2,4.68E2,9E1,1.624E3,8.273E3,2.71E3,1.001E4,1.667E3,9.64E2,2.005E3,9.1E1,7.4E1,7.3E1,5E1,1.78E2,3.08E2,1.6E2,1.567E3,5.7E1,4.554E3,3.719E3,2.351E3,3.59E2,2.037E3,7.973E3,5.58E2,1.109E3,1.27E2,8.37E2,1.922E3,8.3E1,1.03E2,7.5E1],"tree_param":{"num_deleted":"0","num_feature":"29","num_nodes":"47","size_leaf_vector":"1"}},{"base_weights":[6.661036E-4,-8.919142E-3,1.07244495E-2,-2.8894909E-2,8.937471E-4,1.5565612E-2,-2.5697049E-2,-1.6483212E-2,-1.01996064E-1,-1.2347844E-2,2.083279E-2,1.6558591E-2,-6.379845E-3,-6.816314E-2,4.868026E-2,-5.286415E-2,-4.9885614E-3,-1.1536515E-1,3.414855E-3,1.1174085E-2,-3.4442943E-2,6.3591994E-2,4.2876997E-3,1.36542935E-2,6.2288415E-2,-5.2803192E-2,-1.4000376E-1,3.2733507E-2,7.1425005E-3,-1.973075E-3,-7.8657465E-3,4.886952E-3,-5.177529E-4,-7.0155147E-3,-1.5577154E-3,2.3157212E-3,-6.742924E-4,-1.397289E-3,-5.317372E-3,1.3401826E-3,4.933437E-3,9.0399495E-4,-2.5456722E-3,1.2582876E-3,1.355468E-4,2.2361621E-4,5.032228E-3,-5.407262E-3,-4.7988948E-4,-2.7595644E-3,-1.0895664E-2,4.596448E-3,5.3170395E-5],"categories":[],"categories_nodes":[],"categories_segments":[],"categories_sizes":[],"default_left":[0,0,0,0,0,0,0,0,0,0,0,0,0,0,0,0,0,0,0,0,0,0,0,0,0,0,0,0,0,0,0,0,0,0,0,0,0,0,0,0,0,0,0,0,0,0,0,0,0,0,0,0,0],"id":11,"left_children":[1,3,5,7,9,11,13,15,17,19,21,23,-1,25,27,29,31,33,-1,35,37,39,41,43,45,47,49,51,-1,-1,-1,-1,-1,-1,-1,-1,-1,-1,-1,-1,-1,-1,-1,-1,-1,-1,-1,-1,-1,-1,-1,-1,-1],"loss_changes":[2.725848E0,2.837807E0,2.4329436E0,4.3252764E0,2.5636728E0,1.7333059E0,5.116951E0,1.7050995E0,1.5833321E0,3.0329468E0,2.741115E0,1.6055236E0,0E0,1.1302834E0,8.798263E-1,1.364311E0,1.7100025E0,1.3442459E0,0E0,2.4503849E0,1.4027581E0,1.3922944E0,2.1288803E0,1.4327598E0,1.6006584E0,2.033767E0,1.1839666E0,9.466387E-1,0E0,0E0,0E0,0E0,0E0,0E0,0E0,0E0,0E0,0E0,0E0,0E0,0E0,0E0,0E0,0E0,0E0,0E0,0E0,0E0,0E0,0E0,0E0,0E0,0E0],"parents":[2147483647,0,0,1,1,2,2,3,3,4,4,5,5,6,6,7,7,8,8,9,9,10,10,11,11,13,13,14,14,15,15,16,16,17,17,19,19,20,20,21,21,22,22,23,23,24,24,25,25,26,26,27,27],"right_children":[2,4,6,8,10,12,14,16,18,20,22,24,-1,26,28,30,32,34,-1,36,38,40,42,44,46,48,50,52,-1,-1,-1,-1,-1,-1,-1,-1,-1,-1,-1,-1,-1,-1,-1,-1,-1,-1,-1,-1,-1,-1,-1,-1,-1],"split_conditions":[-1.5284725E-1,5.214045E-3,1.1429706E-2,2.2236278E-2,2.055416E-2,4.6619204E-1,2.105031E-2,5.840759E-1,4.5809305E-1,6.5994384E-3,1.3112605E-1,5.8101404E-1,-6.379845E-3,1.5406423E-2,-1.5135874E-2,6.122449E-2,-1.0697413E-1,2.9219255E-2,3.414855E-3,-5.8680464E-2,1.17387116E-1,1.1429706E-2,1.9216655E-2,1.4276093E-2,3.0622741E-2,1.2559424E-2,2.4939157E-2,5.35169E1,7.1425005E-3,-1.973075E-3,-7.8657465E-3,4.886952E-3,-5.177529E-4,-7.0155147E-3,-1.5577154E-3,2.3157212E-3,-6.742924E-4,-1.397289E-3,-5.317372E-3,1.3401826E-3,4.933437E-3,9.0399495E-4,-2.5456722E-3,1.2582876E-3,1.355468E-4,2.2361621E-4,5.032228E-3,-5.407262E-3,-4.7988948E-4,-2.7595644E-3,-1.0895664E-2,4.596448E-3,5.3170395E-5],"split_indices":[10,25,25,17,17,8,17,21,5,25,11,5,0,25,10,4,7,17,0,4,4,25,23,17,18,25,27,12,0,0,0,0,0,0,0,0,0,0,0,0,0,0,0,0,0,0,0,0,0,0,0,0,0],"split_type":[0,0,0,0,0,0,0,0,0,0,0,0,0,0,0,0,0,0,0,0,0,0,0,0,0,0,0,0,0,0,0,0,0,0,0,0,0,0,0,0,0,0,0,0,0,0,0,0,0,0,0,0,0],"sum_hessian":[2.8271E4,1.4476E4,1.3795E4,4.768E3,9.708E3,1.2177E4,1.618E3,4.077E3,6.91E2,5.834E3,3.874E3,1.2094E4,8.3E1,1.03E3,5.88E2,9.78E2,3.099E3,6.41E2,5E1,2.826E3,3.008E3,1.08E3,2.794E3,1.1373E4,7.21E2,8.5E2,1.8E2,5.04E2,8.4E1,8.68E2,1.1E2,1.53E2,2.946E3,4.94E2,1.47E2,1.165E3,1.661E3,2.76E3,2.48E2,5.28E2,5.52E2,2.236E3,5.58E2,5.542E3,5.831E3,2.88E2,4.33E2,3.72E2,4.78E2,8.7E1,9.3E1,1.75E2,3.29E2],"tree_param":{"num_deleted":"0","num_feature":"29","num_nodes":"53","size_leaf_vector":"1"}},{"base_weights":[-1.7437801E-3,-1.949322E-2,2.1813295E-3,-2.1834375E-2,8.069519E-3,1.3572735E-2,-4.5000403E-3,-2.9896928E-2,9.523753E-3,-6.3004844E-2,1.8235832E-2,-1.18994275E-2,1.8320272E-2,-4.279246E-2,-3.7560908E-3,3.0098058E-2,-4.9710583E-2,-7.658432E-2,7.030656E-4,1.9326067E-2,-7.2545917E-3,5.2725248E-2,-1.5872056E-2,8.268401E-2,1.37789305E-2,-1.741967E-3,-5.0857603E-3,-4.014458E-3,9.4963063E-4,5.0319918E-3,2.168531E-4,6.401494E-5,-6.2285666E-3,-2.3288105E-3,-6.009172E-3,4.1640163E-4,1.6051912E-3,1.0402917E-3,6.090385E-3,-9.840868E-4,1.2882908E-3,9.570084E-3,1.1967007E-3,-5.2295527E-3,9.171415E-4],"categories":[],"categories_nodes":[],"categories_segments":[],"categories_sizes":[],"default_left":[0,0,0,0,0,0,0,0,0,0,0,0,0,0,0,0,0,0,0,0,0,0,0,0,0,0,0,0,0,0,0,0,0,0,0,0,0,0,0,0,0,0,0,0,0],"id":12,"left_children":[1,3,5,7,-1,9,11,13,15,17,19,21,23,25,27,29,31,33,-1,35,-1,37,39,41,43,-1,-1,-1,-1,-1,-1,-1,-1,-1,-1,-1,-1,-1,-1,-1,-1,-1,-1,-1,-1],"loss_changes":[1.9835745E0,2.1869693E0,1.7746464E0,1.2874246E0,0E0,3.0792537E0,2.4818995E0,1.3650942E0,1.2713872E0,5.1910305E-1,1.4497633E0,2.8502805E0,1.0508397E0,1.267353E0,2.3327615E0,1.4060969E0,1.0269905E0,5.45208E-1,0E0,1.1342328E0,0E0,1.4153264E0,1.6592693E0,1.5091764E0,1.8187072E0,0E0,0E0,0E0,0E0,0E0,0E0,0E0,0E0,0E0,0E0,0E0,0E0,0E0,0E0,0E0,0E0,0E0,0E0,0E0,0E0],"parents":[2147483647,0,0,1,1,2,2,3,3,5,5,6,6,7,7,8,8,9,9,10,10,11,11,12,12,13,13,14,14,15,15,16,16,17,17,19,19,21,21,22,22,23,23,24,24],"right_children":[2,4,6,8,-1,10,12,14,16,18,20,22,24,26,28,30,32,34,-1,36,-1,38,40,42,44,-1,-1,-1,-1,-1,-1,-1,-1,-1,-1,-1,-1,-1,-1,-1,-1,-1,-1,-1,-1],"split_conditions":[5.881407E-1,4.398058E-1,2.191462E-2,2.6033618E-2,8.069519E-3,-2.0714886E-2,2.2658052E-1,6.203989E-2,6.276628E-2,8.549088E-2,7.2497E-2,-2.3055045E-1,-1.03876576E-1,8.0199584E-2,-2.4858747E-2,-7.598578E-3,1.925948E-2,-8.9604527E-1,7.030656E-4,6.650412E-3,-7.2545917E-3,-2.2713554E-1,4.2232696E-2,-1.3501868E-1,-2.0000002E-1,-1.741967E-3,-5.0857603E-3,-4.014458E-3,9.4963063E-4,5.0319918E-3,2.168531E-4,6.401494E-5,-6.2285666E-3,-2.3288105E-3,-6.009172E-3,4.1640163E-4,1.6051912E-3,1.0402917E-3,6.090385E-3,-9.840868E-4,1.2882908E-3,9.570084E-3,1.1967007E-3,-5.2295527E-3,9.171415E-4],"split_indices":[21,28,18,26,0,26,5,5,8,27,24,4,2,28,4,0,16,14,0,5,0,8,18,4,4,0,0,0,0,0,0,0,0,0,0,0,0,0,0,0,0,0,0,0,0],"split_type":[0,0,0,0,0,0,0,0,0,0,0,0,0,0,0,0,0,0,0,0,0,0,0,0,0,0,0,0,0,0,0,0,0,0,0,0,0,0,0,0,0,0,0,0,0],"sum_hessian":[2.847E4,5.155E3,2.3315E4,5.09E3,6.5E1,8.619E3,1.4696E4,4.049E3,1.041E3,4.94E2,8.125E3,1.1098E4,3.598E3,2.711E3,1.338E3,7.73E2,2.68E2,4.2E2,7.4E1,8.072E3,5.3E1,6.42E2,1.0456E4,2.36E2,3.362E3,2.39E3,3.21E2,3.06E2,1.032E3,2.06E2,5.67E2,1.6E2,1.08E2,2.5E2,1.7E2,4.339E3,3.733E3,4.4E2,2.02E2,9.58E3,8.76E2,8.2E1,1.54E2,1.24E2,3.238E3],"tree_param":{"num_deleted":"0","num_feature":"29","num_nodes":"45","size_leaf_vector":"1"}},{"base_weights":[-1.0159197E-3,-6.6172816E-3,1.4613196E-2,2.9745987E-3,-1.7324278E-2,5.769495E-3,4.5002807E-2,-2.2229863E-2,1.3944217E-2,-6.7835875E-2,-1.0364589E-2,1.4821964E-2,-4.35583E-2,6.869193E-2,-9.330069E-3,-3.2512657E-2,3.36083E-2,7.4440375E-2,1.0147174E-2,-1.03290506E-1,-2.4361966E-2,-1.4607652E-2,4.9992744E-2,2.3481727E-2,-3.4864303E-2,-9.8760845E-3,-3.0552294E-2,5.8226254E-2,1.6483386E-1,8.1530556E-2,-4.0302493E-2,-2.6107647E-3,-4.5486476E-4,3.561318E-3,-7.713327E-4,2.7787308E-3,9.869963E-3,1.6523887E-3,1.06076295E-4,2.5800953E-3,-5.93038E-3,4.5961002E-4,-6.7783454E-3,-8.338241E-3,-6.75566E-4,4.0785195E-3,-1.653254E-3,-1.4567052E-3,1.5108687E-3,6.0117315E-3,-3.116281E-3,5.210957E-4,-3.023703E-3,3.985127E-3,-5.986503E-6,4.1379347E-3,1.280079E-2,7.145983E-3,2.030425E-3,-9.956846E-4,-7.396821E-3],"categories":[],"categories_nodes":[],"categories_segments":[],"categories_sizes":[],"default_left":[0,0,0,0,0,0,0,0,0,0,0,0,0,0,0,0,0,0,0,0,0,0,0,0,0,0,0,0,0,0,0,0,0,0,0,0,0,0,0,0,0,0,0,0,0,0,0,0,0,0,0,0,0,0,0,0,0,0,0,0,0],"id":13,"left_children":[1,3,5,7,9,11,13,15,17,19,21,23,25,27,29,31,33,35,37,39,41,43,45,47,49,-1,51,53,55,57,59,-1,-1,-1,-1,-1,-1,-1,-1,-1,-1,-1,-1,-1,-1,-1,-1,-1,-1,-1,-1,-1,-1,-1,-1,-1,-1,-1,-1,-1,-1],"loss_changes":[2.4879315E0,2.148643E0,2.0148776E0,3.0515802E0,3.4746714E0,2.5945868E0,2.175837E0,1.9228472E0,1.7656873E0,1.8424816E0,2.2262392E0,2.1130204E0,1.7981712E0,1.1746883E0,1.4497713E0,1.3037455E0,9.621352E-1,1.0421791E0,1.3300338E0,1.5695977E0,2.012465E0,1.352282E0,1.5002991E0,1.4826334E0,3.1124659E0,0E0,1.0206794E0,1.3320072E0,8.394463E-1,3.232903E-1,8.397524E-1,0E0,0E0,0E0,0E0,0E0,0E0,0E0,0E0,0E0,0E0,0E0,0E0,0E0,0E0,0E0,0E0,0E0,0E0,0E0,0E0,0E0,0E0,0E0,0E0,0E0,0E0,0E0,0E0,0E0,0E0],"parents":[2147483647,0,0,1,1,2,2,3,3,4,4,5,5,6,6,7,7,8,8,9,9,10,10,11,11,12,12,13,13,14,14,15,15,16,16,17,17,18,18,19,19,20,20,21,21,22,22,23,23,24,24,26,26,27,27,28,28,29,29,30,30],"right_children":[2,4,6,8,10,12,14,16,18,20,22,24,26,28,30,32,34,36,38,40,42,44,46,48,50,-1,52,54,56,58,60,-1,-1,-1,-1,-1,-1,-1,-1,-1,-1,-1,-1,-1,-1,-1,-1,-1,-1,-1,-1,-1,-1,-1,-1,-1,-1,-1,-1,-1,-1],"split_conditions":[-7.271225E-2,-3.3217184E-2,8.873449E-2,6.8441236E-1,-2.313348E-1,3.035025E-2,1.7113065E0,3.035025E-2,1.4859557E-2,2.4035476E-2,4.9619985E-1,1.9959949E-1,-7.888512E-3,6.946835E-1,2.3611493E-2,5.2634915E-3,1.4909859E-1,6.3766914E1,-3.2802677E-1,-1.4847326E-1,1.3019814E0,-1.7290637E-1,1.9769531E-1,-1.7543962E-2,-2.7542114E-3,-9.8760845E-3,1.5102759E-1,2.5894126E-1,7.983386E-3,8.420782E-3,1.1325296E0,-2.6107647E-3,-4.5486476E-4,3.561318E-3,-7.713327E-4,2.7787308E-3,9.869963E-3,1.6523887E-3,1.06076295E-4,2.5800953E-3,-5.93038E-3,4.5961002E-4,-6.7783454E-3,-8.338241E-3,-6.75566E-4,4.0785195E-3,-1.653254E-3,-1.4567052E-3,1.5108687E-3,6.0117315E-3,-3.116281E-3,5.210957E-4,-3.023703E-3,3.985127E-3,-5.986503E-6,4.1379347E-3,1.280079E-2,7.145983E-3,2.030425E-3,-9.956846E-4,-7.396821E-3],"split_indices":[10,28,27,21,5,26,14,26,18,9,5,4,9,5,18,25,11,13,10,8,14,8,8,26,3,0,5,28,25,0,11,0,0,0,0,0,0,0,0,0,0,0,0,0,0,0,0,0,0,0,0,0,0,0,0,0,0,0,0,0,0],"split_type":[0,0,0,0,0,0,0,0,0,0,0,0,0,0,0,0,0,0,0,0,0,0,0,0,0,0,0,0,0,0,0,0,0,0,0,0,0,0,0,0,0,0,0,0,0,0,0,0,0,0,0,0,0,0,0,0,0,0,0,0,0],"sum_hessian":[2.8417E4,2.092E4,7.497E3,1.1035E4,9.885E3,5.808E3,1.689E3,3.346E3,7.689E3,1.196E3,8.689E3,4.908E3,9E2,1.176E3,5.13E2,2.826E3,5.2E2,4.53E2,7.236E3,6.58E2,5.38E2,8.119E3,5.7E2,4.18E3,7.28E2,6.9E1,8.31E2,1.062E3,1.14E2,1.3E2,3.83E2,1.534E3,1.292E3,2.94E2,2.26E2,3.94E2,5.9E1,1.877E3,5.359E3,5.9E1,5.99E2,4.14E2,1.24E2,5.7E1,8.062E3,4.13E2,1.57E2,4.74E2,3.706E3,1.09E2,6.19E2,3.51E2,4.8E2,7.76E2,2.86E2,6.1E1,5.3E1,5.1E1,7.9E1,3.23E2,6E1],"tree_param":{"num_deleted":"0","num_feature":"29","num_nodes":"61","size_leaf_vector":"1"}},{"base_weights":[-5.5524906E-6,1.0620755E-2,-6.0991277E-3,-4.3952476E-2,1.4995053E-2,-1.616767E-2,9.162053E-3,-6.641368E-2,3.571303E-2,1.3741689E-2,1.1234081E-2,1.18974246E-1,-1.8141152E-2,-1.661176E-2,3.9744608E-2,-1.6981848E-2,-1.17973514E-1,5.776727E-3,-8.876294E-3,2.7611457E-2,2.1096934E-3,3.1115173E-3,1.0483652E-2,-1.4827941E-2,-1.0224562E-1,-7.5498566E-2,-7.5516594E-4,8.393404E-2,2.884958E-2,-2.223717E-3,3.5277442E-3,-3.8179096E-3,-9.197797E-3,1.7956607E-3,-2.7994867E-3,-2.2101829E-4,2.0399706E-3,6.7606254E-4,-1.3514734E-3,-1.4339164E-3,-1.8500547E-4,-1.5313934E-3,-8.847423E-3,-3.0707258E-3,-1.3811628E-2,2.3793036E-3,-7.5745804E-4,-2.0752451E-3,4.722823E-3,2.40775E-3,-2.3548666E-4],"categories":[],"categories_nodes":[],"categories_segments":[],"categories_sizes":[],"default_left":[0,0,0,0,0,0,0,0,0,0,0,0,0,0,0,0,0,0,0,0,0,0,0,0,0,0,0,0,0,0,0,0,0,0,0,0,0,0,0,0,0,0,0,0,0,0,0,0,0,0,0],"id":14,"left_children":[1,3,5,7,9,11,13,15,17,19,-1,21,23,25,27,29,31,-1,33,35,37,-1,-1,39,41,43,45,47,49,-1,-1,-1,-1,-1,-1,-1,-1,-1,-1,-1,-1,-1,-1,-1,-1,-1,-1,-1,-1,-1,-1],"loss_changes":[1.8429772E0,2.4768977E0,2.7796648E0,1.3801966E0,2.5209763E0,2.9089227E0,5.6688156E0,1.5297635E0,6.060874E-1,1.5403503E0,0E0,7.949686E-1,2.9920835E0,3.6443467E0,1.5810513E0,7.4437153E-1,7.93242E-1,0E0,2.3413141E-1,1.8398812E0,1.7274909E0,0E0,0E0,1.5930815E0,2.1720505E0,2.3239126E0,2.141074E0,8.6186934E-1,1.7106214E0,0E0,0E0,0E0,0E0,0E0,0E0,0E0,0E0,0E0,0E0,0E0,0E0,0E0,0E0,0E0,0E0,0E0,0E0,0E0,0E0,0E0,0E0],"parents":[2147483647,0,0,1,1,2,2,3,3,4,4,5,5,6,6,7,7,8,8,9,9,11,11,12,12,13,13,14,14,15,15,16,16,18,18,19,19,20,20,23,23,24,24,25,25,26,26,27,27,28,28],"right_children":[2,4,6,8,10,12,14,16,18,20,-1,22,24,26,28,30,32,-1,34,36,38,-1,-1,40,42,44,46,48,50,-1,-1,-1,-1,-1,-1,-1,-1,-1,-1,-1,-1,-1,-1,-1,-1,-1,-1,-1,-1,-1,-1],"split_conditions":[2.191462E-2,-1.8176617E-2,2.0638296E-2,3.982735E-2,9.457246E-2,-9.425586E-2,9.702019E-3,-4.013159E-2,1.3400819E-2,5.105133E-3,1.1234081E-2,-2.913835E-1,1.5406423E-2,-1.7656788E-1,1.1995612E-1,-4.629916E-3,4.379562E-1,5.776727E-3,-5.2135333E-4,-1.905695E-1,8.764255E-2,3.1115173E-3,1.0483652E-2,-4.4157733E-3,-3.867124E-2,6.389836E-2,2.1943826E-2,-1.4129849E-1,1.3072818E-2,-2.223717E-3,3.5277442E-3,-3.8179096E-3,-9.197797E-3,1.7956607E-3,-2.7994867E-3,-2.2101829E-4,2.0399706E-3,6.7606254E-4,-1.3514734E-3,-1.4339164E-3,-1.8500547E-4,-1.5313934E-3,-8.847423E-3,-3.0707258E-3,-1.3811628E-2,2.3793036E-3,-7.5745804E-4,-2.0752451E-3,4.722823E-3,2.40775E-3,-2.3548666E-4],"split_indices":[18,23,17,3,9,9,25,4,4,25,0,10,25,5,11,3,19,0,0,10,4,0,0,9,9,9,17,27,25,0,0,0,0,0,0,0,0,0,0,0,0,0,0,0,0,0,0,0,0,0,0],"split_type":[0,0,0,0,0,0,0,0,0,0,0,0,0,0,0,0,0,0,0,0,0,0,0,0,0,0,0,0,0,0,0,0,0,0,0,0,0,0,0,0,0,0,0,0,0,0,0,0,0,0,0],"sum_hessian":[2.846E4,1.0372E4,1.8088E4,7.69E2,9.603E3,1.0898E4,7.19E3,6E2,1.69E2,9.547E3,5.6E1,1.56E2,1.0742E4,3.902E3,3.288E3,3.07E2,2.93E2,6E1,1.09E2,4.354E3,5.193E3,9.7E1,5.9E1,1.0336E4,4.06E2,8.27E2,3.075E3,6.49E2,2.639E3,2.34E2,7.3E1,1.81E2,1.12E2,5.6E1,5.3E1,1.27E3,3.084E3,3.732E3,1.461E3,4.604E3,5.732E3,2.08E2,1.98E2,7.74E2,5.3E1,7.05E2,2.37E3,5E1,5.99E2,1.675E3,9.64E2],"tree_param":{"num_deleted":"0","num_feature":"29","num_nodes":"51","size_leaf_vector":"1"}},{"base_weights":[-2.0588296E-4,-8.272224E-3,8.510005E-3,4.2043436E-2,-1.14697805E-2,3.67016E-3,3.4305125E-2,7.077553E-2,-4.9230203E-2,-2.8961597E-2,-5.1682475E-3,1.2671336E-2,-1.108576E-2,6.0278025E-2,2.1395788E-3,3.7553214E-2,1.323951E-1,1.2920791E-2,-8.265401E-3,-8.755167E-3,-6.705376E-2,2.3813546E-2,-1.2916461E-2,-3.740656E-2,1.706341E-2,5.7251463E-3,-2.576979E-2,-1.712192E-2,7.984879E-2,-3.8226534E-2,2.930269E-2,2.959265E-3,-6.3878307E-3,1.9093031E-3,9.325726E-3,4.2385794E-3,-5.263338E-3,-5.200281E-3,-1.4555354E-4,1.0567876E-3,-4.7164545E-3,-4.0793755E-5,2.8469765E-3,-7.895965E-4,4.481331E-3,-6.1453073E-3,-1.2966635E-3,9.579168E-4,-3.1478552E-3,1.920397E-3,-3.6490153E-4,-2.4468882E-3,1.9191726E-5,-6.000739E-3,8.7291125E-4,4.6498887E-3,-1.2553133E-3,3.226975E-3,-4.29944E-3,2.8411609E-3,-2.210639E-3],"categories":[],"categories_nodes":[],"categories_segments":[],"categories_sizes":[],"default_left":[0,0,0,0,0,0,0,0,0,0,0,0,0,0,0,0,0,0,0,0,0,0,0,0,0,0,0,0,0,0,0,0,0,0,0,0,0,0,0,0,0,0,0,0,0,0,0,0,0,0,0,0,0,0,0,0,0,0,0,0,0],"id":15,"left_children":[1,3,5,7,9,11,13,15,17,19,21,23,25,27,29,31,33,35,-1,37,39,41,43,45,47,49,51,53,55,57,59,-1,-1,-1,-1,-1,-1,-1,-1,-1,-1,-1,-1,-1,-1,-1,-1,-1,-1,-1,-1,-1,-1,-1,-1,-1,-1,-1,-1,-1,-1],"loss_changes":[1.9999758E0,2.3774292E0,1.7068713E0,2.3191369E0,1.5310999E0,1.5294372E0,1.804405E0,1.3707092E0,1.5315783E0,2.8311632E0,2.2939336E0,1.5736904E0,1.077162E0,1.8115249E0,1.0603094E0,1.5738475E0,1.1910343E0,1.1892935E0,0E0,1.3384471E0,3.0688767E0,1.7582545E0,2.3779836E0,5.628274E-1,1.1035872E0,8.6644506E-1,1.411222E0,8.631433E-1,1.3189054E0,1.9148932E0,1.1719129E0,0E0,0E0,0E0,0E0,0E0,0E0,0E0,0E0,0E0,0E0,0E0,0E0,0E0,0E0,0E0,0E0,0E0,0E0,0E0,0E0,0E0,0E0,0E0,0E0,0E0,0E0,0E0,0E0,0E0,0E0],"parents":[2147483647,0,0,1,1,2,2,3,3,4,4,5,5,6,6,7,7,8,8,9,9,10,10,11,11,12,12,13,13,14,14,15,15,16,16,17,17,19,19,20,20,21,21,22,22,23,23,24,24,25,25,26,26,27,27,28,28,29,29,30,30],"right_children":[2,4,6,8,10,12,14,16,18,20,22,24,26,28,30,32,34,36,-1,38,40,42,44,46,48,50,52,54,56,58,60,-1,-1,-1,-1,-1,-1,-1,-1,-1,-1,-1,-1,-1,-1,-1,-1,-1,-1,-1,-1,-1,-1,-1,-1,-1,-1,-1,-1,-1,-1],"split_conditions":[-1.4788948E-1,-1.3046224E-1,7.116073E1,-7.2647478E-3,5.0255866E-3,3.4667586E-3,1.7884787E-2,2.3758126E-2,-7.793076E-2,1.7572617E-2,-1.2263519E-1,-9.075667E-3,2.2940509E-2,-6.2027477E-2,1.4668285E-2,-5.6232978E-2,-2.2107525E-1,3.8056467E-2,-8.265401E-3,-1.8017618E-1,1.4521907E1,1.442719E-2,3.3760566E-2,1.1754003E-2,1.3319435E-2,-1.1011732E-2,2.3025072E-1,-7.2732284E-3,2.6882514E-1,1.1863657E-2,2.4361826E-2,2.959265E-3,-6.3878307E-3,1.9093031E-3,9.325726E-3,4.2385794E-3,-5.263338E-3,-5.200281E-3,-1.4555354E-4,1.0567876E-3,-4.7164545E-3,-4.0793755E-5,2.8469765E-3,-7.895965E-4,4.481331E-3,-6.1453073E-3,-1.2966635E-3,9.579168E-4,-3.1478552E-3,1.920397E-3,-3.6490153E-4,-2.4468882E-3,1.9191726E-5,-6.000739E-3,8.7291125E-4,4.6498887E-3,-1.2553133E-3,3.226975E-3,-4.29944E-3,2.8411609E-3,-2.210639E-3],"split_indices":[10,7,13,26,25,0,26,16,9,17,28,20,18,5,16,28,28,18,0,4,12,26,17,17,25,3,5,26,28,17,16,0,0,0,0,0,0,0,0,0,0,0,0,0,0,0,0,0,0,0,0,0,0,0,0,0,0,0,0,0,0],"split_type":[0,0,0,0,0,0,0,0,0,0,0,0,0,0,0,0,0,0,0,0,0,0,0,0,0,0,0,0,0,0,0,0,0,0,0,0,0,0,0,0,0,0,0,0,0,0,0,0,0,0,0,0,0,0,0,0,0,0,0,0,0],"sum_hessian":[2.8445E4,1.4773E4,1.3672E4,8.82E2,1.3891E4,1.1513E4,2.159E3,6.71E2,2.11E2,3.678E3,1.0213E4,7.151E3,4.362E3,1.194E3,9.65E2,4.37E2,2.34E2,1.38E2,7.3E1,2.404E3,1.274E3,2.154E3,8.059E3,5.76E2,6.575E3,2.034E3,2.328E3,2.41E2,9.53E2,3.88E2,5.77E2,3.87E2,5E1,8.6E1,1.48E2,8.6E1,5.2E1,1.38E2,2.266E3,3.01E2,9.73E2,1.236E3,9.18E2,7.84E3,2.19E2,6.7E1,5.09E2,6.408E3,1.67E2,5.79E2,1.455E3,1.234E3,1.094E3,6E1,1.81E2,8.47E2,1.06E2,1.23E2,2.65E2,4.2E2,1.57E2],"tree_param":{"num_deleted":"0","num_feature":"29","num_nodes":"61","size_leaf_vector":"1"}},{"base_weights":[-4.6420388E-5,5.2794322E-2,-1.2856001E-3,-7.603486E-4,8.516584E-2,-4.925753E-3,1.542866E-2,4.493797E-2,-6.1971672E-2,6.362674E-4,1.1343267E-1,5.753054E-2,-6.2134066E-3,-1.003421E-3,4.3302357E-2,-1.9002546E-3,4.7379024E-3,-1.2246574E-5,-6.1846897E-3,3.1672963E-3,-3.2272532E-3,1.456128E-1,1.807808E-3,1.0049208E-2,3.5619594E-2,2.5346168E-4,-1.620388E-2,2.8020989E-3,-6.4144568E-3,5.0055016E-2,-4.377589E-3,5.8710612E-3,1.147839E-2,-2.3084856E-3,3.7439906E-3,-3.435686E-4,9.256673E-4,-1.5105051E-3,2.355452E-4,8.982028E-4,-1.4965566E-3,1.056435E-3,4.5076855E-3],"categories":[],"categories_nodes":[],"categories_segments":[],"categories_sizes":[],"default_left":[0,0,0,0,0,0,0,0,0,0,0,0,0,0,0,0,0,0,0,0,0,0,0,0,0,0,0,0,0,0,0,0,0,0,0,0,0,0,0,0,0,0,0],"id":16,"left_children":[1,3,5,7,9,11,13,15,17,19,21,23,25,27,29,-1,-1,-1,-1,-1,-1,31,-1,-1,33,35,37,39,-1,41,-1,-1,-1,-1,-1,-1,-1,-1,-1,-1,-1,-1,-1],"loss_changes":[1.866028E0,1.1321357E0,1.6942343E0,6.937067E-1,9.724064E-1,1.8392887E0,2.280997E0,5.903779E-1,4.0381965E-1,4.25101E-1,7.531996E-1,1.4450015E0,1.4475255E0,1.5184323E0,1.6364167E0,0E0,0E0,0E0,0E0,0E0,0E0,4.8191118E-1,0E0,0E0,1.2943057E0,1.7697287E0,2.579161E0,1.5112743E0,0E0,2.0360527E0,0E0,0E0,0E0,0E0,0E0,0E0,0E0,0E0,0E0,0E0,0E0,0E0,0E0],"parents":[2147483647,0,0,1,1,2,2,3,3,4,4,5,5,6,6,7,7,8,8,9,9,10,10,11,11,12,12,13,13,14,14,21,21,24,24,25,25,26,26,27,27,29,29],"right_children":[2,4,6,8,10,12,14,16,18,20,22,24,26,28,30,-1,-1,-1,-1,-1,-1,32,-1,-1,34,36,38,40,-1,42,-1,-1,-1,-1,-1,-1,-1,-1,-1,-1,-1,-1,-1],"split_conditions":[7.488456E-3,1.3070586E-2,-4.691966E-2,-4.400126E-2,6.493678E-1,-1.546576E-1,4.0111724E-2,-9.170057E-2,-3.3610247E-3,-3.191394E-2,1.021282E0,1.5704729E-2,5.4722675E-4,2.6882514E-1,4.6619204E-1,-1.9002546E-3,4.7379024E-3,-1.2246574E-5,-6.1846897E-3,3.1672963E-3,-3.2272532E-3,6.014185E-3,1.807808E-3,1.0049208E-2,1.6953627E1,-8.273397E-3,1.9100796E-2,1.4713665E-2,-6.4144568E-3,1.81094E-2,-4.377589E-3,5.8710612E-3,1.147839E-2,-2.3084856E-3,3.7439906E-3,-3.435686E-4,9.256673E-4,-1.5105051E-3,2.355452E-4,8.982028E-4,-1.4965566E-3,1.056435E-3,4.5076855E-3],"split_indices":[16,18,10,28,21,7,9,28,2,4,21,16,28,28,8,0,0,0,0,0,0,23,0,0,13,8,16,24,0,16,0,0,0,0,0,0,0,0,0,0,0,0,0],"split_type":[0,0,0,0,0,0,0,0,0,0,0,0,0,0,0,0,0,0,0,0,0,0,0,0,0,0,0,0,0,0,0,0,0,0,0,0,0,0,0,0,0,0,0],"sum_hessian":[2.8496E4,6.52E2,2.7844E4,2.46E2,4.06E2,2.2865E4,4.979E3,1.41E2,1.05E2,1.02E2,3.04E2,4.61E2,2.2404E4,3.133E3,1.846E3,5.3E1,8.8E1,5.3E1,5.2E1,5.2E1,5E1,2.14E2,9E1,6E1,4.01E2,1.3601E4,8.803E3,3.043E3,9E1,1.756E3,9E1,1.62E2,5.2E1,1.3E2,2.71E2,9.784E3,3.817E3,5.272E3,3.531E3,2.08E3,9.63E2,1.021E3,7.35E2],"tree_param":{"num_deleted":"0","num_feature":"29","num_nodes":"43","size_leaf_vector":"1"}},{"base_weights":[-7.84647E-5,-2.889865E-3,1.8261777E-2,8.744852E-3,-1.0716703E-2,2.2708973E-2,-1.2691157E-1,-7.4322656E-2,1.148128E-2,-3.4037724E-2,-3.5466014E-3,-4.405784E-3,3.517355E-2,-1.2637484E-2,1.1573418E-3,-9.9054255E-2,1.8485874E-3,-2.1249648E-2,1.7730817E-2,-1.9806776E-2,-9.9371105E-2,2.8127154E-2,-1.0109159E-2,-1.2887719E-2,5.1059644E-3,4.795965E-2,-3.0566776E-2,-2.7129245E-3,-6.7349696E-3,-7.560023E-4,-5.494164E-3,1.0720036E-3,-1.5835783E-3,3.5528038E-3,-1.4176292E-3,-3.6329653E-3,-9.9928565E-3,-1.0755827E-4,4.54543E-3,-1.0745152E-3,4.4349636E-4,-7.222445E-5,-6.3010417E-3,7.848373E-4,4.2897696E-3,1.0174415E-3,-5.0984165E-3],"categories":[],"categories_nodes":[],"categories_segments":[],"categories_sizes":[],"default_left":[0,0,0,0,0,0,0,0,0,0,0,0,0,0,0,0,0,0,0,0,0,0,0,0,0,0,0,0,0,0,0,0,0,0,0,0,0,0,0,0,0,0,0,0,0,0,0],"id":17,"left_children":[1,3,5,7,9,11,13,15,17,19,21,23,25,-1,-1,27,-1,29,31,33,35,37,39,41,-1,43,45,-1,-1,-1,-1,-1,-1,-1,-1,-1,-1,-1,-1,-1,-1,-1,-1,-1,-1,-1,-1],"loss_changes":[1.4597664E0,2.2355092E0,2.4323277E0,2.2450678E0,2.4539132E0,1.234436E0,2.1207538E0,8.706963E-1,1.9557003E0,3.2066188E0,2.3337302E0,1.0412891E0,2.104553E0,0E0,0E0,4.0465307E-1,0E0,8.3120036E-1,1.4715948E0,2.2033818E0,1.6416063E0,3.6632624E0,2.0090249E0,1.3811649E0,0E0,2.5560002E0,1.4853396E0,0E0,0E0,0E0,0E0,0E0,0E0,0E0,0E0,0E0,0E0,0E0,0E0,0E0,0E0,0E0,0E0,0E0,0E0,0E0,0E0],"parents":[2147483647,0,0,1,1,2,2,3,3,4,4,5,5,6,6,7,7,8,8,9,9,10,10,11,11,12,12,15,15,17,17,18,18,19,19,20,20,21,21,22,22,23,23,25,25,26,26],"right_children":[2,4,6,8,10,12,14,16,18,20,22,24,26,-1,-1,28,-1,30,32,34,36,38,40,42,-1,44,46,-1,-1,-1,-1,-1,-1,-1,-1,-1,-1,-1,-1,-1,-1,-1,-1,-1,-1,-1,-1],"split_conditions":[3.1126678E-1,2.1987742E-2,4.288301E-2,-2.650778E-2,5.105133E-3,-5.947757E-3,-9.238599E-2,3.982735E-2,5.795072E-1,2.2043232E-2,-1.2263519E-1,4.8591886E-2,4.3488402E-2,-1.2637484E-2,1.1573418E-3,-3.4213927E-2,1.8485874E-3,1.2429206E-1,1.1167993E-2,-6.384211E-2,2.2371026E-2,1.14415875E-2,2.0856313E-2,3.9916802E-2,5.1059644E-3,3.0501602E-2,3.4916278E-2,-2.7129245E-3,-6.7349696E-3,-7.560023E-4,-5.494164E-3,1.0720036E-3,-1.5835783E-3,3.5528038E-3,-1.4176292E-3,-3.6329653E-3,-9.9928565E-3,-1.0755827E-4,4.54543E-3,-1.0745152E-3,4.4349636E-4,-7.222445E-5,-6.3010417E-3,7.848373E-4,4.2897696E-3,1.0174415E-3,-5.0984165E-3],"split_indices":[5,18,23,26,25,9,10,3,21,17,28,6,1,0,0,28,0,28,25,6,26,25,16,2,0,18,18,0,0,0,0,0,0,0,0,0,0,0,0,0,0,0,0,0,0,0,0],"split_type":[0,0,0,0,0,0,0,0,0,0,0,0,0,0,0,0,0,0,0,0,0,0,0,0,0,0,0,0,0,0,0,0,0,0,0,0,0,0,0,0,0,0,0,0,0,0,0],"sum_hessian":[2.8309E4,2.4547E4,3.762E3,9.872E3,1.4675E4,3.651E3,1.11E2,3.14E2,9.558E3,3.45E3,1.1225E4,1.15E3,2.501E3,6E1,5.1E1,2.57E2,5.7E1,1.532E3,8.026E3,2.834E3,6.16E2,1.926E3,9.299E3,1.066E3,8.4E1,2.094E3,4.07E2,1.15E2,1.42E2,1.434E3,9.8E1,7.466E3,5.6E2,2.43E2,2.591E3,4.88E2,1.28E2,1.3E3,6.26E2,5.813E3,3.486E3,9.69E2,9.7E1,1.131E3,9.63E2,2.38E2,1.69E2],"tree_param":{"num_deleted":"0","num_feature":"29","num_nodes":"47","size_leaf_vector":"1"}},{"base_weights":[1.7557407E-4,1.0062279E-2,-5.490328E-3,-5.50389E-2,1.4202902E-2,-2.6556142E-2,1.0308009E-3,-7.096979E-2,1.5812686E-2,1.2905091E-2,1.2608181E-1,-4.8731554E-2,1.3258229E-3,-1.1340272E-2,1.7913127E-2,-5.3840224E-2,-8.307584E-3,3.694366E-3,-1.6647372E-3,-1.3627005E-2,1.8536635E-2,1.7405059E-3,1.0230188E-2,-3.7328318E-2,-1.3211927E-1,1.839505E-2,-4.7999624E-2,1.4080587E-3,-4.0187128E-2,-3.507214E-3,3.930544E-2,-6.5991515E-3,-2.0194657E-3,-1.924057E-4,-4.436461E-3,1.8788744E-3,4.0613065E-4,-4.788674E-3,-1.194111E-3,2.6650133E-4,-8.273169E-3,5.8755777E-3,5.621156E-4,-4.574194E-3,2.7896978E-3,-3.3077883E-4,2.1367222E-3,3.5582338E-3,-3.1001673E-3,1.4731537E-3,-1.2556439E-3,2.2254554E-3,-3.3590875E-3],"categories":[],"categories_nodes":[],"categories_segments":[],"categories_sizes":[],"default_left":[0,0,0,0,0,0,0,0,0,0,0,0,0,0,0,0,0,0,0,0,0,0,0,0,0,0,0,0,0,0,0,0,0,0,0,0,0,0,0,0,0,0,0,0,0,0,0,0,0,0,0,0,0],"id":18,"left_children":[1,3,5,7,9,11,13,15,17,19,21,23,25,27,29,31,-1,-1,-1,33,35,-1,-1,37,39,41,43,45,47,49,51,-1,-1,-1,-1,-1,-1,-1,-1,-1,-1,-1,-1,-1,-1,-1,-1,-1,-1,-1,-1,-1,-1],"loss_changes":[1.5988395E0,2.8036609E0,2.4925208E0,7.0319164E-1,1.4179705E0,2.6519282E0,2.8940635E0,8.193102E-1,3.3042806E-1,1.444514E0,7.955626E-1,2.2667437E0,1.6014246E0,2.9409473E0,2.68537E0,4.4874108E-1,0E0,0E0,0E0,1.2430253E0,1.5808742E0,0E0,0E0,1.6503747E0,1.3162394E0,1.0004315E0,2.2121506E0,1.8396004E0,5.9585648E0,2.0871983E0,1.6276798E0,0E0,0E0,0E0,0E0,0E0,0E0,0E0,0E0,0E0,0E0,0E0,0E0,0E0,0E0,0E0,0E0,0E0,0E0,0E0,0E0,0E0,0E0],"parents":[2147483647,0,0,1,1,2,2,3,3,4,4,5,5,6,6,7,7,8,8,9,9,10,10,11,11,12,12,13,13,14,14,15,15,19,19,20,20,23,23,24,24,25,25,26,26,27,27,28,28,29,29,30,30],"right_children":[2,4,6,8,10,12,14,16,18,20,22,24,26,28,30,32,-1,-1,-1,34,36,-1,-1,38,40,42,44,46,48,50,52,-1,-1,-1,-1,-1,-1,-1,-1,-1,-1,-1,-1,-1,-1,-1,-1,-1,-1,-1,-1,-1,-1],"split_conditions":[2.191462E-2,-1.9420367E-2,5.105133E-3,3.8963635E-2,7.5654125E-1,7.957793E-3,2.0715479E-2,5.748692E-3,7.886807E-2,5.925803E-1,3.5706218E-3,2.3136249E-2,2.1943826E-2,1.1167993E-2,1.1167993E-2,-3.867124E-2,-8.307584E-3,3.694366E-3,-1.6647372E-3,1.4042726E-1,-6.724766E-3,1.7405059E-3,1.0230188E-2,-2.4169952E-1,1.4109912E-2,2.7246845E1,4.7022685E-1,3.489757E-2,-1.0227067E-1,-3.3480707E-1,5.9404023E-2,-6.5991515E-3,-2.0194657E-3,-1.924057E-4,-4.436461E-3,1.8788744E-3,4.0613065E-4,-4.788674E-3,-1.194111E-3,2.6650133E-4,-8.273169E-3,5.8755777E-3,5.621156E-4,-4.574194E-3,2.7896978E-3,-3.3077883E-4,2.1367222E-3,3.5582338E-3,-3.1001673E-3,1.4731537E-3,-1.2556439E-3,2.2254554E-3,-3.3590875E-3],"split_indices":[18,26,25,3,11,9,17,7,28,21,24,26,17,25,25,9,0,0,0,4,9,0,0,5,17,13,5,9,28,14,18,0,0,0,0,0,0,0,0,0,0,0,0,0,0,0,0,0,0,0,0,0,0],"split_type":[0,0,0,0,0,0,0,0,0,0,0,0,0,0,0,0,0,0,0,0,0,0,0,0,0,0,0,0,0,0,0,0,0,0,0,0,0,0,0,0,0,0,0,0,0,0,0,0,0,0,0,0,0],"sum_hessian":[2.854E4,1.0397E4,1.8143E4,6.21E2,9.776E3,4.288E3,1.3855E4,5.07E2,1.14E2,9.665E3,1.11E2,2.388E3,1.9E3,7.996E3,5.859E3,4.31E2,7.6E1,5.2E1,6.2E1,1.692E3,7.973E3,5.2E1,5.9E1,2.102E3,2.86E2,1.412E3,4.88E2,5.546E3,2.45E3,2.928E3,2.931E3,6.2E1,3.69E2,1.498E3,1.94E2,2.818E3,5.155E3,3.92E2,1.71E3,5.6E1,2.3E2,9.4E1,1.318E3,3.44E2,1.44E2,4.645E3,9.01E2,4.01E2,2.049E3,1.159E3,1.769E3,2.795E3,1.36E2],"tree_param":{"num_deleted":"0","num_feature":"29","num_nodes":"53","size_leaf_vector":"1"}},{"base_weights":[4.0230658E-4,-7.7911625E-3,8.876823E-3,-2.6220944E-2,-2.039519E-3,4.4970983E-3,3.0866051E-2,-3.3774474E-3,-5.56868E-2,2.0628827E-2,-9.254275E-3,1.7935142E-2,-2.7254457E-3,4.7952674E-2,-4.1100984E-3,-9.044427E-3,5.451176E-3,-6.140378E-2,4.926914E-3,4.1887853E-2,-1.1359208E-2,-1.183655E-2,8.238361E-2,-2.8100956E-2,2.9520027E-2,-3.923191E-3,4.961139E-3,5.4940417E-2,-4.178199E-3,-1.9770341E-2,9.683693E-3,-6.589676E-4,6.829247E-3,-1.8409314E-3,-4.9582906E-3,1.2080764E-3,5.2603376E-3,1.1419743E-4,-5.824867E-3,-3.4210912E-3,-4.4253343E-4,7.222593E-3,-9.354072E-4,-2.870801E-3,5.3150672E-3,9.607784E-4,3.409696E-3,-1.7808761E-5,-2.8116852E-3,1.6329548E-3,5.1829224E-3,5.3177937E-4,-3.787021E-3],"categories":[],"categories_nodes":[],"categories_segments":[],"categories_sizes":[],"default_left":[0,0,0,0,0,0,0,0,0,0,0,0,0,0,0,0,0,0,0,0,0,0,0,0,0,0,0,0,0,0,0,0,0,0,0,0,0,0,0,0,0,0,0,0,0,0,0,0,0,0,0,0,0],"id":19,"left_children":[1,3,5,7,9,11,13,15,17,19,21,23,25,27,29,31,-1,33,-1,35,37,39,41,43,45,47,-1,49,-1,51,-1,-1,-1,-1,-1,-1,-1,-1,-1,-1,-1,-1,-1,-1,-1,-1,-1,-1,-1,-1,-1,-1,-1],"loss_changes":[1.9723206E0,1.5308206E0,1.3445925E0,2.3119214E0,1.8005116E0,1.130276E0,1.3860877E0,1.2341678E0,1.3286028E0,1.8080074E0,1.9771075E0,2.1719873E0,9.253576E-1,1.4364004E0,2.3640053E0,1.1121947E0,0E0,1.3397226E0,0E0,1.7899492E0,1.523616E0,1.3718313E0,1.4395832E0,3.232973E0,1.2950544E0,1.3971841E0,0E0,1.603158E0,0E0,1.2039938E0,0E0,0E0,0E0,0E0,0E0,0E0,0E0,0E0,0E0,0E0,0E0,0E0,0E0,0E0,0E0,0E0,0E0,0E0,0E0,0E0,0E0,0E0,0E0],"parents":[2147483647,0,0,1,1,2,2,3,3,4,4,5,5,6,6,7,7,8,8,9,9,10,10,11,11,12,12,13,13,14,14,15,15,17,17,19,19,20,20,21,21,22,22,23,23,24,24,25,25,27,27,29,29],"right_children":[2,4,6,8,10,12,14,16,18,20,22,24,26,28,30,32,-1,34,-1,36,38,40,42,44,46,48,-1,50,-1,52,-1,-1,-1,-1,-1,-1,-1,-1,-1,-1,-1,-1,-1,-1,-1,-1,-1,-1,-1,-1,-1,-1,-1],"split_conditions":[-1.5460613E-1,5.004957E-3,7.052599E1,1.6560799E-2,-1.2457009E-1,-8.666496E-3,1.8272197E-2,1.6080434E-2,4.7022685E-1,4.441386E1,3.3760566E-2,-1.8176617E-2,1.0314969E0,1.1316113E-2,4.1481394E-2,1.0869445E-1,5.451176E-3,4.3349754E1,4.926914E-3,9.694934E-3,3.1485692E-1,2.0064375E1,1.2605832E-2,2.0414049E-2,-6.467689E-2,2.6882514E-1,4.961139E-3,6.337114E-3,-4.178199E-3,1.5076189E-2,9.683693E-3,-6.589676E-4,6.829247E-3,-1.8409314E-3,-4.9582906E-3,1.2080764E-3,5.2603376E-3,1.1419743E-4,-5.824867E-3,-3.4210912E-3,-4.4253343E-4,7.222593E-3,-9.354072E-4,-2.870801E-3,5.3150672E-3,9.607784E-4,3.409696E-3,-1.7808761E-5,-2.8116852E-3,1.6329548E-3,5.1829224E-3,5.3177937E-4,-3.787021E-3],"split_indices":[10,25,13,17,28,6,24,17,5,13,17,23,5,25,18,4,0,12,0,23,11,13,25,17,10,28,0,25,0,23,0,0,0,0,0,0,0,0,0,0,0,0,0,0,0,0,0,0,0,0,0,0,0],"split_type":[0,0,0,0,0,0,0,0,0,0,0,0,0,0,0,0,0,0,0,0,0,0,0,0,0,0,0,0,0,0,0,0,0,0,0,0,0,0,0,0,0,0,0,0,0,0,0,0,0,0,0,0,0],"sum_hessian":[2.8403E4,1.4441E4,1.3962E4,3.434E3,1.1007E4,1.1644E4,2.318E3,1.935E3,1.499E3,2.657E3,8.35E3,4.07E3,7.574E3,1.557E3,7.61E2,1.843E3,9.2E1,1.446E3,5.3E1,1.596E3,1.061E3,8.122E3,2.28E2,8.18E2,3.252E3,7.487E3,8.7E1,1.479E3,7.8E1,7.06E2,5.5E1,1.793E3,5E1,8.77E2,5.69E2,1.248E3,3.48E2,9.4E2,1.21E2,4.06E2,7.716E3,1.41E2,8.7E1,6.72E2,1.46E2,2.569E3,6.83E2,7.01E3,4.77E2,1.016E3,4.63E2,4.58E2,2.48E2],"tree_param":{"num_deleted":"0","num_feature":"29","num_nodes":"53","size_leaf_vector":"1"}},{"base_weights":[1.1043855E-4,-2.2371698E-3,2.420206E-2,7.4129105E-3,-8.74087E-3,6.505109E-2,-2.412559E-3,-5.587273E-2,1.1095073E-2,-1.3342845E-2,1.8622246E-2,1.8662727E-2,8.99398E-2,-1.0250221E-2,1.0362658E-2,-1.0158358E-1,-3.2327145E-2,-4.0178668E-2,1.5031079E-2,-3.431182E-2,-6.234951E-3,3.894646E-2,-2.5809063E-2,1.0602231E-1,-8.113817E-2,1.0861025E-1,-4.7109216E-3,-1.0938244E-1,2.016702E-3,-2.3609565E-3,-7.090454E-3,-3.1599265E-3,2.1870981E-3,-2.5268614E-3,2.481279E-3,1.6874712E-3,3.8059306E-4,-6.6892146E-3,-1.3920207E-3,1.5159075E-3,-4.902091E-4,6.580397E-4,3.2857123E-3,4.086291E-3,-2.2600833E-3,1.8751122E-3,9.623424E-3,-6.914506E-3,1.5266167E-3,-5.672017E-5,6.437357E-3,-1.1023663E-2,8.056787E-4,-2.633229E-3,8.6019904E-4],"categories":[],"categories_nodes":[],"categories_segments":[],"categories_sizes":[],"default_left":[0,0,0,0,0,0,0,0,0,0,0,0,0,0,0,0,0,0,0,0,0,0,0,0,0,0,0,0,0,0,0,0,0,0,0,0,0,0,0,0,0,0,0,0,0,0,0,0,0,0,0,0,0,0,0],"id":20,"left_children":[1,3,5,7,9,11,13,15,17,19,21,23,25,27,-1,29,31,33,35,37,39,41,43,45,47,49,-1,51,53,-1,-1,-1,-1,-1,-1,-1,-1,-1,-1,-1,-1,-1,-1,-1,-1,-1,-1,-1,-1,-1,-1,-1,-1,-1,-1],"loss_changes":[1.6032386E0,1.6211873E0,2.7365928E0,2.4241111E0,1.9433877E0,1.1447859E0,2.5081403E0,6.123533E-1,1.9842312E0,1.9686742E0,2.0075412E0,3.042663E0,2.2313857E0,1.7890263E0,0E0,4.175501E-1,8.9279234E-1,6.546078E-1,1.2675374E0,2.1488986E0,1.2876097E0,1.0517287E0,1.4592904E0,1.0945151E0,1.044519E0,1.2973671E0,0E0,2.2620683E0,1.0888084E0,0E0,0E0,0E0,0E0,0E0,0E0,0E0,0E0,0E0,0E0,0E0,0E0,0E0,0E0,0E0,0E0,0E0,0E0,0E0,0E0,0E0,0E0,0E0,0E0,0E0,0E0],"parents":[2147483647,0,0,1,1,2,2,3,3,4,4,5,5,6,6,7,7,8,8,9,9,10,10,11,11,12,12,13,13,15,15,16,16,17,17,18,18,19,19,20,20,21,21,22,22,23,23,24,24,25,25,27,27,28,28],"right_children":[2,4,6,8,10,12,14,16,18,20,22,24,26,28,-1,30,32,34,36,38,40,42,44,46,48,50,-1,52,54,-1,-1,-1,-1,-1,-1,-1,-1,-1,-1,-1,-1,-1,-1,-1,-1,-1,-1,-1,-1,-1,-1,-1,-1,-1,-1],"split_conditions":[4.0060863E-2,2.1987742E-2,-9.1246985E-2,-2.0714886E-2,3.317329E-1,1.0922533E-2,1.6463302E0,1.8553559E-2,4.63601E-1,5.105133E-3,2.1250163E-1,3.668557E1,3.6547232E-1,-1.8755834E-1,1.0362658E-2,4.125E-1,-1.45109715E-2,6.099104E-3,4.225557E1,-4.19296E-1,4.7666425E-1,2.001399E-2,4.776387E-3,-3.770774E-2,2.0052557E-1,2.3758126E-2,-4.7109216E-3,8.736653E-3,-4.6197582E-2,-2.3609565E-3,-7.090454E-3,-3.1599265E-3,2.1870981E-3,-2.5268614E-3,2.481279E-3,1.6874712E-3,3.8059306E-4,-6.6892146E-3,-1.3920207E-3,1.5159075E-3,-4.902091E-4,6.580397E-4,3.2857123E-3,4.086291E-3,-2.2600833E-3,1.8751122E-3,9.623424E-3,-6.914506E-3,1.5266167E-3,-5.672017E-5,6.437357E-3,-1.1023663E-2,8.056787E-4,-2.633229E-3,8.6019904E-4],"split_indices":[18,18,8,26,5,25,11,18,21,25,8,13,5,5,0,19,23,25,13,10,21,17,25,22,11,16,0,25,4,0,0,0,0,0,0,0,0,0,0,0,0,0,0,0,0,0,0,0,0,0,0,0,0,0,0],"split_type":[0,0,0,0,0,0,0,0,0,0,0,0,0,0,0,0,0,0,0,0,0,0,0,0,0,0,0,0,0,0,0,0,0,0,0,0,0,0,0,0,0,0,0,0,0,0,0,0,0,0,0,0,0,0,0],"sum_hessian":[2.8345E4,2.5829E4,2.516E3,1.0399E4,1.543E4,9.92E2,1.524E3,5.71E2,9.828E3,1.3209E4,2.221E3,3.47E2,6.45E2,1.47E3,5.4E1,1.93E2,3.78E2,7E2,9.128E3,3.343E3,9.866E3,1.524E3,6.97E2,1.85E2,1.62E2,5.86E2,5.9E1,1.61E2,1.309E3,8.3E1,1.1E2,2.69E2,1.09E2,6.28E2,7.2E1,2.59E3,6.538E3,2.03E2,3.14E3,8.77E2,8.989E3,7.77E2,7.47E2,1.06E2,5.91E2,1.04E2,8.1E1,1.07E2,5.5E1,9.1E1,4.95E2,8.5E1,7.6E1,2.84E2,1.025E3],"tree_param":{"num_deleted":"0","num_feature":"29","num_nodes":"55","size_leaf_vector":"1"}},{"base_weights":[-5.0930097E-4,-1.0911404E-2,5.6330273E-3,1.4538361E-3,-2.7635163E-2,3.6701157E-3,3.894743E-2,-8.796165E-3,3.1570178E-2,-6.4304926E-2,-1.7038649E-2,4.3628383E-3,-9.680922E-3,6.800766E-2,-3.2078218E-2,-1.511896E-2,3.9163392E-2,1.0220747E-1,1.7197315E-2,-4.106272E-2,-1.1819554E-1,-7.1529658E-3,-1.3494753E-2,3.2887876E-3,9.923887E-2,8.85989E-3,5.112551E-2,6.5572937E-3,-9.647331E-3,-1.0917186E-3,2.9651723E-3,3.8782514E-3,-8.6829736E-4,6.9051622E-3,3.2807418E-4,2.7436155E-3,-6.999555E-4,-4.0248055E-3,7.580936E-5,-7.045705E-3,-1.5754575E-3,-8.160048E-4,5.094152E-3,2.6091846E-4,-2.8156163E-3,7.5420025E-3,-2.1166843E-3,9.124276E-4,6.3750497E-3,-6.37021E-3,2.7793231E-3],"categories":[],"categories_nodes":[],"categories_segments":[],"categories_sizes":[],"default_left":[0,0,0,0,0,0,0,0,0,0,0,0,0,0,0,0,0,0,0,0,0,0,0,0,0,0,0,0,0,0,0,0,0,0,0,0,0,0,0,0,0,0,0,0,0,0,0,0,0,0,0],"id":21,"left_children":[1,3,5,7,9,11,13,15,17,19,21,23,-1,25,27,29,31,33,35,37,39,-1,41,43,45,-1,47,49,-1,-1,-1,-1,-1,-1,-1,-1,-1,-1,-1,-1,-1,-1,-1,-1,-1,-1,-1,-1,-1,-1,-1],"loss_changes":[1.8137318E0,2.1794345E0,1.1669955E0,1.8709545E0,1.7397058E0,2.304491E0,2.0517554E0,1.3718364E0,1.5607275E0,1.2526937E0,1.5509119E0,1.7114179E0,0E0,1.2905126E0,1.7974675E0,1.9984038E0,1.1453688E0,8.917489E-1,1.5051844E0,1.1804807E0,5.9031534E-1,0E0,1.104459E0,1.9106451E0,1.379784E0,0E0,1.5344012E0,1.5439988E0,0E0,0E0,0E0,0E0,0E0,0E0,0E0,0E0,0E0,0E0,0E0,0E0,0E0,0E0,0E0,0E0,0E0,0E0,0E0,0E0,0E0,0E0,0E0],"parents":[2147483647,0,0,1,1,2,2,3,3,4,4,5,5,6,6,7,7,8,8,9,9,10,10,11,11,13,13,14,14,15,15,16,16,17,17,18,18,19,19,20,20,22,22,23,23,24,24,26,26,27,27],"right_children":[2,4,6,8,10,12,14,16,18,20,22,24,-1,26,28,30,32,34,36,38,40,-1,42,44,46,-1,48,50,-1,-1,-1,-1,-1,-1,-1,-1,-1,-1,-1,-1,-1,-1,-1,-1,-1,-1,-1,-1,-1,-1,-1],"split_conditions":[-7.5539045E-2,-3.2207694E-2,3.0283699E-2,1.8272197E-2,-2.4169952E-1,4.6619204E-1,1.3911089E-2,1.864732E-1,-3.8669702E-1,2.4643274E-2,-3.5623457E-2,3.895868E-1,-9.680922E-3,1.6090465E-1,6.6541576E-1,-4.5081757E-2,8.965647E-3,5.835022E-2,1.3849239E-2,2.4035476E-2,3.8480334E-2,-7.1529658E-3,2.9788565E-2,2.6882514E-1,4.3488402E-2,8.85989E-3,3.458792E-2,-3.782112E-2,-9.647331E-3,-1.0917186E-3,2.9651723E-3,3.8782514E-3,-8.6829736E-4,6.9051622E-3,3.2807418E-4,2.7436155E-3,-6.999555E-4,-4.0248055E-3,7.580936E-5,-7.045705E-3,-1.5754575E-3,-8.160048E-4,5.094152E-3,2.6091846E-4,-2.8156163E-3,7.5420025E-3,-2.1166843E-3,9.124276E-4,6.3750497E-3,-6.37021E-3,2.7793231E-3],"split_indices":[5,28,16,24,5,8,23,11,10,1,26,28,0,11,5,28,3,3,16,9,26,0,17,28,1,0,17,3,0,0,0,0,0,0,0,0,0,0,0,0,0,0,0,0,0,0,0,0,0,0,0],"split_type":[0,0,0,0,0,0,0,0,0,0,0,0,0,0,0,0,0,0,0,0,0,0,0,0,0,0,0,0,0,0,0,0,0,0,0,0,0,0,0,0,0,0,0,0,0,0,0,0,0,0,0],"sum_hessian":[2.8385E4,1.0538E4,1.7847E4,6.059E3,4.479E3,1.6855E4,9.92E2,4.521E3,1.538E3,1.003E3,3.476E3,1.6797E4,5.8E1,7.04E2,2.88E2,3.995E3,5.26E2,2.59E2,1.279E3,7.02E2,3.01E2,9.4E1,3.382E3,1.661E4,1.87E2,9.3E1,6.11E2,2.33E2,5.5E1,3.665E3,3.3E2,3.13E2,2.13E2,1.88E2,7.1E1,5.79E2,7E2,3.64E2,3.38E2,2.38E2,6.3E1,3.302E3,8E1,1.609E4,5.2E2,1.37E2,5E1,4.28E2,1.83E2,6.2E1,1.71E2],"tree_param":{"num_deleted":"0","num_feature":"29","num_nodes":"51","size_leaf_vector":"1"}},{"base_weights":[7.063942E-4,5.5329956E-2,-3.5758677E-4,9.0260126E-2,-1.0225515E-2,-3.8277775E-2,1.1956407E-3,1.1829387E-2,1.3283409E-1,5.213677E-3,-6.258977E-2,-4.5503065E-2,5.403785E-3,3.8984834E-4,6.435383E-2,4.896121E-3,-3.0355055E-3,9.818387E-3,8.332113E-2,1.6985523E-3,-7.6275053E-3,-1.06797785E-1,-2.983168E-2,1.445811E-2,-3.015941E-3,8.4230855E-2,-2.0872229E-3,7.087704E-4,7.1687098E-3,-2.615054E-3,-8.01482E-3,-1.815312E-4,-5.0482987E-3,5.6824455E-4,5.750716E-3,7.824445E-3,-1.7027833E-4,-3.3984447E-4,5.838657E-3],"categories":[],"categories_nodes":[],"categories_segments":[],"categories_sizes":[],"default_left":[0,0,0,0,0,0,0,0,0,0,0,0,0,0,0,0,0,0,0,0,0,0,0,0,0,0,0,0,0,0,0,0,0,0,0,0,0,0,0],"id":22,"left_children":[1,3,5,7,9,11,13,15,17,-1,19,21,-1,23,25,-1,-1,-1,27,-1,-1,29,31,33,35,37,-1,-1,-1,-1,-1,-1,-1,-1,-1,-1,-1,-1,-1],"loss_changes":[1.6547679E0,1.2466091E0,1.6450269E0,1.1838114E0,1.1457015E0,1.1670514E0,1.3654685E0,7.928332E-1,7.0715857E-1,0E0,1.1431324E0,1.003495E0,0E0,1.2694647E0,7.163309E-1,0E0,0E0,0E0,5.419337E-1,0E0,0E0,6.1261725E-1,1.5577646E0,1.6049153E0,1.3261945E0,8.450351E-1,0E0,0E0,0E0,0E0,0E0,0E0,0E0,0E0,0E0,0E0,0E0,0E0,0E0],"parents":[2147483647,0,0,1,1,2,2,3,3,4,4,5,5,6,6,7,7,8,8,10,10,11,11,13,13,14,14,18,18,21,21,22,22,23,23,24,24,25,25],"right_children":[2,4,6,8,10,12,14,16,18,-1,20,22,-1,24,26,-1,-1,-1,28,-1,-1,30,32,34,36,38,-1,-1,-1,-1,-1,-1,-1,-1,-1,-1,-1,-1,-1],"split_conditions":[-1.4748786E-1,-8.911326E-3,1.3500282E-2,1.837567E-2,7.562957E-1,2.4567844E-2,1.5464397E-1,1.7287938E-2,-6.586081E-2,5.213677E-3,2.4624498E1,5.521094E-1,5.403785E-3,1.2157781E-2,8.611683E1,4.896121E-3,-3.0355055E-3,9.818387E-3,2.4106054E1,1.6985523E-3,-7.6275053E-3,-2.9297108E-3,1.7287938E-2,8.076046E1,6.9080284E-3,6.8972336E1,-2.0872229E-3,7.087704E-4,7.1687098E-3,-2.615054E-3,-8.01482E-3,-1.815312E-4,-5.0482987E-3,5.6824455E-4,5.750716E-3,7.824445E-3,-1.7027833E-4,-3.3984447E-4,5.838657E-3],"split_indices":[7,24,11,17,21,17,2,16,1,0,13,21,0,17,13,0,0,0,13,0,0,24,16,13,16,13,0,0,0,0,0,0,0,0,0,0,0,0,0],"split_type":[0,0,0,0,0,0,0,0,0,0,0,0,0,0,0,0,0,0,0,0,0,0,0,0,0,0,0,0,0,0,0,0,0,0,0,0,0,0,0],"sum_hessian":[2.8471E4,5.43E2,2.7928E4,3.54E2,1.89E2,1.098E3,2.683E4,1.25E2,2.29E2,5.9E1,1.3E2,1.047E3,5.1E1,2.6493E4,3.37E2,5.7E1,6.8E1,9.9E1,1.3E2,6.3E1,6.7E1,2.12E2,8.35E2,5.163E3,2.133E4,2.84E2,5.3E1,6.1E1,6.9E1,1.06E2,1.06E2,6.11E2,2.24E2,5.01E3,1.53E2,5.1E1,2.1279E4,7.5E1,2.09E2],"tree_param":{"num_deleted":"0","num_feature":"29","num_nodes":"39","size_leaf_vector":"1"}},{"base_weights":[5.2812044E-4,-6.2058624E-3,7.213037E-3,-1.204814E-2,9.378172E-3,2.4026213E-3,2.8931415E-2,5.1415134E-3,-2.003946E-2,4.2731274E-2,-1.2100505E-2,8.950595E-3,-4.599022E-2,-4.929231E-3,3.3667225E-2,6.1864972E-2,-6.7371214E-3,-4.3155354E-2,-1.3283397E-2,5.498883E-2,-4.568787E-2,3.6165413E-2,-2.8530413E-2,1.1182478E-2,-6.5497674E-2,8.005056E-3,-7.049069E-2,-2.1806028E-2,4.3847214E-2,-1.2785399E-3,4.6831975E-3,5.548744E-4,-1.5399747E-3,-1.3281754E-3,-5.0764214E-3,-3.0969255E-4,-2.2807044E-3,6.1438303E-3,1.9741757E-3,-6.127903E-3,3.3315233E-4,-2.4067524E-3,3.6435847E-3,-1.783276E-3,5.120521E-3,-4.894314E-3,6.224859E-4,-5.729655E-3,6.136018E-4,-9.4337715E-4,5.105757E-3,-2.2015248E-3,-7.129793E-3,-6.74188E-3,1.0857157E-3,3.190177E-3,-1.1007191E-5],"categories":[],"categories_nodes":[],"categories_segments":[],"categories_sizes":[],"default_left":[0,0,0,0,0,0,0,0,0,0,0,0,0,0,0,0,0,0,0,0,0,0,0,0,0,0,0,0,0,0,0,0,0,0,0,0,0,0,0,0,0,0,0,0,0,0,0,0,0,0,0,0,0,0,0,0,0],"id":23,"left_children":[1,3,5,7,9,11,13,15,17,19,21,23,25,-1,27,29,31,33,35,37,39,41,43,45,47,49,51,53,55,-1,-1,-1,-1,-1,-1,-1,-1,-1,-1,-1,-1,-1,-1,-1,-1,-1,-1,-1,-1,-1,-1,-1,-1,-1,-1,-1,-1],"loss_changes":[1.2813385E0,1.291149E0,1.492243E0,1.4169168E0,2.7707605E0,3.7062652E0,1.5673995E0,2.206429E0,1.0990369E0,1.6444736E0,1.8669715E0,1.7125111E0,1.8447006E0,0E0,1.4116194E0,1.5788636E0,1.162461E0,1.5391817E0,1.2489116E0,1.3961878E0,7.452982E-1,1.8539324E0,1.6442422E0,1.3837945E0,1.1468475E0,1.104563E0,1.8234134E0,1.9115669E0,1.8564754E0,0E0,0E0,0E0,0E0,0E0,0E0,0E0,0E0,0E0,0E0,0E0,0E0,0E0,0E0,0E0,0E0,0E0,0E0,0E0,0E0,0E0,0E0,0E0,0E0,0E0,0E0,0E0,0E0],"parents":[2147483647,0,0,1,1,2,2,3,3,4,4,5,5,6,6,7,7,8,8,9,9,10,10,11,11,12,12,14,14,15,15,16,16,17,17,18,18,19,19,20,20,21,21,22,22,23,23,24,24,25,25,26,26,27,27,28,28],"right_children":[2,4,6,8,10,12,14,16,18,20,22,24,26,-1,28,30,32,34,36,38,40,42,44,46,48,50,52,54,56,-1,-1,-1,-1,-1,-1,-1,-1,-1,-1,-1,-1,-1,-1,-1,-1,-1,-1,-1,-1,-1,-1,-1,-1,-1,-1,-1,-1],"split_conditions":[-1.5817802E-1,1.8307801E-2,2.0874241E-2,-1.38969915E-2,1.2695479E-3,1.1167993E-2,-1.3874206E-1,-1.4471172E-1,-6.721337E-2,1.8253432E-1,-7.44E-2,2.6882514E-1,8.235527E-1,-4.929231E-3,2.7096262E-2,2.8282413E-2,1.0644084E0,-2.4041716E-2,2.4643274E-2,-1.8521212E-1,-2.6400575E-1,-1.00597486E-1,9.001178E-2,-4.3389942E-2,3.0056664E-1,6.6253155E-2,1.2864691E0,-1.0206367E-1,4.260375E-2,-1.2785399E-3,4.6831975E-3,5.548744E-4,-1.5399747E-3,-1.3281754E-3,-5.0764214E-3,-3.0969255E-4,-2.2807044E-3,6.1438303E-3,1.9741757E-3,-6.127903E-3,3.3315233E-4,-2.4067524E-3,3.6435847E-3,-1.783276E-3,5.120521E-3,-4.894314E-3,6.224859E-4,-5.729655E-3,6.136018E-4,-9.4337715E-4,5.105757E-3,-2.2015248E-3,-7.129793E-3,-6.74188E-3,1.0857157E-3,3.190177E-3,-1.1007191E-5],"split_indices":[10,24,17,24,7,25,5,28,27,5,28,28,21,0,18,18,21,6,1,28,10,4,9,9,8,27,14,10,1,0,0,0,0,0,0,0,0,0,0,0,0,0,0,0,0,0,0,0,0,0,0,0,0,0,0,0,0],"split_type":[0,0,0,0,0,0,0,0,0,0,0,0,0,0,0,0,0,0,0,0,0,0,0,0,0,0,0,0,0,0,0,0,0,0,0,0,0,0,0,0,0,0,0,0,0,0,0,0,0,0,0,0,0,0,0,0,0],"sum_hessian":[2.8462E4,1.4179E4,1.4283E4,1.0313E4,3.866E3,1.1694E4,2.589E3,3.273E3,7.04E3,1.514E3,2.352E3,1.0301E4,1.393E3,9.2E1,2.497E3,5.66E2,2.707E3,1.591E3,5.449E3,1.33E3,1.84E2,5.97E2,1.755E3,1.0002E4,2.99E2,4.35E2,9.58E2,3.87E2,2.11E3,1.51E2,4.15E2,1.555E3,1.152E3,1.24E3,3.51E2,4.47E3,9.79E2,2.46E2,1.084E3,7.4E1,1.1E2,1.81E2,4.16E2,1.665E3,9E1,1.14E2,9.888E3,1.83E2,1.16E2,3.39E2,9.6E1,7.02E2,2.56E2,1.07E2,2.8E2,1.452E3,6.58E2],"tree_param":{"num_deleted":"0","num_feature":"29","num_nodes":"57","size_leaf_vector":"1"}},{"base_weights":[6.982258E-4,-2.7715467E-2,2.320816E-3,-5.1296037E-2,4.6723828E-2,2.7935419E-3,-1.0003542E-1,-2.2456089E-2,-1.006934E-1,1.0107318E-1,-2.027223E-2,1.5807516E-3,5.0682653E-2,-8.949494E-3,4.5554593E-4,-7.758482E-2,9.750321E-3,1.2449014E-3,-1.17990635E-1,7.7108154E-4,1.339564E-1,-4.9907584E-3,2.76466E-2,9.005007E-4,8.863168E-2,3.0790452E-2,1.0311349E-2,-5.3616217E-3,1.9607274E-3,4.950126E-3,-8.1695843E-4,-4.6566203E-3,-1.2430068E-2,9.428863E-3,2.9660005E-3,4.6934206E-3,-2.2155587E-3,1.1324073E-4,-2.885671E-3,7.3693693E-3,-2.729066E-4,1.1345447E-2,5.888766E-4],"categories":[],"categories_nodes":[],"categories_segments":[],"categories_sizes":[],"default_left":[0,0,0,0,0,0,0,0,0,0,0,0,0,0,0,0,0,0,0,0,0,0,0,0,0,0,0,0,0,0,0,0,0,0,0,0,0,0,0,0,0,0,0],"id":24,"left_children":[1,3,5,7,9,11,13,15,17,19,21,23,25,-1,-1,27,29,-1,31,-1,33,-1,35,37,39,41,-1,-1,-1,-1,-1,-1,-1,-1,-1,-1,-1,-1,-1,-1,-1,-1,-1],"loss_changes":[1.3142986E0,2.7055907E0,1.3051164E0,1.6645408E0,1.3529315E0,1.5590047E0,1.0702119E0,1.3146253E0,9.3923616E-1,5.7531667E-1,6.3929754E-1,1.550326E0,2.045051E0,0E0,0E0,9.495553E-1,1.0913764E0,0E0,1.207366E0,0E0,5.921657E-1,0E0,5.045028E-1,2.0776935E0,1.123052E0,2.193582E0,0E0,0E0,0E0,0E0,0E0,0E0,0E0,0E0,0E0,0E0,0E0,0E0,0E0,0E0,0E0,0E0,0E0],"parents":[2147483647,0,0,1,1,2,2,3,3,4,4,5,5,6,6,7,7,8,8,9,9,10,10,11,11,12,12,15,15,16,16,18,18,20,20,22,22,23,23,24,24,25,25],"right_children":[2,4,6,8,10,12,14,16,18,20,22,24,26,-1,-1,28,30,-1,32,-1,34,-1,36,38,40,42,-1,-1,-1,-1,-1,-1,-1,-1,-1,-1,-1,-1,-1,-1,-1,-1,-1],"split_conditions":[-3.060092E-1,1.0211259E-2,4.6619204E-1,7.711891E-3,5.616644E-2,3.3124335E-2,4.185427E-2,-6.8960977E-3,4.7666425E-1,2.076285E-2,-1.7290637E-1,3.895868E-1,1.1976446E0,-8.949494E-3,4.5554593E-4,2.5370589E-2,-4.7549725E-2,1.2449014E-3,2.5574923E-2,7.7108154E-4,4.361887E-2,-4.9907584E-3,-7.842686E-3,2.6882514E-1,7.3088394E1,-1.3444396E0,1.0311349E-2,-5.3616217E-3,1.9607274E-3,4.950126E-3,-8.1695843E-4,-4.6566203E-3,-1.2430068E-2,9.428863E-3,2.9660005E-3,4.6934206E-3,-2.2155587E-3,1.1324073E-4,-2.885671E-3,7.3693693E-3,-2.729066E-4,1.1345447E-2,5.888766E-4],"split_indices":[5,25,8,3,3,17,18,23,21,16,8,28,11,0,0,17,2,0,17,0,18,0,22,28,12,14,0,0,0,0,0,0,0,0,0,0,0,0,0,0,0,0,0],"split_type":[0,0,0,0,0,0,0,0,0,0,0,0,0,0,0,0,0,0,0,0,0,0,0,0,0,0,0,0,0,0,0,0,0,0,0,0,0,0,0,0,0,0,0],"sum_hessian":[2.8505E4,1.539E3,2.6966E4,1.169E3,3.7E2,2.6843E4,1.23E2,7.39E2,4.3E2,2.04E2,1.66E2,2.6181E4,6.62E2,7.1E1,5.2E1,2.72E2,4.67E2,5.2E1,3.78E2,5.7E1,1.47E2,6.2E1,1.04E2,2.5979E4,2.02E2,5.88E2,7.4E1,2.17E2,5.5E1,1.05E2,3.62E2,3.19E2,5.9E1,8.4E1,6.3E1,5.4E1,5E1,2.5389E4,5.9E2,1.24E2,7.8E1,5.1E1,5.37E2],"tree_param":{"num_deleted":"0","num_feature":"29","num_nodes":"43","size_leaf_vector":"1"}},{"base_weights":[5.336507E-4,-1.8168408E-2,2.7941072E-3,-2.310975E-2,6.5809335E-3,1.1152656E-2,-2.0301458E-3,7.1022524E-3,-3.861224E-2,-6.0063686E-2,1.5639117E-2,-2.2094026E-2,2.9840318E-3,1.9988108E-2,-1.0261609E-1,-4.43391E-2,3.9779446E-3,-7.613347E-2,6.956065E-4,3.2314852E-2,6.4112707E-3,8.116049E-3,-2.5296789E-2,1.9290943E-2,-2.4102961E-3,-2.0166864E-3,2.8276758E-3,-9.505952E-3,-2.26117E-4,-1.8438112E-3,-8.231963E-3,1.023941E-4,-4.6222075E-3,2.0077545E-3,-3.1431857E-3,-5.8746675E-4,1.1188916E-3,-3.119457E-4,-2.1960712E-3,1.2029646E-3,-3.0148446E-3,-3.9220366E-4,9.248801E-4],"categories":[],"categories_nodes":[],"categories_segments":[],"categories_sizes":[],"default_left":[0,0,0,0,0,0,0,0,0,0,0,0,0,0,0,0,0,0,0,0,0,0,0,0,0,0,0,0,0,0,0,0,0,0,0,0,0,0,0,0,0,0,0],"id":25,"left_children":[1,3,5,7,-1,9,11,13,15,17,19,21,23,25,27,29,-1,31,-1,33,35,-1,37,39,41,-1,-1,-1,-1,-1,-1,-1,-1,-1,-1,-1,-1,-1,-1,-1,-1,-1,-1],"loss_changes":[1.2012159E0,2.2708592E0,1.0222299E0,1.3899021E0,0E0,2.9650278E0,1.6171725E0,1.4257624E0,1.3306339E0,6.5488553E-1,1.3428669E0,1.9024153E0,1.1313622E0,1.9918153E0,9.089905E-1,1.6736853E0,0E0,5.7657576E-1,0E0,2.3225305E0,1.6298518E0,0E0,1.121355E0,1.2147204E0,1.0981746E0,0E0,0E0,0E0,0E0,0E0,0E0,0E0,0E0,0E0,0E0,0E0,0E0,0E0,0E0,0E0,0E0,0E0,0E0],"parents":[2147483647,0,0,1,1,2,2,3,3,5,5,6,6,7,7,8,8,9,9,10,10,11,11,12,12,13,13,14,14,15,15,17,17,19,19,20,20,22,22,23,23,24,24],"right_children":[2,4,6,8,-1,10,12,14,16,18,20,22,24,26,28,30,-1,32,-1,34,36,-1,38,40,42,-1,-1,-1,-1,-1,-1,-1,-1,-1,-1,-1,-1,-1,-1,-1,-1,-1,-1],"split_conditions":[4.996905E-1,9.457246E-2,2.1839228E-2,-1.9206632E-2,6.5809335E-3,-2.0208666E-2,1.4852684E-2,6.7482924E-1,4.9633853E-2,4.1717578E-2,-7.1267164E-3,-8.1349425E-2,-1.17208855E-2,-6.1481122E-2,-3.8609136E-2,3.5030987E-2,3.9779446E-3,-4.0729484E-1,6.956065E-4,3.1292737E-2,6.650412E-3,8.116049E-3,3.7856966E-3,2.6882514E-1,5.152232E-1,-2.0166864E-3,2.8276758E-3,-9.505952E-3,-2.26117E-4,-1.8438112E-3,-8.231963E-3,1.023941E-4,-4.6222075E-3,2.0077545E-3,-3.1431857E-3,-5.8746675E-4,1.1188916E-3,-3.119457E-4,-2.1960712E-3,1.2029646E-3,-3.0148446E-3,-3.9220366E-4,9.248801E-4],"split_indices":[21,9,18,1,0,26,16,11,26,3,9,9,23,4,27,1,0,22,0,26,5,0,4,28,11,0,0,0,0,0,0,0,0,0,0,0,0,0,0,0,0,0,0],"split_type":[0,0,0,0,0,0,0,0,0,0,0,0,0,0,0,0,0,0,0,0,0,0,0,0,0,0,0,0,0,0,0,0,0,0,0,0,0,0,0,0,0,0,0],"sum_hessian":[2.8412E4,3.063E3,2.5349E4,2.966E3,9.7E1,9.276E3,1.6073E4,1.006E3,1.96E3,5.49E2,8.727E3,3.213E3,1.286E4,9.01E2,1.05E2,1.87E3,9E1,4.51E2,9.8E1,3.108E3,5.619E3,5.4E1,3.159E3,3.196E3,9.664E3,3.4E2,5.61E2,5.5E1,5E1,1.762E3,1.08E2,7.8E1,3.73E2,2.872E3,2.36E2,2.629E3,2.99E3,1.562E3,1.597E3,3.016E3,1.8E2,7.671E3,1.993E3],"tree_param":{"num_deleted":"0","num_feature":"29","num_nodes":"43","size_leaf_vector":"1"}},{"base_weights":[-1.4719685E-3,4.9390815E-2,-2.4749313E-3,2.2625273E-2,1.379394E-1,-1.0614937E-2,2.152488E-3,-3.395867E-2,6.567626E-2,8.29194E-3,5.148666E-3,-7.47383E-2,-8.604866E-3,-1.254691E-3,2.0531543E-2,4.0723663E-3,-5.599508E-3,1.811252E-2,7.8551285E-3,2.1719774E-3,-9.79896E-2,-4.657972E-3,-3.873813E-2,4.8167602E-4,-4.2995203E-2,4.8630886E-2,-6.5866252E-3,3.6991332E-3,-3.3515599E-3,-1.8739799E-3,6.6612377E-3,-1.213306E-3,-6.9251074E-3,-6.4023334E-4,6.921371E-4,-5.2250642E-3,-1.2163114E-3,-1.5719232E-5,3.8704635E-3,-9.036764E-4,-6.136129E-3,2.8214138E-3,-6.7041926E-3,2.470251E-3,-1.2551786E-3],"categories":[],"categories_nodes":[],"categories_segments":[],"categories_sizes":[],"default_left":[0,0,0,0,0,0,0,0,0,0,0,0,0,0,0,0,0,0,0,0,0,0,0,0,0,0,0,0,0,0,0,0,0,0,0,0,0,0,0,0,0,0,0,0,0],"id":26,"left_children":[1,3,5,7,9,11,13,15,17,-1,-1,19,21,23,25,27,-1,29,-1,-1,31,33,35,37,39,41,43,-1,-1,-1,-1,-1,-1,-1,-1,-1,-1,-1,-1,-1,-1,-1,-1,-1,-1],"loss_changes":[1.4456402E0,1.2956667E0,1.0467573E0,1.0302198E0,1.0681558E-1,1.2975621E0,1.10954E0,5.435302E-1,1.0408132E0,0E0,0E0,8.450799E-1,1.1614363E0,1.0834045E0,2.1118295E0,6.213471E-1,0E0,1.0224872E0,0E0,0E0,7.6124096E-1,1.301943E0,1.0693885E0,8.7892693E-1,1.1839849E0,1.9465811E0,1.4641567E0,0E0,0E0,0E0,0E0,0E0,0E0,0E0,0E0,0E0,0E0,0E0,0E0,0E0,0E0,0E0,0E0,0E0,0E0],"parents":[2147483647,0,0,1,1,2,2,3,3,4,4,5,5,6,6,7,7,8,8,11,11,12,12,13,13,14,14,15,15,17,17,20,20,21,21,22,22,23,23,24,24,25,25,26,26],"right_children":[2,4,6,8,10,12,14,16,18,-1,-1,20,22,24,26,28,-1,30,-1,-1,32,34,36,38,40,42,44,-1,-1,-1,-1,-1,-1,-1,-1,-1,-1,-1,-1,-1,-1,-1,-1,-1,-1],"split_conditions":[-2.5568599E-1,1.327823E-2,-7.5539045E-2,-3.1017777E-1,-1.6802123E-1,-4.6060953E-2,6.779129E1,-4.9862295E-2,-5.9801605E-2,8.29194E-3,5.148666E-3,-2.5091663E-1,-9.9970594E-2,1.8545326E0,1.5577096E-2,-2.4169952E-1,-5.599508E-3,1.0384826E-1,7.8551285E-3,2.1719774E-3,1.5640583E-2,2.272884E-2,5.3644913E-1,3.895868E-1,6.429771E-2,1.1325296E0,5.1405896E-3,3.6991332E-3,-3.3515599E-3,-1.8739799E-3,6.6612377E-3,-1.213306E-3,-6.9251074E-3,-6.4023334E-4,6.921371E-4,-5.2250642E-3,-1.2163114E-3,-1.5719232E-5,3.8704635E-3,-9.036764E-4,-6.136129E-3,2.8214138E-3,-6.7041926E-3,2.470251E-3,-1.2551786E-3],"split_indices":[4,25,5,4,28,26,13,27,2,0,0,8,5,14,26,5,0,11,0,0,11,26,21,28,6,11,25,0,0,0,0,0,0,0,0,0,0,0,0,0,0,0,0,0,0],"split_type":[0,0,0,0,0,0,0,0,0,0,0,0,0,0,0,0,0,0,0,0,0,0,0,0,0,0,0,0,0,0,0,0,0,0,0,0,0,0,0,0,0,0,0,0,0],"sum_hessian":[2.8335E4,5.47E2,2.7788E4,4.21E2,1.26E2,1.0071E4,1.7717E4,1.82E2,2.39E2,6.8E1,5.8E1,3.05E2,9.766E3,1.4947E4,2.77E3,1.23E2,5.9E1,1.58E2,8.1E1,5E1,2.55E2,8.636E3,1.13E3,1.4351E4,5.96E2,1.36E3,1.41E3,6.2E1,6.1E1,1.07E2,5.1E1,9.1E1,1.64E2,5.996E3,2.64E3,2.02E2,9.28E2,1.4205E4,1.46E2,4.55E2,1.41E2,1.305E3,5.5E1,3.5E2,1.06E3],"tree_param":{"num_deleted":"0","num_feature":"29","num_nodes":"45","size_leaf_vector":"1"}},{"base_weights":[-2.4586858E-4,-3.6794147E-3,1.6532352E-2,4.587965E-2,-4.8440364E-3,-1.5475219E-3,4.021591E-2,-2.9211665E-2,7.7969134E-2,4.6863098E-2,-5.842541E-3,2.211373E-2,-3.3650625E-2,4.922614E-2,-2.3426214E-2,8.1107544E-4,-3.8275674E-3,1.2292534E-1,3.8580816E-2,2.342273E-2,9.548201E-3,-3.240942E-3,-2.355079E-2,-4.8805666E-3,2.9935064E-2,-7.637697E-2,7.8135094E-4,3.8330853E-2,1.4373736E-1,6.3599735E-2,-9.732471E-2,4.0217703E-3,8.347517E-3,-1.2759491E-3,4.323144E-3,7.5245053E-3,1.3144508E-4,-2.2676645E-4,2.4845079E-3,-2.389643E-3,-9.820495E-5,1.8982813E-3,-1.59273E-3,-2.2089456E-3,-7.839559E-3,4.1426243E-3,-1.0963811E-3,4.2171283E-3,8.7522203E-4,1.1779667E-2,4.129071E-3,-3.2357656E-4,7.6151243E-3,-9.562127E-3,3.334301E-5],"categories":[],"categories_nodes":[],"categories_segments":[],"categories_sizes":[],"default_left":[0,0,0,0,0,0,0,0,0,0,0,0,0,0,0,0,0,0,0,0,0,0,0,0,0,0,0,0,0,0,0,0,0,0,0,0,0,0,0,0,0,0,0,0,0,0,0,0,0,0,0,0,0,0,0],"id":27,"left_children":[1,3,5,7,9,11,13,15,17,19,21,23,25,27,29,-1,-1,31,33,35,-1,37,39,-1,41,43,45,47,49,51,53,-1,-1,-1,-1,-1,-1,-1,-1,-1,-1,-1,-1,-1,-1,-1,-1,-1,-1,-1,-1,-1,-1,-1,-1],"loss_changes":[1.6379366E0,1.3624717E0,2.0682476E0,1.3083034E0,1.1909093E0,2.082047E0,1.2001953E0,3.5182092E-1,6.681421E-1,1.4716163E0,1.042252E0,1.4805765E0,1.7110102E0,1.88095E0,1.6782724E0,0E0,0E0,3.1767082E-1,6.2832946E-1,9.9572027E-1,0E0,1.3518564E0,1.5164474E0,0E0,7.365862E-1,1.336858E0,1.2039362E0,1.5739012E0,1.0422592E0,7.468473E-1,1.2977728E0,0E0,0E0,0E0,0E0,0E0,0E0,0E0,0E0,0E0,0E0,0E0,0E0,0E0,0E0,0E0,0E0,0E0,0E0,0E0,0E0,0E0,0E0,0E0,0E0],"parents":[2147483647,0,0,1,1,2,2,3,3,4,4,5,5,6,6,7,7,8,8,9,9,10,10,11,11,12,12,13,13,14,14,17,17,18,18,19,19,21,21,22,22,24,24,25,25,26,26,27,27,28,28,29,29,30,30],"right_children":[2,4,6,8,10,12,14,16,18,20,22,24,26,28,30,-1,-1,32,34,36,-1,38,40,-1,42,44,46,48,50,52,54,-1,-1,-1,-1,-1,-1,-1,-1,-1,-1,-1,-1,-1,-1,-1,-1,-1,-1,-1,-1,-1,-1,-1,-1],"split_conditions":[-4.3359682E-2,7.488456E-3,3.547671E-2,8.953629E-3,-1.546576E-1,5.583435E-3,6.494933E-2,8.024734E-3,1.0581952E-2,2.1346538E-1,9.623106E-2,3.7856966E-3,6.5994384E-3,2.4317447E-2,3.1876273E-2,8.1107544E-4,-3.8275674E-3,-1.9652236E-3,6.0688276E-3,1.5766261E-2,9.548201E-3,5.94561E-1,2.0379154E-1,-4.8805666E-3,1.6392401E-1,2.1128683E-1,1.13138705E-1,1.3964796E-1,2.6619589E-2,1.8186325E-2,3.855188E-2,4.0217703E-3,8.347517E-3,-1.2759491E-3,4.323144E-3,7.5245053E-3,1.3144508E-4,-2.2676645E-4,2.4845079E-3,-2.389643E-3,-9.820495E-5,1.8982813E-3,-1.59273E-3,-2.2089456E-3,-7.839559E-3,4.1426243E-3,-1.0963811E-3,4.2171283E-3,8.7522203E-4,1.1779667E-2,4.129071E-3,-3.2357656E-4,7.6151243E-3,-9.562127E-3,3.334301E-5],"split_indices":[10,16,9,17,7,25,1,17,17,11,8,4,25,17,18,0,0,23,24,16,0,11,5,0,28,5,5,8,17,17,18,0,0,0,0,0,0,0,0,0,0,0,0,0,0,0,0,0,0,0,0,0,0,0,0],"split_type":[0,0,0,0,0,0,0,0,0,0,0,0,0,0,0,0,0,0,0,0,0,0,0,0,0,0,0,0,0,0,0,0,0,0,0,0,0,0,0,0,0,0,0,0,0,0,0,0,0,0,0,0,0,0,0],"sum_hessian":[2.843E4,2.3601E4,4.829E3,5.41E2,2.306E4,2.739E3,2.09E3,1.62E2,3.79E2,4.36E2,2.2624E4,1.577E3,1.162E3,1.831E3,2.59E2,8.3E1,7.9E1,1.76E2,2.03E2,3.76E2,6E1,1.9727E4,2.897E3,9.6E1,1.481E3,5.18E2,6.44E2,1.643E3,1.88E2,1.19E2,1.4E2,9.1E1,8.5E1,8.7E1,1.16E2,5.2E1,3.24E2,1.9257E4,4.7E2,1.364E3,1.533E3,1.311E3,1.7E2,3.71E2,1.47E2,1.39E2,5.05E2,5.11E2,1.132E3,7.4E1,1.14E2,6.7E1,5.2E1,7.1E1,6.9E1],"tree_param":{"num_deleted":"0","num_feature":"29","num_nodes":"55","size_leaf_vector":"1"}},{"base_weights":[5.2536274E-5,3.9243493E-2,-8.93977E-4,6.537327E-2,-4.7659423E-2,-7.798786E-3,6.270305E-3,4.0120527E-2,1.4281729E-1,-6.3081086E-3,1.5727176E-3,-2.1154845E-2,-1.1120999E-3,-8.0597825E-2,7.3058316E-3,1.3308752E-2,8.105775E-3,1.0469074E-2,3.0583243E-3,-7.862738E-2,-1.3312567E-2,3.9501607E-2,-5.652392E-3,-6.5802666E-3,-1.5846005E-3,3.5107818E-2,4.5644175E-3,5.1789666E-3,-1.2920522E-3,2.627808E-3,-4.850987E-3,2.7519063E-4,-1.6971877E-3,2.7948718E-3,-4.4637998E-3,-3.468011E-4,7.6281275E-3,4.2611714E-3,1.8944501E-4,-2.6570985E-3,3.0732466E-4],"categories":[],"categories_nodes":[],"categories_segments":[],"categories_sizes":[],"default_left":[0,0,0,0,0,0,0,0,0,0,0,0,0,0,0,0,0,0,0,0,0,0,0,0,0,0,0,0,0,0,0,0,0,0,0,0,0,0,0,0,0],"id":28,"left_children":[1,3,5,7,9,11,13,15,17,-1,-1,19,21,23,25,27,-1,-1,-1,29,31,33,35,-1,-1,37,39,-1,-1,-1,-1,-1,-1,-1,-1,-1,-1,-1,-1,-1,-1],"loss_changes":[1.0507812E0,1.5199795E0,1.3682841E0,9.994867E-1,9.666189E-1,1.2578766E0,1.2217183E0,1.2702234E0,6.720052E-1,0E0,0E0,2.1168654E0,1.7311682E0,3.949592E-1,1.0223637E0,1.1335803E0,0E0,0E0,0E0,1.3659043E0,1.6057997E0,1.9981662E0,1.7159448E0,0E0,0E0,1.8894353E0,1.1153233E0,0E0,0E0,0E0,0E0,0E0,0E0,0E0,0E0,0E0,0E0,0E0,0E0,0E0,0E0],"parents":[2147483647,0,0,1,1,2,2,3,3,4,4,5,5,6,6,7,7,8,8,11,11,12,12,13,13,14,14,15,15,19,19,20,20,21,21,22,22,25,25,26,26],"right_children":[2,4,6,8,10,12,14,16,18,-1,-1,20,22,24,26,28,-1,-1,-1,30,32,34,36,-1,-1,38,40,-1,-1,-1,-1,-1,-1,-1,-1,-1,-1,-1,-1,-1,-1],"split_conditions":[-8.4671564E-2,2.3040837E-2,-1.4788948E-1,-4.22453E-2,6.980489E-3,5.2115205E-3,-4.3389942E-2,-8.837382E-2,-7.0168175E-2,-6.3081086E-3,1.5727176E-3,-3.060092E-1,-3.8669702E-1,2.7884644E-2,-6.413907E-2,-2.2448337E-1,8.105775E-3,1.0469074E-2,3.0583243E-3,2.4624498E1,-1.3681228E-1,6.2297355E-2,1.534985E-1,-6.5802666E-3,-1.5846005E-3,-1.1841862E-1,-2.808012E-2,5.1789666E-3,-1.2920522E-3,2.627808E-3,-4.850987E-3,2.7519063E-4,-1.6971877E-3,2.7948718E-3,-4.4637998E-3,-3.468011E-4,7.6281275E-3,4.2611714E-3,1.8944501E-4,-2.6570985E-3,3.0732466E-4],"split_indices":[9,2,10,27,23,25,9,9,3,0,0,5,10,18,28,5,0,0,0,13,5,27,8,0,0,10,8,0,0,0,0,0,0,0,0,0,0,0,0,0,0],"split_type":[0,0,0,0,0,0,0,0,0,0,0,0,0,0,0,0,0,0,0,0,0,0,0,0,0,0,0,0,0,0,0,0,0,0,0,0,0,0,0,0,0],"sum_hessian":[2.8325E4,6.67E2,2.7658E4,5.13E2,1.54E2,1.4084E4,1.3574E4,3.88E2,1.25E2,7.7E1,7.7E1,4.698E3,9.386E3,1.59E2,1.3415E4,3.19E2,6.9E1,6.8E1,5.7E1,5.63E2,4.135E3,9.43E2,8.443E3,7.7E1,8.2E1,1.203E3,1.2212E4,9.6E1,2.23E2,6.9E1,4.94E2,2.163E3,1.972E3,8.37E2,1.06E2,8.376E3,6.7E1,4.62E2,7.41E2,3.25E2,1.1887E4],"tree_param":{"num_deleted":"0","num_feature":"29","num_nodes":"41","size_leaf_vector":"1"}},{"base_weights":[-2.6252455E-4,-2.7156653E-2,1.3079743E-3,4.6144634E-2,-4.171799E-2,1.8776048E-3,-6.751754E-2,-6.3825725E-3,7.0550563E-3,-1.062029E-2,-8.1312776E-2,-1.0432332E-3,1.5914239E-2,-1.1592345E-1,3.36792E-3,4.8274514E-3,-5.1688172E-2,4.658134E-3,-2.1668294E-2,-1.06684916E-1,-1.3534148E-3,1.0243122E-2,-4.984644E-3,2.0918567E-2,-4.825807E-2,-6.522201E-4,-1.6537386E-1,-5.898603E-3,1.7355031E-3,-3.8488393E-4,-5.226932E-3,-4.239566E-3,-9.405113E-3,2.9353865E-3,-3.5778966E-3,1.012523E-3,-6.044231E-4,2.9579948E-3,-3.5518705E-4,8.2870526E-4,4.43206E-3,2.2084906E-3,-5.2008014E-3,-4.781462E-3,-1.16689885E-2],"categories":[],"categories_nodes":[],"categories_segments":[],"categories_sizes":[],"default_left":[0,0,0,0,0,0,0,0,0,0,0,0,0,0,0,0,0,0,0,0,0,0,0,0,0,0,0,0,0,0,0,0,0,0,0,0,0,0,0,0,0,0,0,0,0],"id":29,"left_children":[1,3,5,7,9,11,13,15,-1,17,19,21,23,25,-1,-1,27,-1,29,31,33,35,37,39,41,-1,43,-1,-1,-1,-1,-1,-1,-1,-1,-1,-1,-1,-1,-1,-1,-1,-1,-1,-1],"loss_changes":[1.2034154E0,1.6798229E0,1.0555282E0,1.3027163E0,1.6146109E0,1.0946829E0,1.4506714E0,7.931013E-1,0E0,8.459124E-1,1.1704388E0,9.832399E-1,1.4779288E0,8.2709074E-1,0E0,0E0,6.7985845E-1,0E0,7.7025676E-1,7.647934E-1,5.9452E-1,1.2787722E0,2.2272005E0,1.2539606E0,1.7207396E0,0E0,4.9941707E-1,0E0,0E0,0E0,0E0,0E0,0E0,0E0,0E0,0E0,0E0,0E0,0E0,0E0,0E0,0E0,0E0,0E0,0E0],"parents":[2147483647,0,0,1,1,2,2,3,3,4,4,5,5,6,6,7,7,9,9,10,10,11,11,12,12,13,13,16,16,18,18,19,19,20,20,21,21,22,22,23,23,24,24,26,26],"right_children":[2,4,6,8,10,12,14,16,-1,18,20,22,24,26,-1,-1,28,-1,30,32,34,36,38,40,42,-1,44,-1,-1,-1,-1,-1,-1,-1,-1,-1,-1,-1,-1,-1,-1,-1,-1,-1,-1],"split_conditions":[4.0574402E-1,-1.3870031E-2,4.02212E0,-3.238456E-2,4.2957968E-1,4.9487013E-2,9.821807E-3,3.0622974E-1,7.0550563E-3,-1.7193863E-1,1.8272197E-2,2.5775661E1,2.801204E-1,-9.568722E-3,3.36792E-3,4.8274514E-3,2.1504767E-1,4.658134E-3,1.4482773E-2,1.107557E-2,2.159647E-2,7.0541045E-3,-1.1717789E-1,1.8574865E-1,3.1876273E-2,-6.522201E-4,2.9613934E-2,-5.898603E-3,1.7355031E-3,-3.8488393E-4,-5.226932E-3,-4.239566E-3,-9.405113E-3,2.9353865E-3,-3.5778966E-3,1.012523E-3,-6.044231E-4,2.9579948E-3,-3.5518705E-4,8.2870526E-4,4.43206E-3,2.2084906E-3,-5.2008014E-3,-4.781462E-3,-1.16689885E-2],"split_indices":[21,24,21,3,19,2,25,21,0,28,24,12,28,23,0,0,11,0,23,23,17,25,7,27,18,0,8,0,0,0,0,0,0,0,0,0,0,0,0,0,0,0,0,0,0],"split_type":[0,0,0,0,0,0,0,0,0,0,0,0,0,0,0,0,0,0,0,0,0,0,0,0,0,0,0,0,0,0,0,0,0,0,0,0,0,0,0,0,0,0,0,0,0],"sum_hessian":[2.849E4,1.571E3,2.6919E4,2.6E2,1.311E3,2.6699E4,2.2E2,1.68E2,9.2E1,7.35E2,5.76E2,2.2101E4,4.598E3,1.62E2,5.8E1,5.1E1,1.17E2,7E1,6.65E2,4.37E2,1.39E2,5.72E3,1.6381E4,4.266E3,3.32E2,5.3E1,1.09E2,6.6E1,5.1E1,5.7E2,9.5E1,3.46E2,9.1E1,7.5E1,6.4E1,3.95E3,1.77E3,5.23E2,1.5858E4,4.01E3,2.56E2,1.25E2,2.07E2,5.5E1,5.4E1],"tree_param":{"num_deleted":"0","num_feature":"29","num_nodes":"45","size_leaf_vector":"1"}},{"base_weights":[-1.0282224E-4,-1.0841956E-3,4.0976938E-2,-3.5149062E-3,1.616293E-2,5.561116E-2,-5.905898E-3,-3.0762758E-3,-5.750966E-3,2.4281971E-2,-4.3627962E-2,7.185836E-2,-2.3104518E-3,1.1246358E-2,-6.1423266E-3,3.3397514E-2,-2.3011474E-2,-8.369087E-3,-2.5925819E-2,3.8446598E-3,1.06049605E-1,-1.7209555E-3,8.8302355E-4,-4.7212202E-4,5.865241E-4,1.4674516E-3,7.6802694E-3,-3.92777E-5,-7.4524544E-3,-2.3542029E-4,-7.1557323E-3,-3.8011093E-3,3.3365607E-3,3.2428324E-3,9.188788E-3],"categories":[],"categories_nodes":[],"categories_segments":[],"categories_sizes":[],"default_left":[0,0,0,0,0,0,0,0,0,0,0,0,0,0,0,0,0,0,0,0,0,0,0,0,0,0,0,0,0,0,0,0,0,0,0],"id":30,"left_children":[1,3,5,7,9,11,-1,13,-1,15,17,19,-1,21,23,25,27,-1,29,31,33,-1,-1,-1,-1,-1,-1,-1,-1,-1,-1,-1,-1,-1,-1],"loss_changes":[1.1421162E0,1.1600181E0,1.5455288E0,1.1857928E0,1.6603093E0,1.0058221E0,0E0,1.0609415E0,0E0,1.2983958E0,8.9165974E-1,1.2158144E0,0E0,1.2483764E0,1.1737995E0,1.2238202E0,1.3641169E0,0E0,8.919593E-1,