{"learner":{"attributes":{"best_iteration":"36","best_score":"0.28781561932785293"},"feature_names":["ret_1d","ret_5d","ret_10d","ret_21d","ret_63d","mom_12_1","dist_sma20","dist_sma50","dist_sma200","sma20_50","hi52_dist","lo52_dist","rsi_5","rsi_14","boll_z","down_streak","vol_21d","vol_63d","atr_pct","range_pos","gap","vol_ratio","turnover_z","nifty_ret_5d","nifty_ret_21d","nifty_vol_21d","nifty_dist_sma50","rs_21d","rs_63d"],"feature_types":[],"gradient_booster":{"model":{"cats":{"enc":[],"feature_segments":[],"sorted_idx":[]},"gbtree_model_param":{"num_parallel_tree":"1","num_trees":"87"},"iteration_indptr":[0,1,2,3,4,5,6,7,8,9,10,11,12,13,14,15,16,17,18,19,20,21,22,23,24,25,26,27,28,29,30,31,32,33,34,35,36,37,38,39,40,41,42,43,44,45,46,47,48,49,50,51,52,53,54,55,56,57,58,59,60,61,62,63,64,65,66,67,68,69,70,71,72,73,74,75,76,77,78,79,80,81,82,83,84,85,86,87],"tree_info":[0,0,0,0,0,0,0,0,0,0,0,0,0,0,0,0,0,0,0,0,0,0,0,0,0,0,0,0,0,0,0,0,0,0,0,0,0,0,0,0,0,0,0,0,0,0,0,0,0,0,0,0,0,0,0,0,0,0,0,0,0,0,0,0,0,0,0,0,0,0,0,0,0,0,0,0,0,0,0,0,0,0,0,0,0,0,0],"trees":[{"base_weights":[-1.4513904E-3,-1.7531388E-2,1.5598091E-2,-2.529619E-2,2.5107408E-2,-8.805502E-2,1.7802108E-2,-3.3527892E-2,7.9003315E-5,8.762654E-2,-4.450582E-3,-1.1790618E-1,-6.721886E-4,3.4064412E-2,7.656962E-3,8.7307446E-2,-3.533166E-2,5.2560627E-2,-2.2295857E-2,-4.2245213E-2,1.1474835E-1,-6.9400504E-2,2.170899E-2,-8.064191E-2,-1.0145548E-2,5.213763E-2,4.4609467E-3,-1.0467566E-4,5.852443E-2,-2.7833872E-3,8.114046E-3,-8.0206385E-4,-2.2614656E-3,1.4575102E-3,6.1384235E-3,3.259891E-3,-1.6352999E-3,3.7750497E-3,-6.6723437E-3,6.992324E-3,-2.7716227E-3,-8.9122E-3,-7.38026E-4,3.2721737E-3,-2.3661272E-3,-1.0534379E-3,-6.7073056E-3,2.005943E-3,5.158754E-3,-2.9895536E-3,9.928952E-4,4.0132177E-4,-1.7850647E-3,-7.204812E-3,3.4039647E-3],"categories":[],"categories_nodes":[],"categories_segments":[],"categories_sizes":[],"default_left":[0,0,0,0,0,0,0,0,0,0,0,0,0,0,0,0,0,0,0,0,0,0,0,0,0,0,0,0,0,0,0,0,0,0,0,0,0,0,0,0,0,0,0,0,0,0,0,0,0,0,0,0,0,0,0],"id":0,"left_children":[1,3,5,7,9,11,13,15,17,19,21,23,-1,25,27,29,31,33,35,37,39,41,43,45,-1,47,49,51,53,-1,-1,-1,-1,-1,-1,-1,-1,-1,-1,-1,-1,-1,-1,-1,-1,-1,-1,-1,-1,-1,-1,-1,-1,-1,-1],"loss_changes":[8.432478E0,5.2413306E0,3.4121451E0,2.7971277E0,4.507515E0,6.9108415E-1,2.4116316E0,2.2068663E0,3.853948E0,2.7628536E0,2.8168526E0,6.868532E-1,0E0,3.0044956E0,3.5549195E0,1.6062168E0,1.9015045E0,1.6087885E0,2.0979323E0,1.4705317E0,2.7755022E0,2.828239E0,3.5716236E0,4.9441028E-1,0E0,2.1348124E0,2.1083658E0,2.2616816E0,2.3175378E0,0E0,0E0,0E0,0E0,0E0,0E0,0E0,0E0,0E0,0E0,0E0,0E0,0E0,0E0,0E0,0E0,0E0,0E0,0E0,0E0,0E0,0E0,0E0,0E0,0E0,0E0],"parents":[2147483647,0,0,1,1,2,2,3,3,4,4,5,5,6,6,7,7,8,8,9,9,10,10,11,11,13,13,14,14,15,15,16,16,17,17,18,18,19,19,20,20,21,21,22,22,23,23,25,25,26,26,27,27,28,28],"right_children":[2,4,6,8,10,12,14,16,18,20,22,24,-1,26,28,30,32,34,36,38,40,42,44,46,-1,48,50,52,54,-1,-1,-1,-1,-1,-1,-1,-1,-1,-1,-1,-1,-1,-1,-1,-1,-1,-1,-1,-1,-1,-1,-1,-1,-1,-1],"split_conditions":[-1.475353E-1,3.8390968E-2,-4.3029442E-2,2.4857482E-2,-1.5892357E-1,3.774497E-2,5.216452E-3,-1.0116796E-1,1.04813665E-1,-1.09846964E-1,9.663619E-3,-7.453677E-3,-6.721886E-4,2.20728E-2,2.5108121E-2,-3.5775378E-1,2.1919804E-2,1.6720306E-2,-7.664236E-2,4.4958703E-2,2.6950628E-2,-1.6301306E-1,-2.1943793E-1,2.4628009E-1,-1.0145548E-2,3.4491215E-2,-4.5229523E-3,1.1508708E-2,-1.3618536E-1,-2.7833872E-3,8.114046E-3,-8.0206385E-4,-2.2614656E-3,1.4575102E-3,6.1384235E-3,3.259891E-3,-1.6352999E-3,3.7750497E-3,-6.6723437E-3,6.992324E-3,-2.7716227E-3,-8.9122E-3,-7.38026E-4,3.2721737E-3,-2.3661272E-3,-1.0534379E-3,-6.7073056E-3,2.005943E-3,5.158754E-3,-2.9895536E-3,9.928952E-4,4.0132177E-4,-1.7850647E-3,-7.204812E-3,3.4039647E-3],"split_indices":[10,18,9,24,4,18,25,9,11,9,25,7,0,18,16,10,18,23,27,18,27,5,10,11,0,2,9,25,5,0,0,0,0,0,0,0,0,0,0,0,0,0,0,0,0,0,0,0,0,0,0,0,0,0,0],"split_type":[0,0,0,0,0,0,0,0,0,0,0,0,0,0,0,0,0,0,0,0,0,0,0,0,0,0,0,0,0,0,0,0,0,0,0,0,0,0,0,0,0,0,0,0,0,0,0,0,0,0,0,0,0,0,0],"sum_hessian":[3.0756E4,1.5828E4,1.4928E4,1.339E4,2.438E3,3.1E2,1.4618E4,1.011E4,3.28E3,7.82E2,1.656E3,2.21E2,8.9E1,5.615E3,9.003E3,1.48E2,9.962E3,9.8E2,2.3E3,1.35E2,6.47E2,4.75E2,1.181E3,1.55E2,6.6E1,3.486E3,2.129E3,7.812E3,1.191E3,5.1E1,9.7E1,3.379E3,6.583E3,7.36E2,2.44E2,2.44E2,2.056E3,5.9E1,7.6E1,5.64E2,8.3E1,1.58E2,3.17E2,7.23E2,4.58E2,7.4E1,8.1E1,2.823E3,6.63E2,4.11E2,1.718E3,6.36E3,1.452E3,5.3E1,1.138E3],"tree_param":{"num_deleted":"0","num_feature":"29","num_nodes":"55","size_leaf_vector":"1"}},{"base_weights":[-5.9500616E-7,-1.2823697E-2,1.0901688E-2,7.510393E-2,-1.576242E-2,4.0712513E-2,4.5477697E-3,6.041335E-4,1.3343088E-1,7.832229E-3,-1.6997973E-2,6.325477E-2,2.1951089E-2,-1.5873002E-3,4.3069333E-2,6.370128E-3,-5.6054767E-2,9.155377E-4,1.9605136E-1,-4.431075E-2,-1.0543877E-2,5.5250645E-2,1.5360484E-1,-9.618831E-2,3.3306517E-2,-6.73601E-3,3.365999E-2,-9.256298E-2,5.478803E-2,2.8481317E-4,-6.6299425E-3,1.2086168E-2,4.9325805E-3,-4.714786E-3,-7.8089896E-4,-6.286182E-4,5.0646286E-3,4.170846E-3,2.0737855E-3,1.0958736E-2,3.8011656E-3,-6.4419406E-3,-1.8914025E-3,-3.1315095E-3,2.2682566E-3,1.8468279E-3,-5.56517E-4,2.2003255E-3,-7.5091324E-3,-9.676676E-3,-5.942732E-4,2.2436227E-3,9.370854E-3],"categories":[],"categories_nodes":[],"categories_segments":[],"categories_sizes":[],"default_left":[0,0,0,0,0,0,0,0,0,0,0,0,0,0,0,0,0,0,0,0,0,0,0,0,0,0,0,0,0,0,0,0,0,0,0,0,0,0,0,0,0,0,0,0,0,0,0,0,0,0,0,0,0],"id":1,"left_children":[1,3,5,7,9,11,13,15,17,-1,19,21,23,25,27,-1,29,-1,31,33,35,37,39,41,43,45,47,49,51,-1,-1,-1,-1,-1,-1,-1,-1,-1,-1,-1,-1,-1,-1,-1,-1,-1,-1,-1,-1,-1,-1,-1,-1],"loss_changes":[4.3255854E0,3.6750426E0,3.1674106E0,1.9987786E0,2.9335766E0,1.2411647E0,3.258148E0,1.4655461E0,1.8563008E0,0E0,2.4078598E0,9.562268E-1,2.1563492E0,2.1585455E0,3.0154598E0,0E0,6.6721666E-1,0E0,7.1904325E-1,3.7432418E0,2.508515E0,4.7260237E-1,5.3273463E-1,2.638005E-1,1.6976464E0,1.9920704E0,2.890239E0,1.2277535E0,2.2851143E0,0E0,0E0,0E0,0E0,0E0,0E0,0E0,0E0,0E0,0E0,0E0,0E0,0E0,0E0,0E0,0E0,0E0,0E0,0E0,0E0,0E0,0E0,0E0,0E0],"parents":[2147483647,0,0,1,1,2,2,3,3,4,4,5,5,6,6,7,7,8,8,10,10,11,11,12,12,13,13,14,14,16,16,18,18,19,19,20,20,21,21,22,22,23,23,24,24,25,25,26,26,27,27,28,28],"right_children":[2,4,6,8,10,12,14,16,18,-1,20,22,24,26,28,-1,30,-1,32,34,36,38,40,42,44,46,48,50,52,-1,-1,-1,-1,-1,-1,-1,-1,-1,-1,-1,-1,-1,-1,-1,-1,-1,-1,-1,-1,-1,-1,-1,-1],"split_conditions":[-2.4264554E-2,-2.546959E-1,1.1203883E-2,-2.8811155E-2,-1.5220788E-1,5.0313505E-3,9.715512E-2,-6.297089E-2,-1.09846964E-1,7.832229E-3,5.650753E-1,7.5065506E1,8.716134E-3,4.761881E-1,-2.303462E-2,6.370128E-3,-2.1332194E-1,9.155377E-4,-6.5530166E-2,5.0313505E-3,3.397414E-2,6.5447845E-2,1.5864134E-2,-2.6396834E-4,-1.3099891E-2,-1.22282274E-1,3.1046236E-2,2.1519093E-2,3.549181E-2,2.8481317E-4,-6.6299425E-3,1.2086168E-2,4.9325805E-3,-4.714786E-3,-7.8089896E-4,-6.286182E-4,5.0646286E-3,4.170846E-3,2.0737855E-3,1.0958736E-2,3.8011656E-3,-6.4419406E-3,-1.8914025E-3,-3.1315095E-3,2.2682566E-3,1.8468279E-3,-5.56517E-4,2.2003255E-3,-7.5091324E-3,-9.676676E-3,-5.942732E-4,2.2436227E-3,9.370854E-3],"split_indices":[5,4,16,1,7,25,7,24,9,0,21,13,17,5,24,0,5,0,9,25,17,5,9,3,23,8,23,17,16,0,0,0,0,0,0,0,0,0,0,0,0,0,0,0,0,0,0,0,0,0,0,0,0],"split_type":[0,0,0,0,0,0,0,0,0,0,0,0,0,0,0,0,0,0,0,0,0,0,0,0,0,0,0,0,0,0,0,0,0,0,0,0,0,0,0,0,0,0,0,0,0,0,0,0,0,0,0,0,0],"sum_hessian":[3.0939E4,1.4217E4,1.6722E4,4.59E2,1.3758E4,2.937E3,1.3785E4,2.02E2,2.57E2,9.7E1,1.3661E4,1.333E3,1.604E3,1.1892E4,1.893E3,6.2E1,1.4E2,9.1E1,1.66E2,2.61E3,1.1051E4,1.226E3,1.07E2,1.4E2,1.464E3,1.0377E4,1.515E3,1.5E2,1.743E3,7.8E1,6.2E1,1.12E2,5.4E1,9.51E2,1.659E3,1.0855E4,1.96E2,4.01E2,8.25E2,5.7E1,5E1,8.9E1,5.1E1,1.63E2,1.301E3,9.48E2,9.429E3,1.435E3,8E1,6.6E1,8.4E1,1.623E3,1.2E2],"tree_param":{"num_deleted":"0","num_feature":"29","num_nodes":"53","size_leaf_vector":"1"}},{"base_weights":[-1.1413664E-4,-1.35152675E-2,1.425853E-2,-3.743108E-2,-2.7172812E-3,-2.5064768E-2,2.1059658E-2,-1.9098027E-2,-1.0115722E-1,3.7638407E-2,-1.4857137E-2,-3.9596606E-2,6.526804E-2,3.4996394E-2,3.5019773E-3,7.060181E-2,-2.5160588E-2,-1.1358378E-1,3.9526126E-3,4.6817593E-2,-5.255589E-2,-3.352561E-2,1.1786474E-2,-2.301135E-2,-1.4867382E-1,1.2332758E-1,-3.8186933E-3,-1.3712529E-2,4.064073E-2,-5.9553795E-3,6.3356906E-2,5.4513244E-3,-1.942989E-4,-5.52496E-4,-3.3607816E-3,2.5253447E-3,-6.4245737E-3,-3.2206103E-3,2.7683924E-3,-6.0598846E-3,1.6061635E-3,-6.75032E-4,-2.625001E-3,3.6646754E-3,-1.0815181E-4,-2.0082733E-4,-5.480058E-3,-3.6746622E-3,-1.1316657E-2,-2.1303918E-4,8.794591E-3,4.2976026E-4,-7.844216E-3,1.7090822E-3,4.775066E-3,1.4713158E-4,-3.107182E-3,-1.5772999E-3,4.5989132E-3],"categories":[],"categories_nodes":[],"categories_segments":[],"categories_sizes":[],"default_left":[0,0,0,0,0,0,0,0,0,0,0,0,0,0,0,0,0,0,0,0,0,0,0,0,0,0,0,0,0,0,0,0,0,0,0,0,0,0,0,0,0,0,0,0,0,0,0,0,0,0,0,0,0,0,0,0,0,0,0],"id":2,"left_children":[1,3,5,7,9,11,13,15,17,19,21,23,25,27,29,31,33,35,-1,37,39,41,43,45,47,49,-1,51,53,55,57,-1,-1,-1,-1,-1,-1,-1,-1,-1,-1,-1,-1,-1,-1,-1,-1,-1,-1,-1,-1,-1,-1,-1,-1,-1,-1,-1,-1],"loss_changes":[5.930269E0,4.1144786E0,3.973658E0,5.7881365E0,5.3788157E0,2.8787136E0,3.0992064E0,2.0954483E0,2.487978E0,2.104524E0,4.198413E0,3.4121094E0,2.5094128E0,1.9418354E0,3.1737626E0,6.9879293E-1,2.1397402E0,2.5407667E0,0E0,2.1957216E0,1.3698378E0,1.8850427E0,2.9842584E0,2.69696E0,1.4371457E0,1.4493723E0,0E0,2.3456254E0,2.2390566E0,2.4210072E0,2.080833E0,0E0,0E0,0E0,0E0,0E0,0E0,0E0,0E0,0E0,0E0,0E0,0E0,0E0,0E0,0E0,0E0,0E0,0E0,0E0,0E0,0E0,0E0,0E0,0E0,0E0,0E0,0E0,0E0],"parents":[2147483647,0,0,1,1,2,2,3,3,4,4,5,5,6,6,7,7,8,8,9,9,10,10,11,11,12,12,13,13,14,14,15,15,16,16,17,17,19,19,20,20,21,21,22,22,23,23,24,24,25,25,27,27,28,28,29,29,30,30],"right_children":[2,4,6,8,10,12,14,16,18,20,22,24,26,28,30,32,34,36,-1,38,40,42,44,46,48,50,-1,52,54,56,58,-1,-1,-1,-1,-1,-1,-1,-1,-1,-1,-1,-1,-1,-1,-1,-1,-1,-1,-1,-1,-1,-1,-1,-1,-1,-1,-1,-1],"split_conditions":[-1.475353E-1,5.216452E-3,-1.7543962E-2,2.0186104E-2,-1.21429294E-1,2.3114717E-2,1.3716859E-2,-6.5757275E-2,4.6423578E-1,2.6950628E-2,2.0535143E-2,1.5392747E-2,6.1595753E-2,-7.079508E-2,2.4962245E-2,1.7675966E-2,1.6649434E-2,-6.7670874E-2,3.9526126E-3,1.7641792E0,7.163155E-3,7.939498E-3,-2.2802351E-2,1.339726E-1,2.918456E-2,-1.678366E-2,-3.8186933E-3,2.0022523E-2,5.1928144E-2,4.4871192E-2,1.1167993E-2,5.4513244E-3,-1.942989E-4,-5.52496E-4,-3.3607816E-3,2.5253447E-3,-6.4245737E-3,-3.2206103E-3,2.7683924E-3,-6.0598846E-3,1.6061635E-3,-6.75032E-4,-2.625001E-3,3.6646754E-3,-1.0815181E-4,-2.0082733E-4,-5.480058E-3,-3.6746622E-3,-1.1316657E-2,-2.1303918E-4,8.794591E-3,4.2976026E-4,-7.844216E-3,1.7090822E-3,4.775066E-3,1.4713158E-4,-3.107182E-3,-1.5772999E-3,4.5989132E-3],"split_indices":[10,25,26,17,28,17,24,6,5,27,17,25,9,5,17,16,17,9,0,12,23,25,26,8,27,9,0,17,6,26,25,0,0,0,0,0,0,0,0,0,0,0,0,0,0,0,0,0,0,0,0,0,0,0,0,0,0,0,0],"split_type":[0,0,0,0,0,0,0,0,0,0,0,0,0,0,0,0,0,0,0,0,0,0,0,0,0,0,0,0,0,0,0,0,0,0,0,0,0,0,0,0,0,0,0,0,0,0,0,0,0,0,0,0,0,0,0,0,0,0,0],"sum_hessian":[3.0787E4,1.5932E4,1.4855E4,4.955E3,1.0977E4,2.19E3,1.2665E4,3.849E3,1.106E3,2.538E3,8.439E3,1.887E3,3.03E2,7.06E3,5.605E3,2.43E2,3.606E3,1.035E3,7.1E1,2.304E3,2.34E2,4.962E3,3.477E3,1.639E3,2.48E2,2.15E2,8.8E1,7.33E2,6.327E3,4.841E3,7.64E2,1.6E2,8.3E1,2.701E3,9.05E2,8.6E1,9.49E2,1.64E2,2.14E3,1.29E2,1.05E2,2.415E3,2.547E3,6.42E2,2.835E3,1.345E3,2.94E2,1.27E2,1.21E2,6.3E1,1.52E2,6.35E2,9.8E1,5.662E3,6.65E2,4.18E3,6.61E2,1.77E2,5.87E2],"tree_param":{"num_deleted":"0","num_feature":"29","num_nodes":"59","size_leaf_vector":"1"}},{"base_weights":[7.1736035E-4,1.4137106E-2,-6.499371E-3,-6.7207E-2,1.871905E-2,-1.3606525E-2,2.605645E-2,-8.7120995E-2,1.7164064E-3,-1.5743839E-2,2.555601E-2,-2.8628875E-2,1.4430642E-3,8.732501E-2,8.77917E-3,-1.13729596E-1,-2.7646465E-2,-1.21359825E-1,-7.5939796E-3,3.054767E-2,-2.7329225E-2,-3.3035066E-2,7.1314454E-2,-1.0172119E-2,3.5471752E-2,3.807159E-2,1.2889431E-1,-4.228275E-3,7.286284E-2,-4.402469E-3,-9.142798E-3,3.2181435E-3,-4.003608E-3,-2.4382004E-3,-9.157686E-3,6.0749166E-3,-6.0921087E-4,8.387674E-4,2.3904534E-3,-6.3757674E-5,-6.2010875E-3,4.271332E-3,-1.7710433E-3,1.0701014E-2,1.8890625E-3,-3.7674815E-3,-3.2488015E-4,6.123749E-3,1.1582848E-3,4.0744063E-3,-4.6298197E-3,8.161548E-3,1.4681657E-3,-1.0264437E-3,3.1421117E-3,5.597125E-3,-2.151467E-3],"categories":[],"categories_nodes":[],"categories_segments":[],"categories_sizes":[],"default_left":[0,0,0,0,0,0,0,0,0,0,0,0,0,0,0,0,0,0,0,0,0,0,0,0,0,0,0,0,0,0,0,0,0,0,0,0,0,0,0,0,0,0,0,0,0,0,0,0,0,0,0,0,0,0,0,0,0],"id":3,"left_children":[1,3,5,7,9,11,13,15,-1,17,19,21,23,25,27,29,31,33,35,37,39,41,43,45,47,49,51,53,55,-1,-1,-1,-1,-1,-1,-1,-1,-1,-1,-1,-1,-1,-1,-1,-1,-1,-1,-1,-1,-1,-1,-1,-1,-1,-1,-1,-1],"loss_changes":[2.985101E0,4.0187426E0,4.6381207E0,1.1656234E0,2.4049187E0,3.7197385E0,3.8015587E0,7.58055E-1,0E0,1.4537549E0,2.248932E0,3.6283598E0,3.2493117E0,1.6125631E0,2.3367903E0,5.7325983E-1,7.287018E-1,5.338719E-1,9.3180656E-1,1.8492093E0,1.8514788E0,2.2320957E0,1.6572275E0,1.4673803E0,2.2369974E0,2.0668993E0,1.4579225E0,2.5497477E0,2.1470459E0,0E0,0E0,0E0,0E0,0E0,0E0,0E0,0E0,0E0,0E0,0E0,0E0,0E0,0E0,0E0,0E0,0E0,0E0,0E0,0E0,0E0,0E0,0E0,0E0,0E0,0E0,0E0,0E0],"parents":[2147483647,0,0,1,1,2,2,3,3,4,4,5,5,6,6,7,7,9,9,10,10,11,11,12,12,13,13,14,14,15,15,16,16,17,17,18,18,19,19,20,20,21,21,22,22,23,23,24,24,25,25,26,26,27,27,28,28],"right_children":[2,4,6,8,10,12,14,16,-1,18,20,22,24,26,28,30,32,34,36,38,40,42,44,46,48,50,52,54,56,-1,-1,-1,-1,-1,-1,-1,-1,-1,-1,-1,-1,-1,-1,-1,-1,-1,-1,-1,-1,-1,-1,-1,-1,-1,-1,-1,-1],"split_conditions":[2.1996537E-2,-2.0714886E-2,3.8390968E-2,4.1524425E-2,5.827475E-1,3.473393E-3,-1.5892357E-1,-1.45109715E-2,1.7164064E-3,-5.0841346E-2,1.1167993E-2,4.4871192E-2,2.1646602E-1,1.14460215E-2,3.397414E-2,-1.1195419E-2,-2.9331282E-2,-1.2009249E-1,-1.7217985E-1,1.3816953E-2,1.3078492E0,-1.0116796E-1,-9.620459E-2,4.5939214E-3,4.776387E-3,-1.8330589E-3,5.073478E1,1.5392747E-2,8.054667E-2,-4.402469E-3,-9.142798E-3,3.2181435E-3,-4.003608E-3,-2.4382004E-3,-9.157686E-3,6.0749166E-3,-6.0921087E-4,8.387674E-4,2.3904534E-3,-6.3757674E-5,-6.2010875E-3,4.271332E-3,-1.7710433E-3,1.0701014E-2,1.8890625E-3,-3.7674815E-3,-3.2488015E-4,6.123749E-3,1.1582848E-3,4.0744063E-3,-4.6298197E-3,8.161548E-3,1.4681657E-3,-1.0264437E-3,3.1421117E-3,5.597125E-3,-2.151467E-3],"split_indices":[18,26,18,3,21,9,4,23,0,9,25,26,5,25,17,6,2,4,28,5,14,9,27,25,25,26,13,25,1,0,0,0,0,0,0,0,0,0,0,0,0,0,0,0,0,0,0,0,0,0,0,0,0,0,0,0,0],"split_type":[0,0,0,0,0,0,0,0,0,0,0,0,0,0,0,0,0,0,0,0,0,0,0,0,0,0,0,0,0,0,0,0,0,0,0,0,0,0,0,0,0,0,0,0,0,0,0,0,0,0,0,0,0,0,0,0,0],"sum_hessian":[3.0821E4,1.0778E4,2.0043E4,5.74E2,1.0204E4,1.6452E4,3.591E3,4.8E2,9.4E1,1.689E3,8.515E3,8.233E3,8.219E3,7.89E2,2.802E3,3.31E2,1.49E2,1.2E2,1.569E3,7.781E3,7.34E2,7.886E3,3.47E2,6.128E3,2.091E3,3.62E2,4.27E2,2.33E3,4.72E2,2.43E2,8.8E1,5.4E1,9.5E1,5.6E1,6.4E1,5.3E1,1.516E3,4.329E3,3.452E3,5.79E2,1.55E2,1.55E2,7.731E3,6.5E1,2.82E2,3.26E2,5.802E3,2.58E2,1.833E3,2.72E2,9E1,3.17E2,1.1E2,1.875E3,4.55E2,3.53E2,1.19E2],"tree_param":{"num_deleted":"0","num_feature":"29","num_nodes":"57","size_leaf_vector":"1"}},{"base_weights":[-3.6539367E-4,-1.3369825E-2,1.3480392E-2,-4.1362442E-2,-4.524915E-3,1.9912055E-2,-1.27477795E-2,-1.1354516E-2,-8.048374E-2,-1.7800378E-2,1.5396092E-2,1.393467E-2,5.4472134E-2,-4.8753727E-2,5.6553964E-2,-3.859347E-2,3.8650404E-3,-2.7798593E-2,-1.138461E-1,8.0722367E-4,-4.0421184E-2,-2.2560507E-2,3.753758E-2,1.7468464E-2,-2.6462976E-2,7.939104E-2,2.1823128E-3,-1.7801411E-2,-7.295715E-2,-6.167715E-2,7.968307E-2,-6.8671266E-3,-1.2862872E-3,-4.1715507E-4,4.651356E-3,-4.344528E-3,4.3977174E-4,-4.5342064E-3,-8.814865E-3,3.906949E-3,-4.0541944E-4,-2.384338E-3,9.770821E-4,1.6943288E-4,-3.8732074E-3,3.764389E-3,7.0283527E-4,-1.0966992E-3,1.0607335E-3,-1.5555022E-4,-5.901721E-3,5.370816E-4,4.8351944E-3,1.72817E-3,-3.7849743E-3,-3.7376496E-3,8.88648E-4,-2.5775766E-3,-6.026021E-3,-7.8336075E-3,3.638021E-3,2.5696892E-3,7.7081956E-3],"categories":[],"categories_nodes":[],"categories_segments":[],"categories_sizes":[],"default_left":[0,0,0,0,0,0,0,0,0,0,0,0,0,0,0,0,0,0,0,0,0,0,0,0,0,0,0,0,0,0,0,0,0,0,0,0,0,0,0,0,0,0,0,0,0,0,0,0,0,0,0,0,0,0,0,0,0,0,0,0,0,0,0],"id":4,"left_children":[1,3,5,7,9,11,13,15,17,19,21,23,25,27,29,31,33,35,37,39,41,43,45,47,49,51,53,55,57,59,61,-1,-1,-1,-1,-1,-1,-1,-1,-1,-1,-1,-1,-1,-1,-1,-1,-1,-1,-1,-1,-1,-1,-1,-1,-1,-1,-1,-1,-1,-1,-1,-1],"loss_changes":[5.545202E0,3.9318244E0,2.5164452E0,4.475354E0,3.1920485E0,2.4738498E0,7.333874E0,8.9519465E-1,2.9058294E0,3.0487487E0,4.057533E0,1.4585819E0,2.3009343E0,1.4475613E0,2.7531679E0,9.799695E-1,1.5094419E0,1.3911959E0,1.4493103E0,2.7412367E0,1.4251184E0,2.5348103E0,2.7015986E0,1.3869622E0,1.7573761E0,1.4204273E0,1.4426197E0,1.7234428E0,1.0984488E0,2.1185975E0,1.764072E0,0E0,0E0,0E0,0E0,0E0,0E0,0E0,0E0,0E0,0E0,0E0,0E0,0E0,0E0,0E0,0E0,0E0,0E0,0E0,0E0,0E0,0E0,0E0,0E0,0E0,0E0,0E0,0E0,0E0,0E0,0E0,0E0],"parents":[2147483647,0,0,1,1,2,2,3,3,4,4,5,5,6,6,7,7,8,8,9,9,10,10,11,11,12,12,13,13,14,14,15,15,16,16,17,17,18,18,19,19,20,20,21,21,22,22,23,23,24,24,25,25,26,26,27,27,28,28,29,29,30,30],"right_children":[2,4,6,8,10,12,14,16,18,20,22,24,26,28,30,32,34,36,38,40,42,44,46,48,50,52,54,56,58,60,62,-1,-1,-1,-1,-1,-1,-1,-1,-1,-1,-1,-1,-1,-1,-1,-1,-1,-1,-1,-1,-1,-1,-1,-1,-1,-1,-1,-1,-1,-1,-1,-1],"split_conditions":[-1.475353E-1,5.0255866E-3,1.1316113E-2,1.6649434E-2,2.0535143E-2,7.152414E1,2.2980453E-2,7.2107863E-1,2.5589123E1,7.939498E-3,9.702019E-3,4.3299194E-2,2.2371026E-2,3.3976145E-2,1.504059E-2,-1.5157425E-1,2.0171759E-1,-1.6301306E-1,4.7632296E-2,-1.5534216E-1,5.3121157E-2,5.8549168E1,-3.126971E-1,-7.527079E-2,3.514817E-2,-5.9200034E-2,1.6720306E-2,-1.710168E-2,7.275741E-1,1.0108045E0,1.6068447E-2,-6.8671266E-3,-1.2862872E-3,-4.1715507E-4,4.651356E-3,-4.344528E-3,4.3977174E-4,-4.5342064E-3,-8.814865E-3,3.906949E-3,-4.0541944E-4,-2.384338E-3,9.770821E-4,1.6943288E-4,-3.8732074E-3,3.764389E-3,7.0283527E-4,-1.0966992E-3,1.0607335E-3,-1.5555022E-4,-5.901721E-3,5.370816E-4,4.8351944E-3,1.72817E-3,-3.7849743E-3,-3.7376496E-3,8.88648E-4,-2.5775766E-3,-6.026021E-3,-7.8336075E-3,3.638021E-3,2.5696892E-3,7.7081956E-3],"split_indices":[10,25,25,17,17,13,17,21,12,25,25,1,26,7,7,4,11,5,4,4,26,12,10,5,18,5,23,24,19,21,25,0,0,0,0,0,0,0,0,0,0,0,0,0,0,0,0,0,0,0,0,0,0,0,0,0,0,0,0,0,0,0,0],"split_type":[0,0,0,0,0,0,0,0,0,0,0,0,0,0,0,0,0,0,0,0,0,0,0,0,0,0,0,0,0,0,0,0,0,0,0,0,0,0,0,0,0,0,0,0,0,0,0,0,0,0,0,0,0,0,0,0,0,0,0,0,0,0,0],"sum_hessian":[3.0795E4,1.588E4,1.4915E4,3.812E3,1.2068E4,1.1978E4,2.937E3,2.158E3,1.654E3,7.242E3,4.826E3,1.0213E4,1.765E3,1.933E3,1.004E3,7.73E2,1.385E3,6.42E2,1.012E3,3.974E3,3.268E3,1.778E3,3.048E3,9.392E3,8.21E2,1.195E3,5.7E2,8.49E2,1.084E3,1.64E2,8.4E2,8.8E1,6.85E2,1.219E3,1.66E2,2.45E2,3.97E2,7.4E2,2.72E2,4.1E2,3.564E3,2.915E3,3.53E2,1.208E3,5.7E2,1.168E3,1.88E3,8.15E2,8.577E3,6.55E2,1.66E2,2.41E2,9.54E2,4.03E2,1.67E2,3.26E2,5.23E2,7.49E2,3.35E2,9.6E1,6.8E1,6.1E2,2.3E2],"tree_param":{"num_deleted":"0","num_feature":"29","num_nodes":"63","size_leaf_vector":"1"}},{"base_weights":[2.1524921E-4,-1.0466763E-2,1.0963897E-2,4.4587262E-2,-1.41375745E-2,3.0751094E-2,2.5483745E-3,-1.668246E-2,7.4869655E-2,-1.7853286E-2,3.0795416E-2,4.2640258E-2,-1.978922E-2,-4.457273E-3,4.1355826E-2,2.88753E-2,-1.1478075E-1,1.1335713E-1,6.2920162E-3,-1.5433511E-2,-1.2535384E-1,1.1396154E-1,-1.890924E-2,3.2138806E-2,8.9326136E-2,-1.2339953E-1,1.4777671E-2,8.350201E-3,-4.267136E-2,2.928532E-2,1.3133211E-1,4.222629E-3,-5.5483663E-3,-1.8747973E-3,-9.418598E-3,3.7428346E-3,1.0207397E-2,7.930228E-3,-1.9592026E-3,-1.0981226E-3,3.672429E-4,-1.42133655E-2,-4.092391E-3,8.167877E-3,-3.704283E-4,-3.4522233E-3,4.271897E-3,1.3460078E-3,4.668887E-3,3.1544284E-3,9.219371E-3,-2.1846264E-3,-1.0245803E-2,9.319017E-5,8.249486E-3,3.5264443E-3,1.758883E-4,-1.499605E-4,-3.3639427E-3,-2.855878E-4,2.742705E-3,8.72121E-3,2.320179E-3],"categories":[],"categories_nodes":[],"categories_segments":[],"categories_sizes":[],"default_left":[0,0,0,0,0,0,0,0,0,0,0,0,0,0,0,0,0,0,0,0,0,0,0,0,0,0,0,0,0,0,0,0,0,0,0,0,0,0,0,0,0,0,0,0,0,0,0,0,0,0,0,0,0,0,0,0,0,0,0,0,0,0,0],"id":5,"left_children":[1,3,5,7,9,11,13,15,17,19,21,23,25,27,29,31,33,35,37,39,41,43,45,47,49,51,53,55,57,59,61,-1,-1,-1,-1,-1,-1,-1,-1,-1,-1,-1,-1,-1,-1,-1,-1,-1,-1,-1,-1,-1,-1,-1,-1,-1,-1,-1,-1,-1,-1,-1,-1],"loss_changes":[3.544177E0,3.1294334E0,2.5619926E0,1.7972702E0,2.4239461E0,2.7594934E0,2.9353075E0,1.4379077E0,1.709605E0,3.485591E0,4.5864763E0,1.8194604E0,3.1356242E0,4.476646E0,1.789238E0,1.7192273E0,5.7306004E-1,1.4353447E0,1.6270332E0,1.9503081E0,2.0162735E0,2.4892173E0,3.64177E0,9.6774507E-1,1.6893959E0,1.413986E0,1.2741532E0,2.0583022E0,2.241228E0,1.3040843E0,7.0555663E-1,0E0,0E0,0E0,0E0,0E0,0E0,0E0,0E0,0E0,0E0,0E0,0E0,0E0,0E0,0E0,0E0,0E0,0E0,0E0,0E0,0E0,0E0,0E0,0E0,0E0,0E0,0E0,0E0,0E0,0E0,0E0,0E0],"parents":[2147483647,0,0,1,1,2,2,3,3,4,4,5,5,6,6,7,7,8,8,9,9,10,10,11,11,12,12,13,13,14,14,15,15,16,16,17,17,18,18,19,19,20,20,21,21,22,22,23,23,24,24,25,25,26,26,27,27,28,28,29,29,30,30],"right_children":[2,4,6,8,10,12,14,16,18,20,22,24,26,28,30,32,34,36,38,40,42,44,46,48,50,52,54,56,58,60,62,-1,-1,-1,-1,-1,-1,-1,-1,-1,-1,-1,-1,-1,-1,-1,-1,-1,-1,-1,-1,-1,-1,-1,-1,-1,-1,-1,-1,-1,-1,-1,-1],"split_conditions":[-1.5396668E-1,-1.2776539E-1,5.0313505E-3,1.8448618E1,2.9459305E-2,1.7903179E-2,2.3638472E-2,2.1006254E-2,-9.253653E-3,9.242306E-2,-1.22282274E-1,6.952504E1,4.3564457E-1,1.1167993E-2,8.1395424E1,-1.2340651E-1,-2.7868018E-2,2.3453705E-2,5.2951435E-3,2.616699E-2,-2.0737885E-1,6.2490657E-2,8.867354E-2,3.984307E-1,2.0938884E-1,3.5523883E-1,3.7969086E-1,-6.9071144E-2,8.790101E-1,2.2031705E-1,8.225376E-3,4.222629E-3,-5.5483663E-3,-1.8747973E-3,-9.418598E-3,3.7428346E-3,1.0207397E-2,7.930228E-3,-1.9592026E-3,-1.0981226E-3,3.672429E-4,-1.42133655E-2,-4.092391E-3,8.167877E-3,-3.704283E-4,-3.4522233E-3,4.271897E-3,1.3460078E-3,4.668887E-3,3.1544284E-3,9.219371E-3,-2.1846264E-3,-1.0245803E-2,9.319017E-5,8.249486E-3,3.5264443E-3,1.758883E-4,-1.499605E-4,-3.3639427E-3,-2.855878E-4,2.742705E-3,8.72121E-3,2.320179E-3],"split_indices":[10,7,25,13,17,17,17,17,24,8,8,13,11,25,13,28,24,17,25,26,5,27,28,5,5,11,28,28,21,5,26,0,0,0,0,0,0,0,0,0,0,0,0,0,0,0,0,0,0,0,0,0,0,0,0,0,0,0,0,0,0,0,0],"split_type":[0,0,0,0,0,0,0,0,0,0,0,0,0,0,0,0,0,0,0,0,0,0,0,0,0,0,0,0,0,0,0,0,0,0,0,0,0,0,0,0,0,0,0,0,0,0,0,0,0,0,0,0,0,0,0,0,0,0,0,0,0,0,0],"sum_hessian":[3.0866E4,1.5481E4,1.5385E4,9.67E2,1.4514E4,4.59E3,1.0795E4,3.2E2,6.47E2,1.3406E4,1.108E3,3.716E3,8.74E2,9.145E3,1.65E3,2.19E2,1.01E2,4.14E2,2.33E2,1.3112E4,2.94E2,4.14E2,6.94E2,3.035E3,6.81E2,2.18E2,6.56E2,6.85E3,2.295E3,1.456E3,1.94E2,1.57E2,6.2E1,5E1,5.1E1,2.92E2,1.22E2,5.3E1,1.8E2,1.0191E4,2.921E3,6.2E1,2.32E2,2.94E2,1.2E2,4.69E2,2.25E2,2.798E3,2.37E2,5.35E2,1.46E2,1.11E2,1.07E2,6.05E2,5.1E1,4.93E2,6.357E3,8.79E2,1.416E3,6.15E2,8.41E2,1.28E2,6.6E1],"tree_param":{"num_deleted":"0","num_feature":"29","num_nodes":"63","size_leaf_vector":"1"}},{"base_weights":[-2.5672374E-5,-1.2691039E-2,1.2062566E-2,-3.679206E-2,-1.6436983E-3,-8.449793E-2,1.4587556E-2,-7.7686775E-3,-7.5194776E-2,8.018942E-2,-5.7958807E-3,-1.1594987E-1,-1.4376062E-2,1.0310422E-2,4.634107E-2,-3.678998E-2,1.8477531E-2,-4.488903E-2,-1.08933456E-1,2.1106644E-2,1.566805E-1,-1.8213114E-2,1.24736065E-2,-8.7002605E-2,-1.0723068E-2,1.5548192E-3,-3.6407735E-3,2.010453E-2,-3.8547225E-2,3.0027028E-2,1.952782E-1,2.204489E-3,-2.5328686E-3,3.117402E-4,5.413446E-3,4.6518366E-3,-2.8069944E-3,-7.164801E-3,-3.858538E-3,3.3920563E-3,-4.55989E-3,9.7720325E-3,1.3723888E-3,-6.3629466E-4,-4.8256516E-3,3.0838891E-3,-5.058275E-5,-6.5682307E-3,-1.5841083E-3,-3.1742337E-4,1.2150327E-3,7.294616E-3,-2.1573482E-3,-5.5161485E-4,3.1259097E-3,8.140363E-3,1.3276264E-2],"categories":[],"categories_nodes":[],"categories_segments":[],"categories_sizes":[],"default_left":[0,0,0,0,0,0,0,0,0,0,0,0,0,0,0,0,0,0,0,0,0,0,0,0,0,0,0,0,0,0,0,0,0,0,0,0,0,0,0,0,0,0,0,0,0,0,0,0,0,0,0,0,0,0,0,0,0],"id":6,"left_children":[1,3,5,7,9,11,13,15,17,19,21,23,25,27,29,31,33,35,37,39,41,43,45,47,-1,-1,-1,49,51,53,55,-1,-1,-1,-1,-1,-1,-1,-1,-1,-1,-1,-1,-1,-1,-1,-1,-1,-1,-1,-1,-1,-1,-1,-1,-1,-1],"loss_changes":[4.695178E0,3.9873316E0,3.8269215E0,5.2457294E0,3.4900675E0,8.805206E-1,2.0763907E0,2.0435567E0,2.0666456E0,2.238268E0,2.2177494E0,7.6839375E-1,3.3443716E-1,6.4502287E0,4.4041615E0,1.4311411E0,1.5482266E0,1.6640792E0,1.0345488E0,1.4810126E0,1.0765972E0,2.499329E0,2.6249917E0,5.2347505E-1,0E0,0E0,0E0,1.2464614E0,1.9159842E0,2.1845548E0,3.6506796E-1,0E0,0E0,0E0,0E0,0E0,0E0,0E0,0E0,0E0,0E0,0E0,0E0,0E0,0E0,0E0,0E0,0E0,0E0,0E0,0E0,0E0,0E0,0E0,0E0,0E0,0E0],"parents":[2147483647,0,0,1,1,2,2,3,3,4,4,5,5,6,6,7,7,8,8,9,9,10,10,11,11,12,12,13,13,14,14,15,15,16,16,17,17,18,18,19,19,20,20,21,21,22,22,23,23,27,27,28,28,29,29,30,30],"right_children":[2,4,6,8,10,12,14,16,18,20,22,24,26,28,30,32,34,36,38,40,42,44,46,48,-1,-1,-1,50,52,54,56,-1,-1,-1,-1,-1,-1,-1,-1,-1,-1,-1,-1,-1,-1,-1,-1,-1,-1,-1,-1,-1,-1,-1,-1,-1,-1],"split_conditions":[-1.5922052E-1,5.216452E-3,-4.3029442E-2,1.6649434E-2,-2.684354E-1,3.691133E-2,2.3638472E-2,-5.8313195E-2,-1.1923276E-2,1.1400551E-2,2.0535143E-2,2.2980453E-2,8.791998E-4,1.1167993E-2,1.6230308E-2,-5.457971E-2,1.5596781E-2,-7.362562E-2,6.934054E-1,9.384377E-4,1.9039561E-1,1.6051635E-2,-1.8570915E-2,1.8067395E-2,-1.0723068E-2,1.5548192E-3,-3.6407735E-3,-1.7543962E-2,4.7362065E-1,8.201927E-3,9.707573E1,2.204489E-3,-2.5328686E-3,3.117402E-4,5.413446E-3,4.6518366E-3,-2.8069944E-3,-7.164801E-3,-3.858538E-3,3.3920563E-3,-4.55989E-3,9.7720325E-3,1.3723888E-3,-6.3629466E-4,-4.8256516E-3,3.0838891E-3,-5.058275E-5,-6.5682307E-3,-1.5841083E-3,-3.1742337E-4,1.2150327E-3,7.294616E-3,-2.1573482E-3,-5.5161485E-4,3.1259097E-3,8.140363E-3,1.3276264E-2],"split_indices":[10,25,9,17,8,18,17,8,1,25,17,17,24,25,25,6,17,9,21,24,11,25,26,16,0,0,0,26,21,25,12,0,0,0,0,0,0,0,0,0,0,0,0,0,0,0,0,0,0,0,0,0,0,0,0,0,0],"split_type":[0,0,0,0,0,0,0,0,0,0,0,0,0,0,0,0,0,0,0,0,0,0,0,0,0,0,0,0,0,0,0,0,0,0,0,0,0,0,0,0,0,0,0,0,0,0,0,0,0,0,0,0,0,0,0,0,0],"sum_hessian":[3.0665E4,1.4975E4,1.569E4,4.706E3,1.0269E4,3.99E2,1.5291E4,2.681E3,2.025E3,4.95E2,9.774E3,2.75E2,1.24E2,1.3477E4,1.814E3,1.273E3,1.408E3,1.068E3,9.57E2,2.8E2,2.15E2,5.819E3,3.955E3,2.14E2,6.1E1,7E1,5.4E1,1.1227E4,2.25E3,1.636E3,1.78E2,1.86E2,1.087E3,1.24E3,1.68E2,8E1,9.88E2,4.58E2,4.99E2,1.98E2,8.2E1,1.65E2,5E1,5.439E3,3.8E2,8.5E2,3.105E3,1.18E2,9.6E1,1.537E3,9.69E3,5.4E1,2.196E3,7.23E2,9.13E2,1.24E2,5.4E1],"tree_param":{"num_deleted":"0","num_feature":"29","num_nodes":"57","size_leaf_vector":"1"}},{"base_weights":[1.3674494E-4,-1.072759E-2,1.0624098E-2,5.2837364E-2,-1.39666675E-2,6.96364E-3,4.296219E-2,7.0453435E-2,-3.6205424E-3,-2.1553943E-2,6.197686E-3,1.0462175E-2,-4.942522E-2,1.7770091E-2,7.671053E-2,4.401629E-2,1.9297688E-1,-3.9118394E-2,-1.2525956E-2,5.5801574E-2,-7.824578E-3,-2.29312E-2,1.6803192E-2,-7.120913E-2,6.724758E-2,-2.339078E-2,7.388164E-2,-4.1945237E-3,9.408216E-2,3.2807381E-3,-1.4080438E-3,1.53339E-2,4.9678017E-3,-2.2999211E-3,8.8808173E-4,-9.440421E-4,1.1528191E-3,5.956354E-4,4.529894E-3,1.1771232E-3,-1.1479667E-3,-4.3286584E-4,-4.571106E-3,1.3787664E-3,-1.0730849E-4,-2.3806428E-3,-9.479864E-3,1.2385553E-4,6.3133286E-3,3.3440148E-3,-2.8067594E-3,5.650137E-3,-6.527013E-4,6.8199113E-3,5.008826E-4],"categories":[],"categories_nodes":[],"categories_segments":[],"categories_sizes":[],"default_left":[0,0,0,0,0,0,0,0,0,0,0,0,0,0,0,0,0,0,0,0,0,0,0,0,0,0,0,0,0,0,0,0,0,0,0,0,0,0,0,0,0,0,0,0,0,0,0,0,0,0,0,0,0,0,0],"id":7,"left_children":[1,3,5,7,9,11,13,15,-1,17,19,21,23,25,27,29,31,33,35,37,39,41,43,45,47,49,51,-1,53,-1,-1,-1,-1,-1,-1,-1,-1,-1,-1,-1,-1,-1,-1,-1,-1,-1,-1,-1,-1,-1,-1,-1,-1,-1,-1],"loss_changes":[3.510661E0,3.1167045E0,1.8555403E0,1.6245856E0,2.2033784E0,2.7791834E0,1.3538425E0,2.0775318E0,0E0,1.6588035E0,2.7395473E0,2.808798E0,2.0965176E0,2.1127028E0,1.9078159E0,8.296323E-1,1.1830363E0,1.3908439E0,1.563615E0,1.3245046E0,1.4584442E0,2.0688539E0,2.2754416E0,1.9296753E0,4.9663663E-1,1.5644552E0,1.3176696E0,0E0,2.18636E0,0E0,0E0,0E0,0E0,0E0,0E0,0E0,0E0,0E0,0E0,0E0,0E0,0E0,0E0,0E0,0E0,0E0,0E0,0E0,0E0,0E0,0E0,0E0,0E0,0E0,0E0],"parents":[2147483647,0,0,1,1,2,2,3,3,4,4,5,5,6,6,7,7,9,9,10,10,11,11,12,12,13,13,14,14,15,15,16,16,17,17,18,18,19,19,20,20,21,21,22,22,23,23,24,24,25,25,26,26,28,28],"right_children":[2,4,6,8,10,12,14,16,-1,18,20,22,24,26,28,30,32,34,36,38,40,42,44,46,48,50,52,-1,54,-1,-1,-1,-1,-1,-1,-1,-1,-1,-1,-1,-1,-1,-1,-1,-1,-1,-1,-1,-1,-1,-1,-1,-1,-1,-1],"split_conditions":[-1.5922052E-1,-1.3885812E-1,2.4296805E-2,1.4454895E-2,2.4675872E-2,3.9322793E-2,1.0020552E0,2.5604052E-2,-3.6205424E-3,6.83402E-1,9.2518225E-2,-1.7543962E-2,2.1006254E-2,-6.888256E-2,8.711654E-3,-8.911326E-3,-1.4190128E0,3.9224092E-2,3.8390968E-2,2.3613332E-2,-7.3825456E-2,1.339726E-1,1.4713665E-2,7.46102E-2,3.368874E-1,-6.0237255E-3,3.9663896E-2,-4.1945237E-3,2.9963633E-1,3.2807381E-3,-1.4080438E-3,1.53339E-2,4.9678017E-3,-2.2999211E-3,8.8808173E-4,-9.440421E-4,1.1528191E-3,5.956354E-4,4.529894E-3,1.1771232E-3,-1.1479667E-3,-4.3286584E-4,-4.571106E-3,1.3787664E-3,-1.0730849E-4,-2.3806428E-3,-9.479864E-3,1.2385553E-4,6.3133286E-3,3.3440148E-3,-2.8067594E-3,5.650137E-3,-6.527013E-4,6.8199113E-3,5.008826E-4],"split_indices":[10,7,17,26,24,26,21,17,0,21,11,26,17,10,28,24,14,7,18,26,28,8,24,24,11,26,1,0,28,0,0,0,0,0,0,0,0,0,0,0,0,0,0,0,0,0,0,0,0,0,0,0,0,0,0],"split_type":[0,0,0,0,0,0,0,0,0,0,0,0,0,0,0,0,0,0,0,0,0,0,0,0,0,0,0,0,0,0,0,0,0,0,0,0,0,0,0,0,0,0,0,0,0,0,0,0,0,0,0,0,0,0,0],"sum_hessian":[3.081E4,1.5133E4,1.5677E4,7.33E2,1.44E4,1.4084E4,1.593E3,6.43E2,9E1,1.0463E4,3.937E3,1.3262E4,8.22E2,9.13E2,6.8E2,5.3E2,1.13E2,3.551E3,6.912E3,8.67E2,3.07E3,2.116E3,1.1146E4,6.93E2,1.29E2,5.27E2,3.86E2,6.6E1,6.14E2,4.08E2,1.22E2,5E1,6.3E1,3.168E3,3.83E2,5.865E3,1.047E3,3.84E2,4.83E2,9.99E2,2.071E3,1.752E3,3.64E2,7.106E3,4.04E3,5.79E2,1.14E2,6.2E1,6.7E1,1.4E2,3.87E2,2.66E2,1.2E2,4.08E2,2.06E2],"tree_param":{"num_deleted":"0","num_feature":"29","num_nodes":"55","size_leaf_vector":"1"}},{"base_weights":[1.5138958E-4,-9.3818195E-3,1.0466833E-2,5.338031E-2,-1.2358147E-2,-1.5792245E-2,1.5035245E-2,6.900351E-2,-4.0470734E-3,-3.3331804E-2,-5.5198944E-3,-3.0649425E-2,6.58371E-2,1.0620338E-2,4.2647075E-2,4.21269E-2,1.7122072E-1,-1.9068294E-3,-7.534784E-2,-1.8415203E-2,1.4823236E-2,-1.5132769E-2,-1.326176E-1,8.999595E-2,-3.4383622E-3,2.7128818E-2,-3.2564108E-3,-5.81176E-3,4.9388524E-2,7.432031E-3,8.0826675E-4,3.3667374E-3,1.2313706E-2,-1.4463452E-3,1.0514687E-3,-2.443542E-3,-6.035278E-3,1.0677633E-4,-2.2388739E-3,-9.823898E-4,1.7154509E-3,1.4194722E-4,-4.9410774E-3,-3.3666794E-3,-9.84117E-3,1.0226864E-3,6.500204E-3,2.222464E-3,4.5497736E-4,-2.7817982E-4,8.032489E-3,2.8273647E-3,-4.5740013E-3],"categories":[],"categories_nodes":[],"categories_segments":[],"categories_sizes":[],"default_left":[0,0,0,0,0,0,0,0,0,0,0,0,0,0,0,0,0,0,0,0,0,0,0,0,0,0,0,0,0,0,0,0,0,0,0,0,0,0,0,0,0,0,0,0,0,0,0,0,0,0,0,0,0],"id":8,"left_children":[1,3,5,7,9,11,13,15,-1,17,19,21,23,25,27,29,31,33,35,37,39,41,43,45,-1,47,49,-1,51,-1,-1,-1,-1,-1,-1,-1,-1,-1,-1,-1,-1,-1,-1,-1,-1,-1,-1,-1,-1,-1,-1,-1,-1],"loss_changes":[3.0292428E0,2.9911513E0,1.7750791E0,1.5270231E0,2.192039E0,2.6616488E0,1.5358992E0,1.7785003E0,0E0,4.9617424E0,3.0244243E0,2.9345655E0,1.1053262E0,2.4895444E0,1.8662355E0,1.4244732E0,1.036011E0,1.3336645E0,1.9252062E0,3.822782E0,3.0051656E0,2.424778E0,1.0136924E0,7.9584765E-1,0E0,1.5494175E0,2.2339404E0,0E0,1.6862507E0,0E0,0E0,0E0,0E0,0E0,0E0,0E0,0E0,0E0,0E0,0E0,0E0,0E0,0E0,0E0,0E0,0E0,0E0,0E0,0E0,0E0,0E0,0E0,0E0],"parents":[2147483647,0,0,1,1,2,2,3,3,4,4,5,5,6,6,7,7,9,9,10,10,11,11,12,12,13,13,14,14,15,15,16,16,17,17,18,18,19,19,20,20,21,21,22,22,23,23,25,25,26,26,28,28],"right_children":[2,4,6,8,10,12,14,16,-1,18,20,22,24,26,28,30,32,34,36,38,40,42,44,46,-1,48,50,-1,52,-1,-1,-1,-1,-1,-1,-1,-1,-1,-1,-1,-1,-1,-1,-1,-1,-1,-1,-1,-1,-1,-1,-1,-1],"split_conditions":[-1.4558557E-1,-1.3885812E-1,-1.7543962E-2,1.4454895E-2,5.0255866E-3,2.2597743E-2,1.0094988E-1,2.4839852E-2,-4.0470734E-3,1.6649434E-2,2.0535143E-2,1.5392747E-2,1.4527322E0,1.4287875E-2,-1.8484442E-1,1.6189352E-2,-3.8548067E-1,-5.6906227E-2,3.348352E-4,7.939498E-3,9.702019E-3,1.339726E-1,2.8385036E-2,7.959461E-1,-3.4383622E-3,5.105133E-3,1.0245954E0,-5.81176E-3,4.7229332E-1,7.432031E-3,8.0826675E-4,3.3667374E-3,1.2313706E-2,-1.4463452E-3,1.0514687E-3,-2.443542E-3,-6.035278E-3,1.0677633E-4,-2.2388739E-3,-9.823898E-4,1.7154509E-3,1.4194722E-4,-4.9410774E-3,-3.3666794E-3,-9.84117E-3,1.0226864E-3,6.500204E-3,2.222464E-3,4.5497736E-4,-2.7817982E-4,8.032489E-3,2.8273647E-3,-4.5740013E-3],"split_indices":[10,7,26,26,25,17,27,17,0,17,17,25,21,17,5,16,8,8,23,25,25,8,27,21,0,25,5,0,8,0,0,0,0,0,0,0,0,0,0,0,0,0,0,0,0,0,0,0,0,0,0,0,0],"split_type":[0,0,0,0,0,0,0,0,0,0,0,0,0,0,0,0,0,0,0,0,0,0,0,0,0,0,0,0,0,0,0,0,0,0,0,0,0,0,0,0,0,0,0,0,0,0,0,0,0,0,0,0,0],"sum_hessian":[3.0802E4,1.6008E4,1.4794E4,7.24E2,1.5284E4,2.192E3,1.2602E4,6.49E2,7.5E1,3.757E3,1.1527E4,1.855E3,3.37E2,1.0866E4,1.736E3,5.15E2,1.34E2,2.15E3,1.607E3,7.055E3,4.472E3,1.611E3,2.44E2,2.86E2,5.1E1,4.962E3,5.904E3,7E1,1.666E3,1E2,4.15E2,5.7E1,7.7E1,9.87E2,1.163E3,1.016E3,5.91E2,3.965E3,3.09E3,1.615E3,2.857E3,1.327E3,2.84E2,1.22E2,1.22E2,1.05E2,1.81E2,2.53E3,2.432E3,5.823E3,8.1E1,1.586E3,8E1],"tree_param":{"num_deleted":"0","num_feature":"29","num_nodes":"53","size_leaf_vector":"1"}},{"base_weights":[8.6243195E-4,-1.7531542E-2,5.0747916E-3,-4.0396098E-2,8.410257E-3,1.9885177E-2,-2.8336423E-3,-4.919331E-2,3.1746164E-2,1.5944066E-2,-7.5761005E-2,-5.224422E-2,2.5470898E-2,-9.592087E-3,2.7494015E-2,-7.287595E-2,-3.0948639E-2,1.1447047E-1,-4.2228047E-2,3.8929575E-3,6.483198E-2,-1.11313656E-1,4.5901874E-5,2.7228458E-2,-6.846559E-2,3.1209778E-2,-1.640904E-2,-8.261265E-3,-1.4596312E-1,-9.008628E-3,4.7136527E-2,-1.3386549E-3,-4.903236E-3,-1.2265675E-3,-7.2258613E-3,2.6732293E-4,1.1388831E-2,2.569325E-3,-1.1928524E-2,5.066925E-4,-6.9471286E-3,-3.5061054E-3,4.342432E-3,-3.4647912E-3,-8.782924E-3,4.297769E-3,-1.6001348E-3,-4.4507226E-3,2.4274271E-4,2.510472E-3,9.968247E-4,2.4712211E-3,-2.0066954E-3,-2.3203953E-4,-2.3357195E-3,-1.2066885E-2,-4.025437E-3,1.2653378E-3,-3.622905E-3,-5.2760052E-3,2.675989E-3],"categories":[],"categories_nodes":[],"categories_segments":[],"categories_sizes":[],"default_left":[0,0,0,0,0,0,0,0,0,0,0,0,0,0,0,0,0,0,0,0,0,0,0,0,0,0,0,0,0,0,0,0,0,0,0,0,0,0,0,0,0,0,0,0,0,0,0,0,0,0,0,0,0,0,0,0,0,0,0,0,0],"id":9,"left_children":[1,3,5,7,9,11,13,15,17,19,21,23,25,27,29,31,33,35,37,39,41,43,-1,45,47,49,51,53,55,57,59,-1,-1,-1,-1,-1,-1,-1,-1,-1,-1,-1,-1,-1,-1,-1,-1,-1,-1,-1,-1,-1,-1,-1,-1,-1,-1,-1,-1,-1,-1],"loss_changes":[2.385141E0,3.402635E0,2.9337351E0,1.9366126E0,1.7057498E0,3.5141697E0,3.347183E0,1.172143E0,2.036496E0,1.4537785E0,6.025797E-1,8.1016445E-1,1.9456158E0,2.4223528E0,2.1342273E0,1.3700004E0,1.1166244E0,1.9399965E0,3.2472286E0,1.7673135E0,1.4560547E0,3.9607584E-1,0E0,3.7494642E-1,7.8539777E-1,1.5235939E0,1.5263885E0,1.8410878E0,7.858765E-1,2.270573E0,1.8911996E0,0E0,0E0,0E0,0E0,0E0,0E0,0E0,0E0,0E0,0E0,0E0,0E0,0E0,0E0,0E0,0E0,0E0,0E0,0E0,0E0,0E0,0E0,0E0,0E0,0E0,0E0,0E0,0E0,0E0,0E0],"parents":[2147483647,0,0,1,1,2,2,3,3,4,4,5,5,6,6,7,7,8,8,9,9,10,10,11,11,12,12,13,13,14,14,15,15,16,16,17,17,18,18,19,19,20,20,21,21,23,23,24,24,25,25,26,26,27,27,28,28,29,29,30,30],"right_children":[2,4,6,8,10,12,14,16,18,20,22,24,26,28,30,32,34,36,38,40,42,44,-1,46,48,50,52,54,56,58,60,-1,-1,-1,-1,-1,-1,-1,-1,-1,-1,-1,-1,-1,-1,-1,-1,-1,-1,-1,-1,-1,-1,-1,-1,-1,-1,-1,-1,-1,-1],"split_conditions":[5.9982073E-1,5.583435E-3,2.1919804E-2,3.79781E-1,8.955073E-3,-1.8570915E-2,3.891704E-2,4.4738826E-1,1.9344124E-1,4.61328E-2,1.8151674E-2,-3.9841026E-1,3.1292737E-2,3.9452145E0,1.0922533E-2,2.6695862E1,1.6781083E-1,-2.0404069E-2,1.3716859E-2,1.5840717E-1,-1.9046903E-1,6.051479E-1,4.5901874E-5,3.3166557E1,6.762876E-2,-7.264582E-3,3.464676E-4,1.5406423E-2,-1.9046903E-1,2.8809043E-2,1.940755E-2,-1.3386549E-3,-4.903236E-3,-1.2265675E-3,-7.2258613E-3,2.6732293E-4,1.1388831E-2,2.569325E-3,-1.1928524E-2,5.066925E-4,-6.9471286E-3,-3.5061054E-3,4.342432E-3,-3.4647912E-3,-8.782924E-3,4.297769E-3,-1.6001348E-3,-4.4507226E-3,2.4274271E-4,2.510472E-3,9.968247E-4,2.4712211E-3,-2.0066954E-3,-2.3203953E-4,-2.3357195E-3,-1.2066885E-2,-4.025437E-3,1.2653378E-3,-3.622905E-3,-5.2760052E-3,2.675989E-3],"split_indices":[21,25,18,5,20,26,18,21,8,9,26,22,26,21,25,12,28,7,24,8,5,19,0,12,27,9,6,25,5,2,17,0,0,0,0,0,0,0,0,0,0,0,0,0,0,0,0,0,0,0,0,0,0,0,0,0,0,0,0,0,0],"split_type":[0,0,0,0,0,0,0,0,0,0,0,0,0,0,0,0,0,0,0,0,0,0,0,0,0,0,0,0,0,0,0,0,0,0,0,0,0,0,0,0,0,0,0,0,0,0,0,0,0,0,0,0,0,0,0,0,0,0,0,0,0],"sum_hessian":[3.0781E4,5.735E3,2.5046E4,3.048E3,2.687E3,8.718E3,1.6328E4,2.717E3,3.31E2,2.467E3,2.2E2,6.26E2,8.092E3,1.3353E4,2.975E3,1.181E3,1.536E3,1.56E2,1.75E2,1.98E3,4.87E2,1.5E2,7E1,1.06E2,5.2E2,7.117E3,9.75E2,1.3225E4,1.28E2,1.041E3,1.934E3,4.18E2,7.63E2,1.455E3,8.1E1,8E1,7.6E1,1.19E2,5.6E1,1.898E3,8.2E1,6.8E1,4.19E2,9.2E1,5.8E1,5.3E1,5.3E1,4.06E2,1.14E2,2.649E3,4.468E3,2.58E2,7.17E2,1.2088E4,1.137E3,5.1E1,7.7E1,6.76E2,3.65E2,7.7E1,1.857E3],"tree_param":{"num_deleted":"0","num_feature":"29","num_nodes":"61","size_leaf_vector":"1"}},{"base_weights":[-7.173337E-4,-6.4349794E-3,1.7226463E-2,9.841475E-4,-1.992271E-2,1.20793525E-2,6.080087E-2,-2.2431403E-2,5.769483E-3,-7.049363E-2,-1.1129305E-2,1.6239896E-2,-6.892839E-2,3.974765E-2,1.8437071E-1,-5.890406E-2,2.8653687E-3,2.3129737E-2,-2.989708E-3,-4.9835518E-2,-1.910479E-1,-2.5648775E-2,1.4363516E-2,2.1828279E-2,-4.976758E-2,-1.4524758E-1,-1.860299E-2,1.07217625E-1,-4.5802705E-2,1.2533234E-2,4.8781587E-3,-9.337734E-3,-2.4630676E-3,-9.997303E-4,2.4041845E-3,-3.7878745E-3,1.3883509E-3,-1.738503E-3,3.7512297E-4,-4.119718E-3,9.400539E-4,-7.088296E-3,-1.3115871E-2,3.416368E-4,-2.1743705E-3,-5.590752E-3,9.23944E-4,1.1994767E-3,-5.5177687E-3,-3.5968449E-3,4.882832E-3,-1.01459185E-2,-2.65332E-3,-3.1103613E-3,4.222047E-3,3.1176198E-3,1.3492294E-2,-8.097509E-3,1.0229512E-3],"categories":[],"categories_nodes":[],"categories_segments":[],"categories_sizes":[],"default_left":[0,0,0,0,0,0,0,0,0,0,0,0,0,0,0,0,0,0,0,0,0,0,0,0,0,0,0,0,0,0,0,0,0,0,0,0,0,0,0,0,0,0,0,0,0,0,0,0,0,0,0,0,0,0,0,0,0,0,0],"id":10,"left_children":[1,3,5,7,9,11,13,15,17,19,21,23,25,27,29,31,33,35,37,39,41,43,45,47,49,51,53,55,57,-1,-1,-1,-1,-1,-1,-1,-1,-1,-1,-1,-1,-1,-1,-1,-1,-1,-1,-1,-1,-1,-1,-1,-1,-1,-1,-1,-1,-1,-1],"loss_changes":[3.1558695E0,2.3342867E0,1.6663558E0,1.6865009E0,3.6803641E0,2.2420728E0,2.0348828E0,2.3565927E0,1.9003851E0,3.0437393E0,2.6109815E0,2.3342214E0,1.2455559E0,3.8837485E0,6.315932E-1,1.2803369E0,1.560799E0,1.9239614E0,2.7701867E0,2.343544E0,5.915146E-1,2.6042364E0,1.3313987E0,1.6687472E0,1.6215627E0,6.750164E-1,8.9040375E-1,2.7266035E0,2.2890644E0,0E0,0E0,0E0,0E0,0E0,0E0,0E0,0E0,0E0,0E0,0E0,0E0,0E0,0E0,0E0,0E0,0E0,0E0,0E0,0E0,0E0,0E0,0E0,0E0,0E0,0E0,0E0,0E0,0E0,0E0],"parents":[2147483647,0,0,1,1,2,2,3,3,4,4,5,5,6,6,7,7,8,8,9,9,10,10,11,11,12,12,13,13,14,14,15,15,16,16,17,17,18,18,19,19,20,20,21,21,22,22,23,23,24,24,25,25,26,26,27,27,28,28],"right_children":[2,4,6,8,10,12,14,16,18,20,22,24,26,28,30,32,34,36,38,40,42,44,46,48,50,52,54,56,58,-1,-1,-1,-1,-1,-1,-1,-1,-1,-1,-1,-1,-1,-1,-1,-1,-1,-1,-1,-1,-1,-1,-1,-1,-1,-1,-1,-1,-1,-1],"split_conditions":[-6.427895E-2,5.2180216E-3,2.415368E-2,5.556857E-1,-2.0465787E-1,3.9322793E-2,1.6051635E-2,5.1416703E-3,2.1428041E-2,1.6821729E0,2.0616226E-2,2.7695587E-1,3.1431732E-1,4.136336E-2,4.410055E-1,-1.2194292E-1,1.6624339E-2,-2.1161987E-2,5.216452E-3,1.1167993E-2,1.03905555E-2,1.4932247E-2,-3.452905E-1,1.1968644E0,1.08888134E-1,1.2605832E-2,1.1565423E0,6.7175275E-1,7.939498E-3,1.2533234E-2,4.8781587E-3,-9.337734E-3,-2.4630676E-3,-9.997303E-4,2.4041845E-3,-3.7878745E-3,1.3883509E-3,-1.738503E-3,3.7512297E-4,-4.119718E-3,9.400539E-4,-7.088296E-3,-1.3115871E-2,3.416368E-4,-2.1743705E-3,-5.590752E-3,9.23944E-4,1.1994767E-3,-5.5177687E-3,-3.5968449E-3,4.882832E-3,-1.01459185E-2,-2.65332E-3,-3.1103613E-3,4.222047E-3,3.1176198E-3,1.3492294E-2,-8.097509E-3,1.0229512E-3],"split_indices":[10,28,17,21,5,26,25,25,18,14,17,28,11,1,5,27,26,26,25,25,23,17,10,11,2,25,21,5,25,0,0,0,0,0,0,0,0,0,0,0,0,0,0,0,0,0,0,0,0,0,0,0,0,0,0,0,0,0,0],"split_type":[0,0,0,0,0,0,0,0,0,0,0,0,0,0,0,0,0,0,0,0,0,0,0,0,0,0,0,0,0,0,0,0,0,0,0,0,0,0,0,0,0,0,0,0,0,0,0,0,0,0,0,0,0,0,0,0,0,0,0],"sum_hessian":[3.0758E4,2.3326E4,7.432E3,1.5049E4,8.277E3,6.648E3,7.84E2,2.553E3,1.2496E4,1.225E3,7.052E3,6.324E3,3.24E2,6.71E2,1.13E2,1.045E3,1.508E3,4.19E3,8.306E3,1.047E3,1.78E2,4.493E3,2.559E3,5.831E3,4.93E2,1.28E2,1.96E2,3.75E2,2.96E2,6.3E1,5E1,7.2E1,9.73E2,1.002E3,5.06E2,1.87E2,4.003E3,2.061E3,6.245E3,7.1E2,3.37E2,1.07E2,7.1E1,1.593E3,2.9E3,8E1,2.479E3,5.738E3,9.3E1,4.29E2,6.4E1,7.8E1,5E1,1.38E2,5.8E1,2.95E2,8E1,1.07E2,1.89E2],"tree_param":{"num_deleted":"0","num_feature":"29","num_nodes":"59","size_leaf_vector":"1"}},{"base_weights":[-2.3497533E-4,-9.85126E-3,7.995581E-3,6.934567E-2,-1.1957243E-2,3.8020194E-2,3.3331672E-3,9.979617E-3,3.9492425E-2,-1.0824906E-2,-1.1819743E-1,-3.3548545E-2,4.668036E-2,1.2921501E-3,7.7813506E-2,-3.4061365E-2,1.01071425E-1,-5.8004977E-3,-3.477191E-2,-9.007036E-3,-2.476605E-5,3.9968465E-2,-9.60627E-2,-4.87923E-2,5.3198628E-2,4.0064685E-2,-1.6281825E-3,-1.1293645E-3,1.037338E-1,1.8985173E-3,-5.177422E-3,7.8028897E-3,2.1739786E-3,-6.848564E-4,1.0539986E-3,-2.3864738E-3,-1.3349282E-4,4.1508116E-3,9.971298E-5,-1.791451E-3,-7.2805695E-3,-5.740424E-3,6.0201116E-4,6.6408115E-3,2.2408047E-3,1.1127273E-3,8.042656E-3,-1.3379324E-3,2.473468E-4,-2.1642189E-5,7.2509213E-3],"categories":[],"categories_nodes":[],"categories_segments":[],"categories_sizes":[],"default_left":[0,0,0,0,0,0,0,0,0,0,0,0,0,0,0,0,0,0,0,0,0,0,0,0,0,0,0,0,0,0,0,0,0,0,0,0,0,0,0,0,0,0,0,0,0,0,0,0,0,0,0],"id":11,"left_children":[1,3,5,7,9,11,13,-1,15,17,19,21,23,25,27,29,31,33,35,-1,-1,37,39,41,43,45,47,-1,49,-1,-1,-1,-1,-1,-1,-1,-1,-1,-1,-1,-1,-1,-1,-1,-1,-1,-1,-1,-1,-1,-1],"loss_changes":[2.4239671E0,2.3565345E0,2.3099418E0,1.4152298E0,1.6539255E0,1.376277E0,2.1714427E0,0E0,1.357724E0,1.6379485E0,1.0570846E0,1.1068444E0,1.2341595E0,1.5745103E0,9.938643E-1,6.896541E-1,5.0939786E-1,2.3893323E0,9.819648E-1,0E0,0E0,1.8128665E-1,3.8276792E-1,5.114056E-1,1.2307353E0,2.0917466E0,2.1369617E0,0E0,1.3031087E0,0E0,0E0,0E0,0E0,0E0,0E0,0E0,0E0,0E0,0E0,0E0,0E0,0E0,0E0,0E0,0E0,0E0,0E0,0E0,0E0,0E0,0E0],"parents":[2147483647,0,0,1,1,2,2,3,3,4,4,5,5,6,6,8,8,9,9,10,10,11,11,12,12,13,13,14,14,15,15,16,16,17,17,18,18,21,21,22,22,23,23,24,24,25,25,26,26,28,28],"right_children":[2,4,6,8,10,12,14,-1,16,18,20,22,24,26,28,30,32,34,36,-1,-1,38,40,42,44,46,48,-1,50,-1,-1,-1,-1,-1,-1,-1,-1,-1,-1,-1,-1,-1,-1,-1,-1,-1,-1,-1,-1,-1,-1],"split_conditions":[-2.4264554E-2,-1.447695E-1,1.03458185E-2,1.5724387E-2,3.9452145E0,8.716134E-3,2.1033739E-1,9.979617E-3,2.5695888E-3,9.889428E-2,8.580922E-3,5.0084456E-3,-1.5088034E-1,-1.24074966E-1,7.939498E-3,-2.0713469E-2,4.1731666E-3,2.3613332E-2,6.012662E-2,-9.007036E-3,-2.476605E-5,-2.1548558E-3,7.89126E-3,2.2371026E-2,-1.15524516E-1,3.085577E-2,-4.097667E-2,-1.1293645E-3,8.090999E-2,1.8985173E-3,-5.177422E-3,7.8028897E-3,2.1739786E-3,-6.848564E-4,1.0539986E-3,-2.3864738E-3,-1.3349282E-4,4.1508116E-3,9.971298E-5,-1.791451E-3,-7.2805695E-3,-5.740424E-3,6.0201116E-4,6.6408115E-3,2.2408047E-3,1.1127273E-3,8.042656E-3,-1.3379324E-3,2.473468E-4,-2.1642189E-5,7.2509213E-3],"split_indices":[5,7,16,16,21,17,3,0,11,4,25,25,10,8,25,0,0,26,2,0,0,4,16,26,10,17,4,0,5,0,0,0,0,0,0,0,0,0,0,0,0,0,0,0,0,0,0,0,0,0,0],"split_type":[0,0,0,0,0,0,0,0,0,0,0,0,0,0,0,0,0,0,0,0,0,0,0,0,0,0,0,0,0,0,0,0,0,0,0,0,0,0,0,0,0,0,0,0,0,0,0,0,0,0,0],"sum_hessian":[3.0624E4,1.4123E4,1.6501E4,3.65E2,1.3758E4,2.217E3,1.4284E4,6.7E1,2.98E2,1.3614E4,1.44E2,2.39E2,1.978E3,1.3904E4,3.8E2,1.36E2,1.62E2,1.1254E4,2.36E3,9.4E1,5E1,1.1E2,1.29E2,1.26E2,1.852E3,9.73E2,1.2931E4,7.8E1,3.02E2,6.7E1,6.9E1,8.2E1,8E1,8.699E3,2.555E3,1.681E3,6.79E2,5.1E1,5.9E1,5.9E1,7E1,6E1,6.6E1,1.75E2,1.677E3,8.49E2,1.24E2,2.681E3,1.025E4,8.6E1,2.16E2],"tree_param":{"num_deleted":"0","num_feature":"29","num_nodes":"51","size_leaf_vector":"1"}},{"base_weights":[8.433547E-5,-3.2186562E-3,1.9311689E-2,8.376665E-3,-1.0279904E-2,2.621507E-2,-4.3790746E-2,-2.7711844E-2,1.5423554E-2,4.5033317E-2,-1.3603625E-2,5.9530023E-3,4.7556687E-2,4.465545E-3,-6.313178E-2,-2.2257287E-2,-9.464097E-3,-6.1171647E-2,1.987684E-2,3.4989182E-2,9.745945E-3,-3.746224E-2,-8.387131E-3,1.7854987E-2,-7.1731E-2,3.6389995E-2,1.5594853E-1,1.6845939E-3,-8.153653E-2,-1.4459267E-3,2.7622266E-3,-5.1354393E-3,-1.2636342E-3,1.0629807E-3,-9.63234E-3,-4.4831424E-4,3.6646132E-3,-5.129299E-4,-3.4620762E-3,-5.888649E-4,2.1040156E-3,-1.3054251E-3,1.6914149E-3,-7.6632663E-3,1.113583E-3,2.7025228E-3,-8.1214367E-4,5.100866E-3,1.1196705E-2,-7.432725E-3,-1.4748358E-3],"categories":[],"categories_nodes":[],"categories_segments":[],"categories_sizes":[],"default_left":[0,0,0,0,0,0,0,0,0,0,0,0,0,0,0,0,0,0,0,0,0,0,0,0,0,0,0,0,0,0,0,0,0,0,0,0,0,0,0,0,0,0,0,0,0,0,0,0,0,0,0],"id":12,"left_children":[1,3,5,7,9,11,13,15,17,19,21,23,25,-1,27,29,-1,31,33,35,-1,37,39,41,43,45,47,-1,49,-1,-1,-1,-1,-1,-1,-1,-1,-1,-1,-1,-1,-1,-1,-1,-1,-1,-1,-1,-1,-1,-1],"loss_changes":[1.9576262E0,2.153954E0,1.9697155E0,2.5326087E0,3.0064902E0,1.7614179E0,1.1537864E0,1.4296513E0,2.8429236E0,1.3887515E0,1.9193308E0,1.9346067E0,2.3957157E0,0E0,6.977329E-1,8.1470525E-1,0E0,6.803465E-1,2.318046E0,1.4654148E0,0E0,2.3913953E0,2.1661916E0,1.2747507E0,2.1341288E0,1.6740153E0,6.554656E-1,0E0,1.1412559E0,0E0,0E0,0E0,0E0,0E0,0E0,0E0,0E0,0E0,0E0,0E0,0E0,0E0,0E0,0E0,0E0,0E0,0E0,0E0,0E0,0E0,0E0],"parents":[2147483647,0,0,1,1,2,2,3,3,4,4,5,5,6,6,7,7,8,8,9,9,10,10,11,11,12,12,14,14,15,15,17,17,18,18,19,19,21,21,22,22,23,23,24,24,25,25,26,26,28,28],"right_children":[2,4,6,8,10,12,14,16,18,20,22,24,26,-1,28,30,-1,32,34,36,-1,38,40,42,44,46,48,-1,50,-1,-1,-1,-1,-1,-1,-1,-1,-1,-1,-1,-1,-1,-1,-1,-1,-1,-1,-1,-1,-1,-1],"split_conditions":[2.9564297E-1,2.1996537E-2,6.4447105E-2,5.7839906E-1,-2.2148436E-1,7.854643E-2,5.407376E-2,1.6472048E-1,-2.0714886E-2,3.1076027E-2,-2.0465787E-1,2.8253373E-2,2.9968023E-2,4.465545E-3,1.8090105E-2,4.3996286E-2,-9.464097E-3,2.0782553E-2,7.46102E-2,-2.3547487E-1,9.745945E-3,-3.1522207E-2,2.9459305E-2,6.445886E-1,3.3501506E-2,1.6723745E-1,3.3501506E-2,1.6845939E-3,2.452107E-2,-1.4459267E-3,2.7622266E-3,-5.1354393E-3,-1.2636342E-3,1.0629807E-3,-9.63234E-3,-4.4831424E-4,3.6646132E-3,-5.129299E-4,-3.4620762E-3,-5.888649E-4,2.1040156E-3,-1.3054251E-3,1.6914149E-3,-7.6632663E-3,1.113583E-3,2.7025228E-3,-8.1214367E-4,5.100866E-3,1.1196705E-2,-7.432725E-3,-1.4748358E-3],"split_indices":[5,18,1,21,4,28,8,8,26,26,5,17,16,0,17,7,0,5,24,28,0,28,17,21,17,22,17,0,17,0,0,0,0,0,0,0,0,0,0,0,0,0,0,0,0,0,0,0,0,0,0],"split_type":[0,0,0,0,0,0,0,0,0,0,0,0,0,0,0,0,0,0,0,0,0,0,0,0,0,0,0,0,0,0,0,0,0,0,0,0,0,0,0,0,0,0,0,0,0,0,0,0,0,0,0],"sum_hessian":[3.0823E4,2.6305E4,4.518E3,9.956E3,1.6349E4,4.073E3,4.45E2,1.626E3,8.33E3,9.26E2,1.5423E4,2.09E3,1.983E3,5.6E1,3.89E2,1.574E3,5.2E1,4.57E2,7.873E3,8.69E2,5.7E1,2.766E3,1.2657E4,1.813E3,2.77E2,1.799E3,1.84E2,6.2E1,3.27E2,1.45E3,1.24E2,2.11E2,2.46E2,7.823E3,5E1,4.05E2,4.64E2,1.491E3,1.275E3,1.1861E4,7.96E2,4.83E2,1.33E3,1.48E2,1.29E2,1.347E3,4.52E2,1.04E2,8E1,1.42E2,1.85E2],"tree_param":{"num_deleted":"0","num_feature":"29","num_nodes":"51","size_leaf_vector":"1"}},{"base_weights":[1.1251285E-3,-4.130673E-3,1.5181295E-2,5.266465E-3,-1.4105715E-2,2.1609154E-2,-2.3679996E-2,5.2174922E-2,2.1352728E-3,-6.603838E-2,-7.291364E-3,2.3365896E-2,-7.1453745E-3,-1.3918436E-1,4.6463925E-3,2.7582746E-2,1.299144E-1,-3.1939107E-3,2.8632713E-2,-9.520365E-2,-1.2660422E-2,-9.75014E-3,3.9226253E-2,1.025455E-1,2.0029936E-2,-7.3145404E-2,-2.1296331E-1,-2.990445E-2,7.697567E-2,2.6686129E-3,-1.7449936E-3,3.9292104E-3,1.0699625E-2,-3.9465987E-4,1.8661947E-3,1.8426733E-3,-6.348643E-3,-5.1610457E-4,-5.972919E-3,7.237421E-3,-1.6450401E-3,-2.519316E-4,-1.8124353E-3,8.6928246E-4,8.167745E-3,9.492771E-3,7.194957E-5,2.824608E-3,6.4958277E-4,-7.1383975E-3,-1.2413401E-3,-1.3611241E-2,-7.856166E-3,2.9390387E-4,-4.43205E-3,1.563153E-4,5.4624383E-3],"categories":[],"categories_nodes":[],"categories_segments":[],"categories_sizes":[],"default_left":[0,0,0,0,0,0,0,0,0,0,0,0,0,0,0,0,0,0,0,0,0,0,0,0,0,0,0,0,0,0,0,0,0,0,0,0,0,0,0,0,0,0,0,0,0,0,0,0,0,0,0,0,0,0,0,0,0],"id":13,"left_children":[1,3,5,7,9,11,13,15,17,19,21,23,-1,25,27,29,31,33,35,37,39,41,43,45,47,49,51,53,55,-1,-1,-1,-1,-1,-1,-1,-1,-1,-1,-1,-1,-1,-1,-1,-1,-1,-1,-1,-1,-1,-1,-1,-1,-1,-1,-1,-1],"loss_changes":[2.2712452E0,2.0976238E0,2.0905461E0,1.6923796E0,3.8409667E0,2.0784552E0,3.8875706E0,1.3748124E0,1.5255802E0,1.9587841E0,1.0980525E0,1.874661E0,0E0,1.1245375E0,2.3888829E0,8.8651913E-1,7.2980714E-1,1.7129854E0,2.3187428E0,1.6746125E0,1.425725E0,1.1379335E0,1.3038833E0,2.5332482E0,1.7492356E0,4.1696352E-1,3.2123518E-1,1.3603482E0,7.361126E-1,0E0,0E0,0E0,0E0,0E0,0E0,0E0,0E0,0E0,0E0,0E0,0E0,0E0,0E0,0E0,0E0,0E0,0E0,0E0,0E0,0E0,0E0,0E0,0E0,0E0,0E0,0E0,0E0],"parents":[2147483647,0,0,1,1,2,2,3,3,4,4,5,5,6,6,7,7,8,8,9,9,10,10,11,11,13,13,14,14,15,15,16,16,17,17,18,18,19,19,20,20,21,21,22,22,23,23,24,24,25,25,26,26,27,27,28,28],"right_children":[2,4,6,8,10,12,14,16,18,20,22,24,-1,26,28,30,32,34,36,38,40,42,44,46,48,50,52,54,56,-1,-1,-1,-1,-1,-1,-1,-1,-1,-1,-1,-1,-1,-1,-1,-1,-1,-1,-1,-1,-1,-1,-1,-1,-1,-1,-1,-1],"split_conditions":[-7.342242E-2,-3.3583112E-2,3.035025E-2,1.4864733E-2,-2.4049349E-1,4.7229332E-1,-2.583007E-2,9.578048E-3,3.1076027E-2,7.4130157E-3,1.5600215E-1,-3.8983405E-2,-7.1453745E-3,1.2462629E-1,5.153811E-1,-1.2200948E-2,2.1599086E-2,4.0058494E-2,3.6236036E-1,2.133169E1,5.3581495E-2,9.552692E-2,6.2617517E-1,8.561997E-1,2.2693007E-1,4.3602325E-2,3.4229317E-1,1.5216862E-1,3.578395E-2,2.6686129E-3,-1.7449936E-3,3.9292104E-3,1.0699625E-2,-3.9465987E-4,1.8661947E-3,1.8426733E-3,-6.348643E-3,-5.1610457E-4,-5.972919E-3,7.237421E-3,-1.6450401E-3,-2.519316E-4,-1.8124353E-3,8.6928246E-4,8.167745E-3,9.492771E-3,7.194957E-5,2.824608E-3,6.4958277E-4,-7.1383975E-3,-1.2413401E-3,-1.3611241E-2,-7.856166E-3,2.9390387E-4,-4.43205E-3,1.563153E-4,5.4624383E-3],"split_indices":[10,28,26,18,5,8,27,2,26,25,3,27,0,14,11,3,26,18,5,12,3,8,11,21,11,4,11,5,26,0,0,0,0,0,0,0,0,0,0,0,0,0,0,0,0,0,0,0,0,0,0,0,0,0,0,0,0],"split_type":[0,0,0,0,0,0,0,0,0,0,0,0,0,0,0,0,0,0,0,0,0,0,0,0,0,0,0,0,0,0,0,0,0,0,0,0,0,0,0,0,0,0,0,0,0,0,0,0,0,0,0,0,0,0,0,0,0],"sum_hessian":[3.0742E4,2.2376E4,8.366E3,1.1522E4,1.0854E4,7.179E3,1.187E3,7.2E2,1.0802E4,1.258E3,9.596E3,7.104E3,7.5E1,2.33E2,9.54E2,5.48E2,1.72E2,8.994E3,1.808E3,8.13E2,4.45E2,9.115E3,4.81E2,2.86E2,6.818E3,1.24E2,1.09E2,6.46E2,3.08E2,3.88E2,1.6E2,1.08E2,6.4E1,8.06E3,9.34E2,1.718E3,9E1,1.81E2,6.32E2,5E1,3.95E2,7.74E3,1.375E3,4.1E2,7.1E1,1.53E2,1.33E2,1.102E3,5.716E3,5E1,7.4E1,5.1E1,5.8E1,4.02E2,2.44E2,9.4E1,2.14E2],"tree_param":{"num_deleted":"0","num_feature":"29","num_nodes":"57","size_leaf_vector":"1"}},{"base_weights":[2.6529035E-4,-4.3733343E-3,1.461906E-2,5.5974834E-2,-5.9406264E-3,1.0605319E-2,6.2258102E-2,2.2554314E-2,1.3773298E-1,1.282015E-2,-1.0685855E-2,6.967012E-2,7.404479E-3,1.3176866E-1,2.5530526E-2,-4.774211E-2,6.260207E-2,1.745645E-1,2.6218528E-3,1.9851627E-2,-4.267978E-2,-3.0507462E-2,-4.490649E-3,9.511079E-2,-1.5303731E-3,-3.5048032E-3,2.3961425E-2,1.7021802E-1,1.7846385E-3,-4.9693484E-2,9.2846975E-2,1.2605643E-3,-8.220012E-3,1.0437614E-4,6.917742E-3,6.4234594E-3,1.1675295E-2,7.045191E-4,4.2886077E-3,-4.2363603E-4,-5.3516724E-3,-1.8472051E-3,3.8544189E-3,-7.662216E-4,5.6539057E-4,7.2214394E-3,9.933442E-4,7.268465E-4,-1.196769E-3,-1.2935604E-3,1.7839797E-3,1.0736895E-2,4.486329E-3,2.5714866E-3,-4.694598E-3,1.778624E-3,7.63274E-3],"categories":[],"categories_nodes":[],"categories_segments":[],"categories_sizes":[],"default_left":[0,0,0,0,0,0,0,0,0,0,0,0,0,0,0,0,0,0,0,0,0,0,0,0,0,0,0,0,0,0,0,0,0,0,0,0,0,0,0,0,0,0,0,0,0,0,0,0,0,0,0,0,0,0,0,0,0],"id":14,"left_children":[1,3,5,7,9,11,13,15,17,19,21,23,25,27,29,31,33,35,-1,37,39,41,43,45,-1,47,49,51,-1,53,55,-1,-1,-1,-1,-1,-1,-1,-1,-1,-1,-1,-1,-1,-1,-1,-1,-1,-1,-1,-1,-1,-1,-1,-1,-1,-1],"loss_changes":[2.0530457E0,2.2045E0,1.4393481E0,1.6090094E0,2.0223207E0,1.3128629E0,1.490114E0,1.1853786E0,5.2805614E-1,1.7905178E0,2.2262077E0,9.136647E-1,1.1905794E0,7.40124E-1,1.9491181E0,1.3062677E0,1.2282621E0,2.9331565E-1,0E0,1.5448935E0,1.1349895E0,2.9926114E0,2.3645375E0,1.0547309E0,0E0,1.4651763E0,1.5296971E0,4.967513E-1,0E0,8.182765E-1,6.8993866E-1,0E0,0E0,0E0,0E0,0E0,0E0,0E0,0E0,0E0,0E0,0E0,0E0,0E0,0E0,0E0,0E0,0E0,0E0,0E0,0E0,0E0,0E0,0E0,0E0,0E0,0E0],"parents":[2147483647,0,0,1,1,2,2,3,3,4,4,5,5,6,6,7,7,8,8,9,9,10,10,11,11,12,12,13,13,14,14,15,15,16,16,17,17,19,19,20,20,21,21,22,22,23,23,25,25,26,26,27,27,29,29,30,30],"right_children":[2,4,6,8,10,12,14,16,18,20,22,24,26,28,30,32,34,36,-1,38,40,42,44,46,-1,48,50,52,-1,54,56,-1,-1,-1,-1,-1,-1,-1,-1,-1,-1,-1,-1,-1,-1,-1,-1,-1,-1,-1,-1,-1,-1,-1,-1,-1,-1],"split_conditions":[-6.427895E-2,-2.546959E-1,8.228096E1,1.3000223E-2,1.9303674E-2,3.8395905E1,1.2055766E-2,9.783903E-3,-6.7670874E-2,9.38136E-2,5.105133E-3,4.7696926E-2,3.483121E-2,1.7290348E-1,1.8726379E-2,-9.33837E-3,-2.828097E-1,-8.878832E-2,2.6218528E-3,2.1024667E-2,2.2534484E-2,4.6423578E-1,2.0616226E-2,7.203729E-3,-1.5303731E-3,1.1036859E-1,-4.317324E-2,3.266635E-2,1.7846385E-3,1.224031E-2,2.5263902E-2,1.2605643E-3,-8.220012E-3,1.0437614E-4,6.917742E-3,6.4234594E-3,1.1675295E-2,7.045191E-4,4.2886077E-3,-4.2363603E-4,-5.3516724E-3,-1.8472051E-3,3.8544189E-3,-7.662216E-4,5.6539057E-4,7.2214394E-3,9.933442E-4,7.268465E-4,-1.196769E-3,-1.2935604E-3,1.7839797E-3,1.0736895E-2,4.486329E-3,2.5714866E-3,-4.694598E-3,1.778624E-3,7.63274E-3],"split_indices":[10,4,13,25,18,13,24,11,9,4,25,22,9,5,16,24,4,9,0,9,27,5,17,24,0,8,10,9,0,16,17,0,0,0,0,0,0,0,0,0,0,0,0,0,0,0,0,0,0,0,0,0,0,0,0,0,0],"split_type":[0,0,0,0,0,0,0,0,0,0,0,0,0,0,0,0,0,0,0,0,0,0,0,0,0,0,0,0,0,0,0,0,0,0,0,0,0,0,0,0,0,0,0,0,0,0,0,0,0,0,0,0,0,0,0,0,0],"sum_hessian":[3.0833E4,2.3303E4,7.53E3,5.89E2,2.2714E4,6.946E3,5.84E2,4.19E2,1.7E2,4.585E3,1.8129E4,3.56E2,6.59E3,2.01E2,3.83E2,1.52E2,2.67E2,1.18E2,5.2E1,4.07E3,5.15E2,4.316E3,1.3813E4,2.84E2,7.2E1,3.973E3,2.617E3,1.43E2,5.8E1,1.81E2,2.02E2,9.4E1,5.8E1,1.49E2,1.18E2,6.8E1,5E1,3.744E3,3.26E2,3.37E2,1.78E2,4.073E3,2.43E2,8.194E3,5.619E3,1.71E2,1.13E2,2.11E3,1.863E3,4.98E2,2.119E3,9.1E1,5.2E1,5.5E1,1.26E2,1.04E2,9.8E1],"tree_param":{"num_deleted":"0","num_feature":"29","num_nodes":"57","size_leaf_vector":"1"}},{"base_weights":[6.3277286E-4,-7.214825E-3,9.796915E-3,3.6282115E-2,-9.895166E-3,-9.207371E-2,1.1725331E-2,5.682991E-2,-6.7197315E-2,6.4155934E-3,-1.6196601E-2,-6.305988E-4,-1.1488166E-1,9.938788E-3,7.3449664E-2,-1.2571578E-2,7.73018E-2,3.1060416E-3,-1.4134018E-1,1.1494744E-2,-6.252262E-2,-4.6438448E-2,-8.960184E-3,-7.653183E-2,-8.20029E-3,1.3083869E-2,-3.6369648E-2,1.0944068E-1,-3.1330798E-2,-3.9204326E-3,3.3369665E-3,-2.8935517E-3,4.6740337E-3,-4.6682823E-3,-9.283703E-3,-2.2183286E-3,7.9514825E-4,1.0794208E-3,-4.298953E-3,2.9175184E-3,-2.8391401E-3,-1.1309222E-3,2.8593247E-4,-6.0561E-3,-2.0120305E-3,-6.286287E-4,8.8507397E-4,-3.8612057E-3,1.4222929E-3,3.5789956E-3,1.258208E-2,-6.773505E-3,3.671141E-3],"categories":[],"categories_nodes":[],"categories_segments":[],"categories_sizes":[],"default_left":[0,0,0,0,0,0,0,0,0,0,0,0,0,0,0,0,0,0,0,0,0,0,0,0,0,0,0,0,0,0,0,0,0,0,0,0,0,0,0,0,0,0,0,0,0,0,0,0,0,0,0,0,0],"id":15,"left_children":[1,3,5,7,9,11,13,15,17,19,21,-1,23,25,27,29,31,-1,33,35,37,39,41,43,-1,45,47,49,51,-1,-1,-1,-1,-1,-1,-1,-1,-1,-1,-1,-1,-1,-1,-1,-1,-1,-1,-1,-1,-1,-1,-1,-1],"loss_changes":[2.2143798E0,1.9341822E0,2.7914402E0,2.0514207E0,1.6060599E0,4.7701383E-1,1.5365885E0,1.1432784E0,1.5428632E0,1.5256112E0,2.466159E0,0E0,3.736484E-1,1.9739492E0,1.4817219E0,9.66007E-1,1.3635025E0,0E0,1.9960785E-1,9.9973774E-1,5.917666E-1,2.3620381E0,1.8237619E0,1.8445903E-1,0E0,1.5035071E0,2.2847748E0,1.5540671E0,1.1117523E0,0E0,0E0,0E0,0E0,0E0,0E0,0E0,0E0,0E0,0E0,0E0,0E0,0E0,0E0,0E0,0E0,0E0,0E0,0E0,0E0,0E0,0E0,0E0,0E0],"parents":[2147483647,0,0,1,1,2,2,3,3,4,4,5,5,6,6,7,7,8,8,9,9,10,10,12,12,13,13,14,14,15,15,16,16,18,18,19,19,20,20,21,21,22,22,23,23,25,25,26,26,27,27,28,28],"right_children":[2,4,6,8,10,12,14,16,18,20,22,-1,24,26,28,30,32,-1,34,36,38,40,42,44,-1,46,48,50,52,-1,-1,-1,-1,-1,-1,-1,-1,-1,-1,-1,-1,-1,-1,-1,-1,-1,-1,-1,-1,-1,-1,-1,-1],"split_conditions":[-1.3791734E-1,-1.2776539E-1,-4.2098667E-2,-1.4545143E-1,2.184212E-2,-3.4071896E-3,3.175685E-2,3.0814216E-2,-2.4210446E-2,6.271554E-2,5.0313505E-3,-6.305988E-4,-1.0432955E-1,3.9322793E-2,1.8423927E0,-1.3400172E-1,-1.3279797E-1,3.1060416E-3,-5.4783132E-2,-4.974569E-2,8.7419264E-2,-1.942309E-2,2.0535143E-2,2.881393E-2,-8.20029E-3,-1.7543962E-2,1.9691661E-2,4.2349987E-2,8.3999954E1,-3.9204326E-3,3.3369665E-3,-2.8935517E-3,4.6740337E-3,-4.6682823E-3,-9.283703E-3,-2.2183286E-3,7.9514825E-4,1.0794208E-3,-4.298953E-3,2.9175184E-3,-2.8391401E-3,-1.1309222E-3,2.8593247E-4,-6.0561E-3,-2.0120305E-3,-6.286287E-4,8.8507397E-4,-3.8612057E-3,1.4222929E-3,3.5789956E-3,1.258208E-2,-6.773505E-3,3.671141E-3],"split_indices":[10,7,9,4,18,20,16,18,0,28,25,0,10,26,21,3,9,0,1,9,4,23,17,18,0,26,17,16,12,0,0,0,0,0,0,0,0,0,0,0,0,0,0,0,0,0,0,0,0,0,0,0,0],"split_type":[0,0,0,0,0,0,0,0,0,0,0,0,0,0,0,0,0,0,0,0,0,0,0,0,0,0,0,0,0,0,0,0,0,0,0,0,0,0,0,0,0,0,0,0,0,0,0,0,0,0,0,0,0],"sum_hessian":[3.0789E4,1.6586E4,1.4203E4,9.62E2,1.5624E4,2.63E2,1.394E4,8.03E2,1.59E2,4.354E3,1.127E4,5.9E1,2.04E2,1.3549E4,3.91E2,1.83E2,6.2E2,5.8E1,1.01E2,4.056E3,2.98E2,2.175E3,9.095E3,1.16E2,8.8E1,1.2688E4,8.61E2,2.91E2,1E2,1E2,8.3E1,6.6E1,5.54E2,5E1,5.1E1,2.96E2,3.76E3,6.5E1,2.33E2,1.95E2,1.98E3,4.711E3,4.384E3,5.1E1,6.5E1,1.935E3,1.0753E4,5.28E2,3.33E2,2.31E2,6E1,5E1,5E1],"tree_param":{"num_deleted":"0","num_feature":"29","num_nodes":"53","size_leaf_vector":"1"}},{"base_weights":[-1.2134166E-3,-1.0349234E-2,8.11677E-3,4.1580327E-2,-1.2445724E-2,-7.234433E-2,9.897533E-3,2.119717E-2,1.3714273E-1,6.492547E-2,-1.3621228E-2,-4.4735413E-2,-1.1904859E-1,1.0807003E-2,-9.860735E-2,1.6552439E-3,6.2534995E-3,1.7047909E-3,1.160377E-2,2.0406123E-2,8.918662E-3,-1.1305444E-2,-5.3886138E-2,-5.3672804E-3,-1.311078E-2,-8.10538E-3,-3.2702845E-3,9.399841E-3,9.7504415E-2,-8.525006E-3,-2.386355E-3,-9.256525E-4,5.9367386E-3,-3.8679044E-3,4.7816397E-3,-5.1069603E-4,-4.7090324E-3,-2.2341315E-4,-5.751241E-3,1.4195581E-3,-3.7020762E-3,5.43234E-4,-3.0705514E-3,3.7050177E-5,7.085021E-3],"categories":[],"categories_nodes":[],"categories_segments":[],"categories_sizes":[],"default_left":[0,0,0,0,0,0,0,0,0,0,0,0,0,0,0,0,0,0,0,0,0,0,0,0,0,0,0,0,0,0,0,0,0,0,0,0,0,0,0,0,0,0,0,0,0],"id":16,"left_children":[1,3,5,7,9,11,13,15,17,19,21,23,25,27,29,31,-1,-1,-1,33,-1,35,37,-1,39,-1,-1,41,43,-1,-1,-1,-1,-1,-1,-1,-1,-1,-1,-1,-1,-1,-1,-1,-1],"loss_changes":[2.6248446E0,1.6944228E0,2.183619E0,1.1736023E0,1.3611348E0,4.2019415E-1,1.4720197E0,1.0127006E0,1.0290343E0,1.1276991E0,1.3731668E0,4.124177E-1,2.7119434E-1,1.8025699E0,4.4544482E-1,9.963031E-1,0E0,0E0,0E0,1.1988231E0,0E0,1.2594199E0,2.4195824E0,0E0,3.5612628E-1,0E0,0E0,1.50968E0,1.0091622E0,0E0,0E0,0E0,0E0,0E0,0E0,0E0,0E0,0E0,0E0,0E0,0E0,0E0,0E0,0E0,0E0],"parents":[2147483647,0,0,1,1,2,2,3,3,4,4,5,5,6,6,7,7,8,8,9,9,10,10,11,11,12,12,13,13,14,14,15,15,19,19,21,21,22,22,24,24,27,27,28,28],"right_children":[2,4,6,8,10,12,14,16,18,20,22,24,26,28,30,32,-1,-1,-1,34,-1,36,38,-1,40,-1,-1,42,44,-1,-1,-1,-1,-1,-1,-1,-1,-1,-1,-1,-1,-1,-1,-1,-1],"split_conditions":[-1.520826E-1,-2.546959E-1,-4.3029442E-2,-1.9106673E-1,-1.5220788E-1,3.5414968E-2,4.7229332E-1,8.759318E-3,-5.5721205E-2,1.6006625E0,6.3234195E-2,1.7127812E-2,5.602874E-2,1.613532E-1,3.916015E-2,-1.7290637E-1,6.2534995E-3,1.7047909E-3,1.160377E-2,-1.4936994E-1,8.918662E-3,4.2349987E-2,3.9319224E-3,-5.3672804E-3,6.3965267E1,-8.10538E-3,-3.2702845E-3,7.182988E-2,3.4966286E-2,-8.525006E-3,-2.386355E-3,-9.256525E-4,5.9367386E-3,-3.8679044E-3,4.7816397E-3,-5.1069603E-4,-4.7090324E-3,-2.2341315E-4,-5.751241E-3,1.4195581E-3,-3.7020762E-3,5.43234E-4,-3.0705514E-3,3.7050177E-5,7.085021E-3],"split_indices":[10,4,9,28,7,8,8,20,2,21,8,16,6,2,18,8,0,0,0,27,0,16,23,0,13,0,0,24,18,0,0,0,0,0,0,0,0,0,0,0,0,0,0,0,0],"split_type":[0,0,0,0,0,0,0,0,0,0,0,0,0,0,0,0,0,0,0,0,0,0,0,0,0,0,0,0,0,0,0,0,0,0,0,0,0,0,0,0,0,0,0,0,0],"sum_hessian":[3.0792E4,1.5558E4,1.5234E4,6.03E2,1.4955E4,3.29E2,1.4905E4,4.98E2,1.05E2,2.23E2,1.4732E4,2.08E2,1.21E2,1.4782E4,1.23E2,4.2E2,7.8E1,5.1E1,5.4E1,1.61E2,6.2E1,1.3932E4,8E2,6.9E1,1.39E2,6.6E1,5.5E1,1.4547E4,2.35E2,5E1,7.3E1,3.59E2,6.1E1,7E1,9.1E1,1.3752E4,1.8E2,4.43E2,3.57E2,8.3E1,5.6E1,1.4253E4,2.94E2,7.4E1,1.61E2],"tree_param":{"num_deleted":"0","num_feature":"29","num_nodes":"45","size_leaf_vector":"1"}},{"base_weights":[4.125291E-4,1.0852255E-3,-8.482263E-2,-5.6343284E-3,8.830211E-3,-1.2692149E-1,1.7734867E-3,5.0954282E-2,-7.267952E-3,-7.485166E-2,1.0367733E-2,-2.35118E-3,-1.6817574E-1,2.9162668E-2,9.096291E-3,-1.1343729E-2,9.858594E-3,-5.234867E-4,-9.6369855E-2,2.513545E-2,3.8606424E-3,-1.1331388E-2,-6.058617E-3,8.982736E-3,1.285522E-4,2.5517584E-4,-9.167098E-4,2.1251757E-3,-1.3279512E-3,-3.517174E-3,-7.3458413E-3,1.7753755E-3,-1.1108723E-3,-2.1673241E-4,1.562645E-3],"categories":[],"categories_nodes":[],"categories_segments":[],"categories_sizes":[],"default_left":[0,0,0,0,0,0,0,0,0,0,0,0,0,0,0,0,0,0,0,0,0,0,0,0,0,0,0,0,0,0,0,0,0,0,0],"id":17,"left_children":[1,3,5,7,9,11,-1,13,15,17,19,-1,21,23,-1,25,27,-1,29,31,33,-1,-1,-1,-1,-1,-1,-1,-1,-1,-1,-1,-1,-1,-1],"loss_changes":[1.7573684E0,1.5826207E0,1.2199029E0,1.505644E0,1.8183949E0,5.7880235E-1,0E0,1.2990094E0,1.1048996E0,3.5226357E-1,1.3330271E0,0E0,2.939899E-1,1.5722566E0,0E0,1.4700347E0,3.6187997E0,0E0,2.4093628E-1,2.0847247E0,2.1621745E0,0E0,0E0,0E0,0E0,0E0,0E0,0E0,0E0,0E0,0E0,0E0,0E0,0E0,0E0],"parents":[2147483647,0,0,1,1,2,2,3,3,4,4,5,5,7,7,8,8,9,9,10,10,12,12,13,13,15,15,16,16,18,18,19,19,20,20],"right_children":[2,4,6,8,10,12,-1,14,16,18,20,-1,22,24,-1,26,28,-1,30,32,34,-1,-1,-1,-1,-1,-1,-1,-1,-1,-1,-1,-1,-1,-1],"split_conditions":[3.9452145E0,-1.3791734E-1,9.821807E-3,-1.5220788E-1,-4.2098667E-2,-5.744088E-3,1.7734867E-3,1.9568819E0,3.035025E-2,-3.1673464E-3,5.0255866E-3,-2.35118E-3,-1.9046903E-1,1.5724387E-2,9.096291E-3,2.1919804E-2,2.0133115E-2,-5.234867E-4,2.7179813E-1,1.7903179E-2,2.1006254E-2,-1.1331388E-2,-6.058617E-3,8.982736E-3,1.285522E-4,2.5517584E-4,-9.167098E-4,2.1251757E-3,-1.3279512E-3,-3.517174E-3,-7.3458413E-3,1.7753755E-3,-1.1108723E-3,-2.1673241E-4,1.562645E-3],"split_indices":[21,10,25,7,9,23,0,21,26,20,25,0,5,16,0,18,9,0,5,17,17,0,0,0,0,0,0,0,0,0,0,0,0,0,0],"split_type":[0,0,0,0,0,0,0,0,0,0,0,0,0,0,0,0,0,0,0,0,0,0,0,0,0,0,0,0,0,0,0,0,0,0,0],"sum_hessian":[3.0647E4,3.0408E4,2.39E2,1.6282E4,1.4126E4,1.77E2,6.2E1,4.56E2,1.5826E4,2.54E2,1.3872E4,6.1E1,1.16E2,3.92E2,6.4E1,1.2784E4,3.042E3,6.4E1,1.9E2,4.242E3,9.63E3,5E1,6.6E1,5.8E1,3.34E2,3.813E3,8.971E3,1.604E3,1.438E3,1.27E2,6.3E1,3.48E3,7.62E2,7.413E3,2.217E3],"tree_param":{"num_deleted":"0","num_feature":"29","num_nodes":"35","size_leaf_vector":"1"}},{"base_weights":[4.4735588E-4,-1.0126752E-2,6.711935E-3,-6.0988176E-3,-4.09524E-2,3.7968424E-3,2.6859032E-2,-4.6437397E-3,-1.1329108E-1,-6.632165E-2,9.8212715E-3,1.7552136E-2,-3.332081E-3,-6.14486E-3,3.1835373E-2,-1.0667063E-2,1.9736987E-2,3.7356248E-4,-9.64543E-3,-5.23081E-2,-8.852617E-3,-8.803021E-2,4.480232E-2,-3.7892275E-2,2.735544E-2,-1.6558262E-2,7.4773477E-3,2.8268004E-2,9.080247E-3,-2.545097E-5,-2.1900812E-3,-1.0741798E-3,2.2955963E-3,-5.8072507E-3,-1.7132836E-3,1.793973E-3,-9.051781E-3,-5.3488123E-3,3.6945634E-3,-1.3731451E-3,-1.0061281E-2,4.3486035E-3,1.125463E-3,-3.4732683E-4,-2.3990325E-3,-1.5959304E-3,9.18976E-4,2.1109856E-3,-3.9150854E-4],"categories":[],"categories_nodes":[],"categories_segments":[],"categories_sizes":[],"default_left":[0,0,0,0,0,0,0,0,0,0,0,0,0,0,0,0,0,0,0,0,0,0,0,0,0,0,0,0,0,0,0,0,0,0,0,0,0,0,0,0,0,0,0,0,0,0,0,0,0],"id":18,"left_children":[1,3,5,7,9,11,13,15,17,19,21,23,25,-1,27,29,31,-1,-1,33,-1,35,37,39,41,43,45,47,-1,-1,-1,-1,-1,-1,-1,-1,-1,-1,-1,-1,-1,-1,-1,-1,-1,-1,-1,-1,-1],"loss_changes":[2.0447702E0,1.4256461E0,1.1383331E0,1.5838486E0,1.7099464E0,1.6607118E0,1.8297461E0,1.4721181E0,1.3090539E0,1.3640192E0,1.5203097E0,3.143232E0,1.5949259E0,0E0,1.262186E0,2.7054262E0,2.1437733E0,0E0,0E0,9.024658E-1,0E0,1.3548349E0,1.4516356E0,1.474784E0,1.4174719E0,1.5149179E0,2.6372962E0,1.1677475E0,0E0,0E0,0E0,0E0,0E0,0E0,0E0,0E0,0E0,0E0,0E0,0E0,0E0,0E0,0E0,0E0,0E0,0E0,0E0,0E0,0E0],"parents":[2147483647,0,0,1,1,2,2,3,3,4,4,5,5,6,6,7,7,8,8,9,9,10,10,11,11,12,12,14,14,15,15,16,16,19,19,21,21,22,22,23,23,24,24,25,25,26,26,27,27],"right_children":[2,4,6,8,10,12,14,16,18,20,22,24,26,-1,28,30,32,-1,-1,34,-1,36,38,40,42,44,46,48,-1,-1,-1,-1,-1,-1,-1,-1,-1,-1,-1,-1,-1,-1,-1,-1,-1,-1,-1,-1,-1],"split_conditions":[-7.527079E-2,8.535588E-2,9.0302385E-2,3.9452145E0,1.6402267E-1,1.41758025E-2,-5.398644E-2,3.2442752E-2,-2.4918627E-3,7.594057E-2,-1.965071E-1,-1.7543962E-2,1.849925E-2,-6.14486E-3,1.7774614E-2,6.5994384E-3,1.082691E-2,3.7356248E-4,-9.64543E-3,1.4069036E-2,-8.852617E-3,6.4404264E-2,-8.746911E-3,1.5098345E-2,2.9372648E1,1.1167993E-2,5.2702143E-3,2.679325E-1,9.080247E-3,-2.545097E-5,-2.1900812E-3,-1.0741798E-3,2.2955963E-3,-5.8072507E-3,-1.7132836E-3,1.793973E-3,-9.051781E-3,-5.3488123E-3,3.6945634E-3,-1.3731451E-3,-1.0061281E-2,4.3486035E-3,1.125463E-3,-3.4732683E-4,-2.3990325E-3,-1.5959304E-3,9.18976E-4,2.1109856E-3,-3.9150854E-4],"split_indices":[5,28,27,21,28,17,4,18,26,9,5,26,17,0,25,25,25,0,0,17,0,9,26,25,13,25,25,28,0,0,0,0,0,0,0,0,0,0,0,0,0,0,0,0,0,0,0,0,0],"split_type":[0,0,0,0,0,0,0,0,0,0,0,0,0,0,0,0,0,0,0,0,0,0,0,0,0,0,0,0,0,0,0,0,0,0,0,0,0,0,0,0,0,0,0,0,0,0,0,0,0],"sum_hessian":[3.0866E4,1.1483E4,1.9383E4,1.0157E4,1.326E3,1.6934E4,2.449E3,1.0022E4,1.35E2,8.84E2,4.42E2,5.78E3,1.1154E4,7.8E1,2.371E3,8.037E3,1.985E3,5.4E1,8.1E1,7.86E2,9.8E1,1.16E2,3.26E2,8.68E2,4.912E3,5.016E3,6.138E3,2.317E3,5.4E1,6.152E3,1.885E3,7.71E2,1.214E3,1.72E2,6.14E2,5E1,6.6E1,5.2E1,2.74E2,8.17E2,5.1E1,3.68E2,4.544E3,3.842E3,1.174E3,1.33E3,4.808E3,1.671E3,6.46E2],"tree_param":{"num_deleted":"0","num_feature":"29","num_nodes":"49","size_leaf_vector":"1"}},{"base_weights":[9.6182706E-4,-1.9561204E-3,1.8152498E-2,-3.9696204E-3,3.833961E-2,3.1305406E-2,-1.11761065E-2,-4.264259E-2,-1.9798896E-3,-2.8620737E-2,7.997726E-2,2.6942747E-2,8.710501E-3,8.750318E-3,-5.0447837E-2,-8.5562006E-2,-1.6958449E-2,8.307456E-3,-8.807769E-3,4.281533E-2,-8.387149E-2,1.1933563E-1,-4.504355E-3,3.0105226E-2,-4.4194865E-3,9.341687E-2,-8.06178E-3,-7.725141E-2,3.4721028E-2,-1.1045366E-2,-3.3841517E-3,-2.7501846E-3,8.3262223E-4,-2.9123244E-3,5.925479E-4,2.2995386E-3,-5.826323E-4,5.9290132E-3,5.5008166E-4,-2.6159545E-3,-1.0070675E-2,7.4400282E-3,1.891319E-3,-5.821134E-3,1.6112131E-3,1.312284E-3,5.1483028E-3,-9.251005E-5,9.692926E-3,1.0083106E-4,-6.228736E-3,-2.3988553E-3,-8.466578E-3,-2.5653574E-3,5.93154E-3],"categories":[],"categories_nodes":[],"categories_segments":[],"categories_sizes":[],"default_left":[0,0,0,0,0,0,0,0,0,0,0,0,0,0,0,0,0,0,0,0,0,0,0,0,0,0,0,0,0,0,0,0,0,0,0,0,0,0,0,0,0,0,0,0,0,0,0,0,0,0,0,0,0,0,0],"id":19,"left_children":[1,3,5,7,9,11,13,15,17,19,21,23,-1,25,27,29,31,33,35,37,39,41,43,45,-1,47,49,51,53,-1,-1,-1,-1,-1,-1,-1,-1,-1,-1,-1,-1,-1,-1,-1,-1,-1,-1,-1,-1,-1,-1,-1,-1,-1,-1],"loss_changes":[1.5410461E0,2.1310942E0,1.7200521E0,1.9247901E0,3.4873786E0,1.9142668E0,1.0811363E0,1.3478234E0,1.6712412E0,1.8981013E0,2.5641575E0,1.0924942E0,0E0,1.3060315E0,1.0641984E0,1.0933328E0,9.8170537E-1,2.239227E0,2.2299924E0,5.048716E-1,9.945284E-1,1.257647E0,1.0149604E0,8.153367E-1,0E0,1.4548134E0,8.997375E-1,9.461119E-1,8.145703E-1,0E0,0E0,0E0,0E0,0E0,0E0,0E0,0E0,0E0,0E0,0E0,0E0,0E0,0E0,0E0,0E0,0E0,0E0,0E0,0E0,0E0,0E0,0E0,0E0,0E0,0E0],"parents":[2147483647,0,0,1,1,2,2,3,3,4,4,5,5,6,6,7,7,8,8,9,9,10,10,11,11,13,13,14,14,15,15,16,16,17,17,18,18,19,19,20,20,21,21,22,22,23,23,25,25,26,26,27,27,28,28],"right_children":[2,4,6,8,10,12,14,16,18,20,22,24,-1,26,28,30,32,34,36,38,40,42,44,46,-1,48,50,52,54,-1,-1,-1,-1,-1,-1,-1,-1,-1,-1,-1,-1,-1,-1,-1,-1,-1,-1,-1,-1,-1,-1,-1,-1,-1,-1],"split_conditions":[2.9564297E-1,2.9459305E-2,6.636362E1,4.08571E-1,1.1167993E-2,4.2172718E-1,3.4966286E-2,5.0313505E-3,2.1919804E-2,-4.6474575E-3,1.7806551E-1,2.2997556E-2,8.710501E-3,-6.4065866E-3,1.567236E-2,-1.1045473E-1,7.235289E-3,-2.1941649E-2,-1.2776539E-1,3.949478E1,1.4270886E0,4.8913546E-2,7.801492E-2,4.8164934E-2,-4.4194865E-3,2.706623E-2,8.318841E1,1.85856E0,4.6988703E-2,-1.1045366E-2,-3.3841517E-3,-2.7501846E-3,8.3262223E-4,-2.9123244E-3,5.925479E-4,2.2995386E-3,-5.826323E-4,5.9290132E-3,5.5008166E-4,-2.6159545E-3,-1.0070675E-2,7.4400282E-3,1.891319E-3,-5.821134E-3,1.6112131E-3,1.312284E-3,5.1483028E-3,-9.251005E-5,9.692926E-3,1.0083106E-4,-6.228736E-3,-2.3988553E-3,-8.466578E-3,-2.5653574E-3,5.93154E-3],"split_indices":[5,17,12,21,25,4,18,25,18,0,3,23,0,28,25,27,24,23,7,13,21,18,6,6,0,18,13,14,27,0,0,0,0,0,0,0,0,0,0,0,0,0,0,0,0,0,0,0,0,0,0,0,0,0,0],"split_type":[0,0,0,0,0,0,0,0,0,0,0,0,0,0,0,0,0,0,0,0,0,0,0,0,0,0,0,0,0,0,0,0,0,0,0,0,0,0,0,0,0,0,0,0,0,0,0,0,0,0,0,0,0,0,0],"sum_hessian":[3.072E4,2.6263E4,4.457E3,2.5014E4,1.249E3,3.077E3,1.38E3,1.223E3,2.3791E4,4.79E2,7.7E2,2.987E3,9E1,9.16E2,4.64E2,4.57E2,7.66E2,9.491E3,1.43E4,2.09E2,2.7E2,5.25E2,2.45E2,2.908E3,7.9E1,1.51E2,7.65E2,3.53E2,1.11E2,5.2E1,4.05E2,3.59E2,4.07E2,4.79E2,9.012E3,7.05E2,1.3595E4,6.1E1,1.48E2,2.14E2,5.6E1,3.85E2,1.4E2,6E1,1.85E2,2.763E3,1.45E2,7.8E1,7.3E1,7.05E2,6E1,2.69E2,8.4E1,5.5E1,5.6E1],"tree_param":{"num_deleted":"0","num_feature":"29","num_nodes":"55","size_leaf_vector":"1"}},{"base_weights":[7.9376965E-5,-7.3010935E-3,8.647223E-3,-2.3906495E-2,-2.1683422E-3,2.6212294E-2,1.1567689E-3,-1.1784736E-2,-9.426416E-2,2.1667762E-2,-8.14964E-3,1.7161643E-2,6.659781E-2,-9.4158377E-4,8.874227E-2,-4.873629E-2,5.421196E-4,-3.0156523E-3,-1.2908117E-1,-9.648E-3,6.120659E-2,5.1555783E-3,-1.7854674E-2,4.51911E-2,2.3998043E-3,8.184194E-2,-2.8419306E-3,4.406387E-2,-4.313532E-3,-3.8429513E-4,1.2001552E-1,2.245927E-3,-3.131979E-3,-3.6575727E-3,4.5980822E-4,3.8956513E-3,-4.4027925E-3,-1.0161883E-2,-4.5429706E-3,3.1664537E-3,-2.0478165E-3,4.4376594E-3,-6.71331E-4,1.7499219E-3,-2.8420496E-4,-1.9272302E-3,1.6724317E-4,2.716102E-3,-4.3249587E-3,1.5157999E-3,-4.9025635E-4,6.7254626E-3,2.9229375E-3,5.6958403E-3,2.138303E-4,-6.420862E-4,5.534598E-4,8.484168E-3,2.3303626E-4],"categories":[],"categories_nodes":[],"categories_segments":[],"categories_sizes":[],"default_left":[0,0,0,0,0,0,0,0,0,0,0,0,0,0,0,0,0,0,0,0,0,0,0,0,0,0,0,0,0,0,0,0,0,0,0,0,0,0,0,0,0,0,0,0,0,0,0,0,0,0,0,0,0,0,0,0,0,0,0],"id":20,"left_children":[1,3,5,7,9,11,13,15,17,19,21,23,25,27,29,31,33,35,37,39,41,43,45,47,49,51,-1,53,55,-1,57,-1,-1,-1,-1,-1,-1,-1,-1,-1,-1,-1,-1,-1,-1,-1,-1,-1,-1,-1,-1,-1,-1,-1,-1,-1,-1,-1,-1],"loss_changes":[1.9407371E0,1.4052435E0,1.8686633E0,3.3190677E0,1.7959986E0,1.5508349E0,1.8302172E0,1.5131856E0,1.8168559E0,3.129493E0,1.3004069E0,1.4356607E0,1.4667172E0,1.4761693E0,7.035624E-1,1.0848675E0,1.5899394E0,1.1011289E0,1.1549716E0,3.2264328E0,2.2976222E0,1.3743716E0,2.5541956E0,1.4440382E0,7.7508366E-1,8.443556E-1,0E0,1.8838494E0,1.187252E0,0E0,1.0075874E0,0E0,0E0,0E0,0E0,0E0,0E0,0E0,0E0,0E0,0E0,0E0,0E0,0E0,0E0,0E0,0E0,0E0,0E0,0E0,0E0,0E0,0E0,0E0,0E0,0E0,0E0,0E0,0E0],"parents":[2147483647,0,0,1,1,2,2,3,3,4,4,5,5,6,6,7,7,8,8,9,9,10,10,11,11,12,12,13,13,14,14,15,15,16,16,17,17,18,18,19,19,20,20,21,21,22,22,23,23,24,24,25,25,27,27,28,28,30,30],"right_children":[2,4,6,8,10,12,14,16,18,20,22,24,26,28,30,32,34,36,38,40,42,44,46,48,50,52,-1,54,56,-1,58,-1,-1,-1,-1,-1,-1,-1,-1,-1,-1,-1,-1,-1,-1,-1,-1,-1,-1,-1,-1,-1,-1,-1,-1,-1,-1,-1,-1],"split_conditions":[-1.3791734E-1,5.0255866E-3,5.0313505E-3,2.1962939E-2,-3.3661616E-1,6.952504E1,1.3033095E-1,5.86951E-1,-1.0752306E-2,1.0922533E-2,6.5994384E-3,-1.3004938E-2,1.6423996E-1,-6.0598824E-2,-3.539912E-2,1.1403692E-2,-3.0454466E-1,3.463683E-2,2.4407651E-2,1.50854625E-2,4.1208014E-2,-2.7529277E-2,1.9862017E-2,3.0693479E-2,-6.250474E-3,-1.9743139E-1,-2.8419306E-3,-1.1823182E-1,2.85047E-2,-3.8429513E-4,1.132896E0,2.245927E-3,-3.131979E-3,-3.6575727E-3,4.5980822E-4,3.8956513E-3,-4.4027925E-3,-1.0161883E-2,-4.5429706E-3,3.1664537E-3,-2.0478165E-3,4.4376594E-3,-6.71331E-4,1.7499219E-3,-2.8420496E-4,-1.9272302E-3,1.6724317E-4,2.716102E-3,-4.3249587E-3,1.5157999E-3,-4.9025635E-4,6.7254626E-3,2.9229375E-3,5.6958403E-3,2.138303E-4,-6.420862E-4,5.534598E-4,8.484168E-3,2.3303626E-4],"split_indices":[10,25,25,17,10,13,6,21,23,25,25,3,27,28,5,17,5,18,17,16,27,6,17,18,0,22,0,10,18,0,11,0,0,0,0,0,0,0,0,0,0,0,0,0,0,0,0,0,0,0,0,0,0,0,0,0,0,0,0],"split_type":[0,0,0,0,0,0,0,0,0,0,0,0,0,0,0,0,0,0,0,0,0,0,0,0,0,0,0,0,0,0,0,0,0,0,0,0,0,0,0,0,0,0,0,0,0,0,0,0,0,0,0,0,0,0,0,0,0,0,0],"sum_hessian":[3.0689E4,1.6487E4,1.4202E4,3.892E3,1.2595E4,4.245E3,9.957E3,3.321E3,5.71E2,2.526E3,1.0069E4,3.469E3,7.76E2,9.725E3,2.32E2,8.3E2,2.491E3,1.58E2,4.13E2,1.41E3,1.116E3,4.247E3,5.822E3,1.196E3,2.273E3,6.91E2,8.5E1,6.77E2,9.048E3,5.7E1,1.75E2,1.07E2,7.23E2,2.61E2,2.23E3,8.1E1,7.7E1,1.39E2,2.74E2,4.23E2,9.87E2,8.15E2,3.01E2,1.131E3,3.116E3,2.946E3,2.876E3,1.119E3,7.7E1,6.91E2,1.582E3,2.11E2,4.8E2,2.45E2,4.32E2,5.821E3,3.227E3,1.22E2,5.3E1],"tree_param":{"num_deleted":"0","num_feature":"29","num_nodes":"59","size_leaf_vector":"1"}},{"base_weights":[-1.3873402E-3,9.178927E-3,-5.8950926E-3,-3.6195345E-2,1.1907542E-2,-3.3117462E-2,-2.8343436E-3,1.7339384E-2,-8.146793E-2,1.148802E-1,1.0340117E-2,-4.7290064E-2,3.5853457E-2,9.199349E-3,-8.74681E-3,-3.2452878E-2,8.199156E-3,4.6225637E-3,-1.3956815E-1,1.0476201E-2,1.5381856E-3,7.55429E-3,5.029342E-2,-4.2814694E-2,-9.200955E-3,5.7389732E-2,-4.3348745E-3,-5.756954E-2,1.2951991E-2,-1.3835068E-2,1.6493184E-2,-4.0112864E-3,1.9334661E-3,2.5834225E-3,-2.4739343E-3,-9.491338E-3,-2.3736877E-3,9.5683284E-4,-2.7994794E-4,9.900604E-4,6.258495E-3,-2.4015165E-3,4.8888163E-3,4.163603E-4,5.3045657E-3,3.8873902E-4,-4.380541E-3,7.477088E-4,-3.8790714E-3,-7.461936E-3,-6.297973E-4,-1.8431969E-3,1.3287037E-3],"categories":[],"categories_nodes":[],"categories_segments":[],"categories_sizes":[],"default_left":[0,0,0,0,0,0,0,0,0,0,0,0,0,0,0,0,0,0,0,0,0,0,0,0,0,0,0,0,0,0,0,0,0,0,0,0,0,0,0,0,0,0,0,0,0,0,0,0,0,0,0,0,0],"id":21,"left_children":[1,3,5,7,9,11,13,15,17,19,21,23,25,27,29,31,-1,33,35,-1,-1,37,39,41,-1,43,-1,45,47,49,51,-1,-1,-1,-1,-1,-1,-1,-1,-1,-1,-1,-1,-1,-1,-1,-1,-1,-1,-1,-1,-1,-1],"loss_changes":[1.4650135E0,1.1392255E0,1.7963035E0,1.2665606E0,1.3992968E0,2.1316621E0,1.3790866E0,1.7577354E0,1.4161766E0,1.0284978E0,9.510379E-1,1.0984592E0,9.8679173E-1,1.6008198E0,1.6694014E0,6.146901E-1,0E0,2.9525924E-1,7.73211E-1,0E0,0E0,1.2176543E0,1.269236E0,1.2893872E0,0E0,7.5656354E-1,0E0,6.681104E-1,1.0972674E0,1.8130147E0,1.1741114E0,0E0,0E0,0E0,0E0,0E0,0E0,0E0,0E0,0E0,0E0,0E0,0E0,0E0,0E0,0E0,0E0,0E0,0E0,0E0,0E0,0E0,0E0],"parents":[2147483647,0,0,1,1,2,2,3,3,4,4,5,5,6,6,7,7,8,8,9,9,10,10,11,11,12,12,13,13,14,14,15,15,17,17,18,18,21,21,22,22,23,23,25,25,27,27,28,28,29,29,30,30],"right_children":[2,4,6,8,10,12,14,16,18,20,22,24,26,28,30,32,-1,34,36,-1,-1,38,40,42,-1,44,-1,46,48,50,52,-1,-1,-1,-1,-1,-1,-1,-1,-1,-1,-1,-1,-1,-1,-1,-1,-1,-1,-1,-1,-1,-1],"split_conditions":[2.6428223E-1,5.0173206E-3,5.0400496E-1,-2.2457344E-2,-1.0052546E-1,3.7169363E-2,2.1428041E-2,3.8139418E-2,2.1763563E-2,-1.4545143E-1,-1.993168E-2,2.3179096E-1,4.9046267E-2,-1.8625552E-2,3.891704E-2,-1.6934492E-1,8.199156E-3,1.6296291E1,-9.5218784E-5,1.0476201E-2,1.5381856E-3,-9.327963E-3,1.2338647E0,3.3501506E-2,-9.200955E-3,1.363453E-1,-4.3348745E-3,-3.3583112E-2,4.4871192E-2,-4.7205836E-1,2.1196816E-2,-4.0112864E-3,1.9334661E-3,2.5834225E-3,-2.4739343E-3,-9.491338E-3,-2.3736877E-3,9.5683284E-4,-2.7994794E-4,9.900604E-4,6.258495E-3,-2.4015165E-3,4.8888163E-3,4.163603E-4,5.3045657E-3,3.8873902E-4,-4.380541E-3,7.477088E-4,-3.8790714E-3,-7.461936E-3,-6.297973E-4,-1.8431969E-3,1.3287037E-3],"split_indices":[19,11,21,24,6,9,18,18,18,4,10,8,6,26,18,8,0,12,26,0,0,1,21,17,0,8,0,28,26,5,17,0,0,0,0,0,0,0,0,0,0,0,0,0,0,0,0,0,0,0,0,0,0],"split_type":[0,0,0,0,0,0,0,0,0,0,0,0,0,0,0,0,0,0,0,0,0,0,0,0,0,0,0,0,0,0,0,0,0,0,0,0,0,0,0,0,0,0,0,0,0,0,0,0,0,0,0,0,0],"sum_hessian":[3.0756E4,9.197E3,2.1559E4,5.21E2,8.676E3,2.178E3,1.9381E4,2.39E2,2.82E2,1.29E2,8.547E3,1.807E3,3.71E2,6.385E3,1.2996E4,1.79E2,6E1,1.14E2,1.68E2,6E1,6.9E1,7.991E3,5.56E2,1.751E3,5.6E1,3.16E2,5.5E1,3.39E2,6.046E3,1.0816E4,2.18E3,1.07E2,7.2E1,6.1E1,5.3E1,1.08E2,6E1,4.249E3,3.742E3,3.96E2,1.6E2,1.689E3,6.2E1,1.58E2,1.58E2,1.07E2,2.32E2,5.916E3,1.3E2,9.7E1,1.0719E4,3.46E2,1.834E3],"tree_param":{"num_deleted":"0","num_feature":"29","num_nodes":"53","size_leaf_vector":"1"}},{"base_weights":[-1.2413209E-3,-8.2212E-3,5.7255113E-3,3.7488326E-2,-1.0444144E-2,6.6158194E-3,-1.078439E-1,5.332576E-2,-4.0963637E-3,-1.1131466E-2,7.2123893E-3,3.268727E-3,3.8980436E-2,-7.525541E-3,-2.5533321E-3,3.3409987E-2,1.4735039E-1,-8.9074345E-3,-5.269867E-2,4.541036E-3,-9.350852E-2,2.2979395E-2,1.0633398E-1,5.650982E-3,7.138661E-4,1.2020665E-2,2.9884807E-3,-7.48964E-4,5.447967E-4,-1.6313535E-4,-5.9120734E-3,3.5063297E-4,-2.193808E-3,-8.505254E-3,-2.9496846E-4,1.7538673E-3,-3.965117E-3,7.070005E-3,-6.955373E-4],"categories":[],"categories_nodes":[],"categories_segments":[],"categories_sizes":[],"default_left":[0,0,0,0,0,0,0,0,0,0,0,0,0,0,0,0,0,0,0,0,0,0,0,0,0,0,0,0,0,0,0,0,0,0,0,0,0,0,0],"id":22,"left_children":[1,3,5,7,9,11,13,15,-1,17,-1,19,21,-1,-1,23,25,27,29,31,33,35,37,-1,-1,-1,-1,-1,-1,-1,-1,-1,-1,-1,-1,-1,-1,-1,-1],"loss_changes":[1.4982648E0,1.5642668E0,1.5598568E0,1.3547119E0,1.5622184E0,1.6573895E0,2.8301513E-1,1.1766707E0,0E0,1.350548E0,0E0,1.7079991E0,1.5430164E0,0E0,0E0,7.934679E-1,8.821881E-1,1.6682943E0,2.4038217E0,1.6384575E0,1.2068974E0,1.438165E0,1.1615086E0,0E0,0E0,0E0,0E0,0E0,0E0,0E0,0E0,0E0,0E0,0E0,0E0,0E0,0E0,0E0,0E0],"parents":[2147483647,0,0,1,1,2,2,3,3,4,4,5,5,6,6,7,7,9,9,11,11,12,12,15,15,16,16,17,17,18,18,19,19,20,20,21,21,22,22],"right_children":[2,4,6,8,10,12,14,16,-1,18,-1,20,22,-1,-1,24,26,28,30,32,34,36,38,-1,-1,-1,-1,-1,-1,-1,-1,-1,-1,-1,-1,-1,-1,-1,-1],"split_conditions":[-1.5396668E-1,-1.3885812E-1,4.7229332E-1,1.550654E-2,1.1126965E-1,2.4296805E-2,8.328058E-1,2.5604052E-2,-4.0963637E-3,6.3234195E-2,7.2123893E-3,7.46102E-2,3.0820864E-1,-7.525541E-3,-2.5533321E-3,1.6189352E-2,2.9927433E-2,2.8326169E-2,5.5749E-3,2.679325E-1,1.7033983E-2,1.032668E-1,1.6609038E0,5.650982E-3,7.138661E-4,1.2020665E-2,2.9884807E-3,-7.48964E-4,5.447967E-4,-1.6313535E-4,-5.9120734E-3,3.5063297E-4,-2.193808E-3,-8.505254E-3,-2.9496846E-4,1.7538673E-3,-3.965117E-3,7.070005E-3,-6.955373E-4],"split_indices":[10,7,8,26,9,17,5,17,0,8,0,24,8,0,0,16,17,24,23,28,17,9,14,0,0,0,0,0,0,0,0,0,0,0,0,0,0,0,0],"split_type":[0,0,0,0,0,0,0,0,0,0,0,0,0,0,0,0,0,0,0,0,0,0,0,0,0,0,0,0,0,0,0,0,0,0,0,0,0,0,0],"sum_hessian":[3.0809E4,1.539E4,1.5419E4,7.13E2,1.4677E4,1.53E4,1.19E2,6.3E2,8.3E1,1.4613E4,6.4E1,1.3867E4,1.433E3,6.7E1,5.2E1,5.21E2,1.09E2,1.3872E4,7.41E2,1.3688E4,1.79E2,1.159E3,2.74E2,1E2,4.21E2,5.2E1,5.7E1,1.0617E4,3.255E3,4.23E2,3.18E2,1.3024E4,6.64E2,9.5E1,8.4E1,1.037E3,1.22E2,2.12E2,6.2E1],"tree_param":{"num_deleted":"0","num_feature":"29","num_nodes":"39","size_leaf_vector":"1"}},{"base_weights":[-8.132013E-5,3.0017523E-2,-1.3194258E-3,5.0080717E-2,-5.5923842E-2,-4.454918E-3,1.2398665E-2,2.5408788E-2,1.07673846E-1,-6.745512E-3,-9.870998E-3,3.1555265E-2,-6.324934E-3,-4.0248465E-3,3.469195E-2,-8.46743E-4,9.804418E-2,1.616924E-1,1.4863467E-2,4.6565593E-3,-4.6327407E-3,-2.1288747E-2,4.6643935E-2,-5.660782E-3,-8.970521E-2,2.0182105E-2,-2.6579209E-2,7.404049E-2,2.2220906E-2,7.7680044E-4,-6.1988155E-3,6.751669E-3,-5.3278283E-5,1.0340189E-2,2.1867638E-3,7.42032E-3,-6.0688886E-3,1.0293473E-3,-5.012851E-3,2.977547E-3,-1.2818282E-3,2.0605294E-4,-4.993163E-4,-7.4880007E-3,2.5298886E-3,1.6132653E-3,-2.9965963E-3,1.3122E-5,-4.186982E-3,4.6235635E-3,-1.9907204E-3,-3.0079111E-3,1.6653165E-3],"categories":[],"categories_nodes":[],"categories_segments":[],"categories_sizes":[],"default_left":[0,0,0,0,0,0,0,0,0,0,0,0,0,0,0,0,0,0,0,0,0,0,0,0,0,0,0,0,0,0,0,0,0,0,0,0,0,0,0,0,0,0,0,0,0,0,0,0,0,0,0,0,0],"id":23,"left_children":[1,3,5,7,9,11,13,15,17,-1,19,21,23,25,27,29,31,33,35,-1,-1,37,39,41,43,45,47,49,51,-1,-1,-1,-1,-1,-1,-1,-1,-1,-1,-1,-1,-1,-1,-1,-1,-1,-1,-1,-1,-1,-1,-1,-1],"loss_changes":[1.1488247E0,2.1029472E0,1.2736692E0,1.4011467E0,8.389421E-1,1.6232184E0,2.0171719E0,1.32169E0,1.4815874E0,0E0,1.2620852E0,9.4983435E-1,1.2683483E0,1.7329068E0,1.1451609E0,1.0306987E0,6.7468596E-1,9.8602104E-1,2.019359E0,0E0,0E0,8.783796E-1,8.654151E-1,9.61915E-1,1.5326593E0,1.4839935E0,2.5208442E0,1.1830018E0,1.6238604E0,0E0,0E0,0E0,0E0,0E0,0E0,0E0,0E0,0E0,0E0,0E0,0E0,0E0,0E0,0E0,0E0,0E0,0E0,0E0,0E0,0E0,0E0,0E0,0E0],"parents":[2147483647,0,0,1,1,2,2,3,3,4,4,5,5,6,6,7,7,8,8,10,10,11,11,12,12,13,13,14,14,15,15,16,16,17,17,18,18,21,21,22,22,23,23,24,24,25,25,26,26,27,27,28,28],"right_children":[2,4,6,8,10,12,14,16,18,-1,20,22,24,26,28,30,32,34,36,-1,-1,38,40,42,44,46,48,50,52,-1,-1,-1,-1,-1,-1,-1,-1,-1,-1,-1,-1,-1,-1,-1,-1,-1,-1,-1,-1,-1,-1,-1,-1],"split_conditions":[-1.1817638E-1,-1.4545143E-1,-4.4324167E-2,-1.6934492E-1,-8.997964E-2,1.4864733E-2,3.5489663E-2,1.3000223E-2,-7.5212396E-3,-6.745512E-3,-6.290691E-2,8.862031E-3,3.9452145E0,5.39055E-3,6.943031E-2,-3.0314785E-1,1.567236E-2,-5.0841346E-2,2.1102218E-2,4.6565593E-3,-4.6327407E-3,-1.1605715E-2,8.214904E-3,-7.4727787E-3,1.082691E-2,1.5696914E-1,1.4640094E-1,1.1167993E-2,1.9850316E-2,7.7680044E-4,-6.1988155E-3,6.751669E-3,-5.3278283E-5,1.0340189E-2,2.1867638E-3,7.42032E-3,-6.0688886E-3,1.0293473E-3,-5.012851E-3,2.977547E-3,-1.2818282E-3,2.0605294E-4,-4.993163E-4,-7.4880007E-3,2.5298886E-3,1.6132653E-3,-2.9965963E-3,1.3122E-5,-4.186982E-3,4.6235635E-3,-1.9907204E-3,-3.0079111E-3,1.6653165E-3],"split_indices":[7,4,10,8,28,18,9,25,24,0,1,17,21,25,7,10,25,9,17,0,0,4,9,0,25,28,8,25,18,0,0,0,0,0,0,0,0,0,0,0,0,0,0,0,0,0,0,0,0,0,0,0,0],"split_type":[0,0,0,0,0,0,0,0,0,0,0,0,0,0,0,0,0,0,0,0,0,0,0,0,0,0,0,0,0,0,0,0,0,0,0,0,0,0,0,0,0,0,0,0,0,0,0,0,0,0,0,0,0],"sum_hessian":[3.0826E4,1.217E3,2.9609E4,9.87E2,2.3E2,2.4101E4,5.508E3,6.92E2,2.95E2,8.4E1,1.46E2,1.189E3,2.2912E4,3.172E3,2.336E3,5.09E2,1.83E2,1.86E2,1.09E2,6.5E1,8.1E1,2.64E2,9.25E2,2.2732E4,1.8E2,1.53E3,1.642E3,5.61E2,1.775E3,4.5E2,5.9E1,1.33E2,5E1,1.34E2,5.2E1,5.5E1,5.4E1,1.73E2,9.1E1,7.85E2,1.4E2,6.97E3,1.5762E4,1.26E2,5.4E1,1.33E3,2E2,1.118E3,5.24E2,4.83E2,7.8E1,2.1E2,1.565E3],"tree_param":{"num_deleted":"0","num_feature":"29","num_nodes":"53","size_leaf_vector":"1"}},{"base_weights":[-6.5995497E-4,-4.0303348E-3,1.4744747E-2,4.7716808E-2,-5.2710655E-3,3.3546449E-3,3.9680384E-2,-1.960681E-2,7.877376E-2,6.628303E-3,-1.0287431E-2,8.8853315E-2,-1.0902279E-3,3.3956785E-2,6.805025E-3,-5.446465E-3,1.6267423E-2,1.07949175E-1,2.0058237E-2,-2.9306905E-2,1.1507298E-2,-9.636261E-3,-7.555646E-3,4.6734E-2,8.124712E-3,-7.238018E-2,3.682379E-3,5.4776803E-2,-1.8500347E-2,4.8002973E-3,-1.9038426E-3,9.400923E-3,4.3345354E-3,-2.7884396E-3,4.7247815E-3,-2.405212E-3,2.5154322E-3,2.0767364E-3,1.5292484E-4,-5.1460206E-4,3.664239E-3,-4.890204E-4,5.3143897E-3,-4.3176772E-4,-1.0072728E-2,2.1499132E-3,-4.691591E-4,2.3726015E-3,8.574891E-3,1.2445877E-3,-5.056345E-3],"categories":[],"categories_nodes":[],"categories_segments":[],"categories_sizes":[],"default_left":[0,0,0,0,0,0,0,0,0,0,0,0,0,0,0,0,0,0,0,0,0,0,0,0,0,0,0,0,0,0,0,0,0,0,0,0,0,0,0,0,0,0,0,0,0,0,0,0,0,0,0],"id":24,"left_children":[1,3,5,7,9,11,13,15,17,19,21,23,25,27,-1,-1,29,31,33,35,37,39,-1,41,-1,43,45,47,49,-1,-1,-1,-1,-1,-1,-1,-1,-1,-1,-1,-1,-1,-1,-1,-1,-1,-1,-1,-1,-1,-1],"loss_changes":[1.6023012E0,1.6259675E0,1.5733348E0,1.2414284E0,1.4761813E0,1.4457337E0,9.5397735E-1,6.0419464E-1,6.933329E-1,1.2861905E0,1.5937824E0,5.755267E-1,1.2309105E0,1.7932456E0,0E0,0E0,5.886554E-1,4.4498324E-1,7.729037E-1,1.3149033E0,1.6382406E0,9.424187E-1,0E0,4.0828282E-1,0E0,1.8659761E0,1.7423061E0,9.964349E-1,1.6768707E0,0E0,0E0,0E0,0E0,0E0,0E0,0E0,0E0,0E0,0E0,0E0,0E0,0E0,0E0,0E0,0E0,0E0,0E0,0E0,0E0,0E0,0E0],"parents":[2147483647,0,0,1,1,2,2,3,3,4,4,5,5,6,6,7,7,8,8,9,9,10,10,11,11,12,12,13,13,16,16,17,17,18,18,19,19,20,20,21,21,23,23,25,25,26,26,27,27,28,28],"right_children":[2,4,6,8,10,12,14,16,18,20,22,24,26,28,-1,-1,30,32,34,36,38,40,-1,42,-1,44,46,48,50,-1,-1,-1,-1,-1,-1,-1,-1,-1,-1,-1,-1,-1,-1,-1,-1,-1,-1,-1,-1,-1,-1],"split_conditions":[-4.4324167E-2,7.5640143E-3,8.5257046E-2,9.007061E-3,-3.1775497E-2,4.5212028E-3,1.6965203E-2,1.1315406E-2,7.2103813E-3,7.498568E-3,5.3549414E0,1.3064833E-2,-1.6206818E-2,1.7224197E0,6.805025E-3,-5.446465E-3,-2.7848836E-2,-4.6542875E-2,7.070378E-1,3.8390968E-2,-1.22282274E-1,1.9900163E-1,-7.555646E-3,1.19074054E-1,8.124712E-3,1.363453E-1,3.3884987E-1,8.328058E-1,3.1892624E-2,4.8002973E-3,-1.9038426E-3,9.400923E-3,4.3345354E-3,-2.7884396E-3,4.7247815E-3,-2.405212E-3,2.5154322E-3,2.0767364E-3,1.5292484E-4,-5.1460206E-4,3.664239E-3,-4.890204E-4,5.3143897E-3,-4.3176772E-4,-1.0072728E-2,2.1499132E-3,-4.691591E-4,2.3726015E-3,8.574891E-3,1.2445877E-3,-5.056345E-3],"split_indices":[10,16,27,17,2,25,25,18,16,11,21,16,26,14,0,0,8,27,21,18,8,2,0,8,0,8,14,5,18,0,0,0,0,0,0,0,0,0,0,0,0,0,0,0,0,0,0,0,0,0,0],"split_type":[0,0,0,0,0,0,0,0,0,0,0,0,0,0,0,0,0,0,0,0,0,0,0,0,0,0,0,0,0,0,0,0,0,0,0,0,0,0,0,0,0,0,0,0,0,0,0,0,0,0,0],"sum_hessian":[3.0859E4,2.532E4,5.539E3,5.92E2,2.4728E4,3.803E3,1.736E3,1.87E2,4.05E2,7.333E3,1.7395E4,1.87E2,3.616E3,1.64E3,9.6E1,5.3E1,1.34E2,2.7E2,1.35E2,8.76E2,6.457E3,1.7316E4,7.9E1,1.2E2,6.7E1,2.26E2,3.39E3,1.174E3,4.66E2,5.4E1,8E1,5.5E1,2.15E2,6.7E1,6.8E1,7.09E2,1.67E2,1.417E3,5.04E3,1.7181E4,1.35E2,6.2E1,5.8E1,1.52E2,7.4E1,8.45E2,2.545E3,1.106E3,6.8E1,3.06E2,1.6E2],"tree_param":{"num_deleted":"0","num_feature":"29","num_nodes":"51","size_leaf_vector":"1"}},{"base_weights":[5.119189E-4,-1.822003E-2,2.5249424E-3,-2.4902096E-2,6.7098774E-2,1.8834215E-2,-2.1029332E-4,-2.816657E-2,6.5427534E-3,9.007307E-3,3.0379932E-2,2.2435945E-2,-8.908448E-2,-3.5127837E-3,1.8075105E-2,-2.3504678E-2,-1.4369085E-1,-1.8390369E-3,3.776262E-3,8.92344E-3,4.4064507E-2,5.0560053E-4,-8.147414E-3,4.2323206E-2,-5.228767E-3,-7.8470744E-2,2.2423072E-2,2.2267038E-3,-1.5146454E-3,-1.17035005E-2,-2.8636088E-3,-7.691921E-4,1.1035815E-3,7.465237E-3,1.9724118E-3,2.782339E-3,-6.7685307E-3,-2.2731973E-4,-3.846195E-3,-6.5612183E-3,1.376086E-3,4.026849E-3,7.9515734E-4],"categories":[],"categories_nodes":[],"categories_segments":[],"categories_sizes":[],"default_left":[0,0,0,0,0,0,0,0,0,0,0,0,0,0,0,0,0,0,0,0,0,0,0,0,0,0,0,0,0,0,0,0,0,0,0,0,0,0,0,0,0,0,0],"id":25,"left_children":[1,3,5,7,9,11,13,15,-1,-1,17,19,21,23,25,27,29,-1,-1,31,33,-1,-1,35,37,39,41,-1,-1,-1,-1,-1,-1,-1,-1,-1,-1,-1,-1,-1,-1,-1,-1],"loss_changes":[1.1595622E0,1.702867E0,1.2386817E0,1.4111181E0,8.9528733E-1,1.5521106E0,1.4360746E0,1.4572022E0,0E0,0E0,5.0305605E-1,1.1277155E0,9.468341E-1,1.5845448E0,1.5289129E0,1.2058871E0,8.0669117E-1,0E0,0E0,7.600211E-1,7.150636E-1,0E0,0E0,1.7287177E0,9.4958425E-1,8.814749E-1,1.3180431E0,0E0,0E0,0E0,0E0,0E0,0E0,0E0,0E0,0E0,0E0,0E0,0E0,0E0,0E0,0E0,0E0],"parents":[2147483647,0,0,1,1,2,2,3,3,4,4,5,5,6,6,7,7,10,10,11,11,12,12,13,13,14,14,15,15,16,16,19,19,20,20,23,23,24,24,25,25,26,26],"right_children":[2,4,6,8,10,12,14,16,-1,-1,18,20,22,24,26,28,30,-1,-1,32,34,-1,-1,36,38,40,42,-1,-1,-1,-1,-1,-1,-1,-1,-1,-1,-1,-1,-1,-1,-1,-1],"split_conditions":[4.8584107E-1,6.591805E-2,1.03458185E-2,5.3564206E-2,4.525271E-3,2.0283021E-1,5.153811E-1,3.504913E-2,6.5427534E-3,9.007307E-3,2.1599086E-2,5.311314E-3,6.166762E-1,-1.5008354E-1,-9.4208606E-2,-1.7217985E-1,-1.6513495E-1,-1.8390369E-3,3.776262E-3,-1.5088034E-1,-1.0529065E-1,5.0560053E-4,-8.147414E-3,1.7572103E-2,3.9452145E0,-2.1548558E-3,-3.3583112E-2,2.2267038E-3,-1.5146454E-3,-1.17035005E-2,-2.8636088E-3,-7.691921E-4,1.1035815E-3,7.465237E-3,1.9724118E-3,2.782339E-3,-6.7685307E-3,-2.2731973E-4,-3.846195E-3,-6.5612183E-3,1.376086E-3,4.026849E-3,7.9515734E-4],"split_indices":[21,9,16,26,24,4,11,1,0,0,26,23,14,3,27,28,10,0,0,10,8,0,0,26,21,4,28,0,0,0,0,0,0,0,0,0,0,0,0,0,0,0,0],"split_type":[0,0,0,0,0,0,0,0,0,0,0,0,0,0,0,0,0,0,0,0,0,0,0,0,0,0,0,0,0,0,0,0,0,0,0,0,0,0,0,0,0,0,0],"sum_hessian":[3.0749E4,2.983E3,2.7766E4,2.767E3,2.16E2,3.987E3,2.3779E4,2.711E3,5.6E1,5.2E1,1.64E2,3.859E3,1.28E2,2.0142E4,3.637E3,2.607E3,1.04E2,6.6E1,9.8E1,2.376E3,1.483E3,5.5E1,7.3E1,7.26E2,1.9416E4,1.56E2,3.481E3,2.36E2,2.371E3,5E1,5.4E1,8.34E2,1.542E3,6.1E1,1.422E3,6.76E2,5E1,1.9234E4,1.82E2,1.04E2,5.2E1,3.5E2,3.131E3],"tree_param":{"num_deleted":"0","num_feature":"29","num_nodes":"43","size_leaf_vector":"1"}},{"base_weights":[-1.2478256E-3,-8.5346785E-4,-1.0346946E-1,-1.745537E-3,5.706942E-2,-8.372682E-3,-1.091939E-3,1.0019086E-2,-5.1105856E-3,8.52487E-2,-2.820332E-2,-2.1612143E-2,2.0598626E-2,5.3846467E-2,-6.09021E-3,1.0907284E-1,-1.6215628E-4,2.1964812E-3,-4.931783E-3,-1.3355766E-3,6.2027457E-3,2.432943E-3,6.238162E-4,-4.940333E-3,4.2679934E-3,-2.3286215E-3,-2.1517613E-4,4.11622E-3,1.07284915E-2],"categories":[],"categories_nodes":[],"categories_segments":[],"categories_sizes":[],"default_left":[0,0,0,0,0,0,0,0,0,0,0,0,0,0,0,0,0,0,0,0,0,0,0,0,0,0,0,0,0],"id":26,"left_children":[1,3,5,7,9,-1,-1,11,13,15,17,19,21,23,25,27,-1,-1,-1,-1,-1,-1,-1,-1,-1,-1,-1,-1,-1],"loss_changes":[1.2377687E0,1.5807222E0,6.1266553E-1,1.1927348E0,1.1173614E0,0E0,0E0,2.2428935E0,1.3533721E0,7.3613024E-1,5.9367E-1,1.2512398E0,1.1439755E0,1.8509009E0,1.6666231E0,7.583525E-1,0E0,0E0,0E0,0E0,0E0,0E0,0E0,0E0,0E0,0E0,0E0,0E0,0E0],"parents":[2147483647,0,0,1,1,2,2,3,3,4,4,7,7,8,8,9,9,10,10,11,11,12,12,13,13,14,14,15,15],"right_children":[2,4,6,8,10,-1,-1,12,14,16,18,20,22,24,26,28,-1,-1,-1,-1,-1,-1,-1,-1,-1,-1,-1,-1,-1],"split_conditions":[4.7229332E-1,1.613532E-1,1.1167993E-2,2.5589123E1,2.4303436E0,-8.372682E-3,-1.091939E-3,-2.4790214E-2,-2.684354E-1,4.402997E-2,1.4812217E-2,2.4303436E0,-2.0470781E-2,5.216452E-3,-3.1079155E-1,3.59529E-2,-1.6215628E-4,2.1964812E-3,-4.931783E-3,-1.3355766E-3,6.2027457E-3,2.432943E-3,6.238162E-4,-4.940333E-3,4.2679934E-3,-2.3286215E-3,-2.1517613E-4,4.11622E-3,1.07284915E-2],"split_indices":[8,2,25,12,21,0,0,9,8,24,24,21,24,25,5,26,0,0,0,0,0,0,0,0,0,0,0,0,0],"split_type":[0,0,0,0,0,0,0,0,0,0,0,0,0,0,0,0,0,0,0,0,0,0,0,0,0,0,0,0,0],"sum_hessian":[3.0706E4,3.0589E4,1.17E2,3.0126E4,4.63E2,6.5E1,5.2E1,6.7E3,2.3426E4,3.48E2,1.15E2,1.679E3,5.021E3,3.82E2,2.3044E4,2.74E2,7.4E1,5.7E1,5.8E1,1.623E3,5.6E1,1.126E3,3.895E3,6.5E1,3.17E2,9.73E2,2.2071E4,2.2E2,5.4E1],"tree_param":{"num_deleted":"0","num_feature":"29","num_nodes":"29","size_leaf_vector":"1"}},{"base_weights":[-3.023175E-4,-9.495283E-3,5.0598667E-3,4.422002E-2,-1.1596358E-2,-1.8038329E-2,8.2713375E-3,9.089995E-3,8.876652E-3,6.998761E-3,-1.2644178E-2,2.2794934E-2,-4.4934016E-2,7.382275E-3,7.508475E-2,-4.9370355E-3,3.9573815E-2,-8.202798E-2,-1.0789591E-2,4.7718976E-2,-5.249843E-2,-5.088841E-2,5.247968E-3,1.1757459E-2,-8.401998E-3,-2.049832E-4,1.07481524E-1,-1.1279051E-3,4.845833E-3,1.5439631E-3,-5.937427E-3,-4.7891968E-4,-5.0421446E-3,3.0963456E-3,-3.0092893E-3,-4.852905E-3,3.1535942E-3,-4.205628E-3,-1.2825563E-3,4.1295664E-4,2.0417585E-3,-1.8548499E-3,1.3330606E-3,8.602249E-3,3.0503154E-3],"categories":[],"categories_nodes":[],"categories_segments":[],"categories_sizes":[],"default_left":[0,0,0,0,0,0,0,0,0,0,0,0,0,0,0,0,0,0,0,0,0,0,0,0,0,0,0,0,0,0,0,0,0,0,0,0,0,0,0,0,0,0,0,0,0],"id":27,"left_children":[1,3,5,7,9,11,13,15,-1,-1,17,19,21,23,25,-1,27,29,31,33,35,37,-1,39,41,-1,43,-1,-1,-1,-1,-1,-1,-1,-1,-1,-1,-1,-1,-1,-1,-1,-1,-1,-1],"loss_changes":[1.5170823E0,1.2801187E0,1.442044E0,1.9981508E0,1.7348106E0,2.6071448E0,1.0131881E0,1.1182318E0,0E0,0E0,1.3937303E0,1.772153E0,1.2825434E0,1.1632612E0,5.7507217E-1,0E0,9.4633365E-1,1.1728436E0,1.1505105E0,1.0906978E0,1.2163186E0,1.1524394E0,0E0,1.34119E0,3.679432E0,0E0,4.6659958E-1,0E0,0E0,0E0,0E0,0E0,0E0,0E0,0E0,0E0,0E0,0E0,0E0,0E0,0E0,0E0,0E0,0E0,0E0],"parents":[2147483647,0,0,1,1,2,2,3,3,4,4,5,5,6,6,7,7,10,10,11,11,12,12,13,13,14,14,16,16,17,17,18,18,19,19,20,20,21,21,23,23,24,24,26,26],"right_children":[2,4,6,8,10,12,14,16,-1,-1,18,20,22,24,26,-1,28,30,32,34,36,38,-1,40,42,-1,44,-1,-1,-1,-1,-1,-1,-1,-1,-1,-1,-1,-1,-1,-1,-1,-1,-1,-1],"split_conditions":[-7.527079E-2,-2.546959E-1,-3.718786E-2,7.163155E-3,-1.5220788E-1,-1.4847203E-1,1.613532E-1,-1.3279797E-1,8.876652E-3,6.998761E-3,-4.6060953E-2,-2.3004858E-1,3.7699994E-2,1.1316113E-2,3.5350535E-2,-4.9370355E-3,-7.787267E-2,-3.909465E-1,3.9910503E-2,-7.371634E-2,2.1151765E-1,-3.562806E-1,5.247968E-3,7.218102E1,2.1102218E-2,-2.049832E-4,2.50294E-2,-1.1279051E-3,4.845833E-3,1.5439631E-3,-5.937427E-3,-4.7891968E-4,-5.0421446E-3,3.0963456E-3,-3.0092893E-3,-4.852905E-3,3.1535942E-3,-4.205628E-3,-1.2825563E-3,4.1295664E-4,2.0417585E-3,-1.8548499E-3,1.3330606E-3,8.602249E-3,3.0503154E-3],"split_indices":[5,4,9,23,7,4,2,9,0,0,26,10,26,25,18,0,2,10,16,8,11,22,0,13,17,0,24,0,0,0,0,0,0,0,0,0,0,0,0,0,0,0,0,0,0],"split_type":[0,0,0,0,0,0,0,0,0,0,0,0,0,0,0,0,0,0,0,0,0,0,0,0,0,0,0,0,0,0,0,0,0,0,0,0,0,0,0,0,0,0,0,0,0],"sum_hessian":[3.0774E4,1.1337E4,1.9437E4,4.26E2,1.0911E4,2.372E3,1.7065E4,3.38E2,8.8E1,7.4E1,1.0837E4,9.42E2,1.43E3,1.6842E4,2.23E2,7.4E1,2.64E2,2.81E2,1.0556E4,7.08E2,2.34E2,1.376E3,5.4E1,1.3187E4,3.655E3,6.5E1,1.58E2,1.27E2,1.37E2,6.9E1,2.12E2,1.0417E4,1.39E2,6.26E2,8.2E1,1.69E2,6.5E1,5.93E2,7.83E2,1.1772E4,1.415E3,2.01E3,1.645E3,6.5E1,9.3E1],"tree_param":{"num_deleted":"0","num_feature":"29","num_nodes":"45","size_leaf_vector":"1"}},{"base_weights":[-1.7076181E-5,-3.15677E-2,1.0891979E-3,4.838508E-3,-4.0513594E-2,1.4955195E-2,-2.3229755E-3,-7.7536516E-3,-2.9784437E-2,4.0238023E-2,7.4884435E-3,6.8231234E-3,-8.085047E-3,5.559456E-3,-5.9578482E-2,5.1391713E-2,-5.920394E-2,-3.6556643E-2,1.4060265E-2,-6.474891E-2,9.756229E-3,-2.2094907E-2,3.164694E-3,-1.4261166E-3,4.284495E-3,-7.393595E-3,-2.1748643E-3,1.255093E-3,5.573274E-3,3.2450785E-3,-6.648537E-3,-2.5603275E-3,5.6007137E-3,-3.0731654E-3,9.179103E-4,-4.7599315E-3,1.6297214E-3,4.0612798E-4,6.173653E-3,-3.232574E-3,-5.852036E-4,5.863121E-3,4.0966428E-5],"categories":[],"categories_nodes":[],"categories_segments":[],"categories_sizes":[],"default_left":[0,0,0,0,0,0,0,0,0,0,0,0,0,0,0,0,0,0,0,0,0,0,0,0,0,0,0,0,0,0,0,0,0,0,0,0,0,0,0,0,0,0,0],"id":28,"left_children":[1,3,5,-1,7,9,11,-1,13,15,17,19,21,23,25,27,29,31,33,35,37,39,41,-1,-1,-1,-1,-1,-1,-1,-1,-1,-1,-1,-1,-1,-1,-1,-1,-1,-1,-1,-1],"loss_changes":[1.070529E0,1.1967928E0,1.402019E0,0E0,1.1900917E0,1.1044427E0,1.2533252E0,0E0,9.3753475E-1,1.4826417E0,1.3085678E0,1.9302928E0,2.2995603E0,1.1166873E0,6.793622E-1,1.8923984E0,1.2445369E0,1.2833712E0,1.2777638E0,1.0760987E0,1.6395822E0,2.8726478E0,2.1655977E0,0E0,0E0,0E0,0E0,0E0,0E0,0E0,0E0,0E0,0E0,0E0,0E0,0E0,0E0,0E0,0E0,0E0,0E0,0E0,0E0],"parents":[2147483647,0,0,1,1,2,2,4,4,5,5,6,6,8,8,9,9,10,10,11,11,12,12,13,13,14,14,15,15,16,16,17,17,18,18,19,19,20,20,21,21,22,22],"right_children":[2,4,6,-1,8,10,12,-1,14,16,18,20,22,24,26,28,30,32,34,36,38,40,42,-1,-1,-1,-1,-1,-1,-1,-1,-1,-1,-1,-1,-1,-1,-1,-1,-1,-1,-1,-1],"split_conditions":[7.498568E-3,-3.5962158E-1,-3.550012E-2,4.838508E-3,-4.5919403E-1,-1.22282274E-1,2.1919804E-2,-7.7536516E-3,-3.150701E-1,-1.9584844E-2,-1.0847509E-1,-2.0714886E-2,3.473393E-3,-1.2169877E-1,-1.8610872E-1,8.734881E-2,2.2885744E1,1.5392747E-2,-1.4931597E-1,4.1524425E-2,7.655119E-1,5.1416703E-3,8.898003E-2,-1.4261166E-3,4.284495E-3,-7.393595E-3,-2.1748643E-3,1.255093E-3,5.573274E-3,3.2450785E-3,-6.648537E-3,-2.5603275E-3,5.6007137E-3,-3.0731654E-3,9.179103E-4,-4.7599315E-3,1.6297214E-3,4.0612798E-4,6.173653E-3,-3.232574E-3,-5.852036E-4,5.863121E-3,4.0966428E-5],"split_indices":[11,5,2,0,10,8,18,0,10,28,3,26,9,5,8,11,12,25,28,3,11,25,11,0,0,0,0,0,0,0,0,0,0,0,0,0,0,0,0,0,0,0,0],"split_type":[0,0,0,0,0,0,0,0,0,0,0,0,0,0,0,0,0,0,0,0,0,0,0,0,0,0,0,0,0,0,0,0,0,0,0,0,0,0,0,0,0,0,0],"sum_hessian":[3.0669E4,1.038E3,2.9631E4,6.7E1,9.71E2,5.851E3,2.378E4,8.2E1,8.89E2,1.333E3,4.518E3,9.191E3,1.4589E4,4.07E2,4.82E2,1.199E3,1.34E2,5.86E2,3.932E3,3.61E2,8.83E3,6.497E3,8.092E3,2.86E2,1.21E2,7.3E1,4.09E2,8.35E2,3.64E2,5E1,8.4E1,5.34E2,5.2E1,2.11E2,3.721E3,2.75E2,8.6E1,8.706E3,1.24E2,1.274E3,5.223E3,1.62E2,7.93E3],"tree_param":{"num_deleted":"0","num_feature":"29","num_nodes":"43","size_leaf_vector":"1"}},{"base_weights":[9.636995E-4,-1.4496918E-4,3.4914125E-2,-2.7479794E-2,1.377181E-3,-6.6259764E-2,5.853265E-2,1.4122143E-2,-4.9941566E-2,1.0177051E-2,-3.6257384E-3,1.2212049E-3,-7.264118E-3,8.643904E-2,6.147761E-3,-2.1744313E-2,1.298274E-1,-3.9026342E-2,-1.4400037E-1,-4.2117406E-2,1.4440072E-2,-7.1339337E-3,1.3624078E-2,1.7673849E-1,4.3487053E-2,-5.0952684E-2,5.952729E-3,5.159039E-4,-5.4897196E-3,1.0543964E-2,6.997147E-4,-2.9445263E-3,3.5767772E-4,-2.779982E-3,-1.1736594E-2,-4.133531E-3,5.4359756E-4,2.4369264E-3,4.86596E-4,-2.6875385E-4,-3.405998E-3,-4.773605E-3,1.0516248E-3,1.0795271E-2,5.28903E-3,-3.4995717E-3,3.7027642E-3,1.9184981E-3,-1.1809616E-2],"categories":[],"categories_nodes":[],"categories_segments":[],"categories_sizes":[],"default_left":[0,0,0,0,0,0,0,0,0,0,0,0,0,0,0,0,0,0,0,0,0,0,0,0,0,0,0,0,0,0,0,0,0,0,0,0,0,0,0,0,0,0,0,0,0,0,0,0,0],"id":29,"left_children":[1,3,5,7,9,11,13,15,17,19,21,-1,-1,23,25,27,29,31,33,35,37,39,41,43,45,47,-1,-1,-1,-1,-1,-1,-1,-1,-1,-1,-1,-1,-1,-1,-1,-1,-1,-1,-1,-1,-1,-1,-1],"loss_changes":[1.1605145E0,1.2423608E0,2.3337173E0,1.4724689E0,1.245241E0,1.329272E0,1.1558104E0,2.2977383E0,1.0446663E0,2.2861109E0,1.0913773E0,0E0,0E0,1.9936416E0,1.7854464E0,1.1953024E0,1.2269411E0,8.4252656E-1,8.371465E-1,1.6619897E0,1.5303785E0,1.6071172E0,2.4654934E0,4.38509E-1,1.2227448E0,3.053544E0,0E0,0E0,0E0,0E0,0E0,0E0,0E0,0E0,0E0,0E0,0E0,0E0,0E0,0E0,0E0,0E0,0E0,0E0,0E0,0E0,0E0,0E0,0E0],"parents":[2147483647,0,0,1,1,2,2,3,3,4,4,5,5,6,6,7,7,8,8,9,9,10,10,13,13,14,14,15,15,16,16,17,17,18,18,19,19,20,20,21,21,22,22,23,23,24,24,25,25],"right_children":[2,4,6,8,10,12,14,16,18,20,22,-1,-1,24,26,28,30,32,34,36,38,40,42,44,46,48,-1,-1,-1,-1,-1,-1,-1,-1,-1,-1,-1,-1,-1,-1,-1,-1,-1,-1,-1,-1,-1,-1,-1],"split_conditions":[3.3501506E-2,4.08571E-1,6.2310174E-3,-5.780697E-1,2.1996537E-2,9.83336E-3,5.1335383E-2,8.854145E-3,1.6023478E-2,-1.8707808E-2,5.153811E-1,1.2212049E-3,-7.264118E-3,1.4953874E-2,1.822746E-2,-3.4341204E-1,8.472649E-2,5.2238096E-2,-1.1725511E-2,-1.2747912E-2,1.7975206E1,1.6820683E-1,-8.271316E-2,4.143231E-2,3.7512854E-2,1.6360693E-2,5.952729E-3,5.159039E-4,-5.4897196E-3,1.0543964E-2,6.997147E-4,-2.9445263E-3,3.5767772E-4,-2.779982E-3,-1.1736594E-2,-4.133531E-3,5.4359756E-4,2.4369264E-3,4.86596E-4,-2.6875385E-4,-3.405998E-3,-4.773605E-3,1.0516248E-3,1.0795271E-2,5.28903E-3,-3.4995717E-3,3.7027642E-3,1.9184981E-3,-1.1809616E-2],"split_indices":[17,21,25,22,18,3,18,7,23,23,11,0,0,27,4,14,8,4,8,2,12,8,27,17,18,7,0,0,0,0,0,0,0,0,0,0,0,0,0,0,0,0,0,0,0,0,0,0,0],"split_type":[0,0,0,0,0,0,0,0,0,0,0,0,0,0,0,0,0,0,0,0,0,0,0,0,0,0,0,0,0,0,0,0,0,0,0,0,0,0,0,0,0,0,0,0,0,0,0,0,0],"sum_hessian":[3.0831E4,2.9857E4,9.74E2,1.574E3,2.8283E4,1.84E2,7.9E2,5.52E2,1.022E3,1.0251E4,1.8032E4,8.6E1,9.8E1,5.15E2,2.75E2,4.22E2,1.3E2,9.17E2,1.05E2,7.72E2,9.479E3,1.4985E4,3.047E3,1.65E2,3.5E2,1.83E2,9.2E1,3.1E2,1.12E2,7.6E1,5.4E1,6.41E2,2.76E2,5.4E1,5.1E1,4.37E2,3.35E2,1.143E3,8.336E3,1.4566E4,4.19E2,1.93E2,2.854E3,1.05E2,6E1,7.4E1,2.76E2,1.24E2,5.9E1],"tree_param":{"num_deleted":"0","num_feature":"29","num_nodes":"49","size_leaf_vector":"1"}},{"base_weights":[8.090897E-5,-2.616789E-3,1.6619278E-2,3.8940895E-2,-3.7194723E-3,-7.0477046E-2,2.1179022E-2,-4.019922E-2,6.1756577E-2,5.5508576E-3,-9.564138E-3,-7.362717E-3,-1.1372417E-2,3.178863E-2,-8.773973E-3,2.4571703E-3,-6.1169327E-3,3.473149E-2,1.2556933E-1,-7.043177E-2,7.481447E-3,1.0632594E-2,-1.4334593E-2,2.5613483E-3,-4.3032514E-3,2.7172782E-2,1.4492041E-1,2.7542783E-2,-4.789441E-2,-4.395585E-3,2.856602E-3,8.337232E-3,3.3885238E-3,-1.0094924E-3,-6.108386E-3,5.619847E-4,-1.5809669E-3,-5.023365E-4,2.5533342E-3,-6.6889194E-4,-8.088998E-3,-3.120666E-3,1.6283747E-3,3.3646934E-3,1.2279044E-2,-1.8952359E-3,2.952933E-3,-3.3138297E-4,-4.3099876E-3],"categories":[],"categories_nodes":[],"categories_segments":[],"categories_sizes":[],"default_left":[0,0,0,0,0,0,0,0,0,0,0,0,0,0,0,0,0,0,0,0,0,0,0,0,0,0,0,0,0,0,0,0,0,0,0,0,0,0,0,0,0,0,0,0,0,0,0,0,0],"id":30,"left_children":[1,3,5,7,9,11,13,15,17,19,21,-1,23,25,27,-1,-1,29,31,33,35,37,39,-1,-1,41,43,45,47,-1,-1,-1,-1,-1,-1,-1,-1,-1,-1,-1,-1,-1,-1,-1,-1,-1,-1,-1,-1],"loss_changes":[1.3670185E0,1.2073119E0,1.7079899E0,