{"learner":{"attributes":{"best_iteration":"23","best_score":"0.2879705888020294"},"feature_names":["ret_1d","ret_5d","ret_10d","ret_21d","ret_63d","mom_12_1","dist_sma20","dist_sma50","dist_sma200","sma20_50","hi52_dist","lo52_dist","rsi_5","rsi_14","boll_z","down_streak","vol_21d","vol_63d","atr_pct","range_pos","gap","vol_ratio","turnover_z","nifty_ret_5d","nifty_ret_21d","nifty_vol_21d","nifty_dist_sma50","rs_21d","rs_63d"],"feature_types":[],"gradient_booster":{"model":{"cats":{"enc":[],"feature_segments":[],"sorted_idx":[]},"gbtree_model_param":{"num_parallel_tree":"1","num_trees":"74"},"iteration_indptr":[0,1,2,3,4,5,6,7,8,9,10,11,12,13,14,15,16,17,18,19,20,21,22,23,24,25,26,27,28,29,30,31,32,33,34,35,36,37,38,39,40,41,42,43,44,45,46,47,48,49,50,51,52,53,54,55,56,57,58,59,60,61,62,63,64,65,66,67,68,69,70,71,72,73,74],"tree_info":[0,0,0,0,0,0,0,0,0,0,0,0,0,0,0,0,0,0,0,0,0,0,0,0,0,0,0,0,0,0,0,0,0,0,0,0,0,0,0,0,0,0,0,0,0,0,0,0,0,0,0,0,0,0,0,0,0,0,0,0,0,0,0,0,0,0,0,0,0,0,0,0,0,0],"trees":[{"base_weights":[-5.421855E-4,-1.4063591E-2,1.5500774E-2,-2.2428837E-2,3.2497626E-2,3.6459822E-2,1.2400401E-3,-2.8512004E-4,-3.3170328E-2,1.0243721E-1,3.7842216E-3,5.302664E-2,8.528145E-3,-1.0461769E-2,3.4345187E-2,-7.6525494E-2,5.677145E-3,-7.6162875E-2,-1.9911382E-2,1.5081224E-1,2.3372786E-2,-8.660061E-2,2.44128E-2,4.393131E-2,9.304272E-2,-2.447853E-2,4.392769E-2,1.2030309E-3,-5.942788E-2,2.5604952E-2,1.376477E-1,9.2571165E-4,-5.976599E-3,4.3221656E-4,-7.7598877E-3,-9.608626E-3,-3.2717593E-3,8.045146E-4,-1.5217372E-3,8.792487E-3,-1.959489E-3,-5.235052E-3,6.9236136E-3,-4.237867E-4,-7.295535E-3,-1.8860039E-3,2.6051528E-3,2.9452555E-3,5.042825E-4,6.5515735E-3,2.1909033E-3,1.4177518E-3,-2.7275821E-3,5.755126E-3,9.183635E-4,-6.5865257E-4,1.3394086E-3,-2.3152563E-3,-8.165231E-3,1.5590087E-3,-3.257456E-3,1.2433606E-2,3.6896353E-3],"categories":[],"categories_nodes":[],"categories_segments":[],"categories_sizes":[],"default_left":[0,0,0,0,0,0,0,0,0,0,0,0,0,0,0,0,0,0,0,0,0,0,0,0,0,0,0,0,0,0,0,0,0,0,0,0,0,0,0,0,0,0,0,0,0,0,0,0,0,0,0,0,0,0,0,0,0,0,0,0,0,0,0],"id":0,"left_children":[1,3,5,7,9,11,13,15,17,19,21,23,25,27,29,31,33,35,37,39,41,43,45,47,49,51,53,55,57,59,61,-1,-1,-1,-1,-1,-1,-1,-1,-1,-1,-1,-1,-1,-1,-1,-1,-1,-1,-1,-1,-1,-1,-1,-1,-1,-1,-1,-1,-1,-1,-1,-1],"loss_changes":[6.2669163E0,6.106859E0,3.949207E0,3.1611037E0,4.7952023E0,2.4752007E0,3.0467956E0,1.9741572E0,5.0997334E0,2.6546721E0,3.1605947E0,1.2180882E0,2.3297386E0,3.319198E0,1.8510079E0,1.2897202E0,1.9240905E0,2.6121054E0,2.592262E0,2.0572348E0,3.920925E0,1.4583457E0,2.376221E0,1.3870196E0,1.1555176E0,1.6412603E0,1.7480125E0,1.7268722E0,1.5164382E0,9.60852E-1,1.1159644E0,0E0,0E0,0E0,0E0,0E0,0E0,0E0,0E0,0E0,0E0,0E0,0E0,0E0,0E0,0E0,0E0,0E0,0E0,0E0,0E0,0E0,0E0,0E0,0E0,0E0,0E0,0E0,0E0,0E0,0E0,0E0,0E0],"parents":[2147483647,0,0,1,1,2,2,3,3,4,4,5,5,6,6,7,7,8,8,9,9,10,10,11,11,12,12,13,13,14,14,15,15,16,16,17,17,18,18,19,19,20,20,21,21,22,22,23,23,24,24,25,25,26,26,27,27,28,28,29,29,30,30],"right_children":[2,4,6,8,10,12,14,16,18,20,22,24,26,28,30,32,34,36,38,40,42,44,46,48,50,52,54,56,58,60,62,-1,-1,-1,-1,-1,-1,-1,-1,-1,-1,-1,-1,-1,-1,-1,-1,-1,-1,-1,-1,-1,-1,-1,-1,-1,-1,-1,-1,-1,-1,-1,-1],"split_conditions":[-1.3816479E-1,3.8291607E-2,5.216452E-3,2.1942047E-2,-1.7171071E-1,2.1942047E-2,2.085813E-2,4.0022305E-1,5.0313505E-3,-7.578237E-3,6.907696E-1,3.4809507E-2,4.9150762E-1,1.1316113E-2,1.6557318E-1,-1.9828033E-1,1.1130336E-1,-4.1934776E-1,-1.2213193E-1,2.5275009E-2,1.1373435E-2,-2.6754293E-1,9.821807E-3,1.1670127E-2,9.3240395E-2,3.080157E-1,4.667651E-3,6.5994384E-3,7.2497E-2,2.2590532E0,1.6491311E0,9.2571165E-4,-5.976599E-3,4.3221656E-4,-7.7598877E-3,-9.608626E-3,-3.2717593E-3,8.045146E-4,-1.5217372E-3,8.792487E-3,-1.959489E-3,-5.235052E-3,6.9236136E-3,-4.237867E-4,-7.295535E-3,-1.8860039E-3,2.6051528E-3,2.9452555E-3,5.042825E-4,6.5515735E-3,2.1909033E-3,1.4177518E-3,-2.7275821E-3,5.755126E-3,9.183635E-4,-6.5865257E-4,1.3394086E-3,-2.3152563E-3,-8.165231E-3,1.5590087E-3,-3.257456E-3,1.2433606E-2,3.6896353E-3],"split_indices":[10,18,25,18,4,18,16,21,25,24,21,2,11,25,2,5,28,10,28,27,25,10,25,16,22,19,25,25,24,14,14,0,0,0,0,0,0,0,0,0,0,0,0,0,0,0,0,0,0,0,0,0,0,0,0,0,0,0,0,0,0,0,0],"split_type":[0,0,0,0,0,0,0,0,0,0,0,0,0,0,0,0,0,0,0,0,0,0,0,0,0,0,0,0,0,0,0,0,0,0,0,0,0,0,0,0,0,0,0,0,0,0,0,0,0,0,0,0,0,0,0,0,0,0,0,0,0,0,0],"sum_hessian":[2.8888E4,1.5676E4,1.3212E4,1.3289E4,2.387E3,5.349E3,7.863E3,4.341E3,8.948E3,6.94E2,1.693E3,3.357E3,1.992E3,5.81E3,2.053E3,3.14E2,4.027E3,2.108E3,6.84E3,4.3E2,2.64E2,3.14E2,1.379E3,2.737E3,6.2E2,1.031E3,9.61E2,4.693E3,1.117E3,1.894E3,1.59E2,9.8E1,2.16E2,3.955E3,7.2E1,1.77E2,1.931E3,1.547E3,5.293E3,3.8E2,5E1,1.25E2,1.39E2,1.36E2,1.78E2,4.25E2,9.54E2,1.897E3,8.4E2,3.49E2,2.71E2,3.74E2,6.57E2,2.53E2,7.08E2,3.005E3,1.688E3,9.93E2,1.24E2,1.785E3,1.09E2,5.7E1,1.02E2],"tree_param":{"num_deleted":"0","num_feature":"29","num_nodes":"63","size_leaf_vector":"1"}},{"base_weights":[-5.9184304E-4,-1.7123207E-2,9.196771E-3,6.760499E-2,-2.0487541E-2,4.3918576E-2,3.309848E-3,2.6499597E-2,1.8059076E-1,9.41192E-3,-2.2063289E-2,7.05705E-2,1.9268494E-2,-6.320402E-4,5.7030212E-2,-1.677433E-2,7.19302E-3,1.1394546E-2,6.0701263E-3,-5.373345E-2,-1.461219E-2,8.1270486E-2,-1.6450614E-2,-7.1647406E-2,2.9460775E-2,-1.8657584E-2,7.4916547E-3,-8.9448625E-3,8.966067E-2,-5.2193305E-3,3.5493863E-3,-4.839393E-3,-1.342337E-3,-4.030237E-4,-2.3220815E-3,6.792051E-3,3.4237334E-3,-4.8458017E-3,1.998822E-3,-6.8833875E-3,-1.133699E-3,-2.522981E-5,2.8958437E-3,1.1177036E-3,-1.5326542E-3,7.872767E-4,-1.6454358E-3,6.4502656E-3,-3.038759E-3,8.015093E-3,2.5744354E-3],"categories":[],"categories_nodes":[],"categories_segments":[],"categories_sizes":[],"default_left":[0,0,0,0,0,0,0,0,0,0,0,0,0,0,0,0,0,0,0,0,0,0,0,0,0,0,0,0,0,0,0,0,0,0,0,0,0,0,0,0,0,0,0,0,0,0,0,0,0,0,0],"id":1,"left_children":[1,3,5,7,9,11,13,15,17,-1,19,21,23,25,27,29,-1,-1,-1,31,33,35,37,39,41,43,45,47,49,-1,-1,-1,-1,-1,-1,-1,-1,-1,-1,-1,-1,-1,-1,-1,-1,-1,-1,-1,-1,-1,-1],"loss_changes":[4.702622E0,3.0822487E0,3.730852E0,1.9133205E0,3.4233909E0,1.7369885E0,3.3051808E0,1.5463268E0,2.8029084E-1,0E0,2.4342666E0,1.1847968E0,1.2771678E0,2.1295836E0,2.2978358E0,1.7220646E0,0E0,0E0,0E0,2.2720685E0,1.7419562E0,7.811456E-1,6.3953406E-1,4.462992E-1,1.0556688E0,2.2233396E0,3.343452E0,2.538941E0,1.917057E0,0E0,0E0,0E0,0E0,0E0,0E0,0E0,0E0,0E0,0E0,0E0,0E0,0E0,0E0,0E0,0E0,0E0,0E0,0E0,0E0,0E0,0E0],"parents":[2147483647,0,0,1,1,2,2,3,3,4,4,5,5,6,6,7,7,8,8,10,10,11,11,12,12,13,13,14,14,15,15,19,19,20,20,21,21,22,22,23,23,24,24,25,25,26,26,27,27,28,28],"right_children":[2,4,6,8,10,12,14,16,18,-1,20,22,24,26,28,30,-1,-1,-1,32,34,36,38,40,42,44,46,48,50,-1,-1,-1,-1,-1,-1,-1,-1,-1,-1,-1,-1,-1,-1,-1,-1,-1,-1,-1,-1,-1,-1],"split_conditions":[-7.469514E-2,-2.5557065E-1,1.0267342E-2,1.3000223E-2,-1.5431531E-1,5.0313505E-3,3.0298473E-2,1.2159004E-3,-3.7861977E-2,9.41192E-3,5.546615E-1,1.42812645E-2,8.681505E-3,-7.5533655E-3,8.803149E-3,-3.0939758E-1,7.19302E-3,1.1394546E-2,6.0701263E-3,5.015597E-3,9.8642536E-2,1.4768203E-1,1.17000066E-1,4.9062015E-4,5.0109662E-2,-1.2395453E-1,1.1231805E-2,2.4409648E-2,1.2567609E-2,-5.2193305E-3,3.5493863E-3,-4.839393E-3,-1.342337E-3,-4.030237E-4,-2.3220815E-3,6.792051E-3,3.4237334E-3,-4.8458017E-3,1.998822E-3,-6.8833875E-3,-1.133699E-3,-2.522981E-5,2.8958437E-3,1.1177036E-3,-1.5326542E-3,7.872767E-4,-1.6454358E-3,6.4502656E-3,-3.038759E-3,8.015093E-3,2.5744354E-3],"split_indices":[5,4,16,25,7,25,16,23,2,0,21,17,17,8,25,4,0,0,0,25,4,11,5,24,5,8,25,17,25,0,0,0,0,0,0,0,0,0,0,0,0,0,0,0,0,0,0,0,0,0,0],"split_type":[0,0,0,0,0,0,0,0,0,0,0,0,0,0,0,0,0,0,0,0,0,0,0,0,0,0,0,0,0,0,0,0,0,0,0,0,0,0,0,0,0,0,0,0,0,0,0,0,0,0,0],"sum_hessian":[2.9059E4,1.0807E4,1.8252E4,4.12E2,1.0395E4,2.645E3,1.5607E4,3.03E2,1.09E2,7.7E1,1.0318E4,1.27E3,1.375E3,1.4541E4,1.066E3,2.22E2,8.1E1,5.9E1,5E1,1.964E3,8.354E3,1.131E3,1.39E2,1.38E2,1.237E3,4.517E3,1.0024E4,3.53E2,7.13E2,1.11E2,1.11E2,7.54E2,1.21E3,6.929E3,1.425E3,2.13E2,9.18E2,5.7E1,8.2E1,5.8E1,8E1,6.03E2,6.34E2,1.022E3,3.495E3,8.324E3,1.7E3,9.6E1,2.57E2,2.49E2,4.64E2],"tree_param":{"num_deleted":"0","num_feature":"29","num_nodes":"51","size_leaf_vector":"1"}},{"base_weights":[3.2252432E-5,-1.3175733E-2,1.3138343E-2,-2.4293577E-2,9.281765E-3,2.0705197E-2,-2.7762517E-2,-4.6051648E-3,-4.6263695E-2,-2.9704105E-2,4.582626E-2,-1.42839905E-2,2.50068E-2,-6.7796744E-2,6.878279E-2,4.3364577E-3,-1.087347E-1,-8.4530294E-2,-2.6296953E-2,4.9329404E-2,-5.5819042E-2,7.665674E-2,1.3154548E-2,6.8045235E-3,-7.820325E-2,1.9386232E-2,5.6997668E-2,-2.416475E-2,-8.80751E-2,-5.4475907E-3,8.4352866E-2,3.4776676E-4,-8.946583E-3,-7.7236667E-3,-3.659654E-4,-7.2125196E-3,-2.9646887E-3,1.6022638E-3,-2.0044388E-3,9.484128E-4,6.1918865E-3,-7.1120257E-3,-2.3173287E-3,4.882062E-3,-4.7637234E-4,2.0301966E-3,-1.7598398E-3,-6.626063E-3,8.2640065E-4,-7.234762E-3,6.1260647E-4,1.2059096E-3,-1.8629581E-3,2.8696153E-4,3.9352374E-3,-3.9529484E-3,5.034185E-4,-1.8012292E-4,-4.988108E-3,2.5754524E-3,9.127383E-3],"categories":[],"categories_nodes":[],"categories_segments":[],"categories_sizes":[],"default_left":[0,0,0,0,0,0,0,0,0,0,0,0,0,0,0,0,0,0,0,0,0,0,0,0,0,0,0,0,0,0,0,0,0,0,0,0,0,0,0,0,0,0,0,0,0,0,0,0,0,0,0,0,0,0,0,0,0,0,0,0,0],"id":2,"left_children":[1,3,5,7,9,11,13,15,17,19,21,23,25,27,29,31,33,35,37,39,41,43,45,47,49,51,53,55,57,-1,59,-1,-1,-1,-1,-1,-1,-1,-1,-1,-1,-1,-1,-1,-1,-1,-1,-1,-1,-1,-1,-1,-1,-1,-1,-1,-1,-1,-1,-1,-1],"loss_changes":[5.006891E0,3.597101E0,4.493764E0,4.1679034E0,6.798695E0,1.8444009E0,8.766884E0,4.7331862E0,3.4773035E0,4.7684264E0,2.4799333E0,1.8094977E0,1.9607677E0,1.4161825E0,1.8494723E0,2.2484024E0,1.8635879E0,2.3440723E0,2.410394E0,1.2961298E0,1.4145403E0,2.2923403E0,1.5901049E0,1.3704703E0,2.0046203E0,2.4888818E0,1.8132014E0,9.591882E-1,1.0796766E0,0E0,1.9643536E0,0E0,0E0,0E0,0E0,0E0,0E0,0E0,0E0,0E0,0E0,0E0,0E0,0E0,0E0,0E0,0E0,0E0,0E0,0E0,0E0,0E0,0E0,0E0,0E0,0E0,0E0,0E0,0E0,0E0,0E0],"parents":[2147483647,0,0,1,1,2,2,3,3,4,4,5,5,6,6,7,7,8,8,9,9,10,10,11,11,12,12,13,13,14,14,15,15,16,16,17,17,18,18,19,19,20,20,21,21,22,22,23,23,24,24,25,25,26,26,27,27,28,28,30,30],"right_children":[2,4,6,8,10,12,14,16,18,20,22,24,26,28,30,32,34,36,38,40,42,44,46,48,50,52,54,56,58,-1,60,-1,-1,-1,-1,-1,-1,-1,-1,-1,-1,-1,-1,-1,-1,-1,-1,-1,-1,-1,-1,-1,-1,-1,-1,-1,-1,-1,-1,-1,-1],"split_conditions":[-1.5814714E-1,8.850271E-3,1.1316113E-2,1.6747978E-2,2.0819543E-2,-7.469514E-2,2.3148153E-2,7.939498E-3,5.0255866E-3,-1.1479644E-1,-9.5128246E-2,1.7597139E-2,8.400032E-2,8.695237E-1,-4.6860434E-2,2.9949772E0,-1.5538086E-2,-2.4545293E-1,-1.38969915E-2,3.6283433E-2,1.238892E-2,4.0224537E-2,1.3072818E-2,-1.7507901E-2,1.0821328E-1,2.2566578E-1,-1.2322539E-2,-3.4946145E-3,2.5344479E1,-5.4475907E-3,1.6051635E-2,3.4776676E-4,-8.946583E-3,-7.7236667E-3,-3.659654E-4,-7.2125196E-3,-2.9646887E-3,1.6022638E-3,-2.0044388E-3,9.484128E-4,6.1918865E-3,-7.1120257E-3,-2.3173287E-3,4.882062E-3,-4.7637234E-4,2.0301966E-3,-1.7598398E-3,-6.626063E-3,8.2640065E-4,-7.234762E-3,6.1260647E-4,1.2059096E-3,-1.8629581E-3,2.8696153E-4,3.9352374E-3,-3.9529484E-3,5.034185E-4,-1.8012292E-4,-4.988108E-3,2.5754524E-3,9.127383E-3],"split_indices":[10,25,25,17,17,5,17,25,25,28,8,17,27,21,9,21,27,5,24,24,16,27,25,26,27,8,26,27,12,0,25,0,0,0,0,0,0,0,0,0,0,0,0,0,0,0,0,0,0,0,0,0,0,0,0,0,0,0,0,0,0],"split_type":[0,0,0,0,0,0,0,0,0,0,0,0,0,0,0,0,0,0,0,0,0,0,0,0,0,0,0,0,0,0,0,0,0,0,0,0,0,0,0,0,0,0,0,0,0,0,0,0,0,0,0,0,0,0,0,0,0,0,0,0,0],"sum_hessian":[2.8922E4,1.4405E4,1.4517E4,9.635E3,4.77E3,1.2251E4,2.266E3,5.082E3,4.553E3,2.308E3,2.462E3,1.341E3,1.091E4,1.602E3,6.64E2,4.681E3,4.01E2,1.56E3,2.993E3,5.73E2,1.735E3,1.266E3,1.196E3,1.009E3,3.32E2,9.281E3,1.629E3,5.09E2,1.093E3,5.3E1,6.11E2,4.616E3,6.5E1,2.76E2,1.25E2,4.62E2,1.098E3,5.72E2,2.421E3,4.08E2,1.65E2,1.7E2,1.565E3,1.018E3,2.48E2,7.63E2,4.33E2,6.5E1,9.44E2,1.91E2,1.41E2,8.566E3,7.15E2,4.85E2,1.144E3,1.95E2,3.14E2,1.33E2,9.6E2,4.59E2,1.52E2],"tree_param":{"num_deleted":"0","num_feature":"29","num_nodes":"61","size_leaf_vector":"1"}},{"base_weights":[-1.1993204E-3,-1.7268224E-2,8.396983E-3,-4.904541E-2,-9.572085E-3,3.3190635E-3,4.6996288E-2,-9.2224084E-2,-2.7543906E-2,-7.4544367E-3,-1.3191605E-1,3.4659106E-2,-2.0702253E-3,8.217111E-2,1.0169168E-2,-7.681027E-2,-9.4201295E-3,-7.680531E-2,-1.1667542E-2,-4.430142E-5,-4.5553032E-2,-1.0420984E-2,-1.815793E-3,-6.230707E-2,4.107255E-2,-9.581631E-3,2.393676E-2,-2.0515056E-2,9.605755E-2,1.3805587E-4,9.061181E-3,-2.5098377E-3,-6.5026195E-3,-5.3669396E-3,1.2457632E-3,-2.2541897E-3,7.4302114E-4,-4.996158E-4,1.9048247E-3,-4.4109873E-3,-8.4673875E-4,-6.2730643E-3,-5.742984E-4,-6.5271906E-4,2.5107777E-3,-6.819525E-4,2.138636E-3,-5.9702626E-4,2.15111E-3,2.2439111E-3,-4.0849033E-3,5.864615E-3,1.9099591E-3,3.438433E-3,-1.3431368E-3],"categories":[],"categories_nodes":[],"categories_segments":[],"categories_sizes":[],"default_left":[0,0,0,0,0,0,0,0,0,0,0,0,0,0,0,0,0,0,0,0,0,0,0,0,0,0,0,0,0,0,0,0,0,0,0,0,0,0,0,0,0,0,0,0,0,0,0,0,0,0,0,0,0,0,0],"id":3,"left_children":[1,3,5,7,9,11,13,15,17,19,21,23,25,27,29,31,-1,33,35,37,39,-1,-1,41,43,45,47,49,51,53,-1,-1,-1,-1,-1,-1,-1,-1,-1,-1,-1,-1,-1,-1,-1,-1,-1,-1,-1,-1,-1,-1,-1,-1,-1],"loss_changes":[4.4573565E0,2.6427524E0,3.5471272E0,1.9536128E0,2.2535434E0,2.701636E0,2.72466E0,1.0232625E0,1.1002895E0,2.4152093E0,1.074868E0,1.4621284E0,2.6665478E0,1.5362873E0,1.7656015E0,8.5073256E-1,0E0,1.0679922E0,9.456419E-1,2.718203E0,1.6994243E0,0E0,0E0,4.6715575E-1,1.0903866E0,2.2503614E0,2.095114E0,5.1979E-1,1.1602402E0,1.8048944E0,0E0,0E0,0E0,0E0,0E0,0E0,0E0,0E0,0E0,0E0,0E0,0E0,0E0,0E0,0E0,0E0,0E0,0E0,0E0,0E0,0E0,0E0,0E0,0E0,0E0],"parents":[2147483647,0,0,1,1,2,2,3,3,4,4,5,5,6,6,7,7,8,8,9,9,10,10,11,11,12,12,13,13,14,14,15,15,17,17,18,18,19,19,20,20,23,23,24,24,25,25,26,26,27,27,28,28,29,29],"right_children":[2,4,6,8,10,12,14,16,18,20,22,24,26,28,30,32,-1,34,36,38,40,-1,-1,42,44,46,48,50,52,54,-1,-1,-1,-1,-1,-1,-1,-1,-1,-1,-1,-1,-1,-1,-1,-1,-1,-1,-1,-1,-1,-1,-1,-1,-1],"split_conditions":[-7.469514E-2,5.639482E-1,7.1034325E1,4.9563665E-3,4.01331E0,1.0333929E-2,1.5577096E-2,6.229004E-2,-1.1044312E-4,9.8642536E-2,2.2581996E-2,-1.8176617E-2,3.188246E-1,-1.4674806E-2,4.4501998E-2,-1.011692E-2,-9.4201295E-3,2.2666218E-2,1.4025937E-2,3.2864273E-2,-1.8464597E-1,-1.0420984E-2,-1.815793E-3,-1.8625552E-2,5.8237755E-1,4.1683063E-2,-6.573677E-3,6.848444E-2,1.8987678E-2,5.1599042E-3,9.061181E-3,-2.5098377E-3,-6.5026195E-3,-5.3669396E-3,1.2457632E-3,-2.2541897E-3,7.4302114E-4,-4.996158E-4,1.9048247E-3,-4.4109873E-3,-8.4673875E-4,-6.2730643E-3,-5.742984E-4,-6.5271906E-4,2.5107777E-3,-6.819525E-4,2.138636E-3,-5.9702626E-4,2.15111E-3,2.2439111E-3,-4.0849033E-3,5.864615E-3,1.9099591E-3,3.438433E-3,-1.3431368E-3],"split_indices":[5,21,13,25,21,16,26,4,20,4,17,23,5,26,18,2,0,9,16,18,5,0,0,26,21,18,9,2,17,25,0,0,0,0,0,0,0,0,0,0,0,0,0,0,0,0,0,0,0,0,0,0,0,0,0],"split_type":[0,0,0,0,0,0,0,0,0,0,0,0,0,0,0,0,0,0,0,0,0,0,0,0,0,0,0,0,0,0,0,0,0,0,0,0,0,0,0,0,0,0,0,0,0,0,0,0,0,0,0,0,0,0,0],"sum_hessian":[2.8904E4,1.0807E4,1.8097E4,2.106E3,8.701E3,1.5994E4,2.103E3,6.99E2,1.407E3,8.554E3,1.47E2,2.346E3,1.3648E4,1.075E3,1.028E3,6.04E2,9.5E1,3.42E2,1.065E3,7.162E3,1.392E3,8.1E1,6.6E1,1.45E2,2.201E3,1.059E4,3.058E3,1.28E2,9.47E2,9.72E2,5.6E1,4.04E2,2E2,2.63E2,7.9E1,4.71E2,5.94E2,5.681E3,1.481E3,5.58E2,8.34E2,6.4E1,8.1E1,3.18E2,1.883E3,9.829E3,7.61E2,1.062E3,1.996E3,6.2E1,6.6E1,6.92E2,2.55E2,2.74E2,6.98E2],"tree_param":{"num_deleted":"0","num_feature":"29","num_nodes":"55","size_leaf_vector":"1"}},{"base_weights":[7.215906E-4,-1.0538969E-2,1.2933076E-2,6.8170965E-2,-1.3489457E-2,-2.4257952E-2,1.8584717E-2,2.5877513E-2,1.8742305E-1,1.0676424E-1,-1.5274916E-2,-4.3994572E-2,7.328639E-2,3.371569E-2,7.078204E-3,-5.807502E-2,8.337683E-2,1.08614955E-2,6.498944E-3,1.7005108E-1,1.0372457E-3,-3.566239E-2,-8.054676E-3,-2.4663411E-2,-1.6590396E-1,1.12536445E-1,-1.0773278E-3,4.895507E-2,1.8226778E-2,-9.831046E-3,3.7662063E-2,-5.0201043E-3,1.8838579E-3,1.5787656E-3,7.2958902E-3,1.2330638E-2,4.0658643E-3,-4.3107086E-4,-4.432193E-3,-9.882406E-4,6.141035E-4,-3.8616252E-3,-4.211764E-4,-2.6556381E-3,-1.0617359E-2,3.0196535E-3,7.9788035E-3,2.1591403E-3,6.753231E-3,-1.9597335E-4,1.9156E-3,-7.8708323E-4,1.9129555E-3,2.795105E-3,-3.742182E-4],"categories":[],"categories_nodes":[],"categories_segments":[],"categories_sizes":[],"default_left":[0,0,0,0,0,0,0,0,0,0,0,0,0,0,0,0,0,0,0,0,0,0,0,0,0,0,0,0,0,0,0,0,0,0,0,0,0,0,0,0,0,0,0,0,0,0,0,0,0,0,0,0,0,0,0],"id":4,"left_children":[1,3,5,7,9,11,13,15,17,19,21,23,25,27,29,31,33,-1,-1,35,-1,37,39,41,43,45,-1,47,49,51,53,-1,-1,-1,-1,-1,-1,-1,-1,-1,-1,-1,-1,-1,-1,-1,-1,-1,-1,-1,-1,-1,-1,-1,-1],"loss_changes":[3.9709597E0,3.4899828E0,2.9124277E0,2.7338152E0,3.111034E0,3.522482E0,2.093719E0,1.945382E0,2.1490145E-1,1.1505773E0,2.100439E0,3.580373E0,1.1488616E0,1.2253428E0,3.534057E0,6.6846E-1,7.696849E-1,0E0,0E0,8.0876637E-1,0E0,5.345961E0,2.5103016E0,1.1211323E0,1.0783057E0,5.250745E-1,0E0,1.2954378E0,1.1468761E0,1.2515538E0,2.0039268E0,0E0,0E0,0E0,0E0,0E0,0E0,0E0,0E0,0E0,0E0,0E0,0E0,0E0,0E0,0E0,0E0,0E0,0E0,0E0,0E0,0E0,0E0,0E0,0E0],"parents":[2147483647,0,0,1,1,2,2,3,3,4,4,5,5,6,6,7,7,8,8,9,9,10,10,11,11,12,12,13,13,14,14,15,15,16,16,19,19,21,21,22,22,23,23,24,24,25,25,27,27,28,28,29,29,30,30],"right_children":[2,4,6,8,10,12,14,16,18,20,22,24,26,28,30,32,34,-1,-1,36,-1,38,40,42,44,46,-1,48,50,52,54,-1,-1,-1,-1,-1,-1,-1,-1,-1,-1,-1,-1,-1,-1,-1,-1,-1,-1,-1,-1,-1,-1,-1,-1],"split_conditions":[-1.4781006E-1,-2.5557065E-1,-2.0714886E-2,1.3000223E-2,-1.5431531E-1,2.2581996E-2,1.42812645E-2,-3.0939758E-1,1.4040024E0,1.082691E-2,5.0255866E-3,1.5406423E-2,1.4500464E-1,5.105133E-3,5.1471215E-1,8.9341233E-4,4.2273514E-2,1.08614955E-2,6.498944E-3,-1.0727009E-1,1.0372457E-3,1.7650405E-2,2.057281E-2,2.1880267E-2,-1.0723325E-1,9.431237E-1,-1.0773278E-3,7.703686E1,1.8194329E-2,2.3590323E-2,4.134821E-2,-5.0201043E-3,1.8838579E-3,1.5787656E-3,7.2958902E-3,1.2330638E-2,4.0658643E-3,-4.3107086E-4,-4.432193E-3,-9.882406E-4,6.141035E-4,-3.8616252E-3,-4.211764E-4,-2.6556381E-3,-1.0617359E-2,3.0196535E-3,7.9788035E-3,2.1591403E-3,6.753231E-3,-1.9597335E-4,1.9156E-3,-7.8708323E-4,1.9129555E-3,2.795105E-3,-3.742182E-4],"split_indices":[10,4,26,25,7,17,17,4,21,25,25,25,4,25,11,23,11,0,0,2,0,17,17,18,10,21,0,13,18,17,1,0,0,0,0,0,0,0,0,0,0,0,0,0,0,0,0,0,0,0,0,0,0,0,0],"split_type":[0,0,0,0,0,0,0,0,0,0,0,0,0,0,0,0,0,0,0,0,0,0,0,0,0,0,0,0,0,0,0,0,0,0,0,0,0,0,0,0,0,0,0,0,0,0,0,0,0,0,0,0,0,0,0],"sum_hessian":[2.8876E4,1.5023E4,1.3853E4,5.42E2,1.4481E4,1.827E3,1.2026E4,4.01E2,1.41E2,2.11E2,1.427E4,1.52E3,3.07E2,5.194E3,6.832E3,1.63E2,2.38E2,9.1E1,5E1,1.21E2,9E1,3.731E3,1.0539E4,1.313E3,2.07E2,2.17E2,9E1,2.617E3,2.577E3,4.4E3,2.432E3,1.13E2,5E1,1.31E2,1.07E2,6.4E1,5.7E1,2.471E3,1.26E3,6.688E3,3.851E3,3.09E2,1.004E3,6.1E1,1.46E2,1.04E2,1.13E2,2.454E3,1.63E2,1.226E3,1.351E3,3.919E3,4.81E2,1.732E3,7E2],"tree_param":{"num_deleted":"0","num_feature":"29","num_nodes":"55","size_leaf_vector":"1"}},{"base_weights":[-3.029143E-4,-1.2092393E-2,1.2598528E-2,5.3478282E-2,-1.6202357E-2,1.7918404E-2,-1.8867537E-2,6.7583054E-2,-3.436574E-3,-2.5548343E-2,6.610718E-3,1.8993553E-2,-6.5527484E-3,-6.330942E-2,7.522932E-2,4.2677786E-2,1.7126714E-1,-4.3869976E-2,-1.5056561E-2,4.1454516E-2,-1.763301E-2,1.355586E-2,5.032362E-2,-7.2200246E-2,2.5377674E-3,4.9090493E-2,1.3967523E-1,1.3651679E-3,8.461829E-3,1.4107957E-2,4.1815825E-3,-3.6042945E-3,-1.1745916E-3,-1.010716E-3,1.943486E-3,3.501181E-3,-1.0371286E-4,-1.1788434E-3,5.560192E-3,6.086546E-4,6.378372E-3,1.386388E-3,5.617689E-3,-3.154197E-3,-9.660339E-3,6.431421E-3,9.632812E-4,2.8633738E-3,1.0692326E-2],"categories":[],"categories_nodes":[],"categories_segments":[],"categories_sizes":[],"default_left":[0,0,0,0,0,0,0,0,0,0,0,0,0,0,0,0,0,0,0,0,0,0,0,0,0,0,0,0,0,0,0,0,0,0,0,0,0,0,0,0,0,0,0,0,0,0,0,0,0],"id":5,"left_children":[1,3,5,7,9,11,13,15,-1,17,19,21,-1,23,25,27,29,31,33,35,37,39,41,43,-1,45,47,-1,-1,-1,-1,-1,-1,-1,-1,-1,-1,-1,-1,-1,-1,-1,-1,-1,-1,-1,-1,-1,-1],"loss_changes":[4.4109373E0,4.0844955E0,2.3182645E0,1.5456698E0,3.040553E0,1.8996847E0,8.380993E0,2.0636795E0,0E0,1.9439034E0,3.502193E0,2.0029602E0,0E0,1.383894E0,1.0763028E0,1.2562376E0,1.4827042E0,2.1159878E0,1.7903302E0,2.1154716E0,1.8749743E0,1.57859E0,2.43431E0,1.3810682E0,0E0,1.0863653E0,1.1185274E0,0E0,0E0,0E0,0E0,0E0,0E0,0E0,0E0,0E0,0E0,0E0,0E0,0E0,0E0,0E0,0E0,0E0,0E0,0E0,0E0,0E0,0E0],"parents":[2147483647,0,0,1,1,2,2,3,3,4,4,5,5,6,6,7,7,9,9,10,10,11,11,13,13,14,14,15,15,16,16,17,17,18,18,19,19,20,20,21,21,22,22,23,23,25,25,26,26],"right_children":[2,4,6,8,10,12,14,16,-1,18,20,22,-1,24,26,28,30,32,34,36,38,40,42,44,-1,46,48,-1,-1,-1,-1,-1,-1,-1,-1,-1,-1,-1,-1,-1,-1,-1,-1,-1,-1,-1,-1,-1,-1],"split_conditions":[-1.4781006E-1,-1.2985401E-1,1.1356757E-2,1.4454895E-2,1.8272197E-2,4.649799E-1,2.2581996E-2,2.5700264E-2,-3.436574E-3,7.077021E-1,-7.4081905E-2,7.135296E1,-6.5527484E-3,5.631311E-1,-4.4699498E-2,1.6678019E0,-1.3167944E0,5.105133E-3,2.3562366E-1,1.3912876E-1,3.3805978E-2,3.9227855E-1,7.0541045E-3,2.3561238E-1,2.5377674E-3,5.188537E1,1.0691372E0,1.3651679E-3,8.461829E-3,1.4107957E-2,4.1815825E-3,-3.6042945E-3,-1.1745916E-3,-1.010716E-3,1.943486E-3,3.501181E-3,-1.0371286E-4,-1.1788434E-3,5.560192E-3,6.086546E-4,6.378372E-3,1.386388E-3,5.617689E-3,-3.154197E-3,-9.660339E-3,6.431421E-3,9.632812E-4,2.8633738E-3,1.0692326E-2],"split_indices":[10,7,25,26,24,8,17,17,0,21,28,13,0,11,10,22,14,25,5,11,17,28,25,28,0,12,21,0,0,0,0,0,0,0,0,0,0,0,0,0,0,0,0,0,0,0,0,0,0],"split_type":[0,0,0,0,0,0,0,0,0,0,0,0,0,0,0,0,0,0,0,0,0,0,0,0,0,0,0,0,0,0,0,0,0,0,0,0,0,0,0,0,0,0,0,0,0,0,0,0,0],"sum_hessian":[2.8998E4,1.5152E4,1.3846E4,8.93E2,1.4259E4,1.1844E4,2.002E3,8.01E2,9.2E1,1.0115E4,4.144E3,1.176E4,8.4E1,1.36E3,6.42E2,6.47E2,1.54E2,3.682E3,6.433E3,1.7E3,2.444E3,1.0022E4,1.738E3,1.262E3,9.8E1,4.58E2,1.84E2,5.78E2,6.9E1,6.7E1,8.7E1,1.543E3,2.139E3,5.872E3,5.61E2,1.026E3,6.74E2,2.337E3,1.07E2,9.903E3,1.19E2,1.275E3,4.63E2,1.175E3,8.7E1,1.24E2,3.34E2,8.8E1,9.6E1],"tree_param":{"num_deleted":"0","num_feature":"29","num_nodes":"49","size_leaf_vector":"1"}},{"base_weights":[-7.3434267E-4,-1.0949946E-2,1.1514292E-2,-1.6467523E-2,2.799595E-2,3.0497422E-2,2.773228E-3,1.15129175E-2,-2.3410968E-2,7.943484E-2,-1.5439707E-2,4.5416005E-2,2.0255793E-3,-4.701562E-3,2.881956E-2,-1.0319715E-1,1.645217E-2,-5.1590018E-2,-1.4499958E-2,-7.2217654E-3,1.1263082E-1,-1.13945216E-1,5.7267332E-3,3.3900905E-2,9.7600274E-2,-4.1602362E-2,4.8112947E-2,7.6421276E-3,-5.943571E-2,2.1442233E-3,6.350424E-2,-2.2358636E-3,-8.54693E-3,3.0853864E-4,2.7192412E-3,-4.774704E-3,-1.6170274E-3,-3.8648047E-4,-2.9272914E-3,7.137906E-3,-4.677844E-3,6.7867376E-3,2.3897286E-3,-7.5158975E-3,-7.0019235E-4,-1.6209772E-3,2.6648254E-3,4.8802453E-3,1.1283767E-3,7.737568E-3,3.4537825E-3,-3.6394486E-4,-6.7867273E-3,3.5997655E-3,-1.3331835E-3,-3.4683375E-4,1.9265462E-3,-2.466113E-3,-8.39094E-3,4.8490386E-3,-1.0757472E-3,-6.072685E-4,5.110267E-3],"categories":[],"categories_nodes":[],"categories_segments":[],"categories_sizes":[],"default_left":[0,0,0,0,0,0,0,0,0,0,0,0,0,0,0,0,0,0,0,0,0,0,0,0,0,0,0,0,0,0,0,0,0,0,0,0,0,0,0,0,0,0,0,0,0,0,0,0,0,0,0,0,0,0,0,0,0,0,0,0,0,0,0],"id":6,"left_children":[1,3,5,7,9,11,13,15,17,19,21,23,25,27,29,31,33,35,37,39,41,43,45,47,49,51,53,55,57,59,61,-1,-1,-1,-1,-1,-1,-1,-1,-1,-1,-1,-1,-1,-1,-1,-1,-1,-1,-1,-1,-1,-1,-1,-1,-1,-1,-1,-1,-1,-1,-1,-1],"loss_changes":[3.6017873E0,3.3731122E0,2.1719751E0,2.6712403E0,4.353608E0,1.7528903E0,1.7453444E0,1.5507337E0,2.7651606E0,2.5667858E0,2.2045093E0,1.6239476E0,2.8571913E0,4.7068324E0,1.8493897E0,4.4000685E-1,1.0222464E0,2.2331257E0,2.4955308E0,3.2245913E0,9.597044E-1,6.776662E-1,1.582253E0,1.6005952E0,7.864852E-1,2.3575997E0,1.2359366E0,2.560346E0,1.3969579E0,2.539772E0,2.5454326E0,0E0,0E0,0E0,0E0,0E0,0E0,0E0,0E0,0E0,0E0,0E0,0E0,0E0,0E0,0E0,0E0,0E0,0E0,0E0,0E0,0E0,0E0,0E0,0E0,0E0,0E0,0E0,0E0,0E0,0E0,0E0,0E0],"parents":[2147483647,0,0,1,1,2,2,3,3,4,4,5,5,6,6,7,7,8,8,9,9,10,10,11,11,12,12,13,13,14,14,15,15,16,16,17,17,18,18,19,19,20,20,21,21,22,22,23,23,24,24,25,25,26,26,27,27,28,28,29,29,30,30],"right_children":[2,4,6,8,10,12,14,16,18,20,22,24,26,28,30,32,34,36,38,40,42,44,46,48,50,52,54,56,58,60,62,-1,-1,-1,-1,-1,-1,-1,-1,-1,-1,-1,-1,-1,-1,-1,-1,-1,-1,-1,-1,-1,-1,-1,-1,-1,-1,-1,-1,-1,-1,-1,-1],"split_conditions":[-1.3816479E-1,3.998972E-2,5.0255866E-3,1.938191E-2,-1.2208481E-1,2.2547139E-2,2.0819543E-2,-2.0714886E-2,5.0255866E-3,9.663619E-3,6.7747855E-1,6.954745E1,4.9150762E-1,1.1167993E-2,1.1167993E-2,-2.429184E-1,2.1089038E-2,5.8646476E-1,6.646121E1,6.2310174E-3,5.258216E1,3.3805978E-2,5.41896E-1,-4.5636684E-2,-1.9226292E-1,1.7945843E-2,3.354652E-2,6.5994384E-3,7.2497E-2,2.1956984E-2,5.6569405E-2,-2.2358636E-3,-8.54693E-3,3.0853864E-4,2.7192412E-3,-4.774704E-3,-1.6170274E-3,-3.8648047E-4,-2.9272914E-3,7.137906E-3,-4.677844E-3,6.7867376E-3,2.3897286E-3,-7.5158975E-3,-7.0019235E-4,-1.6209772E-3,2.6648254E-3,4.8802453E-3,1.1283767E-3,7.737568E-3,3.4537825E-3,-3.6394486E-4,-6.7867273E-3,3.5997655E-3,-1.3331835E-3,-3.4683375E-4,1.9265462E-3,-2.466113E-3,-8.39094E-3,4.8490386E-3,-1.0757472E-3,-6.072685E-4,5.110267E-3],"split_indices":[10,18,25,18,8,18,17,26,25,25,21,13,11,25,25,10,24,21,13,25,13,17,19,27,22,17,1,25,24,17,7,0,0,0,0,0,0,0,0,0,0,0,0,0,0,0,0,0,0,0,0,0,0,0,0,0,0,0,0,0,0,0,0],"split_type":[0,0,0,0,0,0,0,0,0,0,0,0,0,0,0,0,0,0,0,0,0,0,0,0,0,0,0,0,0,0,0,0,0,0,0,0,0,0,0,0,0,0,0,0,0,0,0,0,0,0,0,0,0,0,0,0,0,0,0,0,0,0,0],"sum_hessian":[2.8783E4,1.5694E4,1.3089E4,1.3747E4,1.947E3,4.126E3,8.963E3,2.733E3,1.1014E4,8.91E2,1.056E3,2.707E3,1.419E3,6.965E3,1.998E3,1.12E2,2.621E3,2.645E3,8.369E3,2.47E2,6.44E2,1.86E2,8.7E2,2.219E3,4.88E2,7.29E2,6.9E2,5.684E3,1.281E3,1.13E3,8.68E2,6.1E1,5.1E1,2.063E3,5.58E2,8.05E2,1.84E3,7.255E3,1.114E3,9E1,1.57E2,4.74E2,1.7E2,1.36E2,5E1,4.83E2,3.87E2,3.34E2,1.885E3,1.61E2,3.27E2,5.35E2,1.94E2,5.23E2,1.67E2,3.862E3,1.822E3,1.173E3,1.08E2,2.25E2,9.05E2,2.94E2,5.74E2],"tree_param":{"num_deleted":"0","num_feature":"29","num_nodes":"63","size_leaf_vector":"1"}},{"base_weights":[7.2856626E-4,7.1250126E-2,-6.854692E-4,8.812448E-2,-4.565655E-3,-7.2820107E-3,1.711892E-2,6.373078E-2,1.0917045E-2,-3.1872343E-2,-2.1418498E-3,-2.3790924E-2,2.3029499E-2,6.7912233E-3,1.1858786E-1,-4.914513E-2,4.528523E-3,1.0434956E-2,-1.4629148E-2,7.739199E-3,-8.571777E-2,4.1285645E-2,-3.7752648E-3,-4.3321485E-3,2.348313E-3,1.1753162E-3,9.609154E-3,-1.1251105E-3,-3.6393607E-3,-1.3175213E-3,2.056511E-3,2.9599394E-3,3.263673E-4,-4.0860274E-3,-3.6853156E-4,-1.7625198E-3,4.8589064E-3,-7.192085E-3,1.4342064E-3,7.614595E-3,1.8528823E-3,-3.6104468E-3,4.4551687E-4],"categories":[],"categories_nodes":[],"categories_segments":[],"categories_sizes":[],"default_left":[0,0,0,0,0,0,0,0,0,0,0,0,0,0,0,0,0,0,0,0,0,0,0,0,0,0,0,0,0,0,0,0,0,0,0,0,0,0,0,0,0,0,0],"id":7,"left_children":[1,3,5,7,-1,9,11,13,-1,15,17,19,21,23,25,27,29,31,33,35,37,39,41,-1,-1,-1,-1,-1,-1,-1,-1,-1,-1,-1,-1,-1,-1,-1,-1,-1,-1,-1,-1],"loss_changes":[2.8865433E0,1.5688984E0,3.3330467E0,1.6251388E0,0E0,2.6172607E0,1.8556442E0,1.3610572E0,0E0,2.2511277E0,2.6901107E0,1.892695E0,3.2807693E0,8.1111956E-1,1.548938E0,1.5277448E0,1.3042295E0,1.625768E0,4.185025E0,2.475724E0,2.1785088E0,1.8660612E0,2.3593316E0,0E0,0E0,0E0,0E0,0E0,0E0,0E0,0E0,0E0,0E0,0E0,0E0,0E0,0E0,0E0,0E0,0E0,0E0,0E0,0E0],"parents":[2147483647,0,0,1,1,2,2,3,3,5,5,6,6,7,7,9,9,10,10,11,11,12,12,13,13,14,14,15,15,16,16,17,17,18,18,19,19,20,20,21,21,22,22],"right_children":[2,4,6,8,-1,10,12,14,-1,16,18,20,22,24,26,28,30,32,34,36,38,40,42,-1,-1,-1,-1,-1,-1,-1,-1,-1,-1,-1,-1,-1,-1,-1,-1,-1,-1,-1,-1],"split_conditions":[-1.470064E-1,2.092711E-2,-7.279924E-2,1.5948251E-1,-4.565655E-3,5.546615E-1,-1.7543962E-2,3.8291607E-2,1.0917045E-2,1.7884787E-2,-3.6110837E-2,1.3935274E-1,1.3716859E-2,-1.4079432E-1,-2.373353E-1,-2.303541E-3,-7.875633E-2,1.5058152E-2,-2.418539E-1,3.84219E-2,2.149964E-2,-3.912534E-2,-2.5634732E-2,-4.3321485E-3,2.348313E-3,1.1753162E-3,9.609154E-3,-1.1251105E-3,-3.6393607E-3,-1.3175213E-3,2.056511E-3,2.9599394E-3,3.263673E-4,-4.0860274E-3,-3.6853156E-4,-1.7625198E-3,4.8589064E-3,-7.192085E-3,1.4342064E-3,7.614595E-3,1.8528823E-3,-3.6104468E-3,4.4551687E-4],"split_indices":[7,26,10,11,0,21,26,18,0,26,28,8,24,27,28,26,14,18,5,7,17,27,27,0,0,0,0,0,0,0,0,0,0,0,0,0,0,0,0,0,0,0,0],"split_type":[0,0,0,0,0,0,0,0,0,0,0,0,0,0,0,0,0,0,0,0,0,0,0,0,0,0,0,0,0,0,0,0,0,0,0,0,0,0,0,0,0,0,0],"sum_hessian":[2.8945E4,5.68E2,2.8377E4,5.15E2,5.3E1,2.0706E4,7.671E3,4.35E2,8E1,3.579E3,1.7127E4,9.68E2,6.703E3,2.14E2,2.21E2,2.427E3,1.152E3,8.533E3,8.594E3,6.42E2,3.26E2,3.987E3,2.716E3,6.4E1,1.5E2,9.7E1,1.24E2,1.142E3,1.285E3,6.25E2,5.27E2,6.32E2,7.901E3,8.38E2,7.756E3,4.34E2,2.08E2,2.16E2,1.1E2,1.45E2,3.842E3,4.24E2,2.292E3],"tree_param":{"num_deleted":"0","num_feature":"29","num_nodes":"43","size_leaf_vector":"1"}},{"base_weights":[1.6638878E-3,-9.513833E-3,1.32140815E-2,6.0831353E-2,-1.2315617E-2,8.630305E-3,4.9748715E-2,3.0282183E-2,1.5937166E-1,-1.8112369E-2,1.0984863E-2,1.6357305E-2,-4.648358E-2,5.9027784E-2,-8.295638E-2,8.465829E-3,1.4586397E-3,9.389888E-3,5.7821902E-3,-2.428976E-3,-2.8715488E-2,4.612929E-2,-1.7915236E-2,-1.4385985E-2,2.1026848E-2,-3.532299E-3,-6.697599E-2,7.7646007E-3,7.644839E-2,-2.1940054E-4,-7.781181E-3,1.4877595E-3,-6.978841E-3,-2.952042E-4,4.4289767E-3,-2.5742124E-3,-8.0980046E-4,3.3669048E-3,-8.2932663E-4,-1.4630017E-3,7.881849E-3,2.1899855E-6,-5.4916614E-3,-5.746971E-4,1.2886262E-3,-1.65848E-3,2.7881667E-3,-4.3166126E-3,-8.270011E-4,2.308633E-3,-4.7428287E-3,2.6815536E-3,6.9935955E-3],"categories":[],"categories_nodes":[],"categories_segments":[],"categories_sizes":[],"default_left":[0,0,0,0,0,0,0,0,0,0,0,0,0,0,0,0,0,0,0,0,0,0,0,0,0,0,0,0,0,0,0,0,0,0,0,0,0,0,0,0,0,0,0,0,0,0,0,0,0,0,0,0,0],"id":8,"left_children":[1,3,5,7,9,11,13,15,17,19,21,23,25,27,29,-1,31,-1,-1,33,35,37,39,41,43,45,47,49,51,-1,-1,-1,-1,-1,-1,-1,-1,-1,-1,-1,-1,-1,-1,-1,-1,-1,-1,-1,-1,-1,-1,-1,-1],"loss_changes":[3.732934E0,2.89682E0,2.380946E0,1.6899865E0,1.908967E0,5.381991E0,1.9566333E0,1.7269701E0,1.4360261E-1,1.8818669E0,2.860974E0,1.5913455E0,1.3675554E0,1.3228855E0,5.93089E-1,0E0,1.4328656E0,0E0,0E0,1.4445859E0,1.9238439E0,1.691709E0,3.0836327E0,2.0135927E0,1.4852905E0,8.858031E-1,1.025589E0,1.490318E0,1.5930514E0,0E0,0E0,0E0,0E0,0E0,0E0,0E0,0E0,0E0,0E0,0E0,0E0,0E0,0E0,0E0,0E0,0E0,0E0,0E0,0E0,0E0,0E0,0E0,0E0],"parents":[2147483647,0,0,1,1,2,2,3,3,4,4,5,5,6,6,7,7,8,8,9,9,10,10,11,11,12,12,13,13,14,14,16,16,19,19,20,20,21,21,22,22,23,23,24,24,25,25,26,26,27,27,28,28],"right_children":[2,4,6,8,10,12,14,16,18,20,22,24,26,28,30,-1,32,-1,-1,34,36,38,40,42,44,46,48,50,52,-1,-1,-1,-1,-1,-1,-1,-1,-1,-1,-1,-1,-1,-1,-1,-1,-1,-1,-1,-1,-1,-1,-1,-1],"split_conditions":[-1.5458481E-1,-2.5557065E-1,2.3590323E-2,1.327823E-2,3.1076027E-2,1.13292355E-2,4.649799E-1,1.5365944E-2,-2.7118084E-1,3.3848812E1,-1.4481894E-3,-1.7543962E-2,8.741046E-1,5.9779664E-3,1.4675424E-1,8.465829E-3,4.5613237E-2,9.389888E-3,5.7821902E-3,2.9437132E-2,7.426001E-1,-6.509335E-2,3.3805978E-2,1.531975E-1,-7.035389E-2,6.2254013E1,3.2206538E-1,7E1,-4.3455634E-2,-2.1940054E-4,-7.781181E-3,1.4877595E-3,-6.978841E-3,-2.952042E-4,4.4289767E-3,-2.5742124E-3,-8.0980046E-4,3.3669048E-3,-8.2932663E-4,-1.4630017E-3,7.881849E-3,2.1899855E-6,-5.4916614E-3,-5.746971E-4,1.2886262E-3,-1.65848E-3,2.7881667E-3,-4.3166126E-3,-8.270011E-4,2.308633E-3,-4.7428287E-3,2.6815536E-3,6.9935955E-3],"split_indices":[10,4,17,25,26,25,8,16,8,12,4,26,21,25,3,0,17,0,0,17,21,8,17,8,5,13,11,12,10,0,0,0,0,0,0,0,0,0,0,0,0,0,0,0,0,0,0,0,0,0,0,0,0],"split_type":[0,0,0,0,0,0,0,0,0,0,0,0,0,0,0,0,0,0,0,0,0,0,0,0,0,0,0,0,0,0,0,0,0,0,0,0,0,0,0,0,0,0,0,0,0,0,0,0,0,0,0,0,0],"sum_hessian":[2.8912E4,1.4693E4,1.4219E4,5.62E2,1.4131E4,1.2635E4,1.584E3,4.3E2,1.32E2,1.1316E4,2.815E3,1.1082E4,1.553E3,1.481E3,1.03E2,7.3E1,3.57E2,7.8E1,5.4E1,4.565E3,6.751E3,1.27E3,1.545E3,1.461E3,9.621E3,5.02E2,1.051E3,3.76E2,1.105E3,5E1,5.3E1,2.98E2,5.9E1,4.398E3,1.67E2,2.394E3,4.357E3,9.49E2,3.21E2,1.452E3,9.3E1,1.27E3,1.91E2,1.225E3,8.396E3,3.35E2,1.67E2,7.59E2,2.92E2,2.74E2,1.02E2,8.14E2,2.91E2],"tree_param":{"num_deleted":"0","num_feature":"29","num_nodes":"53","size_leaf_vector":"1"}},{"base_weights":[1.9690917E-4,-1.2050831E-2,7.5884787E-3,6.6605635E-2,-1.52546195E-2,8.352456E-3,-1.1925251E-1,-5.2379756E-3,1.351777E-1,7.875577E-3,-1.6367342E-2,4.341478E-3,3.904761E-2,-1.2336841E-2,-2.5490855E-4,4.511456E-3,-4.895735E-2,-1.2851693E-3,1.9784935E-1,6.4220456E-3,-2.446308E-2,4.4051863E-2,1.1094136E-3,-5.525452E-3,4.48004E-2,2.2951877E-3,-5.4922574E-3,6.566956E-3,1.2425347E-2,7.71991E-4,-4.104965E-3,-2.7148596E-3,-6.6758384E-4,-3.2724414E-4,3.8650103E-3,8.673614E-4,-5.171185E-4,2.0144999E-3,1.0627935E-2],"categories":[],"categories_nodes":[],"categories_segments":[],"categories_sizes":[],"default_left":[0,0,0,0,0,0,0,0,0,0,0,0,0,0,0,0,0,0,0,0,0,0,0,0,0,0,0,0,0,0,0,0,0,0,0,0,0,0,0],"id":9,"left_children":[1,3,5,7,9,11,13,15,17,-1,19,21,23,-1,-1,-1,25,-1,27,29,31,33,35,-1,37,-1,-1,-1,-1,-1,-1,-1,-1,-1,-1,-1,-1,-1,-1],"loss_changes":[2.6170428E0,2.7427616E0,1.747975E0,2.099382E0,2.0124562E0,2.2062206E0,1.5704535E0,8.7673366E-1,2.2031105E0,0E0,1.9168956E0,2.0343719E0,1.7867725E0,0E0,0E0,0E0,8.367694E-1,0E0,4.9633312E-1,2.1757426E0,2.540545E0,2.0074396E0,2.726049E0,0E0,1.5009689E0,0E0,0E0,0E0,0E0,0E0,0E0,0E0,0E0,0E0,0E0,0E0,0E0,0E0,0E0],"parents":[2147483647,0,0,1,1,2,2,3,3,4,4,5,5,6,6,7,7,8,8,10,10,11,11,12,12,16,16,18,18,19,19,20,20,21,21,22,22,24,24],"right_children":[2,4,6,8,10,12,14,16,18,-1,20,22,24,-1,-1,-1,26,-1,28,30,32,34,36,-1,38,-1,-1,-1,-1,-1,-1,-1,-1,-1,-1,-1,-1,-1,-1],"split_conditions":[-7.266078E-2,-2.5557065E-1,4.649799E-1,-2.9732568E-2,-1.5431531E-1,9.115514E-2,4.0315576E-2,-6.297089E-2,-1.352959E-1,7.875577E-3,1.9475838E-2,-1.2395453E-1,-5.3937707E-2,-1.2336841E-2,-2.5490855E-4,4.511456E-3,8.259195E-3,-1.2851693E-3,-5.542573E-2,5.736469E-2,5.0255866E-3,1.9154275E-2,2.2028346E-2,-5.525452E-3,3.7590615E-2,2.2951877E-3,-5.4922574E-3,6.566956E-3,1.2425347E-2,7.71991E-4,-4.104965E-3,-2.7148596E-3,-6.6758384E-4,-3.2724414E-4,3.8650103E-3,8.673614E-4,-5.171185E-4,2.0144999E-3,1.0627935E-2],"split_indices":[5,4,8,1,7,27,18,24,9,0,18,8,4,0,0,0,25,0,24,28,25,17,18,0,17,0,0,0,0,0,0,0,0,0,0,0,0,0,0],"split_type":[0,0,0,0,0,0,0,0,0,0,0,0,0,0,0,0,0,0,0,0,0,0,0,0,0,0,0,0,0,0,0,0,0,0,0,0,0,0,0],"sum_hessian":[2.8906E4,1.0879E4,1.8027E4,4.25E2,1.0454E4,1.792E4,1.07E2,2.08E2,2.17E2,6.6E1,1.0388E4,1.585E4,2.07E3,5E1,5.7E1,6.5E1,1.43E2,6.1E1,1.56E2,2.723E3,7.665E3,1.192E3,1.4658E4,7.6E1,1.994E3,5.6E1,8.7E1,6.9E1,8.7E1,2.472E3,2.51E2,2.079E3,5.586E3,4.73E2,7.19E2,6.062E3,8.596E3,1.943E3,5.1E1],"tree_param":{"num_deleted":"0","num_feature":"29","num_nodes":"39","size_leaf_vector":"1"}},{"base_weights":[3.8925244E-4,-9.0363175E-3,1.0200383E-2,5.238719E-6,-2.5749976E-2,1.5046038E-2,-1.6052645E-2,-9.638194E-3,2.8089758E-2,-7.854869E-2,-1.2858903E-2,-7.3131933E-3,1.5887545E-2,-6.0354292E-2,4.7385868E-2,-3.7533063E-2,2.796162E-3,3.388507E-2,-9.858635E-2,-1.0415687E-1,-8.048958E-3,-1.9717302E-2,6.794094E-2,1.0853011E-2,4.7011584E-2,-4.8826594E-2,-1.8308425E-1,-3.702872E-3,7.750783E-2,-3.6417649E-3,-1.2148047E-3,2.1199042E-3,-3.153815E-4,6.257787E-3,1.1633582E-3,-1.0044495E-2,8.947676E-5,-9.999758E-4,-6.874874E-3,3.9447714E-3,-4.321251E-3,-7.497312E-4,-4.8354086E-3,8.406097E-3,3.4527303E-4,1.5685762E-3,1.1187464E-4,3.7756432E-3,3.2815416E-5,4.0269257E-3,-2.982058E-3,-6.268987E-3,-1.1777602E-2,2.4929333E-3,-2.8940002E-3,-4.8704544E-5,5.3024525E-3],"categories":[],"categories_nodes":[],"categories_segments":[],"categories_sizes":[],"default_left":[0,0,0,0,0,0,0,0,0,0,0,0,0,0,0,0,0,0,0,0,0,0,0,0,0,0,0,0,0,0,0,0,0,0,0,0,0,0,0,0,0,0,0,0,0,0,0,0,0,0,0,0,0,0,0,0,0],"id":10,"left_children":[1,3,5,7,9,11,13,15,17,19,21,-1,23,25,27,29,31,33,35,37,39,41,43,45,47,49,51,53,55,-1,-1,-1,-1,-1,-1,-1,-1,-1,-1,-1,-1,-1,-1,-1,-1,-1,-1,-1,-1,-1,-1,-1,-1,-1,-1,-1,-1],"loss_changes":[2.6666234E0,2.222485E0,1.7976354E0,2.5853546E0,3.513093E0,1.6214721E0,6.191428E0,2.4648547E0,1.794611E0,1.828002E0,2.3016477E0,0E0,1.85899E0,1.8260493E0,1.3945241E0,1.0220726E0,1.772621E0,2.2589748E0,1.0991219E0,2.0820017E0,1.8535098E0,1.3900588E0,1.9860824E0,1.8058898E0,2.1825476E0,1.6654487E0,3.065331E-1,9.80796E-1,1.2768855E0,0E0,0E0,0E0,0E0,0E0,0E0,0E0,0E0,0E0,0E0,0E0,0E0,0E0,0E0,0E0,0E0,0E0,0E0,0E0,0E0,0E0,0E0,0E0,0E0,0E0,0E0,0E0,0E0],"parents":[2147483647,0,0,1,1,2,2,3,3,4,4,5,5,6,6,7,7,8,8,9,9,10,10,12,12,13,13,14,14,15,15,16,16,17,17,18,18,19,19,20,20,21,21,22,22,23,23,24,24,25,25,26,26,27,27,28,28],"right_children":[2,4,6,8,10,12,14,16,18,20,22,-1,24,26,28,30,32,34,36,38,40,42,44,46,48,50,52,54,56,-1,-1,-1,-1,-1,-1,-1,-1,-1,-1,-1,-1,-1,-1,-1,-1,-1,-1,-1,-1,-1,-1,-1,-1,-1,-1,-1,-1],"split_conditions":[-1.5290238E-1,-2.650351E-2,1.1316113E-2,1.8307801E-2,-2.3448877E-1,-2.0385587E-1,2.0819543E-2,6.7386E-1,3.4081256E-1,6.6542355E-3,2.9982882E-2,-7.3131933E-3,7.202601E1,9.063337E-2,5.1862992E-2,-6.706036E-2,-1.1666342E-1,-2.130091E-1,-2.3061432E-1,2.708658E1,1.0961355E0,4.561547E-1,4.4582814E-2,2.2513907E-1,1.7884787E-2,-4.352838E-2,-1.0159905E-1,-3.6901046E-4,-2.4583442E-3,-3.6417649E-3,-1.2148047E-3,2.1199042E-3,-3.153815E-4,6.257787E-3,1.1633582E-3,-1.0044495E-2,8.947676E-5,-9.999758E-4,-6.874874E-3,3.9447714E-3,-4.321251E-3,-7.497312E-4,-4.8354086E-3,8.406097E-3,3.4527303E-4,1.5685762E-3,1.1187464E-4,3.7756432E-3,3.2815416E-5,4.0269257E-3,-2.982058E-3,-6.268987E-3,-1.1777602E-2,2.4929333E-3,-2.8940002E-3,-4.8704544E-5,5.3024525E-3],"split_indices":[10,28,25,24,5,5,17,21,5,25,17,0,13,24,7,27,7,28,10,12,14,11,5,11,26,28,22,24,23,0,0,0,0,0,0,0,0,0,0,0,0,0,0,0,0,0,0,0,0,0,0,0,0,0,0,0,0],"split_type":[0,0,0,0,0,0,0,0,0,0,0,0,0,0,0,0,0,0,0,0,0,0,0,0,0,0,0,0,0,0,0,0,0,0,0,0,0,0,0,0,0,0,0,0,0,0,0,0,0,0,0,0,0,0,0,0,0],"sum_hessian":[2.8834E4,1.4706E4,1.4128E4,9.544E3,5.162E3,1.1927E4,2.201E3,7.105E3,2.439E3,1.012E3,4.15E3,6.1E1,1.1866E4,1.296E3,9.05E2,2.19E3,4.915E3,2.333E3,1.06E2,7.42E2,2.7E2,3.826E3,3.24E2,1.0215E4,1.651E3,1.186E3,1.1E2,3.36E2,5.69E2,5.96E2,1.594E3,9.18E2,3.997E3,2.42E2,2.091E3,5.2E1,5.4E1,2.11E2,5.31E2,1.28E2,1.42E2,3.606E3,2.2E2,1.22E2,2.02E2,3.02E3,7.195E3,1.022E3,6.29E2,9.1E1,1.095E3,5.4E1,5.6E1,1.69E2,1.67E2,1.52E2,4.17E2],"tree_param":{"num_deleted":"0","num_feature":"29","num_nodes":"57","size_leaf_vector":"1"}},{"base_weights":[3.498047E-4,-9.027175E-3,1.0580514E-2,-1.651379E-2,1.3347439E-2,2.9489854E-2,2.0743837E-3,5.981884E-2,-1.8743161E-2,1.1061945E-1,-4.8703235E-3,3.887575E-2,-1.0692249E-2,-4.1932943E-3,4.098484E-2,7.556138E-3,1.3673633E-1,4.8426603E-4,-2.9865388E-2,1.3146906E-1,-1.3349553E-3,-4.4010073E-2,2.2549024E-2,-1.5815452E-2,4.6611432E-2,-7.88928E-2,2.9953232E-2,5.138304E-3,-4.0023703E-2,-8.797305E-3,6.8048134E-2,-1.9769205E-3,3.889701E-3,1.2049164E-2,1.6788322E-3,-4.9508404E-4,4.092562E-3,4.2796374E-4,-2.0820976E-3,8.98873E-3,4.5301667E-3,-5.0798855E-3,-7.943806E-4,3.6735411E-3,4.7078825E-5,-6.5559605E-3,3.7091537E-4,6.8890175E-4,2.765913E-3,-5.6236717E-3,2.6455421E-3,7.0783007E-3,1.9368339E-4,4.6762807E-4,-2.7152754E-3,2.203843E-3,-2.616868E-3,4.8028263E-3,-2.4730295E-3,-2.1038342E-3,3.9133723E-3],"categories":[],"categories_nodes":[],"categories_segments":[],"categories_sizes":[],"default_left":[0,0,0,0,0,0,0,0,0,0,0,0,0,0,0,0,0,0,0,0,0,0,0,0,0,0,0,0,0,0,0,0,0,0,0,0,0,0,0,0,0,0,0,0,0,0,0,0,0,0,0,0,0,0,0,0,0,0,0,0,0],"id":11,"left_children":[1,3,5,7,9,11,13,15,17,19,21,23,25,27,29,31,33,35,37,39,-1,41,43,45,47,49,51,53,55,57,59,-1,-1,-1,-1,-1,-1,-1,-1,-1,-1,-1,-1,-1,-1,-1,-1,-1,-1,-1,-1,-1,-1,-1,-1,-1,-1,-1,-1,-1,-1],"loss_changes":[2.756255E0,2.5113645E0,2.2099538E0,1.912684E0,6.6617813E0,1.6081846E0,2.3116493E0,1.2813201E0,2.3342066E0,1.7012911E0,3.3997736E0,1.4628801E0,2.2421749E0,2.7298796E0,1.7722573E0,6.348697E-1,1.3791852E0,3.3819475E0,3.129467E0,1.0003433E0,0E0,2.1118412E0,2.0497713E0,1.1502378E0,8.648658E-1,1.342618E0,1.4752336E0,1.6233217E0,1.7493389E0,1.9831085E0,9.621334E-1,0E0,0E0,0E0,0E0,0E0,0E0,0E0,0E0,0E0,0E0,0E0,0E0,0E0,0E0,0E0,0E0,0E0,0E0,0E0,0E0,0E0,0E0,0E0,0E0,0E0,0E0,0E0,0E0,0E0,0E0],"parents":[2147483647,0,0,1,1,2,2,3,3,4,4,5,5,6,6,7,7,8,8,9,9,10,10,11,11,12,12,13,13,14,14,15,15,16,16,17,17,18,18,19,19,21,21,22,22,23,23,24,24,25,25,26,26,27,27,28,28,29,29,30,30],"right_children":[2,4,6,8,10,12,14,16,18,20,22,24,26,28,30,32,34,36,38,40,-1,42,44,46,48,50,52,54,56,58,60,-1,-1,-1,-1,-1,-1,-1,-1,-1,-1,-1,-1,-1,-1,-1,-1,-1,-1,-1,-1,-1,-1,-1,-1,-1,-1,-1,-1,-1,-1],"split_conditions":[-1.4781006E-1,1.1316113E-2,5.0313505E-3,-1.5431531E-1,-3.732938E-1,1.7892728E-2,2.3590323E-2,-2.2699851E-1,2.2100547E-2,3.7991066E-2,1.9799335E-2,5.995998E-1,2.0045748E-2,1.1167993E-2,7.419555E-3,1.1460032E-2,-1.6600266E-3,2.7243353E-2,-1.4768853E-2,-2.3669161E-1,-1.3349553E-3,-5.327183E-3,1.3743365E-1,-6.112406E-2,-1.0791429E-2,8.571602E-2,2.1180233E-2,2.5929987E-1,2.6478815E1,3.7634457E1,-3.2544535E-2,-1.9769205E-3,3.889701E-3,1.2049164E-2,1.6788322E-3,-4.9508404E-4,4.092562E-3,4.2796374E-4,-2.0820976E-3,8.98873E-3,4.5301667E-3,-5.0798855E-3,-7.943806E-4,3.6735411E-3,4.7078825E-5,-6.5559605E-3,3.7091537E-4,6.8890175E-4,2.765913E-3,-5.6236717E-3,2.6455421E-3,7.0783007E-3,1.9368339E-4,4.6762807E-4,-2.7152754E-3,2.203843E-3,-2.616868E-3,4.8028263E-3,-2.4730295E-3,-2.1038342E-3,3.9133723E-3],"split_indices":[10,25,25,7,10,17,17,8,18,16,17,21,17,25,25,11,5,24,26,8,0,23,11,5,23,7,17,4,12,12,27,0,0,0,0,0,0,0,0,0,0,0,0,0,0,0,0,0,0,0,0,0,0,0,0,0,0,0,0,0,0],"split_type":[0,0,0,0,0,0,0,0,0,0,0,0,0,0,0,0,0,0,0,0,0,0,0,0,0,0,0,0,0,0,0,0,0,0,0,0,0,0,0,0,0,0,0,0,0,0,0,0,0,0,0,0,0,0,0,0,0,0,0,0,0],"sum_hessian":[2.8729E4,1.499E4,1.3739E4,1.1232E4,3.758E3,4.262E3,9.477E3,3.18E2,1.0914E4,5.92E2,3.166E3,3.455E3,8.07E2,8.163E3,1.314E3,1.9E2,1.28E2,4E3,6.914E3,5.14E2,7.8E1,1.304E3,1.862E3,4.28E2,3.027E3,3.01E2,5.06E2,6.477E3,1.686E3,4.63E2,8.51E2,1.14E2,7.6E1,6.3E1,6.5E1,3.548E3,4.52E2,1.622E3,5.292E3,2.34E2,2.8E2,4.27E2,8.77E2,5.54E2,1.308E3,7.1E1,3.57E2,6.35E2,2.392E3,2.4E2,6.1E1,9.5E1,4.11E2,6.049E3,4.28E2,2.15E2,1.471E3,1.29E2,3.34E2,7.2E1,7.79E2],"tree_param":{"num_deleted":"0","num_feature":"29","num_nodes":"61","size_leaf_vector":"1"}},{"base_weights":[2.5253042E-4,-2.2699706E-2,3.0805767E-3,-2.6291095E-2,6.9672926E-3,1.5476075E-2,-3.8535877E-3,-3.1146748E-2,7.239888E-2,-6.719826E-2,2.0936973E-2,-1.0779263E-2,2.4700455E-2,-2.2317948E-2,-8.2941115E-2,6.704361E-3,6.9081824E-4,-4.9278814E-2,-1.4659847E-1,2.6986284E-2,-5.333052E-3,-1.659023E-2,1.8885879E-2,7.1356535E-2,1.1074761E-2,-1.4463081E-3,3.0352224E-3,-6.4795213E-3,-2.3401494E-4,-3.1194005E-3,2.5266004E-3,-1.0635685E-2,-4.1313097E-3,1.1271088E-3,3.9221058E-3,6.2708976E-4,-2.2256896E-3,-7.661522E-4,-6.782528E-3,2.4813432E-3,-3.328564E-4,-1.1007887E-3,4.851172E-3,1.4078185E-4,5.2216873E-3],"categories":[],"categories_nodes":[],"categories_segments":[],"categories_sizes":[],"default_left":[0,0,0,0,0,0,0,0,0,0,0,0,0,0,0,0,0,0,0,0,0,0,0,0,0,0,0,0,0,0,0,0,0,0,0,0,0,0,0,0,0,0,0,0,0],"id":12,"left_children":[1,3,5,7,-1,9,11,13,15,17,19,21,23,25,27,-1,-1,29,31,33,35,37,39,41,43,-1,-1,-1,-1,-1,-1,-1,-1,-1,-1,-1,-1,-1,-1,-1,-1,-1,-1,-1,-1],"loss_changes":[1.8786948E0,1.8514136E0,2.2148817E0,1.4911425E0,0E0,4.174853E0,3.268185E0,1.3526189E0,5.2577066E-1,8.080449E-1,1.3782597E0,2.293009E0,2.0500472E0,1.3908864E0,1.5728936E0,0E0,0E0,6.168107E-1,4.265263E-1,1.6101627E0,1.1379261E0,1.675915E0,1.711319E0,1.7492411E0,1.9258223E0,0E0,0E0,0E0,0E0,0E0,0E0,0E0,0E0,0E0,0E0,0E0,0E0,0E0,0E0,0E0,0E0,0E0,0E0,0E0,0E0],"parents":[2147483647,0,0,1,1,2,2,3,3,5,5,6,6,7,7,8,8,9,9,10,10,11,11,12,12,13,13,14,14,17,17,18,18,19,19,20,20,21,21,22,22,23,23,24,24],"right_children":[2,4,6,8,-1,10,12,14,16,18,20,22,24,26,28,-1,-1,30,32,34,36,38,40,42,44,-1,-1,-1,-1,-1,-1,-1,-1,-1,-1,-1,-1,-1,-1,-1,-1,-1,-1,-1,-1],"split_conditions":[5.021893E-1,3.9227855E-1,2.1880267E-2,4.6880513E-2,6.9672926E-3,-1.9420367E-2,3.8291607E-2,7.024128E-1,1.9839609E-2,8.6349785E-2,2.6169416E-2,2.8685746E-1,-1.602893E-1,4.136608E-2,1.9140258E-2,6.704361E-3,6.9081824E-4,1.7740201E-2,6.5258807E-3,7.5117386E1,1.2201914E0,4.01331E0,1.1460682E-1,-2.5826633E-1,1.6557318E-1,-1.4463081E-3,3.0352224E-3,-6.4795213E-3,-2.3401494E-4,-3.1194005E-3,2.5266004E-3,-1.0635685E-2,-4.1313097E-3,1.1271088E-3,3.9221058E-3,6.2708976E-4,-2.2256896E-3,-7.661522E-4,-6.782528E-3,2.4813432E-3,-3.328564E-4,-1.1007887E-3,4.851172E-3,1.4078185E-4,5.2216873E-3],"split_indices":[21,28,18,26,0,26,18,14,16,28,26,5,4,7,26,0,0,7,2,13,14,21,8,28,2,0,0,0,0,0,0,0,0,0,0,0,0,0,0,0,0,0,0,0,0],"split_type":[0,0,0,0,0,0,0,0,0,0,0,0,0,0,0,0,0,0,0,0,0,0,0,0,0,0,0,0,0,0,0,0,0,0,0,0,0,0,0,0,0,0,0,0,0],"sum_hessian":[2.8941E4,3.174E3,2.5767E4,3.106E3,6.8E1,9.243E3,1.6524E4,2.961E3,1.45E2,5.72E2,8.671E3,1.3299E4,3.225E3,2.531E3,4.3E2,7E1,7.5E1,4.68E2,1.04E2,7.048E3,1.623E3,1.1121E4,2.178E3,7.28E2,2.497E3,2.345E3,1.86E2,2.69E2,1.61E2,4.14E2,5.4E1,5E1,5.4E1,6.489E3,5.59E2,1.115E3,5.08E2,1.1005E4,1.16E2,9.88E2,1.19E3,1.57E2,5.71E2,2.295E3,2.02E2],"tree_param":{"num_deleted":"0","num_feature":"29","num_nodes":"45","size_leaf_vector":"1"}},{"base_weights":[2.82182E-4,1.2647775E-2,-6.6276644E-3,-6.525577E-2,1.7068574E-2,-1.101775E-2,2.344165E-2,-8.34732E-2,1.4375292E-3,-2.6043773E-2,2.1918917E-2,-2.410673E-2,1.0485764E-3,1.8163634E-2,1.28677515E-2,-5.2482117E-2,-1.3286962E-1,-9.865486E-2,-1.4081807E-2,2.533599E-2,-2.5529992E-2,-2.9218495E-2,6.0309134E-2,-1.0574092E-2,2.8880645E-2,5.9865497E-2,-1.0462577E-2,-3.5487164E-3,3.6195858E-4,-8.2436865E-3,-2.6836758E-3,-8.044689E-3,-2.4280162E-3,-1.1594148E-3,5.6668273E-3,-1.9885083E-3,1.3878916E-3,-2.0779227E-3,5.367708E-3,-1.2343533E-3,-5.222859E-3,9.115378E-3,1.5416896E-3,-4.409876E-4,-8.829239E-3,3.1573393E-3,6.73524E-5,-2.5964729E-3,3.737213E-3,-5.936945E-3,1.07733336E-4],"categories":[],"categories_nodes":[],"categories_segments":[],"categories_sizes":[],"default_left":[0,0,0,0,0,0,0,0,0,0,0,0,0,0,0,0,0,0,0,0,0,0,0,0,0,0,0,0,0,0,0,0,0,0,0,0,0,0,0,0,0,0,0,0,0,0,0,0,0,0,0],"id":13,"left_children":[1,3,5,7,9,11,13,15,-1,17,19,21,23,25,-1,27,29,31,33,35,37,39,41,43,45,47,49,-1,-1,-1,-1,-1,-1,-1,-1,-1,-1,-1,-1,-1,-1,-1,-1,-1,-1,-1,-1,-1,-1,-1,-1],"loss_changes":[2.4669478E0,3.5656104E0,2.4452896E0,9.5458007E-1,2.0488E0,2.5527425E0,2.908978E0,7.0640206E-1,0E0,8.5936487E-1,1.4282575E0,3.3472915E0,2.72112E0,2.7570326E0,0E0,3.185748E-1,4.4484425E-1,4.2868304E-1,9.9123234E-1,1.2962608E0,1.265379E0,2.490025E0,1.5873826E0,1.7266554E0,2.3378334E0,1.5674503E0,1.8718797E0,0E0,0E0,0E0,0E0,0E0,0E0,0E0,0E0,0E0,0E0,0E0,0E0,0E0,0E0,0E0,0E0,0E0,0E0,0E0,0E0,0E0,0E0,0E0,0E0],"parents":[2147483647,0,0,1,1,2,2,3,3,4,4,5,5,6,6,7,7,9,9,10,10,11,11,12,12,13,13,15,15,16,16,17,17,18,18,19,19,20,20,21,21,22,22,23,23,24,24,25,25,26,26],"right_children":[2,4,6,8,10,12,14,16,-1,18,20,22,24,26,-1,28,30,32,34,36,38,40,42,44,46,48,50,-1,-1,-1,-1,-1,-1,-1,-1,-1,-1,-1,-1,-1,-1,-1,-1,-1,-1,-1,-1,-1,-1,-1,-1],"split_conditions":[2.1942047E-2,-2.0714886E-2,4.101692E-2,3.867086E-2,5.077852E-1,1.8760217E-3,1.6173363E0,-9.092958E-1,1.4375292E-3,-3.8378164E-2,1.1167993E-2,3.829852E-2,1.8351246E-1,-9.0513095E-2,1.28677515E-2,-1.45109715E-2,1.1784872E-2,-5.8953308E-2,3.3386517E-2,-2.095494E-2,6.362292E-2,1.1996694E-1,-9.785134E-2,8.422146E-1,2.7551805E-3,-2.735893E-1,-1.8721011E-1,-3.5487164E-3,3.6195858E-4,-8.2436865E-3,-2.6836758E-3,-8.044689E-3,-2.4280162E-3,-1.1594148E-3,5.6668273E-3,-1.9885083E-3,1.3878916E-3,-2.0779227E-3,5.367708E-3,-1.2343533E-3,-5.222859E-3,9.115378E-3,1.5416896E-3,-4.409876E-4,-8.829239E-3,3.1573393E-3,6.73524E-5,-2.5964729E-3,3.737213E-3,-5.936945E-3,1.07733336E-4],"split_indices":[18,26,18,3,21,9,11,14,0,9,25,26,5,8,0,23,1,27,24,23,9,8,27,11,26,28,5,0,0,0,0,0,0,0,0,0,0,0,0,0,0,0,0,0,0,0,0,0,0,0,0],"split_type":[0,0,0,0,0,0,0,0,0,0,0,0,0,0,0,0,0,0,0,0,0,0,0,0,0,0,0,0,0,0,0,0,0,0,0,0,0,0,0,0,0,0,0,0,0,0,0,0,0,0,0],"sum_hessian":[2.887E4,1.0349E4,1.8521E4,5.55E2,9.794E3,1.6162E4,2.359E3,4.65E2,9E1,9.9E2,8.804E3,7.752E3,8.41E3,2.308E3,5.1E1,2.87E2,1.78E2,1.39E2,8.51E2,8.213E3,5.91E2,7.31E3,4.42E2,5.933E3,2.477E3,9.39E2,1.369E3,2.19E2,6.8E1,1.26E2,5.2E1,6.1E1,7.8E1,7.95E2,5.6E1,2.94E2,7.919E3,5.28E2,6.3E1,6.896E3,4.14E2,8.5E1,3.57E2,5.872E3,6.1E1,1.103E3,1.374E3,1.1E2,8.29E2,1.42E2,1.227E3],"tree_param":{"num_deleted":"0","num_feature":"29","num_nodes":"51","size_leaf_vector":"1"}},{"base_weights":[1.1560627E-3,-6.6621252E-3,9.239649E-3,-2.4230242E-2,1.6354761E-3,1.021506E-2,-1.1834479E-1,-1.0915529E-2,-1.0479879E-1,-1.2916349E-2,2.3105863E-2,-8.247818E-3,1.0899425E-2,-1.0063828E-2,-1.0854873E-3,-7.6817706E-2,-2.7798142E-3,-1.18724465E-1,2.9647239E-3,1.2798642E-2,-3.9594643E-2,-5.4580453E-3,4.4321485E-2,5.873493E-3,3.79542E-2,2.4512259E-3,-5.2903234E-3,3.040609E-3,-4.1381182E-4,-3.2921582E-3,-8.109011E-3,1.8120393E-3,-1.2305725E-3,5.354596E-3,-2.2929062E-3,7.0261623E-4,-3.728967E-3,3.7195552E-3,8.387443E-4,4.8969215E-4,-1.2977432E-3,1.0272551E-3,3.6491228E-3],"categories":[],"categories_nodes":[],"categories_segments":[],"categories_sizes":[],"default_left":[0,0,0,0,0,0,0,0,0,0,0,0,0,0,0,0,0,0,0,0,0,0,0,0,0,0,0,0,0,0,0,0,0,0,0,0,0,0,0,0,0,0,0],"id":14,"left_children":[1,3,5,7,9,11,13,15,17,19,21,-1,23,-1,-1,25,27,29,-1,31,33,35,37,39,41,-1,-1,-1,-1,-1,-1,-1,-1,-1,-1,-1,-1,-1,-1,-1,-1,-1,-1],"loss_changes":[1.8284085E0,2.1439261E0,1.7713472E0,5.060077E0,3.1215072E0,1.6941583E0,8.611547E-1,2.1712399E0,1.5357785E0,4.085828E0,2.4460626E0,0E0,1.9119997E0,0E0,0E0,1.628551E0,1.2609028E0,1.4071846E0,0E0,2.66075E0,2.6904702E0,2.3219576E0,1.9171314E0,1.4802495E0,1.3419127E0,0E0,0E0,0E0,0E0,0E0,0E0,0E0,0E0,0E0,0E0,0E0,0E0,0E0,0E0,0E0,0E0,0E0,0E0],"parents":[2147483647,0,0,1,1,2,2,3,3,4,4,5,5,6,6,7,7,8,8,9,9,10,10,12,12,15,15,16,16,17,17,19,19,20,20,21,21,22,22,23,23,24,24],"right_children":[2,4,6,8,10,12,14,16,18,20,22,-1,24,-1,-1,26,28,30,-1,32,34,36,38,40,42,-1,-1,-1,-1,-1,-1,-1,-1,-1,-1,-1,-1,-1,-1,-1,-1,-1,-1],"split_conditions":[-1.5290238E-1,5.214045E-3,4.649799E-1,2.224896E-2,2.057281E-2,-2.0385587E-1,2.9902145E-2,-3.0656156E-1,4.3838215E-1,7.939498E-3,1.1167993E-2,-8.247818E-3,7.1034325E1,-1.0063828E-2,-1.0854873E-3,-4.1191168E-2,-5.700955E-2,3.0555527E1,2.9647239E-3,-1.0797278E-2,-9.490007E-2,6.966913E1,-2.857929E-1,4.0478166E-2,1.9100796E-2,2.4512259E-3,-5.2903234E-3,3.040609E-3,-4.1381182E-4,-3.2921582E-3,-8.109011E-3,1.8120393E-3,-1.2305725E-3,5.354596E-3,-2.2929062E-3,7.0261623E-4,-3.728967E-3,3.7195552E-3,8.387443E-4,4.8969215E-4,-1.2977432E-3,1.0272551E-3,3.6491228E-3],"split_indices":[10,25,8,17,17,5,16,5,5,25,25,0,13,0,0,6,1,12,0,4,9,12,10,1,16,0,0,0,0,0,0,0,0,0,0,0,0,0,0,0,0,0,0],"split_type":[0,0,0,0,0,0,0,0,0,0,0,0,0,0,0,0,0,0,0,0,0,0,0,0,0,0,0,0,0,0,0,0,0,0,0,0,0,0,0,0,0,0,0],"sum_hessian":[2.8929E4,1.4706E4,1.4223E4,4.717E3,9.989E3,1.4116E4,1.07E2,4.049E3,6.68E2,5.954E3,4.035E3,5.4E1,1.4062E4,5.7E1,5E1,4.44E2,3.605E3,6.16E2,5.2E1,3.032E3,2.922E3,1.72E3,2.315E3,1.186E4,2.202E3,8.3E1,3.61E2,2.86E2,3.319E3,2.79E2,3.37E2,1.864E3,1.168E3,1.19E2,2.803E3,1.342E3,3.78E2,1.106E3,1.209E3,1.056E4,1.3E3,1.472E3,7.3E2],"tree_param":{"num_deleted":"0","num_feature":"29","num_nodes":"43","size_leaf_vector":"1"}},{"base_weights":[-8.0012355E-4,-3.906508E-3,2.0213231E-2,7.714684E-3,-1.1595201E-2,3.2474924E-2,-2.7650096E-2,-6.4836115E-2,1.1200439E-2,-3.7570316E-2,-4.062889E-3,-9.792447E-3,4.9021512E-2,8.487759E-2,-5.0574813E-2,-8.028396E-2,1.1188695E-3,-3.5404198E-2,1.654445E-2,-2.1103185E-2,-1.1765893E-1,-1.7133188E-2,1.4756687E-2,3.0113999E-2,-6.330896E-2,1.452279E-2,8.817234E-2,9.484444E-3,-1.9408445E-3,-6.432534E-3,-3.77084E-2,-2.455094E-3,-6.2736766E-3,-1.0921148E-3,-5.924227E-3,1.79703E-3,2.571958E-4,2.3888263E-3,-1.6235212E-3,-8.391022E-3,-2.775762E-3,-1.0498946E-4,-2.1749493E-3,-7.967722E-4,2.0180475E-3,2.6805217E-3,-4.2148456E-3,2.749518E-3,-5.916025E-3,-9.177705E-3,1.220202E-3,3.5875493E-3,1.0807355E-2,-3.0190058E-4,-4.586143E-3],"categories":[],"categories_nodes":[],"categories_segments":[],"categories_sizes":[],"default_left":[0,0,0,0,0,0,0,0,0,0,0,0,0,0,0,0,0,0,0,0,0,0,0,0,0,0,0,0,0,0,0,0,0,0,0,0,0,0,0,0,0,0,0,0,0,0,0,0,0,0,0,0,0,0,0],"id":15,"left_children":[1,3,5,7,9,11,13,15,17,19,21,23,25,27,29,31,-1,33,35,37,39,41,43,45,47,49,51,-1,-1,-1,53,-1,-1,-1,-1,-1,-1,-1,-1,-1,-1,-1,-1,-1,-1,-1,-1,-1,-1,-1,-1,-1,-1,-1,-1],"loss_changes":[1.8874564E0,2.25095E0,2.186459E0,2.5375094E0,2.9661376E0,2.074144E0,1.9648383E0,6.215365E-1,2.3845468E0,4.492089E0,2.8914719E0,1.7851775E0,2.8769622E0,1.6797937E0,6.3002837E-1,5.447991E-1,0E0,1.1072383E0,1.8988492E0,2.2157967E0,1.8017893E0,2.7495108E0,3.7868652E0,1.2921903E0,2.3298006E0,2.2239974E0,2.0818071E0,0E0,0E0,0E0,9.300446E-1,0E0,0E0,0E0,0E0,0E0,0E0,0E0,0E0,0E0,0E0,0E0,0E0,0E0,0E0,0E0,0E0,0E0,0E0,0E0,0E0,0E0,0E0,0E0,0E0],"parents":[2147483647,0,0,1,1,2,2,3,3,4,4,5,5,6,6,7,7,8,8,9,9,10,10,11,11,12,12,13,13,14,14,15,15,17,17,18,18,19,19,20,20,21,21,22,22,23,23,24,24,25,25,26,26,30,30],"right_children":[2,4,6,8,10,12,14,16,18,20,22,24,26,28,30,32,-1,34,36,38,40,42,44,46,48,50,52,-1,-1,-1,54,-1,-1,-1,-1,-1,-1,-1,-1,-1,-1,-1,-1,-1,-1,-1,-1,-1,-1,-1,-1,-1,-1,-1,-1],"split_conditions":[3.188246E-1,2.2100547E-2,3.96051E-2,-2.1403125E-2,5.105133E-3,-1.3149866E-2,-8.238727E-3,3.867086E-2,5.077852E-1,2.224896E-2,2.057281E-2,-1.5809016E-3,3.0481827E-2,2.2003097E-3,7.077021E-1,-1.1389517E0,1.1188695E-3,3.405346E-1,-6.573677E-3,2.741954E1,2.4659699E-2,1.0922533E-2,1.1167993E-2,4.4501998E-2,1.7305622E-2,-2.7188888E-2,3.4723666E-2,9.484444E-3,-1.9408445E-3,-6.432534E-3,1.4406527E0,-2.455094E-3,-6.2736766E-3,-1.0921148E-3,-5.924227E-3,1.79703E-3,2.571958E-4,2.3888263E-3,-1.6235212E-3,-8.391022E-3,-2.775762E-3,-1.0498946E-4,-2.1749493E-3,-7.967722E-4,2.0180475E-3,2.6805217E-3,-4.2148456E-3,2.749518E-3,-5.916025E-3,-9.177705E-3,1.220202E-3,3.5875493E-3,1.0807355E-2,-3.0190058E-4,-4.586143E-3],"split_indices":[5,18,1,26,25,4,28,3,21,17,17,23,18,20,21,14,0,11,9,13,16,25,25,18,17,23,17,0,0,0,21,0,0,0,0,0,0,0,0,0,0,0,0,0,0,0,0,0,0,0,0,0,0,0,0],"split_type":[0,0,0,0,0,0,0,0,0,0,0,0,0,0,0,0,0,0,0,0,0,0,0,0,0,0,0,0,0,0,0,0,0,0,0,0,0,0,0,0,0,0,0,0,0,0,0,0,0,0,0,0,0,0,0],"sum_hessian":[2.8913E4,2.519E4,3.723E3,1.003E4,1.516E4,2.964E3,7.59E2,4.59E2,9.571E3,3.407E3,1.1753E4,8.34E2,2.13E3,1.28E2,6.31E2,3.9E2,6.9E1,9.84E2,8.587E3,2.827E3,5.8E2,6.936E3,4.817E3,4.78E2,3.56E2,1.133E3,9.97E2,6.9E1,5.9E1,8.8E1,5.43E2,2.32E2,1.58E2,8.47E2,1.37E2,3.178E3,5.409E3,4E2,2.427E3,3.2E2,2.6E2,4.418E3,2.518E3,2.191E3,2.626E3,3.97E2,8.1E1,1.13E2,2.43E2,5.3E1,1.08E3,8.85E2,1.12E2,3.43E2,2E2],"tree_param":{"num_deleted":"0","num_feature":"29","num_nodes":"55","size_leaf_vector":"1"}},{"base_weights":[-3.9079992E-4,-7.6003685E-3,6.7686494E-3,3.9284132E-2,-1.034254E-2,-7.061778E-2,8.445043E-3,6.743414E-2,-1.7163575E-2,-9.058762E-3,-1.1500499E-1,-1.269826E-1,-1.1172359E-2,3.0167147E-3,2.8156903E-2,2.4967708E-2,1.395219E-1,1.918509E-2,-7.3924097E-3,-1.5932688E-2,8.06601E-3,-3.2429688E-3,-9.19164E-3,-3.642217E-3,-8.942842E-3,1.7889912E-3,-3.6922083E-3,1.8041246E-2,-5.4319804E-3,9.945544E-2,2.025332E-2,7.392148E-3,-4.850245E-4,9.720134E-3,4.0469817E-3,3.5199001E-3,-3.5681897E-3,-7.958904E-3,-7.5455237E-4,1.128138E-3,-1.5656017E-3,1.4050783E-3,-5.6902267E-4,-4.1018407E-6,-1.9839653E-3,-2.8210916E-3,6.506031E-3,-3.5108794E-3,1.2462869E-3],"categories":[],"categories_nodes":[],"categories_segments":[],"categories_sizes":[],"default_left":[0,0,0,0,0,0,0,0,0,0,0,0,0,0,0,0,0,0,0,0,0,0,0,0,0,0,0,0,0,0,0,0,0,0,0,0,0,0,0,0,0,0,0,0,0,0,0,0,0],"id":16,"left_children":[1,3,5,7,9,11,13,15,17,19,21,23,25,27,29,31,33,35,-1,37,39,-1,-1,-1,-1,-1,-1,41,43,45,47,-1,-1,-1,-1,-1,-1,-1,-1,-1,-1,-1,-1,-1,-1,-1,-1,-1,-1],"loss_changes":[1.4938341E0,1.8543186E0,1.8844069E0,1.2675935E0,1.8295237E0,1.0305754E0,1.5208479E0,1.625133E0,1.2663928E0,1.5845644E0,5.5755997E-1,4.3069553E-1,4.4697142E-1,1.4149454E0,1.7274101E0,1.4327483E0,6.1762786E-1,9.7421366E-1,0E0,1.1555886E0,2.2019184E0,0E0,0E0,0E0,0E0,0E0,0E0,1.1878387E0,1.3072802E0,1.4700227E0,1.1701427E0,0E0,0E0,0E0,0E0,0E0,0E0,0E0,0E0,0E0,0E0,0E0,0E0,0E0,0E0,0E0,0E0,0E0,0E0],"parents":[2147483647,0,0,1,1,2,2,3,3,4,4,5,5,6,6,7,7,8,8,9,9,10,10,11,11,12,12,13,13,14,14,15,15,16,16,17,17,19,19,20,20,27,27,28,28,29,29,30,30],"right_children":[2,4,6,8,10,12,14,16,18,20,22,24,26,28,30,32,34,36,-1,38,40,-1,-1,-1,-1,-1,-1,42,44,46,48,-1,-1,-1,-1,-1,-1,-1,-1,-1,-1,-1,-1,-1,-1,-1,-1,-1,-1],"split_conditions":[-1.5814714E-1,-1.3554122E-1,-4.2847108E-2,-8.618995E-3,4.2795997E0,3.2714643E-2,6.775065E1,2.529346E1,-2.839448E-1,1.8272197E-2,2.3294609E0,4.1518663E-3,-1.15690805E-1,-4.868944E-3,1.9183941E-3,1.5693726E-2,-1.349091E0,1.3710024E0,-7.3924097E-3,-1.1072415E-1,2.5275009E-2,-3.2429688E-3,-9.19164E-3,-3.642217E-3,-8.942842E-3,1.7889912E-3,-3.6922083E-3,2.0175776E-1,1.8139346E-1,-1.3862782E-2,-1.8526513E-2,7.392148E-3,-4.850245E-4,9.720134E-3,4.0469817E-3,3.5199001E-3,-3.5681897E-3,-7.958904E-3,-7.5455237E-4,1.128138E-3,-1.5656017E-3,1.4050783E-3,-5.6902267E-4,-4.1018407E-6,-1.9839653E-3,-2.8210916E-3,6.506031E-3,-3.5108794E-3,1.2462869E-3],"split_indices":[10,7,9,24,22,18,13,13,10,24,21,0,10,0,4,16,14,21,0,9,27,0,0,0,0,0,0,22,8,8,24,0,0,0,0,0,0,0,0,0,0,0,0,0,0,0,0,0,0],"split_type":[0,0,0,0,0,0,0,0,0,0,0,0,0,0,0,0,0,0,0,0,0,0,0,0,0,0,0,0,0,0,0,0,0,0,0,0,0,0,0,0,0,0,0,0,0,0,0,0,0],"sum_hessian":[2.8939E4,1.4419E4,1.452E4,7.96E2,1.3623E4,3.07E2,1.4213E4,5.31E2,2.65E2,1.3459E4,1.64E2,1.57E2,1.5E2,1.1145E4,3.068E3,3.35E2,1.96E2,2.08E2,5.7E1,9.604E3,3.855E3,9.6E1,6.8E1,7.8E1,7.9E1,8.6E1,6.4E1,4.011E3,7.134E3,3.05E2,2.763E3,7.3E1,2.62E2,1E2,9.6E1,1.33E2,7.5E1,5.5E1,9.549E3,2.818E3,1.037E3,2.989E3,1.022E3,6.171E3,9.63E2,5E1,2.55E2,1.35E2,2.628E3],"tree_param":{"num_deleted":"0","num_feature":"29","num_nodes":"49","size_leaf_vector":"1"}},{"base_weights":[1.1267887E-3,-3.1344998E-3,1.5619039E-2,5.457586E-2,-4.4810898E-3,1.1127825E-2,6.225664E-2,-4.441146E-2,9.2457704E-2,-7.877152E-3,1.7298806E-2,1.8194571E-2,-4.4549875E-2,1.3699691E-1,-1.4545029E-2,1.9780311E-3,-5.446734E-3,4.1622233E-2,1.2780276E-1,-1.035428E-2,3.6356274E-2,4.6433996E-2,-5.130079E-3,2.2328228E-2,-4.924622E-2,-6.757501E-2,8.1852555E-2,9.004719E-2,1.4337375E-2,-9.706704E-2,1.270598E-1,4.4522216E-3,-2.1816136E-3,8.335065E-3,2.3007088E-3,-1.1755873E-4,-1.293495E-3,-1.9417999E-4,4.3860753E-3,7.058353E-3,1.5865964E-3,-6.4066215E-4,5.0485414E-3,5.636517E-4,2.2897644E-3,4.9915365E-3,-4.18866E-3,4.050156E-3,-4.3116976E-3,-5.5482425E-4,8.75075E-3,1.977044E-3,1.1176525E-2,-2.0151574E-3,-9.182198E-3,1.1191151E-2,1.3949615E-3],"categories":[],"categories_nodes":[],"categories_segments":[],"categories_sizes":[],"default_left":[0,0,0,0,0,0,0,0,0,0,0,0,0,0,0,0,0,0,0,0,0,0,0,0,0,0,0,0,0,0,0,0,0,0,0,0,0,0,0,0,0,0,0,0,0,0,0,0,0,0,0,0,0,0,0,0,0],"id":17,"left_children":[1,3,5,7,9,11,13,15,17,19,21,23,25,27,29,-1,-1,31,33,35,37,39,41,43,45,47,49,51,-1,53,55,-1,-1,-1,-1,-1,-1,-1,-1,-1,-1,-1,-1,-1,-1,-1,-1,-1,-1,-1,-1,-1,-1,-1,-1,-1,-1],"loss_changes":[1.7766356E0,1.7279421E0,1.3685436E0,1.905266E0,1.6071196E0,2.3474069E0,3.2968543E0,7.682686E-1,6.540997E-1,2.059888E0,1.9155582E0,1.4766673E0,1.9613422E0,2.0201273E0,3.3310196E0,0E0,0E0,6.184145E-1,6.795242E-1,2.2102203E0,2.0610704E0,1.7713051E0,1.3520646E0,1.2935352E0,1.5833989E0,1.5844297E0,9.0251535E-1,1.4945713E0,0E0,8.771981E-1,1.0012408E0,0E0,0E0,0E0,0E0,0E0,0E0,0E0,0E0,0E0,0E0,0E0,0E0,0E0,0E0,0E0,0E0,0E0,0E0,0E0,0E0,0E0,0E0,0E0,0E0,0E0,0E0],"parents":[2147483647,0,0,1,1,2,2,3,3,4,4,5,5,6,6,7,7,8,8,9,9,10,10,11,11,12,12,13,13,14,14,17,17,18,18,19,19,20,20,21,21,22,22,23,23,24,24,25,25,26,26,27,27,29,29,30,30],"right_children":[2,4,6,8,10,12,14,16,18,20,22,24,26,28,30,-1,-1,32,34,36,38,40,42,44,46,48,50,52,-1,54,56,-1,-1,-1,-1,-1,-1,-1,-1,-1,-1,-1,-1,-1,-1,-1,-1,-1,-1,-1,-1,-1,-1,-1,-1,-1,-1],"split_conditions":[-6.131379E-2,7.4987723E-3,2.4138538E-2,8.9636315E-3,3.8291607E-2,1.1167993E-2,4.328494E-2,8.038176E-3,6.6291666E-1,3.7620673E-1,-1.4674806E-2,2.1956984E-2,2.1390215E-2,6.962854E-1,1.1450707E-2,1.9780311E-3,-5.446734E-3,7.1544237E-3,9.738903E-1,2.1987983E-3,-2.3841455E-3,-1.02929704E-1,1.7875412E-1,3.5169806E-2,4.7882473E-1,1.4604047E-2,9.707889E-2,1.1560639E0,1.4337375E-2,9.1549255E1,4.0643808E-1,4.4522216E-3,-2.1816136E-3,8.335065E-3,2.3007088E-3,-1.1755873E-4,-1.293495E-3,-1.9417999E-4,4.3860753E-3,7.058353E-3,1.5865964E-3,-6.4066215E-4,5.0485414E-3,5.636517E-4,2.2897644E-3,4.9915365E-3,-4.18866E-3,4.050156E-3,-4.3116976E-3,-5.5482425E-4,8.75075E-3,1.977044E-3,1.1176525E-2,-2.0151574E-3,-9.182198E-3,1.1191151E-2,1.3949615E-3],"split_indices":[10,16,17,17,18,25,1,17,21,5,26,17,17,5,25,0,0,16,21,28,9,27,7,9,21,7,7,14,0,12,5,0,0,0,0,0,0,0,0,0,0,0,0,0,0,0,0,0,0,0,0,0,0,0,0,0,0],"split_type":[0,0,0,0,0,0,0,0,0,0,0,0,0,0,0,0,0,0,0,0,0,0,0,0,0,0,0,0,0,0,0,0,0,0,0,0,0,0,0,0,0,0,0,0,0,0,0,0,0,0,0,0,0,0,0,0,0],"sum_hessian":[2.8767E4,2.2231E4,6.536E3,5.06E2,2.1725E4,5.963E3,5.73E2,1.4E2,3.66E2,1.8795E4,2.93E3,5.292E3,6.71E2,2.9E2,2.83E2,6.1E1,7.9E1,1.51E2,2.15E2,1.7799E4,9.96E2,1.274E3,1.656E3,4.987E3,3.05E2,5.68E2,1.03E2,2.22E2,6.8E1,1.79E2,1.04E2,9.7E1,5.4E1,1.45E2,7E1,1.1743E4,6.056E3,5.59E2,4.37E2,1.7E2,1.104E3,1.545E3,1.11E2,3.391E3,1.596E3,5.7E1,2.48E2,6.3E1,5.05E2,5.2E1,5.1E1,1.62E2,6E1,1.09E2,7E1,5.2E1,5.2E1],"tree_param":{"num_deleted":"0","num_feature":"29","num_nodes":"57","size_leaf_vector":"1"}},{"base_weights":[-2.006532E-4,-1.0581567E-2,5.9357095E-3,-3.5428258E-3,-3.3478312E-2,4.856037E-3,9.589596E-2,-1.1889508E-2,1.9074857E-2,-6.496654E-2,-1.791869E-2,3.6290906E-2,2.5144531E-3,1.2956963E-1,-1.3141478E-4,-2.1842187E-3,-4.040689E-2,4.3612752E-2,-1.0389503E-2,-4.518522E-2,-1.0770488E-2,-8.644967E-3,-1.1140372E-2,7.745281E-2,1.1211976E-3,-3.2199025E-3,1.7614461E-2,3.439122E-3,1.1151786E-2,-1.3023631E-3,8.364034E-4,-4.4813226E-3,4.789618E-4,3.2688268E-3,-9.5530803E-4,1.9339401E-3,-1.8579304E-3,-3.8605356E-3,2.5394913E-3,-9.518356E-4,5.001167E-3,8.165268E-3,2.9074631E-3,7.9579506E-4,-6.7705275E-3,2.7373154E-4,-2.1947252E-3,3.1782724E-3,2.306985E-4],"categories":[],"categories_nodes":[],"categories_segments":[],"categories_sizes":[],"default_left":[0,0,0,0,0,0,0,0,0,0,0,0,0,0,0,0,0,0,0,0,0,0,0,0,0,0,0,0,0,0,0,0,0,0,0,0,0,0,0,0,0,0,0,0,0,0,0,0,0],"id":18,"left_children":[1,3,5,7,9,11,13,15,17,19,21,23,25,27,-1,29,31,33,35,37,-1,-1,39,41,43,45,47,-1,-1,-1,-1,-1,-1,-1,-1,-1,-1,-1,-1,-1,-1,-1,-1,-1,-1,-1,-1,-1,-1],"loss_changes":[1.8465016E0,1.7354592E0,1.7690055E0,1.5554178E0,1.2393765E0,1.3250623E0,7.1695817E-1,1.6655104E0,1.6062214E0,2.48115E0,1.7797358E0,1.806583E0,1.4509389E0,8.993871E-1,0E0,2.027245E0,3.7601895E0,1.6556301E0,1.3280871E0,2.2814946E0,0E0,0E0,1.4291849E0,9.4342756E-1,1.3635991E0,4.2952795E0,2.754848E0,0E0,0E0,0E0,0E0,0E0,0E0,0E0,0E0,0E0,0E0,0E0,0E0,0E0,0E0,0E0,0E0,0E0,0E0,0E0,0E0,0E0,0E0],"parents":[2147483647,0,0,1,1,2,2,3,3,4,4,5,5,6,6,7,7,8,8,9,9,10,10,11,11,12,12,13,13,15,15,16,16,17,17,18,18,19,19,22,22,23,23,24,24,25,25,26,26],"right_children":[2,4,6,8,10,12,14,16,18,20,22,24,26,28,-1,30,32,34,36,38,-1,-1,40,42,44,46,48,-1,-1,-1,-1,-1,-1,-1,-1,-1,-1,-1,-1,-1,-1,-1,-1,-1,-1,-1,-1,-1,-1],"split_conditions":[-7.469514E-2,2.4156932E-2,1.21907614E-1,1.8272197E-2,-2.0385587E-1,1.544261E-2,5.1347333E-1,6.337114E-3,-1.6543841E-1,1.8746517E0,-3.2171555E-2,5.015597E-3,2.0819543E-2,5.0273698E-2,-1.3141478E-4,5.0084456E-3,9.821807E-3,2.369645E-2,-8.102644E-3,1.1167993E-2,-1.0770488E-2,-8.644967E-3,2.7124338E-2,-3.1199131E-2,8.465046E-2,1.1167993E-2,-1.8625552E-2,3.439122E-3,1.1151786E-2,-1.3023631E-3,8.364034E-4,-4.4813226E-3,4.789618E-4,3.2688268E-3,-9.5530803E-4,1.9339401E-3,-1.8579304E-3,-3.8605356E-3,2.5394913E-3,-9.518356E-4,5.001167E-3,8.165268E-3,2.9074631E-3,7.9579506E-4,-6.7705275E-3,2.7373154E-4,-2.1947252E-3,3.1782724E-3,2.306985E-4],"split_indices":[5,28,6,24,5,18,5,25,5,14,26,25,17,9,0,25,25,17,9,25,0,0,17,3,28,25,26,0,0,0,0,0,0,0,0,0,0,0,0,0,0,0,0,0,0,0,0,0,0],"split_type":[0,0,0,0,0,0,0,0,0,0,0,0,0,0,0,0,0,0,0,0,0,0,0,0,0,0,0,0,0,0,0,0,0,0,0,0,0,0,0,0,0,0,0,0,0,0,0,0,0],"sum_hessian":[2.8985E4,1.0768E4,1.8217E4,8.237E3,2.531E3,1.8002E4,2.15E2,6.017E3,2.22E3,8.36E2,1.695E3,1.247E3,1.6755E4,1.6E2,5.5E1,4.49E3,1.527E3,1.211E3,1.009E3,7.4E2,9.6E1,7E1,1.625E3,5.74E2,6.73E2,1.2144E4,4.611E3,9.8E1,6.2E1,1.985E3,2.505E3,7.69E2,7.58E2,8.99E2,3.12E2,3.56E2,6.53E2,5.55E2,1.85E2,1.518E3,1.07E2,1.04E2,4.7E2,6.08E2,6.5E1,1.0006E4,2.138E3,1.016E3,3.595E3],"tree_param":{"num_deleted":"0","num_feature":"29","num_nodes":"49","size_leaf_vector":"1"}},{"base_weights":[-1.2523543E-4,9.1119185E-3,-5.328787E-3,-4.3201473E-2,1.316342E-2,-2.44311E-2,1.4520144E-3,-6.4318046E-2,2.7888449E-2,2.7341885E-2,1.0941182E-3,-3.3867057E-2,3.0387541E-2,-1.3641603E-2,2.038745E-2,-1.2676076E-2,-1.1364131E-1,7.175207E-2,-2.4570753E-3,-4.0956374E-2,3.4058522E-2,2.5654137E-2,-9.757654E-3,-1.9057052E-2,-1.0076378E-1,1.2460066E-1,-5.4577244E-3,3.0320704E-2,-2.0897914E-2,5.858026E-2,1.189089E-2,-4.380339E-3,1.6688075E-3,-2.7707997E-3,-8.022656E-3,6.481296E-3,1.1291459E-4,2.7209865E-3,-2.7408109E-3,1.3499301E-3,3.8645924E-3,6.833281E-4,5.4011773E-3,-6.170547E-4,7.595056E-3,4.650137E-4,-2.0152095E-3,-2.8763271E-3,-6.5037357E-3,1.2320294E-3,8.533347E-3,1.5761743E-3,-4.286963E-3,8.596532E-4,1.0785723E-2,-1.9596417E-4,-2.703767E-3,2.0725697E-3,5.5158488E-3,-9.294087E-4,1.2447338E-3],"categories":[],"categories_nodes":[],"categories_segments":[],"categories_sizes":[],"default_left":[0,0,0,0,0,0,0,0,0,0,0,0,0,0,0,0,0,0,0,0,0,0,0,0,0,0,0,0,0,0,0,0,0,0,0,0,0,0,0,0,0,0,0,0,0,0,0,0,0,0,0,0,0,0,0,0,0,0,0,0,0],"id":19,"left_children":[1,3,5,7,9,11,13,15,17,19,21,23,25,27,29,31,33,35,-1,37,39,41,43,45,47,49,51,53,55,57,59,-1,-1,-1,-1,-1,-1,-1,-1,-1,-1,-1,-1,-1,-1,-1,-1,-1,-1,-1,-1,-1,-1,-1,-1,-1,-1,-1,-1,-1,-1],"loss_changes":[1.387666E0,2.2054615E0,2.3920474E0,1.1246734E0,1.6523451E0,2.5035636E0,3.8957899E0,1.4682653E0,5.8468175E-1,2.0381768E0,1.3906838E0,4.0878572E0,2.401794E0,2.42028E0,1.9612756E0,9.7947925E-1,7.951696E-1,4.4211328E-1,0E0,5.290984E-1,1.2319341E0,1.5773919E0,1.5132978E0,2.0374675E0,9.4047594E-1,8.983331E-1,1.5346593E0,2.612607E0,3.6674812E0,9.7023773E-1,1.9611726E0,0E0,0E0,0E0,0E0,0E0,0E0,0E0,0E0,0E0,0E0,0E0,0E0,0E0,0E0,0E0,0E0,0E0,0E0,0E0,0E0,0E0,0E0,0E0,0E0,0E0,0E0,0E0,0E0,0E0,0E0],"parents":[2147483647,0,0,1,1,2,2,3,3,4,4,5,5,6,6,7,7,8,8,9,9,10,10,11,11,12,12,13,13,14,14,15,15,16,16,17,17,19,19,20,20,21,21,22,22,23,23,24,24,25,25,26,26,27,27,28,28,29,29,30,30],"right_children":[2,4,6,8,10,12,14,16,18,20,22,24,26,28,30,32,34,36,-1,38,40,42,44,46,48,50,52,54,56,58,60,-1,-1,-1,-1,-1,-1,-1,-1,-1,-1,-1,-1,-1,-1,-1,-1,-1,-1,-1,-1,-1,-1,-1,-1,-1,-1,-1,-1,-1,-1],"split_conditions":[2.1942047E-2,-1.8176617E-2,5.214045E-3,3.867086E-2,5.105133E-3,3.7620673E-1,2.057281E-2,-2.116641E-2,4.917129E-2,4.721093E-1,-5.9149493E-2,2.205055E-2,4.668261E-3,-1.1479644E-1,1.3121256E-1,-5.8294613E-2,2.9301986E-1,5.029509E-1,-2.4570753E-3,1.3286592E-1,6.954745E1,1.7776482E-2,1.3396032E-1,3.3848812E1,-6.5810764E-3,2.7203131E-2,2.1256442E-1,2.3177548E-1,1.1167993E-2,8.309267E-3,-1.203043E-2,-4.380339E-3,1.6688075E-3,-2.7707997E-3,-8.022656E-3,6.481296E-3,1.1291459E-4,2.7209865E-3,-2.7408109E-3,1.3499301E-3,3.8645924E-3,6.833281E-4,5.4011773E-3,-6.170547E-4,7.595056E-3,4.650137E-4,-2.0152095E-3,-2.8763271E-3,-6.5037357E-3,1.2320294E-3,8.533347E-3,1.5761743E-3,-4.286963E-3,8.596532E-4,1.0785723E-2,-1.9596417E-4,-2.703767E-3,2.0725697E-3,5.5158488E-3,-9.294087E-4,1.2447338E-3],"split_indices":[18,23,25,3,25,5,17,28,7,21,28,17,25,28,11,7,19,19,0,19,13,17,27,12,0,18,4,11,25,23,4,0,0,0,0,0,0,0,0,0,0,0,0,0,0,0,0,0,0,0,0,0,0,0,0,0,0,0,0,0,0],"split_type":[0,0,0,0,0,0,0,0,0,0,0,0,0,0,0,0,0,0,0,0,0,0,0,0,0,0,0,0,0,0,0,0,0,0,0,0,0,0,0,0,0,0,0,0,0,0,0,0,0,0,0,0,0,0,0,0,0,0,0,0,0],"sum_hessian":[2.8868E4,1.0402E4,1.8466E4,7.47E2,9.655E3,4.837E3,1.3629E4,5.76E2,1.71E2,4.439E3,5.216E3,4.127E3,7.1E2,7.584E3,6.045E3,2.82E2,2.94E2,1.09E2,6.2E1,3.97E2,4.042E3,1.598E3,3.618E3,3.38E3,7.47E2,1.95E2,5.15E2,1.074E3,6.51E3,1.099E3,4.946E3,1.07E2,1.75E2,1.32E2,1.62E2,5.9E1,5E1,5E1,3.47E2,3.476E3,5.66E2,1.396E3,2.02E2,3.562E3,5.6E1,1.448E3,1.932E3,3.03E2,4.44E2,6.2E1,1.33E2,3.53E2,1.62E2,1.004E3,7E1,4.307E3,2.203E3,8.27E2,2.72E2,1.479E3,3.467E3],"tree_param":{"num_deleted":"0","num_feature":"29","num_nodes":"61","size_leaf_vector":"1"}},{"base_weights":[1.9757962E-3,-6.0697114E-3,1.0426531E-2,5.684744E-2,-8.020479E-3,1.4894466E-2,-8.6873295E-3,-1.960728E-3,8.345999E-2,-1.4953787E-2,7.916317E-3,1.5809342E-2,-6.075488E-3,-3.689146E-2,5.6921884E-2,6.118389E-2,9.805596E-3,-3.0759312E-2,-6.2796483E-3,2.129203E-2,-2.6514769E-2,3.4658045E-2,9.733094E-3,2.0993432E-2,-4.74026E-2,6.041977E-3,9.405226E-2,4.3380987E-3,-2.0649207E-3,-8.723426E-3,-1.3690626E-3,-2.0711143E-4,-6.1412724E-3,3.5396118E-3,4.73118E-4,-1.8077035E-3,5.355652E-3,6.361174E-4,3.0025465E-3,2.0037463E-4,1.8303044E-3,3.944699E-3,-2.2391349E-3,3.2506813E-4,-3.29559E-3,-1.5137069E-3,5.1935962E-3,5.6654033E-3,-1.8585495E-3],"categories":[],"categories_nodes":[],"categories_segments":[],"categories_sizes":[],"default_left":[0,0,0,0,0,0,0,0,0,0,0,0,0,0,0,0,0,0,0,0,0,0,0,0,0,0,0,0,0,0,0,0,0,0,0,0,0,0,0,0,0,0,0,0,0,0,0,0,0],"id":20,"left_children":[1,3,5,7,9,11,13,-1,15,17,19,21,-1,23,25,27,-1,29,31,33,35,37,39,41,43,45,47,-1,-1,-1,-1,-1,-1,-1,-1,-1,-1,-1,-1,-1,-1,-1,-1,-1,-1,-1,-1,-1,-1],"loss_changes":[1.9589362E0,1.8120506E0,1.2001629E0,1.1383388E0,1.5820712E0,1.4233134E0,4.92985E0,0E0,8.612881E-1,1.3676467E0,1.99977E0,1.295563E0,0E0,1.1345122E0,1.5126731E0,7.6900303E-1,0E0,1.7113192E0,1.6044894E0,1.8304108E0,1.568888E0,1.5354714E0,1.3166218E0,1.0965651E0,1.5738316E0,1.207545E0,1.1741242E0,0E0,0E0,0E0,0E0,0E0,0E0,0E0,0E0,0E0,0E0,0E0,0E0,0E0,0E0,0E0,0E0,0E0,0E0,0E0,0E0,0E0,0E0],"parents":[2147483647,0,0,1,1,2,2,3,3,4,4,5,5,6,6,8,8,9,9,10,10,11,11,13,13,14,14,15,15,17,17,18,18,19,19,20,20,21,21,22,22,23,23,24,24,25,25,26,26],"right_children":[2,4,6,8,10,12,14,-1,16,18,20,22,-1,24,26,28,-1,30,32,34,36,38,40,42,44,46,48,-1,-1,-1,-1,-1,-1,-1,-1,-1,-1,-1,-1,-1,-1,-1,-1,-1,-1,-1,-1,-1,-1],"split_conditions":[-1.5290238E-1,-1.5431531E-1,1.0211259E-2,1.2456124E1,1.7101824E-2,4.649799E-1,2.2987718E-2,-1.960728E-3,1.6238374E-1,7.077021E-1,2.5275009E-2,2.1485315E-1,-6.075488E-3,2.6478815E1,1.2577148E-1,6.612567E-2,9.805596E-3,-1.4079432E-1,1.0871061E-1,-1.3254562E-1,5.0687546E-1,7.7780657E-3,7.1034325E1,3.5897437E-1,7.978854E-1,8.915725E-2,4.4641346E-1,4.3380987E-3,-2.0649207E-3,-8.723426E-3,-1.3690626E-3,-2.0711143E-4,-6.1412724E-3,3.5396118E-3,4.73118E-4,-1.8077035E-3,5.355652E-3,6.361174E-4,3.0025465E-3,2.0037463E-4,1.8303044E-3,3.944699E-3,-2.2391349E-3,3.2506813E-4,-3.29559E-3,-1.5137069E-3,5.1935962E-3,5.6654033E-3,-1.8585495E-3],"split_indices":[10,7,25,13,24,8,17,0,11,21,27,11,0,12,28,5,0,27,7,8,11,5,13,19,21,27,4,0,0,0,0,0,0,0,0,0,0,0,0,0,0,0,0,0,0,0,0,0,0],"split_type":[0,0,0,0,0,0,0,0,0,0,0,0,0,0,0,0,0,0,0,0,0,0,0,0,0,0,0,0,0,0,0,0,0,0,0,0,0,0,0,0,0,0,0,0,0,0,0,0,0],"sum_hessian":[2.881E4,1.4759E4,1.4051E4,4.43E2,1.4316E4,1.1389E4,2.662E3,9.6E1,3.47E2,9.976E3,4.34E3,1.1314E4,7.5E1,1.862E3,8E2,2.91E2,5.6E1,3.534E3,6.442E3,3.126E3,1.214E3,2.757E3,8.557E3,2.86E2,1.576E3,3.38E2,4.62E2,2.33E2,5.8E1,8E1,3.454E3,6.327E3,1.15E2,6.02E2,2.524E3,1.133E3,8.1E1,1.48E3,1.277E3,7.055E3,1.502E3,1.52E2,1.34E2,4.03E2,1.173E3,2.47E2,9.1E1,4.03E2,5.9E1],"tree_param":{"num_deleted":"0","num_feature":"29","num_nodes":"49","size_leaf_vector":"1"}},{"base_weights":[-4.940387E-5,-4.6642427E-3,1.2788816E-2,-2.6903592E-2,-3.815129E-4,1.9458568E-2,-1.7410606E-2,4.9412694E-2,-3.328694E-2,3.4021325E-3,-2.164802E-2,-1.904946E-2,2.6474884E-2,-2.4140578E-2,5.9608403E-3,-1.9123309E-3,7.75144E-2,-3.0485062E-2,-9.140338E-3,4.457608E-3,-9.717876E-2,-5.419979E-2,1.0439258E-2,1.301459E-2,-7.713923E-2,-5.8097098E-2,2.9210092E-2,-9.3219146E-2,-1.057877E-2,6.316139E-3,2.7021173E-5,-2.249629E-3,4.3046017E-5,1.6635317E-4,3.3564195E-3,-6.922432E-4,-8.290835E-3,-1.3522523E-3,-4.535428E-3,3.6742282E-3,-2.1920868E-4,-2.3178556E-3,2.9947243E-3,-6.1950935E-3,7.1238045E-4,-7.0692184E-3,-4.1823243E-4,4.045291E-3,1.2478452E-3,-1.7362013E-3,-9.236333E-3,2.3235118E-3,-1.3173722E-3],"categories":[],"categories_nodes":[],"categories_segments":[],"categories_sizes":[],"default_left":[0,0,0,0,0,0,0,0,0,0,0,0,0,0,0,0,0,0,0,0,0,0,0,0,0,0,0,0,0,0,0,0,0,0,0,0,0,0,0,0,0,0,0,0,0,0,0,0,0,0,0,0,0],"id":21,"left_children":[1,3,5,7,9,11,13,15,17,19,21,23,25,27,-1,-1,29,31,-1,33,35,37,39,41,43,45,47,49,51,-1,-1,-1,-1,-1,-1,-1,-1,-1,-1,-1,-1,-1,-1,-1,-1,-1,-1,-1,-1,-1,-1,-1,-1],"loss_changes":[1.7098492E0,2.0219488E0,1.5373949E0,1.6716065E0,1.4325103E0,1.6894279E0,1.2727052E0,6.557594E-1,1.3199413E0,1.6049451E0,2.8092198E0,1.7965437E0,1.2249274E0,1.2328193E0,0E0,0E0,7.550837E-1,1.4129543E0,0E0,1.0595822E0,8.9572334E-1,1.3210471E0,1.2666342E0,1.7340133E0,1.4675725E0,6.864025E-1,1.1243839E0,1.1497779E0,9.9256945E-1,0E0,0E0,0E0,0E0,0E0,0E0,0E0,0E0,0E0,0E0,0E0,0E0,0E0,0E0,0E0,0E0,0E0,0E0,0E0,0E0,0E0,0E0,0E0,0E0],"parents":[2147483647,0,0,1,1,2,2,3,3,4,4,5,5,6,6,7,7,8,8,9,9,10,10,11,11,12,12,13,13,16,16,17,17,19,19,20,20,21,21,22,22,23,23,24,24,25,25,26,26,27,27,28,28],"right_children":[2,4,6,8,10,12,14,16,18,20,22,24,26,28,-1,-1,30,32,-1,34,36,38,40,42,44,46,48,50,52,-1,-1,-1,-1,-1,-1,-1,-1,-1,-1,-1,-1,-1,-1,-1,-1,-1,-1,-1,-1,-1,-1,-1,-1],"split_conditions":[-7.279924E-2,5.4437274E-1,2.50294E-2,-2.141713E-2,1.0547131E-1,-1.7543962E-2,3.3262886E-2,6.517194E-2,2.3381734E-1,4.01331E0,1.8946717E-2,1.3491456E-1,8.681505E-3,1.2109878E-2,5.9608403E-3,-1.9123309E-3,4.528486E-3,1.7922318E-2,-9.140338E-3,6.2184103E-2,-3.2048125E-3,1.4305464E-2,2.8682802E-2,1.3689416E-2,2.1075817E-2,3.564006E-3,-1.627194E-2,5.303194E-3,1.3219664E-2,6.316139E-3,2.7021173E-5,-2.249629E-3,4.3046017E-5,1.6635317E-4,3.3564195E-3,-6.922432E-4,-8.290835E-3,-1.3522523E-3,-4.535428E-3,3.6742282E-3,-2.1920868E-4,-2.3178556E-3,2.9947243E-3,-6.1950935E-3,7.1238045E-4,-7.0692184E-3,-4.1823243E-4,4.045291E-3,1.2478452E-3,-1.7362013E-3,-9.236333E-3,2.3235118E-3,-1.3173722E-3],"split_indices":[10,21,24,0,4,26,17,11,8,21,16,8,17,3,0,0,28,26,0,9,23,6,18,17,17,24,6,6,17,0,0,0,0,0,0,0,0,0,0,0,0,0,0,0,0,0,0,0,0,0,0,0,0],"split_type":[0,0,0,0,0,0,0,0,0,0,0,0,0,0,0,0,0,0,0,0,0,0,0,0,0,0,0,0,0,0,0,0,0,0,0,0,0,0,0,0,0,0,0,0,0,0,0,0,0,0,0,0,0],"sum_hessian":[2.8858E4,2.1228E4,7.63E3,3.427E3,1.7801E4,6.25E3,1.38E3,2.64E2,3.163E3,1.5113E4,2.688E3,9.63E2,5.287E3,1.316E3,6.4E1,6.4E1,2E2,3.106E3,5.7E1,1.4957E4,1.56E2,1.334E3,1.354E3,6.21E2,3.42E2,1.65E2,5.122E3,2.15E2,1.101E3,1.22E2,7.8E1,2.123E3,9.83E2,1.4693E4,2.64E2,7.1E1,8.5E1,7.66E2,5.68E2,2.57E2,1.097E3,2.74E2,3.47E2,2.26E2,1.16E2,6.1E1,1.04E2,3.88E2,4.734E3,1.32E2,8.3E1,2.38E2,8.63E2],"tree_param":{"num_deleted":"0","num_feature":"29","num_nodes":"53","size_leaf_vector":"1"}},{"base_weights":[-5.0672283E-4,-6.95439E-3,7.14328E-3,3.488405E-2,-9.486499E-3,-8.416275E-2,8.629548E-3,4.958254E-2,-4.3350123E-3,-1.4435254E-2,1.0125892E-2,-3.8695576E-5,-1.1125928E-1,6.292476E-2,6.7833783E-3,-1.8305968E-2,7.16429E-2,-2.1279259E-3,-2.6014706E-2,4.9663138E-2,-1.4776659E-2,-2.7616275E-3,-7.5514363E-3,1.0891344E-1,2.7798407E-2,1.3581252E-3,2.8380841E-2,1.5142107E-3,-6.623544E-3,2.125547E-3,6.649566E-3,-1.4677184E-3,8.253185E-4,-3.7013504E-4,-2.2257294E-3,2.8933005E-3,-4.103592E-3,-1.1734291E-3,6.071287E-3,1.0055582E-2,3.314262E-3,-2.3989708E-3,2.428573E-3,2.1322705E-4,-2.605399E-3,2.6088103E-3,-1.2786483E-4],"categories":[],"categories_nodes":[],"categories_segments":[],"categories_sizes":[],"default_left":[0,0,0,0,0,0,0,0,0,0,0,0,0,0,0,0,0,0,0,0,0,0,0,0,0,0,0,0,0,0,0,0,0,0,0,0,0,0,0,0,0,0,0,0,0,0,0],"id":22,"left_children":[1,3,5,7,9,11,13,15,-1,17,19,-1,21,23,25,27,29,31,33,35,37,-1,-1,39,41,43,45,-1,-1,-1,-1,-1,-1,-1,-1,-1,-1,-1,-1,-1,-1,-1,-1,-1,-1,-1,-1],"loss_changes":[1.4268152E0,1.6632638E0,1.7961075E0,1.6055455E0,1.4367825E0,4.7893822E-1,1.3045745E0,1.1994271E0,0E0,1.684438E0,2.937731E0,0E0,3.4816265E-1,6.8836987E-1,1.4753876E0,1.0968286E0,1.0738149E0,2.908082E0,2.0965786E0,1.2506864E0,2.1704981E0,0E0,0E0,7.137642E-1,3.864198E-1,1.5642699E0,1.8612072E0,0E0,0E0,0E0,0E0,0E0,0E0,0E0,0E0,0E0,0E0,0E0,0E0,0E0,0E0,0E0,0E0,0E0,0E0,0E0,0E0],"parents":[2147483647,0,0,1,1,2,2,3,3,4,4,5,5,6,6,7,7,9,9,10,10,12,12,13,13,14,14,15,15,16,16,17,17,18,18,19,19,20,20,23,23,24,24,25,25,26,26],"right_children":[2,4,6,8,10,12,14,16,-1,18,20,-1,22,24,26,28,30,32,34,36,38,-1,-1,40,42,44,46,-1,-1,-1,-1,-1,-1,-1,-1,-1,-1,-1,-1,-1,-1,-1,-1,-1,-1,-1,-1],"split_conditions":[-1.3816479E-1,-1.2985401E-1,-4.1983236E-2,1.4454895E-2,3.035025E-2,-3.1079063E-3,2.6586964E1,8.257818E0,-4.3350123E-3,-8.704687E-3,-7.4081905E-2,-3.8695576E-5,2.5699234E-2,-5.2490484E-2,6.954745E1,-1.3173425E-1,2.2445254E-2,-2.0227175E-2,1.6695496E-2,3.9761584E-2,3.3805978E-2,-2.7616275E-3,-7.5514363E-3,7.888614E-1,1.0544917E-2,2.8236374E-1,1.7922318E-2,1.5142107E-3,-6.623544E-3,2.125547E-3,6.649566E-3,-1.4677184E-3,8.253185E-4,-3.7013504E-4,-2.2257294E-3,2.8933005E-3,-4.103592E-3,-1.1734291E-3,6.071287E-3,1.0055582E-2,3.314262E-3,-2.3989708E-3,2.428573E-3,2.1322705E-4,-2.605399E-3,2.6088103E-3,-1.2786483E-4],"split_indices":[10,7,9,26,26,20,13,12,0,1,28,0,8,2,13,28,17,9,17,16,17,0,0,21,17,28,26,0,0,0,0,0,0,0,0,0,0,0,0,0,0,0,0,0,0,0,0],"split_type":[0,0,0,0,0,0,0,0,0,0,0,0,0,0,0,0,0,0,0,0,0,0,0,0,0,0,0,0,0,0,0,0,0,0,0,0,0,0,0,0,0,0,0,0,0,0,0],"sum_hessian":[2.8925E4,1.5696E4,1.3229E4,8.95E2,1.4801E4,2.11E2,1.3018E4,7.99E2,9.6E1,1.1819E4,2.982E3,5.2E1,1.59E2,4.27E2,1.2591E4,1.96E2,6.03E2,5.73E3,6.089E3,1.152E3,1.83E3,6.7E1,9.2E1,1.84E2,2.43E2,1.0064E4,2.527E3,1.38E2,5.8E1,4.1E2,1.93E2,2.328E3,3.402E3,3.036E3,3.053E3,1.085E3,6.7E1,1.721E3,1.09E2,5.7E1,1.27E2,5.2E1,1.91E2,9.546E3,5.18E2,1.428E3,1.099E3],"tree_param":{"num_deleted":"0","num_feature":"29","num_nodes":"47","size_leaf_vector":"1"}},{"base_weights":[-1.5530479E-3,8.126674E-3,-6.998232E-3,-4.164729E-2,1.1913878E-2,-2.436624E-2,-6.728921E-4,-7.0491746E-2,2.0553803E-3,1.0714057E-2,7.882765E-3,-4.4457845E-2,2.0547644E-3,-1.3379827E-2,1.6142987E-2,-3.210894E-2,-1.2608604E-1,3.5094228E-2,-6.1069946E-3,2.4973819E-2,-1.337733E-3,-5.1918857E-2,4.272036E-2,2.0374293E-2,-5.084245E-2,-8.129773E-3,-7.068916E-2,-5.248154E-3,3.4083858E-2,1.1729902E-3,-3.5976619E-3,-4.053073E-3,-8.690078E-3,4.8360513E-3,-7.238583E-4,-6.5342634E-4,1.6970284E-3,3.044166E-4,-2.4000315E-3,-1.4454193E-3,-4.1121845E-3,-4.9438155E-3,4.2228526E-3,2.9319786E-3,2.1181736E-6,-3.3987153E-3,4.3803803E-3,4.8998613E-3,-5.5812765E-4,-1.2318449E-3,-7.7522113E-3,1.546986E-3,-1.4235986E-3,1.8873587E-3,-5.6992783E-3],"categories":[],"categories_nodes":[],"categories_segments":[],"categories_sizes":[],"default_left":[0,0,0,0,0,0,0,0,0,0,0,0,0,0,0,0,0,0,0,0,0,0,0,0,0,0,0,0,0,0,0,0,0,0,0,0,0,0,0,0,0,0,0,0,0,0,0,0,0,0,0,0,0,0,0],"id":23,"left_children":[1,3,5,7,9,11,13,15,17,19,-1,21,23,25,27,29,31,33,-1,35,37,39,41,43,45,47,49,51,53,-1,-1,-1,-1,-1,-1,-1,-1,-1,-1,-1,-1,-1,-1,-1,-1,-1,-1,-1,-1,-1,-1,-1,-1,-1,-1],"loss_changes":[1.525528E0,1.9647096E0,2.0348935E0,9.291918E-1,1.6916906E0,2.625097E0,2.9017534E0,9.4338775E-1,1.2106472E0,1.6508789E0,0E0,1.829298E0,2.0719001E0,2.3267093E0,2.2433484E0,5.862098E-1,3.747666E-1,7.13198E-1,0E0,1.5013547E0,1.8046308E0,1.8034992E0,1.320321E0,1.2354727E0,1.3105038E0,2.2821147E0,2.5173774E0,2.2422829E0,1.7286706E0,0E0,0E0,0E0,0E0,0E0,0E0,0E0,0E0,0E0,0E0,0E0,0E0,0E0,0E0,0E0,0E0,0E0,0E0,0E0,0E0,0E0,0E0,0E0,0E0,0E0,0E0],"parents":[2147483647,0,0,1,1,2,2,3,3,4,4,5,5,6,6,7,7,8,8,9,9,11,11,12,12,13,13,14,14,15,15,16,16,17,17,19,19,20,20,21,21,22,22,23,23,24,24,25,25,26,26,27,27,28,28],"right_children":[2,4,6,8,10,12,14,16,18,20,-1,22,24,26,28,30,32,34,-1,36,38,40,42,44,46,48,50,52,54,-1,-1,-1,-1,-1,-1,-1,-1,-1,-1,-1,-1,-1,-1,-1,-1,-1,-1,-1,-1,-1,-1,-1,-1,-1,-1],"split_conditions":[2.1942047E-2,-1.942309E-2,5.222117E-3,1.3515413E-2,8.968451E-2,8.27328E-3,2.0819543E-2,-1.3271371E-2,3.3982053E-2,5.105133E-3,7.882765E-3,4.3838215E-1,2.1956984E-2,1.5406423E-2,1.1167993E-2,-1.4223492E-1,2.2208322E-2,-5.163865E-3,-6.1069946E-3,5.995998E-1,8.29701E-2,1.7834553E-2,-9.368396E-2,-7.3697353E-3,3.9227855E-1,-8.5558824E-2,2.5275009E-2,-3.5761574E-1,6.478312E-2,1.1729902E-3,-3.5976619E-3,-4.053073E-3,-8.690078E-3,4.8360513E-3,-7.238583E-4,-6.5342634E-4,1.6970284E-3,3.044166E-4,-2.4000315E-3,-1.4454193E-3,-4.1121845E-3,-4.9438155E-3,4.2228526E-3,2.9319786E-3,2.1181736E-6,-3.3987153E-3,4.3803803E-3,4.8998613E-3,-5.5812765E-4,-1.2318449E-3,-7.7522113E-3,1.546986E-3,-1.4235986E-3,1.8873587E-3,-5.6992783E-3],"split_indices":[18,23,25,3,9,9,17,28,9,25,0,5,17,25,25,5,22,0,0,21,28,17,27,0,28,9,27,14,18,0,0,0,0,0,0,0,0,0,0,0,0,0,0,0,0,0,0,0,0,0,0,0,0,0,0],"split_type":[0,0,0,0,0,0,0,0,0,0,0,0,0,0,0,0,0,0,0,0,0,0,0,0,0,0,0,0,0,0,0,0,0,0,0,0,0,0,0,0,0,0,0,0,0,0,0,0,0,0,0,0,0,0,0],"sum_hessian":[2.8941E4,1.0419E4,1.8522E4,7.36E2,9.683E3,4.944E3,1.3578E4,4.43E2,2.93E2,9.605E3,7.8E1,2.808E3,2.136E3,7.734E3,5.844E3,2.63E2,1.8E2,2.32E2,6.1E1,4.399E3,5.206E3,2.587E3,2.21E2,1.587E3,5.49E2,7.086E3,6.48E2,2.666E3,3.178E3,1.1E2,1.53E2,9.4E1,8.6E1,1.03E2,1.29E2,8.39E2,3.56E3,4.492E3,7.14E2,1.472E3,1.115E3,5E1,1.71E2,5.5E2,1.037E3,4.89E2,6E1,1.96E2,6.89E3,4.2E2,2.28E2,1.042E3,1.624E3,3.102E3,7.6E1],"tree_param":{"num_deleted":"0","num_feature":"29","num_nodes":"55","size_leaf_vector":"1"}},{"base_weights":[2.6397003E-4,9.616408E-3,-5.0176587E-3,-7.902349E-2,1.2585306E-2,-2.2018364E-2,4.281619E-4,-1.0140671E-1,6.679631E-4,2.2340633E-2,9.016007E-4,-4.1628174E-2,2.8140296E-3,-1.1624247E-2,1.5816435E-2,-3.6870338E-2,-1.4407496E-1,1.4565249E-2,6.0749415E-2,2.3254393E-2,-1.8649498E-2,-1.3900154E-2,-6.7674056E-2,1.1983126E-2,-1.0931222E-1,7.3134296E-2,-1.4554652E-2,-5.2976543E-3,3.1166628E-2,-4.4231387E-3,9.1355614E-4,-4.2926646E-3,-1.0600999E-2,-3.7191997E-4,1.2477555E-3,1.2318239E-3,4.7792993E-3,6.2182476E-4,5.3253113E-3,-2.2744061E-3,1.2515705E-4,3.464047E-4,-2.9810108E-3,-2.4668223E-3,-7.7289403E-3,1.7534748E-3,-9.387407E-4,-8.627249E-4,-9.272117E-3,6.180789E-3,-3.9709113E-3,-1.0150446E-4,-1.9355227E-3,8.4765005E-4,-2.1562602E-3,3.4721666E-3,1.051854E-3],"categories":[],"categories_nodes":[],"categories_segments":[],"categories_sizes":[],"default_left":[0,0,0,0,0,0,0,0,0,0,0,0,0,0,0,0,0,0,0,0,0,0,0,0,0,0,0,0,0,0,0,0,0,0,0,0,0,0,0,0,0,0,0,0,0,0,0,0,0,0,0,0,0,0,0,0,0],"id":24,"left_children":[1,3,5,7,9,11,13,15,-1,17,19,21,23,25,27,29,31,33,35,37,39,41,43,45,47,49,51,53,55,-1,-1,-1,-1,-1,-1,-1,-1,-1,-1,-1,-1,-1,-1,-1,-1,-1,-1,-1,-1,-1,-1,-1,-1,-1,-1,-1,-1],"loss_changes":[1.4310534E0,2.7526245E0,1.7141798E0,7.0234704E-1,1.1532129E0,2.1875348E0,2.601156E0,7.4643564E-1,0E0,1.6458333E0,2.0129182E0,1.8117828E0,2.040025E0,1.9545487E0,1.9966538E0,3.1455332E-1,6.305604E-1,1.0488417E0,1.1651163E0,1.9340858E0,1.3949716E0,1.1593243E0,2.054525E0,1.3029618E0,1.0480553E0,2.0352006E0,2.3001397E0,2.1840692E0,1.3815563E0,0E0,0E0,0E0,0E0,0E0,0E0,0E0,0E0,0E0,0E0,0E0,0E0,0E0,0E0,0E0,0E0,0E0,0E0,0E0,0E0,0E0,0E0,0E0,0E0,0E0,0E0,0E0,0E0],"parents":[2147483647,0,0,1,1,2,2,3,3,4,4,5,5,6,6,7,7,9,9,10,10,11,11,12,12,13,13,14,14,15,15,16,16,17,17,18,18,19,19,20,20,21,21,22,22,23,23,24,24,25,25,26,26,27,27,28,28],"right_children":[2,4,6,8,10,12,14,16,-1,18,20,22,24,26,28,30,32,34,36,38,40,42,44,46,48,50,52,54,56,-1,-1,-1,-1,-1,-1,-1,-1,-1,-1,-1,-1,-1,-1,-1,-1,-1,-1,-1,-1,-1,-1,-1,-1,-1,-1,-1,-1],"split_conditions":[2.1942047E-2,-2.650778E-2,5.1473887E-3,3.778383E-2,5.214045E-3,8.27328E-3,2.057281E-2,-7.25448E-2,6.679631E-4,6.646121E1,-2.2315752E-2,3.541989E1,2.9238462E-2,-8.5558824E-2,9.702019E-3,-1.0086545E-2,-2.1667445E-2,-1.9323324E-1,3.348352E-4,1.7776482E-2,1.8194329E-2,1.9799335E-2,2.2371026E-2,5.2168568E1,8.439987E-3,2.1765262E-2,1.0922533E-2,2.515624E-2,1.295595E-1,-4.4231387E-3,9.1355614E-4,-4.2926646E-3,-1.0600999E-2,-3.7191997E-4,1.2477555E-3,1.2318239E-3,4.7792993E-3,6.2182476E-4,5.3253113E-3,-2.2744061E-3,1.2515705E-4,3.464047E-4,-2.9810108E-3,-2.4668223E-3,-7.7289403E-3,1.7534748E-3,-9.387407E-4,-8.627249E-4,-9.272117E-3,6.180789E-3,-3.9709113E-3,-1.0150446E-4,-1.9355227E-3,8.4765005E-4,-2.1562602E-3,3.4721666E-3,1.051854E-3],"split_indices":[18,26,25,3,25,9,17,8,0,13,28,12,16,9,25,27,6,10,23,17,18,17,26,12,26,16,25,17,11,0,0,0,0,0,0,0,0,0,0,0,0,0,0,0,0,0,0,0,0,0,0,0,0,0,0,0,0],"split_type":[0,0,0,0,0,0,0,0,0,0,0,0,0,0,0,0,0,0,0,0,0,0,0,0,0,0,0,0,0,0,0,0,0,0,0,0,0,0,0,0,0,0,0,0,0,0,0,0,0,0,0,0,0,0,0,0,0],"sum_hessian":[2.8969E4,1.0455E4,1.8514E4,3.38E2,1.0117E4,4.491E3,1.4023E4,2.72E2,6.6E1,5.513E3,4.604E3,2.509E3,1.982E3,7.864E3,6.159E3,1.09E2,1.63E2,4.586E3,9.27E2,2.148E3,2.456E3,1.216E3,1.293E3,1.833E3,1.49E2,2.62E2,7.602E3,2.593E3,3.566E3,5.6E1,5.3E1,8.9E1,7.4E1,1.471E3,3.115E3,4.56E2,4.71E2,1.902E3,2.46E2,1.082E3,1.374E3,8.36E2,3.8E2,1.069E3,2.24E2,1.047E3,7.86E2,6.8E1,8.1E1,1.97E2,6.5E1,5.007E3,2.595E3,1.633E3,9.6E2,7.45E2,2.821E3],"tree_param":{"num_deleted":"0","num_feature":"29","num_nodes":"57","size_leaf_vector":"1"}},{"base_weights":[-1.5347919E-3,-7.975135E-3,4.847476E-3,-4.1137324E-3,-3.1113364E-2,-7.051462E-2,6.5312926E-3,3.5199143E-2,-7.071706E-3,-1.1649065E-1,-2.3745371E-2,-1.23648636E-1,-2.886019E-2,2.5253955E-3,2.731646E-2,-2.334284E-2,5.4930855E-2,-1.5925614E-2,8.026556E-3,-7.424594E-4,-9.18772E-3,3.5162758E-2,-3.451135E-2,-4.3914067E-3,-7.885137E-3,1.3660657E-3,-3.9412035E-3,8.821207E-3,-1.1574002E-2,5.148629E-2,-2.9820178E-3,1.4901793E-3,-8.699053E-3,6.3116387E-3,1.843037E-3,-6.827595E-4,-5.158461E-3,5.0158607E-4,-7.2274166E-3,-1.370042E-3,5.3794193E-3,1.4725667E-3,-2.2068052E-3,5.9061864E-4,-2.0958618E-3,1.3120113E-3,-9.058118E-4,3.0215606E-3,-5.797827E-3,-1.6695217E-3,2.2235885E-3],"categories":[],"categories_nodes":[],"categories_segments":[],"categories_sizes":[],"default_left":[0,0,0,0,0,0,0,0,0,0,0,0,0,0,0,0,0,0,0,0,0,0,0,0,0,0,0,0,0,0,0,0,0,0,0,0,0,0,0,0,0,0,0,0,0,0,0,0,0,0,0],"id":25,"left_children":[1,3,5,7,9,11,13,15,17,19,21,23,25,27,29,31,33,35,37,-1,-1,39,41,-1,-1,-1,-1,43,45,47,49,-1,-1,-1,-1,-1,-1,-1,-1,-1,-1,-1,-1,-1,-1,-1,-1,-1,-1,-1,-1],"loss_changes":[1.186711E0,1.2837744E0,1.8405787E0,1.4324328E0,1.2899504E0,6.9803727E-1,1.1810201E0,9.9700737E-1,1.5314164E0,1.1116674E0,1.2017614E0,1.5570617E-1,5.046148E-1,1.0558985E0,1.6786062E0,1.7504678E0,8.263869E-1,1.4289263E0,1.2970964E0,0E0,0E0,1.3305917E0,9.8691535E-1,0E0,0E0,0E0,0E0,1.2484756E0,9.088898E-1,1.9166546E0,1.4704533E0,0E0,0E0,0E0,0E0,0E0,0E0,0E0,0E0,0E0,0E0,0E0,0E0,0E0,0E0,0E0,0E0,0E0,0E0,0E0,0E0],"parents":[2147483647,0,0,1,1,2,2,3,3,4,4,5,5,6,6,7,7,8,8,9,9,10,10,11,11,12,12,13,13,14,14,15,15,16,16,17,17,18,18,21,21,22,22,27,27,28,28,29,29,30,30],"right_children":[2,4,6,8,10,12,14,16,18,20,22,24,26,28,30,32,34,36,38,-1,-1,40,42,-1,-1,-1,-1,44,46,48,50,-1,-1,-1,-1,-1,-1,-1,-1,-1,-1,-1,-1,-1,-1,-1,-1,-1,-1,-1,-1],"split_conditions":[-1.5814714E-1,4.9578007E-2,-4.2847108E-2,-2.3014297E-1,-1.602893E-1,2.0656588E-2,7.1034325E1,2.4618185E-3,1.3716859E-2,-3.81367E-1,-1.6332699E-2,3.4398213E-3,5.7014517E-2,6.6387266E-2,1.7922318E-2,-8.911326E-3,1.7073147E-2,6.461569E-1,-1.6123396E-1,-7.424594E-4,-9.18772E-3,1.7062457E-2,-6.3175964E-1,-4.3914067E-3,-7.885137E-3,1.3660657E-3,-3.9412035E-3,8.309179E-3,1.013636E-2,1.0747052E0,1.8692156E-2,1.4901793E-3,-8.699053E-3,6.3116387E-3,1.843037E-3,-6.827595E-4,-5.158461E-3,5.0158607E-4,-7.2274166E-3,-1.370042E-3,5.3794193E-3,1.4725667E-3,-2.2068052E-3,5.9061864E-4,-2.0958618E-3,1.3120113E-3,-9.058118E-4,3.0215606E-3,-5.797827E-3,-1.6695217E-3,2.2235885E-3],"split_indices":[10,27,9,4,4,16,13,11,24,10,23,0,1,22,26,24,16,11,10,0,0,9,22,0,0,0,0,20,16,11,16,0,0,0,0,0,0,0,0,0,0,0,0,0,0,0,0,0,0,0,0],"split_type":[0,0,0,0,0,0,0,0,0,0,0,0,0,0,0,0,0,0,0,0,0,0,0,0,0,0,0,0,0,0,0,0,0,0,0,0,0,0,0,0,0,0,0,0,0,0,0,0,0,0,0],"sum_hessian":[2.8869E4,1.4369E4,1.45E4,1.2315E4,2.054E3,3.16E2,1.4184E4,8.61E2,1.1454E4,1.62E2,1.892E3,1.38E2,1.78E2,1.1893E4,2.291E3,2.17E2,6.44E2,7.22E3,4.234E3,6.5E1,9.7E1,2.92E2,1.6E3,6.9E1,6.9E1,8.4E1,9.4E1,8.222E3,3.671E3,1.274E3,1.017E3,1.61E2,5.6E1,1.29E2,5.15E2,7.038E3,1.82E2,4.18E3,5.4E1,1.57E2,1.35E2,2.09E2,1.391E3,7.765E3,4.57E2,5.41E2,3.13E3,1.21E3,6.4E1,6.2E2,3.97E2],"tree_param":{"num_deleted":"0","num_feature":"29","num_nodes":"51","size_leaf_vector":"1"}},{"base_weights":[-1.7466581E-4,-2.4956942E-3,1.6134037E-2,-1.7576247E-3,-8.265204E-2,2.7297413E-2,-3.306628E-2,-2.1489242E-3,7.9069715E-3,-1.3448568E-1,4.8682387E-3,1.9760095E-2,1.4145567E-1,5.3048212E-2,-5.2938957E-2,-1.3364032E-3,-5.8697052E-2,-2.4353792E-3,-1.2001362E-2,1.0746408E-2,8.4793776E-2,1.1661405E-2,9.6284695E-2,7.396662E-3,-4.376438E-3,-9.7227536E-2,-1.3265789E-2,-8.4448424E-5,7.6514594E-3,2.8944926E-3,-4.4649835E-3,1.1162517E-3,-1.6079167E-3,6.872856E-3,-3.0861404E-3,1.4411148E-3,8.448787E-3,-8.963877E-4,-7.2099864E-3,-3.2599939E-3,2.955985E-3],"categories":[],"categories_nodes":[],"categories_segments":[],"categories_sizes":[],"default_left":[0,0,0,0,0,0,0,0,0,0,0,0,0,0,0,0,0,0,0,0,0,0,0,0,0,0,0,0,0,0,0,0,0,0,0,0,0,0,0,0,0],"id":26,"left_children":[1,3,5,7,9,11,13,15,-1,17,-1,19,21,23,25,27,29,-1,-1,31,33,-1,35,-1,-1,37,39,-1,-1,-1,-1,-1,-1,-1,-1,-1,-1,-1,-1,-1,-1],"loss_changes":[1.0901299E0,1.4913616E0,1.9715818E0,1.5634038E0,2.1592073E0,2.5140128E0,1.1391283E0,1.1450012E0,0E0,1.6088233E0,0E0,1.608189E0,7.2786975E-1,1.6802796E0,9.4752717E-1,1.3374547E0,1.2646257E0,0E0,0E0,1.1989464E0,2.585646E0,0E0,5.9831095E-1,0E0,0E0,9.472606E-1,1.0790069E0,0E0,0E0,0E0,0E0,0E0,0E0,0E0,0E0,0E0,0E0,0E0,0E0,0E0,0E0],"parents":[2147483647,0,0,1,1,2,2,3,3,4,4,5,5,6,6,7,7,9,9,11,11,12,12,13,13,14,14,15,15,16,16,19,19,20,20,22,22,25,25,26,26],"right_children":[2,4,6,8,10,12,14,16,-1,18,-1,20,22,24,26,28,30,-1,-1,32,34,-1,36,-1,-1,38,40,-1,-1,-1,-1,-1,-1,-1,-1,-1,-1,-1,-1,-1,-1],"split_conditions":[3.2576707E-1,8.0528814E-1,4.328494E-2,4.3908805E-1,2.44292E-1,3.4397677E-1,1.0601714E-1,2.8236374E-1,7.9069715E-3,2.3381734E-1,4.8682387E-3,9.115514E-2,1.09132845E-2,2.2423776E-2,7.163155E-3,2.8444266E-1,-4.814652E-2,-2.4353792E-3,-1.2001362E-2,1.2499982E-2,2.3561238E-1,1.1661405E-2,7.659744E-1,7.396662E-3,-4.376438E-3,6.2564425E-2,6.890794E1,-8.4448424E-5,7.6514594E-3,2.8944926E-3,-4.4649835E-3,1.1162517E-3,-1.6079167E-3,6.872856E-3,-3.0861404E-3,1.4411148E-3,8.448787E-3,-8.963877E-4,-7.2099864E-3,-3.2599939E-3,2.955985E-3],"split_indices":[5,11,1,28,5,4,8,28,0,8,0,27,2,23,23,8,5,0,0,1,28,0,21,0,0,2,13,0,0,0,0,0,0,0,0,0,0,0,0,0,0],"split_type":[0,0,0,0,0,0,0,0,0,0,0,0,0,0,0,0,0,0,0,0,0,0,0,0,0,0,0,0,0,0,0,0,0,0,0,0,0,0,0,0,0],"sum_hessian":[2.8797E4,2.521E4,3.587E3,2.4981E4,2.29E2,2.924E3,6.63E2,2.4921E4,6E1,1.78E2,5.1E1,2.744E3,1.8E2,1.24E2,5.39E2,2.4569E4,3.52E2,9.9E1,7.9E1,2.411E3,3.33E2,5.8E1,1.22E2,7.4E1,5E1,2.54E2,2.85E2,2.4514E4,5.5E1,7.3E1,2.79E2,1.899E3,5.12E2,2.45E2,8.8E1,6.4E1,5.8E1,9.5E1,1.59E2,1.66E2,1.19E2],"tree_param":{"num_deleted":"0","num_feature":"29","num_nodes":"41","size_leaf_vector":"1"}},{"base_weights":[4.1367998E-4,-7.4880046E-4,3.57835E-2,-1.3602175E-3,7.047929E-2,-6.365896E-2,6.0426902E-2,-2.4038387E-4,-5.2773625E-2,8.485675E-3,1.8201042E-2,3.9430205E-3,-1.22369625E-1,9.176362E-2,2.924821E-3,8.018076E-3,-5.2840747E-3,-8.643174E-2,1.983622E-2,8.7189995E-2,-6.3448683E-3,-2.2263553E-3,-8.602939E-3,3.5633832E-2,1.4750947E-1,8.811556E-3,-4.8566777E-2,-2.4145395E-3,5.730351E-4,-1.0988569E-3,6.419833E-5,-1.8385736E-3,-6.211058E-3,6.05856E-3,-1.372505E-3,-1.30036E-3,9.537236E-3,7.28538E-3,-3.295955E-3,9.042601E-3,2.9607168E-3,-6.9292536E-4,-7.421014E-3],"categories":[],"categories_nodes":[],"categories_segments":[],"categories_sizes":[],"default_left":[0,0,0,0,0,0,0,0,0,0,0,0,0,0,0,0,0,0,0,0,0,0,0,0,0,0,0,0,0,0,0,0,0,0,0,0,0,0,0,0,0,0,0],"id":27,"left_children":[1,3,5,7,9,11,13,15,17,-1,19,-1,21,23,25,27,29,31,33,35,-1,-1,-1,37,39,-1,41,-1,-1,-1,-1,-1,-1,-1,-1,-1,-1,-1,-1,-1,-1,-1,-1],"loss_changes":[1.1874778E0,1.2178427E0,2.2559485E0,1.5962392E0,1.2316053E0,1.5408854E0,1.3277514E0,1.1302999E0,1.4460655E0,0E0,1.5826635E0,0E0,4.951694E-1,1.4872775E0,2.3376756E0,1.9950795E0,1.8471454E0,7.535918E-1,9.0417683E-1,1.2592258E0,0E0,0E0,0E0,2.681222E0,6.92904E-1,0E0,6.98023E-1,0E0,0E0,0E0,0E0,0E0,0E0,0E0,0E0,0E0,0E0,0E0,0E0,0E0,0E0,0E0,0E0],"parents":[2147483647,0,0,1,1,2,2,3,3,4,4,5,5,6,6,7,7,8,8,10,10,12,12,13,13,14,14,15,15,16,16,17,17,18,18,19,19,23,23,24,24,26,26],"right_children":[2,4,6,8,10,12,14,16,18,-1,20,-1,22,24,26,28,30,32,34,36,-1,-1,-1,38,40,-1,42,-1,-1,-1,-1,-1,-1,-1,-1,-1,-1,-1,-1,-1,-1,-1,-1],"split_conditions":[3.3262886E-2,3.9227855E-1,6.1174645E-3,2.705606E-1,7.0432395E-1,3.9286457E1,3.9761584E-2,2.1942047E-2,3.6499966E-3,8.485675E-3,1.4890172E-1,3.9430205E-3,1.9983454E-2,3.0737158E-2,-1.3672526E-2,-2.0208666E-2,5.26578E-3,5.631311E-1,3.2458432E-2,4.7165602E-1,-6.3448683E-3,-2.2263553E-3,-8.602939E-3,4.863085E-2,5.3121157E-2,8.811556E-3,6.478312E-2,-2.4145395E-3,5.730351E-4,-1.0988569E-3,6.419833E-5,-1.8385736E-3,-6.211058E-3,6.05856E-3,-1.372505E-3,-1.30036E-3,9.537236E-3,7.28538E-3,-3.295955E-3,9.042601E-3,2.9607168E-3,-6.9292536E-4,-7.421014E-3],"split_indices":[17,28,25,28,11,13,16,18,23,0,7,0,3,16,23,26,25,11,6,5,0,0,0,3,26,0,18,0,0,0,0,0,0,0,0,0,0,0,0,0,0,0,0],"split_type":[0,0,0,0,0,0,0,0,0,0,0,0,0,0,0,0,0,0,0,0,0,0,0,0,0,0,0,0,0,0,0,0,0,0,0,0,0,0,0,0,0,0,0],"sum_hessian":[2.8879E4,2.7961E4,9.18E2,2.7724E4,2.37E2,1.82E2,7.36E2,2.7134E4,5.9E2,8.1E1,1.56E2,5.3E1,1.29E2,4.76E2,2.6E2,1.0288E4,1.6846E4,4.03E2,1.87E2,1.06E2,5E1,5.1E1,7.8E1,2.38E2,2.38E2,5.9E1,2.01E2,5.92E2,9.696E3,4.756E3,1.209E4,1.75E2,2.28E2,5.9E1,1.28E2,5.1E1,5.5E1,1.14E2,1.24E2,1.72E2,6.6E1,1.5E2,5.1E1],"tree_param":{"num_deleted":"0","num_feature":"29","num_nodes":"43","size_leaf_vector":"1"}},{"base_weights":[-1.8740298E-4,1.1166304E-2,-3.4508996E-3,2.144918E-2,-1.00116525E-2,2.9646734E-2,-4.8357835E-3,5.2914742E-2,1.1712642E-2,-6.864393E-2,1.3036028E-2,-4.433508E-2,4.799826E-2,4.8811827E-2,-5.73019E-3,2.158114E-2,7.421496E-2,6.0306128E-2,3.4347032E-3,-1.2966251E-1,-3.1251445E-2,-2.7426304E-2,2.775444E-2,-6.252942E-3,5.8437034E-4,3.4749497E-2,6.4896545E-3,-1.1237962E-2,1.2609167E-1,-2.9025063E-2,-3.3669774E-3,-2.2581802E-3,2.5922102E-3,4.629933E-3,-8.408854E-4,8.9846656E-4,6.2246523E-3,7.384034E-4,-2.0912364E-3,-3.5687876E-3,-1.2626528E-2,-8.797678E-3,-2.1257631E-4,-2.5677697E-3,3.3436809E-3,6.223634E-3,7.9895975E-4,3.3472558E-3,-2.6256607E-3,2.9022612E-3,-3.8386832E-4,2.6012377E-3,-4.581322E-3,2.796303E-3,9.271952E-3,3.4128962E-4,-4.214324E-3,-2.1178194E-4,2.9065947E-3],"categories":[],"categories_nodes":[],"categories_segments":[],"categories_sizes":[],"default_left":[0,0,0,0,0,0,0,0,0,0,0,0,0,0,0,0,0,0,0,0,0,0,0,0,0,0,0,0,0,0,0,0,0,0,0,0,0,0,0,0,0,0,0,0,0,0,0,0,0,0,0,0,0,0,0,0,0,0,0],"id":28,"left_children":[1,3,5,7,9,11,13,15,17,19,21,23,25,27,29,31,33,35,37,39,41,43,45,-1,47,49,-1,51,53,55,57,-1,-1,-1,-1,-1,-1,-1,-1,-1,-1,-1,-1,-1,-1,-1,-1,-1,-1,-1,-1,-1,-1,-1,-1,-1,-1,-1,-1],"loss_changes":[1.0664548E0,1.3996065E0,1.0248616E0,1.324718E0,2.840056E0,1.221324E0,1.0299414E0,6.8049383E-1,1.3292422E0,1.3489578E0,8.9943314E-1,6.4913905E-1,7.7573955E-1,1.6349217E0,1.1619132E0,8.406E-1,1.0190554E0,1.3048651E0,1.4496778E0,1.5933311E0,1.4409149E0,9.128085E-1,1.2587521E0,0E0,4.1225252E-1,6.142199E-1,0E0,1.0167998E0,6.3090754E-1,3.8519683E0,1.024073E0,0E0,0E0,0E0,0E0,0E0,0E0,0E0,0E0,0E0,0E0,0E0,0E0,0E0,0E0,0E0,0E0,0E0,0E0,0E0,0E0,0E0,0E0,0E0,0E0,0E0,0E0,0E0,0E0],"parents":[2147483647,0,0,1,1,2,2,3,3,4,4,5,5,6,6,7,7,8,8,9,9,10,10,11,11,12,12,13,13,14,14,15,15,16,16,17,17,18,18,19,19,20,20,21,21,22,22,24,24,25,25,27,27,28,28,29,29,30,30],"right_children":[2,4,6,8,10,12,14,16,18,20,22,24,26,28,30,32,34,36,38,40,42,44,46,-1,48,50,-1,52,54,56,58,-1,-1,-1,-1,-1,-1,-1,-1,-1,-1,-1,-1,-1,-1,-1,-1,-1,-1,-1,-1,-1,-1,-1,-1,-1,-1,-1,-1],"split_conditions":[2.5701118E1,6.5994384E-3,1.4183138E-2,-1.38969915E-2,8.803149E-3,1.1891068E-2,-2.7118084E-1,-2.1403125E-2,-3.251523E-1,-2.6225024E-1,8.257818E0,-9.907369E-2,3.2171432E-2,1.1356757E-2,-2.418539E-1,2.2100547E-2,3.2714643E-2,-2.385135E-1,2.8682802E-2,8.700862E-3,-1.9840854E0,3.8491422E-3,-3.9297456E-1,-6.252942E-3,1.4331411E-1,4.9657235E-3,6.4896545E-3,9.384377E-4,-3.9330202E-1,-3.2896847E-2,1.6557318E-1,-2.2581802E-3,2.5922102E-3,4.629933E-3,-8.408854E-4,8.9846656E-4,6.2246523E-3,7.384034E-4,-2.0912364E-3,-3.5687876E-3,-1.2626528E-2,-8.797678E-3,-2.1257631E-4,-2.5677697E-3,3.3436809E-3,6.223634E-3,7.9895975E-4,3.3472558E-3,-2.6256607E-3,2.9022612E-3,-3.8386832E-4,2.6012377E-3,-4.581322E-3,2.796303E-3,9.271952E-3,3.4128962E-4,-4.214324E-3,-2.1178194E-4,2.9065947E-3],"split_indices":[12,25,18,24,25,18,8,26,10,10,12,5,2,25,5,18,18,22,18,25,14,8,10,0,11,9,0,24,5,28,2,0,0,0,0,0,0,0,0,0,0,0,0,0,0,0,0,0,0,0,0,0,0,0,0,0,0,0,0],"split_type":[0,0,0,0,0,0,0,0,0,0,0,0,0,0,0,0,0,0,0,0,0,0,0,0,0,0,0,0,0,0,0,0,0,0,0,0,0,0,0,0,0,0,0,0,0,0,0,0,0,0,0,0,0,0,0,0,0,0,0],"sum_hessian":[2.878E4,6.425E3,2.2355E4,4.325E3,2.1E3,8.97E2,2.1458E4,1.021E3,3.304E3,5.92E2,1.508E3,1.78E2,7.19E2,3.51E2,2.1107E4,4.14E2,6.07E2,4.8E2,2.824E3,2.24E2,3.68E2,4.02E2,1.106E3,6.3E1,1.15E2,6.2E2,9.9E1,1.98E2,1.53E2,1.943E3,1.9164E4,1.29E2,2.85E2,5.05E2,1.02E2,2.9E2,1.9E2,2.259E3,5.65E2,1.53E2,7.1E1,5.7E1,3.11E2,3.21E2,8.1E1,1.19E2,9.87E2,5.1E1,6.4E1,4E2,2.2E2,1.11E2,8.7E1,7.1E1,8.2E1,1.179E3,7.64E2,1.8898E4,2.66E2],"tree_param":{"num_deleted":"0","num_feature":"29","num_nodes":"59","size_leaf_vector":"1"}},{"base_weights":[1.2255125E-3,3.1491082E-2,1.4269922E-4,7.482758E-2,1.0893375E-2,-4.844559E-2,1.2030541E-3,-4.8411367E-4,1.00527674E-1,-2.031036E-2,4.0282916E-2,-3.0406032E-2,-9.549216E-2,5.83275E-2,4.4340966E-4,8.861443E-3,6.795787E-2,3.0692812E-2,-8.8893995E-2,6.1811735E-3,1.7873226E-2,-6.306927E-2,1.1309014E-2,-1.4697015E-1,-4.906984E-4,2.1424307E-2,1.1797045E-1,9.998775E-4,-8.4854506E-2,6.3165776E-3,-1.4011275E-3,5.033155E-3,-1.8010375E-3,-2.6335588E-4,-6.7392476E-3,4.3707024E-3,-7.4840395E-4,-1.6043317E-3,-8.812692E-3,2.3110772E-3,-3.284352E-3,-1.0001523E-2,-4.447365E-3,3.1724316E-3,-5.404725E-3,1.5938965E-3,9.134151E-3,1.309975E-3,-2.717117E-5,-7.620591E-3,1.0569035E-3],"categories":[],"categories_nodes":[],"categories_segments":[],"categories_sizes":[],"default_left":[0,0,0,0,0,0,0,0,0,0,0,0,0,0,0,0,0,0,0,0,0,0,0,0,0,0,0,0,0,0,0,0,0,0,0,0,0,0,0,0,0,0,0,0,0,0,0,0,0,0,0],"id":29,"left_children":[1,3,5,7,9,11,13,-1,15,17,19,21,23,25,27,-1,29,31,33,-1,35,37,39,41,-1,43,45,47,49,-1,-1,-1,-1,-1,-1,-1,-1,-1,-1,-1,-1,-1,-1,-1,-1,-1,-1,-1,-1,-1,-1],"loss_changes":[9.487766E-1,8.9181745E-1,1.4401685E0,7.0032847E-1,6.235042E-1,5.0377E-1,1.1870676E0,0E0,6.0499716E-1,1.1570628E0,6.5146303E-1,5.906968E-1,7.26297E-1,7.876369E-1,1.2815595E0,0E0,9.8401797E-1,8.9053965E-1,5.4040825E-1,0E0,6.339241E-1,8.464865E-1,5.1646835E-1,2.9931474E-1,0E0,1.220634E0,7.5744057E-1,1.0432158E0,1.2563223E0,0E0,0E0,0E0,0E0,0E0,0E0,0E0,0E0,0E0,0E0,0E0,0E0,0E0,0E0,0E0,0E0,0E0,0E0,0E0,0E0,0E0,0E0],"parents":[2147483647,0,0,1,1,2,2,3,3,4,4,5,5,6,6,8,8,9,9,10,10,11,11,12,12,13,13,14,14,16,16,17,17,18,18,20,20,21,21,22,22,23,23,25,25,26,26,27,27,28,28],"right_children":[2,4,6,8,10,12,14,-1,16,18,20,22,24,26,28,-1,30,32,34,-1,36,38,40,42,-1,44,46,48,50,-1,-1,-1,-1,-1,-1,-1,-1,-1,-1,-1,-1,-1,-1,-1,-1,-1,-1,-1,-1,-1,-1],"split_conditions":[-7.05856E-2,-1.1699974E-1,2.4618185E-3,-1.621293E-1,-6.282477E-2,1.4396177E-3,-2.5557065E-1,-4.8411367E-4,-1.5431531E-1,-1.0095627E-1,5.0067767E-3,-1.6990092E-1,1.6956273E-3,-2.4722512E-1,4.01331E0,8.861443E-3,1.415975E0,3.5193067E-2,-2.5147475E-2,6.1811735E-3,8.549015E-1,-1.0024202E-1,-1.1818077E-1,-1.5932924E-1,-4.906984E-4,1.5028533E-1,-5.696479E-2,1.48869585E-2,2.8843665E-1,6.3165776E-3,-1.4011275E-3,5.033155E-3,-1.8010375E-3,-2.6335588E-4,-6.7392476E-3,4.3707024E-3,-7.4840395E-4,-1.6043317E-3,-8.812692E-3,2.3110772E-3,-3.284352E-3,-1.0001523E-2,-4.447365E-3,3.1724316E-3,-5.404725E-3,1.5938965E-3,9.134151E-3,1.309975E-3,-2.717117E-5,-7.620591E-3,1.0569035E-3],"split_indices":[1,2,11,2,27,24,4,0,7,3,25,8,23,28,21,0,21,18,0,0,21,28,8,28,0,11,2,18,11,0,0,0,0,0,0,0,0,0,0,0,0,0,0,0,0,0,0,0,0,0,0],"split_type":[0,0,0,0,0,0,0,0,0,0,0,0,0,0,0,0,0,0,0,0,0,0,0,0,0,0,0,0,0,0,0,0,0,0,0,0,0,0,0,0,0,0,0,0,0,0,0,0,0,0,0],"sum_hessian":[2.895E4,9.99E2,2.7951E4,3.21E2,6.78E2,5.96E2,2.7355E4,7.5E1,2.46E2,3.29E2,3.49E2,4.32E2,1.64E2,3.58E2,2.6997E4,7.2E1,1.74E2,1.89E2,1.4E2,7.3E1,2.76E2,2.42E2,1.9E2,1.02E2,6.2E1,2.22E2,1.36E2,2.6823E4,1.74E2,1.08E2,6.6E1,9.2E1,9.7E1,5E1,9E1,8.8E1,1.88E2,1.91E2,5.1E1,1.31E2,5.9E1,5.2E1,5E1,1.68E2,5.4E1,5.9E1,7.7E1,1.547E3,2.5276E4,1.06E2,6.8E1],"tree_param":{"num_deleted":"0","num_feature":"29","num_nodes":"51","size_leaf_vector":"1"}},{"base_weights":[-2.350732E-4,-1.4596903E-3,3.714082E-2,-1.0820008E-3,-7.361904E-3,9.13528E-2,5.1147295E-3,-1.7792268E-3,9.6101984E-2,1.1399911E-1,-1.7914864E-3,-9.441589E-2,3.4693394E-2,-7.4730895E-4,-5.053243E-2,1.474886E-1,