tree
version=v4
num_class=1
num_tree_per_iteration=1
label_index=0
max_feature_idx=28
objective=regression
feature_names=ret_1d ret_5d ret_10d ret_21d ret_63d mom_12_1 dist_sma20 dist_sma50 dist_sma200 sma20_50 hi52_dist lo52_dist rsi_5 rsi_14 boll_z down_streak vol_21d vol_63d atr_pct range_pos gap vol_ratio turnover_z nifty_ret_5d nifty_ret_21d nifty_vol_21d nifty_dist_sma50 rs_21d rs_63d
feature_infos=[-0.14774798671818146:0.19997537811905386] [-0.25897041272693233:0.35381840882291749] [-0.71455663447239148:0.4888265629240931] [-0.73885684273370078:0.62737341772151889] [-0.73780806432237322:1.1240763741237396] [-0.77908854163275043:2.788801740552969] [-0.58242641133259054:0.38212542939452221] [-0.66299712297238445:0.4449260684412315] [-0.72637889708867531:0.76161359982465671] [-0.57656678182319077:0.22193802167675281] [-0.81160635661815927:0] [0:3.0827767590741209] [0:99.99999999989177] [0:99.820581459918159] [-4.1398223779027559:4.0952734423527524] [0:15] [0.0041173171733105071:0.14804814997149465] [0.0066381666618586799:0.087516065025183346] [0.0089662718251451203:0.25432187210036961] [0:0.99999999998913036] [-0.18415288168251798:0.18766756032171572] [0.061675563625124226:10.077521021496063] [-2.7519391194040814:7.8077551964876637] [-0.057729062348679472:0.07707436936302603] [-0.12365739662022956:0.12467961059120158] [0.0042260658689661753:0.018252042845920528] [-0.10052460749602199:0.070054734007278796] [-0.74093120042114058:0.55487641540625643] [-0.82798628078137759:1.0152395686058635]
tree_sizes=3775 4594 3678 4109 3753 4590 4204 3946 4073 4567 4142 4502 3024 3734 3472 3211 2566 2823 3319 3774 3030 3029 1918 4163 1825 3486 1454 4595

Tree=0
num_leaves=42
num_cat=0
split_feature=18 18 11 8 26 21 9 26 9 26 9 11 8 5 8 5 28 17 21 2 12 9 4 17 11 26 8 5 5 3 4 11 17 13 3 5 27 21 16 13 27
split_gain=4.01026 5.11997 4.2184 4.01056 3.88749 4.24903 3.09992 2.47985 2.37545 3.92446 2.37269 2.97902 3.13939 2.36295 2.2994 1.91813 2.06967 3.0925 2.41665 2.11869 1.81455 1.79084 1.95896 1.44002 1.4363 1.24905 1.15957 1.33728 1.01196 0.929959 0.865721 0.837435 0.964047 0.745914 0.742573 0.670599 0.90021 0.665053 0.600121 0.365877 0.213065
threshold=0.040019729397551204 0.021962078690062146 0.51416405358756534 -0.12593631713764672 -0.020996685374855214 0.58104131624554156 -0.084350728136087502 0.039047923660944457 -0.019021486717346155 0.03736168625008663 0.0036405143452151738 0.80423800327128758 0.1600347990414053 0.0071867113450603268 0.11992626117141227 -0.1862700953160982 -0.032936258537094747 0.023091455213986544 0.67971331252427958 0.021604330540579867 50.388349529897503 -0.10987455540118456 -0.1741266560143053 0.01980736302623275 0.057371464686551528 -0.012773555732965234 0.16666005319796032 0.06016052728719435 0.39296070125075838 0.037843628441079143 -0.089804935678163986 0.11451535117611956 0.029759640067186038 34.191042267341217 -0.12427019408064065 0.14364500615493084 -0.05345698477403537 0.71358345670663181 0.012302488502013827 62.134020342330977 -0.014011375772421951
decision_type=2 2 2 2 2 2 2 2 2 2 2 2 2 2 2 2 2 2 2 2 2 2 2 2 2 2 2 2 2 2 2 2 2 2 2 2 2 2 2 2 2
left_child=1 4 6 21 29 26 24 13 9 -8 14 23 -13 -7 25 -5 28 19 -19 -18 -10 -2 35 -12 34 -4 27 -6 30 33 -17 -24 -33 40 -3 36 -23 -16 -35 -9 -1
right_child=3 2 10 15 5 7 8 39 20 -11 11 12 -14 -15 37 16 17 18 -20 -21 -22 22 31 -25 -26 -27 -28 -29 -30 -31 -32 32 -34 38 -36 -37 -38 -39 -40 -41 -42
leaf_value=0.49991409046098212 0.50254140840570227 0.50662198438010109 0.50853046758152554 0.49922012874423483 0.50173250582431705 0.50428863316251304 0.50090277478962175 0.49833659416144394 0.50344043159875174 0.50929465263786289 0.50522902850629425 0.5111182388882678 0.50160871108907146 0.50601571124667255 0.49632403332862013 0.50092223412666126 0.5043949784104258 0.50155720188551778 0.50862439134153237 0.4960733417454824 0.50199225681615933 0.51554722347515836 0.50998216311586797 0.50881004536226249 0.50372034516367326 0.50289506316691746 0.49728684152981933 0.50554623519146957 0.49794470286460146 0.50458302633351571 0.50694441691941039 0.50157574910553737 0.50823949200293173 0.49944598642132765 0.51265643883914347 0.50832600384101922 0.50967964166968172 0.50092202279772713 0.49446140833817853 0.50227910314765556 0.50307165957178879
leaf_weight=111 114 100 144 180 1171 4287 3554 143 4506 145 509 102 582 3681 124 148 246 147 683 111 4160 157 114 626 198 310 116 286 133 100 100 116 102 148 104 101 112 215 102 100 103
leaf_count=111 114 100 144 180 1171 4287 3554 143 4506 145 509 102 582 3681 124 148 246 147 683 111 4160 157 114 626 198 310 116 286 133 100 100 116 102 148 104 101 112 215 102 100 103
internal_value=0.503574 0.503386 0.502808 0.50546 0.504246 0.504479 0.502433 0.504935 0.502292 0.501232 0.504638 0.505633 0.503027 0.505086 0.502356 0.504109 0.50467 0.505699 0.507373 0.501808 0.502745 0.508354 0.509298 0.507204 0.506754 0.504683 0.502098 0.502481 0.501463 0.50021 0.503351 0.50651 0.504694 0.499267 0.509698 0.5118 0.513104 0.49924 0.497412 0.499959 0.501434
internal_weight=28291 25727 15379 2564 10348 9784 12767 8211 12365 3699 2612 1819 684 7968 793 1748 1568 1187 830 357 8666 816 702 1135 402 454 1573 1457 381 564 248 332 218 464 204 370 269 339 250 243 214
internal_count=28291 25727 15379 2564 10348 9784 12767 8211 12365 3699 2612 1819 684 7968 793 1748 1568 1187 830 357 8666 816 702 1135 402 454 1573 1457 381 564 248 332 218 464 204 370 269 339 250 243 214
is_linear=0
shrinkage=1


Tree=1
num_leaves=48
num_cat=0
split_feature=10 25 17 28 25 17 12 17 25 25 25 13 25 25 18 25 25 24 11 25 9 21 25 11 5 16 9 21 9 5 16 21 12 18 7 27 27 17 23 24 27 25 10 14 9 28 5
split_gain=4.63809 4.28678 5.81284 5.06428 4.28433 10.1263 4.23576 3.54631 3.39697 2.63098 3.57574 2.56379 2.50132 2.59161 2.71504 2.47076 2.3258 2.89705 2.25276 2.06184 2.02851 1.96262 1.95957 1.8879 1.88166 1.86649 1.74571 2.14274 1.62354 1.58241 1.46148 1.42155 1.3422 1.30385 1.68515 1.28387 1.2011 1.18075 1.14526 1.8539 1.14397 1.1299 1.06265 1.23542 0.976242 1.10481 0.936349
threshold=-0.14874348132666101 0.005214044796954735 0.017824623837400681 -0.11993287396728868 0.011279239296521446 0.02101403392015579 28.694577904561893 0.020604349588523915 0.0096828193187429041 0.011756347437825864 0.0074130158802792985 71.123441780543615 0.0066542354108236257 0.0052115203049092349 0.023683125798053938 0.0065166607890150647 0.0086974777571446563 0.030683949238499823 0.21425118868982454 0.0088031488245766121 -0.0042006438678264804 1.2928480692178155 0.015252383676655211 0.25540165946730747 -0.08531544164913156 0.024174266427501815 -0.050139948966448571 0.72787808245926022 0.037184227467778726 -0.2609921755365171 0.013245716048272871 0.5068497790365748 26.635960181528684 0.021496324324923207 -0.07173670011779508 -0.029937718408797383 0.063311201497813899 0.017638264485928461 0.00032308938065195308 -0.00069029352399224686 -0.0074288619910752854 0.012567608656194841 -0.043491422157885311 1.5640758256904594 -0.03677462049016577 -0.030739626964414676 -0.26538031464867895
decision_type=2 2 2 2 2 2 2 2 2 2 2 2 2 2 2 2 2 2 2 2 2 2 2 2 2 2 2 2 2 2 2 2 2 2 2 2 2 2 2 2 2 2 2 2 2 2 2
left_child=1 2 31 9 11 22 38 16 15 10 29 18 13 14 -13 -9 17 -5 36 -12 -10 -15 32 25 37 -11 27 -8 -26 -3 -18 44 -6 46 -35 -28 40 -20 39 -4 -2 -34 43 -7 -1 -46 -33
right_child=4 3 6 7 5 42 26 8 20 23 19 12 -14 21 -16 -17 30 -19 24 -21 -22 -23 -24 -25 28 -27 35 -29 -30 -31 -32 33 41 34 -36 -37 -38 -39 -40 -41 -42 -43 -44 -45 45 -47 -48
leaf_value=-0.0071955251579538526 0.0026660183410124128 0.0070031097065313304 -0.0029998989738309863 -0.0010725016757946698 0.0008055176557186846 0.0032196770495344046 -0.0076447266767188764 0.00050519306688132657 0.0045686374601062747 0.0033574190290176944 -0.0042014838090092595 0.0055674071755692257 0.0059026104852757458 -0.0027789518382271118 -0.00098528254478943197 -0.0044157342407989374 -0.0061752065840531079 0.0046269202041742587 -0.00094530294140271259 0.0008821996495122263 0.00092502099937022723 0.0035774475464666923 -0.0091023040806486166 -0.00090168750236236219 -2.4480072071704371e-05 0.0091650392331975739 -0.0099020601245364739 0.0022962569820288666 0.0016538741476694423 0.0019826904342116485 -0.0022596309954389438 -0.0019177269240442133 -0.0058604746008740112 0.0020465706780981108 -0.0023719104151249679 -0.0057450430257319426 0.0057840507753558236 -0.0069598715249894142 -0.0049026405560606435 0.002959571302352363 0.00045461142430656802 -0.0021812932771650673 0.0061799423355956146 -0.0026022011069899314 0.00022262046909178794 -0.0056726155085031135 0.0013764109176781613
leaf_weight=112 1328 203 261 2381 154 412 101 638 571 323 372 526 472 402 226 425 279 246 204 430 1154 174 184 127 5020 242 305 117 2021 692 1634 259 482 280 941 475 194 136 156 261 1045 368 204 117 228 122 1291
leaf_count=112 1328 203 261 2381 154 412 101 638 571 323 372 526 472 402 226 425 279 246 204 430 1154 174 184 127 5020 242 305 117 2021 692 1634 259 482 280 941 475 194 136 156 261 1045 368 204 117 228 122 1291
internal_value=1.96155e-05 -0.000599241 -0.00180356 9.17845e-06 0.0006818 -0.00150728 -0.00419321 -0.000642567 0.000761045 0.00200834 0.000948761 0.00103975 0.0027762 0.001665 0.00359811 -0.00146225 -0.00150452 -0.000538791 0.000725558 -0.00147582 0.00213111 -0.00085879 -0.00435879 0.00460675 0.000281832 0.00584493 -0.00626501 -0.00230943 0.000457263 0.0031214 -0.0028307 -0.000564761 -0.00348946 -0.000136656 -0.00135866 -0.00737054 0.00200142 -0.00335113 -0.00114357 -2.01638e-05 0.00169218 -0.00426761 0.00311427 0.00193204 -0.00313247 -0.00183229 0.000825971
internal_weight=28295 14626 4909 9717 13669 1921 1676 7328 2788 2389 1697 11748 1800 1328 752 1063 4540 2627 9948 802 1725 576 1188 692 7381 565 998 218 7041 895 1913 3233 1004 2771 1221 780 2567 340 678 522 2373 850 733 529 462 350 1550
internal_count=28295 14626 4909 9717 13669 1921 1676 7328 2788 2389 1697 11748 1800 1328 752 1063 4540 2627 9948 802 1725 576 1188 692 7381 565 998 218 7041 895 1913 3233 1004 2771 1221 780 2567 340 678 522 2373 850 733 529 462 350 1550
is_linear=0
shrinkage=0.05


Tree=2
num_leaves=38
num_cat=0
split_feature=5 4 16 27 24 28 17 8 7 8 8 28 8 8 16 8 28 16 17 23 28 23 24 7 14 2 21 21 13 13 8 17 23 17 21 8 18
split_gain=3.8406 3.54989 3.38617 2.47726 2.36595 2.72011 2.04791 2.54028 2.1199 2.08876 2.03832 2.4259 1.852 1.79357 3.39584 2.2216 1.83086 1.80377 1.77812 1.77237 2.1149 1.65635 1.65571 1.54941 1.53768 1.26347 1.23799 1.23726 1.20638 1.10499 0.974384 0.906472 1.10213 0.944553 0.593167 0.57798 0.555802
threshold=-0.071638651065872069 -0.25519130032898851 0.010311267756319234 0.085331090254942968 0.013610702268622711 -0.073367581500295029 0.014715313621042845 0.066547396385899141 -0.14062964202685288 0.0049860685178035888 0.014380642238393639 0.26851372327331197 0.24162331360078573 -0.1242434842501907 0.021854124871344315 -0.030088631783634464 0.083791972242352478 0.016168978675478597 0.027545200585526421 0.0013225008525586948 -0.24718343175870092 0.0037909595928447008 0.018289999378048098 -0.023633776280131909 1.5830601083277605 -0.030568398131664395 0.40685406564378229 0.58104131624554156 41.388730617676096 65.16736587792515 -0.042814834743808643 0.014315997217730784 -0.018799853057183288 0.0088174164319041477 0.75853592542548698 0.043593545343305957 0.016492940838798816
decision_type=2 2 2 2 2 2 2 2 2 2 2 2 2 2 2 2 2 2 2 2 2 2 2 2 2 2 2 2 2 2 2 2 2 2 2 2 2
left_child=1 19 27 13 6 24 7 9 -8 -3 29 18 -13 14 17 16 -15 -4 -12 20 -1 -16 -17 34 30 -10 -25 28 -2 -5 -6 32 -29 -34 -7 -33 -30
right_child=2 4 3 10 5 23 8 -9 25 -11 11 12 -14 15 21 22 -18 -19 -20 -21 -22 -23 -24 26 -26 -27 -28 31 36 -31 -32 35 33 -35 -36 -37 -38
leaf_value=-0.0022733673102573143 0.0034392083690730499 -0.00081272518775796557 0.002930777703053989 0.00016740796519033294 0.00058656336122953523 0.00040994879067875444 0.0043338419951032851 -0.0063191413577175087 -0.0011791756466273361 0.0028294301805681715 0.0026057978454280387 -0.0053631565867701785 0.0012519763360148211 -0.0018493967237694067 0.0069048446544201867 0.0004711040087445883 0.0050151926555813721 -0.0025561264115998711 0.0078938497093413544 0.0093620588953545279 0.0060266262098379875 0.0011317243065568619 -0.0010665025372610369 -0.0065530293135877661 0.0065163762650244234 -0.0032321381684291685 -0.001054323853698382 -0.0012441873038496008 -0.0051964074262650685 -0.0062388152529169391 0.0043511573690353193 -0.0025221855108867645 0.00027260238220683334 0.0036248036270713152 0.0057422963705836636 0.0020165658488946214 -0.00018945886703768691
leaf_weight=154 114 2090 229 176 1064 100 115 177 1108 485 1306 153 343 2537 328 6607 101 433 181 106 153 200 2382 107 152 2316 2361 151 120 109 205 135 241 1641 109 146 103
leaf_count=154 114 2090 229 176 1064 100 115 177 1108 485 1306 153 343 2537 328 6607 101 433 181 106 153 200 2382 107 152 2316 2361 151 120 109 205 135 241 1641 109 146 103
internal_value=-1.50539e-05 -0.000758301 0.000437616 0.000147996 -0.000939024 -4.1356e-06 -0.00154802 -0.000525004 -0.00234353 -0.000126727 0.00167119 0.00223945 -0.000788579 -0.000121536 0.00172729 -0.00031076 -0.00158658 -0.000658089 0.00324947 0.00378778 0.00186311 0.00471806 6.36528e-05 -0.00094267 0.00176395 -0.0025678 -0.00129272 0.00208564 -0.000744847 -0.00228269 0.00119471 0.00249786 0.00286578 0.00319554 0.00319093 -0.000163973 -0.00288378
internal_weight=28538 10802 17736 15085 10389 4098 6291 2752 3539 2575 2268 1983 496 12817 1190 11627 2638 662 1487 413 307 528 8989 2677 1421 3424 2468 2651 337 285 1269 2314 2033 1882 209 281 223
internal_count=28538 10802 17736 15085 10389 4098 6291 2752 3539 2575 2268 1983 496 12817 1190 11627 2638 662 1487 413 307 528 8989 2677 1421 3424 2468 2651 337 285 1269 2314 2033 1882 209 281 223
is_linear=0
shrinkage=0.05


Tree=3
num_leaves=43
num_cat=0
split_feature=10 4 13 26 1 17 4 24 5 9 10 5 18 28 26 4 21 27 14 24 16 18 2 1 16 16 10 17 18 5 24 22 13 9 18 4 17 10 9 10 17 17
split_gain=5.17717 3.6674 2.49836 2.93202 2.45862 2.23847 2.59809 3.0322 2.22905 2.19349 2.21955 2.15648 2.1149 2.10702 2.14072 1.98673 1.94878 1.86322 1.83357 1.81878 1.61162 2.55982 1.56973 1.46564 1.439 1.88694 1.72418 1.66309 1.35094 1.32341 1.30519 1.20628 1.08247 1.03527 0.91867 0.757052 0.760444 0.641547 0.743285 0.608489 0.583141 0.276932
threshold=-0.15927678032654832 -0.22959657526178315 68.920429551484261 0.018276153923009856 0.043489294753479964 0.029191442073346178 0.090670847453106287 0.018246958127504213 -0.071638651065872069 0.080029462468817938 -0.28285635201177778 0.32361568918234379 0.047055122183305341 0.29214531657650838 0.039047923660944457 0.34396592097335282 0.55372691184787359 0.039532490702545726 0.40741591348824097 -0.018017994193723571 0.018905209973016871 0.02895671125067133 0.025762739766823643 0.023662966716259563 0.018227291100564109 0.024174266427501815 -0.027592259216044409 0.011947612276426512 0.030315379400970694 0.071752322305466146 -0.019285852245095266 -0.17379370583788964 74.961837034263127 -0.10112427252094518 0.037357381697968241 0.1954233016372128 0.023244852569496929 -0.032456389505059462 -0.0073784405248791809 -0.35462420832420039 0.017638264485928461 0.023833691653193805
decision_type=2 2 2 2 2 2 2 2 2 2 2 2 2 2 2 2 2 2 2 2 2 2 2 2 2 2 2 2 2 2 2 2 2 2 2 2 2 2 2 2 2 2
left_child=1 19 4 8 11 6 7 16 23 10 18 13 -12 14 -2 28 -3 -9 -7 34 22 -22 -8 -4 27 26 -26 -5 -13 -29 -10 37 -32 -21 40 36 -33 38 -6 -35 -1 -36
right_child=2 5 3 24 31 9 20 17 30 -11 12 15 -14 -15 -16 -17 -18 -19 -20 33 21 -23 -24 -25 25 -27 -28 29 -30 -31 32 35 -34 39 41 -37 -38 -39 -40 -41 -42 -43
leaf_value=6.3779493647180208e-05 0.00057039527340799223 -0.0027725122840721208 0.0039197169561022973 0.0031490234349551335 -0.00073367392109297349 0.007088062207109053 -0.0028319761984292916 0.0012676679031225796 -0.00072527574322472823 0.0083290821011617507 0.00053185992831199453 0.00048033878514205193 -0.0072225842769035988 -0.0049596326944026121 -0.0027825709104471836 0.0079448735460470946 -0.00083889935502875611 -0.0024864944402707228 -0.00013219938403790632 -0.0040631396351969457 0.0040547022165715162 -0.0028648467561598677 -0.0072042314768406505 -0.003484331351258637 0.0015555534447758727 -0.0014675609955582957 0.0093565390707463086 -0.00065067636301043203 0.0031061685079449199 -0.0057397660138312637 0.0033054644477092249 -0.0031545674739680133 0.0063827710559211936 0.003492879237341328 0.0052189707323642715 -0.0058966126406246565 0.0017327379243215547 -0.0024668191476603565 0.0052603621018524884 -0.00087030596982944639 0.0051542955703138939 0.0086271914350584643
leaf_weight=127 7795 1632 111 166 106 181 641 2264 113 106 291 1116 126 190 507 133 6465 387 171 111 181 511 302 168 167 198 123 339 873 205 549 390 596 178 133 187 100 115 101 145 101 108
leaf_count=127 7795 1632 111 166 106 181 641 2264 113 106 291 1116 126 190 507 133 6465 387 171 111 181 511 302 168 167 198 123 339 873 205 549 390 596 178 133 187 100 115 101 145 101 108
internal_value=3.03547e-05 -0.00064787 0.00069974 0.00205929 0.00037955 -0.000857864 -0.00103057 -0.000748092 0.00350462 0.00158622 0.000656773 0.000602746 -0.00181121 0.000246483 0.000365631 0.00202847 -0.00122863 0.000719625 0.00358049 0.0024353 -0.00288747 -0.00105496 -0.00423221 -0.000538635 0.000204976 0.00229519 0.00486425 -0.00123168 0.00163285 -0.00256844 0.00440133 -0.00199182 0.00490728 0.000102603 0.00459391 -0.00319007 -0.00215716 0.000527463 0.00219095 0.00153417 0.00231879 0.00674631
internal_weight=28509 14161 14348 2735 11613 13258 12383 10748 1537 875 769 10614 417 8492 8302 2122 8097 2651 352 903 1635 692 943 279 1198 488 290 710 1989 544 1258 999 1145 434 469 677 490 322 207 323 228 241
internal_count=28509 14161 14348 2735 11613 13258 12383 10748 1537 875 769 10614 417 8492 8302 2122 8097 2651 352 903 1635 692 943 279 1198 488 290 710 1989 544 1258 999 1145 434 469 677 490 322 207 323 228 241
is_linear=0
shrinkage=0.05


Tree=4
num_leaves=39
num_cat=0
split_feature=10 7 24 28 16 18 17 8 16 17 24 5 24 24 8 28 18 21 21 28 9 17 28 13 16 27 16 5 27 12 23 13 3 18 23 18 23 28
split_gain=4.30755 3.57699 3.35502 4.07501 2.36395 2.2394 2.9905 2.50077 2.07852 2.06178 3.36444 2.49465 2.40626 2.83262 2.10369 1.87025 1.7284 1.70477 1.66587 1.63727 1.63639 1.57944 1.57508 1.51767 1.34434 1.30095 1.16964 1.24724 1.16438 1.07216 0.989997 1.65044 0.889405 0.842129 0.73337 0.676044 0.666667 0.627845
threshold=-0.15378251599807133 -0.11642340199583893 0.028419721057177941 -0.073367581500295029 0.010382562752806799 0.021900235739588988 0.029759640067186038 -0.13304962870142015 0.025062154407706972 0.020379399343269076 0.072163440486781041 -0.11699541934678635 -0.022706092459831569 0.014572150380477768 0.46596109249343626 -0.22018773224783564 0.027806013831980992 0.54336548058094658 0.43016587396234379 -0.12364565139846916 0.075627335204371385 0.0086778633110651555 0.058311185773473224 26.511844244307152 0.019057681388753144 -0.16205728632508906 0.026843312310873526 0.052665176589932979 0.04228387164768866 73.003165407527845 -0.011970776018829508 45.840511734590109 0.021985926541071569 0.03082536351253462 0.0047701905560824107 0.01705589258131655 0.0070718217737756337 -0.045968748985278633
decision_type=2 2 2 2 2 2 2 2 2 2 2 2 2 2 2 2 2 2 2 2 2 2 2 2 2 2 2 2 2 2 2 2 2 2 2 2 2 2
left_child=1 8 5 28 17 18 20 -8 19 10 12 -11 23 -14 16 -10 -13 35 37 25 -7 34 -20 -6 -21 -1 27 -5 29 -4 32 -32 -23 -27 -19 -2 -28 -3
right_child=4 2 3 26 9 6 7 -9 15 11 -12 14 13 -15 -16 -17 -18 21 22 24 -22 30 -24 -25 -26 33 36 -29 -30 -31 31 -33 -34 -35 -36 -37 -38 -39
leaf_value=-0.0019286174744860653 -0.0040503025647030764 -0.0020552446904730458 0.0027013173196879649 -0.0020342333549822557 0.0031772791020759743 -0.0018994873512416062 0.0071582867013785289 -0.0004079995403455626 0.0012075583605716627 -0.0055205313178400203 -0.0083197387097468847 -0.00045777114272555885 0.00127506523672079 -0.00083191424638713964 -0.0049190274784235623 0.0085780497559426305 0.0027988119576219743 -0.0034919276554223632 0.00053209229110839863 -0.0058461442502870135 -0.0080495791164734831 -0.0017098945073347551 -0.0036927880098747098 -0.002214761037108976 0.00063074987591366181 0.00095022499390747829 0.0047555350011125918 0.0027590259824964137 -0.0016734028958969496 0.0064385113233366795 0.0054067637863175234 0.0022412301205572277 0.003654613996285104 0.0054463303912736152 0.0016127374170717735 0.0012500642333179712 3.4784528733048911e-05 -0.0066621662463428669
leaf_weight=136 151 256 676 1143 144 6463 160 344 156 120 121 510 4238 2558 110 192 2026 152 2866 138 110 205 239 1392 191 172 126 154 110 268 615 1246 124 264 131 100 184 104
leaf_count=136 151 256 676 1143 144 6463 160 344 156 120 121 510 4238 2558 110 192 2026 152 2866 138 110 205 239 1392 191 172 126 154 110 268 615 1246 124 264 131 100 184 104
internal_value=3.93981e-05 -0.000565495 -0.000807436 0.000778991 0.000666373 -0.00120788 -0.0017178 0.001994 0.00199203 0.00034557 -4.21646e-05 0.0015305 7.8045e-05 0.000482003 0.00185028 0.00527404 0.0021439 0.00198762 -0.000166409 0.000724399 -0.00200241 0.00238612 0.000206892 -0.00170926 -0.002086 0.00234087 -0.000805626 -0.0014651 0.00319501 0.0037623 0.00284035 0.00328734 0.000311987 0.00367264 -0.00112899 -0.0019386 0.00195354 -0.00338613
internal_weight=28395 14452 13203 2661 13943 10542 7077 504 1249 11219 8453 2766 8332 6796 2646 348 2536 2724 3465 901 6573 2473 3105 1536 329 572 1607 1297 1054 944 2190 1861 329 436 283 251 310 360
internal_count=28395 14452 13203 2661 13943 10542 7077 504 1249 11219 8453 2766 8332 6796 2646 348 2536 2724 3465 901 6573 2473 3105 1536 329 572 1607 1297 1054 944 2190 1861 329 436 283 251 310 360
is_linear=0
shrinkage=0.05


Tree=5
num_leaves=48
num_cat=0
split_feature=10 25 17 25 17 17 25 25 14 9 4 24 21 16 13 1 26 13 7 25 10 5 17 13 17 25 24 10 9 5 5 13 16 9 17 4 3 17 18 16 13 7 20 10 25 25 14
split_gain=3.90025 3.54583 7.17318 3.35038 5.76779 2.24952 3.63453 3.49932 2.819 2.60479 2.48769 2.39105 2.17162 2.07199 1.92942 2.00009 1.8524 1.82566 1.8234 4.42956 2.05254 1.80976 1.8027 1.94152 1.77433 1.69469 1.90152 1.55754 1.53687 1.55365 1.43072 1.40964 1.38009 1.29948 1.28458 1.23725 1.14709 1.37805 1.09035 1.34579 1.06988 0.950864 1.10424 0.814629 0.760509 0.742052 0.694544
threshold=-0.15378251599807133 0.011279239296521446 0.02101403392015579 0.0052115203049092349 0.022312348241374621 0.020516981294559901 0.0096828193187429041 0.0077274923043224239 -0.34066595180643916 -0.093669248420696002 -0.065907670638298763 0.028601561745787544 0.57654617247882778 0.016347092242364573 71.123441780543615 0.05975961716012524 0.017822791260728724 27.326672369177356 0.011846509545289876 0.012567608656194841 -0.27722509999912204 -0.082820570924058187 0.027545200585526421 39.812341151239245 0.023091455213986544 0.015252383676655211 0.081565186248356861 -0.26798934574498551 -0.042964499039623121 -0.071638651065872069 -0.049251053598778231 63.458499402939673 0.024508550345388506 0.023080122247631122 0.016945421044129421 0.041904295598705017 0.091376448273731717 0.012063593942371264 0.026205203134882987 0.02123573475455599 38.553958057348133 0.038210733881563382 -0.00045916902053794168 -0.027592259216044409 0.0049490173175545703 0.0060746199025407703 0.088068811834130067
decision_type=2 2 2 2 2 2 2 2 2 2 2 2 2 2 2 2 2 2 2 2 2 2 2 2 2 2 2 2 2 2 2 2 2 2 2 2 2 2 2 2 2 2 2 2 2 2 2
left_child=3 14 25 4 12 7 8 10 32 -9 27 -12 35 31 15 28 30 -15 20 -20 -8 -11 38 -24 -10 26 40 -5 -2 -30 45 -14 -7 -32 -17 44 37 -18 -6 -40 -3 46 -43 -36 -1 -16 -4
right_child=1 2 41 5 22 6 18 9 24 21 11 -13 13 17 16 34 36 -19 19 -21 -22 -23 23 -25 -26 -27 -28 -29 29 -31 33 -33 -34 -35 43 -37 -38 -39 39 -41 -42 42 -44 -45 -46 -47 -48
leaf_value=-0.0033631049506124438 -0.0052301656406929841 0.0020508751819266111 0.0023622576574975824 0.0040121616609389834 -0.0033281534841215171 0.0027063311214357831 0.0051552435957151407 0.0048800848419547002 -0.00025308490062551535 -0.0036889483048200087 -0.0013028220083567148 0.0040413893095464113 -2.2912805205013492e-05 0.0030956265479326252 -0.0018706526835316414 0.0013155119343926866 0.0026709992442906739 -0.0034546089423887227 0.0029932876992985503 -0.003502652507436007 0.0010985976976754207 -0.0010735381113216506 0.0028807886923314075 -0.006853915288423499 -0.0051598912312033418 -0.0083454717901605725 -0.0094209372216517723 0.00026216778331771229 -0.0011171908925127871 0.0010031624108825851 0.0061359979539046504 0.0038731727124096216 -0.0016974229924700717 0.0023389352047524883 -0.0024445727518468633 -0.0071526993346663244 0.0022107268274015094 -0.004311863893480432 -0.012568310196051419 -0.0063812135873600991 -0.0029417083480302773 -0.00059892274609943527 0.0049512960891855253 -0.0082836125777248533 -0.00010490648706586621 0.0036332201061304659 -0.0032096233139992155
leaf_weight=544 107 123 121 616 108 482 702 131 306 1285 1684 239 1980 125 158 112 107 714 708 417 561 1363 100 105 463 172 104 503 958 8798 516 263 282 400 128 156 353 208 155 203 841 116 394 112 267 100 104
leaf_count=544 107 123 121 616 108 482 702 131 306 1285 1684 239 1980 125 158 112 107 714 708 417 561 1363 100 105 463 172 104 503 958 8798 516 263 282 400 128 156 353 208 155 203 841 116 394 112 267 100 104
internal_value=-4.9556e-05 0.000544318 -0.00141952 -0.000625772 -0.00171911 -9.60478e-05 0.000829697 -0.000719625 -0.00107025 -0.00200225 0.000452104 -0.000638617 -0.00100759 -0.000358975 0.000866005 0.000597415 0.0023555 -0.00247871 0.00204939 0.000585459 0.00335336 -0.00234272 -0.00601266 -0.00210528 -0.00320738 -0.00373945 -0.00299766 0.00232651 0.000729588 0.000794952 0.00355154 0.000433918 0.00108086 0.00447789 -0.00310606 -0.00307483 0.000253467 -0.00193991 -0.00773158 -0.00905998 -0.00230469 0.00249438 0.00368889 -0.00516946 -0.00229043 0.000262631 -0.00021319
internal_weight=28494 14032 1975 14462 4720 9742 3921 5821 1533 2779 3042 1923 4049 3082 12057 10215 1842 839 2388 1125 1263 2648 671 205 769 1240 1068 1119 9863 9756 1174 2243 764 916 352 967 668 315 466 358 964 735 510 240 811 258 225
internal_count=28494 14032 1975 14462 4720 9742 3921 5821 1533 2779 3042 1923 4049 3082 12057 10215 1842 839 2388 1125 1263 2648 671 205 769 1240 1068 1119 9863 9756 1174 2243 764 916 352 967 668 315 466 358 964 735 510 240 811 258 225
is_linear=0
shrinkage=0.05


Tree=6
num_leaves=44
num_cat=0
split_feature=10 18 10 21 26 24 26 26 18 6 13 5 28 24 9 11 18 12 24 18 23 16 18 21 13 18 7 23 26 5 10 21 16 5 18 16 23 13 26 11 21 21 28
split_gain=3.48413 2.76835 3.56312 2.38214 2.37241 2.83446 2.36614 2.29298 2.67489 2.09632 2.0232 2.19941 3.26433 1.90485 3.18222 2.09704 1.74262 1.73321 1.69781 1.51857 2.16846 1.47212 1.7279 1.46655 1.40595 1.35912 1.35364 1.32426 1.31565 1.31088 1.2907 1.26004 1.18328 1.15713 1.06167 1.05194 0.879279 0.823557 0.815708 0.74477 0.721397 0.661013 1.31791
threshold=-0.15378251599807133 0.040019729397551204 -0.24321064290918618 0.67640106270034972 -0.01518272733381981 0.032557663545071731 -0.017731818648939742 0.030196009272687844 0.029603802863223904 0.08444423472841002 71.792719472243149 0.38373955624099804 0.29214531657650838 0.024766677006788477 -0.0065489498222551226 0.10488936637214542 0.027017488807108938 23.101672836937578 0.081565186248356861 0.021900235739588988 0.0037909595928447008 0.019301930118606595 0.042216619950387682 1.3961351383290175 26.511844244307152 0.027017488807108938 -0.13534548627433765 0.001534231235571393 0.017822791260728724 -0.08531544164913156 -0.1200892464339705 0.54336548058094658 0.025062154407706972 0.21768427172884589 0.043601633944478448 0.026562641303674379 -0.014574605947338891 74.505676088853974 -0.030589811190314949 0.42488211167212714 0.90546521472216035 1.2687177099727796 0.032076318329688831
decision_type=2 2 2 2 2 2 2 2 2 2 2 2 2 2 2 2 2 2 2 2 2 2 2 2 2 2 2 2 2 2 2 2 2 2 2 2 2 2 2 2 2 2 2
left_child=1 9 4 -4 26 34 16 10 18 13 11 12 -8 19 25 -16 24 -13 30 31 -21 -10 -23 32 -2 -15 -3 33 29 -12 -9 -1 36 -26 -6 -28 -18 -30 -25 -34 -7 42 -5
right_child=6 2 3 41 5 40 7 8 21 -11 28 17 -14 14 15 -17 23 -19 -20 20 -22 22 -24 38 27 -27 35 -29 37 -31 -32 -33 39 -35 -36 -37 -38 -39 -40 -41 -42 -43 -44
leaf_value=-0.0022321234198514179 0.0026858718870042837 0.0087848630134151548 -0.0081875215573198497 -0.0056594043271616101 0.0017939140189863632 0.007973506473246272 0.00062386444795793725 0.0018624858648376907 0.0074307207281750533 -0.0061651931522489602 5.0806746703577559e-07 0.0069884977083581757 -0.0064113405296171216 0.001243027219432297 0.0026071074008934981 -0.001733410119548615 0.0015880906140147194 0.0019153832751185784 -0.0081118340842185731 -0.00096212345513604415 -0.0029405799159365866 -0.00068744831621399055 0.0055661917110749835 -0.0048891182761538208 -0.0011245656402827091 0.0052464870278940492 -0.00055737648173297724 -0.0080966001853716284 0.0041284874761393963 0.0046288960711418975 -0.0020574755829098536 0.00023249855181010383 0.0013851096688766204 -0.005296243804041297 -0.0036100317831966947 0.0052808748947310025 -0.002075391061929457 -0.0008826375025034627 0.00049900637026631129 0.006706638504384143 0.0026434049605771406 0.0018556818256202417 0.0014896723440015747
leaf_weight=644 113 179 123 126 136 108 6771 254 104 185 187 202 169 533 349 1373 405 1011 100 4571 1987 419 150 183 517 352 112 121 112 841 1212 2663 131 245 274 248 275 306 114 132 154 195 132
leaf_count=644 113 179 123 126 136 108 6771 254 104 185 187 202 169 533 349 1373 405 1011 100 4571 1987 419 150 183 517 352 112 121 112 841 1212 2663 131 245 274 248 275 306 114 132 154 195 132
internal_value=-7.61341e-05 -0.000621669 0.00122054 -0.00201676 0.00276034 0.000778343 0.000483742 0.000765502 -0.000675341 -0.000881765 0.00110158 0.000795879 0.000452546 -0.000803395 0.000398621 -0.000853712 -0.00100797 0.00276021 -0.00180828 -0.00112105 -0.00156157 0.0019609 0.000961139 0.000243022 -0.00256543 0.00283536 0.00523139 -0.00323745 0.00282524 0.00378696 -0.0013783 -0.000247458 0.00120803 -0.00246585 -0.0018175 0.00346453 0.000106536 0.000460056 -0.00282095 0.00405599 0.00484055 -0.000341259 -0.00200174
internal_weight=28518 14444 1787 576 1211 672 14074 11838 2239 12657 9599 8153 6940 12472 2607 1722 2236 1213 1566 9865 6558 673 569 1240 996 885 539 883 1446 1028 1466 3307 943 762 410 360 680 418 297 263 262 453 258
internal_count=28518 14444 1787 576 1211 672 14074 11838 2239 12657 9599 8153 6940 12472 2607 1722 2236 1213 1566 9865 6558 673 569 1240 996 885 539 883 1446 1028 1466 3307 943 762 410 360 680 418 297 263 262 453 258
is_linear=0
shrinkage=0.05


Tree=7
num_leaves=41
num_cat=0
split_feature=18 25 18 10 26 25 1 10 28 25 7 7 2 20 16 5 4 10 13 10 28 25 13 24 16 8 5 10 16 24 4 16 14 5 5 24 19 26 8 18
split_gain=2.72733 4.72016 4.65911 4.07656 4.07521 2.99984 2.78223 2.29596 2.08555 1.87477 1.78627 1.70742 1.69296 1.65102 1.96583 1.60796 2.45371 1.59325 1.46127 1.41743 1.34304 1.31239 1.29491 1.2729 1.22915 1.54791 1.1584 1.35732 1.08026 1.05988 0.854752 0.835787 0.796809 0.76867 0.751164 0.617371 0.590366 0.667546 0.495736 0.371891
threshold=0.021407493491098602 0.0050880154720233757 0.029376169270107586 -0.2885281555724345 -0.020996685374855214 0.013277772791441914 -0.012399474409533926 -0.08674994839647325 -0.097915834116642717 0.011128874927332008 -0.079585940472897784 -0.14062964202685288 0.172864023181765 -0.0094724304515866869 0.018063197569342545 0.0071867113450603268 0.093871054582385441 -0.24868265142079374 20.779842176096306 -0.38578656081765972 0.24863611314018844 0.0050255865313276723 71.123441780543615 -0.0075994249247423032 0.013567237013731347 -0.10377585029879054 -0.073849972941256822 -0.085775873318542792 0.01702614286059578 -0.014890327510592659 0.11376543032446697 0.025250213831279837 0.24715925179328277 0.07828565078426987 0.35580591972594183 -0.033503445263712954 0.43902420867989383 -0.028106627855965401 0.10602710190823207 0.018838614366872331
decision_type=2 2 2 2 2 2 2 2 2 2 2 2 2 2 2 2 2 2 2 2 2 2 2 2 2 2 2 2 2 2 2 2 2 2 2 2 2 2 2 2
left_child=4 3 5 10 36 13 7 29 28 15 19 23 18 35 -15 16 22 -10 -13 -2 21 -17 -6 31 -12 -26 -11 32 -8 -5 -18 -4 -28 -7 -9 -3 37 -1 -29 -38
right_child=1 2 11 6 9 33 8 34 17 26 24 12 -14 14 -16 20 30 -19 -20 -21 -22 -23 -24 -25 25 -27 27 38 -30 -31 -32 -33 -34 -35 -36 -37 39 -39 -40 -41
leaf_value=-0.0047960612688444241 -0.0052877651736029053 -0.00048271612136958024 0.0036643257479460605 0.0022774318879884149 0.00067626709011069693 -0.0035022073965409448 -0.0035537303855461585 0.0025219279986893189 0.0044420184734358025 -0.0056931926214320843 -0.010302853072741933 -0.0034831798962945714 0.0055194016554965999 -0.00099725501298685969 0.0010414229809470542 0.0030695884298136151 -0.0055792377728997086 -0.001931284748418631 0.00076051259977723458 0.0015979163350052471 -0.0033756040109313521 0.0011792717539766339 0.0038520578285180297 -0.00035944929737867655 -0.0080949575408989661 -0.002561436957751947 0.0055468176257563763 -0.0057305091299996204 -0.01013444927923212 -0.0012281686446513663 -0.0013189537743125747 0.0087622596977803956 -0.00058088352681195325 -0.0085942586277131788 0.007340800562654958 -0.0050284435590283692 -0.0076368035927381634 0.00069108073316190559 -0.00085751750629791757 -0.0037461248568005806
leaf_weight=107 134 102 257 279 3871 169 144 257 104 145 137 209 182 4129 1657 1729 165 1717 6897 169 117 1958 350 138 224 290 100 108 110 949 411 117 113 132 118 279 112 115 101 136
leaf_count=107 134 102 257 279 3871 169 144 257 104 145 137 209 182 4129 1657 1729 165 1717 6897 169 117 1958 350 138 224 290 100 108 110 949 411 117 113 132 118 279 112 115 101 136
internal_value=2.98008e-05 -0.000319251 0.000130964 -0.00170605 0.000714287 -0.000861242 -0.000950612 0.000613987 -0.00215931 0.000947077 -0.00461854 0.000953733 0.000757657 -0.00062335 -0.000413417 0.00113066 0.000521865 -0.0015673 0.000635698 -0.00144724 0.00189837 0.00206573 0.0009396 0.00374475 -0.00609459 -0.00497293 -0.0018377 -0.000512944 -0.00640365 -0.000431701 -0.00253935 0.00525913 0.00229597 -0.00573527 0.00403827 -0.00381148 -0.00382659 -0.00195362 -0.00337562 -0.00550321
internal_weight=28538 18900 14268 4632 9638 6468 3678 1603 2075 9168 954 7800 7288 6167 5786 8601 4797 1821 7106 303 3804 3687 4221 512 651 514 567 422 254 1228 576 374 213 301 375 381 470 222 209 248
internal_count=28538 18900 14268 4632 9638 6468 3678 1603 2075 9168 954 7800 7288 6167 5786 8601 4797 1821 7106 303 3804 3687 4221 512 651 514 567 422 254 1228 576 374 213 301 375 381 470 222 209 248
is_linear=0
shrinkage=0.05


Tree=8
num_leaves=42
num_cat=0
split_feature=18 5 25 17 17 25 25 28 21 23 8 27 25 1 28 5 9 7 17 27 28 23 18 18 6 25 16 8 8 7 16 5 13 9 5 19 18 23 20 13 16
split_gain=2.49883 3.17687 3.51485 5.24637 3.67753 4.84673 3.56666 7.06677 2.43844 2.7522 2.41355 2.40268 2.35861 2.01723 1.97728 1.97599 1.84103 2.12327 1.65371 1.53065 1.45692 1.69008 1.43762 2.38905 1.42176 1.36371 1.26142 1.35843 1.17133 1.66457 1.09179 1.67404 1.04372 1.03705 1.10644 0.911011 0.740287 0.739825 0.605203 0.487543 0.472808
threshold=0.021962078690062146 0.29768111080309972 0.0050880154720233757 0.022312348241374621 0.020604349588523915 0.011128874927332008 0.011128874927332008 -0.087664039948911296 0.58104131624554156 -0.021784019371527071 -0.094911457775015237 0.0027487650269155122 0.0050880154720233757 0.010750177195261059 0.32261253506047721 -0.24098684308756349 0.0064753243958199933 -0.10617179499431066 0.025181563897068236 -0.063735355225704213 -0.056087411867163643 0.0013225008525586948 0.027466858875575841 0.034863286444717499 -0.019528858951492697 0.011457346342843662 0.029858583415169813 0.21251637345352972 0.16666005319796032 0.044580010432355384 0.023718554645764271 -0.17840173118683458 69.561309124203731 -0.050139948966448571 0.055156409275256675 0.44723629390291492 0.027914451857379688 -0.024787260729945023 -0.0015643386867806861 58.477917848981953 0.012867295114584018
decision_type=2 2 2 2 2 2 2 2 2 2 2 2 2 2 2 2 2 2 2 2 2 2 2 2 2 2 2 2 2 2 2 2 2 2 2 2 2 2 2 2 2
left_child=8 2 3 16 6 18 11 -8 28 35 -7 -4 15 14 26 40 17 -2 -6 -15 21 -14 39 -24 -18 -22 27 -3 29 33 36 -32 -17 -1 -35 37 -5 -10 -37 -21 -11
right_child=1 13 4 30 5 10 7 -9 9 12 -12 -13 20 19 -16 32 24 -19 -20 22 25 -23 23 -25 -26 -27 -28 -29 -30 -31 31 -33 -34 34 -36 38 -38 -39 -40 -41 -42
leaf_value=-0.005380310725779735 0.0037889677161971735 0.0019445111477070073 -0.0010710321737426695 -0.0054998676610462692 0.00029361606774121662 0.0044922675844790453 0.0029288460538776499 -0.0040348935485259065 -0.0029749967181438432 -0.00030846595876638731 0.0012136656584721996 0.0012614543826415159 -0.00011630883137853901 -0.0058874273494062624 0.0089419463494940128 0.0021469240564942005 0.0032292863417485032 -0.0027516896597709569 -0.0025986657323646568 -0.0060518755894538598 9.8813578852366001e-05 0.0034502842476980943 0.0035049038120204081 -0.0014575573031441311 -0.00066674615856545478 -0.0049870104442917458 0.0055263432369324099 -0.0018908278372322643 -0.0058993831172521258 0.0052970956890257426 -0.0079717059930165604 -3.3003316275426187e-05 0.0045688862454027063 -0.0014170748169547373 0.0022714834039255353 -0.0017568785625044258 -0.010687941941568814 0.0021736797563569397 -0.0068347792455952768 -0.0012857238949176722 -0.0044954008341883313
leaf_weight=131 135 1412 2665 115 1320 930 462 1723 148 207 1416 1885 604 116 101 2944 314 1534 790 103 2937 738 471 500 921 138 199 276 116 108 138 128 524 1070 251 100 171 132 142 112 100
leaf_count=131 135 1412 2665 115 1320 930 462 1723 148 207 1416 1885 604 116 101 2944 314 1534 790 103 2937 738 471 500 921 138 199 276 116 108 138 128 524 1070 251 100 171 132 142 112 100
internal_value=7.7536e-05 -0.000279878 -0.000595246 -0.00198903 -0.000164817 0.000949503 -0.000902072 -0.00256247 0.000694564 0.00103049 0.00251337 -0.000104716 0.0012548 0.00112414 0.00212609 0.00217252 -0.00113969 -0.00222264 -0.000789276 -0.000405726 0.00047047 0.00184505 0.000130427 0.000949569 0.000323824 -0.000129428 0.00176127 0.00131741 -0.00105202 -0.000691578 -0.00645732 -0.00415158 0.00251287 -0.00113702 -0.000716221 -0.00248966 -0.00860183 -0.000547764 -0.00473647 -0.00356904 -0.00167229
internal_weight=28327 17937 14647 3456 11191 4456 6735 2185 10390 8714 2346 4550 8192 3290 1988 3775 2904 1669 2110 1302 4417 1342 1186 971 1235 3075 1887 1688 1676 1560 552 266 3468 1452 1321 522 286 280 242 215 307
internal_count=28327 17937 14647 3456 11191 4456 6735 2185 10390 8714 2346 4550 8192 3290 1988 3775 2904 1669 2110 1302 4417 1342 1186 971 1235 3075 1887 1688 1676 1560 552 266 3468 1452 1321 522 286 280 242 215 307
is_linear=0
shrinkage=0.05


Tree=9
num_leaves=48
num_cat=0
split_feature=10 25 17 28 25 17 25 17 25 13 13 16 12 11 17 25 3 11 16 21 25 17 6 28 11 17 9 14 26 25 25 9 10 21 10 25 17 8 13 9 9 21 16 21 27 7 13
split_gain=3.13213 3.09278 3.83245 3.06637 2.42855 3.01434 3.82884 2.74879 2.34324 2.78321 2.06475 2.02768 2.00299 1.9886 1.97025 2.22802 2.06851 1.94004 1.84524 1.80954 1.76844 2.2829 2.3463 1.76317 1.64401 1.67105 1.63918 1.49624 1.4423 1.42195 1.41343 1.38647 1.40481 1.38184 1.28491 1.18266 1.16068 1.06165 1.05438 1.06237 1.05259 1.88741 0.997039 1.08194 0.952011 0.951398 0.910068
threshold=-0.14874348132666101 0.0050084456750764377 0.016684160023317494 -0.11993287396728868 0.0052115203049092349 0.023091455213986544 0.011128874927332008 0.0179945738659162 0.011429705537487447 40.03103159241676 58.119697022285948 0.01702614286059578 28.694577904561893 0.01579050787640213 0.020604349588523915 0.009101655023743856 -0.052581607589536832 0.47824206539670372 0.031917896157863203 0.87343862492158675 0.011167992643406014 0.025784890099742896 0.014751943630195942 -0.096460148562681911 0.78907107790115594 0.020141139490574635 0.06253326330291932 1.4011993871875046 -0.0077001423038919317 0.0065773673889554293 0.0097619133724529666 -0.048131498134845456 -0.38055670579413831 1.407383788179831 -0.07056315905122916 0.015252383676655211 0.023979566845600229 0.026982139755763027 69.561309124203731 0.020395635640605873 0.033789291077895085 0.87343862492158675 0.020415922710841441 0.6618202407950623 -0.08245209882058073 0.16038060657476297 24.194671115420565
decision_type=2 2 2 2 2 2 2 2 2 2 2 2 2 2 2 2 2 2 2 2 2 2 2 2 2 2 2 2 2 2 2 2 2 2 2 2 2 2 2 2 2 2 2 2 2 2 2
left_child=1 2 -1 8 7 6 23 38 9 13 33 -11 42 -3 16 18 28 34 -16 37 21 36 -23 -6 25 -19 -26 -21 -5 -25 -18 -14 -33 -10 -9 -17 -7 -8 46 -40 41 -22 44 -44 -4 -42 -2
right_child=4 3 12 14 5 20 19 17 10 11 -12 -13 31 -15 15 35 30 24 -20 27 40 22 -24 29 26 -27 -28 -29 -30 -31 -32 32 -34 -35 -36 -37 -38 -39 39 -41 45 -43 43 -45 -46 -47 -48
leaf_value=-0.00038071251093521136 0.0049857285649397348 -0.00047867804209928821 -0.0059514050922652119 -0.0017127316942409324 0.0056195790544535003 -0.00040079680476150161 0.0034182484037296821 -0.0073214226612731458 0.0065159158889061472 0.00090840550705629001 -0.0013041618397251142 -0.0037343872322875542 -0.0010477448791789358 0.0037998921251396946 -0.00047271876791673585 0.001043117572547841 4.9206021574892571e-05 -0.0018972978842013131 -0.0062999122044764076 -0.0027759110404566062 -0.0035201125597439497 0.0027893109510454244 -0.006060314099256372 -0.00060784814615884265 0.00070912742698637143 0.0053226756388523979 -0.0066692336982994427 -0.0072473552007068067 -0.0050798160436153579 0.0010990294570361182 -0.0021293735153079031 -0.011422433830592611 -0.005254392463028135 0.000994656997918474 -0.00084279145665047044 0.0047872847424663576 0.0052085612242712357 -0.0016472540178209924 0.0055101859967528546 0.001791228559173616 0.0083295209428302739 0.0054477145935275728 -0.0024581279188109493 0.0045572618117341685 -0.0011620533683513168 0.0030599294974190464 0.0013512723349247951
leaf_weight=2067 181 447 167 1046 146 149 138 166 437 444 161 500 160 692 1052 1555 2742 123 156 695 101 122 194 3177 194 230 123 256 457 1981 1022 109 603 153 142 244 242 413 366 404 193 140 107 113 274 154 3559
leaf_count=2067 181 447 167 1046 146 149 138 166 437 444 161 500 160 692 1052 1555 2742 123 156 695 101 122 194 3177 194 230 123 256 457 1981 1022 109 603 153 142 244 242 413 366 404 193 140 107 113 274 154 3559
internal_value=-6.41497e-06 -0.000512049 -0.00178565 -9.9286e-05 0.000540856 -9.30168e-06 -0.000430014 0.00135296 0.00132017 0.000456887 0.0037146 -0.0015507 -0.00367999 0.00212077 -0.000585476 0.00043567 -0.00116846 -0.00105003 -0.00122524 -0.00265857 0.00220179 0.000516758 -0.00264369 0.000201075 0.000459855 0.00280693 -0.00215377 -0.00397958 -0.00273652 4.77014e-05 -0.000542321 -0.00525354 -0.00619866 0.00508413 -0.00433452 0.00155094 0.00307098 -0.00037858 0.00187405 0.00355894 0.00422785 0.00168941 -0.00160414 0.00114523 -0.00297571 0.00599085 0.00152716
internal_weight=28297 14708 3600 11108 13589 8101 6806 5488 2834 2083 751 944 1533 1139 8274 3007 5267 978 1208 1502 1295 707 316 5304 670 353 317 951 1503 5158 3764 872 712 590 308 1799 391 551 4510 770 588 241 661 220 441 347 3740
internal_count=28297 14708 3600 11108 13589 8101 6806 5488 2834 2083 751 944 1533 1139 8274 3007 5267 978 1208 1502 1295 707 316 5304 670 353 317 951 1503 5158 3764 872 712 590 308 1799 391 551 4510 770 588 241 661 220 441 347 3740
is_linear=0
shrinkage=0.05


Tree=10
num_leaves=43
num_cat=0
split_feature=18 26 25 9 17 25 24 9 25 28 2 21 25 1 17 26 11 17 12 8 11 25 9 19 11 9 17 7 8 28 28 17 20 17 26 2 27 7 22 27 4 18
split_gain=2.96816 3.92764 2.77769 3.39425 3.05602 3.34319 3.52933 2.79961 3.2174 2.72349 2.24626 2.23209 2.17445 1.9967 1.84449 1.81673 1.8569 1.57825 1.67173 1.93928 1.51808 1.57002 1.48668 1.43808 1.31666 1.32263 1.27363 1.78853 0.967078 0.945486 0.87857 0.844884 0.799421 0.747393 0.699961 1.22172 0.78991 0.594858 0.454186 0.535957 0.570198 0.304664
threshold=0.022048366220685008 -0.020996685374855214 0.0050880154720233757 0.0083266510784361109 0.020762797678280896 0.0096828193187429041 -0.013883510761231619 -0.084350728136087502 0.010519084363156168 -0.10117749679191877 -0.040188080860587054 0.45248813541120753 0.011128874927332008 -0.012399474409533926 0.017291018702686848 0.021047400423073518 0.10104424683348003 0.02201544772407913 64.731028680588793 0.083913622205272889 0.030212573948148472 0.012567608656194841 -0.020779301073918507 0.2588235294084153 0.75625187384725945 -0.0065489498222551226 0.019145322131234689 -0.096010398856875331 0.24162331360078573 -0.1465344755542223 -0.14907223304681469 0.018129771214525973 0.003807368950103474 0.025354274873111565 0.019148326752901127 -0.011376580726546957 -0.033520902126819789 0.0064170839638594277 -0.39562381065930757 0.067207039666292448 -0.044633704148153701 0.018153954859741094
decision_type=2 2 2 2 2 2 2 2 2 2 2 2 2 2 2 2 2 2 2 2 2 2 2 2 2 2 2 2 2 2 2 2 2 2 2 2 2 2 2 2 2 2
left_child=1 38 3 13 7 6 30 29 22 -10 -8 34 24 26 37 16 -15 23 19 -19 -7 -22 -9 32 25 -13 27 -2 -25 -4 -6 -17 -5 -28 35 36 -3 -14 -1 40 -40 -37
right_child=2 11 4 17 5 20 10 8 9 -11 -12 12 14 15 -16 31 -18 18 -20 -21 21 -23 -24 28 -26 -27 33 -29 -30 -31 -32 -33 -34 -35 -36 41 -38 -39 39 -41 -42 -43
leaf_value=-0.0005991679533769418 0.0052899349386626411 -0.0034207253944343674 0.0069617766135682659 0.0044491138402062624 0.0071468965870166287 0.0065896262055508614 0.0019066783979392347 -0.0013776397845718887 0.0019569296768256988 -0.0029248593506057238 -0.002213568244029874 0.0020263516445499009 -0.0001753316272324959 -0.0077202891539475257 0.003385529057478005 -0.0053065910004079344 -0.0020409983581187187 -0.0064896961642191935 -0.0074868108255573178 0.0015757604628737606 0.0026431210608475757 0.00035872772265238816 0.00045227169455228143 -0.00082184966845905258 0.0069681305051573763 0.00073934928102579393 -0.0047958281030914584 -0.0012238788718384754 0.003760125762400732 0.00096504473640846153 0.0021384882600906647 -0.011082792529681078 -0.00060128368135979951 -0.00032839939098762861 0.00096626685280258953 -0.0036867621443329533 0.0020107132550565179 -0.004206825701064682 -0.0029287797691755595 -0.00093465882545227521 -0.0069873211740331918 -0.0074136463877258743
leaf_weight=115 126 130 150 338 115 163 411 1643 327 2262 1695 3208 122 182 136 134 688 104 121 263 1708 1344 3421 819 101 5285 322 644 134 117 367 120 102 132 155 104 138 366 165 102 182 116
leaf_count=115 126 130 150 338 115 163 411 1643 327 2262 1695 3208 122 182 136 134 688 104 121 263 1708 1344 3421 819 101 5285 322 644 134 117 367 120 102 132 155 104 138 366 165 102 182 116
internal_value=-1.57797e-05 0.00065526 -0.000405463 -0.00152583 -6.02e-05 0.000811486 -0.000526134 -0.000698886 -0.000874475 -0.00230827 -0.00140947 0.000887361 0.00108604 -0.00279368 -0.00176387 -0.00431523 -0.00322908 5.67911e-05 -0.00239018 -0.000709819 0.00188824 0.00163715 -0.000141438 0.000914021 0.00129297 0.00122548 -0.00139645 -0.000157982 -0.000177584 0.004334 0.00333344 -0.00803551 0.00327834 -0.00349693 -0.00196089 -0.00289062 -0.00062394 -0.00319895 -0.0034028 -0.00412088 -0.00505747 -0.00565185
internal_weight=28377 10425 17952 4229 13723 5803 2588 7920 7653 2589 2106 9861 9218 2348 624 1124 870 1881 488 367 3215 3052 5064 1393 8594 8493 1224 770 953 267 482 254 440 454 643 488 268 488 564 449 347 220
internal_count=28377 10425 17952 4229 13723 5803 2588 7920 7653 2589 2106 9861 9218 2348 624 1124 870 1881 488 367 3215 3052 5064 1393 8594 8493 1224 770 953 267 482 254 440 454 643 488 268 488 564 449 347 220
is_linear=0
shrinkage=0.05


Tree=11
num_leaves=47
num_cat=0
split_feature=10 25 28 18 25 10 23 25 13 26 25 18 11 27 8 18 9 11 11 16 23 28 10 8 12 8 19 16 13 28 3 27 11 9 27 12 7 23 18 4 12 0 25 3 28 10
split_gain=2.76856 2.64604 2.81309 2.45735 2.00635 1.89263 1.9515 1.70746 2.57252 2.15382 1.87927 1.5712 2.92508 1.50986 1.95274 2.10924 1.52331 1.4903 1.48165 1.52826 1.47481 1.43161 1.44733 2.24578 1.33912 1.31423 1.27151 1.23451 1.17982 1.11628 1.06224 1.02944 1.02902 1.16892 1.02269 1.21941 1.18715 0.994569 1.38321 0.887909 0.874917 0.682883 0.682103 1.02681 0.755179 0.612781
threshold=-0.13719698786874154 0.0050255865313276723 -0.11993287396728868 0.022048366220685008 0.0050255865313276723 -0.40547986960693216 -0.018799853057183288 0.011429705537487447 36.536213739882385 0.015541818345189974 0.0083354993105666051 0.019070882826636732 0.48438579572609525 0.095070461144108623 0.23294569239675936 0.036485873952956854 -0.037481626662601235 0.49153844319094658 0.20922569681131178 0.024686565648030567 0.0036252592578880365 0.047387654651208984 -0.044778127664968297 0.15065541078002712 35.181278787851113 0.19306529552366961 0.22064343387645682 0.021731795760906811 16.038954452343265 -0.019943787139427401 0.017667467803252238 -0.093437318694645374 0.1754780999264112 0.020847385093121121 0.097435578608941045 72.227349385106791 0.029316092632928562 0.0016224138907132704 0.022209051849894478 0.16797009618352202 73.397366591600459 -0.032295361599995902 0.0046682607885180421 -0.038051546838887167 -0.0056467076117582829 -0.19013303100992376
decision_type=2 2 2 2 2 2 2 2 2 2 2 2 2 2 2 2 2 2 2 2 2 2 2 2 2 2 2 2 2 2 2 2 2 2 2 2 2 2 2 2 2 2 2 2 2 2
left_child=1 3 7 31 11 24 -7 8 10 -10 -3 25 27 14 16 20 -6 -18 19 -9 -16 -15 23 -23 -5 42 37 29 -28 -13 -8 -1 33 -33 36 -36 -14 41 -39 -30 -24 -4 43 -2 -44 -34
right_child=4 2 26 5 13 6 30 18 9 -11 -12 12 34 21 15 -17 17 -19 -20 -21 -22 22 40 -25 -26 -27 28 -29 39 -31 -32 32 45 -35 35 -37 -38 38 -40 -41 -42 -43 44 -45 -46 -47
leaf_value=-0.0048309092854965582 0.0058535960603280576 0.0040203781823459628 0.003970851054503198 -0.003770732169828585 -0.0045838943819350216 0.0026845204106892549 -0.0018857636369821627 0.0025961273948640704 -0.0027778741122477797 0.0017715237214532737 -0.00086582839616350436 -0.0031797570807700795 0.0036918016635508347 0.0061596275283640409 -0.0091451476435359651 0.0022390380262946471 -0.00022417478585758937 0.0018835331719614515 -0.00075703213648127684 0.0079476728662344759 -0.0023100892468241323 0.00069684458687231882 0.0039273715392158523 -0.0071455284862137333 -0.011302443395019509 -0.0028628518673260565 -0.0055503689125462599 -0.0063501756768673664 -0.00063391556972906349 0.00030546993524792321 -0.0044997463285967746 0.00024810407803692265 -0.0051418447516887456 0.0055589058314886898 0.008881402299815138 0.0014470356594538318 -0.00016389003749215272 0.0026542523187452977 -0.0017440124773584671 -0.0028076950631707219 0.0007636333656171533 0.00089655898243205334 0.0022076597412375456 0.00066698253145341881 0.004913377984370448 -0.00060534127073349391
leaf_weight=113 116 626 224 144 179 186 1260 372 703 413 287 307 390 148 153 117 5613 986 173 208 163 392 404 119 100 107 134 100 5821 913 562 1247 129 113 123 100 409 236 737 511 476 933 484 538 552 176
leaf_count=113 116 626 224 144 179 186 1260 372 703 413 287 307 390 148 153 117 5613 986 173 208 163 392 404 119 100 107 134 100 5821 913 562 1247 129 113 123 100 409 236 737 511 476 933 484 538 552 176
internal_value=-4.89289e-05 -0.000501267 -0.000111312 -0.00160224 0.000491814 -0.0026993 -0.00219402 0.00127066 0.000516046 -0.00109427 0.00248441 0.00139884 0.000545508 6.27642e-05 -0.000240664 -0.00349604 -3.27009e-05 9.07517e-05 0.003304 0.0045153 -0.00561947 0.00148448 0.000987054 -0.00112946 -0.0068575 0.00251097 -0.000558571 -0.00100932 -0.000907594 -0.00057155 -0.00269205 -0.000212705 0.000100723 0.000689369 0.00255371 0.00554761 0.00171811 0.000500951 -0.000677219 -0.000809342 0.00221608 0.00149175 0.00285121 0.00158693 0.00364932 -0.00252406
internal_weight=28297 15408 11378 4030 12889 2252 2008 2782 2029 1116 913 4139 2342 8750 7211 433 6778 6599 753 580 316 1539 1391 511 244 1797 8596 1320 6466 1220 1822 1778 1665 1360 1022 223 799 2130 973 6332 880 1157 1690 654 1036 305
internal_count=28297 15408 11378 4030 12889 2252 2008 2782 2029 1116 913 4139 2342 8750 7211 433 6778 6599 753 580 316 1539 1391 511 244 1797 8596 1320 6466 1220 1822 1778 1665 1360 1022 223 799 2130 973 6332 880 1157 1690 654 1036 305
is_linear=0
shrinkage=0.05


Tree=12
num_leaves=31
num_cat=0
split_feature=5 7 18 16 23 23 3 17 16 18 28 16 9 27 4 16 5 17 21 7 9 4 14 12 27 18 4 17 5 0
split_gain=2.71639 2.0818 1.96768 2.21688 2.26626 1.8795 1.52461 1.44122 1.99119 1.32581 1.65811 1.61211 1.30436 1.90986 1.60838 1.4652 1.76611 1.61084 1.20974 1.2411 1.12818 1.35171 1.08421 0.965249 0.891522 0.768013 0.718746 1.32916 0.606584 0.391035
threshold=-0.071638651065872069 -0.14062964202685288 0.022048366220685008 0.030262257045098589 0.014392088359977741 -0.018799853057183288 0.011935170781248063 0.034589374511041167 0.037528623034069307 0.019426626050476136 0.059860389290486545 0.013300649465722354 0.0018829499759921433 0.095070461144108623 -0.15799715182819532 0.027324155162421999 0.15302098865218708 0.023374356275545297 0.62398531105430466 -0.048174047291990867 0.084684850813550053 0.1954233016372128 0.55902052638860622 26.254198363111815 -0.018262222999975982 0.019870866853569463 -0.30912969936308898 0.017537614616601273 -0.3215849496910505 -0.004696475541889066
decision_type=2 2 2 2 2 2 2 2 2 2 2 2 2 2 2 2 2 2 2 2 2 2 2 2 2 2 2 2 2 2
left_child=1 26 5 12 18 6 24 8 9 10 -3 -11 13 14 -4 16 -14 -17 -5 -20 21 23 -6 -7 -2 -23 -1 -28 -9 -8
right_child=2 7 3 4 22 20 29 28 -10 11 -12 -13 15 -15 -16 17 -18 -19 19 -21 -22 25 -24 -25 -26 -27 27 -29 -30 -31
leaf_value=-7.6496489341256257e-05 -0.0012609931094154159 0.00059673833021679236 0.0013207036156267814 -0.0012181158787570893 -0.0049052822181778989 0.0028824835572318019 0.003429808634682559 0.00073310423229122536 -0.0076490766074996264 -0.0025102413735794619 -0.0039150308971665588 -0.00069325429989657798 -0.00040115372529128332 -0.0075021875263441215 -0.0011462253985570609 0.0018803674603370412 0.0013967111378538413 -0.0053216144776931816 0.0082006364171107061 0.0032011522772509241 0.0062660517451434364 -0.0034624876998342359 0.0014221314700513053 0.0011532788504416715 -0.0073616676799942715 0.0011032096236463515 0.00025798291854488737 0.0076235877217149875 0.0062403003538493073 -0.00099192641465924679
leaf_weight=122 107 2462 816 100 127 986 100 100 105 1545 222 5817 2721 105 3472 118 2743 227 179 405 115 227 145 4446 136 155 104 149 100 100
leaf_count=122 107 2462 816 100 127 986 100 100 105 1545 222 5817 2721 105 3472 118 2743 227 179 405 115 227 145 4446 136 155 104 149 100 100
internal_value=4.27921e-05 -0.000583941 0.000426268 2.59539e-05 0.00232825 0.00112726 -0.00201428 -0.000716526 -0.00079934 -0.000727747 0.000223559 -0.00107457 -0.000189788 -0.000839911 -0.000676772 0.000301862 0.000501398 -0.00285833 0.0038634 0.00473353 0.00136199 0.00126498 -0.00153221 0.00146716 -0.00467536 -0.00160991 0.00307577 0.00459583 0.0034867 0.00121894
internal_weight=28256 10726 17530 11158 956 6372 443 10351 10151 10046 2684 7362 10202 4393 4288 5809 5464 345 684 584 5929 5814 272 5432 243 382 375 253 200 200
internal_count=28256 10726 17530 11158 956 6372 443 10351 10151 10046 2684 7362 10202 4393 4288 5809 5464 345 684 584 5929 5814 272 5432 243 382 375 253 200 200
is_linear=0
shrinkage=0.05


Tree=13
num_leaves=39
num_cat=0
split_feature=21 25 16 7 24 5 1 8 11 17 21 17 4 16 5 5 7 2 11 26 1 17 28 12 16 2 17 17 2 7 20 6 21 21 5 8 21 21
split_gain=2.07139 1.81565 1.72661 1.75256 2.0715 1.60202 1.89771 2.44398 1.567 1.82689 1.44634 1.42016 1.56047 1.56538 1.73736 1.39536 1.3774 1.60882 1.5591 1.46273 1.2705 1.09794 0.993284 1.05146 0.91402 0.910013 0.872931 0.830507 0.780484 0.748007 0.704641 0.605659 0.603003 0.580683 0.509277 0.30072 0.298672 0.275481
threshold=0.49523282361173887 0.005160928082628794 0.010252417583706539 -0.13534548627433765 -0.009063636143290808 0.28498293532129654 0.030240154733443884 0.30049081008801976 0.84077903339131865 0.029759640067186038 0.72419062121574207 0.0088174164319041477 0.19938001926884888 0.0074925403104028629 -0.1337374721450921 0.37411819267465846 -0.0030692897857772512 -0.028170664795726049 0.15487451146085932 0.0083326814150517254 -0.012034058574033111 0.018398067651241964 -0.057201571598537886 70.333314464630931 0.017828802021716373 -0.065920223901500472 0.014715313621042845 0.020516981294559901 -0.0099512964085203253 0.0101029390162668 5.490968175658751e-05 -0.0056343368178952127 1.3216412213972097 0.95528840072848287 -0.11904300685580925 -0.027734027805239977 0.3629074597596737 0.38259467207149378
decision_type=2 2 2 2 2 2 2 2 2 2 2 2 2 2 2 2 2 2 2 2 2 2 2 2 2 2 2 2 2 2 2 2 2 2 2 2 2 2
left_child=1 15 11 4 21 8 7 -7 9 -5 -8 29 13 33 -15 20 17 18 -3 30 25 24 -18 27 -4 -1 -22 -24 -27 31 -19 35 -23 -13 -6 -2 -28 -21
right_child=2 16 3 5 34 6 10 -9 -10 -11 -12 12 -14 14 -16 -17 22 19 -20 37 26 32 23 -25 -26 28 36 -29 -30 -31 -32 -33 -34 -35 -36 -37 -38 -39
leaf_value=-0.0055776654563264036 0.00063179975109735288 -0.0021176102468319748 0.0049664616449736059 -0.0004118673993760136 0.0012593008114338338 0.0010579726972513362 -0.0058841989323524628 0.0064148519899359692 -0.0056782324019187293 0.0022663021575140044 -0.00026783043614121547 0.0057683181850546883 -0.0039963376458405355 -0.00095515280690405217 0.0019701106925615964 0.0013552383740599722 0.0060807330299867323 -0.0080781454265189297 0.0043566528302819837 0.0019931469713925449 -0.002070509696134645 0.0043954433265044031 -0.0003008795588554696 -0.0028804556215665752 -0.0016823057283290499 0.0002074251082376577 -0.0043930623318172166 0.0038041963985659052 -0.0044586969093264395 0.0015901529206732651 -0.0033984430310160796 -0.0056239230661756468 0.0091977666794985265 0.0013680895820426028 -0.0033016662790694021 -0.0030159650875288433 -0.0072434922778512826 -0.00169107118062675
leaf_weight=122 113 188 100 16702 107 2177 134 236 137 662 793 291 126 671 2084 195 100 130 184 103 187 159 235 154 107 419 144 259 114 144 211 117 111 101 143 113 254 100
leaf_count=122 113 188 100 16702 107 2177 134 236 137 662 793 291 126 671 2084 195 100 130 184 103 187 159 235 154 107 419 144 259 114 144 211 117 111 101 143 113 254 100
internal_value=-5.30274e-05 -0.00127321 9.62679e-05 -7.60999e-05 0.0023371 -0.00016028 0.000843185 0.00158189 -0.000351788 -0.000309763 -0.00107969 0.001085 0.00145983 0.00167828 0.00125764 -0.00257646 -0.000149319 -0.00144927 0.00108471 -0.00318207 -0.00319475 0.00426932 0.0014426 0.000726836 0.00152966 -0.00168222 -0.00488826 0.00185138 -0.000790582 -0.00143414 -0.00518249 -0.00270382 0.00636973 0.00463459 -0.00134957 -0.00119208 -0.00621218 0.000178261
internal_weight=28427 3099 25328 21568 727 20841 3340 2413 17501 17364 927 3760 3273 3147 2755 1435 1664 916 372 544 1240 477 748 648 207 655 585 494 533 487 341 343 270 392 250 226 398 203
internal_count=28427 3099 25328 21568 727 20841 3340 2413 17501 17364 927 3760 3273 3147 2755 1435 1664 916 372 544 1240 477 748 648 207 655 585 494 533 487 341 343 270 392 250 226 398 203
is_linear=0
shrinkage=0.05


Tree=14
num_leaves=36
num_cat=0
split_feature=10 8 18 26 25 25 16 9 5 27 24 6 24 27 9 5 25 25 28 9 25 25 2 8 27 25 11 5 8 19 27 28 10 18 21
split_gain=2.48305 2.15828 2.15924 2.29743 1.89773 2.17536 1.81444 2.25002 1.75196 1.7907 2.16633 1.7334 1.96493 2.66366 1.70629 1.6454 2.38327 1.59659 1.3689 1.53015 1.43624 1.33695 1.33229 1.2923 1.28702 0.952541 0.709653 1.26186 0.723271 0.67947 0.730879 0.602079 0.550748 0.398966 0.333635
threshold=-0.15378251599807133 0.078065830084337332 0.040019729397551204 -0.012773555732965234 0.0087440066041960477 0.0086974777571446563 0.022359666181541622 0.086995360618878262 -0.20583426143553071 0.043290062276479031 0.014156076676775655 0.08444423472841002 0.024766677006788477 0.043290062276479031 0.010058430080616911 0.31664739682749371 0.011457346342843662 0.014915806326349257 -0.068611650250942444 -0.031061316690013826 0.0050255865313276723 0.013087023930257775 0.037306021481230973 0.017705506367810656 -0.091437909567374673 0.0059869811313051869 0.45609639612189762 0.10564707897330695 0.06795417440675279 0.80867060633853582 0.099682086102807002 -0.027576343542257017 -0.23690888086069536 0.026317990919226781 1.0452846527115378
decision_type=2 2 2 2 2 2 2 2 2 2 2 2 2 2 2 2 2 2 2 2 2 2 2 2 2 2 2 2 2 2 2 2 2 2 2
left_child=1 2 11 24 5 18 7 17 -3 10 -10 12 23 -14 33 16 -5 21 22 31 -21 -6 25 -1 -4 -2 27 34 -29 30 -28 -20 -26 -7 -8
right_child=4 8 3 15 6 14 26 -9 9 -11 -12 -13 13 -15 -16 -17 -18 -19 19 20 -22 -23 -24 -25 32 -27 29 28 -30 -31 -32 -33 -34 -35 -36
leaf_value=-0.0010346721643149611 0.00098840898951182781 -0.0089271288069154506 0.0070116023152165686 -0.002248067302301664 -0.0020040368774393367 -0.00047659276825129382 0.00077307685810060678 0.0057076164816792776 -0.0075651370510949117 0.0022495681947755377 0.0013565707611873359 -0.0058264700719006125 0.0013965803561371319 -0.0030013512963176343 0.0077853184230595 -0.0063266715489201323 0.0033069599027206568 -0.0066264053220947972 -0.00081424482168517736 0.0012708072046814609 9.3284771611136347e-06 0.0016720957547223488 0.0075304427426784648 0.001012324334265214 0.0033140163238722987 0.005202739125543079 0.0016402962499468716 -0.0002951291550207549 -0.0056938320704583165 -0.00085285487008456256 0.0064416662213348215 -0.0054800813377571308 2.1167853583392573e-05 0.0037151701294693765 0.0047685433791706429
leaf_weight=8700 778 118 184 405 1558 128 104 104 190 156 106 156 2176 409 190 103 369 160 133 3849 5453 294 110 846 375 162 172 156 103 101 147 144 192 102 105
leaf_count=8700 778 118 184 405 1558 128 104 104 190 156 106 156 2176 409 190 103 369 160 133 3849 5453 294 110 846 375 162 172 156 103 101 147 144 192 102 105
internal_value=-2.68902e-05 -0.000486274 -0.000362748 0.00134835 0.000446616 0.00074958 -0.000667715 -0.00146376 -0.00350184 -0.0020855 -0.0043702 -0.000589464 -0.000522118 0.000700737 0.00427894 -0.00038979 0.00040026 -0.00183445 0.000610119 0.000422255 0.000531306 -0.00142046 0.00232398 -0.00085326 0.0033781 0.00171471 0.00122918 -0.000109846 -0.0024421 0.00272123 0.00385284 -0.00323981 0.00219898 0.00138236 0.00278037
internal_weight=28538 14485 13915 1628 14053 11049 3004 2116 570 452 296 12287 12131 2585 420 877 774 2012 10629 9579 9302 1852 1050 9546 751 940 888 468 259 420 319 277 567 230 209
internal_count=28538 14485 13915 1628 14053 11049 3004 2116 570 452 296 12287 12131 2585 420 877 774 2012 10629 9579 9302 1852 1050 9546 751 940 888 468 259 420 319 277 567 230 209
is_linear=0
shrinkage=0.05


Tree=15
num_leaves=33
num_cat=0
split_feature=5 28 21 7 7 21 8 27 26 25 17 27 28 9 9 28 8 5 28 18 28 18 26 17 17 9 9 9 17 17 6 5
split_gain=2.20833 2.04634 1.95472 1.8784 1.68941 1.60713 1.49138 2.94243 1.93756 1.78454 4.06546 1.95383 1.48306 1.42542 1.37503 2.27179 1.31641 1.29179 1.27357 1.04803 1.04343 0.972117 0.940978 2.14687 1.49057 0.894473 0.85421 0.845365 1.10015 1.51162 0.816433 0.682854
threshold=-0.075991023703763802 0.085668159397835245 4.0215756936445919 0.096844232670657573 -0.15421222076172617 0.54336548058094658 -0.1242434842501907 -0.097683101797179803 -0.016168076012210372 0.012025618732776062 0.021109022281375404 -0.020194890953070029 -0.064050949387116571 -0.054025010846578229 -0.0088355762558617306 -0.047075503361700292 -0.32702752407731833 -0.21999496783080505 -0.17061868557296675 0.019870866853569463 0.13235530568223189 0.05005346017140623 -0.0085953888315000154 0.020229557260460825 0.025181563897068236 -0.03677462049016577 0.075627335204371385 0.045063796543563524 0.014035479987065422 0.018327486966842426 -0.044756477332062554 0.094066910693029096
decision_type=2 2 2 2 2 2 2 2 2 2 2 2 2 2 2 2 2 2 2 2 2 2 2 2 2 2 2 2 2 2 2 2
left_child=1 2 4 27 16 18 14 8 -8 21 12 -12 -11 -10 15 22 -1 -5 -6 -7 -19 25 23 -2 -24 -9 -22 28 -3 -30 -15 -16
right_child=6 3 -4 17 5 19 7 9 13 10 11 -13 -14 30 31 -17 -18 20 -20 -21 26 -23 24 -25 -26 -27 -28 -29 29 -31 -32 -33
leaf_value=0.00030467794093195924 0.0010671431866164009 -0.006961612302499514 -0.0068318717504063479 -0.0048733071437002057 0.0016966462116521437 0.00079437161841765789 0.0034211635801475494 -0.0012307574225410439 -0.0085358089679456826 0.0024300986079725667 -0.002828706486616284 0.0028526569028295042 -0.0036505434445927806 -0.0044537124879717458 0.0029464333575538338 -0.0038759107275046002 0.0076317748315792916 -0.0030652109964065394 -0.0023573471360849095 -0.00051076473911037981 0.0053070814047629644 0.005088815369140522 0.0027310270488400154 0.007652820248010974 -0.0045688217587618006 0.00052904057229440841 -0.00033966844433255708 -0.0075151540475781077 0.0020897338059750899 -0.0044800558818580069 -0.00017526139199617319 0.008500274462059287
leaf_weight=130 330 150 117 117 223 2200 100 764 139 111 198 642 1038 283 121 184 116 106 1476 5113 150 113 189 198 111 13158 121 160 145 221 184 102
leaf_count=130 330 150 117 117 223 2200 100 764 139 111 198 642 1038 283 121 184 116 106 1476 5113 150 113 189 198 111 13158 121 160 145 221 184 102
internal_value=-8.12298e-05 -0.000655602 -0.000409541 -0.00262724 -0.000328378 -0.000439971 0.000255912 0.000132136 -0.00302693 0.000271321 -0.00113032 0.00151348 -0.00306312 -0.00409097 0.00193265 0.00114948 0.00375973 -0.000283658 -0.00182525 -0.000118135 0.00114072 0.000469957 0.00226623 0.00353677 3.0083e-05 0.000432468 0.00278584 -0.00433986 -0.00335528 -0.00187727 -0.00276798 0.00548676
internal_weight=28510 10545 9375 1170 9258 9012 17965 16730 706 16024 1989 840 1149 606 1235 1012 246 494 1699 7313 377 14035 828 528 300 13922 271 676 516 366 467 223
internal_count=28510 10545 9375 1170 9258 9012 17965 16730 706 16024 1989 840 1149 606 1235 1012 246 494 1699 7313 377 14035 828 528 300 13922 271 676 516 366 467 223
is_linear=0
shrinkage=0.05


Tree=16
num_leaves=26
num_cat=0
split_feature=2 18 26 4 5 11 25 21 25 23 18 16 25 21 25 18 26 22 11 14 26 20 6 14 10
split_gain=2.13737 1.65822 2.58914 1.90232 1.77637 2.0767 2.09015 1.76656 1.34779 1.12949 1.19351 1.10946 1.93621 1.6675 1.08507 0.96516 1.34235 0.958381 0.86656 0.80926 0.794549 0.7691 0.500842 0.682996 0.160627
threshold=0.15464672908458768 0.022048366220685008 -0.022149266468631686 -0.22959657526178315 0.21768427172884589 0.82056501469834198 0.0049081478138566304 0.58104131624554156 0.011128874927332008 0.04251366305519156 0.030448471443492886 0.01609937131816341 0.0113682864481184 1.008926559953172 0.0065994382023872892 0.020182118469187625 0.021558650979115804 1.200216403920902 0.3402253729131543 1.3030375624876884 0.039047923660944457 0.0026295166775863747 0.0028183624820465884 -1.1392310956081715 -0.14354977458113025
decision_type=2 2 2 2 2 2 2 2 2 2 2 2 2 2 2 2 2 2 2 2 2 2 2 2 2
left_child=1 2 22 11 5 6 -5 15 17 10 -6 -3 14 -14 -13 18 -17 -9 -4 -10 21 -2 23 24 -1
right_child=20 3 7 4 9 -7 -8 8 19 -11 -12 12 13 -15 -16 16 -18 -19 -20 -21 -22 -23 -24 -25 -26
leaf_value=-0.00087823165270189442 0.0050964484790152094 0.0057292497345588353 -0.0010052597046369173 -0.0021910146041445653 -0.00040053882887656128 -0.0072804079886797509 -0.00039138511856242361 0.0012857994225272944 -0.00045753439877023569 -0.0040635721414798388 0.0013010437008278298 0.0011686579648819014 0.0094622547603212311 0.0015277370925142184 -0.0039917307245951579 -0.00035879432359181991 0.0060116590080656566 -0.00073797313161662185 -0.0046992072048832349 -0.0051657823164662532 0.007246926038195033 -0.00092911439048108256 -0.00022445269881493667 -0.0067238014924805613 -0.0036505386522129321
leaf_weight=105 109 160 1021 1910 1784 120 10391 7166 493 135 2440 233 100 196 181 364 107 637 188 112 121 103 110 145 104
leaf_count=105 109 160 1021 1910 1784 120 10391 7166 493 135 2440 233 100 196 181 364 107 637 188 112 121 103 110 145 104
internal_value=3.17502e-05 -1.52719e-05 0.000480585 -0.000311718 -0.000429915 -0.000734673 -0.000670817 0.000648557 0.000944317 0.000438496 0.000582383 0.00196797 0.00112036 0.00420832 -0.00108745 -0.000831652 0.00108842 0.00112059 -0.00157967 -0.00132914 0.00401409 0.00216893 -0.00317136 -0.00408707 -0.00225775
internal_weight=28535 28202 10552 17650 16780 12421 12301 10088 8408 4359 4224 870 710 296 414 1680 471 7803 1209 605 333 212 464 354 209
internal_count=28535 28202 10552 17650 16780 12421 12301 10088 8408 4359 4224 870 710 296 414 1680 471 7803 1209 605 333 212 464 354 209
is_linear=0
shrinkage=0.05


Tree=17
num_leaves=29
num_cat=0
split_feature=4 5 28 17 5 25 17 26 8 5 8 27 5 25 4 21 21 11 2 11 27 4 2 5 5 2 21 7
split_gain=1.39803 1.76027 1.76033 1.63935 1.91438 1.49493 1.39836 2.02985 1.64012 2.25119 1.50371 2.65715 1.7488 1.53763 1.43757 1.31089 1.30348 1.1531 2.01861 1.09446 1.00366 0.978411 1.21541 0.933877 0.864019 0.813084 0.689793 0.545474
threshold=-0.25519130032898851 -0.071638651065872069 0.066069548065196895 0.027245297640574834 -0.2333913441772538 0.013277772791441914 0.014148201424652191 -0.019814516663282152 0.202086499236281 0.40386913978060685 -0.1242434842501907 -0.093437318694645374 0.3309288010119717 0.0061183748941976493 -0.14356685750592216 2.994456207796464 1.4920014871244669 0.0072533092892621562 -0.024404824995249038 0.28340867559006561 0.039532490702545726 -0.30912969936308898 -0.065920223901500472 0.15655305983758652 0.14364500615493084 -0.023861124376178097 1.036557149618013 -0.087452041419332702
decision_type=2 2 2 2 2 2 2 2 2 2 2 2 2 2 2 2 2 2 2 2 2 2 2 2 2 2 2 2
left_child=5 2 15 4 19 21 7 20 9 -9 14 13 -13 -12 24 17 -6 27 -19 -4 25 -1 -23 -16 -8 -3 -22 -2
right_child=1 6 3 -5 16 -7 10 8 -10 -11 11 12 -14 -15 23 -17 -18 18 -20 -21 26 22 -24 -25 -26 -27 -28 -29
leaf_value=-0.0016985628481439139 -0.0039079185488038164 -0.0014191437509588664 -0.0036945614898286298 0.0029487887853368497 -0.0025356492985882423 0.0070645677106862858 0.0048671209407804422 0.001279362326619213 -0.0034463025435001594 0.0081881675742227922 -0.0050619690394202296 -0.00041808025332844349 0.0010698442578002067 -0.00026399992649859643 -0.0020173951308709252 -0.0046300764351947729 0.0020025981790508683 0.0011910157825950349 -0.00055611937561988089 -0.010301456652657205 0.003767918829902238 0.00020310109225255961 0.0072474615839400423 0.0030858222466274982 0.00070274059464943341 -0.0056837043978415344 -0.0012816253325930631 -0.00092231698424063134
leaf_weight=188 283 382 144 144 946 134 373 4615 177 121 430 7367 2698 273 284 171 190 2329 5698 111 126 151 103 131 187 158 146 333
leaf_count=188 283 382 144 144 946 134 373 4615 177 121 430 7367 2698 273 284 171 190 2329 5698 111 126 151 103 131 187 158 146 333
internal_value=1.44213e-07 -5.03428e-05 -0.000567088 -0.0021297 -0.00265543 0.00243833 0.000255805 0.000896512 0.00127927 0.00145588 -5.6555e-05 -0.000226809 -1.92307e-05 -0.00319875 0.00182374 -0.000294952 -0.00177661 -0.000209183 -4.91955e-05 -0.0065705 -0.00141933 0.00103581 0.00305967 -0.0004065 0.00347652 -0.00266692 0.0010575 -0.00229395
internal_weight=28393 27817 10349 1535 1391 576 17468 5725 4913 4736 11743 10768 10065 703 975 8814 1136 8643 8027 255 812 442 254 415 560 540 272 616
internal_count=28393 27817 10349 1535 1391 576 17468 5725 4913 4736 11743 10768 10065 703 975 8814 1136 8643 8027 255 812 442 254 415 560 540 272 616
is_linear=0
shrinkage=0.05


Tree=18
num_leaves=34
num_cat=0
split_feature=10 8 9 5 2 28 5 25 24 1 11 25 11 11 2 11 18 8 25 23 25 5 8 23 26 14 2 18 8 23 3 10 21
split_gain=1.75599 1.68017 1.67072 1.50601 1.69118 1.39619 1.98824 2.32253 1.75426 1.62638 1.60385 1.57118 2.02174 1.97817 1.49776 1.73966 2.17681 1.99646 1.45683 1.34888 1.34455 1.24001 1.17322 1.10977 1.06527 1.01293 0.976566 0.913305 1.02797 0.977678 0.810297 0.734534 0.65587
threshold=-0.15927678032654832 0.46596109249343626 -0.042964499039623121 -0.19184176420878976 0.12706073828531098 0.0024353679283383727 -0.23731606409933295 0.011128874927332008 0.018246958127504213 -0.016316921394889657 0.10975220858179459 0.013039107293575726 0.22790519508158893 0.26167277065620481 -0.035476025315788688 0.055547159073775949 0.038254011089193567 -0.11639089086693176 0.0046676510075448442 0.019539732959517834 0.011279239296521446 -0.1337374721450921 -0.11639089086693176 0.0052411651397084045 0.050326913037912931 1.8006962607243211 0.02396600964857654 0.01502892925455938 -0.059334346462293235 0.0093864645906398553 0.053842012747562625 -0.21169341592853394 0.93261257020820787
decision_type=2 2 2 2 2 2 2 2 2 2 2 2 2 2 2 2 2 2 2 2 2 2 2 2 2 2 2 2 2 2 2 2 2
left_child=5 2 32 -4 20 8 7 9 14 -7 19 12 -12 -13 15 16 -1 -17 31 26 -5 23 -21 -20 -23 -6 -10 28 -16 -29 -11 -8 -2
right_child=1 -3 3 4 25 6 18 -9 10 30 11 13 -14 -15 27 17 -18 -19 21 22 -22 24 -24 -25 -26 -27 -28 29 -30 -31 -32 -33 -34
leaf_value=-0.0018260325692051099 -0.0060345155844433148 -0.0055257975345011801 -0.0053924817324581525 0.00064132926633090779 0.0069564007731320659 -0.00079569506245510046 -0.0013751326211015969 0.0013431311792415706 0.00070029658830769248 -0.0093330902677073255 -0.00054331479296362221 -0.00074720024632835024 0.0037780928124702771 -0.0088315025852061801 -0.0016082506265441719 0.0040952834462423529 0.0029165032295631987 0.00028850987061696865 0.0026949442376468066 0.0099036107459105557 -0.00082942910289275347 -0.0015466364701335661 0.0026999774265837355 -0.00090372433989952667 0.0023412759011879453 0.0015158768716030458 0.0048637896957436835 -0.0017690978747148243 0.0037963041830471884 -7.5347363221632197e-05 -0.0047213886901858806 -0.0070827901480250092 -0.00099119726598026264
leaf_weight=1217 132 120 108 11740 157 144 102 174 705 191 837 311 400 100 161 501 302 1102 507 100 1791 1599 130 371 198 188 176 3045 194 1183 190 126 126
leaf_count=1217 132 120 108 11740 157 144 102 174 705 191 837 311 400 100 161 501 302 1102 507 100 1791 1599 130 371 198 188 176 3045 194 1183 190 126 126
internal_value=-2.30776e-05 0.00036582 0.000415462 0.00048902 0.000534797 -0.000420159 -0.00126921 -0.00366318 -0.000127892 -0.00532241 0.000953986 -3.58294e-05 0.000854068 -0.00271418 -0.00051529 0.000329333 -0.000883145 0.00147828 -0.00069278 0.00242223 0.000446656 -0.000365773 0.00583199 0.00117432 -0.00111825 0.00399171 0.00153205 -0.00109066 0.00134522 -0.00129518 -0.00703329 -0.00452936 -0.0035715
internal_weight=28428 14362 14242 13984 13876 14066 3602 699 10464 525 2759 1648 1237 411 7705 3122 1519 1603 2903 1111 13531 2675 230 878 1797 345 881 4583 355 4228 381 228 258
internal_count=28428 14362 14242 13984 13876 14066 3602 699 10464 525 2759 1648 1237 411 7705 3122 1519 1603 2903 1111 13531 2675 230 878 1797 345 881 4583 355 4228 381 228 258
is_linear=0
shrinkage=0.05


Tree=19
num_leaves=39
num_cat=0
split_feature=10 24 27 17 11 24 23 4 22 21 25 18 18 5 23 24 17 25 25 8 1 28 10 17 8 17 5 17 1 7 17 28 18 6 25 17 2 18
split_gain=1.31045 1.6188 2.11169 1.31999 1.68084 2.08976 1.40842 1.29234 1.28353 1.27498 2.76322 1.58682 1.41135 1.92867 1.84836 2.37199 1.76935 3.58493 1.51877 1.40612 1.49327 1.45275 1.65256 1.37971 1.68684 1.34782 1.19013 1.51281 1.50278 1.177 1.14716 1.31785 1.08893 1.11819 1.03247 0.939268 0.508762 0.441857
threshold=-0.072963716642472573 0.018289999378048098 -0.024708235154716592 0.0086778633110651555 0.22075411521342517 -0.017534637876399247 -0.018799853057183288 0.12798919338132234 0.060393910302244655 0.59835287864340125 0.0050255865313276723 0.042621427198941166 0.040019729397551204 0.3309288010119717 0.0059552700142654355 -0.041148559271920897 0.015242204608141796 0.0077274923043224239 0.011279239296521446 -0.0089332806745894815 -0.049215697688095632 -0.25806669437263252 -0.41842605234559987 0.016560888445532069 0.08084808981383608 0.014782381907053057 0.40386913978060685 0.017584462960667315 -0.0091744827312457682 0.094895435892673699 0.015866898001210831 -0.0024248937349810591 0.041105465550262357 0.042077195743622571 0.0050049570483282338 0.019621947081229378 -0.039506854684984209 0.021131003407617897
decision_type=2 2 2 2 2 2 2 2 2 2 2 2 2 2 2 2 2 2 2 2 2 2 2 2 2 2 2 2 2 2 2 2 2 2 2 2 2 2
left_child=9 3 7 -2 30 8 -7 37 -6 10 26 23 13 16 15 -15 17 -11 -18 21 -21 -14 -23 25 -25 -12 27 36 -29 -22 31 -5 33 35 -35 -4 -1 -3
right_child=1 2 32 4 5 6 -8 -9 -10 12 11 -13 19 14 -16 -17 18 -19 -20 20 29 22 -24 24 -26 -27 -28 28 -30 -31 -32 -33 -34 34 -36 -37 -38 -39
leaf_value=0.001014053292831854 -0.0032216631051008877 -0.0039865135797299443 4.2677798947531917e-05 0.0055074702532121305 0.00041959216479630539 -0.0029419446523577253 0.0014855363317136589 0.00035427696663343036 -0.0033564353350670345 0.00091616248969439678 0.00011365264239195253 -0.0051328159588044644 -0.0026543942752475149 -0.00052752800437694161 -0.0020797003015894633 0.0057505686910285601 -0.001312245849311918 -0.0020044436700637561 0.00024114195601540215 0.0037311086760212979 -0.0036832340061467937 0.0064645983428289052 0.0018147173485738091 0.0016813032386576447 -0.0026842956090504196 -0.0037463708631201354 0.0025830419552512469 -0.002966677071972814 -0.0078604309528366653 0.001420101552401065 0.0074371490720485742 0.00084649999166380241 0.0050596777539170697 0.0015812911890783915 -0.0034276549986184974 0.0043511019130387614 -0.0021846480349782759 -0.0083819111509889251
leaf_weight=158 181 104 688 226 464 189 3620 102 437 4989 620 146 139 238 198 409 5149 1331 2266 150 333 239 953 1519 259 356 100 424 249 171 134 461 102 140 388 155 583 127
leaf_count=158 181 104 688 226 464 189 3620 102 437 4989 620 146 139 238 198 409 5149 1331 2266 150 333 239 953 1519 259 356 100 424 249 171 134 461 102 140 388 155 583 127
internal_value=1.07748e-06 0.000567476 -0.000737344 0.000980029 0.00111753 0.000753618 0.00126585 -0.00433322 -0.00141184 -0.000201896 -0.000957003 -5.30922e-05 -6.86099e-07 -0.000170978 0.00214752 0.00344116 -0.000313615 0.000301079 -0.000837536 0.00125012 -0.000648338 0.00218295 0.00274703 0.000216203 0.00104537 -0.00129431 -0.0026884 -0.00306121 -0.00477729 -0.00195175 0.00320524 0.0023798 7.55743e-05 -0.000295234 -0.00209953 0.000834855 -0.0015026 -0.00640303
internal_weight=28497 7518 1806 5712 5531 4710 3809 333 901 20979 4414 2900 16565 14580 845 647 13735 6320 7415 1985 654 1331 1192 2754 1778 976 1514 1414 673 504 821 687 1473 1371 528 843 741 231
internal_count=28497 7518 1806 5712 5531 4710 3809 333 901 20979 4414 2900 16565 14580 845 647 13735 6320 7415 1985 654 1331 1192 2754 1778 976 1514 1414 673 504 821 687 1473 1371 528 843 741 231
is_linear=0
shrinkage=0.05


Tree=20
num_leaves=31
num_cat=0
split_feature=7 10 9 28 25 17 24 27 11 22 12 2 26 25 9 25 26 17 4 5 17 16 21 10 11 13 2 16 5 17
split_gain=1.26573 1.68333 1.69706 1.74774 1.50116 2.28849 1.49624 1.58872 1.5268 1.49539 1.88363 1.34327 1.35295 1.33714 1.20395 1.61743 1.20387 1.39065 1.18588 1.13299 1.12749 1.65639 1.55239 1.05297 1.17815 1.0424 0.692712 0.642846 0.6264 0.423741
threshold=-0.12946241382192228 -0.15927678032654832 -0.042964499039623121 -0.03497574767680111 0.0050255865313276723 0.020841820464556415 0.013610702268622711 0.02529945324094757 0.49153844319094658 1.308903437027537 9.0225530229967337 -0.026003578534409207 0.023646710145138864 0.0082079470429723897 0.030686379502850584 0.0128030275035861 -0.0022699419953178808 0.023374356275545297 0.16797009618352202 0.40386913978060685 0.016786598465050536 0.02223018891058786 0.40685406564378229 -0.11503701901996986 0.5368459269678979 69.845663078525405 0.033258716601525913 0.02071615230425336 -0.10656541607715624 0.020604349588523915
decision_type=2 2 2 2 2 2 2 2 2 2 2 2 2 2 2 2 2 2 2 2 2 2 2 2 2 2 2 2 2 2
left_child=9 6 27 23 19 -6 11 14 18 10 29 12 13 -2 25 -16 17 28 -9 -5 22 -22 -13 26 -25 -8 -4 -3 -12 -1
right_child=1 2 3 4 5 -7 7 8 -10 -11 16 20 -14 -15 15 -17 -18 -19 -20 -21 21 -23 -24 24 -26 -27 -28 -29 -30 -31
leaf_value=-0.00079524650187738763 0.00074258505896661591 -0.0060352802966605794 0.0022654444377472184 0.00059224893269544158 -0.00071621994601459818 0.0012745166495117268 0.00091680524775086163 -0.0011164258089223671 0.0045864580135828665 0.0075217957824112516 0.0044882543682891489 -0.0062584490039929129 -0.0043878904692569954 -0.00140742400572479 -2.8290823879633321e-05 -0.0064848961369716566 -0.0021438441419026309 0.0079270563814859089 -0.0054901752338097666 0.0030611252676765901 -0.003367755884355924 -0.00057517122362242979 -0.00042546542264801135 0.00023735695433035531 0.0053574516377373933 0.0049455634593580135 0.0060484343834837778 -0.0011459171556811216 0.00023972440938248635 -0.0053753422439792239
leaf_weight=101 2285 137 935 2910 6253 1877 2891 1078 103 102 145 120 180 1058 506 120 114 133 181 553 1353 874 2307 1298 123 170 139 132 216 101
leaf_count=101 2285 137 935 2910 6253 1877 2891 1078 103 102 145 120 180 1058 506 120 114 133 181 553 1353 874 2307 1298 123 170 139 132 216 101
internal_value=-1.63416e-05 -7.6936e-05 0.000297964 0.000373081 0.000114724 -0.000256612 -0.000483895 0.00019289 -0.00126639 0.00181631 0.00109784 -0.000901786 -0.000165219 6.21455e-05 0.000731957 -0.00126598 0.00248763 0.00355643 -0.00174522 0.000986499 -0.00145935 -0.00227179 -0.00071387 0.00157354 0.000680546 0.00114055 0.00275505 -0.00363604 0.0019462 -0.00308529
internal_weight=28495 27583 14357 14088 11593 8130 13226 5049 1362 912 810 8177 3523 3343 3687 626 608 494 1259 3463 4654 2227 2427 2495 1421 3061 1074 269 361 202
internal_count=28495 27583 14357 14088 11593 8130 13226 5049 1362 912 810 8177 3523 3343 3687 626 608 494 1259 3463 4654 2227 2427 2495 1421 3061 1074 269 361 202
is_linear=0
shrinkage=0.05


Tree=21
num_leaves=31
num_cat=0
split_feature=17 26 9 3 18 26 25 10 17 25 28 2 25 12 24 12 9 16 8 25 25 21 28 11 2 26 3 11 9 28
split_gain=1.5809 1.62554 2.23122 1.85997 1.57446 2.40122 2.03197 2.51674 2.12758 2.83639 4.30829 1.83368 1.90889 1.61661 2.26274 1.42213 1.40975 1.37667 1.32545 1.31538 1.31019 1.27455 1.21837 1.04962 0.893332 0.702922 0.483453 0.405251 1.02285 0.580652
threshold=0.033754764358907445 0.03838942734078455 0.047571080900400527 0.0098660033483470872 0.022048366220685008 -0.020461775962104963 0.0050880154720233757 -0.33263602022804589 0.020762797678280896 0.010016533032084024 -0.10117749679191877 -0.036760866117180373 0.011128874927332008 30.498295517401242 -0.00069029352399224686 43.171558169992331 0.080029462468817938 0.0307094475385804 0.15336043823445603 0.015252383676655211 0.011457346342843662 0.58104131624554156 0.024616076237909516 0.5368459269678979 -0.031836453550520331 0.05262391019773472 -0.064465120696132902 0.29962509653046648 0.011769623876989434 -0.025504600854588496
decision_type=2 2 2 2 2 2 2 2 2 2 2 2 2 2 2 2 2 2 2 2 2 2 2 2 2 2 2 2 2 2
left_child=4 3 -3 26 5 27 7 13 9 18 -11 19 -13 14 -6 22 20 -5 -8 -10 21 -7 -9 -17 -15 -22 -2 28 29 -1
right_child=1 2 -4 17 6 16 8 15 11 10 -12 12 -14 24 -16 23 -18 -19 -20 -21 25 -23 -24 -25 -26 -27 -28 -29 -30 -31
leaf_value=-0.0013003942270838056 0.0015582852629729763 0.0019938037655348041 0.011346551606431604 -0.0060663524656327534 -0.0063585648343137324 -0.00059184128112198112 0.00051601338285256373 -0.00070121262454458217 0.0020154136217937048 0.0025887700840667477 -0.0026386522361218911 -0.00082447992481642855 0.0014062703631453389 -0.010397834099128036 0.0024614695952355908 -0.0025988682233109611 0.0053274210155594475 0.00092960957862739738 -0.0019098926175683179 0.0079185662424933276 -0.005790489144670237 0.00095686056973152359 0.0020374586927503586 3.811385256011744e-05 -0.0047714742601965556 -0.00024587421826171603 0.0062249812796445828 -0.0053830439049639914 0.0023199839172385901 -0.0050020878855099203
leaf_weight=224 104 176 100 122 134 1593 4529 1163 1126 474 2340 1918 1918 109 159 1179 161 166 643 103 119 8001 624 555 200 110 119 101 112 201
leaf_count=224 104 176 100 122 134 1593 4529 1163 1126 474 2340 1918 1918 109 159 1179 161 166 643 103 119 8001 624 555 200 110 119 101 112 201
internal_value=8.05988e-05 0.00229049 0.00538248 0.000620459 1.80291e-05 0.000496524 -0.000277917 -0.00124554 2.77708e-05 -0.000480642 -0.00175813 0.000829386 0.000290895 -0.00423311 -0.00157227 -0.000734748 0.000686562 -0.00203396 0.000214417 0.00251014 0.000610498 0.000699712 0.0002551 -0.00175485 -0.00675618 -0.00312714 0.00404858 -0.00247736 -0.00193086 -0.00305108
internal_weight=28583 787 276 511 27796 10622 17174 4123 13051 7986 2814 5065 3836 602 293 3521 9984 288 5172 1229 9823 9594 1787 1734 309 229 223 638 537 425
internal_count=28583 787 276 511 27796 10622 17174 4123 13051 7986 2814 5065 3836 602 293 3521 9984 288 5172 1229 9823 9594 1787 1734 309 229 223 638 537 425
is_linear=0
shrinkage=0.05


Tree=22
num_leaves=19
num_cat=0
split_feature=21 7 5 4 24 11 21 16 21 18 13 24 13 26 5 23 17 4
split_gain=1.58714 1.13108 1.16746 1.40891 1.59551 1.37827 1.21469 1.0972 1.03171 1.3585 0.939242 1.28095 0.876863 1.67098 0.825664 0.746153 0.719307 0.623913
threshold=4.0215756936445919 -0.15421222076172617 -0.071638651065872069 -0.25519130032898851 -0.037239645557610328 0.0072533092892621562 1.2119506287083699 0.010252417583706539 0.5486749514470064 0.017390431136324744 16.038954452343265 -0.0082424069032124275 69.845663078525405 0.015541818345189974 0.2906852568964074 -0.002794784290589158 0.023091455213986544 0.19136830929659601
decision_type=2 2 2 2 2 2 2 2 2 2 2 2 2 2 2 2 2 2
left_child=1 10 3 16 6 -6 -5 8 9 -4 -1 -12 14 -14 -9 -2 -3 -10
right_child=15 2 7 4 5 -7 -8 12 17 -11 11 -13 13 -15 -16 -17 -18 -19
leaf_value=-0.00087591171593253401 -0.0011877912735822156 0.0064468225639391797 -0.0046430616811123379 -0.0015308970127499396 -0.0030676727236073559 -0.00028328681083250856 -0.0069197058459933569 -0.00034534408594823158 0.0016890588738508426 0.0027455053352151474 0.0067698196402956427 0.00015802446024252041 0.0025489814509544271 -0.000397029262741501 0.00056598826521618703 -0.0070622079884734654 0.00063553861828898701 -0.0021377879945378353
leaf_weight=141 102 107 162 295 467 9201 162 9646 2172 101 179 124 935 992 3348 115 106 112
leaf_count=141 102 107 162 295 467 9201 162 9646 2172 101 179 124 935 992 3348 115 106 112
internal_value=-4.11869e-05 -8.46576e-06 -4.84445e-05 -0.000469584 -0.000554245 -0.000417783 -0.00344115 0.000200796 0.00115992 -0.00180563 0.00249525 0.004064 3.70742e-05 0.00103241 -0.000110533 -0.00430096 0.00355482 0.0015014
internal_weight=28467 28250 27806 10338 10125 9668 457 17468 2547 263 444 303 14921 1927 12994 217 213 2284
internal_count=28467 28250 27806 10338 10125 9668 457 17468 2547 263 444 303 14921 1927 12994 217 213 2284
is_linear=0
shrinkage=0.05


Tree=23
num_leaves=43
num_cat=0
split_feature=18 26 25 17 25 28 5 27 11 25 1 4 11 11 8 1 17 28 17 21 26 21 13 25 13 24 13 18 17 24 17 8 8 14 11 16 18 14 27 28 17 18
split_gain=1.65826 2.52066 1.78902 2.84226 2.74897 3.22589 2.08352 2.36401 2.32765 1.81513 1.74205 2.09435 1.85277 1.57375 2.05289 1.56394 1.59611 1.51981 1.71082 1.50575 1.50352 1.24526 1.21088 1.24026 1.83742 1.19368 1.18926 1.07701 0.998103 0.994089 0.991109 0.96852 1.4636 0.915907 0.776863 0.751056 0.706795 0.685866 0.519433 0.513649 0.45105 0.284115
threshold=0.021900235739588988 -0.020996685374855214 0.0052951433044673727 0.020762797678280896 0.011128874927332008 -0.087664039948911296 -0.30523198147645358 0.090621851382097898 0.43039485879666056 0.015729029249237299 0.040670923312623238 -0.01170698938314013 0.84077903339131865 0.040348301230408896 0.15336043823445603 -0.012399474409533926 0.016786598465050536 -0.019943787139427401 0.017291018702686848 0.58104131624554156 -0.0025408117370520618 0.87343862492158675 41.178538277438037 0.005214044796954735 69.561309124203731 0.031940179766691508 27.750372564302157 0.01823630734917335 0.018705065060227375 -0.012893002092409287 0.025784890099742896 0.16325567594644988 0.12168734410812655 -0.87927659513963463 0.33214226152316212 0.0099327661409975409 0.030162272634592712 -0.092415311494534108 0.11580888127792417 0.082222344032542541 0.01157520117335031 0.018838614366872331
decision_type=2 2 2 2 2 2 2 2 2 2 2 2 2 2 2 2 2 2 2 2 2 2 2 2 2 2 2 2 2 2 2 2 2 2 2 2 2 2 2 2 2 2
left_child=1 39 6 4 13 25 17 15 38 10 11 -5 -12 20 -15 26 -17 18 -2 31 -4 -7 29 24 -24 -6 -8 -25 -10 35 37 32 34 -31 -3 -21 -20 -11 -9 40 41 -1
right_child=2 19 3 9 5 21 7 8 28 30 12 -13 -14 14 -16 16 -18 -19 36 22 -22 -23 23 27 -26 -27 -28 -29 -30 33 -32 -33 -34 -35 -36 -37 -38 -39 -40 -41 -42 -43
leaf_value=-0.0049606522872742012 0.0025882336172992283 -0.00045698540344663155 -0.0011262063176908849 -0.00032799058714059874 -0.00052888849786282945 -0.0011229151402097647 0.0017801018865010961 0.00034491960931083433 0.007570701007769332 0.0051369458353976803 -0.00024682110279104395 0.0020586111851864462 -0.0056806817603975782 0.00081968608669537356 -0.0025293999571061715 -0.0006124917701001314 -0.0033340095920532694 -0.0085063313050860803 -0.0078348282968663877 0.0079143037776219418 -0.0073019479067948784 -0.0038088705439644336 0.00063038141596030457 -0.0011886119136067716 0.0036141644880274097 0.0044571597536368678 -0.00094246257954615741 0.00073321132361768451 0.0023248169941373028 0.00084184596005232423 0.0069296297972970128 -0.004996019625856031 0.0053843847991825611 0.0034142180305888302 -0.0046311559019606473 0.0026505886501299444 -0.0020439493291846971 -0.00022981994528451871 -0.0045692726134640713 -0.0060641974631289487 -9.4313061452266158e-05 -0.0018068820801311854
leaf_weight=138 113 1291 598 1533 282 639 542 115 159 101 1064 2296 184 3609 524 955 1236 147 109 111 118 1329 2502 1395 650 209 1543 1527 211 1312 171 124 102 470 122 174 102 145 101 100 173 148
leaf_count=138 113 1291 598 1533 282 639 542 115 159 101 1064 2296 184 3609 524 955 1236 147 109 111 118 1329 2502 1395 650 209 1543 1527 211 1312 171 124 102 470 122 174 102 145 101 100 173 148
internal_value=-5.68722e-05 0.000448477 -0.000344978 -2.44508e-05 -0.000670415 -0.00203218 -0.00111441 -0.000806813 0.00217141 0.000834797 0.000574335 0.0011031 -0.00104797 2.01568e-05 0.000395074 -0.00121496 -0.00214777 -0.00428968 -0.00237657 0.000635126 -0.002144 -0.00293675 0.000913499 0.000557774 0.00124569 0.00159348 -0.000234726 -0.000184292 0.00457913 0.00195882 0.00400593 -0.000747571 -0.000399843 0.00152031 -0.000817388 0.00470067 -0.00503545 0.00197361 -0.00195292 -0.00281704 -0.0021096 -0.00332863
internal_weight=28474 10339 18135 12802 7308 2459 5333 4862 586 5494 5077 3829 1248 4849 4133 4276 2191 471 324 9780 716 1968 8141 6074 3152 491 2085 2922 370 2067 417 1639 1515 1782 1413 285 211 246 216 559 459 286
internal_count=28474 10339 18135 12802 7308 2459 5333 4862 586 5494 5077 3829 1248 4849 4133 4276 2191 471 324 9780 716 1968 8141 6074 3152 491 2085 2922 370 2067 417 1639 1515 1782 1413 285 211 246 216 559 459 286
is_linear=0
shrinkage=0.05


Tree=24
num_leaves=18
num_cat=0
split_feature=21 17 11 10 25 17 28 16 14 25 16 24 25 7 16 17 2
split_gain=1.71278 1.28889 1.51093 1.66921 2.14453 2.1613 1.83059 1.46097 1.44248 1.8866 2.0777 1.38969 1.32408 1.26604 1.02379 0.779991 0.386226
threshold=4.0215756936445919 0.033122615658869765 1.1976801142677143 -0.13719698786874154 0.011415128238285133 0.022098657437985361 0.0024353679283383727 0.019057681388753144 -1.2097406762098568 0.0062487963084249228 0.039224999637838744 0.024766677006788477 0.013039107293575726 0.098765218990692363 0.0307094475385804 0.022403605805809225 0.032618778145029677
decision_type=2 2 2 2 2 2 2 2 2 2 2 2 2 2 2 2 2
left_child=1 2 3 6 13 -6 11 -8 -3 -10 14 -1 -12 -5 -11 -2 -4
right_child=15 8 16 4 5 -7 7 -9 9 10 12 -13 -14 -15 -16 -17 -18
leaf_value=-0.00033383654725192363 -0.0073608690088544136 0.0075334447291679684 -0.0021630076986580791 0.00043937286822644478 -0.0027163294273212491 0.0017669884209342884 -0.0021251080779898018 -0.0001685343404536188 -0.0032439738095510172 0.0023045161072402084 0.0025696543682331464 0.0010777252087275186 -0.0052611227615059104 0.0021201076162752964 0.0074470812007167396 -0.0013475262145780458 -0.0065249312020765216
leaf_weight=8648 112 100 101 9805 976 371 2289 1636 186 208 106 2184 110 1265 181 104 102
leaf_count=8648 112 100 101 9805 976 371 2289 1636 186 208 106 2184 110 1265 181 104 102
internal_value=-3.00744e-05 3.81777e-06 -5.70905e-05 -2.49856e-05 0.000402223 -0.0014815 -0.000384452 -0.00130958 0.00187529 0.00115998 0.00251392 -4.92307e-05 -0.00141824 0.000631435 0.00469733 -0.00446556 -0.00435471
internal_weight=28484 28268 27377 27174 12417 1347 14757 3925 891 791 605 10832 216 11070 389 216 203
internal_count=28484 28268 27377 27174 12417 1347 14757 3925 891 791 605 10832 216 11070 389 216 203
is_linear=0
shrinkage=0.05


Tree=25
num_leaves=36
num_cat=0
split_feature=5 13 16 17 12 0 4 1 5 25 24 3 25 8 5 7 4 4 23 17 9 26 3 24 8 25 11 26 23 16 22 26 27 22 27
split_gain=1.83506 1.15221 1.22237 1.08576 1.01129 1.08652 1.00236 1.55494 1.04211 2.17857 1.4732 1.20548 1.2811 1.0685 1.74873 0.973325 0.959118 1.12897 1.0098 0.950002 0.858128 0.85198 0.842161 0.972476 1.28846 0.877197 0.835705 0.751644 1.37448 1.17409 0.705385 0.635521 0.634447 0.622198 0.528817
threshold=-0.071638651065872069 70.483354221612501 0.031917896157863203 0.010328634000978497 43.171558169992331 -0.026940440157611097 -0.24465917907461568 -0.028739669537081954 -0.30523198147645358 0.005214044796954735 -0.053425753127361357 0.05609054096029898 0.011167992643406014 0.051000717546608738 -0.20583426143553071 0.07389438857653198 0.24603640668514995 0.34396592097335282 0.0062564796728803449 0.023374356275545297 -0.10112427252094518 -0.017731818648939742 0.053842012747562625 0.018246958127504213 0.060213340150088175 0.0051311067954129376 0.11605094967827657 0.017822791260728724 0.00032308938065195308 0.018227291100564109 -0.57102643437872891 -0.028847605480020463 0.083609236338179752 0.02506467581314481 0.11286564595490046
decision_type=2 2 2 2 2 2 2 2 2 2 2 2 2 2 2 2 2 2 2 2 2 2 2 2 2 2 2 2 2 2 2 2 2 2 2
left_child=6 4 3 -3 22 -6 7 31 9 19 33 12 -11 21 -15 -13 18 -18 -7 30 -9 -12 23 24 -2 32 -25 28 -5 -29 -8 -1 -24 -10 -27
right_child=1 2 -4 27 5 16 8 20 10 11 13 15 -14 14 -16 -17 17 -19 -20 -21 -22 -23 25 26 -26 34 -28 29 -30 -31 -32 -33 -34 -35 -36
leaf_value=0.0013803655731068035 0.0011909197364663882 0.0051914927211882305 0.00627088978787365 0.00011625395118114413 -0.0038636081253846928 -0.00050921950947870509 -0.0064569277136124733 0.0009602941858984932 -0.0018228143178620722 2.7006164572073842e-05 0.0015999200162912241 -0.0057324500279732262 0.0063418483748100708 -0.0057323535445094531 -0.00081227743836352465 0.00032758521474897861 -0.003698983908980154 0.00070983571609719957 0.00064629650306557637 -0.0082468395916231226 0.0067351440010361037 -0.00024595973781967853 0.0024790519968463254 0.0028009967398247683 -0.00048708090793480989 0.0019253500728245354 -0.0015153609619261081 -0.0019230996538913742 0.0039104808139707251 0.00178038949759643 -0.0020567897925005121 -0.003901020024055376 0.0077764157684287061 -0.0067601752872501839 -0.0020755976521209859
leaf_weight=111 3848 151 122 560 198 3987 123 111 135 408 690 141 100 216 1102 125 380 235 3596 116 153 6648 130 128 1628 362 905 485 416 383 351 117 100 121 107
leaf_count=111 3848 151 122 560 198 3987 123 111 135 408 690 141 100 216 1102 125 380 235 3596 116 153 6648 130 128 1628 362 905 485 416 383 351 117 100 121 107
internal_value=4.9867e-06 0.000317796 0.00141238 0.00111527 0.000169293 -0.000203665 -0.000509807 0.00169486 -0.000615363 -0.00190241 -0.000418377 -0.000157783 0.00127009 -0.000307823 -0.0016186 -0.00288469 -0.000115269 -0.00201431 3.87477e-05 -0.00419113 0.00430708 -7.23897e-05 0.000603721 0.000426612 0.000692055 0.00225294 -0.000980517 0.000781479 0.00173347 -0.000288956 -0.0031986 -0.00132982 0.00478225 -0.00415649 0.00101255
internal_weight=28489 17721 2117 1995 15604 8396 10768 492 10276 1364 8912 774 508 8656 1318 266 8198 615 7583 590 264 7338 7208 6509 5476 699 1033 1844 976 868 474 228 230 256 469
internal_count=28489 17721 2117 1995 15604 8396 10768 492 10276 1364 8912 774 508 8656 1318 266 8198 615 7583 590 264 7338 7208 6509 5476 699 1033 1844 976 868 474 228 230 256 469
is_linear=0
shrinkage=0.05


Tree=26
num_leaves=14
num_cat=0
split_feature=8 21 7 11 7 24 4 24 23 26 16 8 8
split_gain=1.84329 1.10838 1.17792 1.40727 1.08774 1.79879 1.48556 0.905177 0.900585 0.827579 0.807484 0.837141 0.701929
threshold=0.46596109249343626 4.0215756936445919 -0.1637983368902575 0.002458620865059991 0.096844232670657573 -0.023068988718521529 0.19938001926884888 -0.0075994249247423032 -0.0035306008631114101 1.0000000180025095e-35 0.025638579939115429 -0.2359181740290093 -0.22618155328839165
decision_type=2 2 2 2 2 2 2 2 2 2 2 2 2
left_child=1 2 10 7 6 -6 -5 12 -3 -9 11 -1 -4
right_child=-2 8 3 4 5 -7 -8 9 -10 -11 -12 -13 -14
leaf_value=-0.0016749314491308351 -0.0063899866105722528 -0.00013318727715694182 0.0028244233336390968 7.4652627037721309e-05 -0.0039938563176722154 0.0014407241500248072 -0.0016588191841308876 -0.0074420920411843484 -0.0066137425527306257 -0.0018292712619500783 0.0062417847571940334 0.0044980077076402008 -0.0020296657699372441
leaf_weight=119 112 102 102 23355 163 2311 1305 127 113 136 122 102 276
leaf_count=119 112 102 102 23355 163 2311 1305 127 113 136 122 102 276
internal_value=1.17984e-05 3.71046e-05 6.44506e-05 2.84877e-05 8.31897e-05 0.00108267 -1.70822e-05 -0.00228709 -0.00353925 -0.00453964 0.00297661 0.00117412 -0.000719832
internal_weight=28445 28333 28118 27775 27134 2474 24660 641 215 263 343 221 378
internal_count=28445 28333 28118 27775 27134 2474 24660 641 215 263 343 221 378
is_linear=0
shrinkage=0.05


Tree=27
num_leaves=48
num_cat=0
split_feature=10 21 25 28 17 25 13 25 25 25 10 10 10 21 12 17 11 24 9 11 24 21 12 17 17 17 11 25 20 21 11 23 3 24 23 11 11 2 9 12 25 7 3 8 17 1 14
split_gain=1.29099 1.42947 1.65705 1.58191 1.94648 2.30913 2.59327 1.85644 1.63339 2.11185 1.92599 1.50524 1.4921 1.45008 1.43943 1.38883 1.54315 1.35077 1.79941 1.6174 1.62663 1.61503 2.11298 1.59567 1.70845 1.31452 1.28674 1.24762 1.22139 1.19087 1.16883 1.39305 1.14937 1.10538 1.01075 0.983215 1.16476 0.974783 0.949987 0.899993 0.886707 0.846109 1.06015 0.806778 1.06318 0.649633 0.507814
threshold=-0.072963716642472573 0.67971331252427958 0.0052115203049092349 -0.033904603221962752 0.022787899024961977 0.010016533032084024 39.199011951291475 0.010519084363156168 0.0065773673889554293 0.011279239296521446 -0.37248912743122448 -0.26269483737295263 -0.2610169860592042 0.86933935316098965 28.694577904561893 0.017537614616601273 0.52964189203562395 0.018289999378048098 0.034342899635304354 0.21425118868982454 -0.017534637876399247 0.85082602463897172 53.69412273082456 0.013002101826842081 0.019316941614382029 0.026967408674087361 1.0748811281230579 0.011182041974596029 0.011798140013596361 0.48380896365852183 0.16564365134710793 0.00042846455013811907 0.11749331921897645 0.044586101289998077 -0.020921226197887662 0.15183681278010799 0.067149362738477394 0.015685949209377496 -0.014887597590561295 29.098693438206045 0.0052951433044673727 0.067745089030251351 0.0032326940162333844 0.13957164592476892 0.030220972665948354 -0.012034058574033111 1.1606377387865601
decision_type=2 2 2 2 2 2 2 2 2 2 2 2 2 2 2 2 2 2 2 2 2 2 2 2 2 2 2 2 2 2 2 2 2 2 2 2 2 2 2 2 2 2 2 2 2 2 2
left_child=1 2 14 8 7 6 -6 11 25 12 -11 -5 -10 -9 35 29 -17 19 33 30 21 22 -21 -20 32 40 34 -26 43 -16 37 -32 -25 41 -22 36 -1 -2 -37 -7 -3 42 -19 44 -4 -23 -28
right_child=17 3 28 4 5 39 -8 13 9 10 -12 -13 -14 -15 15 16 -18 18 23 20 26 45 -24 24 27 -27 46 -29 -30 -31 31 -33 -34 -35 -36 38 -38 -39 -40 -41 -42 -43 -44 -45 -46 -47 -48
leaf_value=-0.0011651773583867613 -0.0025449807954047035 0.00074485346497219233 -7.0853563247139976e-05 -0.0028417499062292351 0.0051128680007318968 0.0071003230599811871 -0.002750891079394413 0.00031900053336357819 -0.0034262222558627321 0.0038066075571280712 -9.9596521276900917e-05 4.1454300778779121e-05 -0.00019839414245407329 -0.0032006521943584651 -0.0040198926609235647 -0.0057788605728068057 -0.00043159966589882974 -0.0054944998361712329 0.0063997581528256776 0.005080415585847653 -0.0025653908836437826 -0.0052774322334300273 -0.0034477425374401117 -0.0035968763508179521 -0.0004899623019092188 -0.0044419069837742641 -0.00033942340967892592 0.0051734863782710418 -0.0045480557487615828 -4.4180489973510096e-05 0.0062958368335811962 0.00099752160693390821 0.002505195029445139 0.00149150645464033 0.0014137245069605216 -0.0053612152982022961 0.0033586394816745809 0.0033668452205287674 -0.00056225784701492752 0.0021508763761910713 0.0022138960187977801 -0.0071609772798400199 -0.00099183166652231747 -0.0038936817794502348 0.0033658950219331825 -0.0017254316631669518 -0.0050506896123306841
leaf_weight=296 142 2866 3044 523 131 104 525 384 691 416 1307 3367 743 1230 287 530 181 189 115 184 167 178 120 317 185 103 118 205 152 548 338 196 102 160 3598 150 274 137 330 786 1601 109 424 126 243 465 111
leaf_count=296 142 2866 3044 523 131 104 525 384 691 416 1307 3367 743 1230 287 530 181 189 115 184 167 178 120 317 185 103 118 205 152 548 338 196 102 160 3598 150 274 137 330 786 1601 109 424 126 243 465 111
