tree
version=v4
num_class=1
num_tree_per_iteration=1
label_index=0
max_feature_idx=28
objective=regression
feature_names=ret_1d ret_5d ret_10d ret_21d ret_63d mom_12_1 dist_sma20 dist_sma50 dist_sma200 sma20_50 hi52_dist lo52_dist rsi_5 rsi_14 boll_z down_streak vol_21d vol_63d atr_pct range_pos gap vol_ratio turnover_z nifty_ret_5d nifty_ret_21d nifty_vol_21d nifty_dist_sma50 rs_21d rs_63d
feature_infos=[-0.14774798671818146:0.19997537811905386] [-0.25897041272693233:0.35381840882291749] [-0.71455663447239148:0.4888265629240931] [-0.73885684273370078:0.62737341772151889] [-0.73780806432237322:1.1240763741237396] [-0.77908854163275043:2.788801740552969] [-0.58242641133259054:0.38212542939452221] [-0.66299712297238445:0.4449260684412315] [-0.72637889708867531:0.76161359982465671] [-0.57656678182319077:0.22193802167675281] [-0.81160635661815927:0] [0:3.0827767590741209] [0:99.99999999989177] [0:99.820581459918159] [-4.1398223779027559:4.0952734423527524] [0:15] [0.0041173171733105071:0.14804814997149465] [0.0066381666618586799:0.087516065025183346] [0.0089662718251451203:0.25432187210036961] [0:0.99999999998913036] [-0.18415288168251798:0.18766756032171572] [0.061675563625124226:10.077521021496063] [-2.7519391194040814:7.8077551964876637] [-0.057729062348679472:0.07707436936302603] [-0.12365739662022956:0.12467961059120158] [0.0042260658689661753:0.018252042845920528] [-0.10052460749602199:0.070054734007278796] [-0.74093120042114058:0.55487641540625643] [-0.82798628078137759:1.0152395686058635]
tree_sizes=3203 4584 4395 4390 4021 4481 4134 4490 3663 4316 4130 4564 3684 3664 4575 2396 4062 1340 3494 4333

Tree=0
num_leaves=35
num_cat=0
split_feature=5 4 16 21 13 24 27 9 18 5 8 28 17 26 4 16 26 17 26 11 21 1 11 4 9 18 27 28 4 12 4 26 11 5
split_gain=4.27036 4.20779 4.11678 3.13702 3.08301 2.31141 2.64154 2.1961 2.17114 2.58881 2.5498 3.07447 2.12323 4.13952 2.36197 2.04882 1.83449 2.72307 2.20777 1.76252 1.75136 1.73464 1.5625 1.5287 1.50559 1.4606 1.27955 1.43151 1.18082 1.11775 0.9595 0.958575 0.954817 0.761606
threshold=-0.076440733767408828 -0.25500208532555274 0.01024162323454348 0.56641152297589803 70.37398152265483 0.014915926577180107 0.027407863064959629 -0.11065644770194204 0.041655393096958072 0.29306637633050309 -0.09347251228437968 -0.018764212992106618 0.016423467652612055 -0.014788343573618632 -0.19436403900670371 0.032594077354824696 0.017822791260728724 0.021346486999078908 -0.012773555732965234 0.66042424038864223 0.58022624387220889 -0.029918182964808134 0.13210705906324863 0.10359325663596276 0.0015270552093247238 0.039952398337832082 0.082618246208730609 -0.0024348541510374462 0.19153014386435621 26.137620534051155 0.031905350319682342 -0.019814516663282152 0.0073768021865250341 -0.038373144293796672
decision_type=2 2 2 2 2 2 2 2 2 2 2 2 2 2 2 2 2 2 2 2 2 2 2 2 2 2 2 2 2 2 2 2 2 2
left_child=1 7 20 26 8 12 23 -1 9 19 22 -12 14 -14 -5 16 18 -18 -6 -4 30 -9 -10 -7 -11 -8 27 32 31 -29 -2 -22 -3 -33
right_child=2 3 4 5 15 6 25 21 10 24 11 -13 13 -15 -16 -17 17 -19 -20 -21 28 -23 -24 -25 -26 -27 -28 29 -30 -31 -32 33 -34 -35
leaf_value=0.50238763681434973 0.49983455501459723 0.49767294278949964 0.50301790214797082 0.49641295151188986 0.49986492697446128 0.50565588012532858 0.50133940141383249 0.50617207619898807 0.51223832438765582 0.50331720852138784 0.49911113756141501 0.50568632001072 0.50459826420416209 0.49956651283357278 0.50348253527062603 0.51134114990974011 0.50123602344562479 0.50713709699076459 0.50751561858273697 0.49845949185624483 0.50232799184758248 0.51390905303352918 0.50607314181523866 0.50106068013610439 0.50565790431582625 0.50640137341211544 0.50573737231119242 0.50177809709614685 0.50114700936252021 0.49647359518188283 0.50515137029793022 0.50440756697348155 0.5017702927704768 0.50733796856887869
leaf_weight=133 163 160 9304 123 106 1818 909 141 176 1212 242 670 587 1346 2995 146 518 314 854 217 118 149 247 201 1586 169 126 144 100 320 177 254 1277 1745
leaf_count=133 163 160 9304 123 106 1818 909 141 176 1212 242 670 587 1346 2995 146 518 314 854 217 118 149 247 201 1586 169 126 144 100 320 177 254 1277 1745
internal_value=0.503619 0.502821 0.504084 0.502618 0.503779 0.503056 0.504131 0.507707 0.503514 0.503307 0.50543 0.503942 0.502396 0.501095 0.503204 0.505646 0.505182 0.503463 0.506671 0.502914 0.505944 0.510147 0.508638 0.505198 0.504644 0.502133 0.500858 0.500534 0.506456 0.49812 0.502602 0.506707 0.501314 0.506966
internal_weight=28747 10598 18149 10175 15592 8148 3097 423 13654 12319 1335 912 5051 1933 3118 1938 1792 832 960 9521 2557 290 423 2019 2798 1078 2027 1901 2217 464 340 2117 1437 1999
internal_count=28747 10598 18149 10175 15592 8148 3097 423 13654 12319 1335 912 5051 1933 3118 1938 1792 832 960 9521 2557 290 423 2019 2798 1078 2027 1901 2217 464 340 2117 1437 1999
is_linear=0
shrinkage=1


Tree=1
num_leaves=48
num_cat=0
split_feature=10 18 25 17 24 28 25 24 5 13 5 10 27 9 25 11 5 5 25 28 25 21 25 25 17 12 24 19 11 11 28 10 7 16 23 9 25 11 11 12 16 9 17 25 10 25 1
split_gain=4.99118 4.16948 3.8577 9.61304 3.55574 3.30158 3.13359 3.04212 2.90232 2.32076 2.27821 2.09038 1.9039 1.7928 1.79086 1.78903 2.23426 1.72493 3.57527 2.31977 1.67719 1.65744 2.39065 2.2619 1.58614 1.4917 1.47171 1.42332 1.3318 1.30349 1.28207 1.36387 1.24621 1.46203 1.18077 1.1774 1.47194 1.16704 1.1687 1.08334 1.07085 0.965951 0.9532 0.928588 0.92009 0.821966 0.80117
threshold=-0.13714643952177621 0.039645517080493374 0.011279239296521446 0.022418832542305322 -0.0075994249247423032 0.0024353679283383727 0.0087440066041960477 0.018246958127504213 -0.1774324171736231 70.972078378663454 -0.23328864056960388 -0.22025407454577559 0.037591130715038119 -0.048418954243147731 0.011128874927332008 0.22906284323285522 -0.0043793301296082268 0.38611590851535843 0.0046682607885180421 0.29465404068057766 0.0050255865313276723 0.70713612130921866 0.0063540810705228681 0.0050880154720233757 0.0088293102959705622 26.137620534051155 0.018246958127504213 0.68913767777749602 0.12105936761611159 0.22376527751527034 -0.12326599559461086 -0.49299749830375933 -0.02030559091638556 0.014770276389736341 -0.013049770684314897 0.019814920507535753 0.0080289863558241584 0.32394916146113589 0.15293788958841406 13.802965267595924 0.018229227002358447 0.022007084435705874 0.018579273274211393 0.0050255865313276723 -0.075185950467214421 0.0062475395423633806 0.013263490892675202
decision_type=2 2 2 2 2 2 2 2 2 2 2 2 2 2 2 2 2 2 2 2 2 2 2 2 2 2 2 2 2 2 2 2 2 2 2 2 2 2 2 2 2 2 2 2 2 2 2
left_child=1 5 9 27 13 7 8 21 -6 15 14 34 20 30 25 16 28 19 -19 -17 -9 23 -23 -1 -18 -7 35 37 -2 -15 31 -3 39 -34 -8 -11 -37 38 -4 -12 43 -29 -14 -28 46 -10 -5
right_child=2 4 3 44 6 10 11 12 45 26 32 -13 42 29 -16 17 24 18 -20 -21 -22 22 -24 -25 -26 -27 40 41 -30 -31 -32 -33 33 -35 -36 36 -38 -39 -40 -41 -42 -43 -44 -45 -46 -47 -48
leaf_value=-0.003555095146694174 0.0032609979770149879 0.0042670557810467495 -2.7173593414727576e-05 0.0051863527168487123 -0.0096180474976650804 -0.0011617662253237404 0.0073440552283973093 -0.0011047191700948888 0.002256530422152432 0.0050623171316146916 0.00033439153619110586 -0.0029040984439257633 -0.0064705634510923678 0.0039494724296827172 0.00020306214017208913 0.00011769678758892617 -0.0014757870184799095 0.0080426127095997793 0.00088680621097874063 -0.0053890229447922629 0.0022473691140552482 0.00046844401072002642 -0.001883846086655337 -0.00065408765123626026 0.0036053288733920909 -0.0076693576589541256 0.002489558583839196 -0.0033287764269126843 -0.00082632952088438423 -0.0017307806368493898 0.0034204986107299832 0.011961512712400351 -0.0026872230433844825 -3.1938979858666074e-05 0.0018725536274116555 0.00092145933507552637 0.006321334160372981 0.00048891325497362782 -0.004991073649661202 -0.0044565598957222062 0.0044886930984941046 -0.0079547120631966554 -0.00068224864362532067 -0.0032378745256949879 0.0056779795528079076 -0.0035716649395180866 -7.5330989284798366e-05
leaf_weight=1192 261 101 161 114 143 113 127 470 122 660 150 195 104 237 137 4910 172 200 1372 199 1811 3025 1680 1540 1435 399 107 196 843 176 233 134 825 1395 441 559 163 231 450 553 107 266 225 209 315 120 198
leaf_count=1192 261 101 161 114 143 113 127 470 122 660 150 195 104 237 137 4910 172 200 1372 199 1811 3025 1680 1540 1435 399 107 196 843 176 233 134 825 1395 441 559 163 231 450 553 107 266 225 209 315 120 198
internal_value=2.91406e-05 -0.000574011 0.000748071 -0.00131586 0.00154052 -0.00088904 -0.000293111 -0.00042485 -0.00397061 0.00110401 -0.00219467 0.00156251 0.0010438 0.00392985 -0.00487447 0.00078844 0.00187176 0.000348854 0.00179721 -9.67947e-05 0.00155667 -0.00094027 -0.000371481 -0.00191983 0.00306149 -0.00623311 0.00274602 -0.00376213 0.000139968 0.00152883 0.0060487 0.00865453 -0.00159967 -0.0010187 0.00309594 0.00353589 0.00214054 -0.0025385 -0.00368307 -0.00343431 0.000165383 -0.00599219 -0.00251199 -0.00129852 0.00377176 -0.000633484 0.00184721
internal_weight=28776 15648 13128 1931 2029 13619 1148 10047 385 11197 3572 763 2610 881 649 9392 2711 6681 1572 5109 2281 7437 4705 2732 1607 512 1805 1304 1104 413 468 235 2923 2220 568 1382 722 842 611 703 423 462 329 316 627 242 312
internal_count=28776 15648 13128 1931 2029 13619 1148 10047 385 11197 3572 763 2610 881 649 9392 2711 6681 1572 5109 2281 7437 4705 2732 1607 512 1805 1304 1104 413 468 235 2923 2220 568 1382 722 842 611 703 423 462 329 316 627 242 312
is_linear=0
shrinkage=0.05


Tree=2
num_leaves=46
num_cat=0
split_feature=18 18 23 5 4 5 4 24 16 3 28 5 28 2 21 28 11 23 21 20 24 27 17 17 3 2 17 12 16 11 4 22 4 18 2 24 0 8 22 4 24 16 4 4 4
split_gain=3.73169 5.22786 3.22339 3.1351 3.11996 2.59456 2.62175 2.28174 2.11572 1.94203 4.06291 2.07637 3.09535 1.94199 1.85513 1.45917 1.43961 1.81208 1.41262 1.38025 1.37957 1.90073 1.45177 1.7405 1.37365 1.3332 1.27069 1.25652 1.24756 1.20372 1.19607 1.54779 1.18837 1.1687 1.13814 1.53482 1.10335 1.0575 0.993168 0.89696 0.841903 0.702125 0.700259 0.428021 0.420462
threshold=0.021939135162282818 0.038242584094463038 -0.018799853057183288 0.21965109591105084 -0.16322916687848918 0.0071867113450603268 0.093222973966205727 -0.009063636143290808 0.015120515461977393 -0.042844429331033766 -0.21957150562394465 -0.19964217325540526 -0.026505010484783705 0.16565495416790824 1.0415990754424937 -0.11948446694995928 1.1330035058844732 0.00089260374457411651 0.4478144451621151 -0.012070151579957887 0.013418993601083453 0.081182233705323306 0.017966578295889758 0.012061928839995977 -0.081325713315439682 -0.012913719974491254 0.0086912458536680809 9.1245722320315128 0.012557340375208599 0.9342213910902244 0.013210625936835975 -0.23184664517710027 -0.039910845599380178 0.035131149628043187 -0.099837509195651861 0.015231612043157485 0.013043318070976142 -0.055718168450917087 -0.10095762317869074 0.11346280092080764 0.014762940768212831 0.028047491142714567 -0.0082678843972326926 0.0059019705743180726 -0.10412651204002253
decision_type=2 2 2 2 2 2 2 2 2 2 2 2 2 2 2 2 2 2 2 2 2 2 2 2 2 2 2 2 2 2 2 2 2 2 2 2 2 2 2 2 2 2 2 2 2
left_child=2 3 25 9 7 6 8 24 18 10 14 12 -11 19 -2 -12 30 -18 -4 41 21 26 23 -22 38 32 -7 -13 39 -21 33 -32 44 -5 -9 -36 -15 -10 -3 -8 -30 -6 -27 -34 -1
right_child=1 4 5 16 13 20 28 34 37 11 15 27 -14 36 -16 -17 17 -19 -20 29 22 -23 -24 -25 -26 42 -28 -29 40 -31 31 -33 43 -35 35 -37 -38 -39 -40 -41 -42 -43 -44 -45 -46
leaf_value=-0.0040387999570359375 0.00016337233679130292 0.0050806628540158274 -0.001900808102679245 0.00024548342215976765 0.00065313457577888462 -0.0021969911885786463 -0.0079468519155246522 0.0050861792214355779 -0.0058324869273458386 -0.00040388812328195721 -0.0010004000436518411 0.002548064721846933 -0.0047190764880782046 0.0089570544245145701 0.0080245960112584787 -0.0034229457791572233 0.0011098391652535813 -0.0078847514981454283 0.0013265703568300495 -0.00071778281347264843 0.0023729877959536524 0.0075059358450231652 0.005796326430045586 -0.0012455567625025965 0.0014081429824000227 0.0029708221763257827 0.0024793330731836998 -0.00055133518094668333 0.002047598986355688 0.0028515744714510492 0.0029302700123749678 0.00015731243906978902 -0.0092561522340402005 -0.0039613384147523904 -0.0056272387165129008 0.0030263883419908012 0.0015664457366571273 -0.00052354452485832274 0.010552162563291622 -0.0028196682220609009 -0.0029418888101504456 0.0056571971882971687 -0.0018503113141502229 -0.0047063164678445768 0.00017510786837407651
leaf_weight=108 195 151 372 946 126 154 120 109 167 917 859 345 760 101 122 2249 113 111 3828 1887 556 181 127 826 100 128 2562 6269 186 270 1000 1013 100 200 101 104 101 214 184 295 155 158 183 107 131
leaf_count=108 195 151 372 946 126 154 120 109 167 917 859 345 760 101 122 2249 113 111 3828 1887 556 181 127 826 100 128 2562 6269 186 270 1000 1013 100 200 101 104 101 214 184 295 155 158 183 107 131
internal_value=1.12596e-05 -0.00041621 0.000764055 -0.00081469 0.00135756 0.00100825 0.000266888 0.00420611 0.000717081 -0.00120184 -0.00220341 -0.000788096 -0.00235949 0.000550312 0.00318883 -0.00275339 0.000526099 -0.0033473 0.00104072 0.000160426 0.00190626 0.0025448 0.000680374 0.00021024 0.00655079 -0.00237884 0.00221418 -0.000389664 -0.00246106 -0.000270993 0.000800756 0.00153484 -0.00413104 -0.000488691 0.00095792 -0.00123711 0.00526175 -0.00285056 0.0080859 -0.00430223 -0.00022035 0.00343708 0.000133949 -0.0069043 -0.00172908
internal_weight=28991 18491 10500 15099 3392 9743 5337 749 4581 11716 3425 8291 1677 2643 317 3108 3383 224 4200 2441 4406 2897 1509 1382 435 757 2716 6614 756 2157 3159 2013 446 1146 314 205 202 381 335 415 341 284 311 207 239
internal_count=28991 18491 10500 15099 3392 9743 5337 749 4581 11716 3425 8291 1677 2643 317 3108 3383 224 4200 2441 4406 2897 1509 1382 435 757 2716 6614 756 2157 3159 2013 446 1146 314 205 202 381 335 415 341 284 311 207 239
is_linear=0
shrinkage=0.05


Tree=3
num_leaves=46
num_cat=0
split_feature=10 18 26 28 24 13 26 24 5 18 27 13 5 9 9 26 5 10 27 5 28 4 1 5 16 5 2 17 12 17 17 13 22 5 26 4 21 22 16 26 18 3 0 5 18
split_gain=4.95276 4.00405 4.02437 2.56207 3.36727 2.51563 2.45033 2.43903 2.82443 2.14972 2.14194 2.06459 2.00618 1.82471 1.75745 1.75485 1.73874 1.60202 1.74378 1.59437 1.54754 1.53563 1.63009 1.48953 2.01602 1.40943 1.30429 1.26001 1.21428 1.18789 1.57197 1.16068 1.15678 1.04882 0.972499 0.744641 0.829746 0.728895 0.60174 0.589892 0.439716 0.393644 0.336964 0.300105 0.230755
threshold=-0.13714643952177621 0.038242584094463038 -0.017731818648939742 0.0024353679283383727 0.024943441514282298 70.972078378663454 0.017822791260728724 0.014998403916842264 -0.16909741113891177 0.021546163438092816 0.039384032893958539 26.711750225448352 -0.28604081231008316 -0.037313175106676637 -0.10171013330843713 -0.020996685374855214 -0.060551295252289021 -0.24736853132171746 0.047806142173804751 0.36759347098926526 -0.074330285702410112 -0.0783278723853119 -0.022622714599721535 0.60790687400223242 0.010514819196708962 0.39543000529273969 0.015278242333990779 0.031056448373357925 46.459652512469376 0.020868296876872052 0.011224996645896461 84.937372380149966 -0.11894067149640028 0.071612345271567249 0.035910224713140766 0.0084069204978312068 1.3581392927008022 0.042423782814330624 0.01211876969820503 0.018276153923009856 0.024835741474741112 -0.045479055913023141 0.0047722139819600393 0.11705147459203515 0.02970160448211032
decision_type=2 2 2 2 2 2 2 2 2 2 2 2 2 2 2 2 2 2 2 2 2 2 2 2 2 2 2 2 2 2 2 2 2 2 2 2 2 2 2 2 2 2 2 2 2
left_child=1 3 17 4 9 11 16 8 -4 15 20 38 28 44 -11 -1 40 18 32 27 -6 -14 -23 24 -15 31 -25 -9 -5 30 -8 -18 -3 -32 -31 36 -19 -10 43 -30 -7 -40 -12 -2 -13
right_child=5 2 7 12 10 6 29 19 37 14 42 13 21 23 -16 -17 25 35 -20 -21 -22 22 -24 26 -26 -27 -28 -29 39 34 33 -33 -34 -35 -36 -37 -38 -39 41 -41 -42 -43 -44 -45 -46
leaf_value=-0.0047299223463998594 0.00018821501244719213 0.0041347825799486152 -0.0085934209124520367 -0.0016520458416098022 0.0031933090942265437 -0.0026561240009659042 0.0046072919989215595 0.00051771309803640836 -0.0024175946137885867 0.0040632960712537174 -0.0053293281025807602 -0.005375374481516349 -0.0076741925244207853 0.0015483250728961951 -0.0017172708551105196 0.0004856723689308205 0.0047251974440108381 -0.002553313496208852 -0.00011754854311866145 -0.003999112869937425 0.00012324990117752981 0.00069011227152497004 -0.0021098746737121671 0.0047527972455865316 -0.00016994726265997991 0.00060771151022001937 0.0003003882966864198 0.0047766412741244123 -0.010536707252230463 -5.133230571278974e-06 -0.00029756727213889491 0.0099725092637292564 0.0088789086295154827 -0.0049765482681717 0.0052541414060844824 0.0043839903365558951 0.0031727705433377638 0.0024299352150973716 0.0076382272010011125 -0.0053214969666853752 0.0018886869010694939 0.0033488685330376033 -0.0014116433610805593 0.0037325354739565588 -0.0023003270375608867
leaf_weight=172 117 259 166 116 1022 104 106 519 207 135 105 134 104 2216 5053 2587 702 164 124 132 686 666 2368 353 7433 178 308 261 111 170 313 124 255 194 182 121 103 124 115 106 109 100 115 122 112
leaf_count=172 117 259 166 116 1022 104 106 519 207 135 105 134 104 2216 5053 2587 702 164 124 132 686 666 2368 353 7433 178 308 261 111 170 313 124 255 194 182 121 103 124 115 106 109 100 115 122 112
internal_value=1.47944e-05 -0.000582908 0.00128166 -0.000923102 -0.000512379 0.000729799 0.00228077 -0.000452892 -0.0032709 -0.000967149 0.00136213 0.000422422 -0.00209161 0.000280427 -0.00156685 0.000160525 0.00377279 0.00366371 0.00520447 0.0010828 0.00196025 -0.00170003 -0.00149524 0.000381972 0.000224673 0.00464328 0.00267815 0.00194282 -0.00578165 0.000399135 -0.000930205 0.00551293 0.00648839 -0.00208795 0.00271415 0.00113019 -0.000344375 -0.000601602 0.00372395 -0.00798919 -0.000330376 0.00564318 -0.00328145 0.00199745 -0.00397535
internal_weight=28973 15781 2435 13346 9875 13192 2182 1409 497 7947 1928 11010 3471 10556 5188 2759 1217 1026 638 912 1708 3138 3034 10310 9649 1004 661 780 333 965 613 826 514 507 352 388 267 331 454 217 213 215 220 239 246
internal_count=28973 15781 2435 13346 9875 13192 2182 1409 497 7947 1928 11010 3471 10556 5188 2759 1217 1026 638 912 1708 3138 3034 10310 9649 1004 661 780 333 965 613 826 514 507 352 388 267 331 454 217 213 215 220 239 246
is_linear=0
shrinkage=0.05


Tree=4
num_leaves=42
num_cat=0
split_feature=10 7 13 17 8 21 8 28 18 13 16 18 5 28 27 9 21 8 21 24 13 9 23 17 13 7 24 17 23 24 9 18 9 10 8 23 16 17 13 7 5
split_gain=3.80096 3.04366 2.15529 2.10689 3.22298 2.74805 2.70489 3.34767 2.18099 2.11581 2.08259 2.08199 1.9906 2.25045 2.3749 2.08674 2.54782 1.73526 1.6549 1.5326 1.53756 1.49832 1.49154 1.46819 1.49379 1.39426 1.38232 1.31039 1.65472 1.1228 1.00596 0.99561 0.786557 0.771117 0.686827 0.675241 0.613972 0.600307 0.53523 0.498676 0.384312
threshold=-0.15364762380881461 -0.14626510298502385 70.972078378663454 0.029405925142380267 0.091644535304771249 0.55206291476261937 -0.13352874182260147 0.028384527009791053 0.021459537518539972 44.114357186925773 0.010447146721316787 0.046331806853192041 0.31908231345051369 -0.044740552120132608 0.036915705654529403 -0.0061628399652839385 1.4507217650015047 0.14773564740437142 0.58022624387220889 -0.0075994249247423032 18.931719837211975 -0.032186314016660715 0.0047701905560824107 0.0088293102959705622 45.756536393266167 0.0032571902205057461 0.013749854147372067 0.021043363216397003 0.016754341813366883 -0.018017994193723571 0.022956748197320524 0.016537734813567222 0.069583152602995649 -0.033755437505210754 0.078285363401836019 -0.0056842717794413069 0.024136580616403298 0.02062882838821822 77.533508144012515 0.0032571902205057461 -0.39190976535001232
decision_type=2 2 2 2 2 2 2 2 2 2 2 2 2 2 2 2 2 2 2 2 2 2 2 2 2 2 2 2 2 2 2 2 2 2 2 2 2 2 2 2 2
left_child=1 19 10 4 5 25 9 11 -7 -5 18 -8 13 14 -12 17 -17 -14 31 20 -1 -15 -6 39 -25 -3 29 28 35 -4 34 -2 -9 -32 -31 -28 -29 -22 -30 -20 -11
right_child=2 3 26 6 22 8 7 32 -10 40 12 -13 15 21 -16 16 -18 -19 23 -21 37 -23 -24 24 -26 -27 27 36 38 30 33 -33 -34 -35 -36 -37 -38 -39 -40 -41 -42
leaf_value=0.001289699091537018 -0.0043151479315212266 -0.0030191268378617644 -0.0018593199597210577 0.010818792223845693 -0.0026982084665150368 0.00071506132509374805 -0.0010377416779600278 0.00186905330990274 -0.00089551784662047552 0.00014450729037413285 0.0024391707142849984 -0.0090130786991498447 0.00021859788636229081 -0.0044304028069482365 -0.0053792082108514109 0.0027367458752572209 -0.0032291569803644532 -0.0061973567109640101 -0.0026273206389048186 -0.00075822936287199072 0.0047696405722686616 -0.00066024410503214698 -0.0096818442262398708 0.0043273383888496175 0.0014381681562057244 -0.00012919695542189678 0.0042011081192642455 0.0052971678301476678 -0.0018121710517020389 0.0028383602491465773 -0.0009858733147574939 0.0012562721149643533 0.0073232237398624424 0.0033090288381790742 0.0064642471071940308 -2.4481920991092921e-05 0.0012101509683018277 0.010049604537504676 -0.0068276827019024466 0.0016091545451341076 0.0043029288982371194
leaf_weight=179 175 1782 101 110 163 2928 290 195 7451 105 965 114 393 276 108 1569 202 144 198 189 102 5831 144 749 1111 545 125 173 110 208 149 148 100 350 351 388 196 114 103 107 118
leaf_count=179 175 1782 101 110 163 2928 290 195 7451 105 965 114 393 276 108 1569 202 144 198 189 102 5831 144 749 1111 545 125 173 110 208 149 148 100 350 351 388 196 114 103 107 118
internal_value=-2.61874e-05 -0.000592128 0.000555622 -0.000739192 -0.000911649 -0.000789336 0.0014354 -0.0003314 -0.00044116 0.0051441 0.000288665 -0.00328821 -4.8975e-05 -0.000459586 0.00165223 0.0012284 0.00205628 -0.00150188 0.00157626 0.00294471 0.00471649 -0.000830633 -0.00597392 0.00207434 0.0026016 -0.00234228 0.00197402 0.000700136 -0.00053299 0.00317757 0.00365841 -0.0017623 0.00371792 0.00202658 0.00511508 0.00100515 0.00312629 0.00755629 -0.00423751 -0.00114108 0.00234493
internal_weight=28859 14629 14230 14045 13013 12706 1032 699 10379 333 11976 404 9488 7180 1073 2308 1771 537 2488 584 395 6107 307 2165 1860 2327 2254 1095 726 1159 1058 323 295 499 559 513 369 216 213 305 223
internal_count=28859 14629 14230 14045 13013 12706 1032 699 10379 333 11976 404 9488 7180 1073 2308 1771 537 2488 584 395 6107 307 2165 1860 2327 2254 1095 726 1159 1058 323 295 499 559 513 369 216 213 305 223
is_linear=0
shrinkage=0.05


Tree=5
num_leaves=47
num_cat=0
split_feature=10 18 8 25 17 25 18 25 17 13 13 13 17 26 8 18 10 24 9 27 21 7 24 13 12 17 26 9 19 25 25 4 18 4 21 27 8 26 26 16 17 9 6 12 26 21
split_gain=4.20964 3.60109 4.29137 3.04558 7.87067 2.63302 2.51973 4.63814 2.90124 2.53305 2.43845 2.08685 2.23305 1.90066 3.03814 2.91893 1.88696 1.83502 1.789 1.64916 1.5388 1.52967 1.44835 2.49494 1.66764 1.25085 1.23232 1.2676 1.21054 1.19746 1.12644 1.28773 1.69903 1.4214 1.07478 1.49102 1.17701 1.06064 1.01879 0.886906 0.825812 0.772441 1.1681 0.662447 0.543663 0.406799
threshold=-0.1590588529848764 0.039952398337832082 -0.09050853750133335 0.011322674402082171 0.022329755730470174 0.011342996220503892 0.021871806332171475 0.0050880154720233757 0.019205041953190224 20.926490899503779 37.497745299680886 71.291134407263726 0.020542898241023424 -0.017731818648939742 0.13274719303498286 0.022181212381777282 -0.32128570312827026 0.081565186248356861 -0.042458012839314489 0.027407863064959629 0.55665388723479403 0.039168181960911326 0.014156076676775655 72.344899234961943 99.99999996184664 0.019844180907616839 -0.020996685374855214 -0.0061628399652839385 0.74351747237190324 0.0086974777571446563 0.0066179295734284061 0.018005260788183656 0.046331806853192041 0.1260345895982197 1.0147625531784163 0.073606284841002748 0.02139066085852093 -0.02283563498112123 0.024526840421135291 0.028047491142714567 0.018946252379927638 0.025324553958972266 0.065054634907160916 28.244120063998611 -0.022149266468631686 1.0415990754424937
decision_type=2 2 2 2 2 2 2 2 2 2 2 2 2 2 2 2 2 2 2 2 2 2 2 2 2 2 2 2 2 2 2 2 2 2 2 2 2 2 2 2 2 2 2 2 2 2
left_child=1 6 5 13 17 10 20 8 9 -8 29 12 -9 14 15 44 -10 34 -15 -13 38 37 23 -20 -24 -17 -22 -28 39 -3 -4 32 -32 -33 36 -36 -5 -6 43 -7 -16 -23 -43 -1 -2 -12
right_child=3 2 30 4 21 28 7 11 16 -11 45 19 -14 18 40 25 -18 -19 22 -21 26 41 24 -25 -26 -27 27 -29 -30 -31 31 33 -34 -35 35 -37 -38 -39 -40 -41 -42 42 -44 -45 -46 -47
leaf_value=-0.00057229299299334268 -0.004243310875806784 0.0072727468295022846 -0.005102069953101732 0.0019640533366402121 0.0034127868806805325 0.0016814141079032824 0.0043575005314778542 -0.0012250227279854886 -0.0086897855391125343 -0.0026517194629345807 -0.0012763387283775956 0.0016914668834150427 0.00077385356266785428 -0.0042391922146871137 -0.0071120320272408822 0.0010643746723081402 -0.0038869286015580646 -0.009024141082126234 0.0012411869746847208 -0.0055298583736517826 -0.0036038049432789003 0.0077418363077699079 0.0005652188618842927 0.0040668540115164015 -0.0052080931965834826 0.0056605615647002594 0.0017987591641475623 -0.00030465741601787603 0.009199533589252849 0.00030945752800793437 0.00069478022823681214 0.004919790210269258 -0.0067927318969336547 -0.0024618568666993045 -0.0026366024868530375 -0.007809027889862848 -0.002638299403022936 -0.0032685050534465437 0.0019296978630410268 0.0060444101376462365 -0.0020829453998783107 0.005977296352386475 0.00034892118872246808 -0.0038537430536824419 -0.00066283363908068392 -0.0057427484992121428
leaf_weight=242 279 125 168 196 108 201 144 3770 315 1229 100 101 2220 154 192 658 583 126 6191 364 163 140 3306 894 130 191 1612 1289 163 122 168 167 138 107 488 195 477 132 148 277 142 200 171 422 171 104
leaf_count=242 279 125 168 196 108 201 144 3770 315 1229 100 101 2220 154 192 658 583 126 6191 364 163 140 3306 894 130 191 1612 1289 163 122 168 167 138 107 488 195 477 132 148 277 142 200 171 422 171 104
internal_value=-4.08862e-05 -0.000645536 0.00142072 0.000559647 -0.00113921 0.00341919 -0.000947227 -0.00141843 -0.00336189 -0.00191659 0.000492167 -0.000734688 -0.000484204 0.000867866 -0.000720754 0.000372823 -0.00557167 -0.00325235 0.00111088 -0.00396136 0.000113596 0.00303079 0.00118919 0.00159774 0.000346787 0.00209838 0.000626461 0.000864149 0.00547861 0.00383339 -0.00149684 -0.000452565 -0.00268194 0.00203718 -0.00271603 -0.00411336 -0.00129794 -0.000261924 -0.00182165 0.00420976 -0.00497392 0.00457726 0.00338309 -0.00265779 -0.00288273 -0.00355333
internal_weight=28983 14442 1840 14541 2233 1092 12602 8726 2271 1373 451 6455 5990 12308 1633 1299 898 1482 10675 465 3876 751 10521 7085 3436 849 3064 2901 641 247 748 580 306 274 1356 683 673 240 812 478 334 511 371 664 450 204
internal_count=28983 14442 1840 14541 2233 1092 12602 8726 2271 1373 451 6455 5990 12308 1633 1299 898 1482 10675 465 3876 751 10521 7085 3436 849 3064 2901 641 247 748 580 306 274 1356 683 673 240 812 478 334 511 371 664 450 204
is_linear=0
shrinkage=0.05


Tree=6
num_leaves=43
num_cat=0
split_feature=10 18 26 9 26 24 7 23 26 28 18 26 21 24 18 24 11 13 5 26 5 14 10 11 18 21 1 11 28 21 16 11 9 24 13 23 2 16 0 18 18 22
split_gain=4.37141 3.42475 3.2504 2.16466 2.06929 2.84636 1.98357 1.92535 1.89663 5.27353 2.31579 2.24925 1.97618 1.84625 1.82224 1.87978 1.81647 1.52969 1.7919 1.53564 1.42304 1.37607 1.46163 2.02622 1.37385 1.83863 1.29424 1.27024 1.57827 1.25485 1.06601 1.02485 0.984579 0.971709 0.946538 0.903923 0.54682 0.543384 0.522948 0.510957 0.402718 0.35183
threshold=-0.14870624978249311 0.038242584094463038 -0.012329555080496766 -0.042458012839314489 -0.019814516663282152 0.024766677006788477 -0.13478466235966061 0.0011968668853056255 0.030196009272687844 -0.074330285702410112 0.021546163438092816 -0.014788343573618632 0.4607805537521294 0.02076911282044647 0.041320819170119066 0.081565186248356861 1.0000000180025095e-35 72.344899234961943 0.38611590851535843 0.017822791260728724 0.078195202462636351 1.1525047639405079 -0.27195285543959363 0.32647445061855079 0.030148369325727394 1.3898864301738401 -0.013284504364921455 0.11143414581834633 -0.18355955832600154 0.71781355574816541 0.020933818117592557 0.3565000963860066 0.029734911196114381 -0.053425753127361357 26.280840135826399 0.001534231235571393 -0.029816242030530123 0.029878763075742814 0.0090099180152014586 0.034956257385642987 0.031919072954118576 0.0086717197965454681
decision_type=2 2 2 2 2 2 2 2 2 2 2 2 2 2 2 2 2 2 2 2 2 2 2 2 2 2 2 2 2 2 2 2 2 2 2 2 2 2 2 2 2 2
left_child=1 8 6 39 24 17 41 29 10 27 12 26 36 -14 15 -7 -13 18 -6 -19 30 22 23 -4 34 33 -12 28 -10 -8 -11 37 -24 -26 -5 -36 -1 -23 -9 -2 -29 -3
right_child=3 2 21 4 5 14 7 38 9 20 11 16 13 -15 -16 -17 -18 19 -20 -21 -22 31 32 -25 25 -27 -28 40 -30 -31 -32 -33 -34 -35 35 -37 -38 -39 -40 -41 -42 -43
leaf_value=-0.00070849295025841603 -0.0058317835971186142 0.0051722959432481735 0.0016956482993523961 0.0024440649950756106 0.00074404714338852573 -0.0005427655779927375 -0.0047435382176190619 0.0034686873505144554 0.010500338721755601 -0.003167426855344354 0.00059748607871524975 -0.0077063107858532922 -0.00015913553085478827 0.0039374047959320471 0.004336861738826546 -0.0062689572790321085 -0.0021890508955554537 0.0040170685254389393 0.0028599841900911827 0.00033337286243293005 0.0029814317179108533 0.0029565449848305437 -0.0018633185148307909 -0.0056909774987083253 0.0006176219527933381 -0.0035081454455548038 -0.001958206457111217 -3.5380250737800365e-05 0.0035380162642870065 0.0014693238161942034 -0.0001123456263335599 0.0063444581104738417 -0.0068586495271455014 0.0048232173733967583 -0.0019193981095649568 -0.0064970672241557864 -0.0047012424771925238 -0.0021815755706140992 0.0082496411781674168 -0.0012436095316258103 0.0031397124947838938 0.0088723073081770389
leaf_weight=124 152 128 465 108 6643 2266 100 118 102 846 1268 154 2642 307 178 153 4770 928 1178 407 152 100 281 116 397 195 813 253 403 434 431 107 152 210 875 123 278 106 111 101 165 129
leaf_count=124 152 128 465 108 6643 2266 100 118 102 846 1268 154 2642 307 178 153 4770 928 1178 407 152 100 281 116 397 195 813 253 403 434 431 107 152 210 875 123 278 106 111 101 165 129
internal_value=-5.63512e-05 -0.000646823 0.00110797 0.000582542 0.000667413 0.000915357 0.00323032 0.00195065 -0.000970911 0.000310829 -0.00126201 -0.00177915 -0.000180976 0.000267327 -0.000545666 -0.000904943 -0.00236161 0.00132976 0.00106275 0.00289402 -0.00159194 -0.000523376 -0.00141793 0.000220866 -0.00085989 0.00071569 -0.000400966 0.00325672 0.00494427 0.000305867 -0.00213631 0.00237465 -0.00361688 0.00207261 -0.0020024 -0.00248358 -0.00346965 0.000312658 0.00578609 -0.00400014 0.00121795 0.0070295
internal_weight=28969 15055 2347 13914 13661 11753 1020 763 12708 2352 10356 7005 3351 2949 2597 2419 4924 9156 7821 1335 1429 1327 1014 581 1908 802 2081 923 505 534 1277 313 433 607 1106 998 402 206 229 253 418 257
internal_count=28969 15055 2347 13914 13661 11753 1020 763 12708 2352 10356 7005 3351 2949 2597 2419 4924 9156 7821 1335 1429 1327 1014 581 1908 802 2081 923 505 534 1277 313 433 607 1106 998 402 206 229 253 418 257
is_linear=0
shrinkage=0.05


Tree=7
num_leaves=47
num_cat=0
split_feature=10 7 25 18 25 18 28 25 25 13 10 23 4 12 27 5 19 13 4 16 16 16 25 4 26 16 4 18 12 10 10 25 28 25 16 22 26 24 5 12 12 27 2 4 25 5
split_gain=3.2731 3.37701 2.79224 2.87918 2.7135 3.34704 2.25815 2.27872 4.62499 2.94509 2.19366 1.98362 1.51435 1.57442 1.98246 1.87685 1.63139 1.54864 1.92188 1.44457 1.38306 1.37943 1.33157 1.29303 1.26956 1.17977 2.18783 1.59624 1.16247 1.16235 1.38576 1.19822 1.11425 1.03929 1.14082 1.13909 0.890181 0.831118 0.968872 0.78886 0.766135 0.743005 1.38806 0.737473 0.675182 0.543726
threshold=-0.14870624978249311 -0.14017084139269789 0.011237085120643546 0.029925587666952243 0.0050155973154106187 0.022998859550017858 -0.11948446694995928 0.011279239296521446 0.0074130158802792985 56.476813925787624 -0.40589205865557038 -0.018799853057183288 0.19967603393474156 99.666962789554546 0.097975557246289882 0.27526556615311387 0.22819501866304412 67.969156037103375 1.0000000180025095e-35 0.01037018422854563 0.024813628885111457 0.016092951783352443 0.011446147473010307 0.16015974262623991 0.017903552608067867 0.019308906266039944 0.11869732405833668 0.025114020405421312 96.135967929756305 -0.2790756140970001 -0.2968604495844378 0.0046682607885180421 -0.23650416574146446 0.012567608656194841 0.01482728190597745 -0.31616653952423163 -0.019814516663282152 0.031039224290248416 0.18061004900338076 30.448735814734956 9.1245722320315128 0.055011947217001873 -0.0015115361352761034 0.1260345895982197 0.010874721529706553 0.0093524233101561789
decision_type=2 2 2 2 2 2 2 2 2 2 2 2 2 2 2 2 2 2 2 2 2 2 2 2 2 2 2 2 2 2 2 2 2 2 2 2 2 2 2 2 2 2 2 2 2 2
left_child=1 20 12 22 5 29 7 8 -6 -9 39 -12 17 14 15 -14 -16 19 45 36 21 -1 41 -21 -20 26 -8 -27 37 30 -3 -31 -22 35 -35 -24 -2 38 -5 -7 -23 42 -4 -39 -42 -19
right_child=2 4 3 28 6 10 25 9 -10 -11 11 -13 13 -15 16 -17 -18 18 24 23 32 40 33 -25 -26 27 -28 -29 -30 31 -32 -33 -34 34 -36 -37 -38 43 -40 -41 44 -43 -44 -45 -46 -47
leaf_value=0.0061107308361209745 -0.0025375255450074165 -0.00076009681943758087 0.0024181422301229431 -0.0034891796290925786 0.0017337908886416228 -0.0049275591312907645 -0.00074142734035987767 0.0054664325302117957 -0.0040717900043895769 -0.0012723952853683209 0.00272840226843139 -0.0032879608032653561 -0.0033028938405321889 -0.0063153064639428283 0.0076244914949169023 0.00076471955973750816 0.00097069368509740655 0.0043382676806481132 0.0028230999489515232 0.00021708623573237314 0.0026545437261609969 -0.0038175040455535056 -0.0030230555884709124 0.0029969328802709459 -0.00024428634802834727 0.0049999146572260473 -0.0038529627542367648 -0.00017979406996588827 0.0050128762506404159 -0.0014562512665571826 -0.00626135008763401 0.0016869506009744675 0.0099736889777537179 0.0013929509783558774 -0.0041682516841236514 -0.0090525951683376616 0.0021865675209489436 0.0048065014601813569 0.00059180749525512041 -0.011050355386173537 0.0033438915119257681 0.0032775923761880345 -0.0050641409280141377 7.1667854331041638e-05 -0.0018399405317466922 0.009122202615253627
leaf_weight=119 105 446 110 236 1178 100 4231 518 484 236 151 1478 581 108 114 554 480 124 1008 5614 104 100 146 452 507 156 652 3196 139 489 154 798 104 132 306 169 1983 145 379 111 161 101 142 190 103 114
leaf_count=119 105 446 110 236 1178 100 4231 518 484 236 151 1478 581 108 114 554 480 124 1008 5614 104 100 146 452 507 156 652 3196 139 489 154 798 104 132 306 169 1983 145 379 111 161 101 142 190 103 114
internal_value=1.87141e-06 -0.000508944 0.000554097 -0.0010828 -0.000673035 -0.00183422 -0.000266713 0.00107739 4.31163e-05 0.0033572 -0.00335161 -0.00273027 0.00086004 -0.000458495 -9.26557e-05 -0.00131747 0.00224769 0.00110453 0.00245277 0.000814675 0.00290538 0.00143743 -0.0028797 0.000424223 0.00179659 -0.00066105 -0.00115689 6.12664e-05 0.000742147 -0.000354622 -0.00217209 0.00049268 0.00631412 -0.00406756 -0.00249227 -0.00625795 0.00194901 0.000117272 -0.00097423 -0.00814856 -9.03784e-05 -0.000345823 -0.00179806 0.00212107 0.00132141 0.00662973
internal_weight=29008 15069 13939 2195 14378 3727 10651 2416 1662 754 1840 1629 11744 1837 1729 1135 594 9907 1753 8154 691 483 1106 6066 1515 8235 4883 3352 1089 1887 600 1287 208 753 438 315 2088 950 615 211 364 353 252 335 264 238
internal_count=29008 15069 13939 2195 14378 3727 10651 2416 1662 754 1840 1629 11744 1837 1729 1135 594 9907 1753 8154 691 483 1106 6066 1515 8235 4883 3352 1089 1887 600 1287 208 753 438 315 2088 950 615 211 364 353 252 335 264 238
is_linear=0
shrinkage=0.05


Tree=8
num_leaves=38
num_cat=0
split_feature=5 4 7 18 17 25 25 5 25 16 28 8 28 23 28 9 21 24 4 25 4 8 4 21 13 28 9 6 8 23 9 16 21 23 17 17 17
split_gain=2.6008 2.65698 2.0321 2.01782 2.86019 5.32518 3.92894 3.58732 2.74296 2.48231 2.3184 2.20743 3.68265 2.14668 2.02541 1.89873 1.88981 2.23387 1.83053 1.73179 1.79375 1.69805 1.59678 1.53065 1.40818 1.69712 1.55967 1.37378 1.20969 1.03997 1.03158 0.95716 0.956259 0.858062 0.786225 0.62374 0.945899
threshold=-0.076440733767408828 -0.25500208532555274 -0.14626510298502385 0.022095970400726354 0.02078690487468433 0.010874721529706553 0.005511025630459126 0.47221670082238126 0.0052164518800610999 0.025961798671085928 -0.062791595961122423 -0.12275075242932375 -0.029763274675568271 -0.010558438450157413 -0.097631240756859958 0.034988545719549465 4.0123646980884846 -0.053425753127361357 -0.14812282959649251 0.0128030275035861 -0.30912969936308898 0.14773564740437142 -0.14812282959649251 0.56175711997799216 65.879930589150504 0.18797210559456437 0.025324553958972266 0.043735278714374555 -0.027776041667844972 -0.018799853057183288 -0.0015362162287159695 0.010447146721316787 1.1236182294273258 0.00026356792652326716 0.011764283987104397 0.01715502803062147 0.014225791553487866
decision_type=2 2 2 2 2 2 2 2 2 2 2 2 2 2 2 2 2 2 2 2 2 2 2 2 2 2 2 2 2 2 2 2 2 2 2 2 2
left_child=1 19 -3 8 5 15 7 13 24 -9 35 22 -13 -6 -7 18 17 32 -5 20 -1 -17 -8 -19 25 29 31 -16 34 -2 -30 -26 -4 -28 -12 36 -10
right_child=3 2 16 4 6 14 11 9 10 -11 28 12 -14 -15 27 21 -18 23 -20 -21 -22 -23 -24 -25 26 -27 33 -29 30 -31 -32 -33 -34 -35 -36 -37 -38
leaf_value=-0.0028463947093215489 -0.0020334855136345865 0.0062319948217079328 -0.0023420891733551327 0.0030734758653903891 0.0012517097255747716 0.002016951032886649 0.0074991613092800884 0.0052294830919836603 0.0037164193583684498 -0.0033488901086356931 -0.0072838873396394782 -0.0016671125594779992 0.0022873497814553398 -0.0051253463696800117 -0.0028107177506795956 0.0042243453350150955 -0.0070303100844224297 -0.0018414706596721266 -0.00062647716338864112 0.0084846777605658424 0.004944557729748271 0.00025611192305148464 0.0018667480849637456 -0.0002787866765914852 0.0034246105483123146 -0.004343671391353659 -0.0027290134731447323 -0.006704624979124928 0.0015530941684206764 0.0021131231124315564 -0.00081313833122644984 0.0080206767012923185 -0.0084911989178621181 0.0035662902929489374 -0.0015678909255672766 0.0062855783031656011 -0.0015311971441346419
leaf_weight=138 161 104 129 369 172 190 267 251 290 127 100 790 2311 567 1434 500 120 1967 3554 118 159 585 238 7706 217 115 100 269 623 2486 1767 237 124 118 151 118 122
leaf_count=138 161 104 129 369 172 190 267 251 290 127 100 790 2311 567 1434 500 120 1967 3554 118 159 585 238 7706 217 115 100 269 623 2486 1767 237 124 118 151 118 122
internal_value=6.32393e-05 -0.000560954 -0.000721286 0.000425004 2.84619e-05 -0.000620386 0.000976524 -0.00161458 0.00112287 0.00234733 6.25278e-05 0.00177915 0.00127992 -0.00364111 -0.0028795 0.000233549 -0.000793269 -0.000717866 -0.000278457 0.00336042 0.00132452 0.00208479 0.00484468 -0.000596558 0.002102 0.00160257 0.00415471 -0.00342579 -0.000543119 0.00186091 -0.000196334 0.00582388 -0.00535588 0.000678536 -0.00384518 0.00308048 0.00216251
internal_weight=28794 10565 10150 18229 11624 6901 4723 1117 6605 378 3171 3606 3101 739 1893 5008 10046 9926 3923 415 297 1085 505 9673 3434 2762 672 1703 2641 2647 2390 454 253 218 251 530 412
internal_count=28794 10565 10150 18229 11624 6901 4723 1117 6605 378 3171 3606 3101 739 1893 5008 10046 9926 3923 415 297 1085 505 9673 3434 2762 672 1703 2641 2647 2390 454 253 218 251 530 412
is_linear=0
shrinkage=0.05


Tree=9
num_leaves=45
num_cat=0
split_feature=10 7 25 17 12 28 26 3 17 25 26 17 25 8 18 9 25 13 26 17 9 5 16 8 16 5 10 21 16 5 10 27 28 16 5 16 9 27 5 10 11 9 2 27
split_gain=3.02134 2.91749 1.97921 5.30611 2.70712 2.16665 2.3733 2.65145 2.10437 3.03802 1.78696 3.2826 2.31761 2.17308 2.07382 1.97769 1.73482 1.65657 2.10241 2.04099 2.12818 2.34711 1.96785 1.81757 1.86862 1.62835 1.55774 1.51061 1.50762 2.19495 1.50556 1.44925 1.40519 1.19467 1.10993 1.05175 1.26582 1.01718 1.00234 0.99218 1.61172 0.834055 0.639597 0.561993
threshold=-0.14870624978249311 -0.12900802889894156 0.0050110980918222177 0.017798829530782836 14.266849421842815 -0.11948446694995928 0.018036996200505143 0.024441537358988578 0.020542898241023424 0.011128874927332008 -0.017731818648939742 0.022954280631826088 0.015252383676655211 0.15349434275833043 0.022273549033164908 0.047959718539468239 0.0096828193187429041 70.972078378663454 0.017822791260728724 0.014276298688762673 0.0043453424187493992 0.34949229253108988 0.013488730392529286 0.20228437223341003 0.015829016927894707 -0.076440733767408828 -0.22651134150875821 0.4607805537521294 0.018229227002358447 0.071612345271567249 -0.24463981790000502 -0.13353172824982065 -0.1881744816401362 0.025000685164134267 -0.16909741113891177 0.019590458843099717 -0.076366192995171153 0.028990453932670582 0.39543000529273969 -0.31350831462537138 0.020195441799746864 -0.0069799260922881459 -0.010046513562151858 -0.089176994503065363
decision_type=2 2 2 2 2 2 2 2 2 2 2 2 2 2 2 2 2 2 2 2 2 2 2 2 2 2 2 2 2 2 2 2 2 2 2 2 2 2 2 2 2 2 2 2
left_child=1 31 3 27 34 6 7 -4 9 -7 11 12 13 14 -2 41 -10 19 25 23 22 -22 -21 24 -12 -19 -6 42 29 -20 -8 39 -29 -30 -5 36 -33 -14 -27 40 -1 -13 -3 -37
right_child=10 2 5 4 26 8 30 -9 16 -11 17 15 37 -15 -16 -17 -18 18 28 20 21 -23 -24 -25 -26 38 -28 32 33 -31 -32 35 -34 -35 -36 43 -38 -39 -40 -41 -42 -43 -44 -45
leaf_value=-0.0018509784345479526 -0.0030756181400006604 -0.0019346927572041752 0.00039781260785146138 -0.0041258057770901359 -0.0042826110188267565 -0.00060377434751761544 0.0043318055394038395 -0.0077193641437029621 -0.0011000690433723224 -0.003421318755783824 0.0012037736915074893 0.003075720662600361 -0.0031054330745621797 -0.0058553028583492976 0.0010918404484148417 -0.0016164950630219097 0.0013475275409863558 -0.00078473155735991895 0.001173346152494627 0.0013386062550565401 -0.00028003239702494947 0.0025722768187393889 -0.0029323835862035226 -0.0047370831787101313 0.0055105225232243288 0.004939098741044705 -0.0086961538183234939 -0.0044877404329675408 0.0047298735224167139 -0.005127518609821748 -0.0002782183198222975 0.0050460739174561032 0.000468158594914886 -0.00090942040771699046 0.0025348240632318453 0.0080914699411819835 -0.0024214537164784578 -0.0096637704669275386 0.00051557857528581772 -0.0035559327327920236 0.0065312131728027384 0.0092130654091775923 -0.0069561536781019674 0.0038633391805991454
leaf_weight=131 437 165 1306 100 634 3797 646 109 1217 1279 3953 100 124 196 942 114 1787 190 351 364 2804 971 1041 121 269 843 292 154 257 228 244 113 2008 148 167 142 114 113 151 136 102 124 103 176
leaf_count=131 437 165 1306 100 634 3797 646 109 1217 1279 3953 100 124 196 942 114 1787 190 351 364 2804 971 1041 121 269 843 292 154 257 228 244 113 2008 148 167 142 114 113 151 136 102 124 103 176
internal_value=1.38569e-05 -0.000479683 -0.000658269 -0.0016645 -0.0043954 -0.000307227 0.00104494 -0.000227468 -0.000692964 -0.00131371 0.000545943 -0.000778855 -0.00162265 -0.000928997 -0.000228812 0.00374471 0.000355941 0.000789577 0.00203698 0.000505594 -0.00016465 0.000453634 -0.00182588 0.00130501 0.00147817 0.00345643 -0.00567435 -0.000323769 0.000329018 -0.00130782 0.00306793 0.00225733 0.000115148 0.00266909 4.02061e-05 0.00389559 0.00129586 -0.0062324 0.00426712 -0.000162334 0.00181848 0.00647318 -0.00386458 0.00575137
internal_weight=28763 14922 14008 3623 1193 10385 2305 1415 8080 5076 13841 2150 1812 1575 1379 338 3004 11691 2168 9523 5180 3775 1405 4343 4222 1184 926 2430 984 579 890 914 2162 405 267 545 227 237 994 369 233 224 268 318
internal_count=28763 14922 14008 3623 1193 10385 2305 1415 8080 5076 13841 2150 1812 1575 1379 338 3004 11691 2168 9523 5180 3775 1405 4343 4222 1184 926 2430 984 579 890 914 2162 405 267 545 227 237 994 369 233 224 268 318
is_linear=0
shrinkage=0.05


Tree=10
num_leaves=43
num_cat=0
split_feature=18 25 17 25 28 25 26 21 11 17 27 13 24 25 8 2 7 17 27 25 8 1 27 8 9 17 7 1 11 25 17 9 25 24 12 26 8 28 28 18 19 26
split_gain=2.28561 3.11638 3.40353 3.67694 3.84647 2.87924 2.82293 2.89446 2.74522 4.75509 2.64625 2.57447 2.48319 2.28075 2.09379 2.00551 1.72339 1.63186 1.54323 2.18306 1.91702 1.53113 1.4859 1.33444 1.58179 1.457 1.32267 1.31817 1.33004 1.30781 1.20924 1.20094 1.16307 0.914578 1.90537 1.10387 0.750382 0.703443 0.552462 0.444856 0.411854 0.36748
threshold=0.021871806332171475 0.0051416702069699465 0.02062882838821822 0.011237085120643546 -0.097631240756859958 0.0096828193187429041 -0.020461775962104963 0.58022624387220889 0.48425581868195849 0.022329755730470174 0.095565322598536576 26.711750225448352 -0.013883510761231619 0.011128874927332008 -0.25000813570026331 -0.050164776494582723 0.079339152159789164 0.015847008180013288 0.0626590306397279 0.0066179295734284061 0.21934048690937749 -0.037218845921664072 -0.091115608420033176 0.16335972359024756 0.036751460649159691 0.014743695089849492 0.13042280576299695 -0.0067041027376308895 0.19727096841654448 0.012555411514229719 0.03323871256378165 0.0069123408383682259 0.014405344494453106 -0.011270349441704018 21.355901862667334 -0.0071284798894117865 -0.032570804561902249 0.058333680910750536 -0.24671797791818709 0.018767529289215146 0.41176505784923995 -0.028106627855965401
decision_type=2 2 2 2 2 2 2 2 2 2 2 2 2 2 2 2 2 2 2 2 2 2 2 2 2 2 2 2 2 2 2 2 2 2 2 2 2 2 2 2 2 2
left_child=6 8 3 18 32 12 39 23 9 11 16 21 37 33 38 -14 22 36 20 -20 -3 -2 -10 24 25 -8 -12 28 -11 -6 -16 -13 -5 34 -9 -35 -15 -4 -7 40 -1 -41
right_child=1 2 5 4 29 14 7 13 10 27 26 31 15 17 30 -17 -18 -19 19 -21 -22 -23 -24 -25 -26 -27 -28 -29 -30 -31 -32 -33 -34 35 -36 -37 -38 -39 -40 41 -42 -43
leaf_value=-0.0022228617433200379 0.0052392748058526124 -0.00020225852951781368 0.0012670519345650269 0.0035679124649991168 -0.005100995688301308 0.0033855079908321783 0.00010151694432995165 0.0075303913412305221 -0.0055538914848904256 -0.0075356386247852226 0.0085646322630054793 -0.0029968957485066571 0.0025504023329297929 -0.0071478339204610877 0.0010689086568730047 -0.0018043309086153672 -0.0064107492319348024 0.0018082920515766132 -0.0010259291610526051 0.0036708907968390318 -0.0071708168758194387 -0.0010114569988061665 0.00090508670672535515 -0.0061652997771518368 0.0046158026482909916 -0.00326110088736703 0.00161280857587588 -0.010120756369855294 -0.00058158950859923725 -0.0023488447773758006 0.0037333912357355864 -0.00073753562661295303 -0.0023967337487688801 -0.00057370949368681185 0.0015777290497819688 0.001428288383560114 -0.002311934721823674 0.0050880290667152956 0.0081477317960046841 -0.0031881909803055304 -0.006539577739523174 5.9905627821984738e-05
leaf_weight=101 207 4318 310 318 617 103 792 180 102 171 128 1449 311 121 2806 1764 117 188 413 617 101 186 701 124 125 543 147 189 115 1437 502 990 110 777 531 6048 238 197 149 194 122 158
leaf_count=101 207 4318 310 318 617 103 792 180 102 171 128 1449 311 121 2806 1764 117 188 413 617 101 186 701 124 125 543 147 189 115 1437 502 990 110 777 531 6048 238 197 149 194 122 158
internal_value=-3.32549e-05 -0.000363909 2.39323e-06 -0.000681884 -0.00227705 0.000885982 0.000566424 0.000768873 -0.00150895 -0.00225115 0.000544993 -0.00147467 -0.000385181 0.00115187 0.00180793 -0.00115165 -0.000741401 -0.00196557 4.47102e-05 0.0017876 -0.000361531 0.00228091 8.46436e-05 -0.00118554 -0.000762603 -0.0012662 0.00484857 -0.00688063 -0.00473943 -0.00317556 0.00147325 -0.00207981 0.00203494 0.00137815 0.00308473 0.00120037 -0.00394186 0.00275173 0.00620127 -0.00283719 -0.00458447 -0.00173024
internal_weight=28817 18575 14073 7931 2482 6142 10242 9667 4502 3307 1195 2832 2582 8083 3560 2075 920 547 5449 1030 4419 393 803 1584 1460 1335 275 475 286 2054 3308 2439 428 7536 711 6825 359 507 252 575 223 352
internal_count=28817 18575 14073 7931 2482 6142 10242 9667 4502 3307 1195 2832 2582 8083 3560 2075 920 547 5449 1030 4419 393 803 1584 1460 1335 275 475 286 2054 3308 2439 428 7536 711 6825 359 507 252 575 223 352
is_linear=0
shrinkage=0.05


Tree=11
num_leaves=48
num_cat=0
split_feature=10 25 28 25 13 13 9 18 9 25 10 11 27 8 18 25 9 18 11 4 11 11 18 23 27 9 28 10 24 12 3 28 13 24 12 23 16 9 3 11 13 13 22 11 7 3 11
split_gain=2.48158 2.07322 2.77887 2.63774 3.00501 2.76924 2.46879 2.392 1.93705 1.90066 1.80578 1.78661 1.74719 1.72979 1.66459 2.25694 2.06898 1.41378 2.5257 1.57357 1.40422 2.6458 1.39531 1.774 1.35445 1.31977 1.7385 1.39256 1.31582 1.30713 1.29468 1.24963 1.49172 1.22196 1.19833 0.989816 0.971509 1.57538 1.29619 0.970297 0.914246 1.18442 1.03102 0.820727 0.780521 0.765659 0.653336
threshold=-0.13714643952177621 0.0050088529016839656 -0.12326599559461086 0.011415128238285133 56.476813925787624 39.668029483663609 -0.016070963448567895 0.022181212381777282 0.08960290904933034 0.0050255865313276723 -0.47498318736271178 0.22728200034913562 0.095565322598536576 0.23386785626048825 0.028834321566797452 0.011415128238285133 0.050107001762358612 0.022814831479355067 0.53691931805591941 0.025518158932099747 0.69006462948603153 0.51416405358756534 0.037147922648468147 0.010915373029665833 0.08576326024063409 -0.048418954243147731 -0.19306002987749157 -0.3086463670168037 0.016947970920660475 48.7025585991762 0.048689812664345251 0.26972558923294221 70.37398152265483 0.0070370174336411581 21.754015065370528 -0.020921226197887662 0.02053296000979233 0.084239538799517968 0.16251197411546661 0.14583467182053525 69.487498681662586 48.99813900592472 -0.34252827928442592 0.3565000963860066 0.011931089001943286 -0.084806483639819893 0.69006462948603153
decision_type=2 2 2 2 2 2 2 2 2 2 2 2 2 2 2 2 2 2 2 2 2 2 2 2 2 2 2 2 2 2 2 2 2 2 2 2 2 2 2 2 2 2 2 2 2 2 2
left_child=1 7 3 5 34 11 -7 30 20 17 -9 -3 13 14 15 -11 -16 35 19 43 21 -4 23 -15 28 27 -27 -12 -20 -21 39 36 -33 -22 -5 -2 38 -38 -14 45 41 -37 -42 -19 -6 -1 -34
right_child=9 2 8 4 44 6 -8 10 -10 12 25 -13 31 22 16 -17 -18 18 24 29 33 -23 -24 -25 -26 26 -28 -29 -30 -31 -32 32 46 -35 -36 40 37 -39 -40 -41 42 -43 -44 -45 -46 -47 -48
leaf_value=-0.0037214994626380855 -0.0020457721775887115 0.0013296586347129483 -0.0005684485709225776 0.0011387625080533325 0.0018764050021155866 -0.0031665417132790575 0.0028767654485279382 -0.0084951244732912861 0.0047906333129756114 -3.7603530139314987e-05 0.0057432328138758643 0.007379168843361714 0.0023253548590622757 -0.0073660984604552631 0.00056099468374853597 -0.0033033219201421271 0.0050329363833791635 -0.0022485090427639366 0.0025314840493592785 0.0022231606312007423 -0.0081835467246180685 0.005940848383056762 0.0016911841893300146 0.00030146728273840591 0.005975351085271541 -0.0084946132408838509 -0.0022277207795654065 -0.0016942415886257445 -0.0038512034544341818 -0.0027618741319853472 0.0045535937600469515 -0.0038526913381587619 0.0051171047822802821 -0.00084481712045340711 0.0069721286703213151 0.0030684279840840893 0.0052073622241793939 -0.0013847604248439895 -0.0034486536750569941 -0.0025028531215619439 0.0085667407665063044 0.00074943166552402809 0.0030096091654336229 -0.0084749635491541339 -0.0042504955234691361 0.00071245584668480481 -0.00045247483194213022
leaf_weight=107 137 908 8586 110 102 670 226 119 173 4589 101 141 437 223 1425 598 316 102 320 252 111 159 111 114 192 119 1580 167 108 275 143 195 101 116 441 1084 475 112 125 412 110 1119 346 110 106 1081 110
leaf_count=107 137 908 8586 110 102 670 226 119 173 4589 101 141 437 223 1425 598 316 102 320 252 111 159 111 114 192 119 1580 167 108 275 143 195 101 116 441 1084 475 112 125 412 110 1119 346 110 106 1081 110
internal_value=6.39797e-05 -0.000360315 -3.34649e-05 0.00137469 0.00387459 0.000399156 -0.00164223 -0.00137177 -0.00044983 0.000572316 -0.00251412 0.0021428 0.000161304 -0.000159799 3.49128e-05 -0.000414102 0.00137267 0.00145577 0.000132847 -0.00184151 -0.000550878 -0.000450098 -0.00317087 -0.00477232 0.00248615 -0.00215228 -0.00266666 0.00110869 0.000920899 -0.000378138 -4.6169e-06 0.00168443 -0.000700048 -0.00443336 0.00580757 0.00209878 0.00252698 0.00394958 0.0010411 -0.000412007 0.00231232 0.00189051 0.00435015 -0.00547922 -0.00124596 0.000313101 0.00221353
internal_weight=28764 15678 11849 2704 759 1945 896 3829 9145 13086 2086 1049 8931 7376 6928 5187 1741 4155 1359 739 8972 8745 448 337 620 1967 1699 268 428 527 1743 1555 406 227 551 2796 1149 587 562 1600 2659 2203 456 212 208 1188 211
internal_count=28764 15678 11849 2704 759 1945 896 3829 9145 13086 2086 1049 8931 7376 6928 5187 1741 4155 1359 739 8972 8745 448 337 620 1967 1699 268 428 527 1743 1555 406 227 551 2796 1149 587 562 1600 2659 2203 456 212 208 1188 211
is_linear=0
shrinkage=0.05


Tree=12
num_leaves=38
num_cat=0
split_feature=10 21 28 5 17 16 4 16 0 7 23 10 17 10 17 1 23 23 5 17 1 23 27 28 16 17 27 28 5 27 19 6 22 20 5 16 5
split_gain=2.35359 2.23836 2.32297 4.90393 3.01458 2.6892 1.96522 1.89134 1.77746 1.7184 1.43275 1.38114 1.37031 1.85561 1.32405 3.66124 1.88668 1.44627 1.27292 1.14096 1.12964 1.09525 1.05627 1.14479 1.04016 1.53952 1.28549 1.35902 1.26929 1.24142 1.02227 0.98236 0.920304 0.721341 0.632664 0.617298 0.459796
threshold=-0.072954493541887919 0.58888031187283862 -0.033890862107724622 -0.24095684674388049 0.021232392692639067 0.016811994622793675 -0.071932333128650702 0.016161395332374318 -0.0088668495015132836 -0.13478466235966061 -0.011379083044976033 -0.15364762380881461 0.018946252379927638 -0.25293965180490569 0.024273371690477268 0.041411853857085131 0.0057296223989830039 0.026583333754359287 0.32653262825088053 0.029405925142380267 0.027816081821330222 0.015977415802515774 0.09117737985625908 0.074419844777587132 0.01037018422854563 0.0086912458536680809 0.089284053729084781 0.28202706740037725 -0.0249318821417111 0.13399075219178239 0.34261459817667866 -0.058297538164775169 -0.60877705319292563 0.0049621729781500487 0.11173987040739709 0.013428816352158241 0.14335519621578632
decision_type=2 2 2 2 2 2 2 2 2 2 2 2 2 2 2 2 2 2 2 2 2 2 2 2 2 2 2 2 2 2 2 2 2 2 2 2 2
left_child=1 8 7 10 6 -6 -5 9 19 -3 -4 -11 21 -14 17 18 -17 24 -16 30 -12 -9 23 32 25 34 27 -26 -27 -28 31 -1 -10 36 -2 -25 -19
right_child=14 2 3 4 5 -7 -8 12 22 11 20 -13 13 -15 15 16 -18 33 -20 -21 -22 -23 -24 35 26 28 29 -29 -30 -31 -32 -33 -34 -35 -36 -37 -38
leaf_value=-0.003307502213165454 0.00050196185587153129 0.0074457857755346043 -0.00014194838484869369 -0.0044636677694888634 -0.0043586855574397655 0.0018988777230001871 -0.00066479842720541338 -0.0020000323692713116 -0.00055451127589932231 0.0004478602369493704 -0.0037877673785873126 0.0023568841649467044 0.0013683403810115296 -0.0015030035460003126 0.0026243514202467007 -0.0057139794480809501 0.0022363854172675174 -0.0022163851459044964 0.0091008187222266293 0.005135390596942754 -0.008110177324678048 0.0012824485262684995 0.0022261483355396194 -0.0080906729530543092 2.1655478669125047e-05 -0.0025944192607320199 0.0031838648545979686 -0.005427912638475329 0.0029046532033915554 1.541286669290175e-05 -0.0038045972997049551 0.0011380378151943367 -0.0025510957540852983 0.00020564698543961324 -0.0050539594646174428 -0.0035674762040875697 -0.0069992693800405405
leaf_weight=148 104 107 155 366 189 1875 4875 1370 912 3087 380 1367 1747 830 123 126 183 100 198 109 251 312 140 100 3754 115 662 118 1199 580 169 775 1572 126 101 307 101
leaf_count=148 104 107 155 366 189 1875 4875 1370 912 3087 380 1367 1747 830 123 126 183 100 198 109 251 312 140 100 3754 115 662 118 1199 580 169 775 1572 126 101 307 101
internal_value=-7.08346e-05 -0.000341968 -8.46087e-05 -0.000696453 -0.000292675 0.00132587 -0.000930089 0.000476665 -0.00137037 0.00118419 -0.00444912 0.00103377 -0.000281034 0.000443538 0.000684445 0.00287945 -0.00100551 0.000485759 0.00661918 0.000257493 -0.00550714 -0.00139115 -0.00201539 -0.0022208 0.000645791 0.00179465 0.000304548 -0.000144421 0.00242338 0.00170423 -0.000229403 0.00042521 -0.00181805 -0.00276041 -0.00223535 -0.00467883 -0.00461972
internal_weight=28733 21143 16911 8091 7305 2064 5241 8820 4232 4561 786 4454 4259 2577 7590 630 309 6960 321 1201 631 1682 3031 2891 6633 1519 5114 3872 1314 1242 1092 923 2484 327 205 407 201
internal_count=28733 21143 16911 8091 7305 2064 5241 8820 4232 4561 786 4454 4259 2577 7590 630 309 6960 321 1201 631 1682 3031 2891 6633 1519 5114 3872 1314 1242 1092 923 2484 327 205 407 201
is_linear=0
shrinkage=0.05


Tree=13
num_leaves=38
num_cat=0
split_feature=16 4 23 16 9 16 28 17 8 8 5 8 2 4 17 16 16 16 25 4 5 9 9 11 9 11 28 25 5 16 21 4 12 26 1 3 5
split_gain=1.66442 1.88163 1.6555 1.88667 1.57166 2.52901 2.38838 2.19706 2.03793 2.23084 3.07471 1.97648 1.72597 2.06059 1.53931 1.41257 1.32143 1.30534 1.46289 1.1119 1.0729 1.02618 1.01628 0.838455 0.820138 0.840363 0.761955 0.698763 0.787164 0.609485 0.608125 0.602903 0.504328 0.553791 0.447807 0.413665 0.343754
threshold=0.01024162323454348 -0.2444330808401072 0.0052411651397084045 0.0089890785906649937 -0.0096112728394766572 0.027433978173748853 0.025957870437466671 0.012695718449199941 -0.096860921201628356 -0.0012769710865260795 -0.19964217325540526 -0.0064870715463086195 -0.029816242030530123 0.050623590846308526 0.0088293102959705622 0.02862164852424811 0.007508609948534215 0.03120619732820494 0.013087023930257775 -0.30912969936308898 -0.05401380343743311 -0.10171013330843713 -0.0081287622211260718 0.29675406481766536 -0.072059807300336051 0.036464456690249676 -0.067403050085025437 0.0053905500832514613 -0.0090338000578826221 0.0082988347455628612 0.58022624387220889 -0.26787392885784134 87.973447654045842 0.01102882902966529 -0.0069764735827450566 -0.0071750558152807167 0.093946278107848516
decision_type=2 2 2 2 2 2 2 2 2 2 2 2 2 2 2 2 2 2 2 2 2 2 2 2 2 2 2 2 2 2 2 2 2 2 2 2 2
left_child=2 19 14 30 5 6 11 -8 17 15 -11 -3 26 -14 29 -10 35 18 -6 21 22 -2 -18 -22 31 -26 -7 34 -29 -1 -4 -21 33 -32 -5 -16 -36
right_child=1 4 3 27 8 12 7 -9 9 10 -12 -13 13 -15 16 -17 20 -19 -20 24 23 -23 -24 -25 25 -27 -28 28 -30 -31 32 -33 -34 -35 36 -37 -38
leaf_value=-0.0013292452384016595 -0.0038380224081378308 -0.0012901965396961148 -0.0027733310188305343 0.00220089751933747 0.0021848843832362051 0.0026386411803870058 0.0033896465358020582 -0.0044852346290417408 -0.00094156308698089934 -0.0033468530944287126 0.00042902719461436516 0.00070668389718829376 -0.00060244330089472865 0.0067790178937668149 0.0051148735003424322 -0.0048280084704186224 0.00055972684827590067 0.0074188337884935566 -0.0031305871792950187 0.0081817823496029909 0.0019923366938178542 0.0029306824465894755 -0.0030399625077887913 -0.00083135785977719943 -0.0012843810031913094 0.0048744449295314417 0.0084911397750816707 -0.0005653657557057409 0.0047927639708639337 -0.00587468066605652 -0.00081459125335586367 0.003023534986918958 -0.0021260605342242694 0.0025909656695816121 0.0068747649503078448 0.0014259753558822049 0.0034676787989013193
leaf_weight=174 113 5148 121 102 986 117 100 775 3412 570 9961 1632 673 110 181 251 367 101 149 129 767 111 421 400 116 106 106 145 130 128 166 101 105 425 270 131 102
leaf_count=174 113 5148 121 102 986 117 100 775 3412 570 9961 1632 673 110 181 251 367 101 149 129 767 111 421 400 116 106 106 145 130 128 166 101 105 425 270 131 102
internal_value=-4.99932e-05 -0.000205032 0.000878625 0.00216002 -0.000278036 -0.000817075 -0.00112681 -0.00358525 2.45321e-05 -0.000145034 0.000224654 -0.000809532 0.00153979 0.000434544 9.75172e-05 -0.00120787 0.00054423 0.0019718 0.00148708 0.00239666 6.19819e-05 -0.000483887 -0.00136346 0.00102449 0.00382418 0.00165632 0.00542055 0.00397258 0.00196757 -0.00325579 0.000498322 0.00591664 0.0010671 0.00163441 0.00513583 0.00356601 0.00594056
internal_weight=28902 24767 4135 1566 24091 8661 7655 875 15430 14194 10531 6780 1006 783 2569 3663 2267 1236 1135 676 1955 224 788 1167 452 222 223 749 275 302 817 230 696 591 474 312 372
internal_count=28902 24767 4135 1566 24091 8661 7655 875 15430 14194 10531 6780 1006 783 2569 3663 2267 1236 1135 676 1955 224 788 1167 452 222 223 749 275 302 817 230 696 591 474 312 372
is_linear=0
shrinkage=0.05


Tree=14
num_leaves=48
num_cat=0
split_feature=10 28 5 26 21 25 10 1 14 7 11 9 24 27 11 26 4 27 16 13 14 16 21 8 11 16 25 4 9 25 18 9 4 4 21 11 11 11 8 18 7 21 25 25 18 2 10
split_gain=2.28297 1.79728 3.46212 2.36402 2.22051 2.21093 1.92722 1.8038 1.69483 1.64018 1.57006 1.88884 1.55958 2.17752 2.08931 2.17963 1.85464 1.67742 1.53515 1.4393 1.43377 1.41241 1.67506 1.56061 3.88998 2.25668 1.32269 1.32221 1.28677 1.27612 1.86559 1.62552 1.23705 1.25102 1.17684 1.24693 1.17609 1.15527 1.04337 1.31167 0.952745 0.871936 0.707337 0.561725 0.417037 0.356906 0.314012
threshold=-0.072954493541887919 -0.027576343542257017 -0.24095684674388049 0.03071313802823428 0.55206291476261937 0.011128874927332008 -0.15364762380881461 0.0091213429023983012 1.1045595306194222 -0.14626510298502385 0.1098170155570002 0.020262005534157693 0.013610702268622711 -0.024859279291255917 0.21857001915486332 -0.017731818648939742 0.14021575875383543 -0.033745398824024601 0.030702632336883948 76.500033877183441 0.069233169899441463 0.029878763075742814 0.67673572241219682 0.096295721330280318 0.5947648277665597 0.013428816352158241 0.0046977341262460911 -0.0024953978755405943 0.023450018070403703 0.013039107293575726 0.034956257385642987 0.020262005534157693 0.0095483479977135372 -0.20485231545892277 0.85532995293988956 0.1829505244180826 0.86598607121334803 0.51416405358756534 0.13503196814326027 0.022095970400726354 0.07791442371119385 1.3368513298617997 0.005629823647543007 0.0080289863558241584 0.022273549033164908 0.015278242333990779 -0.30366253140389071
decision_type=2 2 2 2 2 2 2 2 2 2 2 2 2 2 2 2 2 2 2 2 2 2 2 2 2 2 2 2 2 2 2 2 2 2 2 2 2 2 2 2 2 2 2 2 2 2 2
left_child=1 3 5 4 32 7 9 28 -7 -6 11 27 14 16 34 38 20 -17 26 -19 44 23 -23 24 -4 -25 -15 -5 -3 30 -12 -31 33 -1 42 45 -28 -8 39 -16 -40 -24 -2 -37 -14 -36 -9
right_child=12 2 21 10 6 8 37 46 -10 -11 29 -13 13 18 15 17 -18 19 -20 -21 -22 22 41 25 -26 -27 36 -29 -30 31 -32 -33 -34 -35 35 43 -38 -39 40 -41 -42 -43 -44 -45 -46 -47 -48
leaf_value=0.0019775993360608051 0.0085699169006123142 -0.0051334060965708313 -0.00050369478539801383 0.0057505546731107813 0.0025705668629249275 0.0055450779367780811 0.0013658109228994457 -0.0095422362256464919 -0.0032675857820291202 -0.00044241299193356685 0.00034024294505208383 -0.0025835021640661926 -0.00042937188944779342 0.0040956385741520796 -0.0037484986377433723 0.0064133994996884713 0.0023353208961242882 0.00072466871621690212 0.0055705208745267659 0.0038891417564656545 -0.0095379417606513018 -0.0040293420313391838 0.0047388018978393228 -0.0069000009770591765 0.0073622784827494575 -0.0012718931981429695 5.5942819946326758e-05 -0.00037026664377603612 0.00015464092118883349 0.00034380062412682738 0.0055756663363022005 -0.0069581191245190526 0.0033654397592710501 -0.0025755412333236098 -0.0021134077331066525 0.0027174053199269113 -0.0044274971769162038 0.0068316677425879525 -0.0064951527457019478 0.0020420774822438206 -0.0011184175978060703 0.00050343875819356136 0.0036647977987591383 0.0074944416347498197 -0.0049844391817471367 0.0017609505468724473 -0.0063198555503011988
leaf_weight=168 148 269 6615 503 490 103 1574 141 116 5777 654 105 100 187 150 157 104 2858 135 411 125 100 305 215 161 1038 1827 107 201 259 230 108 110 1479 137 160 159 103 159 281 171 202 146 100 101 105 163
leaf_count=168 148 269 6615 503 490 103 1574 141 116 5777 654 105 100 187 150 157 104 2858 135 411 125 100 305 215 161 1038 1827 107 201 259 230 108 110 1479 137 160 159 103 159 281 171 202 146 100 101 105 163
internal_value=1.04226e-05 -0.00025662 -0.000762232 0.000160671 -0.000159734 -0.0035582 0.000196023 -0.00481317 0.000877183 -0.000206836 0.00174167 0.00361069 0.000746978 -0.000211685 0.00127373 0.000827326 -0.00347845 0.00136499 0.000396941 0.00112253 -0.00533315 -0.000440742 0.00188484 -0.000616557 -0.000316797 -0.00223761 7.55269e-05 0.0046769 -0.00287192 0.000673453 0.0017024 -0.00180499 -0.00176824 -0.0021111 0.00362186 0.00215058 -0.000303003 0.00170152 -0.00159321 2.67958e-05 -0.00370903 0.00305134 0.00613404 0.00455473 -0.00271824 -0.000432385 -0.00781445
internal_weight=29017 21296 9629 11667 9701 993 7944 774 219 6267 1966 715 7721 2738 4983 4187 430 3426 2308 3269 326 8636 607 8029 6776 1253 2173 610 470 1251 884 367 1757 1647 796 502 1986 1677 761 431 330 507 294 260 201 242 304
internal_count=29017 21296 9629 11667 9701 993 7944 774 219 6267 1966 715 7721 2738 4983 4187 430 3426 2308 3269 326 8636 607 8029 6776 1253 2173 610 470 1251 884 367 1757 1647 796 502 1986 1677 761 431 330 507 294 260 201 242 304
is_linear=0
shrinkage=0.05


Tree=15
num_leaves=24
num_cat=0
split_feature=5 2 18 26 28 8 8 17 25 7 8 19 21 17 4 26 21 28 22 21 22 27 2
split_gain=1.45791 1.56858 1.50701 2.53065 1.69981 2.032 1.76713 1.85561 1.679 1.50543 1.40068 1.39881 1.29323 1.2653 1.24331 1.62714 1.53136 1.08216 0.841904 0.841757 0.64613 0.541208 0.76266
threshold=-0.072021750916158131 0.16565495416790824 0.022016255050828947 -0.020996685374855214 0.082415280486203848 -0.035241304208738326 -0.12275075242932375 0.019205041953190224 0.005214044796954735 -0.14626510298502385 -0.024106567178118484 0.18304441234888999 0.59783420219712258 0.018246449693026221 -0.25500208532555274 -0.04783436111561739 4.0123646980884846 -0.27279261860545145 -0.061284845270541295 0.48615715757517891 -0.046076890995385054 0.0626590306397279 -0.033541195712952047
decision_type=2 2 2 2 2 2 2 2 2 2 2 2 2 2 2 2 2 2 2 2 2 2 2
left_child=9 2 3 21 6 -6 7 -4 12 17 -8 -7 -5 -10 -11 20 19 -1 -19 -17 -16 22 -2
right_child=1 -3 4 8 5 11 10 -9 13 14 -12 -13 -14 -15 15 16 -18 18 -20 -21 -22 -23 -24
leaf_value=-0.00099668116869870574 -0.0011506988878615878 0.0046608705284467223 -0.0013822262121815083 -0.00065698828538553894 0.0070214332019321417 0.0025099989738104071 -0.0019484986911605278 0.0026365386158788695 -0.00019813564088382555 0.003276490527341182 -0.00040022343344633916 5.2833075785088119e-06 0.0021813932451160349 0.0038566426676320239 -0.0020703915845724226 -0.0016945447619291004 -0.0067047364416294823 0.0081257421344188632 0.0019270360870804225 -0.00036281223371794214 -0.0069001237726971356 -0.00012029194955723089 -0.006532064430850768
leaf_weight=125 110 195 464 468 121 675 2326 754 2565 199 3927 3200 2816 208 138 1377 102 103 117 8580 139 103 164
leaf_count=125 110 195 464 468 121 675 2326 754 2565 199 3927 3200 2816 208 138 1377 102 103 117 8580 139 103 164
internal_value=-7.43297e-05 0.000200674 0.000152088 0.000764543 -0.000191553 0.000640828 -0.000636767 0.00110558 0.00101194 -0.000531726 -0.000976153 0.000441589 0.0017769 0.000106009 -0.000638159 -0.000713529 -0.000609424 0.00271835 0.00482916 -0.000546984 -0.00449398 -0.00321015 -0.00437166
internal_weight=28976 18096 17901 6434 11467 3996 7471 1218 6057 10880 6253 3875 3284 2773 10535 10336 10059 345 220 9957 277 377 274
internal_count=28976 18096 17901 6434 11467 3996 7471 1218 6057 10880 6253 3875 3284 2773 10535 10336 10059 345 220 9957 277 377 274
is_linear=0
shrinkage=0.05


Tree=16
num_leaves=42
num_cat=0
split_feature=10 25 11 25 28 18 13 25 4 5 13 8 23 1 27 21 23 18 18 13 21 10 5 25 25 11 16 21 26 21 1 11 28 4 21 4 16 11 4 8 18
split_gain=1.93252 1.86489 2.72393 1.86267 2.32681 2.03833 1.86414 2.12656 2.20302 1.79014 1.73941 1.71719 1.69642 1.55944 1.48988 1.31894 1.30875 1.29419 1.17698 1.14999 1.73708 1.37373 1.11456 1.33365 1.20945 1.16482 1.07867 1.90322 1.32652 1.0306 1.40326 1.07541 0.957641 0.939467 1.04654 0.917265 0.894128 0.732602 0.638892 0.751216 0.612811
threshold=-0.15364762380881461 0.011279239296521446 0.45601825961804038 0.0050155973154106187 -0.13808087423161994 0.022016255050828947 39.040349807344334 0.011429705537487447 -0.10627202149678298 0.4171056674695745 56.476813925787624 -0.25000813570026331 -0.020921226197887662 0.0094962307756961701 -0.093205749548606928 0.4607805537521294 -0.0099227333315947113 0.039952398337832082 0.029492320293853475 26.711750225448352 0.91007138594754999 -0.29047740309974041 -0.076440733767408828 0.0049490173175545703 0.0065773673889554293 0.24870378413467911 0.0188201573045776 1.3271198261678336 0.0033031310702568155 0.96691878069135762 -0.013284504364921455 0.02235888069310266 -0.039228511009646187 -0.12652142260850122 0.97132714398831965 -0.15489485811570528 0.030702632336883948 0.31383529042342012 -0.033802238194166494 0.037518179496026878 0.018150681225539388
decision_type=2 2 2 2 2 2 2 2 2 2 2 2 2 2 2 2 2 2 2 2 2 2 2 2 2 2 2 2 2 2 2 2 2 2 2 2 2 2 2 2 2
left_child=3 14 18 5 6 15 16 8 -8 -4 -9 -6 -7 -11 -2 40 17 -5 32 20 -14 -21 26 25 -25 -24 27 -16 -28 30 -13 -31 -3 -17 -35 -18 -15 -34 -20 -40 -1
right_child=1 2 9 4 11 12 7 10 -10 13 -12 29 19 36 22 33 35 -19 38 21 -22 -23 23 24 -26 -27 28 -29 -30 31 -32 -33 37 34 -36 -37 -38 -39 39 -41 -42
leaf_value=-0.00084914973704144361 -0.0049328426454811041 0.0011942971302118122 0.0059917103415851481 -0.00099222506421695771 0.0051120093156949977 0.0033992438172646918 -0.0026990868366232866 0.0058040688160026707 0.0046762445862016952 0.0047967323537254445 -0.00094780263763557127 0.00099542548172359101 -0.0026014325356300107 -0.0059040917515700972 -0.00076092301918121656 -0.0032607932134387676 0.0055572729824254954 0.0052861129249877764 -0.0035307695037772647 -0.0055005034422151329 0.0047742572947252733 -0.0023529697302240127 0.0032455584545529759 3.1813506729923337e-05 0.0013880308232133813 0.0011222972136199683 0.0003335704969249787 0.0060627904954438649 -0.0066820447120640508 -0.0036655733133172559 -0.00072209098407937343 -0.00089777745446508383 -0.0045238001317318274 0.0020333592282655941 -0.00095418611235957356 0.0012591379402248665 0.00070085698619973616 -0.0013595215417892459 0.0033226286422472955 -0.00073918961680264792 -0.0059203162974131021
leaf_weight=113 119 119 197 300 136 117 648 228 120 107 164 1868 256 104 858 149 446 113 128 518 116 1048 883 4947 2462 2406 123 116 149 395 3273 3147 617 799 463 172 101 260 157 414 126
leaf_count=113 119 119 197 300 136 117 648 228 120 107 164 1868 256 104 858 149 446 113 128 518 116 1048 883 4947 2462 2406 123 116 149 395 3273 3147 617 799 463 172 101 260 157 414 126
internal_value=-2.48606e-05 0.000389789 -0.000947582 -0.000426887 -0.000100555 -0.00139663 0.00135774 -1.72163e-05 -0.00154669 0.00226008 0.00297931 -0.000462856 -0.0024475 -9.61174e-05 0.000634137 -8.78219e-05 0.00290473 0.000725577 -0.00191083 -0.00280048 -0.000301486 -0.00339411 0.000689602 0.000854439 0.000482483 0.00169233 -0.000725669 5.17574e-05 -0.00350954 -0.000550173 -9.80255e-05 -0.00120644 -0.0030146 0.000493981 0.000937295 0.00436103 -0.00264995 -0.0035857 -0.000338069 0.000377633 -0.00352265
internal_weight=28982 14267 2204 14715 11010 3705 2191 1160 768 509 392 8819 2055 312 12063 1650 1031 413 1695 1938 372 1566 11944 10698 7409 3289 1246 974 272 8683 5141 3542 996 1411 1262 618 205 877 699 571 239
internal_count=28982 14267 2204 14715 11010 3705 2191 1160 768 509 392 8819 2055 312 12063 1650 1031 413 1695 1938 372 1566 11944 10698 7409 3289 1246 974 272 8683 5141 3542 996 1411 1262 618 205 877 699 571 239
is_linear=0
shrinkage=0.05


Tree=17
num_leaves=13
num_cat=0
split_feature=8 28 21 17 12 21 26 28 3 7 25 21
split_gain=1.91088 2.84645 2.13881 1.56756 1.33499 1.30092 2.35501 1.48607 1.16801 2.52451 1.10571 0.818117
threshold=0.46531845691676416 0.39086019941437583 4.0123646980884846 0.03323871256378165 72.890680266960445 0.49834023025904661 0.045875854371069787 0.26972558923294221 0.0045548895033735723 0.12398916985843202 0.006099104016725857 0.92527895679013694
decision_type=2 2 2 2 2 2 2 2 2 2 2 2
left_child=1 2 3 5 -3 6 -1 -7 11 -10 -4 -5
right_child=-2 4 10 8 -6 7 -8 -9 9 -11 -12 -13
leaf_value=-0.0013790121417924881 -0.006509219057209391 0.00803361409437779 -0.0085021574618380277 0.0065205639362594676 0.00090641352974155272 0.00013495247158154791 0.0053649482327968795 -0.0026082983997184786 -0.0019162520520492562 0.0061503901184884122 -0.001412461729204232 0.0011084969998413489
leaf_weight=2688 112 161 109 201 111 24117 136 504 306 142 111 107
leaf_count=2688 112 161 109 201 111 24117 136 504 306 142 111 107
internal_value=9.04747e-06 3.44908e-05 -1.42282e-05 2.40821e-05 0.00512509 -3.77878e-05 -0.00105423 7.87972e-05 0.00227014 0.000640585 -0.00492508 0.0046404
internal_weight=28805 28693 28421 28201 272 27445 2824 24621 756 448 220 308
internal_count=28805 28693 28421 28201 272 27445 2824 24621 756 448 220 308
is_linear=0
shrinkage=0.05


Tree=18
num_leaves=36
num_cat=0
split_feature=18 26 11 25 8 1 21 27 28 9 25 25 27 4 10 13 10 21 22 9 18 3 11 22 11 11 9 28 5 4 25 27 0 13 28
split_gain=1.68736 2.83534 2.79338 2.84687 2.07599 2.06083 2.10515 2.01399 1.90908 1.75856 1.64826 2.68169 1.66113 1.52556 1.82093 1.47414 2.19043 1.40726 1.56098 1.53826 1.38988 1.25404 1.50849 1.18367 1.17349 1.12069 1.11185 1.19222 0.999857 0.976931 0.967119 0.543102 0.456626 0.42339 0.497219
threshold=0.021939135162282818 -0.020996685374855214 0.51416405358756534 0.0050880154720233757 0.46531845691676416 -0.012588083694673511 0.66553863418969772 -0.095287453490502813 -0.11948446694995928 0.084239538799517968 0.011756347437825864 0.0065773673889554293 0.0070671889331129787 0.094718100178744727 -0.068293136060689416 29.024359944826859 -0.27731980910618509 0.45427491839323569 0.35162827282573944 -0.03801099157579018 0.031919072954118576 0.11570535767713476 0.80529077308442065 -0.44349011922977805 0.58243254629490326 0.2429162980414902 0.077258129912039633 0.12525347313101323 -0.038373144293796672 -0.09106025381298842 0.0113682864481184 -0.016598790818487138 -0.011187606270744053 52.812232589428042 -0.025494523823533784
decision_type=2 2 2 2 2 2 2 2 2 2 2 2 2 2 2 2 2 2 2 2 2 2 2 2 2 2 2 2 2 2 2 2 2 2 2
left_child=1 32 3 5 7 15 31 23 10 13 11 -5 -12 17 25 29 -17 19 -19 -3 -8 22 -9 -4 -16 -15 27 -10 -28 -2 -23 -7 -1 34 -34
right_child=2 9 4 8 -6 6 20 21 26 -11 12 -13 -14 14 24 16 -18 18 -20 -21 -22 30 -24 -25 -26 -27 28 -29 -30 -31 -32 -33 33 -35 -36
leaf_value=-0.00049223594248994995 -0.0009463098710636819 -0.0066320825978058639 -0.0073075844897139896 0.0023417706989453399 -0.0053829908582635902 -0.0075556841544222007 -0.0011404491061490199 0.0019826288192914894 -0.00059657500421459548 0.0066403601506724967 0.0045613030552443352 -0.0018850590697584799 -0.0012759843235322912 -0.00093950995068628094 0.00118710595220162 -0.0049083264163747465 -0.0001799541190276815 0.0015592139914661204 -0.00036283815244091404 -7.9667124573798334e-05 -0.006004300390603021 0.0024534984845946666 -0.00069314720702855041 0.00016992480409416287 -0.0034421978908921445 -0.0047570009577420462 -0.0057065175475184138 0.001005278064152847 -0.00088499546881117257 0.0035926696080911917 0.006827765528725673 -0.0042195352561946019 -0.0024446327417081194 -0.0011349541226755482 -0.0065811034422603417
leaf_weight=139 204 113 102 752 121 242 914 1460 7928 125 522 749 159 523 1172 348 827 5655 1299 432 175 631 824 110 155 304 187 1361 253 283 158 246 128 108 168
leaf_count=139 204 113 102 752 121 242 914 1460 7928 125 522 749 159 523 1172 348 827 5655 1299 432 175 631 824 110 155 304 187 1361 253 283 158 246 128 108 168
internal_value=4.00751e-05 0.000552558 -0.000244972 -0.000535849 0.00104886 -0.00185021 -0.00314496 0.00128577 -0.000178429 0.000747851 0.00115821 0.00023258 0.00319841 0.000671547 -0.000501274 -0.000621686 -0.00158036 0.00100843 0.00120018 -0.00143824 -0.00192206 0.00161094 0.00101729 -0.00342774 0.000646381 -0.0023428 -0.000478208 -0.000361876 -0.00293414 0.00169133 0.00332946 -0.00587394 -0.00296415 -0.00381464 -0.00479236
internal_weight=28877 10321 18556 15150 3406 3239 1577 3285 11911 9778 2182 1501 681 9653 2154 1662 1175 7499 6954 545 1089 3073 2284 212 1327 827 9729 9289 440 487 789 488 543 404 296
internal_count=28877 10321 18556 15150 3406 3239 1577 3285 11911 9778 2182 1501 681 9653 2154 1662 1175 7499 6954 545 1089 3073 2284 212 1327 827 9729 9289 440 487 789 488 543 404 296
is_linear=0
shrinkage=0.05


Tree=19
num_leaves=45
num_cat=0
split_feature=18 17 25 10 25 27 2 5 23 28 27 17 11 25 17 25 21 25 8 8 5 18 11 28 25 1 17 19 27 8 25 19 22 10 2 11 7 4 4 8 23 17 25 1
split_gain=1.75978 2.55342 6.09215 3.66598 3.26654 2.62443 2.32818 3.35014 2.18096 2.05772 1.58375 2.02485 1.50762 1.60881 3.30818 1.58515 1.44431 1.7402 1.60245 1.58439 1.4413 1.36165 1.30974 1.29614 1.28072 1.25789 1.22788 1.17978 1.19026 1.20727 1.08651 1.07447 1.0331 1.00295 0.911896 0.843915 0.782086 1.32498 0.780473 0.757381 0.635961 0.457274 0.470501 0.350458
threshold=0.021939135162282818 0.02062882838821822 0.0096828193187429041 -0.19923243186099929 0.015252383676655211 0.02521833474082608 0.011248112261524003 0.093946278107848516 -0.022063623100334492 -0.039228511009646187 0.050563075081791427 0.023240354092115906 0.13053515765884863 0.012555411514229719 0.033795432944644467 0.015252383676655211 0.60250941469542174 0.0050880154720233757 0.16335972359024756 0.12184392377249932 -0.24095684674388049 0.01823630734917335 0.3565000963860066 -0.0035166991746157224 0.0056555564234916237 0.024186666097815949 0.012638028183451852 0.59656644452374474 0.056203195267031776 -0.059657414692568793 0.0065773673889554293 0.54850351642565831 0.17084291169652019 -0.27731980910618509 0.10621914175062354 0.33447433533014065 -0.086825727845313991 -0.0783278723853119 0.21758944551884354 -0.16436431096077944 0.00081194834031839147 0.01095534358963283 0.0054255503416147481 0.06769006819382474
decision_type=2 2 2 2 2 2 2 2 2 2 2 2 2 2 2 2 2 2 2 2 2 2 2 2 2 2 2 2 2 2 2 2 2 2 2 2 2 2 2 2 2 2 2 2
left_child=8 4 3 10 27 36 7 -5 31 -8 24 -12 33 14 -14 -15 18 20 19 35 26 23 -23 -19 -3 -7 -18 28 30 -30 -2 41 -22 39 38 -10 -6 -38 -29 -4 -35 -1 -43 -36
right_child=1 2 12 6 5 25 9 -9 16 -11 11 -13 13 15 -16 -17 17 21 -20 -21 32 22 -24 -25 -26 -27 -28 34 29 -31 -32 -33 -34 40 43 -37 37 -39 -40 -41 -42 42 -44 -45
leaf_value=-0.003658897652960966 7.5770800637671925e-05 -0.0032800304170969943 0.003965365206173241 -0.0030694273827343902 0.0014690531316341176 -0.012605509700397739 0.0054870149175157996 0.0040979790865052525 -0.00022603105130284675 -0.0017612481815654337 -0.00020921192346857144 -0.0088406413974497621 0.0014007603698940156 -0.0013342226336815449 0.007568770606281622 0.0021335102419310667 0.0016526390383026616 0.00037550962153179576 -0.0059533770517410005 0.0057164421000966163 0.0025986012057259591 0.0006444982328507997 0.0041359432255567473 -0.0021724620298105529 -0.00047241759467916451 -0.0051117935712682088 -0.0046208480975122026 -0.0012684457515959291 0.006453881455544274 0.00077171009709431555 -0.0014030878592246035 -0.0057748484751981438 0.00069163890113521089 -0.0015223106967510078 0.0040066676544735121 -0.0043811391890259052 -0.0066217837649315192 0.00018734655890734398 -0.0045579324175272825 0.0083199623227384039 0.0039187428666045887 0.002439684856217355 -0.0021915339074088354 -0.00012923363491427155
leaf_weight=107 3269 823 410 213 122 105 109 695 1505 963 104 196 1210 785 265 568 155 1252 129 107 2445 1858 314 830 802 120 157 3539 102 1119 2003 181 1001 116 105 133 147 139 190 132 100 120 101 100
leaf_count=107 3269 823 410 213 122 105 109 695 1505 963 104 196 1210 785 265 568 155 1252 129 107 2445 1858 314 830 802 120 157 3539 102 1119 2003 181 1001 116 105 133 147 139 190 132 100 120 101 100
internal_value=-1.14053e-05 -0.000303238 0.000409542 -0.000956865 -0.000786007 -0.00427351 0.000553692 0.00241664 0.000509401 -0.00102425 -0.00251058 -0.00584841 0.0018975 0.00136673 0.00250891 0.000121559 0.000673737 0.00096602 -0.000575878 -0.000178343 0.00175003 0.000273427 0.00114925 -0.000640252 -0.00189437 -0.00860886 -0.00150421 -0.000574289 -0.000160304 0.00124639 -0.000486095 -0.00268238 0.00204466 0.00387773 -0.00125756 -0.000563412 -0.00188269 -0.00331245 -0.00143605 0.00502589 0.000996696 -0.000975868 0.000323155 0.00198915
internal_weight=28946 18551 7491 3905 11060 633 1980 908 10395 1072 1925 300 3586 2828 1475 1353 9886 8012 1874 1745 3758 4254 2172 2082 1625 225 312 10427 6493 1221 5272 509 3446 758 3934 1638 408 286 3729 542 216 328 221 205
internal_count=28946 18551 7491 3905 11060 633 1980 908 10395 1072 1925 300 3586 2828 1475 1353 9886 8012 1874 1745 3758 4254 2172 2082 1625 225 312 10427 6493 1221 5272 509 3446 758 3934 1638 408 286 3729 542 216 328 221 205
is_linear=0
shrinkage=0.05


end of trees

feature_importances:
nifty_vol_21d=68
mom_12_1=48
vol_63d=48
atr_pct=46
ret_63d=45
rs_63d=45
lo52_dist=43
vol_21d=43
sma20_50=40
vol_ratio=40
dist_sma200=35
hi52_dist=35
nifty_dist_sma50=35
rsi_14=32
rs_21d=32
nifty_ret_21d=26
nifty_ret_5d=23
dist_sma50=18
rsi_5=17
ret_5d=15
ret_10d=14
turnover_z=13
ret_21d=10
range_pos=8
ret_1d=5
dist_sma20=3
boll_z=3
gap=2

parameters:
[boosting: gbdt]
[objective: regression]
[metric: l2]
[tree_learner: serial]
[device_type: cpu]
[data_sample_strategy: bagging]
[data: ]
[valid: ]
[num_iterations: 400]
[learning_rate: 0.05]
[num_leaves: 48]
[num_threads: 0]
[seed: 42]
[deterministic: 0]
[force_col_wise: 0]
[force_row_wise: 0]
[histogram_pool_size: -1]
[max_depth: 6]
[min_data_in_leaf: 100]
[min_sum_hessian_in_leaf: 0.001]
[bagging_fraction: 0.8]
[pos_bagging_fraction: 1]
[neg_bagging_fraction: 1]
[bagging_freq: 1]
[bagging_seed: 400]
[bagging_by_query: 0]
[feature_fraction: 0.8]
[feature_fraction_bynode: 1]
[feature_fraction_seed: 30056]
[extra_trees: 0]
[extra_seed: 12879]
[early_stopping_round: 0]
[early_stopping_min_delta: 0]
[first_metric_only: 0]
[max_delta_step: 0]
[lambda_l1: 0]
[lambda_l2: 0]
[linear_lambda: 0]
[min_gain_to_split: 0]
[drop_rate: 0.1]
[max_drop: 50]
[skip_drop: 0.5]
[xgboost_dart_mode: 0]
[uniform_drop: 0]
[drop_seed: 17869]
[top_rate: 0.2]
[other_rate: 0.1]
[min_data_per_group: 100]
[max_cat_threshold: 32]
[cat_l2: 10]
[cat_smooth: 10]
[max_cat_to_onehot: 4]
[top_k: 20]
[monotone_constraints: ]
[monotone_constraints_method: basic]
[monotone_penalty: 0]
[feature_contri: ]
[forcedsplits_filename: ]
[refit_decay_rate: 0.9]
[cegb_tradeoff: 1]
[cegb_penalty_split: 0]
[cegb_penalty_feature_lazy: ]
[cegb_penalty_feature_coupled: ]
[path_smooth: 0]
[interaction_constraints: ]
[verbosity: -1]
[saved_feature_importance_type: 0]
[use_quantized_grad: 0]
[num_grad_quant_bins: 4]
[quant_train_renew_leaf: 0]
[stochastic_rounding: 1]
[linear_tree: 0]
[max_bin: 255]
[max_bin_by_feature: ]
[min_data_in_bin: 3]
[bin_construct_sample_cnt: 200000]
[data_random_seed: 175]
[is_enable_sparse: 1]
[enable_bundle: 1]
[use_missing: 1]
[zero_as_missing: 0]
[feature_pre_filter: 1]
[pre_partition: 0]
[two_round: 0]
[header: 0]
[label_column: ]
[weight_column: ]
[group_column: ]
[ignore_column: ]
[categorical_feature: ]
[forcedbins_filename: ]
[precise_float_parser: 0]
[parser_config_file: ]
[objective_seed: 16083]
[num_class: 1]
[is_unbalance: 0]
[scale_pos_weight: 1]
[sigmoid: 1]
[boost_from_average: 1]
[reg_sqrt: 0]
[alpha: 0.9]
[fair_c: 1]
[poisson_max_delta_step: 0.7]
[tweedie_variance_power: 1.5]
[lambdarank_truncation_level: 30]
[lambdarank_norm: 1]
[label_gain: ]
[lambdarank_position_bias_regularization: 0]
[eval_at: ]
[multi_error_top_k: 1]
[auc_mu_weights: ]
[num_machines: 1]
[local_listen_port: 12400]
[time_out: 120]
[machine_list_filename: ]
[machines: ]
[gpu_platform_id: -1]
[gpu_device_id: -1]
[gpu_use_dp: 0]
[num_gpu: 1]

end of parameters

pandas_categorical:null
