{"learner":{"attributes":{"best_iteration":"33","best_score":"0.2879591705984313"},"feature_names":["ret_1d","ret_5d","ret_10d","ret_21d","ret_63d","mom_12_1","dist_sma20","dist_sma50","dist_sma200","sma20_50","hi52_dist","lo52_dist","rsi_5","rsi_14","boll_z","down_streak","vol_21d","vol_63d","atr_pct","range_pos","gap","vol_ratio","turnover_z","nifty_ret_5d","nifty_ret_21d","nifty_vol_21d","nifty_dist_sma50","rs_21d","rs_63d"],"feature_types":[],"gradient_booster":{"model":{"cats":{"enc":[],"feature_segments":[],"sorted_idx":[]},"gbtree_model_param":{"num_parallel_tree":"1","num_trees":"84"},"iteration_indptr":[0,1,2,3,4,5,6,7,8,9,10,11,12,13,14,15,16,17,18,19,20,21,22,23,24,25,26,27,28,29,30,31,32,33,34,35,36,37,38,39,40,41,42,43,44,45,46,47,48,49,50,51,52,53,54,55,56,57,58,59,60,61,62,63,64,65,66,67,68,69,70,71,72,73,74,75,76,77,78,79,80,81,82,83,84],"tree_info":[0,0,0,0,0,0,0,0,0,0,0,0,0,0,0,0,0,0,0,0,0,0,0,0,0,0,0,0,0,0,0,0,0,0,0,0,0,0,0,0,0,0,0,0,0,0,0,0,0,0,0,0,0,0,0,0,0,0,0,0,0,0,0,0,0,0,0,0,0,0,0,0,0,0,0,0,0,0,0,0,0,0,0,0],"trees":[{"base_weights":[-2.5269733E-4,-1.4199158E-2,1.6484747E-2,-2.2305854E-2,3.0945467E-2,-9.474371E-2,1.8391281E-2,-1.324169E-2,-4.80853E-2,1.0011277E-1,3.6405001E-3,-1.3484535E-1,-5.54622E-4,1.632318E-2,1.0981631E-1,-1.0093469E-2,-9.462229E-2,-1.324755E-1,-3.7926096E-2,-8.044599E-3,1.2716669E-1,-5.0545674E-2,2.7949495E-2,-3.5634318E-3,-9.076301E-3,2.3714157E-2,-1.9026957E-2,-3.0003383E-3,1.5071417E-1,-1.6869927E-3,1.3014724E-4,-3.7405788E-4,-7.71264E-3,-6.189318E-4,-8.177791E-3,-9.106533E-3,-1.6252975E-3,2.560173E-3,-4.58352E-3,7.4371197E-3,-9.368591E-4,-9.00923E-3,-1.816007E-4,2.9802045E-3,-1.1736301E-3,2.397256E-3,7.1182736E-4,-1.8591759E-3,3.046735E-3,5.48684E-3,1.38017265E-2],"categories":[],"categories_nodes":[],"categories_segments":[],"categories_sizes":[],"default_left":[0,0,0,0,0,0,0,0,0,0,0,0,0,0,0,0,0,0,0,0,0,0,0,0,0,0,0,0,0,0,0,0,0,0,0,0,0,0,0,0,0,0,0,0,0,0,0,0,0,0,0],"id":0,"left_children":[1,3,5,7,9,11,13,15,17,19,21,23,-1,25,27,29,31,33,35,37,39,41,43,-1,-1,45,47,-1,49,-1,-1,-1,-1,-1,-1,-1,-1,-1,-1,-1,-1,-1,-1,-1,-1,-1,-1,-1,-1,-1,-1],"loss_changes":[6.8520494E0,5.860662E0,2.8310583E0,3.171422E0,4.604069E0,7.53279E-1,2.478507E0,2.5726147E0,3.022234E0,2.020018E0,2.3052154E0,4.38169E-1,0E0,3.35231E0,2.02321E0,2.9038572E0,1.9422512E0,1.4126492E0,2.4584951E0,6.9339234E-1,1.7404709E0,3.2957006E0,1.9677159E0,0E0,0E0,2.43615E0,3.2238727E0,0E0,1.1713691E0,0E0,0E0,0E0,0E0,0E0,0E0,0E0,0E0,0E0,0E0,0E0,0E0,0E0,0E0,0E0,0E0,0E0,0E0,0E0,0E0,0E0,0E0],"parents":[2147483647,0,0,1,1,2,2,3,3,4,4,5,5,6,6,7,7,8,8,9,9,10,10,11,11,13,13,14,14,15,15,16,16,17,17,18,18,19,19,20,20,21,21,22,22,25,25,26,26,28,28],"right_children":[2,4,6,8,10,12,14,16,18,20,22,24,-1,26,28,30,32,34,36,38,40,42,44,-1,-1,46,48,-1,50,-1,-1,-1,-1,-1,-1,-1,-1,-1,-1,-1,-1,-1,-1,-1,-1,-1,-1,-1,-1,-1,-1],"split_conditions":[-1.3797635E-1,3.8409546E-2,-4.2618744E-2,2.8562935E-3,-1.7151336E-1,3.6885425E-2,3.3006214E-2,1.6230308E-2,-2.7679476E-1,-2.731578E-1,9.702019E-3,2.4654406E-1,-5.54622E-4,1.0922533E-2,-3.6857046E-2,5.131107E-3,-2.538669E-1,3.2088486E1,-7.668182E-2,-1.2526157E-1,3.5118636E-2,-1.8726778E-1,-2.1709374E-1,-3.5634318E-3,-9.076301E-3,2.3061606E-1,5.0715214E-1,-3.0003383E-3,1.4295712E-1,-1.6869927E-3,1.3014724E-4,-3.7405788E-4,-7.71264E-3,-6.189318E-4,-8.177791E-3,-9.106533E-3,-1.6252975E-3,2.560173E-3,-4.58352E-3,7.4371197E-3,-9.368591E-4,-9.00923E-3,-1.816007E-4,2.9802045E-3,-1.1736301E-3,2.397256E-3,7.1182736E-4,-1.8591759E-3,3.046735E-3,5.48684E-3,1.38017265E-2],"split_indices":[10,18,9,28,4,18,16,25,5,28,25,11,0,25,5,25,10,12,4,5,27,5,10,0,0,11,11,0,6,0,0,0,0,0,0,0,0,0,0,0,0,0,0,0,0,0,0,0,0,0,0],"split_type":[0,0,0,0,0,0,0,0,0,0,0,0,0,0,0,0,0,0,0,0,0,0,0,0,0,0,0,0,0,0,0,0,0,0,0,0,0,0,0,0,0,0,0,0,0,0,0,0,0,0,0],"sum_hessian":[2.9352E4,1.6011E4,1.3341E4,1.3574E4,2.437E3,2.24E2,1.3117E4,1.0044E4,3.53E3,6.89E2,1.748E3,1.51E2,7.3E1,1.2828E4,2.89E2,9.671E3,3.73E2,3.78E2,3.152E3,1.38E2,5.51E2,5.41E2,1.207E3,6.5E1,8.6E1,1.061E4,2.218E3,5.6E1,2.33E2,3.378E3,6.293E3,1.52E2,2.21E2,7.8E1,3E2,1.13E2,3.039E3,8.1E1,5.7E1,4.8E2,7.1E1,1.43E2,3.98E2,7.47E2,4.6E2,2.982E3,7.628E3,1.808E3,4.1E2,1.77E2,5.6E1],"tree_param":{"num_deleted":"0","num_feature":"29","num_nodes":"51","size_leaf_vector":"1"}},{"base_weights":[-5.3411716E-4,-1.7715534E-2,9.831869E-3,7.11552E-2,-2.1214165E-2,4.190221E-2,4.6902946E-3,-3.4644157E-3,1.12853244E-1,8.674626E-3,-2.2514E-2,-3.3236057E-2,5.028731E-2,-9.3848177E-4,4.4245947E-2,2.9197875E-2,1.9894035E-1,-6.010295E-2,-1.6391447E-2,2.9301965E-3,-6.879953E-2,6.85111E-2,1.4106464E-2,-7.588354E-3,2.3947794E-2,-1.02523565E-1,5.3031553E-2,6.190256E-3,-2.906645E-3,6.764542E-3,1.4377142E-2,-3.3955702E-3,5.5883336E-3,-4.6095412E-4,-2.602746E-3,-6.038906E-3,-1.0199283E-3,3.6742091E-3,-3.0297504E-3,-2.7918702E-3,2.0438067E-3,-2.5587933E-4,-6.0685067E-3,-7.297231E-4,2.5592519E-3,6.0634567E-5,-1.0901322E-2,-3.112614E-3,3.0565914E-3],"categories":[],"categories_nodes":[],"categories_segments":[],"categories_sizes":[],"default_left":[0,0,0,0,0,0,0,0,0,0,0,0,0,0,0,0,0,0,0,0,0,0,0,0,0,0,0,0,0,0,0,0,0,0,0,0,0,0,0,0,0,0,0,0,0,0,0,0,0],"id":1,"left_children":[1,3,5,7,9,11,13,-1,15,-1,17,19,21,23,25,27,29,31,33,-1,35,37,39,41,43,45,47,-1,-1,-1,-1,-1,-1,-1,-1,-1,-1,-1,-1,-1,-1,-1,-1,-1,-1,-1,-1,-1,-1],"loss_changes":[5.257933E0,3.4555843E0,3.0359604E0,2.4732878E0,2.7091508E0,1.6044984E0,3.5334957E0,0E0,2.3347273E0,0E0,2.4428754E0,8.401661E-1,1.5082903E0,2.2995074E0,2.5546978E0,1.3787097E0,8.634186E-1,2.0031967E0,2.3356636E0,0E0,4.6296197E-1,9.816613E-1,1.4402659E0,3.0819504E0,3.0766163E0,1.34223E0,1.7463336E0,0E0,0E0,0E0,0E0,0E0,0E0,0E0,0E0,0E0,0E0,0E0,0E0,0E0,0E0,0E0,0E0,0E0,0E0,0E0,0E0,0E0,0E0],"parents":[2147483647,0,0,1,1,2,2,3,3,4,4,5,5,6,6,8,8,10,10,11,11,12,12,13,13,14,14,15,15,16,16,17,17,18,18,20,20,21,21,22,22,23,23,24,24,25,25,26,26],"right_children":[2,4,6,8,10,12,14,-1,16,-1,18,20,22,24,26,28,30,32,34,-1,36,38,40,42,44,46,48,-1,-1,-1,-1,-1,-1,-1,-1,-1,-1,-1,-1,-1,-1,-1,-1,-1,-1,-1,-1,-1,-1],"split_conditions":[-7.2293945E-2,-2.5528067E-1,1.024677E-2,-1.3377976E-1,-1.5393382E-1,5.4665226E-1,9.822466E-2,-3.4644157E-3,-2.9917445E-2,8.674626E-3,4.9801064E-1,3.685734E1,5.3313207E-3,3.197775E-1,-1.8051177E-2,-3.732381E-2,-2.5845015E-1,6.468244E-2,9.8606944E-2,2.9301965E-3,6.941271E-3,2.0466092E-1,-5.188979E-3,6.6161436E-1,-5.4857894E-3,1.3154626E-1,1.659436E-2,6.190256E-3,-2.906645E-3,6.764542E-3,1.4377142E-2,-3.3955702E-3,5.5883336E-3,-4.6095412E-4,-2.602746E-3,-6.038906E-3,-1.0199283E-3,3.6742091E-3,-3.0297504E-3,-2.7918702E-3,2.0438067E-3,-2.5587933E-4,-6.0685067E-3,-7.297231E-4,2.5592519E-3,6.0634567E-5,-1.0901322E-2,-3.112614E-3,3.0565914E-3],"split_indices":[5,4,16,9,7,21,7,0,1,0,21,13,25,5,23,24,5,9,4,0,24,4,5,11,9,7,8,0,0,0,0,0,0,0,0,0,0,0,0,0,0,0,0,0,0,0,0,0,0],"split_type":[0,0,0,0,0,0,0,0,0,0,0,0,0,0,0,0,0,0,0,0,0,0,0,0,0,0,0,0,0,0,0,0,0,0,0,0,0,0,0,0,0,0,0,0,0,0,0,0,0],"sum_hessian":[2.952E4,1.1108E4,1.8412E4,4.2E2,1.0688E4,2.543E3,1.5869E4,9.6E1,3.24E2,7E1,1.0618E4,2.55E2,2.288E3,1.3893E4,1.976E3,1.65E2,1.59E2,1.486E3,9.132E3,7.1E1,1.84E2,1.521E3,7.67E2,1.0964E4,2.929E3,1.11E2,1.865E3,7.9E1,8.6E1,9.4E1,6.5E1,1.422E3,6.4E1,7.604E3,1.528E3,8.8E1,9.6E1,1.465E3,5.6E1,2.12E2,5.55E2,1.0732E4,2.32E2,1.213E3,1.716E3,5.9E1,5.2E1,1.22E2,1.743E3],"tree_param":{"num_deleted":"0","num_feature":"29","num_nodes":"49","size_leaf_vector":"1"}},{"base_weights":[2.3949728E-4,-1.3310648E-2,1.49009535E-2,-3.9784092E-2,-4.4888565E-3,1.004522E-2,5.7182033E-2,-1.0667931E-2,-9.3184635E-2,-2.0868437E-2,2.1234158E-2,2.02911E-2,-4.8505664E-2,6.75072E-2,-4.23574E-3,-8.315728E-2,-2.102145E-3,7.728668E-2,-1.090215E-1,7.27901E-4,-4.7297753E-2,-2.1550138E-2,5.019453E-2,-1.689874E-2,2.5899194E-2,-6.650448E-2,2.6122976E-2,3.637573E-2,1.1286714E-1,-5.061002E-4,-6.459877E-3,-4.0303175E-3,2.052828E-4,-1.3616515E-3,1.0449133E-2,-5.905842E-3,3.6904071E-3,8.7040284E-4,-1.8544778E-3,4.4619716E-3,-2.6417857E-3,-3.7761845E-4,-5.412505E-3,5.5377255E-3,1.2959286E-3,-1.12024696E-4,-5.4734764E-3,1.4814952E-3,-1.944884E-3,-4.5380005E-4,-4.46598E-3,-5.6338403E-4,7.810786E-3,-1.8605049E-3,3.0059812E-3,7.7477293E-3,1.5717673E-3],"categories":[],"categories_nodes":[],"categories_segments":[],"categories_sizes":[],"default_left":[0,0,0,0,0,0,0,0,0,0,0,0,0,0,0,0,0,0,0,0,0,0,0,0,0,0,0,0,0,0,0,0,0,0,0,0,0,0,0,0,0,0,0,0,0,0,0,0,0,0,0,0,0,0,0,0,0],"id":2,"left_children":[1,3,5,7,9,11,13,15,17,19,21,23,25,27,-1,29,31,33,35,37,39,41,43,45,47,49,51,53,55,-1,-1,-1,-1,-1,-1,-1,-1,-1,-1,-1,-1,-1,-1,-1,-1,-1,-1,-1,-1,-1,-1,-1,-1,-1,-1,-1,-1],"loss_changes":[5.8349853E0,3.564625E0,2.8956723E0,5.9306397E0,4.8246965E0,7.592786E0,2.134522E0,1.5335178E0,3.6422644E0,3.9931862E0,5.5210457E0,2.2468815E0,2.533721E0,1.9093184E0,0E0,8.763211E-1,1.077349E0,1.5886462E0,2.0574074E0,2.4298606E0,2.383522E0,2.1824598E0,3.9033227E0,1.9157333E0,2.2638226E0,1.9894395E0,1.786941E0,1.4087443E0,1.8835483E0,0E0,0E0,0E0,0E0,0E0,0E0,0E0,0E0,0E0,0E0,0E0,0E0,0E0,0E0,0E0,0E0,0E0,0E0,0E0,0E0,0E0,0E0,0E0,0E0,0E0,0E0,0E0,0E0],"parents":[2147483647,0,0,1,1,2,2,3,3,4,4,5,5,6,6,7,7,8,8,9,9,10,10,11,11,12,12,13,13,15,15,16,16,17,17,18,18,19,19,20,20,21,21,22,22,23,23,24,24,25,25,26,26,27,27,28,28],"right_children":[2,4,6,8,10,12,14,16,18,20,22,24,26,28,-1,30,32,34,36,38,40,42,44,46,48,50,52,54,56,-1,-1,-1,-1,-1,-1,-1,-1,-1,-1,-1,-1,-1,-1,-1,-1,-1,-1,-1,-1,-1,-1,-1,-1,-1,-1,-1,-1],"split_conditions":[-1.4756076E-1,5.0255866E-3,2.397632E-2,1.7566875E-2,2.051195E-2,1.1167993E-2,4.649799E-1,4.607393E-1,-1.942309E-2,7.939498E-3,9.702019E-3,-1.7543962E-2,2.100578E-2,1.0195461E-1,-4.23574E-3,-8.1404316E-4,-1.8825597E-1,-1.5295687E-1,4.858585E-1,-2.5895761E-2,-9.5014915E-2,8.51624E-3,1.3003099E-1,1.5402782E-1,2.1975348E-2,8.1932545E-1,4.4064492E-1,5.9779664E-3,8.658279E-2,-5.061002E-4,-6.459877E-3,-4.0303175E-3,2.052828E-4,-1.3616515E-3,1.0449133E-2,-5.905842E-3,3.6904071E-3,8.7040284E-4,-1.8544778E-3,4.4619716E-3,-2.6417857E-3,-3.7761845E-4,-5.412505E-3,5.5377255E-3,1.2959286E-3,-1.12024696E-4,-5.4734764E-3,1.4814952E-3,-1.944884E-3,-4.5380005E-4,-4.46598E-3,-5.6338403E-4,7.810786E-3,-1.8605049E-3,3.0059812E-3,7.7477293E-3,1.5717673E-3],"split_indices":[10,25,17,17,17,25,8,21,23,25,25,26,17,27,0,24,28,5,5,28,9,25,11,8,17,21,11,25,9,0,0,0,0,0,0,0,0,0,0,0,0,0,0,0,0,0,0,0,0,0,0,0,0,0,0,0,0],"split_type":[0,0,0,0,0,0,0,0,0,0,0,0,0,0,0,0,0,0,0,0,0,0,0,0,0,0,0,0,0,0,0,0,0,0,0,0,0,0,0,0,0,0,0,0,0,0,0,0,0,0,0,0,0,0,0,0,0],"sum_hessian":[2.9369E4,1.5263E4,1.4106E4,3.814E3,1.1449E4,1.2654E4,1.452E3,2.469E3,1.345E3,6.995E3,4.454E3,1.077E4,1.884E3,1.354E3,9.8E1,2.6E2,2.209E3,1.14E2,1.231E3,3.85E3,3.145E3,1.798E3,2.656E3,1.411E3,9.359E3,1.518E3,3.66E2,8.04E2,5.5E2,1.01E2,1.59E2,1.61E2,2.048E3,6.4E1,5E1,1.173E3,5.8E1,2.672E3,1.178E3,1.22E2,3.023E3,1.549E3,2.49E2,7.59E2,1.897E3,1.219E3,1.92E2,8.85E3,5.09E2,4.32E2,1.086E3,2.85E2,8.1E1,1.96E2,6.08E2,3.62E2,1.88E2],"tree_param":{"num_deleted":"0","num_feature":"29","num_nodes":"57","size_leaf_vector":"1"}},{"base_weights":[7.1917684E-4,1.7412161E-2,-8.363628E-3,-7.408584E-2,2.32901E-2,-1.6143678E-2,2.6314225E-2,-9.307419E-2,1.1845045E-2,-1.884995E-2,3.1410377E-2,-3.160591E-2,-1.6323163E-3,9.567289E-2,9.594605E-3,-4.2841826E-2,-1.3620956E-1,2.9161114E-3,-1.7017516E-3,-2.4503924E-2,7.0271655E-3,3.6443748E-2,-3.5380658E-2,-3.6629863E-2,5.5182725E-2,-1.357281E-2,3.332997E-2,-3.8065825E-2,1.3187635E-1,-2.5632752E-2,3.075364E-2,-7.0909928E-3,-7.5447117E-4,-1.1915351E-2,-4.3444666E-3,-5.7023804E-4,-3.3554235E-3,-6.6185454E-3,1.8971683E-3,-2.9355285E-3,4.767585E-3,4.0930263E-3,-1.9929698E-3,1.1487876E-2,9.3896186E-4,-2.9417523E-3,-3.700227E-4,5.621182E-3,1.1263961E-3,1.3100541E-3,-6.3497024E-3,7.522023E-3,-7.1167573E-4,-8.782278E-3,1.0127889E-5,-1.2853996E-4,3.6813747E-3],"categories":[],"categories_nodes":[],"categories_segments":[],"categories_sizes":[],"default_left":[0,0,0,0,0,0,0,0,0,0,0,0,0,0,0,0,0,0,0,0,0,0,0,0,0,0,0,0,0,0,0,0,0,0,0,0,0,0,0,0,0,0,0,0,0,0,0,0,0,0,0,0,0,0,0,0,0],"id":3,"left_children":[1,3,5,7,9,11,13,15,17,19,21,23,25,27,29,31,33,-1,-1,35,-1,37,39,41,43,45,47,49,51,53,55,-1,-1,-1,-1,-1,-1,-1,-1,-1,-1,-1,-1,-1,-1,-1,-1,-1,-1,-1,-1,-1,-1,-1,-1,-1,-1],"loss_changes":[4.4533505E0,5.5681586E0,5.132473E0,1.0209057E0,3.3287215E0,3.4861107E0,4.0416236E0,1.1035619E0,2.4507591E-1,1.4201386E0,2.7428694E0,3.2817764E0,3.3468673E0,3.2829213E0,2.0952973E0,6.5161693E-1,1.364049E0,0E0,0E0,8.4696406E-1,0E0,1.9249697E0,1.7501832E0,2.7244196E0,2.6139996E0,1.6691073E0,1.7412441E0,8.320228E-1,1.4478493E0,4.088822E0,2.5090694E0,0E0,0E0,0E0,0E0,0E0,0E0,0E0,0E0,0E0,0E0,0E0,0E0,0E0,0E0,0E0,0E0,0E0,0E0,0E0,0E0,0E0,0E0,0E0,0E0,0E0,0E0],"parents":[2147483647,0,0,1,1,2,2,3,3,4,4,5,5,6,6,7,7,8,8,9,9,10,10,11,11,12,12,13,13,14,14,15,15,16,16,19,19,21,21,22,22,23,23,24,24,25,25,26,26,27,27,28,28,29,29,30,30],"right_children":[2,4,6,8,10,12,14,16,18,20,22,24,26,28,30,32,34,-1,-1,36,-1,38,40,42,44,46,48,50,52,54,56,-1,-1,-1,-1,-1,-1,-1,-1,-1,-1,-1,-1,-1,-1,-1,-1,-1,-1,-1,-1,-1,-1,-1,-1,-1,-1],"split_conditions":[2.1902297E-2,-1.9420367E-2,3.8409546E-2,3.8425896E-2,5.79678E-1,1.8107796E-3,-1.7151336E-1,-2.4710983E-2,8.392375E-2,4.0794724E-1,1.1167993E-2,3.827479E-2,2.1587431E-1,-2.731578E-1,1.0922533E-2,-4.1758068E-2,1.8602895E-2,2.9161114E-3,-1.7017516E-3,3.3372555E-2,7.0271655E-3,-1.9871053E-1,1.8435506E-2,-1.5393382E-1,-9.743781E-2,4.835025E-3,4.776387E-3,-1.3168326E-1,-3.377408E-2,-1.8726778E-1,3.064627E-2,-7.0909928E-3,-7.5447117E-4,-1.1915351E-2,-4.3444666E-3,-5.7023804E-4,-3.3554235E-3,-6.6185454E-3,1.8971683E-3,-2.9355285E-3,4.767585E-3,4.0930263E-3,-1.9929698E-3,1.1487876E-2,9.3896186E-4,-2.9417523E-3,-3.700227E-4,5.621182E-3,1.1263961E-3,1.3100541E-3,-6.3497024E-3,7.522023E-3,-7.1167573E-4,-8.782278E-3,1.0127889E-5,-1.2853996E-4,3.6813747E-3],"split_indices":[18,26,18,3,21,9,4,28,28,5,25,26,5,28,25,9,18,0,0,28,0,28,17,7,27,25,25,5,7,5,16,0,0,0,0,0,0,0,0,0,0,0,0,0,0,0,0,0,0,0,0,0,0,0,0,0,0],"split_type":[0,0,0,0,0,0,0,0,0,0,0,0,0,0,0,0,0,0,0,0,0,0,0,0,0,0,0,0,0,0,0,0,0,0,0,0,0,0,0,0,0,0,0,0,0,0,0,0,0,0,0,0,0,0,0,0,0],"sum_hessian":[2.937E4,1.0349E4,1.9021E4,6.24E2,9.725E3,1.5536E4,3.485E3,5.11E2,1.13E2,1.571E3,8.154E3,7.521E3,8.015E3,6.76E2,2.809E3,2.37E2,2.74E2,5.6E1,5.7E1,1.518E3,5.3E1,7.583E3,5.71E2,7.11E3,4.11E2,5.975E3,2.04E3,1.44E2,5.32E2,1.054E3,1.755E3,5.1E1,1.86E2,8.8E1,1.86E2,1.162E3,3.56E2,6.6E1,7.517E3,4.85E2,8.6E1,1.88E2,6.922E3,7E1,3.41E2,7.16E2,5.259E3,2.44E2,1.796E3,8.4E1,6E1,4.72E2,6E1,1.54E2,9E2,9.88E2,7.67E2],"tree_param":{"num_deleted":"0","num_feature":"29","num_nodes":"57","size_leaf_vector":"1"}},{"base_weights":[-8.1914413E-4,-1.4507043E-2,1.42151965E-2,-3.9975096E-2,-6.047345E-3,7.594544E-3,4.8373368E-2,-8.810056E-3,-8.268657E-2,1.5967166E-2,-1.959555E-2,1.2064833E-2,-3.03982E-2,7.703384E-2,6.355998E-3,-3.7946142E-2,9.766939E-3,3.3518884E-2,-9.119661E-2,-7.0140013E-3,5.103729E-2,-1.2187603E-2,-4.851175E-2,4.666874E-3,5.0269656E-2,-1.7222691E-2,-9.606422E-2,-1.125973E-2,9.546147E-2,8.5766934E-2,-2.016175E-2,-8.539847E-3,-1.3455466E-3,2.7399797E-3,-6.2435394E-4,-4.1200966E-3,6.4943396E-3,-3.306303E-3,-6.9095665E-3,9.482877E-4,-3.1406458E-3,-1.6681213E-3,3.7322044E-3,-8.1613986E-4,2.7706036E-3,-7.6189975E-4,-4.167761E-3,9.5002056E-4,-5.5049715E-4,7.7690603E-3,1.8238735E-3,-1.575958E-3,3.2105956E-3,-1.9382524E-3,-8.6996695E-3,4.1392813E-3,-3.1269684E-3,5.1699146E-3,-3.453951E-3,6.4302855E-3,8.575249E-5,-3.9256527E-3,3.4841665E-3],"categories":[],"categories_nodes":[],"categories_segments":[],"categories_sizes":[],"default_left":[0,0,0,0,0,0,0,0,0,0,0,0,0,0,0,0,0,0,0,0,0,0,0,0,0,0,0,0,0,0,0,0,0,0,0,0,0,0,0,0,0,0,0,0,0,0,0,0,0,0,0,0,0,0,0,0,0,0,0,0,0,0,0],"id":4,"left_children":[1,3,5,7,9,11,13,15,17,19,21,23,25,27,29,31,33,35,37,39,41,43,45,47,49,51,53,55,57,59,61,-1,-1,-1,-1,-1,-1,-1,-1,-1,-1,-1,-1,-1,-1,-1,-1,-1,-1,-1,-1,-1,-1,-1,-1,-1,-1,-1,-1,-1,-1,-1,-1],"loss_changes":[6.040717E0,3.3101785E0,3.1632364E0,5.0987353E0,3.4407086E0,1.9907047E0,2.7343335E0,1.199805E0,1.60114E0,3.542519E0,1.5290802E0,2.9635048E0,1.0659816E0,2.1975813E0,1.9432759E0,1.2605934E0,1.3576055E0,1.2506891E0,1.7652054E0,3.851441E0,3.4692788E0,1.5903563E0,1.6867774E0,1.9744607E0,2.4603033E0,1.2000138E0,9.131018E-1,1.1336687E0,1.4658623E0,8.3153653E-1,3.6333344E0,0E0,0E0,0E0,0E0,0E0,0E0,0E0,0E0,0E0,0E0,0E0,0E0,0E0,0E0,0E0,0E0,0E0,0E0,0E0,0E0,0E0,0E0,0E0,0E0,0E0,0E0,0E0,0E0,0E0,0E0,0E0,0E0],"parents":[2147483647,0,0,1,1,2,2,3,3,4,4,5,5,6,6,7,7,8,8,9,9,10,10,11,11,12,12,13,13,14,14,15,15,16,16,17,17,18,18,19,19,20,20,21,21,22,22,23,23,24,24,25,25,26,26,27,27,28,28,29,29,30,30],"right_children":[2,4,6,8,10,12,14,16,18,20,22,24,26,28,30,32,34,36,38,40,42,44,46,48,50,52,54,56,58,60,62,-1,-1,-1,-1,-1,-1,-1,-1,-1,-1,-1,-1,-1,-1,-1,-1,-1,-1,-1,-1,-1,-1,-1,-1,-1,-1,-1,-1,-1,-1,-1,-1],"split_conditions":[-1.4576215E-1,5.0255866E-3,7.155111E1,1.6669612E-2,-2.8379706E-1,4.3209936E-2,1.7922318E-2,7.441219E-1,-2.0887513E-2,1.1167993E-2,6.247297E1,3.7728742E-1,2.4703903E-1,-6.0887042E-2,5.1599042E-3,-1.8045413E-1,9.336435E-1,-2.6727355E-1,2.2169331E-2,6.5994384E-3,1.8748289E-2,5.6751907E-2,7.131809E-2,1.4287759E-2,4.668261E-3,2.5116125E-2,3.6689866E-2,2.164027E-2,1.133442E0,7.936647E1,2.1521745E-2,-8.539847E-3,-1.3455466E-3,2.7399797E-3,-6.2435394E-4,-4.1200966E-3,6.4943396E-3,-3.306303E-3,-6.9095665E-3,9.482877E-4,-3.1406458E-3,-1.6681213E-3,3.7322044E-3,-8.1613986E-4,2.7706036E-3,-7.6189975E-4,-4.167761E-3,9.5002056E-4,-5.5049715E-4,7.7690603E-3,1.8238735E-3,-1.575958E-3,3.2105956E-3,-1.9382524E-3,-8.6996695E-3,4.1392813E-3,-3.1269684E-3,5.1699146E-3,-3.453951E-3,6.4302855E-3,8.575249E-5,-3.9256527E-3,3.4841665E-3],"split_indices":[10,25,13,17,10,1,26,21,23,25,13,5,4,5,25,4,21,5,17,25,17,24,3,17,25,17,18,1,11,13,17,0,0,0,0,0,0,0,0,0,0,0,0,0,0,0,0,0,0,0,0,0,0,0,0,0,0,0,0,0,0,0,0],"split_type":[0,0,0,0,0,0,0,0,0,0,0,0,0,0,0,0,0,0,0,0,0,0,0,0,0,0,0,0,0,0,0,0,0,0,0,0,0,0,0,0,0,0,0,0,0,0,0,0,0,0,0,0,0,0,0,0,0,0,0,0,0,0,0],"sum_hessian":[2.9352E4,1.5364E4,1.3988E4,3.83E3,1.1534E4,1.1718E4,2.27E3,2.215E3,1.615E3,4.394E3,7.14E3,1.0485E4,1.233E3,1.349E3,9.21E2,8.62E2,1.353E3,1.1E2,1.505E3,2.655E3,1.739E3,5.685E3,1.455E3,8.785E3,1.7E3,1.028E3,2.05E2,2.33E2,1.116E3,2.3E2,6.91E2,6.5E1,7.97E2,4.47E2,9.06E2,5E1,6E1,9.83E2,5.22E2,1.812E3,8.43E2,3.8E2,1.359E3,5.358E3,3.27E2,7.45E2,7.1E2,4.589E3,4.196E3,1.96E2,1.504E3,8.75E2,1.53E2,1.19E2,8.6E1,8.2E1,1.51E2,1.065E3,5.1E1,1.52E2,7.8E1,4.19E2,2.72E2],"tree_param":{"num_deleted":"0","num_feature":"29","num_nodes":"63","size_leaf_vector":"1"}},{"base_weights":[1.1304663E-3,-9.290801E-3,1.3718873E-2,5.0725054E-2,-1.2840492E-2,3.858337E-2,2.5479423E-3,8.256964E-2,-1.38823455E-2,-1.4884308E-2,5.201787E-2,5.0937474E-2,-7.2367587E-3,-7.60988E-3,3.8228534E-2,2.3729049E-2,1.4311337E-1,1.635808E-2,-7.101399E-3,-1.3716742E-2,-1.3321593E-1,7.805849E-2,-4.2604346E-2,3.8604513E-2,1.0515486E-1,-9.920249E-2,3.369912E-2,4.030952E-3,-6.1552566E-2,9.978931E-3,7.082287E-2,4.3438855E-3,-4.2727143E-3,4.0994245E-3,9.746957E-3,-4.6165376E-3,3.5806762E-3,-4.044736E-4,-1.5935572E-3,-1.2953869E-2,-2.0115327E-3,-3.3360177E-3,5.755219E-3,-8.2229925E-3,4.0043257E-3,-6.702454E-4,2.3331998E-3,4.221542E-3,1.2962493E-2,-9.454628E-3,-1.2715275E-3,-1.5450864E-3,3.108911E-3,4.276838E-4,-3.5529148E-3,-2.539818E-3,-9.790401E-3,6.1303987E-3,-5.0071854E-4,-1.1920219E-4,5.3570485E-3],"categories":[],"categories_nodes":[],"categories_segments":[],"categories_sizes":[],"default_left":[0,0,0,0,0,0,0,0,0,0,0,0,0,0,0,0,0,0,0,0,0,0,0,0,0,0,0,0,0,0,0,0,0,0,0,0,0,0,0,0,0,0,0,0,0,0,0,0,0,0,0,0,0,0,0,0,0,0,0,0,0],"id":5,"left_children":[1,3,5,7,9,11,13,15,17,19,21,23,25,27,29,31,33,35,-1,37,39,41,43,45,47,49,51,53,55,57,59,-1,-1,-1,-1,-1,-1,-1,-1,-1,-1,-1,-1,-1,-1,-1,-1,-1,-1,-1,-1,-1,-1,-1,-1,-1,-1,-1,-1,-1,-1],"loss_changes":[3.8637207E0,3.4333274E0,3.7049372E0,1.8528018E0,2.0175214E0,2.341054E0,3.3365245E0,2.1447482E0,1.1571264E0,2.0360322E0,1.1490954E0,2.17377E0,3.3125126E0,4.5000496E0,1.8776789E0,2.1241217E0,9.248667E-1,1.4599793E0,0E0,1.4919894E0,1.6748469E0,1.9653432E0,1.523177E0,1.1135197E0,1.9037714E0,1.7922912E0,1.1223437E0,2.0025966E0,1.8269219E0,2.464726E0,2.5180783E0,0E0,0E0,0E0,0E0,0E0,0E0,0E0,0E0,0E0,0E0,0E0,0E0,0E0,0E0,0E0,0E0,0E0,0E0,0E0,0E0,0E0,0E0,0E0,0E0,0E0,0E0,0E0,0E0,0E0,0E0],"parents":[2147483647,0,0,1,1,2,2,3,3,4,4,5,5,6,6,7,7,8,8,9,9,10,10,11,11,12,12,13,13,14,14,15,15,16,16,17,17,19,19,20,20,21,21,22,22,23,23,24,24,25,25,26,26,27,27,28,28,29,29,30,30],"right_children":[2,4,6,8,10,12,14,16,18,20,22,24,26,28,30,32,34,36,-1,38,40,42,44,46,48,50,52,54,56,58,60,-1,-1,-1,-1,-1,-1,-1,-1,-1,-1,-1,-1,-1,-1,-1,-1,-1,-1,-1,-1,-1,-1,-1,-1,-1,-1,-1,-1,-1,-1],"split_conditions":[-1.3637425E-1,-1.2914637E-1,5.0313505E-3,-7.578237E-3,3.3879876E-2,1.7566875E-2,2.1102645E-2,2.2766838E1,-2.7113092E-1,4.01331E0,1.4013074E-1,6.974856E1,4.785161E-1,1.13292355E-2,1.1182042E-2,-1.2358604E-1,2.0237692E-2,1.3903371E-2,-7.101399E-3,1.7891627E-2,-2.0980674E-1,9.519353E-3,-7.15075E-2,6.017197E-1,1.6553622E-2,2.8532801E-2,2.0380596E-2,2.4389142E-1,9.063337E-2,2.1975348E-2,5.25866E-2,4.3438855E-3,-4.2727143E-3,4.0994245E-3,9.746957E-3,-4.6165376E-3,3.5806762E-3,-4.044736E-4,-1.5935572E-3,-1.2953869E-2,-2.0115327E-3,-3.3360177E-3,5.755219E-3,-8.2229925E-3,4.0043257E-3,-6.702454E-4,2.3331998E-3,4.221542E-3,1.2962493E-2,-9.454628E-3,-1.2715275E-3,-1.5450864E-3,3.108911E-3,4.276838E-4,-3.5529148E-3,-2.539818E-3,-9.790401E-3,6.1303987E-3,-5.0071854E-4,-1.1920219E-4,5.3570485E-3],"split_indices":[10,7,25,24,17,17,17,13,10,21,27,13,11,25,25,28,17,11,0,28,5,25,8,21,17,28,17,8,24,17,7,0,0,0,0,0,0,0,0,0,0,0,0,0,0,0,0,0,0,0,0,0,0,0,0,0,0,0,0,0,0],"split_type":[0,0,0,0,0,0,0,0,0,0,0,0,0,0,0,0,0,0,0,0,0,0,0,0,0,0,0,0,0,0,0,0,0,0,0,0,0,0,0,0,0,0,0,0,0,0,0,0,0,0,0,0,0,0,0,0,0,0,0,0,0],"sum_hessian":[2.945E4,1.6112E4,1.3338E4,8.99E2,1.5213E4,4.134E3,9.204E3,6.02E2,2.97E2,1.4749E4,4.64E2,3.256E3,8.78E2,7.165E3,2.039E3,3.06E2,2.96E2,2.41E2,5.6E1,1.4606E4,1.43E2,3.64E2,1E2,2.654E3,6.02E2,2.7E2,6.08E2,5.894E3,1.271E3,1.093E3,9.46E2,1.94E2,1.12E2,1.37E2,1.59E2,8.1E1,1.6E2,1.1151E4,3.455E3,6E1,8.3E1,7.4E1,2.9E2,5E1,5E1,3.56E2,2.298E3,5.32E2,7E1,1.21E2,1.49E2,1.86E2,4.22E2,5.56E3,3.34E2,1.178E3,9.3E1,1.64E2,9.29E2,3.14E2,6.32E2],"tree_param":{"num_deleted":"0","num_feature":"29","num_nodes":"61","size_leaf_vector":"1"}},{"base_weights":[3.6602592E-4,-1.1854693E-2,1.2486004E-2,5.9768528E-2,-1.4905023E-2,-7.651219E-2,1.4709311E-2,7.651023E-2,-6.0154903E-3,-2.4241582E-2,7.4003264E-3,-1.0358176E-1,-9.403997E-3,1.0851733E-2,5.0485123E-2,4.7582984E-2,1.8192284E-1,-2.7659737E-2,3.7617043E-2,5.4232568E-2,-1.14913015E-2,-7.888186E-2,-9.497301E-3,2.9009064E-3,-3.7688285E-3,1.9219374E-2,-3.7238404E-2,2.7437706E-2,1.9121662E-1,7.917642E-3,1.1642965E-3,3.2240977E-3,1.462085E-2,-1.2473863E-3,-5.5762907E-3,4.7253514E-5,8.13349E-3,3.1779378E-3,-5.372133E-3,2.9570118E-3,-8.8838645E-4,-6.0897246E-3,-5.100313E-4,-6.9439266E-4,1.2203654E-3,-2.6331209E-3,2.1443784E-3,4.2244704E-3,-1.999146E-4,1.517316E-2,7.4821967E-3],"categories":[],"categories_nodes":[],"categories_segments":[],"categories_sizes":[],"default_left":[0,0,0,0,0,0,0,0,0,0,0,0,0,0,0,0,0,0,0,0,0,0,0,0,0,0,0,0,0,0,0,0,0,0,0,0,0,0,0,0,0,0,0,0,0,0,0,0,0,0,0],"id":6,"left_children":[1,3,5,7,9,11,13,15,-1,17,19,21,23,25,27,29,31,33,35,37,39,41,-1,-1,-1,43,45,47,49,-1,-1,-1,-1,-1,-1,-1,-1,-1,-1,-1,-1,-1,-1,-1,-1,-1,-1,-1,-1,-1,-1],"loss_changes":[4.331322E0,3.1820974E0,2.9062567E0,1.803021E0,2.9088795E0,6.493652E-1,1.9764168E0,1.6532099E0,0E0,2.082902E0,3.6475105E0,5.2897954E-1,4.6696633E-1,5.2045655E0,4.5161886E0,1.1509151E0,1.4993985E0,2.119512E0,2.3661866E0,1.7935877E0,1.3035065E0,5.882163E-1,0E0,0E0,0E0,1.892426E0,2.37141E0,2.150717E0,8.692012E-1,0E0,0E0,0E0,0E0,0E0,0E0,0E0,0E0,0E0,0E0,0E0,0E0,0E0,0E0,0E0,0E0,0E0,0E0,0E0,0E0,0E0,0E0],"parents":[2147483647,0,0,1,1,2,2,3,3,4,4,5,5,6,6,7,7,9,9,10,10,11,11,12,12,13,13,14,14,15,15,16,16,17,17,18,18,19,19,20,20,21,21,25,25,26,26,27,27,28,28],"right_children":[2,4,6,8,10,12,14,16,-1,18,20,22,24,26,28,30,32,34,36,38,40,42,-1,-1,-1,44,46,48,50,-1,-1,-1,-1,-1,-1,-1,-1,-1,-1,-1,-1,-1,-1,-1,-1,-1,-1,-1,-1,-1,-1],"split_conditions":[-1.579339E-1,-1.462944E-1,-4.2618744E-2,2.2371026E-2,1.8272197E-2,3.7084863E-2,2.397632E-2,2.561055E-2,-6.0154903E-3,2.9670527E-2,1.0948218E-1,2.2470815E-2,8.090426E-2,1.1167993E-2,1.5392747E-2,1.5727185E-2,-3.9219165E-1,8.118911E-2,1.4733269E-2,2.8596038E-2,1.9731294E-2,2.0645807E-2,-9.497301E-3,2.9009064E-3,-3.7688285E-3,-1.7543962E-2,2.1420367E-2,2.5400799E-2,2.8371133E-2,7.917642E-3,1.1642965E-3,3.2240977E-3,1.462085E-2,-1.2473863E-3,-5.5762907E-3,4.7253514E-5,8.13349E-3,3.1779378E-3,-5.372133E-3,2.9570118E-3,-8.8838645E-4,-6.0897246E-3,-5.100313E-4,-6.9439266E-4,1.2203654E-3,-2.6331209E-3,2.1443784E-3,4.2244704E-3,-1.999146E-4,1.517316E-2,7.4821967E-3],"split_indices":[10,7,9,26,24,18,17,17,0,17,11,17,1,25,25,16,8,8,25,9,18,16,0,0,0,26,17,17,16,0,0,0,0,0,0,0,0,0,0,0,0,0,0,0,0,0,0,0,0,0,0],"split_type":[0,0,0,0,0,0,0,0,0,0,0,0,0,0,0,0,0,0,0,0,0,0,0,0,0,0,0,0,0,0,0,0,0,0,0,0,0,0,0,0,0,0,0,0,0,0,0,0,0,0,0],"sum_hessian":[2.9241E4,1.456E4,1.4681E4,5.94E2,1.3966E4,3.57E2,1.4324E4,5.44E2,5E1,9.845E3,4.121E3,2.54E2,1.03E2,1.2931E4,1.393E3,4.28E2,1.16E2,9.33E3,5.15E2,1.184E3,2.937E3,1.99E2,5.5E1,5.1E1,5.2E1,1.1015E4,1.916E3,1.198E3,1.95E2,7.6E1,3.52E2,5.7E1,5.9E1,9.039E3,2.91E2,3.99E2,1.16E2,1.12E3,6.4E1,2.39E2,2.698E3,1.22E2,7.7E1,1.492E3,9.523E3,1.607E3,3.09E2,4.25E2,7.73E2,5.1E1,1.44E2],"tree_param":{"num_deleted":"0","num_feature":"29","num_nodes":"51","size_leaf_vector":"1"}},{"base_weights":[2.6483377E-4,-1.07549215E-2,1.2432922E-2,-1.657431E-2,2.9101226E-2,-1.9353712E-2,1.8244036E-2,4.96851E-3,-2.5199573E-2,7.640002E-2,-2.9960928E-2,-3.747819E-2,8.126833E-2,2.7963364E-2,-5.547386E-4,1.0376079E-2,-7.6413564E-2,-3.1965114E-2,2.309061E-2,-3.616643E-3,8.557641E-2,-1.1594447E-1,-8.758775E-3,-1.8818712E-2,-1.2167018E-1,1.0825447E-1,-2.0986756E-3,-1.7128002E-2,3.3287447E-2,-1.1831256E-2,5.8264986E-2,-1.725295E-3,9.532135E-4,7.432913E-4,-5.213752E-3,-4.6578678E-4,-2.3172107E-3,5.0775497E-3,-2.5818148E-4,-4.2139256E-4,4.9410695E-3,-2.5106338E-4,-8.739865E-3,-1.2033819E-3,5.2169743E-3,-1.3440109E-3,4.7155577E-3,-2.3527225E-3,-7.5253933E-3,1.001983E-2,3.789406E-3,1.738171E-5,-5.3493334E-3,3.1117173E-3,1.2062242E-3,-3.353594E-4,-7.430704E-3,-1.993877E-3,3.8766244E-3],"categories":[],"categories_nodes":[],"categories_segments":[],"categories_sizes":[],"default_left":[0,0,0,0,0,0,0,0,0,0,0,0,0,0,0,0,0,0,0,0,0,0,0,0,0,0,0,0,0,0,0,0,0,0,0,0,0,0,0,0,0,0,0,0,0,0,0,0,0,0,0,0,0,0,0,0,0,0,0],"id":7,"left_children":[1,3,5,7,9,11,13,15,17,19,21,23,25,27,29,31,33,35,37,-1,39,41,43,45,47,49,-1,51,53,55,57,-1,-1,-1,-1,-1,-1,-1,-1,-1,-1,-1,-1,-1,-1,-1,-1,-1,-1,-1,-1,-1,-1,-1,-1,-1,-1,-1,-1],"loss_changes":[3.9422266E0,3.5788283E0,2.5812013E0,2.5017188E0,5.494445E0,3.9422855E0,2.1583865E0,1.6950974E0,3.1417208E0,1.4965854E0,1.5941412E0,2.874172E0,1.1020644E0,1.8699965E0,2.671724E0,1.4087427E0,6.1191297E-1,2.746008E0,2.6208272E0,0E0,1.2820244E0,1.1284914E0,1.2196895E0,1.3705306E0,7.072978E-1,7.955141E-1,0E0,1.2924248E0,1.8458905E0,2.3679926E0,1.2284348E0,0E0,0E0,0E0,0E0,0E0,0E0,0E0,0E0,0E0,0E0,0E0,0E0,0E0,0E0,0E0,0E0,0E0,0E0,0E0,0E0,0E0,0E0,0E0,0E0,0E0,0E0,0E0,0E0],"parents":[2147483647,0,0,1,1,2,2,3,3,4,4,5,5,6,6,7,7,8,8,9,9,10,10,11,11,12,12,13,13,14,14,15,15,16,16,17,17,18,18,20,20,21,21,22,22,23,23,24,24,25,25,27,27,28,28,29,29,30,30],"right_children":[2,4,6,8,10,12,14,16,18,20,22,24,26,28,30,32,34,36,38,-1,40,42,44,46,48,50,-1,52,54,56,58,-1,-1,-1,-1,-1,-1,-1,-1,-1,-1,-1,-1,-1,-1,-1,-1,-1,-1,-1,-1,-1,-1,-1,-1,-1,-1,-1,-1],"split_conditions":[-1.4576215E-1,4.0090743E-2,-1.7543962E-2,2.149121E-2,-9.065796E-2,2.3000194E-2,1.6859237E-2,6.3119665E-2,4.4871192E-2,1.9022634E-2,6.7914844E-1,1.3293296E-1,1.4560981E0,-7.0004E-2,2.3838181E-2,5.196913E-1,-2.554666E-1,-1.9248717E-2,1.20721124E-1,-3.616643E-3,-2.731578E-1,-1.0626177E-2,8.46965E-1,6.33171E-1,9.2144924E-1,-4.670384E-1,-2.0986756E-3,1.3078022E-1,2.2523655E-1,9.063337E-2,4.1195467E-2,-1.725295E-3,9.532135E-4,7.432913E-4,-5.213752E-3,-4.6578678E-4,-2.3172107E-3,5.0775497E-3,-2.5818148E-4,-4.2139256E-4,4.9410695E-3,-2.5106338E-4,-8.739865E-3,-1.2033819E-3,5.2169743E-3,-1.3440109E-3,4.7155577E-3,-2.3527225E-3,-7.5253933E-3,1.001983E-2,3.789406E-3,1.738171E-5,-5.3493334E-3,3.1117173E-3,1.2062242E-3,-3.353594E-4,-7.430704E-3,-1.993877E-3,3.8766244E-3],"split_indices":[10,18,26,18,8,17,24,28,26,17,21,8,21,5,17,21,10,1,11,0,28,0,19,11,21,14,0,8,11,24,7,0,0,0,0,0,0,0,0,0,0,0,0,0,0,0,0,0,0,0,0,0,0,0,0,0,0,0,0],"split_type":[0,0,0,0,0,0,0,0,0,0,0,0,0,0,0,0,0,0,0,0,0,0,0,0,0,0,0,0,0,0,0,0,0,0,0,0,0,0,0,0,0,0,0,0,0,0,0,0,0,0,0,0,0,0,0,0,0,0,0],"sum_hessian":[2.9398E4,1.5427E4,1.3971E4,1.3462E4,1.965E3,2.159E3,1.1812E4,3.849E3,9.613E3,1.091E3,8.74E2,1.83E3,3.29E2,7.786E3,4.026E3,3.61E3,2.39E2,8.432E3,1.181E3,6.3E1,1.028E3,1.72E2,7.02E2,1.499E3,3.31E2,2.7E2,5.9E1,8.22E2,6.964E3,3.379E3,6.47E2,5.85E2,3.025E3,5.6E1,1.83E2,3.275E3,5.157E3,3.12E2,8.69E2,1.27E2,9.01E2,6E1,1.12E2,6.19E2,8.3E1,1.4E3,9.9E1,9.3E1,2.38E2,6.9E1,2.01E2,6.89E2,1.33E2,1.673E3,5.291E3,3.258E3,1.21E2,1.06E2,5.41E2],"tree_param":{"num_deleted":"0","num_feature":"29","num_nodes":"59","size_leaf_vector":"1"}},{"base_weights":[-5.265999E-4,-1.2161409E-2,1.1056893E-2,-3.618559E-2,-8.1268715E-4,3.632043E-2,5.2713277E-3,-2.2908498E-2,-1.1553837E-1,2.9256701E-2,-9.790273E-3,-2.3899188E-2,4.51633E-2,-1.5950719E-3,3.246475E-2,7.1613565E-2,-2.8122118E-2,-1.3223639E-1,3.9314176E-3,-6.864905E-3,7.001738E-2,-2.278778E-2,1.3366555E-2,-6.24165E-2,5.0149705E-2,-7.2230404E-4,5.8631733E-2,-7.91646E-3,2.2746125E-2,3.7598025E-2,-5.1086335E-3,1.0892775E-2,1.2421841E-3,-7.868736E-4,-4.1276924E-3,-8.006658E-3,-1.8503076E-3,1.8689837E-3,-2.95997E-3,4.9765664E-3,-1.0341003E-3,1.983844E-4,-2.2762688E-3,3.3502665E-3,-7.730982E-5,4.9884224E-5,-4.854479E-3,-9.855255E-4,5.5320105E-3,1.7918147E-3,-4.137862E-3,4.548594E-3,1.9342726E-3,6.248193E-5,-2.6096634E-3,4.7686766E-3,3.5941318E-4,2.3319277E-4,3.0960038E-3],"categories":[],"categories_nodes":[],"categories_segments":[],"categories_sizes":[],"default_left":[0,0,0,0,0,0,0,0,0,0,0,0,0,0,0,0,0,0,0,0,0,0,0,0,0,0,0,0,0,0,0,0,0,0,0,0,0,0,0,0,0,0,0,0,0,0,0,0,0,0,0,0,0,0,0,0,0,0,0],"id":8,"left_children":[1,3,5,7,9,11,13,15,17,19,21,23,25,27,29,31,33,35,-1,37,39,41,43,45,47,49,51,53,55,57,-1,-1,-1,-1,-1,-1,-1,-1,-1,-1,-1,-1,-1,-1,-1,-1,-1,-1,-1,-1,-1,-1,-1,-1,-1,-1,-1,-1,-1],"loss_changes":[3.9608054E0,3.9974728E0,2.1523633E0,4.953367E0,2.6887238E0,1.4622984E0,2.2377148E0,1.9885001E0,2.1956396E0,3.3721428E0,2.3088288E0,1.007092E0,1.4789333E0,1.4725636E0,1.673614E0,1.4377682E0,2.574505E0,1.6438332E0,0E0,2.8155665E0,2.8823996E0,2.989029E0,2.2062323E0,5.102103E-1,5.1351225E-1,1.6344665E0,1.1898518E0,3.083274E0,2.2286606E0,1.8645015E0,0E0,0E0,0E0,0E0,0E0,0E0,0E0,0E0,0E0,0E0,0E0,0E0,0E0,0E0,0E0,0E0,0E0,0E0,0E0,0E0,0E0,0E0,0E0,0E0,0E0,0E0,0E0,0E0,0E0],"parents":[2147483647,0,0,1,1,2,2,3,3,4,4,5,5,6,6,7,7,8,8,9,9,10,10,11,11,12,12,13,13,14,14,15,15,16,16,17,17,19,19,20,20,21,21,22,22,23,23,24,24,25,25,26,26,27,27,28,28,29,29],"right_children":[2,4,6,8,10,12,14,16,18,20,22,24,26,28,30,32,34,36,-1,38,40,42,44,46,48,50,52,54,56,58,-1,-1,-1,-1,-1,-1,-1,-1,-1,-1,-1,-1,-1,-1,-1,-1,-1,-1,-1,-1,-1,-1,-1,-1,-1,-1,-1,-1,-1],"split_conditions":[-1.579339E-1,5.214045E-3,1.0378869E-2,2.2271335E-2,-3.355737E-1,8.832518E-3,8.857314E-2,-1.0576384E-1,4.6173546E-1,1.082691E-2,2.051195E-2,1.0089934E-2,-2.5791012E-2,2.0380596E-2,4.649799E-1,-2.2975233E-1,1.7690683E-2,2.919068E-2,3.9314176E-3,-4.931479E-2,3.68185E-2,6.5994384E-3,1.3809997E-1,4.9949745E-3,5.311314E-3,6.0318615E-2,2.2903371E-1,1.1167993E-2,-3.739475E-2,-4.562674E-2,-5.1086335E-3,1.0892775E-2,1.2421841E-3,-7.868736E-4,-4.1276924E-3,-8.006658E-3,-1.8503076E-3,1.8689837E-3,-2.95997E-3,4.9765664E-3,-1.0341003E-3,1.983844E-4,-2.2762688E-3,3.3502665E-3,-7.730982E-5,4.9884224E-5,-4.854479E-3,-9.855255E-4,5.5320105E-3,1.7918147E-3,-4.137862E-3,4.548594E-3,1.9342726E-3,6.248193E-5,-2.6096634E-3,4.7686766E-3,3.5941318E-4,2.3319277E-4,3.0960038E-3],"split_indices":[10,25,16,17,10,17,27,7,5,25,17,7,5,17,8,4,16,17,0,27,27,25,11,25,23,8,11,25,2,10,0,0,0,0,0,0,0,0,0,0,0,0,0,0,0,0,0,0,0,0,0,0,0,0,0,0,0,0,0],"split_type":[0,0,0,0,0,0,0,0,0,0,0,0,0,0,0,0,0,0,0,0,0,0,0,0,0,0,0,0,0,0,0,0,0,0,0,0,0,0,0,0,0,0,0,0,0,0,0,0,0,0,0,0,0,0,0,0,0,0,0],"sum_hessian":[2.9387E4,1.4661E4,1.4726E4,4.703E3,9.958E3,2.743E3,1.1983E4,4.03E3,6.73E2,2.289E3,7.669E3,3.51E2,2.392E3,9.568E3,2.415E3,2.1E2,3.82E3,6.2E2,5.3E1,1.214E3,1.075E3,4.912E3,2.757E3,2.31E2,1.2E2,5.43E2,1.849E3,7.596E3,1.972E3,2.327E3,8.8E1,5E1,1.6E2,3.113E3,7.07E2,4.79E2,1.41E2,6.58E2,5.56E2,8.11E2,2.64E2,2.257E3,2.655E3,5.99E2,2.158E3,8.2E1,1.49E2,5.6E1,6.4E1,3.76E2,1.67E2,7.04E2,1.145E3,6.294E3,1.302E3,3.47E2,1.625E3,9.89E2,1.338E3],"tree_param":{"num_deleted":"0","num_feature":"29","num_nodes":"59","size_leaf_vector":"1"}},{"base_weights":[9.447489E-4,1.3641961E-2,-6.0881716E-3,-7.4332625E-2,1.8586768E-2,-3.0988012E-2,2.9407942E-3,-1.237911E-1,-5.3557187E-2,-1.8883679E-2,2.5887016E-2,-1.7682841E-2,-7.696246E-2,-1.4534532E-2,2.5586756E-2,-1.5123896E-1,-3.3322317E-3,-8.833908E-2,-5.749822E-3,-1.1253003E-2,-1.09812364E-1,4.075174E-2,1.182867E-2,-4.1920938E-2,1.3807111E-2,-1.0647904E-1,1.6319409E-2,1.3806983E-3,-4.2399257E-2,-5.371055E-3,4.364824E-2,-4.2398092E-3,-1.0928615E-2,-2.4632337E-3,-6.3490677E-3,1.4401831E-3,-3.2366198E-3,-1.0540339E-3,4.866922E-3,-9.550684E-3,3.927561E-4,4.888784E-4,2.7541441E-3,2.1436429E-3,-9.787837E-5,4.987775E-3,-2.6010158E-3,2.2091419E-3,-3.6529874E-4,-8.741055E-3,-4.1009313E-3,5.3981263E-3,-2.3766845E-3,-1.1810006E-3,7.2676595E-4,2.6790972E-3,-3.0038012E-3,3.243802E-3,-9.100724E-4,3.6620484E-3,1.5980881E-3],"categories":[],"categories_nodes":[],"categories_segments":[],"categories_sizes":[],"default_left":[0,0,0,0,0,0,0,0,0,0,0,0,0,0,0,0,0,0,0,0,0,0,0,0,0,0,0,0,0,0,0,0,0,0,0,0,0,0,0,0,0,0,0,0,0,0,0,0,0,0,0,0,0,0,0,0,0,0,0,0,0],"id":9,"left_children":[1,3,5,7,9,11,13,15,17,19,21,23,25,27,29,31,-1,33,35,37,39,41,43,45,47,49,51,53,55,57,59,-1,-1,-1,-1,-1,-1,-1,-1,-1,-1,-1,-1,-1,-1,-1,-1,-1,-1,-1,-1,-1,-1,-1,-1,-1,-1,-1,-1,-1,-1],"loss_changes":[2.6211722E0,4.552968E0,4.2469373E0,5.656996E-1,2.7104847E0,3.0736446E0,5.486988E0,2.4716258E-1,6.5464747E-1,1.1200216E0,1.732326E0,2.9772792E0,3.1075296E0,3.4706821E0,3.3769047E0,4.7358584E-1,0E0,3.3800685E-1,3.4221947E-1,1.5943159E0,1.1958448E0,1.7883592E0,1.8245735E0,3.158769E0,1.0886518E0,1.4182873E0,1.5967934E0,1.6387979E0,4.830152E0,2.00747E0,1.3166733E0,0E0,0E0,0E0,0E0,0E0,0E0,0E0,0E0,0E0,0E0,0E0,0E0,0E0,0E0,0E0,0E0,0E0,0E0,0E0,0E0,0E0,0E0,0E0,0E0,0E0,0E0,0E0,0E0,0E0,0E0],"parents":[2147483647,0,0,1,1,2,2,3,3,4,4,5,5,6,6,7,7,8,8,9,9,10,10,11,11,12,12,13,13,14,14,15,15,17,17,18,18,19,19,20,20,21,21,22,22,23,23,24,24,25,25,26,26,27,27,28,28,29,29,30,30],"right_children":[2,4,6,8,10,12,14,16,18,20,22,24,26,28,30,32,-1,34,36,38,40,42,44,46,48,50,52,54,56,58,60,-1,-1,-1,-1,-1,-1,-1,-1,-1,-1,-1,-1,-1,-1,-1,-1,-1,-1,-1,-1,-1,-1,-1,-1,-1,-1,-1,-1,-1,-1],"split_conditions":[2.197271E-2,-2.0714886E-2,5.26578E-3,1.8247107E-2,5.79678E-1,2.1975348E-2,2.0838501E-2,3.5172448E-2,-2.8013293E-2,1.6371478E-1,5.105133E-3,6.4388257E-3,4.6173546E-1,1.1167993E-2,9.158211E-3,-2.5125504E-2,-3.3322317E-3,-3.9122045E-2,2.072403E-2,3.719995E-2,3.5093948E-1,4.668261E-3,-5.6190066E-2,-1.0879827E-1,3.535723E-1,-2.1265104E-1,7.4974814E-4,-2.074221E-2,-1.0138181E-1,-1.38969915E-2,-1.22447155E-1,-4.2398092E-3,-1.0928615E-2,-2.4632337E-3,-6.3490677E-3,1.4401831E-3,-3.2366198E-3,-1.0540339E-3,4.866922E-3,-9.550684E-3,3.927561E-4,4.888784E-4,2.7541441E-3,2.1436429E-3,-9.787837E-5,4.987775E-3,-2.6010158E-3,2.2091419E-3,-3.6529874E-4,-8.741055E-3,-4.1009313E-3,5.3981263E-3,-2.3766845E-3,-1.1810006E-3,7.2676595E-4,2.6790972E-3,-3.0038012E-3,3.243802E-3,-9.100724E-4,3.6620484E-3,1.5980881E-3],"split_indices":[18,26,25,18,21,17,17,8,26,8,25,9,5,25,25,6,0,24,18,9,5,25,28,7,19,5,26,9,28,24,8,0,0,0,0,0,0,0,0,0,0,0,0,0,0,0,0,0,0,0,0,0,0,0,0,0,0,0,0,0,0],"split_type":[0,0,0,0,0,0,0,0,0,0,0,0,0,0,0,0,0,0,0,0,0,0,0,0,0,0,0,0,0,0,0,0,0,0,0,0,0,0,0,0,0,0,0,0,0,0,0,0,0,0,0,0,0,0,0,0,0,0,0,0,0],"sum_hessian":[2.9351E4,1.0462E4,1.8889E4,5.56E2,9.906E3,5.026E3,1.3863E4,1.63E2,3.93E2,1.615E3,8.291E3,3.899E3,1.127E3,7.825E3,6.038E3,1.09E2,5.4E1,2.27E2,1.66E2,1.491E3,1.24E2,4.029E3,4.262E3,2.203E3,1.696E3,8.56E2,2.71E2,4.981E3,2.844E3,2.225E3,3.813E3,5.6E1,5.3E1,1.14E2,1.13E2,1.05E2,6.1E1,1.368E3,1.23E2,7.3E1,5.1E1,1.275E3,2.754E3,1.31E3,2.952E3,1.46E2,2.057E3,6.95E2,1.001E3,2.24E2,6.32E2,1.11E2,1.6E2,1.717E3,3.264E3,4.42E2,2.402E3,3.43E2,1.882E3,1.078E3,2.735E3],"tree_param":{"num_deleted":"0","num_feature":"29","num_nodes":"61","size_leaf_vector":"1"}},{"base_weights":[5.4333865E-4,-5.4117204E-3,2.1157062E-2,-2.5953036E-2,-1.3304579E-3,1.5668813E-2,7.572987E-2,-5.651592E-2,-4.3202555E-3,1.0177509E-2,-1.2992162E-2,3.765069E-2,-1.781408E-3,1.501819E-1,1.4359473E-2,-6.754065E-2,7.7738084E-2,-3.2998327E-2,3.891334E-2,2.504046E-2,-1.7074886E-3,-7.865116E-2,-5.8787996E-3,4.698267E-2,-1.1342037E-1,-2.135945E-2,3.038393E-2,1.0062164E-1,1.528509E-2,-1.4383793E-1,9.196829E-2,-1.552045E-3,-5.3580133E-3,-9.407943E-4,8.193125E-3,1.0160377E-3,-3.049867E-3,-1.1180217E-3,2.912169E-3,-9.669768E-4,1.6198868E-3,2.892976E-3,-3.3664578E-4,-5.1581548E-3,-1.0347627E-3,-4.125942E-4,6.18433E-3,1.5307553E-3,3.6778145E-3,-9.7135425E-4,-9.002209E-3,-2.720174E-4,-3.2836352E-3,2.638343E-3,-1.9337056E-3,1.7706676E-3,8.931681E-3,-3.7252423E-3,-1.0920244E-2,1.3888654E-3,9.755113E-3],"categories":[],"categories_nodes":[],"categories_segments":[],"categories_sizes":[],"default_left":[0,0,0,0,0,0,0,0,0,0,0,0,0,0,0,0,0,0,0,0,0,0,0,0,0,0,0,0,0,0,0,0,0,0,0,0,0,0,0,0,0,0,0,0,0,0,0,0,0,0,0,0,0,0,0,0,0,0,0,0,0],"id":10,"left_children":[1,3,5,7,9,11,13,15,17,19,21,23,25,27,29,31,33,35,37,39,41,43,45,47,49,51,53,55,-1,57,59,-1,-1,-1,-1,-1,-1,-1,-1,-1,-1,-1,-1,-1,-1,-1,-1,-1,-1,-1,-1,-1,-1,-1,-1,-1,-1,-1,-1,-1,-1],"loss_changes":[3.5977228E0,1.9062781E0,1.9662886E0,2.491669E0,2.546088E0,2.2900915E0,2.7393339E0,2.3171887E0,2.7388864E0,1.6868366E0,4.4006085E0,3.7299984E0,2.0970345E0,2.058001E0,4.064808E0,2.0848508E0,9.926459E-1,1.9837863E0,1.0447803E0,1.3860333E0,1.5890381E0,1.3062482E0,2.6154346E0,1.0803275E0,9.6087956E-1,1.4598768E0,1.9496496E0,1.0466883E0,0E0,5.472529E-1,1.4642807E0,0E0,0E0,0E0,0E0,0E0,0E0,0E0,0E0,0E0,0E0,0E0,0E0,0E0,0E0,0E0,0E0,0E0,0E0,0E0,0E0,0E0,0E0,0E0,0E0,0E0,0E0,0E0,0E0,0E0,0E0],"parents":[2147483647,0,0,1,1,2,2,3,3,4,4,5,5,6,6,7,7,8,8,9,9,10,10,11,11,12,12,13,13,14,14,15,15,16,16,17,17,18,18,19,19,20,20,21,21,22,22,23,23,24,24,25,25,26,26,27,27,29,29,30,30],"right_children":[2,4,6,8,10,12,14,16,18,20,22,24,26,28,30,32,34,36,38,40,42,44,46,48,50,52,54,56,-1,58,60,-1,-1,-1,-1,-1,-1,-1,-1,-1,-1,-1,-1,-1,-1,-1,-1,-1,-1,-1,-1,-1,-1,-1,-1,-1,-1,-1,-1,-1,-1],"split_conditions":[-6.113852E-2,5.559988E-1,2.4116354E-2,5.1405896E-3,-3.3196166E-2,5.216452E-3,3.9564572E-2,4.0794724E-1,1.6448433E-2,4.1306416E1,-2.3487507E-1,2.1752914E-2,3.4882165E-2,6.981691E-1,8.213968E-3,-1.1951262E-2,-5.296455E-2,-2.8520701E-2,4.155659E1,2.4618185E-3,1.5087708E-2,7.4130157E-3,3.5004333E-2,3.6499966E-3,6.33171E-1,2.056182E-2,2.868985E-2,9.2275245E-3,1.528509E-2,-4.0370654E-3,1.6051635E-2,-1.552045E-3,-5.3580133E-3,-9.407943E-4,8.193125E-3,1.0160377E-3,-3.049867E-3,-1.1180217E-3,2.912169E-3,-9.669768E-4,1.6198868E-3,2.892976E-3,-3.3664578E-4,-5.1581548E-3,-1.0347627E-3,-4.125942E-4,6.18433E-3,1.5307553E-3,3.6778145E-3,-9.7135425E-4,-9.002209E-3,-2.720174E-4,-3.2836352E-3,2.638343E-3,-1.9337056E-3,1.7706676E-3,8.931681E-3,-3.7252423E-3,-1.0920244E-2,1.3888654E-3,9.755113E-3],"split_indices":[10,21,17,25,28,25,1,5,26,13,5,17,9,5,25,1,3,2,13,11,18,25,17,23,11,26,24,1,0,10,25,0,0,0,0,0,0,0,0,0,0,0,0,0,0,0,0,0,0,0,0,0,0,0,0,0,0,0,0,0,0],"split_type":[0,0,0,0,0,0,0,0,0,0,0,0,0,0,0,0,0,0,0,0,0,0,0,0,0,0,0,0,0,0,0,0,0,0,0,0,0,0,0,0,0,0,0,0,0,0,0,0,0,0,0,0,0,0,0,0,0,0,0,0,0],"sum_hessian":[2.9306E4,2.2738E4,6.568E3,3.768E3,1.897E4,5.969E3,5.99E2,1.561E3,2.207E3,9.548E3,9.422E3,2.641E3,3.328E3,2.7E2,3.29E2,1.443E3,1.18E2,1.327E3,8.8E2,4.242E3,5.306E3,9.2E2,8.502E3,2.488E3,1.53E2,2.069E3,1.259E3,2.06E2,6.4E1,1.08E2,2.21E2,7.52E2,6.91E2,5.6E1,6.2E1,4.57E2,8.7E2,2.11E2,6.69E2,6.03E2,3.639E3,4.12E2,4.894E3,6.46E2,2.74E2,8.35E3,1.52E2,1.541E3,9.47E2,6.4E1,8.9E1,1.523E3,5.46E2,9.51E2,3.08E2,1.13E2,9.3E1,5.7E1,5.1E1,1.37E2,8.4E1],"tree_param":{"num_deleted":"0","num_feature":"29","num_nodes":"61","size_leaf_vector":"1"}},{"base_weights":[-4.4780393E-4,-9.325751E-3,8.413159E-3,5.3688113E-2,-1.1841507E-2,2.3688227E-2,-1.1191998E-3,-2.005542E-2,1.0364648E-1,-1.4910482E-2,2.8487856E-2,3.4657598E-2,-2.5280837E-2,-1.3144728E-2,3.535676E-2,4.2181805E-2,-9.149775E-2,4.2013746E-2,2.1759768E-1,-1.2595358E-2,-8.474392E-2,1.1923411E-1,-9.72085E-3,2.5379237E-2,6.4259E-2,3.8344268E-2,-5.1061403E-2,-1.038004E-2,-1.8845873E-1,-5.9762686E-3,4.1547116E-2,-1.8588951E-3,5.979059E-3,-1.4662357E-3,-7.774906E-3,6.7153894E-3,8.63167E-6,1.3451484E-2,7.630583E-3,-5.302207E-4,-4.4044754E-3,-1.413175E-3,-7.4906363E-3,1.0130073E-2,2.2093677E-3,-4.788899E-3,2.5052547E-3,1.7042508E-3,-7.5950957E-4,2.3714066E-3,6.213571E-3,-3.304318E-3,4.918429E-3,-3.7809832E-3,9.696127E-4,-2.187408E-3,2.3523924E-5,-7.258144E-3,-1.1409937E-2,2.3874755E-3,-5.1170657E-3],"categories":[],"categories_nodes":[],"categories_segments":[],"categories_sizes":[],"default_left":[0,0,0,0,0,0,0,0,0,0,0,0,0,0,0,0,0,0,0,0,0,0,0,0,0,0,0,0,0,0,0,0,0,0,0,0,0,0,0,0,0,0,0,0,0,0,0,0,0,0,0,0,0,0,0,0,0,0,0,0,0],"id":11,"left_children":[1,3,5,7,9,11,13,15,17,19,21,23,25,27,29,31,33,35,37,39,41,43,45,47,49,51,53,55,57,-1,59,-1,-1,-1,-1,-1,-1,-1,-1,-1,-1,-1,-1,-1,-1,-1,-1,-1,-1,-1,-1,-1,-1,-1,-1,-1,-1,-1,-1,-1,-1],"loss_changes":[2.2964518E0,2.3122833E0,2.127351E0,2.065178E0,1.736049E0,3.0164921E0,3.9469326E0,1.013186E0,2.3365815E0,2.1058557E0,3.4407175E0,1.2581997E0,1.6881776E0,3.2779303E0,2.143994E0,7.5381744E-1,4.1722435E-1,8.418242E-1,3.4999895E-1,1.8951595E0,1.5319633E0,1.8304434E0,3.6035647E0,1.2345581E0,1.099113E0,1.8682085E0,1.2679865E0,2.4124358E0,1.4753437E-1,0E0,1.9200895E0,0E0,0E0,0E0,0E0,0E0,0E0,0E0,0E0,0E0,0E0,0E0,0E0,0E0,0E0,0E0,0E0,0E0,0E0,0E0,0E0,0E0,0E0,0E0,0E0,0E0,0E0,0E0,0E0,0E0,0E0],"parents":[2147483647,0,0,1,1,2,2,3,3,4,4,5,5,6,6,7,7,8,8,9,9,10,10,11,11,12,12,13,13,14,14,15,15,16,16,17,17,18,18,19,19,20,20,21,21,22,22,23,23,24,24,25,25,26,26,27,27,28,28,30,30],"right_children":[2,4,6,8,10,12,14,16,18,20,22,24,26,28,30,32,34,36,38,40,42,44,46,48,50,52,54,56,58,-1,60,-1,-1,-1,-1,-1,-1,-1,-1,-1,-1,-1,-1,-1,-1,-1,-1,-1,-1,-1,-1,-1,-1,-1,-1,-1,-1,-1,-1,-1,-1],"split_conditions":[-1.579339E-1,-2.5528067E-1,5.214045E-3,-3.0924153E-1,2.919068E-2,1.7975502E-2,2.100578E-2,-9.253653E-3,-9.579027E-1,7.838344E-2,-1.2857838E-1,5.2192472E-2,-5.569458E-4,9.063337E-2,-1.4209545E-1,1.0322013E0,9.97354E-1,1.6120428E-2,6.6620605E-3,1.844706E-1,3.9319224E-3,1.9933753E-1,-1.7883271E-3,2.2860391E-2,2.1587431E-1,1.9988857E-2,8.2186386E-2,-1.7507901E-2,-9.669705E-3,-5.9762686E-3,4.649799E-1,-1.8588951E-3,5.979059E-3,-1.4662357E-3,-7.774906E-3,6.7153894E-3,8.63167E-6,1.3451484E-2,7.630583E-3,-5.302207E-4,-4.4044754E-3,-1.413175E-3,-7.4906363E-3,1.0130073E-2,2.2093677E-3,-4.788899E-3,2.5052547E-3,1.7042508E-3,-7.5950957E-4,2.3714066E-3,6.213571E-3,-3.304318E-3,4.918429E-3,-3.7809832E-3,9.696127E-4,-2.187408E-3,2.3523924E-5,-7.258144E-3,-1.1409937E-2,2.3874755E-3,-5.1170657E-3],"split_indices":[10,4,25,4,17,17,17,24,14,8,8,3,20,24,5,21,21,16,0,4,23,14,4,18,5,17,27,26,22,0,8,0,0,0,0,0,0,0,0,0,0,0,0,0,0,0,0,0,0,0,0,0,0,0,0,0,0,0,0,0,0],"split_type":[0,0,0,0,0,0,0,0,0,0,0,0,0,0,0,0,0,0,0,0,0,0,0,0,0,0,0,0,0,0,0,0,0,0,0,0,0,0,0,0,0,0,0,0,0,0,0,0,0,0,0,0,0,0,0,0,0,0,0,0,0],"sum_hessian":[2.919E4,1.4581E4,1.4609E4,5.59E2,1.4022E4,5.613E3,8.996E3,2.26E2,3.33E2,1.3031E4,9.91E2,4.586E3,1.027E3,6.766E3,2.23E3,1.21E2,1.05E2,2.17E2,1.16E2,1.2614E4,4.17E2,2.93E2,6.98E2,3.493E3,1.093E3,2.96E2,7.31E2,6.662E3,1.04E2,8.5E1,2.145E3,6E1,6.1E1,5.4E1,5.1E1,6.7E1,1.5E2,6.3E1,5.3E1,1.2291E4,3.23E2,2.24E2,1.93E2,1.38E2,1.55E2,2.86E2,4.12E2,2.876E3,6.17E2,8.55E2,2.38E2,1.08E2,1.88E2,5.42E2,1.89E2,1.634E3,5.028E3,5.2E1,5.2E1,2.057E3,8.8E1],"tree_param":{"num_deleted":"0","num_feature":"29","num_nodes":"61","size_leaf_vector":"1"}},{"base_weights":[8.337176E-4,-1.022104E-2,7.3633916E-3,5.8946945E-2,-1.298784E-2,3.6185987E-3,3.455128E-2,-1.9956196E-3,1.1331011E-1,-1.1875044E-2,-8.928066E-3,3.9559368E-2,5.414255E-4,-5.4033254E-3,4.0234637E-2,3.958139E-3,-5.3867415E-2,-4.3139662E-4,2.0128582E-1,-2.185316E-2,3.721594E-3,-1.7762862E-2,7.887863E-2,1.7569233E-2,-9.621532E-3,5.467125E-2,-1.0036444E-3,8.867577E-4,-7.6948586E-3,1.1920836E-2,7.5100446E-3,-9.96642E-5,-1.840113E-3,1.1372453E-3,-7.6051464E-4,2.941496E-3,-4.25999E-3,5.295453E-3,8.832668E-4,-2.4509088E-3,1.3336106E-3,-3.302122E-3,-2.897808E-4,3.354213E-3,-2.0374799E-4,-1.3213144E-3,6.094146E-3],"categories":[],"categories_nodes":[],"categories_segments":[],"categories_sizes":[],"default_left":[0,0,0,0,0,0,0,0,0,0,0,0,0,0,0,0,0,0,0,0,0,0,0,0,0,0,0,0,0,0,0,0,0,0,0,0,0,0,0,0,0,0,0,0,0,0,0],"id":12,"left_children":[1,3,5,7,9,11,13,15,17,19,-1,21,23,-1,25,-1,27,-1,29,31,33,35,37,39,41,43,45,-1,-1,-1,-1,-1,-1,-1,-1,-1,-1,-1,-1,-1,-1,-1,-1,-1,-1,-1,-1],"loss_changes":[2.1217785E0,2.0896125E0,1.8812778E0,1.3916992E0,1.9317633E0,1.7963887E0,1.8175423E0,8.420208E-1,2.3832607E0,1.6227838E0,0E0,2.888606E0,2.5895593E0,0E0,1.281229E0,0E0,8.7654066E-1,0E0,2.0888042E-1,1.8878329E0,1.465785E0,2.7012377E0,1.2556415E0,3.3914692E0,2.0224566E0,1.1626458E0,1.7495935E0,0E0,0E0,0E0,0E0,0E0,0E0,0E0,0E0,0E0,0E0,0E0,0E0,0E0,0E0,0E0,0E0,0E0,0E0,0E0,0E0],"parents":[2147483647,0,0,1,1,2,2,3,3,4,4,5,5,6,6,7,7,8,8,9,9,11,11,12,12,14,14,16,16,18,18,19,19,20,20,21,21,22,22,23,23,24,24,25,25,26,26],"right_children":[2,4,6,8,10,12,14,16,18,20,-1,22,24,-1,26,-1,28,-1,30,32,34,36,38,40,42,44,46,-1,-1,-1,-1,-1,-1,-1,-1,-1,-1,-1,-1,-1,-1,-1,-1,-1,-1,-1,-1],"split_conditions":[-7.2293945E-2,-2.5528067E-1,9.045521E-2,-2.8870651E-2,5.399766E0,-1.22447155E-1,-5.3024553E-2,-3.7378233E-2,-3.9219165E-1,1.4430637E-2,-8.928066E-3,1.98255E-2,1.4287759E-2,-5.4033254E-3,2.648564E-1,3.958139E-3,-2.1539561E-1,-4.3139662E-4,-4.851779E-2,1.4697338E-2,-4.1674175E-3,1.5925948E-2,4.450577E1,-2.0714886E-2,-1.0007822E-1,1.77643E0,1.2743858E-1,8.867577E-4,-7.6948586E-3,1.1920836E-2,7.5100446E-3,-9.96642E-5,-1.840113E-3,1.1372453E-3,-7.6051464E-4,2.941496E-3,-4.25999E-3,5.295453E-3,8.832668E-4,-2.4509088E-3,1.3336106E-3,-3.302122E-3,-2.897808E-4,3.354213E-3,-2.0374799E-4,-1.3213144E-3,6.094146E-3],"split_indices":[5,4,27,1,21,8,4,24,8,24,0,16,17,0,28,0,5,0,27,17,27,16,13,26,27,21,6,0,0,0,0,0,0,0,0,0,0,0,0,0,0,0,0,0,0,0,0],"split_type":[0,0,0,0,0,0,0,0,0,0,0,0,0,0,0,0,0,0,0,0,0,0,0,0,0,0,0,0,0,0,0,0,0,0,0,0,0,0,0,0,0,0,0,0,0,0,0],"sum_hessian":[2.9392E4,1.0914E4,1.8478E4,4.19E2,1.0495E4,1.6242E4,2.236E3,1.98E2,2.21E2,1.0426E4,6.9E1,1.28E3,1.4962E4,8.5E1,2.151E3,7.7E1,1.21E2,9.3E1,1.28E2,6.358E3,4.068E3,5.21E2,7.59E2,5.592E3,9.37E3,1.593E3,5.58E2,7.1E1,5E1,7.2E1,5.6E1,2.731E3,3.627E3,2.029E3,2.039E3,2.44E2,2.77E2,5.26E2,2.33E2,6.72E2,4.92E3,5.94E2,8.776E3,1.315E3,2.78E2,4.63E2,9.5E1],"tree_param":{"num_deleted":"0","num_feature":"29","num_nodes":"47","size_leaf_vector":"1"}},{"base_weights":[-8.1512827E-4,-3.5695238E-3,2.6504472E-2,1.058833E-2,-1.26704695E-2,2.1535221E-2,1.116835E-2,-6.669935E-2,1.42861325E-2,-1.8258369E-2,1.538578E-2,6.497232E-2,-5.274544E-3,-8.5092284E-2,9.454633E-4,-2.1193314E-2,2.098426E-2,-4.672896E-2,-1.0913864E-2,3.577238E-2,-2.2177923E-2,-1.3843992E-2,9.828994E-2,-8.2463846E-2,1.1747082E-2,-2.2901332E-3,-6.971758E-3,-6.5082585E-4,-6.262271E-3,2.1538571E-3,4.3455075E-4,-7.614042E-3,-1.8240482E-3,1.0079679E-3,-8.348656E-4,-5.853457E-4,2.942763E-3,5.071413E-3,-3.0730376E-3,4.3084286E-3,-5.210652E-3,-1.7967873E-3,5.6126784E-3,-5.834499E-3,2.481031E-3,-1.1192277E-3,1.7677526E-3],"categories":[],"categories_nodes":[],"categories_segments":[],"categories_sizes":[],"default_left":[0,0,0,0,0,0,0,0,0,0,0,0,0,0,0,0,0,0,0,0,0,0,0,0,0,0,0,0,0,0,0,0,0,0,0,0,0,0,0,0,0,0,0,0,0,0,0],"id":13,"left_children":[1,3,5,7,9,11,-1,13,15,17,19,21,23,25,-1,27,29,31,33,35,37,39,41,43,45,-1,-1,-1,-1,-1,-1,-1,-1,-1,-1,-1,-1,-1,-1,-1,-1,-1,-1,-1,-1,-1,-1],"loss_changes":[2.2060187E0,3.4315345E0,2.6218152E0,2.979218E0,2.5417688E0,3.051433E0,0E0,7.5111604E-1,2.3640704E0,2.826345E0,2.0630827E0,2.6273327E0,2.13078E0,8.305769E-1,0E0,1.3426543E0,2.272046E0,2.9929042E0,1.9318634E0,1.9142327E0,4.6093435E0,2.702316E0,1.3216505E0,1.3303672E0,1.071671E0,0E0,0E0,0E0,0E0,0E0,0E0,0E0,0E0,0E0,0E0,0E0,0E0,0E0,0E0,0E0,0E0,0E0,0E0,0E0,0E0,0E0,0E0],"parents":[2147483647,0,0,1,1,2,2,3,3,4,4,5,5,7,7,8,8,9,9,10,10,11,11,12,12,13,13,15,15,16,16,17,17,18,18,19,19,20,20,21,21,22,22,23,23,24,24],"right_children":[2,4,6,8,10,12,-1,14,16,18,20,22,24,26,-1,28,30,32,34,36,38,40,42,44,46,-1,-1,-1,-1,-1,-1,-1,-1,-1,-1,-1,-1,-1,-1,-1,-1,-1,-1,-1,-1,-1,-1],"split_conditions":[4.0090743E-2,2.197271E-2,1.6173363E0,-2.1403125E-2,5.153811E-1,-2.8379706E-1,1.116835E-2,3.8425896E-2,5.79678E-1,5.0313505E-3,8.056193E-1,9.663619E-3,6.887343E-1,-1.1407287E0,9.454633E-4,1.6371478E-1,-6.648149E-3,-3.925764E-1,-1.19907714E-1,3.61986E-3,1.4819764E-1,3.614696E1,-2.731578E-1,1.8113758E-1,-3.7310675E-3,-2.2901332E-3,-6.971758E-3,-6.5082585E-4,-6.262271E-3,2.1538571E-3,4.3455075E-4,-7.614042E-3,-1.8240482E-3,1.0079679E-3,-8.348656E-4,-5.853457E-4,2.942763E-3,5.071413E-3,-3.0730376E-3,4.3084286E-3,-5.210652E-3,-1.7967873E-3,5.6126784E-3,-5.834499E-3,2.481031E-3,-1.1192277E-3,1.7677526E-3],"split_indices":[18,18,11,26,11,10,0,3,21,25,11,25,21,14,0,8,9,10,28,9,8,13,28,28,23,0,0,0,0,0,0,0,0,0,0,0,0,0,0,0,0,0,0,0,0,0,0],"split_type":[0,0,0,0,0,0,0,0,0,0,0,0,0,0,0,0,0,0,0,0,0,0,0,0,0,0,0,0,0,0,0,0,0,0,0,0,0,0,0,0,0,0,0,0,0,0,0],"sum_hessian":[2.9314E4,2.663E4,2.684E3,1.042E4,1.621E4,2.619E3,6.5E1,4.75E2,9.945E3,1.3518E4,2.692E3,9.99E2,1.62E3,3.91E2,8.4E1,1.579E3,8.366E3,2.771E3,1.0747E4,1.745E3,9.47E2,2.97E2,7.02E2,2.92E2,1.328E3,2.28E2,1.63E2,1.465E3,1.14E2,2.99E3,5.376E3,2.44E2,2.527E3,1.686E3,9.061E3,5.71E2,1.174E3,2.28E2,7.19E2,1.41E2,1.56E2,6.6E1,6.36E2,2.32E2,6E1,5.43E2,7.85E2],"tree_param":{"num_deleted":"0","num_feature":"29","num_nodes":"47","size_leaf_vector":"1"}},{"base_weights":[-3.9727136E-4,-9.5922E-3,9.052712E-3,-3.0792695E-2,-3.0953025E-3,-7.835533E-2,1.1012696E-2,-6.724154E-3,-7.442846E-2,5.3869512E-2,-5.6852777E-3,-9.746463E-2,8.436418E-4,7.10459E-3,4.698804E-2,-1.7551172E-3,-8.989279E-2,6.9213593E-3,-8.4407814E-2,-5.194722E-3,7.54072E-2,-3.2823242E-3,-4.4232536E-2,-7.0673265E-2,-8.0979755E-3,1.4576353E-2,-3.6178265E-2,3.176542E-2,1.8256864E-1,2.36945E-3,-4.7850548E-4,-1.7311026E-3,-7.7524493E-3,-4.6623885E-3,4.6238145E-3,1.3744741E-3,6.0424544E-3,-7.201836E-5,-3.9162496E-3,-4.100388E-3,2.3857483E-3,-5.791059E-3,4.761714E-4,9.571966E-4,-9.392163E-4,-2.2762245E-3,4.7255466E-3,2.9118776E-3,-1.1805174E-3,1.2347208E-2,3.7735812E-3],"categories":[],"categories_nodes":[],"categories_segments":[],"categories_sizes":[],"default_left":[0,0,0,0,0,0,0,0,0,0,0,0,0,0,0,0,0,0,0,0,0,0,0,0,0,0,0,0,0,0,0,0,0,0,0,0,0,0,0,0,0,0,0,0,0,0,0,0,0,0,0],"id":14,"left_children":[1,3,5,7,9,11,13,15,17,19,21,23,-1,25,27,29,31,-1,33,-1,35,37,39,41,-1,43,45,47,49,-1,-1,-1,-1,-1,-1,-1,-1,-1,-1,-1,-1,-1,-1,-1,-1,-1,-1,-1,-1,-1,-1],"loss_changes":[2.5537534E0,2.0516415E0,2.4839523E0,3.6690705E0,1.6826761E0,5.803231E-1,1.9928879E0,9.30935E-1,2.6498928E0,1.693178E0,1.0102333E0,4.464488E-1,0E0,4.13648E0,2.8609462E0,8.173511E-1,4.5198822E-1,0E0,1.8646717E0,0E0,9.482329E-1,1.4193236E0,2.2268486E0,6.8541795E-1,0E0,1.6623416E0,2.3042936E0,1.833768E0,9.465823E-1,0E0,0E0,0E0,0E0,0E0,0E0,0E0,0E0,0E0,0E0,0E0,0E0,0E0,0E0,0E0,0E0,0E0,0E0,0E0,0E0,0E0,0E0],"parents":[2147483647,0,0,1,1,2,2,3,3,4,4,5,5,6,6,7,7,8,8,9,9,10,10,11,11,13,13,14,14,15,15,16,16,18,18,20,20,21,21,22,22,23,23,25,25,26,26,27,27,28,28],"right_children":[2,4,6,8,10,12,14,16,18,20,22,24,-1,26,28,30,32,-1,34,-1,36,38,40,42,-1,44,46,48,50,-1,-1,-1,-1,-1,-1,-1,-1,-1,-1,-1,-1,-1,-1,-1,-1,-1,-1,-1,-1,-1,-1],"split_conditions":[-1.543693E-1,5.0084456E-3,-4.2618744E-2,1.7620075E-2,-2.714278E-1,4.0408075E-2,2.397632E-2,1.6002127E0,-2.1941649E-2,1.39255705E1,1.6866097E-1,2.2727638E-2,8.436418E-4,1.1167993E-2,1.6965203E-2,1.0620097E-2,-3.538984E-3,6.9213593E-3,4.6173546E-1,-5.194722E-3,1.0945097E-2,7.838344E-2,2.728744E-2,2.0948667E-2,-8.0979755E-3,2.0038474E-1,2.3000194E-2,4.1298483E-2,4.502196E-1,2.36945E-3,-4.7850548E-4,-1.7311026E-3,-7.7524493E-3,-4.6623885E-3,4.6238145E-3,1.3744741E-3,6.0424544E-3,-7.201836E-5,-3.9162496E-3,-4.100388E-3,2.3857483E-3,-5.791059E-3,4.761714E-4,9.571966E-4,-9.392163E-4,-2.2762245E-3,4.7255466E-3,2.9118776E-3,-1.1805174E-3,1.2347208E-2,3.7735812E-3],"split_indices":[10,25,9,17,8,18,17,22,23,13,4,17,0,25,25,17,9,0,5,0,25,8,17,16,0,4,17,1,5,0,0,0,0,0,0,0,0,0,0,0,0,0,0,0,0,0,0,0,0,0,0],"split_type":[0,0,0,0,0,0,0,0,0,0,0,0,0,0,0,0,0,0,0,0,0,0,0,0,0,0,0,0,0,0,0,0,0,0,0,0,0,0,0,0,0,0,0,0,0,0,0,0,0,0,0],"sum_hessian":[2.9388E4,1.4895E4,1.4493E4,3.493E3,1.1402E4,3.17E2,1.4176E4,2.252E3,1.241E3,4.95E2,1.0907E4,2.64E2,5.3E1,1.2788E4,1.388E3,2.126E3,1.26E2,5.5E1,1.186E3,5.9E1,4.36E2,1.0268E4,6.39E2,1.88E2,7.6E1,1.0906E4,1.882E3,1.249E3,1.39E2,2.91E2,1.835E3,6.9E1,5.7E1,1.13E3,5.6E1,2.13E2,2.23E2,1.0023E4,2.45E2,4.53E2,1.86E2,1.2E2,6.8E1,9.593E3,1.313E3,1.757E3,1.25E2,8.45E2,4.04E2,8.6E1,5.3E1],"tree_param":{"num_deleted":"0","num_feature":"29","num_nodes":"51","size_leaf_vector":"1"}},{"base_weights":[-7.437171E-4,-9.998069E-3,8.810329E-3,4.1008014E-2,-1.2959214E-2,-7.8420965E-3,9.615811E-3,1.25269005E-2,1.1707176E-1,-1.8323008E-2,8.162562E-3,-6.719626E-2,1.1200961E-2,2.8491115E-2,-7.1103796E-3,6.75774E-2,8.975639E-3,1.3005518E-3,-2.6874978E-2,5.2300766E-2,-2.5620883E-2,-2.2405721E-2,-1.1152654E-1,7.3836893E-3,4.215878E-2,5.7223393E-3,1.0906765E-4,7.268143E-3,1.636209E-4,-4.239112E-3,4.2994987E-4,5.744021E-5,-2.0074532E-3,3.4947742E-3,-4.671374E-4,-1.6901635E-3,5.3742453E-3,2.0952364E-3,-3.0867583E-3,-7.741434E-3,-3.4234729E-3,7.0741755E-4,-1.6602314E-3,1.3658282E-3,7.530772E-3],"categories":[],"categories_nodes":[],"categories_segments":[],"categories_sizes":[],"default_left":[0,0,0,0,0,0,0,0,0,0,0,0,0,0,0,0,0,0,0,0,0,0,0,0,0,0,0,0,0,0,0,0,0,0,0,0,0,0,0,0,0,0,0,0,0],"id":15,"left_children":[1,3,5,7,9,-1,11,13,15,17,19,21,23,25,-1,27,-1,29,31,33,35,37,39,41,43,-1,-1,-1,-1,-1,-1,-1,-1,-1,-1,-1,-1,-1,-1,-1,-1,-1,-1,-1,-1],"loss_changes":[2.5973232E0,2.2542963E0,1.9301021E0,1.772799E0,1.5980318E0,0E0,1.7522511E0,1.4787699E0,6.770456E-1,1.887676E0,4.261529E0,5.7530415E-1,1.665357E0,1.2254689E0,0E0,6.2977535E-1,0E0,2.146273E0,2.9142156E0,1.3444729E0,1.7669237E0,3.7186396E-1,2.6161063E-1,3.4460015E0,2.486149E0,0E0,0E0,0E0,0E0,0E0,0E0,0E0,0E0,0E0,0E0,0E0,0E0,0E0,0E0,0E0,0E0,0E0,0E0,0E0,0E0],"parents":[2147483647,0,0,1,1,2,2,3,3,4,4,6,6,7,7,8,8,9,9,10,10,11,11,12,12,13,13,15,15,17,17,18,18,19,19,20,20,21,21,22,22,23,23,24,24],"right_children":[2,4,6,8,10,-1,12,14,16,18,20,22,24,26,-1,28,-1,30,32,34,36,38,40,42,44,-1,-1,-1,-1,-1,-1,-1,-1,-1,-1,-1,-1,-1,-1,-1,-1,-1,-1,-1,-1],"split_conditions":[-1.543693E-1,-1.3495715E-1,-2.0103748E-1,2.53027E-2,3.035025E-2,-7.8420965E-3,-4.359711E-2,1.2228168E-2,-2.1960005E-1,2.181881E-2,-6.767623E-2,5.5116666E-3,2.3585798E-2,1.6189292E-2,-7.1103796E-3,1.1296375E0,8.975639E-3,4.0130216E-1,-1.4768853E-2,1.7518857E-2,3.3879876E-2,-3.12088E-2,8.1311923E-1,1.1167993E-2,1.6068447E-2,5.7223393E-3,1.0906765E-4,7.268143E-3,1.636209E-4,-4.239112E-3,4.2994987E-4,5.744021E-5,-2.0074532E-3,3.4947742E-3,-4.671374E-4,-1.6901635E-3,5.3742453E-3,2.0952364E-3,-3.0867583E-3,-7.741434E-3,-3.4234729E-3,7.0741755E-4,-1.6602314E-3,1.3658282E-3,7.530772E-3],"split_indices":[10,7,5,16,26,0,9,26,28,18,28,0,17,16,0,21,0,21,26,9,17,28,19,25,25,0,0,0,0,0,0,0,0,0,0,0,0,0,0,0,0,0,0,0,0],"split_type":[0,0,0,0,0,0,0,0,0,0,0,0,0,0,0,0,0,0,0,0,0,0,0,0,0,0,0,0,0,0,0,0,0,0,0,0,0,0,0,0,0,0,0,0,0],"sum_hessian":[2.9374E4,1.4921E4,1.4453E4,8.18E2,1.4103E4,6.9E1,1.4384E4,5.96E2,2.22E2,1.1247E4,2.856E3,2.9E2,1.4094E4,5.41E2,5.5E1,1.25E2,9.7E1,3.414E3,7.833E3,1.238E3,1.618E3,1.45E2,1.45E2,1.2548E4,1.546E3,1.26E2,4.15E2,5.6E1,6.9E1,2.66E2,3.148E3,2.518E3,5.315E3,9.63E2,2.75E2,1.525E3,9.3E1,5.5E1,9E1,7.1E1,7.4E1,1.0756E4,1.792E3,1.361E3,1.85E2],"tree_param":{"num_deleted":"0","num_feature":"29","num_nodes":"45","size_leaf_vector":"1"}},{"base_weights":[1.8501015E-4,-7.49349E-3,7.8093833E-3,5.138089E-2,-9.962801E-3,-8.971843E-2,9.756839E-3,-3.273741E-3,7.422223E-2,-8.108947E-3,-5.7194613E-2,-6.1699077E-2,-7.6508033E-3,5.380448E-2,7.873866E-3,1.1412635E-1,2.1477938E-2,-6.6986117E-3,-8.3021745E-2,1.6783016E-2,-1.0339712E-1,-4.2130417E-4,-1.0274818E-1,7.340958E-2,-3.5512694E-3,3.4448097E-3,3.0471446E-2,2.7405515E-3,8.315315E-3,4.512168E-3,-4.231799E-4,-5.5998156E-4,7.1959157E-4,-5.6631113E-3,6.26547E-4,-1.8438505E-3,6.392853E-3,-8.075957E-3,-2.4714486E-3,-7.4818297E-3,-2.0946565E-3,4.404345E-3,-6.740246E-4,8.9105405E-4,-1.47542E-4,2.9518518E-3,2.108236E-4],"categories":[],"categories_nodes":[],"categories_segments":[],"categories_sizes":[],"default_left":[0,0,0,0,0,0,0,0,0,0,0,0,0,0,0,0,0,0,0,0,0,0,0,0,0,0,0,0,0,0,0,0,0,0,0,0,0,0,0,0,0,0,0,0,0,0,0],"id":16,"left_children":[1,3,5,7,9,11,13,-1,15,17,19,21,-1,23,25,27,29,31,33,35,37,-1,39,41,-1,43,45,-1,-1,-1,-1,-1,-1,-1,-1,-1,-1,-1,-1,-1,-1,-1,-1,-1,-1,-1,-1],"loss_changes":[1.7217717E0,2.1307526E0,2.803688E0,1.5796531E0,1.2309923E0,5.0311756E-1,1.1996424E0,0E0,1.0372779E0,1.4293407E0,1.8166678E0,4.408695E-1,0E0,1.4564637E0,1.3887877E0,8.605995E-1,4.413774E-1,1.2612863E0,7.23809E-1,1.2265633E0,1.0177298E0,0E0,3.190186E-1,6.554234E-1,0E0,1.0669892E0,1.705226E0,0E0,0E0,0E0,0E0,0E0,0E0,0E0,0E0,0E0,0E0,0E0,0E0,0E0,0E0,0E0,0E0,0E0,0E0,0E0,0E0],"parents":[2147483647,0,0,1,1,2,2,3,3,4,4,5,5,6,6,8,8,9,9,10,10,11,11,13,13,14,14,15,15,16,16,17,17,18,18,19,19,20,20,22,22,23,23,25,25,26,26],"right_children":[2,4,6,8,10,12,14,-1,16,18,20,22,-1,24,26,28,30,32,34,36,38,-1,40,42,-1,44,46,-1,-1,-1,-1,-1,-1,-1,-1,-1,-1,-1,-1,-1,-1,-1,-1,-1,-1,-1,-1],"split_conditions":[-1.579339E-1,-2.5528067E-1,-4.549147E-2,-1.3377976E-1,7.838344E-2,4.6006165E-2,2.7112514E1,-3.273741E-3,-6.6371284E-2,2.98579E0,-2.0738973E-3,4.1678958E-3,-7.6508033E-3,3.0106239E-2,7.155111E1,-2.9917445E-2,-1.16715886E-1,2.4414921E-2,1.7731693E-2,1.2840834E-1,1.9354068E-2,-4.2130417E-4,-1.6016854E-2,-2.4642525E-2,-3.5512694E-3,-8.722016E-3,1.3716859E-2,2.7405515E-3,8.315315E-3,4.512168E-3,-4.231799E-4,-5.5998156E-4,7.1959157E-4,-5.6631113E-3,6.26547E-4,-1.8438505E-3,6.392853E-3,-8.075957E-3,-2.4714486E-3,-7.4818297E-3,-2.0946565E-3,4.404345E-3,-6.740246E-4,8.9105405E-4,-1.47542E-4,2.9518518E-3,2.108236E-4],"split_indices":[10,4,9,9,8,8,13,0,9,21,23,0,0,18,13,1,2,16,24,8,27,0,28,6,0,6,24,0,0,0,0,0,0,0,0,0,0,0,0,0,0,0,0,0,0,0,0],"split_type":[0,0,0,0,0,0,0,0,0,0,0,0,0,0,0,0,0,0,0,0,0,0,0,0,0,0,0,0,0,0,0,0,0,0,0,0,0,0,0,0,0,0,0,0,0,0,0],"sum_hessian":[2.9408E4,1.4652E4,1.4756E4,5.89E2,1.4063E4,2.88E2,1.4468E4,9.6E1,4.93E2,1.3533E4,5.3E2,2.01E2,8.7E1,5.92E2,1.3876E4,2.8E2,2.13E2,1.3284E4,2.49E2,2.04E2,3.26E2,8.8E1,1.13E2,5.12E2,8E1,1.1603E4,2.273E3,1.32E2,1.48E2,6.4E1,1.49E2,1.0948E4,2.336E3,1.89E2,6E1,1.38E2,6.6E1,1.56E2,1.7E2,6.3E1,5E1,4.38E2,7.4E1,3.572E3,8.031E3,1.088E3,1.185E3],"tree_param":{"num_deleted":"0","num_feature":"29","num_nodes":"47","size_leaf_vector":"1"}},{"base_weights":[-7.6244416E-4,-4.427066E-3,1.7201688E-2,5.7975533E-3,-1.3886232E-2,1.4064371E-2,1.203145E-1,-2.0182773E-2,1.2683106E-2,-6.4539835E-2,-8.9348145E-3,2.2864226E-2,-1.84015E-2,8.480947E-3,1.2573508E-3,-2.6501734E-2,7.798288E-2,1.4127857E-2,-8.686003E-2,-9.928038E-2,-2.2050794E-2,-1.1071864E-2,7.628234E-2,1.7379502E-2,1.2996037E-1,6.749995E-3,-8.066367E-2,3.8334322E-3,-1.631417E-3,1.8130745E-4,6.0329936E-3,1.940609E-3,3.8886187E-4,7.664005E-4,-1.1079344E-2,-6.432963E-3,-1.4722474E-3,6.1829743E-4,-6.24282E-3,-8.741035E-4,3.192865E-4,-1.6468021E-3,6.230967E-3,1.2204348E-3,-2.2464711E-3,1.0101316E-2,2.5383045E-3,-2.748682E-3,1.8894032E-3,1.9182466E-3,-7.003531E-3],"categories":[],"categories_nodes":[],"categories_segments":[],"categories_sizes":[],"default_left":[0,0,0,0,0,0,0,0,0,0,0,0,0,0,0,0,0,0,0,0,0,0,0,0,0,0,0,0,0,0,0,0,0,0,0,0,0,0,0,0,0,0,0,0,0,0,0,0,0,0,0],"id":17,"left_children":[1,3,5,7,9,11,13,15,17,19,21,23,25,-1,-1,27,29,31,33,35,37,39,41,43,45,47,49,-1,-1,-1,-1,-1,-1,-1,-1,-1,-1,-1,-1,-1,-1,-1,-1,-1,-1,-1,-1,-1,-1,-1,-1],"loss_changes":[1.9228901E0,2.3464198E0,1.5992975E0,2.0859218E0,3.160095E0,1.3728995E0,6.807928E-1,1.5174716E0,1.3267707E0,1.6539865E0,2.0916862E0,2.2180862E0,1.6056808E0,0E0,0E0,1.4537663E0,4.6921408E-1,1.4240264E0,1.8207031E0,1.2621026E0,1.7918905E0,1.2535797E0,1.4875848E0,1.5765158E0,1.0398707E0,1.4025142E0,2.091356E0,0E0,0E0,0E0,0E0,0E0,0E0,0E0,0E0,0E0,0E0,0E0,0E0,0E0,0E0,0E0,0E0,0E0,0E0,0E0,0E0,0E0,0E0,0E0,0E0],"parents":[2147483647,0,0,1,1,2,2,3,3,4,4,5,5,6,6,7,7,8,8,9,9,10,10,11,11,12,12,15,15,16,16,17,17,18,18,19,19,20,20,21,21,22,22,23,23,24,24,25,25,26,26],"right_children":[2,4,6,8,10,12,14,16,18,20,22,24,26,-1,-1,28,30,32,34,36,38,40,42,44,46,48,50,-1,-1,-1,-1,-1,-1,-1,-1,-1,-1,-1,-1,-1,-1,-1,-1,-1,-1,-1,-1,-1,-1,-1,-1],"split_conditions":[-4.329177E-2,-3.3196166E-2,1.2743858E-1,5.971473E-1,-2.3898113E-1,4.221989E-2,4.0794724E-1,4.2461317E-2,4.2505544E-2,2.3337072E-2,3.3879876E-2,2.4283381E-2,3.2258052E-2,8.480947E-3,1.2573508E-3,-2.5101945E-2,-3.4692142E-2,-3.355737E-1,1.442719E-2,6.0528372E-3,1.2711635E0,2.0838501E-2,2.8921686E-2,2.4620406E-1,2.6816601E-2,4.9251407E-2,2.3337072E-2,3.8334322E-3,-1.631417E-3,1.8130745E-4,6.0329936E-3,1.940609E-3,3.8886187E-4,7.664005E-4,-1.1079344E-2,-6.432963E-3,-1.4722474E-3,6.1829743E-4,-6.24282E-3,-8.741035E-4,3.192865E-4,-1.6468021E-3,6.230967E-3,1.2204348E-3,-2.2464711E-3,1.0101316E-2,2.5383045E-3,-2.748682E-3,1.8894032E-3,1.9182466E-3,-7.003531E-3],"split_indices":[10,28,6,21,5,1,5,2,16,9,17,17,18,0,0,0,9,10,26,25,14,17,16,28,17,6,9,0,0,0,0,0,0,0,0,0,0,0,0,0,0,0,0,0,0,0,0,0,0,0,0],"split_type":[0,0,0,0,0,0,0,0,0,0,0,0,0,0,0,0,0,0,0,0,0,0,0,0,0,0,0,0,0,0,0,0,0,0,0,0,0,0,0,0,0,0,0,0,0,0,0,0,0,0,0],"sum_hessian":[2.9207E4,2.4259E4,4.948E3,1.1658E4,1.2601E4,4.803E3,1.45E2,2.442E3,9.216E3,1.121E3,1.148E4,3.779E3,1.024E3,9.5E1,5E1,2.295E3,1.47E2,9.085E3,1.31E2,6.16E2,5.05E2,1.12E4,2.8E2,3.596E3,1.83E2,7.3E2,2.94E2,1.28E2,2.167E3,5.4E1,9.3E1,1.858E3,7.227E3,7.5E1,5.6E1,4.33E2,1.83E2,3.79E2,1.26E2,8.192E3,3.008E3,8.6E1,1.94E2,3.232E3,3.64E2,9.5E1,8.8E1,2.44E2,4.86E2,9.8E1,1.96E2],"tree_param":{"num_deleted":"0","num_feature":"29","num_nodes":"51","size_leaf_vector":"1"}},{"base_weights":[1.9573215E-3,6.2054984E-2,1.005298E-3,-1.2117408E-2,9.845807E-2,-3.3567984E-2,2.8448808E-3,3.0843685E-3,-6.8103806E-3,1.6280499E-1,-5.1080943E-3,-4.3663993E-2,8.0909304E-2,1.6032336E-2,-8.533115E-4,1.2407738E-2,1.2247071E-1,3.429642E-3,-2.9754334E-3,-8.858058E-3,-9.20551E-2,8.323929E-3,-7.543362E-4,3.444836E-2,-7.3687115E-4,-5.624601E-3,2.0808982E-2,3.2246436E-3,8.245046E-3,3.976248E-3,-1.2007528E-3,-5.224913E-3,1.611622E-3,1.4471344E-3,5.353905E-3,-1.4855312E-3,7.7676226E-4,-1.1251614E-3,9.897819E-6,7.52308E-4,4.564414E-3],"categories":[],"categories_nodes":[],"categories_segments":[],"categories_sizes":[],"default_left":[0,0,0,0,0,0,0,0,0,0,0,0,0,0,0,0,0,0,0,0,0,0,0,0,0,0,0,0,0,0,0,0,0,0,0,0,0,0,0,0,0],"id":18,"left_children":[1,3,5,7,9,11,13,-1,-1,15,17,19,21,23,25,-1,27,-1,-1,29,31,-1,-1,33,35,37,39,-1,-1,-1,-1,-1,-1,-1,-1,-1,-1,-1,-1,-1,-1],"loss_changes":[1.6840432E0,1.2405404E0,1.8430449E0,1.4004867E0,2.053394E0,1.695571E0,1.3418646E0,0E0,0E0,6.2368727E-1,4.8119727E-1,2.2662492E0,9.8001474E-1,1.8609873E0,2.221157E0,0E0,3.1162655E-1,0E0,0E0,1.0521729E0,8.7406445E-1,0E0,0E0,1.1453433E0,1.4879313E0,1.7307566E0,1.5741196E0,0E0,0E0,0E0,0E0,0E0,0E0,0E0,0E0,0E0,0E0,0E0,0E0,0E0,0E0],"parents":[2147483647,0,0,1,1,2,2,3,3,4,4,5,5,6,6,9,9,10,10,11,11,12,12,13,13,14,14,16,16,19,19,20,20,23,23,24,24,25,25,26,26],"right_children":[2,4,6,8,10,12,14,-1,-1,16,18,20,22,24,26,-1,28,-1,-1,30,32,-1,-1,34,36,38,40,-1,-1,-1,-1,-1,-1,-1,-1,-1,-1,-1,-1,-1,-1],"split_conditions":[-1.5393382E-1,1.6162312E1,2.023882E-2,2.0838501E-2,-8.911326E-3,3.8409546E-2,1.2756652E-2,3.0843685E-3,-6.8103806E-3,-6.7776226E-2,6.61793E-3,2.5334697E-2,-4.1758068E-2,5.105133E-3,5.153811E-1,1.2407738E-2,-9.601867E-2,3.429642E-3,-2.9754334E-3,-2.7679476E-1,1.1160216E-2,8.323929E-3,-7.543362E-4,7.53036E1,-6.592064E-3,5.1416703E-3,3.8480334E-2,3.2246436E-3,8.245046E-3,3.976248E-3,-1.2007528E-3,-5.224913E-3,1.611622E-3,1.4471344E-3,5.353905E-3,-1.4855312E-3,7.7676226E-4,-1.1251614E-3,9.897819E-6,7.52308E-4,4.564414E-3],"split_indices":[7,13,11,17,24,18,17,0,0,1,25,18,9,25,11,0,6,0,0,5,26,0,0,13,26,25,26,0,0,0,0,0,0,0,0,0,0,0,0,0,0],"split_type":[0,0,0,0,0,0,0,0,0,0,0,0,0,0,0,0,0,0,0,0,0,0,0,0,0,0,0,0,0,0,0,0,0,0,0,0,0,0,0,0,0],"sum_hessian":[2.9434E4,4.58E2,2.8976E4,1.51E2,3.07E2,1.463E3,2.7513E4,9.5E1,5.6E1,1.89E2,1.18E2,1.345E3,1.18E2,6.025E3,2.1488E4,5.9E1,1.3E2,5E1,6.8E1,7.83E2,5.62E2,6.2E1,5.6E1,2.871E3,3.154E3,1.761E4,3.878E3,5.6E1,7.4E1,1.14E2,6.69E2,5.11E2,5.1E1,2.67E3,2.01E2,1.134E3,2.02E3,4.516E3,1.3094E4,3.586E3,2.92E2],"tree_param":{"num_deleted":"0","num_feature":"29","num_nodes":"41","size_leaf_vector":"1"}},{"base_weights":[1.2743234E-3,-6.05093E-3,8.832446E-3,4.681211E-2,-8.181129E-3,-8.01438E-3,9.502337E-3,6.047389E-2,-4.6141143E-3,6.749263E-2,-9.334275E-3,4.112917E-3,2.8500572E-2,2.4725521E-2,1.2408487E-1,1.2236236E-1,-2.0458242E-3,-1.5696585E-2,6.357233E-3,1.2191488E-2,-1.4155025E-2,9.610135E-2,2.3732278E-2,-1.9392505E-3,3.3576326E-3,8.151671E-3,1.4335389E-3,2.167412E-3,1.0207177E-2,-1.4928494E-3,-4.3022525E-4,1.7529692E-3,-6.253719E-4,9.4785215E-4,-6.166425E-4,1.8031042E-3,-1.0638256E-3,4.745592E-4,6.505237E-3,3.7422038E-3,8.764852E-4],"categories":[],"categories_nodes":[],"categories_segments":[],"categories_sizes":[],"default_left":[0,0,0,0,0,0,0,0,0,0,0,0,0,0,0,0,0,0,0,0,0,0,0,0,0,0,0,0,0,0,0,0,0,0,0,0,0,0,0,0,0],"id":19,"left_children":[1,3,5,7,9,-1,11,13,-1,15,17,19,21,23,25,27,-1,29,31,33,35,37,39,-1,-1,-1,-1,-1,-1,-1,-1,-1,-1,-1,-1,-1,-1,-1,-1,-1,-1],"loss_changes":[1.6235816E0,1.6773528E0,1.6366644E0,1.1020403E0,1.2498863E0,0E0,1.471936E0,1.1930499E0,0E0,1.2839081E0,1.4079623E0,1.6532036E0,1.0217948E0,9.1336894E-1,6.976948E-1,9.1519785E-1,0E0,1.0074248E0,2.2036257E0,1.2889401E0,1.2291934E0,6.142783E-1,9.399345E-1,0E0,0E0,0E0,0E0,0E0,0E0,0E0,0E0,0E0,0E0,0E0,0E0,0E0,0E0,0E0,0E0,0E0,0E0],"parents":[2147483647,0,0,1,1,2,2,3,3,4,4,6,6,7,7,9,9,10,10,11,11,12,12,13,13,14,14,15,15,17,17,18,18,19,19,20,20,21,21,22,22],"right_children":[2,4,6,8,10,-1,12,14,-1,16,18,20,22,24,26,28,-1,30,32,34,36,38,40,-1,-1,-1,-1,-1,-1,-1,-1,-1,-1,-1,-1,-1,-1,-1,-1,-1,-1],"split_conditions":[-1.5258387E-1,-2.5528067E-1,-2.0414007E-1,3.7100313E-3,-1.5393382E-1,-8.01438E-3,6.797433E1,1.1450707E-2,-4.6141143E-3,1.4947231E-1,1.8307801E-2,6.69121E-2,1.0110082E-2,1.1575436E-2,1.5510077E0,3.5105884E-2,-2.0458242E-3,6.8194026E-1,-7.4755654E-2,7.644963E-3,-4.928935E-2,2.6007153E-2,1.6668438E-3,-1.9392505E-3,3.3576326E-3,8.151671E-3,1.4335389E-3,2.167412E-3,1.0207177E-2,-1.4928494E-3,-4.3022525E-4,1.7529692E-3,-6.253719E-4,9.4785215E-4,-6.166425E-4,1.8031042E-3,-1.0638256E-3,4.745592E-4,6.505237E-3,3.7422038E-3,8.764852E-4],"split_indices":[10,4,5,3,7,0,13,25,0,5,24,22,17,11,21,18,0,21,28,0,28,27,4,0,0,0,0,0,0,0,0,0,0,0,0,0,0,0,0,0,0],"split_type":[0,0,0,0,0,0,0,0,0,0,0,0,0,0,0,0,0,0,0,0,0,0,0,0,0,0,0,0,0,0,0,0,0,0,0,0,0,0,0,0,0],"sum_hessian":[2.9323E4,1.4891E4,1.4432E4,5.76E2,1.4315E4,5.6E1,1.4376E4,5.25E2,5.1E1,2.14E2,1.4101E4,1.12E4,3.176E3,3.37E2,1.88E2,1.42E2,7.2E1,1.0033E4,4.068E3,7.766E3,3.434E3,2.08E2,2.968E3,1.35E2,2.02E2,1.33E2,5.5E1,7.3E1,6.9E1,3.347E3,6.686E3,1.613E3,2.455E3,6.087E3,1.679E3,4.26E2,3.008E3,5.9E1,1.49E2,3.2E2,2.648E3],"tree_param":{"num_deleted":"0","num_feature":"29","num_nodes":"41","size_leaf_vector":"1"}},{"base_weights":[8.7296945E-4,-3.3502681E-3,1.43755805E-2,-2.4057783E-2,6.935418E-4,9.555311E-3,6.2494915E-2,-5.3061683E-2,-4.666594E-3,1.0660696E-2,-8.910824E-3,1.5969517E-2,-3.247675E-2,-4.3781274E-3,7.6310396E-2,-2.5318407E-2,-7.987348E-2,-2.9564854E-2,3.2149732E-2,2.304786E-2,-4.4254344E-3,-5.736126E-2,-3.4413084E-3,2.0940859E-2,-5.2067775E-2,-8.638453E-2,1.28910085E-2,3.3755265E-2,1.23045266E-1,-4.247957E-3,1.7247972E-4,-4.841218E-3,9.727169E-4,5.932594E-3,-1.7846156E-3,2.975342E-3,-1.1383448E-3,3.8072418E-3,9.771843E-4,-1.1232477E-3,7.398943E-4,-4.015652E-3,4.0782057E-4,-6.319855E-4,9.496608E-4,3.1649321E-3,7.3246774E-4,-3.5874785E-3,3.5783115E-3,-1.1313314E-3,-6.472032E-3,-8.041928E-4,5.390946E-3,7.5394684E-3,-2.0252191E-3,4.271933E-4,7.7670873E-3],"categories":[],"categories_nodes":[],"categories_segments":[],"categories_sizes":[],"default_left":[0,0,0,0,0,0,0,0,0,0,0,0,0,0,0,0,0,0,0,0,0,0,0,0,0,0,0,0,0,0,0,0,0,0,0,0,0,0,0,0,0,0,0,0,0,0,0,0,0,0,0,0,0,0,0,0,0],"id":20,"left_children":[1,3,5,7,9,11,13,15,17,19,21,23,25,-1,27,29,31,33,35,37,39,41,43,45,47,49,51,53,55,-1,-1,-1,-1,-1,-1,-1,-1,-1,-1,-1,-1,-1,-1,-1,-1,-1,-1,-1,-1,-1,-1,-1,-1,-1,-1,-1,-1],"loss_changes":[1.6696754E0,1.8676925E0,1.6174735E0,2.0492115E0,1.7864788E0,1.7103363E0,1.3231101E0,1.0839939E0,2.003858E0,1.7114974E0,2.5183663E0,1.8624068E0,2.055481E0,0E0,1.1533327E0,1.2339132E0,1.2511849E0,1.188517E0,1.3264365E0,9.3421364E-1,1.4325315E0,1.4502676E0,1.7627758E0,1.3659217E0,9.1763675E-1,1.0512152E0,1.2587234E0,2.6655266E0,1.0230165E0,0E0,0E0,0E0,0E0,0E0,0E0,0E0,0E0,0E0,0E0,0E0,0E0,0E0,0E0,0E0,0E0,0E0,0E0,0E0,0E0,0E0,0E0,0E0,0E0,0E0,0E0,0E0,0E0],"parents":[2147483647,0,0,1,1,2,2,3,3,4,4,5,5,6,6,7,7,8,8,9,9,10,10,11,11,12,12,14,14,15,15,16,16,17,17,18,18,19,19,20,20,21,21,22,22,23,23,24,24,25,25,26,26,27,27,28,28],"right_children":[2,4,6,8,10,12,14,16,18,20,22,24,26,-1,28,30,32,34,36,38,40,42,44,46,48,50,52,54,56,-1,-1,-1,-1,-1,-1,-1,-1,-1,-1,-1,-1,-1,-1,-1,-1,-1,-1,-1,-1,-1,-1,-1,-1,-1,-1,-1,-1],"split_conditions":[-6.451617E-2,5.51681E-1,2.4283381E-2,5.105133E-3,-3.645553E-2,3.1076027E-2,5.6661176E-3,1.4945959E-1,1.4066664E-2,1.6779548E-2,-2.3487507E-1,2.749669E-1,1.3275425E-2,-4.3781274E-3,1.1167993E-2,-2.2788984E-1,4.0794724E-1,-2.3674266E-1,1.0195735E-2,7.676829E-3,9.702019E-3,1.1167993E-2,2.0838501E-2,2.1387997E-1,8.03395E-2,6.4752675E-3,5.537559E-1,2.5400799E-2,2.561055E-2,-4.247957E-3,1.7247972E-4,-4.841218E-3,9.727169E-4,5.932594E-3,-1.7846156E-3,2.975342E-3,-1.1383448E-3,3.8072418E-3,9.771843E-4,-1.1232477E-3,7.398943E-4,-4.015652E-3,4.0782057E-4,-6.319855E-4,9.496608E-4,3.1649321E-3,7.3246774E-4,-3.5874785E-3,3.5783115E-3,-1.1313314E-3,-6.472032E-3,-8.041928E-4,5.390946E-3,7.5394684E-3,-2.0252191E-3,4.271933E-4,7.7670873E-3],"split_indices":[10,21,17,25,28,26,5,11,26,16,5,28,27,0,25,5,5,4,23,16,25,25,17,11,6,6,11,17,17,0,0,0,0,0,0,0,0,0,0,0,0,0,0,0,0,0,0,0,0,0,0,0,0,0,0,0,0],"split_type":[0,0,0,0,0,0,0,0,0,0,0,0,0,0,0,0,0,0,0,0,0,0,0,0,0,0,0,0,0,0,0,0,0,0,0,0,0,0,0,0,0,0,0,0,0,0,0,0,0,0,0,0,0,0,0,0,0],"sum_hessian":[2.9278E4,2.2303E4,6.975E3,3.643E3,1.866E4,6.341E3,6.34E2,1.459E3,2.184E3,9.157E3,9.503E3,5.502E3,8.39E2,5.3E1,5.81E2,7.18E2,7.41E2,1.303E3,8.81E2,5.028E3,4.129E3,9.63E2,8.54E3,5.128E3,3.74E2,3.83E2,4.56E2,3.05E2,2.76E2,2.33E2,4.85E2,6.33E2,1.08E2,5.1E1,1.252E3,5.88E2,2.93E2,3.1E2,4.718E3,2.13E3,1.999E3,7.13E2,2.5E2,6.057E3,2.483E3,6.62E2,4.466E3,3.23E2,5.1E1,1.55E2,2.28E2,3.5E2,1.06E2,1.18E2,1.87E2,6.1E1,2.15E2],"tree_param":{"num_deleted":"0","num_feature":"29","num_nodes":"57","size_leaf_vector":"1"}},{"base_weights":[-5.5254594E-4,-7.512428E-3,6.3421736E-3,4.6401996E-2,-9.747265E-3,3.9982863E-2,3.4314224E-3,-2.5104063E-3,6.398027E-2,6.895456E-2,-1.0770583E-2,6.467139E-2,1.2842266E-2,-5.8240224E-2,5.6162276E-3,1.0303708E-1,1.2761424E-2,-2.9793575E-3,1.18852034E-1,7.548384E-3,-1.498092E-2,2.0808654E-2,1.13925986E-1,4.5703698E-2,-6.888081E-2,-7.822912E-2,1.1704313E-2,1.6873282E-3,3.073938E-2,1.7673975E-3,7.7325623E-3,-1.2729763E-3,4.6724896E-3,3.604084E-3,9.0659605E-3,-8.1671536E-4,2.515376E-3,-1.427577E-3,8.507108E-6,2.850143E-3,-5.997853E-3,4.2660865E-3,9.648527E-3,1.1506666E-3,7.7109085E-3,-6.9598467E-3,3.6513507E-3,-2.986188E-3,-8.240721E-3,4.1285283E-3,-3.0374918E-3,-1.6597661E-3,4.1041148E-4,4.7327047E-3,4.544716E-4],"categories":[],"categories_nodes":[],"categories_segments":[],"categories_sizes":[],"default_left":[0,0,0,0,0,0,0,0,0,0,0,0,0,0,0,0,0,0,0,0,0,0,0,0,0,0,0,0,0,0,0,0,0,0,0,0,0,0,0,0,0,0,0,0,0,0,0,0,0,0,0,0,0,0,0],"id":21,"left_children":[1,3,5,7,9,11,13,-1,15,17,19,21,23,25,27,29,31,-1,33,35,37,39,41,43,45,47,49,51,53,-1,-1,-1,-1,-1,-1,-1,-1,-1,-1,-1,-1,-1,-1,-1,-1,-1,-1,-1,-1,-1,-1,-1,-1,-1,-1],"loss_changes":[1.407154E0,1.7587618E0,1.4423175E0,9.8988914E-1,1.1293075E0,7.851516E-1,1.8272742E0,0E0,9.829042E-1,1.1615853E0,1.0671159E0,1.3241401E0,1.507049E0,6.4964056E-1,1.2926062E0,9.692805E-1,6.623523E-1,0E0,3.6674E-1,2.6416535E0,2.312904E0,1.6677762E0,6.3696766E-1,9.813443E-1,1.616689E0,5.6858397E-1,5.390098E-1,2.576556E0,2.4497612E0,0E0,0E0,0E0,0E0,0E0,0E0,0E0,0E0,0E0,0E0,0E0,0E0,0E0,0E0,0E0,0E0,0E0,0E0,0E0,0E0,0E0,0E0,0E0,0E0,0E0,0E0],"parents":[2147483647,0,0,1,1,2,2,3,3,4,4,5,5,6,6,8,8,9,9,10,10,11,11,12,12,13,13,14,14,15,15,16,16,18,18,19,19,20,20,21,21,22,22,23,23,24,24,25,25,26,26,27,27,28,28],"right_children":[2,4,6,8,10,12,14,-1,16,18,20,22,24,26,28,30,32,-1,34,36,38,40,42,44,46,48,50,52,54,-1,-1,-1,-1,-1,-1,-1,-1,-1,-1,-1,-1,-1,-1,-1,-1,-1,-1,-1,-1,-1,-1,-1,-1,-1,-1],"split_conditions":[-1.579339E-1,-2.5528067E-1,-7.1231164E-2,-1.3377976E-1,7.1668075E-3,-1.1553575E-1,-3.612763E-2,-2.5104063E-3,-6.6371284E-2,9.291863E-3,-1.7543962E-2,-6.468582E-3,2.9507783E-1,3.7503455E-2,2.3000194E-2,-2.9917445E-2,2.5898771E-2,-2.9793575E-3,7.2020817E-1,2.031404E-2,1.3716859E-2,7.793773E-1,1.0235994E0,2.339585E-1,4.785161E-1,2.5917927E-2,1.5154288E0,-1.7543962E-2,9.6418224E-2,1.7673975E-3,7.7325623E-3,-1.2729763E-3,4.6724896E-3,3.604084E-3,9.0659605E-3,-8.1671536E-4,2.515376E-3,-1.427577E-3,8.507108E-6,2.850143E-3,-5.997853E-3,4.2660865E-3,9.648527E-3,1.1506666E-3,7.7109085E-3,-6.9598467E-3,3.6513507E-3,-2.986188E-3,-8.240721E-3,4.1285283E-3,-3.0374918E-3,-1.6597661E-3,4.1041148E-4,4.7327047E-3,4.544716E-4],"split_indices":[10,4,28,9,16,10,9,0,9,17,26,8,11,18,17,1,16,0,21,17,24,14,21,11,11,4,14,26,8,0,0,0,0,0,0,0,0,0,0,0,0,0,0,0,0,0,0,0,0,0,0,0,0,0,0],"split_type":[0,0,0,0,0,0,0,0,0,0,0,0,0,0,0,0,0,0,0,0,0,0,0,0,0,0,0,0,0,0,0,0,0,0,0,0,0,0,0,0,0,0,0,0,0,0,0,0,0,0,0,0,0,0,0],"sum_hessian":[2.9322E4,1.4592E4,1.473E4,5.8E2,1.4012E4,1.172E3,1.3558E4,8.9E1,4.91E2,1.79E2,1.3833E4,6.13E2,5.59E2,4.63E2,1.3095E4,2.78E2,2.13E2,5E1,1.29E2,2.585E3,1.1248E4,3.25E2,2.88E2,3.99E2,1.6E2,3.6E2,1.03E2,1.1325E4,1.77E3,1.21E2,1.57E2,1.45E2,6.8E1,7.5E1,5.4E1,1.659E3,9.26E2,5.933E3,5.315E3,2.59E2,6.6E1,2.13E2,7.5E1,3.31E2,6.8E1,1.07E2,5.3E1,2.98E2,6.2E1,5.2E1,5.1E1,1.783E3,9.542E3,4.47E2,1.323E3],"tree_param":{"num_deleted":"0","num_feature":"29","num_nodes":"55","size_leaf_vector":"1"}},{"base_weights":[-1.2218901E-3,-1.0486928E-2,4.3180543E-3,4.8121486E-2,-1.2663786E-2,-1.9831695E-2,7.692705E-3,-5.2383257E-4,1.0963007E-1,-6.473934E-2,-9.933679E-3,-3.2505877E-2,6.448663E-2,5.521461E-3,4.762443E-2,5.6740744E-3,-4.772015E-2,1.2321945E-2,4.6012443E-2,-7.686954E-3,-9.3243696E-2,-8.97424E-3,-8.1140585E-3,-5.2790334E-3,-6.636206E-2,9.553631E-2,-4.122406E-3,6.2099574E-3,-7.677115E-3,3.4045573E-2,7.823781E-3,-6.958639E-3,3.6319706E-4,-6.8993395E-4,4.597664E-3,4.159182E-3,-4.2612753E-3,-3.395345E-3,-8.926998E-3,-7.7301374E-5,-1.4141917E-3,6.5056155E-3,-6.1001646E-4,-4.8735723E-4,-5.216964E-3,6.961919E-3,6.074812E-4,2.5973117E-4,4.704704E-3,6.5487023E-3,7.923045E-4],"categories":[],"categories_nodes":[],"categories_segments":[],"categories_sizes":[],"default_left":[0,0,0,0,0,0,0,0,0,0,0,0,0,0,0,0,0,0,0,0,0,0,0,0,0,0,0,0,0,0,0,0,0,0,0,0,0,0,0,0,0,0,0,0,0,0,0,0,0,0,0],"id":22,"left_children":[1,3,5,7,9,11,13,15,17,19,21,23,25,27,29,-1,31,-1,33,35,37,39,-1,41,43,45,-1,47,-1,49,-1,-1,-1,-1,-1,-1,-1,-1,-1,-1,-1,-1,-1,-1,-1,-1,-1,-1,-1,-1,-1],"loss_changes":[1.5083125E0,1.4035033E0,1.4988818E0,1.1789467E0,1.506805E0,2.411938E0,1.3987528E0,1.1945349E0,1.5030618E0,8.579385E-1,1.4713345E0,1.8072937E0,1.3537481E0,1.677078E0,1.2244309E0,0E0,7.90476E-1,0E0,3.3100155E-1,1.2542268E0,7.48595E-1,1.4363217E0,0E0,1.0211341E0,1.8781505E0,8.87486E-1,0E0,1.3594037E0,0E0,1.3050842E0,0E0,0E0,0E0,0E0,0E0,0E0,0E0,0E0,0E0,0E0,0E0,0E0,0E0,0E0,0E0,0E0,0E0,0E0,0E0,0E0,0E0],"parents":[2147483647,0,0,1,1,2,2,3,3,4,4,5,5,6,6,7,7,8,8,9,9,10,10,11,11,12,12,13,13,14,14,16,16,18,18,19,19,20,20,21,21,23,23,24,24,25,25,27,27,29,29],"right_children":[2,4,6,8,10,12,14,16,18,20,22,24,26,28,30,-1,32,-1,34,36,38,40,-1,42,44,46,-1,48,-1,50,-1,-1,-1,-1,-1,-1,-1,-1,-1,-1,-1,-1,-1,-1,-1,-1,-1,-1,-1,-1,-1],"split_conditions":[-7.2293945E-2,-1.403591E-1,-3.6864024E-2,9.564394E-3,4.930881E-3,1.6064899E0,3.0249553E-2,1.6063254E-2,2.963613E-1,-2.3487507E-1,5.399766E0,1.4648926E-1,1.25034535E-2,4.649799E-1,1.7529215E-1,5.6740744E-3,7.69229E0,1.2321945E-2,-5.197154E-1,-5.0307694E-3,2.6950356E1,-1.2738809E-1,-8.1140585E-3,-9.5014915E-2,-2.7349243E-2,3.1820466E-3,-4.122406E-3,4.0017393E-1,-7.677115E-3,-1.05687454E-1,7.823781E-3,-6.958639E-3,3.6319706E-4,-6.8993395E-4,4.597664E-3,4.159182E-3,-4.2612753E-3,-3.395345E-3,-8.926998E-3,-7.7301374E-5,-1.4141917E-3,6.5056155E-3,-6.1001646E-4,-4.8735723E-4,-5.216964E-3,6.961919E-3,6.074812E-4,2.5973117E-4,4.704704E-3,6.5487023E-3,7.923045E-4],"split_indices":[5,7,9,11,11,21,16,16,19,5,21,5,24,8,2,0,12,0,10,24,12,5,0,9,2,20,0,28,0,8,0,0,0,0,0,0,0,0,0,0,0,0,0,0,0,0,0,0,0,0,0],"split_type":[0,0,0,0,0,0,0,0,0,0,0,0,0,0,0,0,0,0,0,0,0,0,0,0,0,0,0,0,0,0,0,0,0,0,0,0,0,0,0,0,0,0,0,0,0,0,0,0,0,0,0],"sum_hessian":[2.9384E4,1.0995E4,1.8389E4,3.93E2,1.0602E4,2.254E3,1.6135E4,2.2E2,1.73E2,5.27E2,1.0075E4,1.96E3,2.94E2,1.5304E4,8.31E2,6.4E1,1.56E2,5.4E1,1.19E2,1.76E2,3.51E2,1.0013E4,6.2E1,1.087E3,8.73E2,2.43E2,5.1E1,1.5239E4,6.5E1,7.4E2,9.1E1,5.8E1,9.8E1,5.2E1,6.7E1,8.1E1,9.5E1,2.72E2,7.9E1,7.232E3,2.781E3,5.2E1,1.035E3,3.51E2,5.22E2,1.59E2,8.4E1,1.5066E4,1.73E2,1.16E2,6.24E2],"tree_param":{"num_deleted":"0","num_feature":"29","num_nodes":"51","size_leaf_vector":"1"}},{"base_weights":[6.304272E-5,7.2478765E-4,-8.206681E-2,-3.5099607E-4,3.8820863E-2,6.9420715E-4,-1.3754109E-1,8.7523395E-3,-5.6491983E-3,9.453675E-2,8.031987E-3,-3.0619258E-3,-1.0807024E-2,-4.9254436E-2,1.3287709E-2,-2.415394E-2,-1.2376571E-4,3.7344925E-2,1.5604803E-1,-1.0725761E-1,4.2022336E-2,-3.4621116E-3,8.3167444E-4,6.095952E-4,8.287284E-3,-3.0473496E-3,-4.0714955E-4,-5.1836006E-4,7.31304E-4,5.7581128E-3,-3.8402022E-3,1.3319488E-2,3.9394842E-3,-2.4396772E-3,-8.66692E-3,8.017163E-3,2.5756954E-4],"categories":[],"categories_nodes":[],"categories_segments":[],"categories_sizes":[],"default_left":[0,0,0,0,0,0,0,0,0,0,0,0,0,0,0,0,0,0,0,0,0,0,0,0,0,0,0,0,0,0,0,0,0,0,0,0,0],"id":23,"left_children":[1,3,5,7,9,-1,11,13,15,17,19,-1,-1,21,23,25,27,29,31,33,35,-1,-1,-1,-1,-1,-1,-1,-1,-1,-1,-1,-1,-1,-1,-1,-1],"loss_changes":[1.5979205E0,1.1953278E0,1.2527697E0,1.368179E0,1.3732998E0,0E0,8.8036704E-1,2.74618E0,1.8333826E0,9.967859E-1,2.0304925E0,0E0,0E0,9.980862E-1,1.6151615E0,2.4283278E0,2.0865407E0,1.3323773E0,1.1469111E0,4.4741762E-1,1.7442158E0,0E0,0E0,0E0,0E0,0E0,0E0,0E0,0E0,0E0,0E0,0E0,0E0,0E0,0E0,0E0,0E0],"parents":[2147483647,0,0,1,1,2,2,3,3,4,4,6,6,7,7,8,8,9,9,10,10,13,13,14,14,15,15,16,16,17,17,18,18,19,19,20,20],"right_children":[2,4,6,8,10,-1,12,14,16,18,20,-1,-1,22,24,26,28,30,32,34,36,-1,-1,-1,-1,-1,-1,-1,-1,-1,-1,-1,-1,-1,-1,-1,-1],"split_conditions":[4.01331E0,3.3879876E-2,-5.744088E-3,2.197271E-2,5.2015604E-3,6.9420715E-4,2.884106E-1,-1.8176617E-2,5.105133E-3,-6.1691023E-2,-2.2788984E-1,-3.0619258E-3,-1.0807024E-2,3.9310243E-2,8.952471E-2,-4.740602E-2,2.0600956E-2,-8.309765E-2,3.765856E-2,-1.362364E-1,-1.4977533E-2,-3.4621116E-3,8.3167444E-4,6.095952E-4,8.287284E-3,-3.0473496E-3,-4.0714955E-4,-5.1836006E-4,7.31304E-4,5.7581128E-3,-3.8402022E-3,1.3319488E-2,3.9394842E-3,-2.4396772E-3,-8.66692E-3,8.017163E-3,2.5756954E-4],"split_indices":[21,17,23,18,3,0,22,23,25,3,5,0,0,3,9,8,17,7,17,4,5,0,0,0,0,0,0,0,0,0,0,0,0,0,0,0,0],"split_type":[0,0,0,0,0,0,0,0,0,0,0,0,0,0,0,0,0,0,0,0,0,0,0,0,0,0,0,0,0,0,0,0,0,0,0,0,0],"sum_hessian":[2.9399E4,2.9165E4,2.34E2,2.8365E4,8E2,8.6E1,1.48E2,1.0435E4,1.793E4,2.84E2,5.16E2,7.6E1,7.2E1,7.56E2,9.679E3,4.122E3,1.3808E4,1.48E2,1.36E2,1.17E2,3.99E2,5.8E2,1.76E2,9.611E3,6.8E1,1.249E3,2.873E3,8.149E3,5.659E3,8.8E1,6E1,5.5E1,8.1E1,6.3E1,5.4E1,9.4E1,3.05E2],"tree_param":{"num_deleted":"0","num_feature":"29","num_nodes":"37","size_leaf_vector":"1"}},{"base_weights":[-2.265598E-4,3.7570167E-4,-8.016205E-2,-1.7462583E-2,2.4287896E-3,-1.255668E-1,2.0123252E-3,-2.7370851E-2,3.7609346E-2,8.8057766E-4,3.698222E-2,-2.7586867E-3,-1.5894888E-1,-2.211965E-2,-1.0955025E-2,6.590797E-2,-5.6657493E-3,-4.8023456E-5,6.533241E-2,4.703568E-2,-8.3435625E-3,-1.0997972E-2,-5.128059E-3,-1.4118362E-3,3.0992634E-3,8.802726E-3,2.4546618E-3,5.046548E-4,-3.2414912E-4,4.421854E-3,-2.745128E-3,3.7199694E-3,-4.298803E-4],"categories":[],"categories_nodes":[],"categories_segments":[],"categories_sizes":[],"default_left":[0,0,0,0,0,0,0,0,0,0,0,0,0,0,0,0,0,0,0,0,0,0,0,0,0,0,0,0,0,0,0,0,0],"id":24,"left_children":[1,3,5,7,9,11,-1,13,15,17,19,-1,21,23,-1,25,-1,27,29,31,-1,-1,-1,-1,-1,-1,-1,-1,-1,-1,-1,-1,-1],"loss_changes":[1.4163216E0,1.0694506E0,1.20782E0,1.6456711E0,1.4008682E0,3.6720896E-1,0E0,2.5675547E0,1.972106E0,1.5001445E0,2.3093612E0,0E0,3.4898734E-1,1.2817667E0,0E0,7.0996606E-1,0E0,1.6125829E0,9.938195E-1,1.6310585E0,0E0,0E0,0E0,0E0,0E0,0E0,0E0,0E0,0E0,0E0,0E0,0E0,0E0],"parents":[2147483647,0,0,1,1,2,2,3,3,4,4,5,5,7,7,8,8,9,9,10,10,12,12,13,13,15,15,17,17,18,18,19,19],"right_children":[2,4,6,8,10,12,-1,14,16,18,20,-1,22,24,-1,26,-1,28,30,32,-1,-1,-1,-1,-1,-1,-1,-1,-1,-1,-1,-1,-1],"split_conditions":[4.01331E0,4.9187112E-1,1.082691E-2,3.719995E-2,5.856378E-1,-9.853151E-3,2.0123252E-3,2.3485121E-1,2.6810065E-2,1.6089879E-1,4.288301E-2,-2.7586867E-3,5.4007256E-3,-6.902347E-2,-1.0955025E-2,6.380026E-3,-5.6657493E-3,2.2055248E-2,4.0023956E-2,6.439251E1,-8.3435625E-3,-1.0997972E-2,-5.128059E-3,-1.4118362E-3,3.0992634E-3,8.802726E-3,2.4546618E-3,5.046548E-4,-3.2414912E-4,4.421854E-3,-2.745128E-3,3.7199694E-3,-4.298803E-4],"split_indices":[21,21,25,9,5,23,0,8,16,2,23,0,25,10,0,28,0,18,16,12,0,0,0,0,0,0,0,0,0,0,0,0,0],"split_type":[0,0,0,0,0,0,0,0,0,0,0,0,0,0,0,0,0,0,0,0,0,0,0,0,0,0,0,0,0,0,0,0,0],"sum_hessian":[2.9418E4,2.9199E4,2.19E2,3.013E3,2.6186E4,1.59E2,6E1,2.554E3,4.59E2,2.5064E4,1.122E3,5.2E1,1.07E2,2.487E3,6.7E1,3.87E2,7.2E1,2.4709E4,3.55E2,1.07E3,5.2E1,5E1,5.7E1,2.319E3,1.68E2,5E1,3.37E2,9.592E3,1.5117E4,2.98E2,5.7E1,7.17E2,3.53E2],"tree_param":{"num_deleted":"0","num_feature":"29","num_nodes":"33","size_leaf_vector":"1"}},{"base_weights":[-9.106127E-4,8.736785E-3,-6.2664784E-3,-5.572901E-2,1.2412411E-2,-1.6758474E-2,4.517196E-3,-6.831779E-2,8.5850427E-4,1.4558811E-2,-6.0631774E-2,1.0744757E-1,-1.8388737E-2,2.9575948E-2,-2.8747874E-3,-5.2809045E-2,-9.267602E-3,-1.4322349E-2,2.0198386E-2,-6.867201E-3,-2.2360291E-2,1.5514815E-3,9.83639E-3,-8.66811E-2,-1.4323476E-2,7.896551E-2,1.5871868E-2,-1.1907396E-2,2.4169406E-2,-3.882919E-3,-1.1942442E-4,-2.857596E-4,-6.6097523E-3,4.617578E-4,1.6537327E-3,2.365379E-3,-4.021257E-3,-3.0666157E-3,-9.558618E-3,-6.346919E-5,-1.3566696E-3,2.5476855E-3,9.163394E-3,-4.997444E-4,2.0969189E-3,1.0874355E-3,-1.0915734E-3,6.1808364E-3,7.786231E-4],"categories":[],"categories_nodes":[],"categories_segments":[],"categories_sizes":[],"default_left":[0,0,0,0,0,0,0,0,0,0,0,0,0,0,0,0,0,0,0,0,0,0,0,0,0,0,0,0,0,0,0,0,0,0,0,0,0,0,0,0,0,0,0,0,0,0,0,0,0],"id":25,"left_children":[1,3,5,7,9,11,13,15,-1,17,19,21,23,25,27,29,-1,31,33,-1,35,-1,-1,37,39,41,43,45,47,-1,-1,-1,-1,-1,-1,-1,-1,-1,-1,-1,-1,-1,-1,-1,-1,-1,-1,-1,-1],"loss_changes":[1.5155923E0,2.4818182E0,2.1340518E0,5.1968E-1,1.5541217E0,1.9377663E0,1.7231305E0,8.650682E-1,0E0,1.5679853E0,8.277861E-1,8.398994E-1,2.6187174E0,1.4329674E0,1.7551925E0,5.348103E-1,0E0,1.5951297E0,1.1365001E0,0E0,7.7240306E-1,0E0,0E0,1.3921008E0,1.4895778E0,1.3346426E0,1.1196841E0,1.799429E0,1.5361174E0,0E0,0E0,0E0,0E0,0E0,0E0,0E0,0E0,0E0,0E0,0E0,0E0,0E0,0E0,0E0,0E0,0E0,0E0,0E0,0E0],"parents":[2147483647,0,0,1,1,2,2,3,3,4,4,5,5,6,6,7,7,9,9,10,10,11,11,12,12,13,13,14,14,15,15,17,17,18,18,20,20,23,23,24,24,25,25,26,26,27,27,28,28],"right_children":[2,4,6,8,10,12,14,16,-1,18,20,22,24,26,28,30,-1,32,34,-1,36,-1,-1,38,40,42,44,46,48,-1,-1,-1,-1,-1,-1,-1,-1,-1,-1,-1,-1,-1,-1,-1,-1,-1,-1,-1,-1],"split_conditions":[2.197271E-2,-2.0714886E-2,2.9999819E-2,4.1951723E-2,3.9322793E-2,-8.94435E-2,-1.3672526E-2,8.749505E-2,8.5850427E-4,5.79678E-1,-1.610597E-1,-1.680302E-1,-1.67948E-1,-7.1035676E-2,3.59529E-2,-1.45109715E-2,-9.267602E-3,1.6703346E-1,7.921567E-3,-6.867201E-3,-8.5213855E-2,1.5514815E-3,9.83639E-3,-7.0116395E-4,6.6146567E-3,2.8657699E-2,1.4564111E-3,-1.7507901E-2,-2.993645E-2,-3.882919E-3,-1.1942442E-4,-2.857596E-4,-6.6097523E-3,4.617578E-4,1.6537327E-3,2.365379E-3,-4.021257E-3,-3.0666157E-3,-9.558618E-3,-6.346919E-5,-1.3566696E-3,2.5476855E-3,9.163394E-3,-4.997444E-4,2.0969189E-3,1.0874355E-3,-1.0915734E-3,6.1808364E-3,7.786231E-4],"split_indices":[18,26,18,3,26,9,23,28,0,21,10,5,4,27,26,23,0,8,5,0,10,0,0,3,26,16,9,26,9,0,0,0,0,0,0,0,0,0,0,0,0,0,0,0,0,0,0,0,0],"split_type":[0,0,0,0,0,0,0,0,0,0,0,0,0,0,0,0,0,0,0,0,0,0,0,0,0,0,0,0,0,0,0,0,0,0,0,0,0,0,0,0,0,0,0,0,0,0,0,0,0],"sum_hessian":[2.933E4,1.047E4,1.886E4,5.64E2,9.906E3,9.559E3,9.301E3,4.81E2,8.3E1,9.624E3,2.82E2,1.23E2,9.436E3,2.118E3,7.183E3,4.26E2,5.5E1,1.572E3,8.052E3,9.3E1,1.89E2,6.7E1,5.6E1,5.29E2,8.907E3,4.59E2,1.659E3,5.385E3,1.798E3,2.85E2,1.41E2,1.466E3,1.06E2,4.35E3,3.702E3,8.6E1,1.03E2,4.27E2,1.02E2,4.412E3,4.495E3,3.63E2,9.6E1,8.33E2,8.26E2,1.226E3,4.159E3,1.42E2,1.656E3],"tree_param":{"num_deleted":"0","num_feature":"29","num_nodes":"49","size_leaf_vector":"1"}},{"base_weights":[7.196648E-4,-1.4839254E-3,1.6133755E-2,-1.0196732E-3,-1.15233764E-1,2.04544E-2,-1.03181265E-1,-1.5564524E-3,7.0831776E-2,-1.1455517E-2,1.524392E-4,1.5219938E-2,1.01116024E-1,-1.0659975E-2,1.6997474E-4,-7.5848366E-4,-5.9608214E-2,7.5928755E-3,-1.3998563E-4,2.9835943E-2,-2.059142E-2,1.7754844E-1,-1.0097902E-3,-7.203471E-5,2.7562054E-3,-5.8490853E-3,2.75791E-3,-5.178025E-4,2.7888557E-3,-2.1641275E-4,-5.7237498E-3,1.1525664E-2,4.712576E-3],"categories":[],"categories_nodes":[],"categories_segments":[],"categories_sizes":[],"default_left":[0,0,0,0,0,0,0,0,0,0,0,0,0,0,0,0,0,0,0,0,0,0,0,0,0,0,0,0,0,0,0,0,0],"id":26,"left_children":[1,3,5,7,9,11,13,15,17,-1,-1,19,21,-1,-1,23,25,-1,-1,27,29,31,-1,-1,-1,-1,-1,-1,-1,-1,-1,-1,-1],"loss_changes":[9.933696E-1,1.3511493E0,1.8878736E0,9.8302495E-1,1.4015381E0,1.4893203E0,1.5016305E0,1.1718E0,1.1280078E0,0E0,0E0,1.736795E0,1.9970989E0,0E0,0E0,9.514561E-1,2.264953E0,0E0,0E0,2.4570076E0,1.4683285E0,5.606327E-1,0E0,0E0,0E0,0E0,0E0,0E0,0E0,0E0,0E0,0E0,0E0],"parents":[2147483647,0,0,1,1,2,2,3,3,4,4,5,5,6,6,7,7,8,8,11,11,12,12,15,15,16,16,19,19,20,20,21,21],"right_children":[2,4,6,8,10,12,14,16,18,-1,-1,20,22,-1,-1,24,26,-1,-1,28,30,32,-1,-1,-1,-1,-1,-1,-1,-1,-1,-1,-1],"split_conditions":[3.268216E-1,3.5931125E-1,4.288301E-2,2.8600442E-1,6.2310174E-3,3.705363E-1,8.05911E1,6.6161436E-1,2.6886523E-1,-1.1455517E-2,1.524392E-4,2.0283495E-1,1.4126167E0,-1.0659975E-2,1.6997474E-4,1.6089879E-1,1.51930405E-2,7.5928755E-3,-1.3998563E-4,-1.03625925E-2,6.467791E-2,4.369365E-3,-1.0097902E-3,-7.203471E-5,2.7562054E-3,-5.8490853E-3,2.75791E-3,-5.178025E-4,2.7888557E-3,-2.1641275E-4,-5.7237498E-3,1.1525664E-2,4.712576E-3],"split_indices":[5,8,23,8,25,4,12,11,4,0,0,8,14,0,0,2,24,0,0,9,1,23,0,0,0,0,0,0,0,0,0,0,0],"split_type":[0,0,0,0,0,0,0,0,0,0,0,0,0,0,0,0,0,0,0,0,0,0,0,0,0,0,0,0,0,0,0,0,0],"sum_hessian":[2.9244E4,2.5587E4,3.657E3,2.5484E4,1.03E2,3.53E3,1.27E2,2.5296E4,1.88E2,5.2E1,5.1E1,3.316E3,2.14E2,6.2E1,6.5E1,2.4954E4,3.42E2,8.9E1,9.9E1,2.355E3,9.61E2,1.31E2,8.3E1,2.4654E4,3E2,2.28E2,1.14E2,9.24E2,1.431E3,8.2E2,1.41E2,7.9E1,5.2E1],"tree_param":{"num_deleted":"0","num_feature":"29","num_nodes":"33","size_leaf_vector":"1"}},{"base_weights":[-3.469552E-4,7.7855596E-3,-4.718318E-3,-9.061901E-2,1.1032583E-2,-2.31383E-2,6.521596E-4,-1.09625965E-1,-1.241313E-5,9.911898E-3,7.0411596E-3,-4.521385E-2,5.110097E-3,3.228457E-2,-3.7929197E-3,-4.779442E-2,-1.5030089E-1,2.2603272E-2,-1.5068675E-3,-1.7342215E-2,-7.552341E-2,2.2496363E-2,-4.3869186E-2,1.0134001E-2,7.726911E-2,-1.4360044E-2,1.0271934E-2,-5.238522E-3,1.133054E-4,-8.985941E-3,-4.3796063E-3,7.3783274E-4,3.139762E-3,5.389491E-4,-1.2279514E-3,3.5909968E-4,-2.9202153E-3,-2.5331415E-3,-7.7627334E-3,5.0161394E-5,3.454346E-3,-4.3585463E-3,1.6316858E-3,2.7307658E-3,-2.0589156E-3,4.743486E-3,-2.098079E-3,7.8273115E-5,-2.257583E-3,2.3112947E-3,7.050054E-5],"categories":[],"categories_nodes":[],"categories_segments":[],"categories_sizes":[],"default_left":[0,0,0,0,0,0,0,0,0,0,0,0,0,0,0,0,0,0,0,0,0,0,0,0,0,0,0,0,0,0,0,0,0,0,0,0,0,0,0,0,0,0,0,0,0,0,0,0,0,0,0],"id":27,"left_children":[1,3,5,7,9,11,13,15,-1,17,-1,19,21,23,25,27,29,31,33,35,37,39,41,43,45,47,49,-1,-1,-1,-1,-1,-1,-1,-1,-1,-1,-1,-1,-1,-1,-1,-1,-1,-1,-1,-1,-1,-1,-1,-1],"loss_changes":[1.0438255E0,3.2808924E0,1.8891685E0,5.633693E-1,1.44413E0,2.6885655E0,2.0793014E0,6.743798E-1,0E0,1.4280739E0,0E0,2.0430508E0,1.6121514E0,1.8147179E0,1.9272199E0,3.111326E-1,2.8495407E-1,1.4709096E0,1.469586E0,1.2712728E0,2.2894635E0,1.3988545E0,1.6459483E0,2.7913897E0,1.2651994E0,3.6307857E0,1.7724247E0,0E0,0E0,0E0,0E0,0E0,0E0,0E0,0E0,0E0,0E0,0E0,0E0,0E0,0E0,0E0,0E0,0E0,0E0,0E0,0E0,0E0,0E0,0E0,0E0],"parents":[2147483647,0,0,1,1,2,2,3,3,4,4,5,5,6,6,7,7,9,9,11,11,12,12,13,13,14,14,15,15,16,16,17,17,18,18,19,19,20,20,21,21,22,22,23,23,24,24,25,25,26,26],"right_children":[2,4,6,8,10,12,14,16,-1,18,-1,20,22,24,26,28,30,32,34,36,38,40,42,44,46,48,50,-1,-1,-1,-1,-1,-1,-1,-1,-1,-1,-1,-1,-1,-1,-1,-1,-1,-1,-1,-1,-1,-1,-1,-1],"split_conditions":[2.1902297E-2,-2.650778E-2,5.105133E-3,5.0507003E-1,8.952471E-2,8.2756085E-3,-1.3819118E-1,-3.532515E-2,-1.241313E-5,5.105133E-3,7.0411596E-3,-1.230661E-2,2.1975348E-2,1.14415875E-2,2.0600956E-2,-1.3044688E-1,2.072403E-2,6.643945E1,2.4839954E-2,1.9112555E-2,1.7884787E-2,4.8513076E-1,3.7728742E-1,6.5994384E-3,3.8218446E-2,1.1167993E-2,-3.5332173E-2,-5.238522E-3,1.133054E-4,-8.985941E-3,-4.3796063E-3,7.3783274E-4,3.139762E-3,5.389491E-4,-1.2279514E-3,3.5909968E-4,-2.9202153E-3,-2.5331415E-3,-7.7627334E-3,5.0161394E-5,3.454346E-3,-4.3585463E-3,1.6316858E-3,2.7307658E-3,-2.0589156E-3,4.743486E-3,-2.098079E-3,7.8273115E-5,-2.257583E-3,2.3112947E-3,7.050054E-5],"split_indices":[18,26,25,14,9,9,28,28,0,25,0,1,17,25,17,4,18,13,7,17,26,11,5,25,16,25,2,0,0,0,0,0,0,0,0,0,0,0,0,0,0,0,0,0,0,0,0,0,0,0,0],"split_type":[0,0,0,0,0,0,0,0,0,0,0,0,0,0,0,0,0,0,0,0,0,0,0,0,0,0,0,0,0,0,0,0,0,0,0,0,0,0,0,0,0,0,0,0,0,0,0,0,0,0,0],"sum_hessian":[2.936E4,1.0264E4,1.9096E4,3.27E2,9.937E3,4.31E3,1.4786E4,2.7E2,5.7E1,9.853E3,8.4E1,2.419E3,1.891E3,1.821E3,1.2965E4,1.08E2,1.62E2,4.666E3,5.187E3,1.261E3,1.158E3,1.396E3,4.95E2,1.221E3,6E2,7.403E3,5.562E3,5E1,5.8E1,1.09E2,5.3E1,3.905E3,7.61E2,3.384E3,1.803E3,7.9E2,4.71E2,8.84E2,2.74E2,9.56E2,4.4E2,3.16E2,1.79E2,6.54E2,5.67E2,5.23E2,7.7E1,4.88E3,2.523E3,1.099E3,4.463E3],"tree_param":{"num_deleted":"0","num_feature":"29","num_nodes":"51","size_leaf_vector":"1"}},{"base_weights":[-5.9131267E-5,8.890637E-3,-4.9400893E-3,-3.8707916E-2,1.2689821E-2,-2.2948334E-2,1.9619832E-4,-8.3845325E-2,4.225312E-3,1.127231E-2,1.21320136E-1,7.928492E-3,-5.141234E-2,-1.1636082E-2,8.867425E-3,-4.0158235E-2,-1.3332744E-1,3.4745656E-2,-6.441732E-2,1.3307389E-2,-8.422699E-2,2.322139E-3,1.1305935E-2,-5.8352277E-3,7.058276E-2,-7.416784E-2,-5.390301E-3,-7.6720655E-2,-6.480081E-3,6.970566E-3,6.4100504E-2,-5.614485E-3,-2.1655519E-4,-4.800106E-3,-9.96027E-3,5.1291296E-3,-5.9748447E-4,-7.0059765E-4,-6.03835E-3,7.7627157E-4,-2.8599023E-3,-6.9656507E-3,2.0435785E-3,1.746425E-3,-1.4366426E-3,4.7521414E-3,-1.9449083E-3,-6.548371E-3,-2.8811775E-3,-1.4249216E-3,2.1106869E-3,-2.4590597E-3,-6.190117E-3,1.657007E-4,-1.9278191E-3,3.9207056E-4,-5.4789986E-3,8.179388E-3,1.0533795E-3],"categories":[],"categories_nodes":[],"categories_segments":[],"categories_sizes":[],"default_left":[0,0,0,0,0,0,0,0,0,0,0,0,0,0,0,0,0,0,0,0,0,0,0,0,0,0,0,0,0,0,0,0,0,0,0,0,0,0,0,0,0,0,0,0,0,0,0,0,0,0,0,0,0,0,0,0,0,0,0],"id":28,"left_children":[1,3,5,7,9,11,13,15,17,19,21,23,25,27,29,31,33,35,37,39,41,-1,-1,43,45,47,49,51,53,55,57,-1,-1,-1,-1,-1,-1,-1,-1,-1,-1,-1,-1,-1,-1,-1,-1,-1,-1,-1,-1,-1,-1,-1,-1,-1,-1,-1,-1],"loss_changes":[1.277304E0,1.8665346E0,1.750112E0,1.4789681E0,1.470264E0,3.690817E0,1.5106888E0,7.988093E-1,8.234769E-1,1.8347996E0,9.5468414E-1,1.7380588E0,2.2878518E0,2.0891356E0,8.8977855E-1,5.1378214E-1,4.0872693E-1,8.6283183E-1,3.419873E-1,1.4457204E0,1.3632569E0,0E0,0E0,1.5439014E0,9.757786E-1,1.3663082E0,7.9763216E-1,5.864594E-1,1.8131354E0,8.3476245E-1,1.2038596E0,0E0,0E0,0E0,0E0,0E0,0E0,0E0,0E0,0E0,0E0,0E0,0E0,0E0,0E0,0E0,0E0,0E0,0E0,0E0,0E0,0E0,0E0,0E0,0E0,0E0,0E0,0E0,0E0],"parents":[2147483647,0,0,1,1,2,2,3,3,4,4,5,5,6,6,7,7,8,8,9,9,10,10,11,11,12,12,13,13,14,14,15,15,16,16,17,17,18,18,19,19,20,20,23,23,24,24,25,25,26,26,27,27,28,28,29,29,30,30],"right_children":[2,4,6,8,10,12,14,16,18,20,22,24,26,28,30,32,34,36,38,40,42,-1,-1,44,46,48,50,52,54,56,58,-1,-1,-1,-1,-1,-1,-1,-1,-1,-1,-1,-1,-1,-1,-1,-1,-1,-1,-1,-1,-1,-1,-1,-1,-1,-1,-1,-1],"split_conditions":[2.197271E-2,-1.8176617E-2,5.105133E-3,-5.2152495E-3,7.4100363E-1,-1.230661E-2,2.9340124E-2,-3.2216687E-2,8.922651E-2,2.1340656E-1,8.3250756E-4,-8.635954E-2,4.785161E-1,-8.901675E-3,9.063337E-2,-3.0690642E-2,-1.5718648E0,-6.169123E-3,3.3760343E-2,3.9322793E-2,9.469073E-2,2.322139E-3,1.1305935E-2,4.668261E-3,6.324924E-2,-3.936741E-2,9.920698E-2,1.7128894E-2,1.1356757E-2,6.110687E0,-8.9274615E-2,-5.614485E-3,-2.1655519E-4,-4.800106E-3,-9.96027E-3,5.1291296E-3,-5.9748447E-4,-7.0059765E-4,-6.03835E-3,7.7627157E-4,-2.8599023E-3,-6.9656507E-3,2.0435785E-3,1.746425E-3,-1.4366426E-3,4.7521414E-3,-1.9449083E-3,-6.548371E-3,-2.8811775E-3,-1.4249216E-3,2.1106869E-3,-2.4590597E-3,-6.190117E-3,1.657007E-4,-1.9278191E-3,3.9207056E-4,-5.4789986E-3,8.179388E-3,1.0533795E-3],"split_indices":[18,23,25,3,11,1,18,28,28,8,23,10,11,20,24,9,14,0,9,26,27,0,0,25,9,3,27,9,25,22,28,0,0,0,0,0,0,0,0,0,0,0,0,0,0,0,0,0,0,0,0,0,0,0,0,0,0,0,0],"split_type":[0,0,0,0,0,0,0,0,0,0,0,0,0,0,0,0,0,0,0,0,0,0,0,0,0,0,0,0,0,0,0,0,0,0,0,0,0,0,0,0,0,0,0,0,0,0,0,0,0,0,0,0,0,0,0,0,0,0,0],"sum_hessian":[2.9238E4,1.0318E4,1.892E4,7.62E2,9.556E3,4.198E3,1.4722E4,3.71E2,3.91E2,9.434E3,1.22E2,2.014E3,2.184E3,6.226E3,8.496E3,1.98E2,1.73E2,2.71E2,1.2E2,9.238E3,1.96E2,7.2E1,5E1,1.652E3,3.62E2,1.461E3,7.23E2,4.56E2,5.77E3,8.215E3,2.81E2,6.5E1,1.33E2,1.12E2,6.1E1,1.1E2,1.61E2,6.4E1,5.6E1,8.957E3,2.81E2,1.36E2,6E1,5.94E2,1.058E3,2.96E2,6.6E1,3.28E2,1.133E3,4.87E2,2.36E2,2.89E2,1.67E2,4.421E3,1.349E3,8.155E3,6E1,8.4E1,1.97E2],"tree_param":{"num_deleted":"0","num_feature":"29","num_nodes":"59","size_leaf_vector":"1"}},{"base_weights":[2.3453604E-4,-2.436464E-3,1.6998604E-2,7.516738E-3,-8.349445E-3,-7.0965745E-2,2.1886177E-2,1.1563067E-2,-5.286388E-2,-2.7413761E-2,-2.9332438E-3,-8.801635E-3,1.805434E-4,5.037588E-2,1.0837331E-2,9.190515E-3,6.568613E-2,-1.0435753E-1,-1.9339288E-2,-1.642608E-2,-8.379751E-2,-1.7868878E-2,7.946106E-3,-3.3087109E-3,2.9851005E-3,6.606085E-2,-3.077239E-2,-4.793658E-2,2.2030104E-2,3.492093E-4,4.1866996E-3,1.8296657E-3,7.2771073E-3,-3.0280112E-3,-1.1378839E-2,-4.5218016E-3,2.0823937E-3,3.077202E-4,-1.8165115E-3,-2.2889122E-3,-7.5491252E-3,5.632458E-3,-1.0284024E-3,1.2537927E-3,-5.11212E-4,2.2894477E-3,5.4940595E-3,5.624119E-3,-4.9855476E-3,-6.305338E-3,-1.3935356E-3,4.354618E-3,2.5050048E-4],"categories":[],"categories_nodes":[],"categories_segments":[],"categories_sizes":[],"default_left":[0,0,0,0,0,0,0,0,0,0,0,0,0,0,0,0,0,0,0,0,0,0,0,0,0,0,0,0,0,0,0,0,0,0,0,0,0,0,0,0,0,0,0,0,0,0,0,0,0,0,0,0,0],"id":29,"left_children":[1,3,5,7,9,11,13,15,17,19,21,-1,23,25,27,29,31,33,35,37,39,41,43,-1,-1,45,47,49,51,-1,-1,-1,-1,-1,-1,-1,-1,-1,-1,-1,-1,-1,-1,-1,-1,-1,-1,-1,-1,-1,-1,-1,-1],"loss_changes":[1.3169279E0,1.4931067E0,1.739339E0,2.3106556E0,1.6432415E0,1.5922331E0,1.205055E0,1.137364E0,1.0234063E0,2.179977E0,2.0142055E0,0E0,5.094909E-1,1.3639381E0,1.8173608E0,1.395908E0,8.589183E-1,1.2490389E0,1.5690584E0,1.3251884E0,1.4592705E0,1.8426807E0,2.2325659E0,0E0,0E0,7.9179263E-1,1.7296009E0,6.897855E-1,2.5686522E0,0E0,0E0,0E0,0E0,0E0,0E0,0E0,0E0,0E0,0E0,0E0,0E0,0E0,0E0,0E0,0E0,0E0,0E0,0E0,0E0,0E0,0E0,0E0,0E0],"parents":[2147483647,0,0,1,1,2,2,3,3,4,4,5,5,6,6,7,7,8,8,9,9,10,10,12,12,13,13,14,14,15,15,16,16,17,17,18,18,19,19,20,20,21,21,22,22,25,25,26,26,27,27,28,28],"right_children":[2,4,6,8,10,12,14,16,18,20,22,-1,24,26,28,30,32,34,36,38,40,42,44,-1,-1,46,48,50,52,-1,-1,-1,-1,-1,-1,-1,-1,-1,-1,-1,-1,-1,-1,-1,-1,-1,-1,-1,-1,-1,-1,-1,-1],"split_conditions":[5.153811E-1,1.4467969E-2,-9.5361374E-2,1.12423645E-2,5.105133E-3,-5.257794E-1,1.3293296E-1,4.304559E-1,1.2559424E-2,2.2061078E-2,1.8435506E-2,-8.801635E-3,-3.3196166E-2,1.5641294E-2,1.5088432E-2,8.000455E1,1.3414026E-2,1.196743E0,1.5293747E-2,-1.230661E-2,-5.8254194E-3,-2.1215418E-1,3.303245E-1,-3.3087109E-3,2.9851005E-3,8.749505E-2,-3.0051913E-2,-9.615396E-3,6.087489E-1,3.492093E-4,4.1866996E-3,1.8296657E-3,7.2771073E-3,-3.0280112E-3,-1.1378839E-2,-4.5218016E-3,2.0823937E-3,3.077202E-4,-1.8165115E-3,-2.2889122E-3,-7.5491252E-3,5.632458E-3,-1.0284024E-3,1.2537927E-3,-5.11212E-4,2.2894477E-3,5.4940595E-3,5.624119E-3,-4.9855476E-3,-6.305338E-3,-1.3935356E-3,4.354618E-3,2.5050048E-4],"split_indices":[11,17,27,25,25,22,8,11,25,17,17,0,28,23,17,13,17,14,24,1,1,28,14,0,0,28,28,23,11,0,0,0,0,0,0,0,0,0,0,0,0,0,0,0,0,0,0,0,0,0,0,0,0],"split_type":[0,0,0,0,0,0,0,0,0,0,0,0,0,0,0,0,0,0,0,0,0,0,0,0,0,0,0,0,0,0,0,0,0,0,0,0,0,0,0,0,0,0,0,0,0,0,0,0,0,0,0,0,0],"sum_hessian":[2.9409E4,2.5368E4,4.041E3,9.454E3,1.5914E4,2.12E2,3.829E3,8.861E3,5.93E2,3.52E3,1.2394E4,8.5E1,1.27E2,1.069E3,2.76E3,8.49E3,3.71E2,2.33E2,3.6E2,2.947E3,5.73E2,5.223E3,7.171E3,6E1,6.7E1,8.96E2,1.73E2,4.41E2,2.319E3,8.247E3,2.43E2,2.73E2,9.8E1,1.73E2,6E1,1.66E2,1.94E2,1.381E3,1.566E3,3.67E2,2.06E2,1.05E2,5.118E3,3.691E3,3.48E3,6.14E2,2.82E2,5.6E1,1.17E2,8.9E1,3.52E2,4.8E2,1.839E3],"tree_param":{"num_deleted":"0","num_feature":"29","num_nodes":"53","size_leaf_vector":"1"}},{"base_weights":[2.70746E-4,1.185037E-2,-3.4569139E-3,-1.01025E-2,2.1154825E-2,-9.902748E-3,9.709087E-3,3.869024E-2,-2.3451472E-2,7.787791E-2,1.4245659E-2,1.5347304E-4,-1.7172592E-2,1.729283E-2,-2.1534653E-2,-1.84583E-2,7.46781E-2,-2.7842958E-2,5.6694453E-3,9.776553E-2,-4.043481E-3,1.9082956E-2,-7.820652E-2,-1.137147E-2,3.1022552E-2,-1.6146233E-2,-8.555657E-3,4.7828753E-2,1.0302601E-2,-3.16575E-2,1.03073545E-1,4.8415097E-3,-3.8461573E-3,5.134655E-3,-5.4169836E-4,-2.8830434E-3,-5.380246E-4,5.625851E-3,-1.4697218E-3,1.4109435E-3,-1.4021544E-3,-1.9354953E-3,-9.592985E-3,-9.445117E-4,2.5911068E-3,5.0183344E-3,6.8382174E-4,-1.410457E-3,-1.4936543E-4,-1.774031E-3,2.9721914E-3,-1.8132745E-3,8.8607654E-4,-4.42215E-3,-9.1222627E-4,9.6569536E-4,9.246221E-3],"categories":[],"categories_nodes":[],"categories_segments":[],"categories_sizes":[],"default_left":[0,0,0,0,0,0,0,0,0,0,0,0,0,0,0,0,0,0,0,0,0,0,0,0,0,0,0,0,0,0,0,0,0,0,0,0,0,0,0,0,0,0,0,0,0,0,0,0,0,0,0,0,0,0,0,0,0],"id":30,"left_children":[1,3,5,7,9,11,13,15,17,19,21,23,25,27,29,31,33,35,-1,37,-1,39,41,43,45,47,-1,49,51,53,55,-1,-1,-1,-1,-1,-1,-1,-1,-1,-1,-1,-1,-1,-1,-1,-1,-1,-1,-1,-1,-1,-1,-1,-1,-1,-1],"loss_changes":[1.2625711E0,1.4551543E0,1.8779231E0,1.3823844E0,1.9596121E0,1.0860094E0,1.7236698E0,9.392125E-1,1.0043104E0,1.7222173E0,1.9965345E0,2.218188E0,1.3594973E0,1.2488483E0,1.7956975E0,1.2004858E0,6.7188644E-1,8.220017E-1,0E0,9.09317E-1,0E0,1.8262786E0,9.891124E-1,2.1581044E0,2.0374603E0,1.3596385E0,0E0,1.0568416E0,1.6465347E0,9.9997246E-1,7.2999895E-1,0E0,0E0,0E0,0E0,0E0,0E0,0E0,0E0,0E0,0E0,0E0,0E0,0E0,0E0,0E0,0E0,0E0,0E0,0E0,0E0,0E0,0E0,0E0,0E0,0E0,0E0],"parents":[2147483647,0,0,1,1,2,2,3,3,4,4,5,5,6,6,7,7,8,8,9,9,10,10,11,11,12,12,13,13,14,14,15,15,16,16,17,17,19,19,21,21,22,22,23,23,24,24,25,25,27,27,28,28,29,29,30,30],"right_children":[2,4,6,8,10,12,14,16,18,20,22,24,26,28,30,32,34,36,-1,