tree
version=v4
num_class=1
num_tree_per_iteration=1
label_index=0
max_feature_idx=28
objective=regression
feature_names=ret_1d ret_5d ret_10d ret_21d ret_63d mom_12_1 dist_sma20 dist_sma50 dist_sma200 sma20_50 hi52_dist lo52_dist rsi_5 rsi_14 boll_z down_streak vol_21d vol_63d atr_pct range_pos gap vol_ratio turnover_z nifty_ret_5d nifty_ret_21d nifty_vol_21d nifty_dist_sma50 rs_21d rs_63d
feature_infos=[-0.14774798671818146:0.19997537811905386] [-0.25897041272693233:0.35381840882291749] [-0.71455663447239148:0.4888265629240931] [-0.73885684273370078:0.62737341772151889] [-0.73780806432237322:1.1240763741237396] [-0.78490351456749674:2.788801740552969] [-0.58242641133259054:0.38212542939452221] [-0.66299712297238445:0.4449260684412315] [-0.72637889708867531:0.76161359982465671] [-0.57656678182319077:0.22193802167675281] [-0.81160635661815927:0] [0:3.0827767590741209] [0:99.99999999989177] [0:99.999999978534191] [-4.1398223779027559:4.0952734423527524] [0:15] [0.0041173171733105071:0.14804814997149465] [0.0066381666618586799:0.087516065025183346] [0.0089662718251451203:0.25432187210036961] [0:0.99999999998913036] [-0.18415288168251798:0.18766756032171572] [0.061675563625124226:10.077521021496063] [-2.7519391194040814:7.8077551964876637] [-0.057729062348679472:0.07707436936302603] [-0.12365739662022956:0.12467961059120158] [0.0042260658689661753:0.018252042845920528] [-0.10052460749602199:0.070054734007278796] [-0.74093120042114058:0.55487641540625643] [-0.82798628078137759:1.0152395686058635]
tree_sizes=3286 3688 3190 4584 4105 2926 4118 4607 3482 4592 4326 4301 2923 3292 3292 3604 3777 1537 4022 4590 2380 3689 1913 1447 1746 2369 2741 3765 3305

Tree=0
num_leaves=36
num_cat=0
split_feature=5 18 16 26 4 9 26 17 21 8 4 8 1 21 4 18 26 16 5 17 5 18 26 21 27 20 1 4 13 24 3 27 28 2 17
split_gain=4.44011 3.50014 4.46041 4.14686 3.33157 3.28425 2.72571 3.64819 2.56071 2.51628 3.22437 2.25576 2.2441 2.22157 2.45774 2.20505 1.90303 1.78127 1.62466 1.55386 1.54041 1.52984 1.5091 1.4331 1.73101 1.40414 1.42017 1.39069 1.25867 1.17719 1.06781 1.02133 1.74651 0.948659 0.531974
threshold=-0.071966979310694887 0.021968425240708127 0.02920432286475598 -0.019814516663282152 -0.25458774547638519 0.0019394614935165368 0.037987391611465811 0.021079841475409342 4.0123646980884846 -0.099581939598651012 -0.018032555617319087 0.11998484764435814 -0.028573371523490872 0.56332899749791288 0.098515000918662846 0.01997185607791865 0.031166053873626146 0.013235804756012898 -0.23355650345649573 0.026807212948469401 0.32664285845683244 0.037472569425996652 -0.0047695011934573697 0.5817439073876246 -0.015406208980877521 -0.0017691757215136936 0.035629834846205084 -0.30856265090445467 71.506903274758784 -0.020319370697924163 0.039046125486791546 0.082312636661261221 0.069269227922326107 -0.030374787926728149 0.017134207618087986
decision_type=2 2 2 2 2 2 2 2 2 2 2 2 2 2 2 2 2 2 2 2 2 2 2 2 2 2 2 2 2 2 2 2 2 2 2
left_child=4 3 5 30 12 11 20 -8 13 22 19 17 29 31 15 -15 23 -3 -16 -11 -7 -12 -4 24 -5 -18 -27 -14 -25 -1 33 32 -6 -2 -13
right_child=1 2 9 16 8 6 7 -9 -10 10 21 34 27 14 18 -17 25 -19 -20 -21 -22 -23 -24 28 -26 26 -28 -29 -30 -31 -32 -33 -34 -35 -36
leaf_value=0.50706080060578806 0.50209859973683324 0.50583966083639265 0.51382143318326823 0.50632425396513914 0.50144050198465151 0.50389777174160288 0.49893355425720842 0.50488541039880286 0.49551468768113865 0.50430785993029004 0.50282738208171707 0.50087289545126756 0.50622733981698376 0.50475358530273884 0.49789262857788863 0.50283400825868307 0.49763938740028518 0.50221088174163842 0.50203254776217232 0.49729538100077414 0.50586058992410576 0.50804407028955134 0.50674039244641689 0.50569471408644417 0.50113160370394183 0.50496388382285773 0.49904334280220203 0.51401278025542485 0.50820279836326487 0.49944561304289381 0.50481286116761526 0.50556885318237887 0.49646464355612352 0.49674325111521478 0.49716906706465447
leaf_weight=101 142 371 149 295 1759 3434 565 473 126 159 184 160 106 2169 304 4822 104 3823 1075 157 1410 595 152 3892 352 553 124 125 574 102 102 127 196 198 246
leaf_count=101 142 371 149 295 1759 3434 565 473 126 159 184 160 106 2169 304 4822 104 3823 1075 157 1410 595 152 3892 352 553 124 125 574 102 102 127 196 198 246
internal_value=0.503569 0.504048 0.503542 0.504997 0.502776 0.503188 0.503971 0.501646 0.5026 0.506197 0.505084 0.502187 0.50707 0.502685 0.503049 0.50343 0.505347 0.502532 0.50112 0.500824 0.504469 0.506812 0.510246 0.505698 0.503499 0.503049 0.503879 0.51044 0.506017 0.503234 0.500326 0.501224 0.500942 0.49898 0.498629
internal_weight=29226 18214 11878 6336 11012 10482 5882 1038 10578 1396 1095 4600 434 10452 8370 6991 5894 4194 1379 316 4844 779 301 5113 647 781 677 231 4466 203 442 2082 1955 340 406
internal_count=29226 18214 11878 6336 11012 10482 5882 1038 10578 1396 1095 4600 434 10452 8370 6991 5894 4194 1379 316 4844 779 301 5113 647 781 677 231 4466 203 442 2082 1955 340 406
is_linear=0
shrinkage=1


Tree=1
num_leaves=38
num_cat=0
split_feature=10 7 25 17 17 25 25 9 12 28 25 17 25 25 18 11 25 16 9 24 16 21 13 17 5 21 28 27 2 16 5 5 10 24 12 18 18
split_gain=6.94737 4.49681 3.52662 7.19752 3.28445 4.22237 3.91843 2.94113 2.79113 2.4664 2.4484 5.60653 6.70868 3.69184 2.74464 2.44105 2.40959 2.3575 2.17747 1.93272 1.90108 1.87044 1.75321 1.66788 1.6411 1.56753 1.4552 1.40802 1.26325 1.23699 1.65298 1.08882 0.816807 0.700248 0.537796 0.467063 0.326195
threshold=-0.14854976524522875 -0.14609887729099866 0.0050205919233691455 0.017595570880650748 0.020574434875642231 0.0077274923043224239 0.009101655023743856 -0.043213922628785144 28.865718395193884 -0.02656982562792198 0.005214044796954735 0.022981559142238123 0.011128874927332008 0.015729029249237299 0.022055133601192409 0.11991363909335929 0.0065773673889554293 0.032213807413033042 0.0033642688971786687 0.027767048872746284 0.012848688909751795 0.873528010575363 69.106981467693871 0.026807212948469401 -0.30615522224954794 0.46218340473468345 -0.18731003836790747 -0.040233615320486742 -0.072560333630099769 0.02472672819122965 -0.053968580005396331 0.39659930178724362 -0.4347833753798071 -0.00069029352399224686 59.620112085601733 0.035294194244617619 0.039160481348611505
decision_type=2 2 2 2 2 2 2 2 2 2 2 2 2 2 2 2 2 2 2 2 2 2 2 2 2 2 2 2 2 2 2 2 2 2 2 2 2
left_child=1 29 3 25 5 9 17 35 28 -4 14 12 16 23 22 -8 -12 -6 31 -7 -20 -14 27 -13 -10 33 -27 -9 -5 30 32 -16 -1 -3 -24 -2 -15
right_child=7 2 4 8 6 19 15 10 24 -11 11 13 21 36 18 -17 -18 -19 20 -21 -22 -23 34 -25 -26 26 -28 -29 -30 -31 -32 -33 -34 -35 -36 -37 -38
leaf_value=0.0012578896363265814 -0.0059397016177951756 -0.0011141725504250431 0.00081795754657528223 -0.0059657103487026665 -0.00051143796598969275 -0.0034299741145482642 0.0047246518569463696 0.0044399889275506419 -0.011578001087023454 -0.0019431502723941518 -0.00016992241947615767 0.0036895634666167438 -0.00076752898972913943 0.007166207132861019 -0.0036583356287078436 0.0010490850949771253 0.0020483380868887061 -0.0061114562161853668 -0.0046044067725435726 -0.00066623250237686559 0.0018105303683206406 -0.0042664312277757429 0.0079439707464303861 -7.4518695119004858e-05 -0.0059413290937918774 -0.0046827361919691392 0.00020140190314292972 0.0015709105963959719 -0.00077157197031321127 0.0068205048288935075 -0.0018344405883069924 0.0016994193677101436 0.0072294163448152265 -0.0064695597080954986 0.0042858658224855413 -0.0016761583524594944 0.011062990814640091
leaf_weight=100 168 102 2682 173 1325 1969 583 523 165 1158 3189 728 603 100 414 2006 1987 219 126 932 1385 1042 127 494 594 165 2014 2345 362 195 167 123 134 152 481 104 116
leaf_count=100 168 102 2682 173 1325 1969 583 523 165 1158 3189 728 603 100 414 2006 1987 219 126 932 1385 1042 127 494 594 165 2014 2345 362 195 167 123 134 152 481 104 116
internal_value=3.7946e-05 -0.000703089 -0.000876859 -0.00220417 -0.000421931 -0.00110235 0.000687847 0.000839192 -0.00521708 -1.4689e-05 0.000940799 0.000395791 -0.000202357 0.00323304 0.00175565 0.00187676 0.000681639 -0.00130574 0.000303665 -0.00254207 0.0012756 -0.00298385 0.00261113 0.00216791 -0.00716669 -0.000601745 -0.000168439 0.00209411 -0.00245117 0.00355399 0.00196553 -0.00243114 0.00467748 -0.00431897 0.00504998 -0.00430952 0.00925892
internal_weight=29252 15197 14601 3727 10874 6741 4133 14055 1294 3840 13783 8259 6821 1438 5524 2589 5176 1544 2048 2901 1511 1645 3476 1222 759 2433 2179 2868 535 596 401 537 234 254 608 272 216
internal_count=29252 15197 14601 3727 10874 6741 4133 14055 1294 3840 13783 8259 6821 1438 5524 2589 5176 1544 2048 2901 1511 1645 3476 1222 759 2433 2179 2868 535 596 401 537 234 254 608 272 216
is_linear=0
shrinkage=0.05


Tree=2
num_leaves=33
num_cat=0
split_feature=5 4 13 18 7 17 21 8 27 16 5 23 8 16 4 4 28 13 12 8 23 17 18 2 4 23 21 16 8 28 28 16
split_gain=5.1018 3.78751 2.26363 2.18488 2.10416 1.98538 2.11817 1.98495 2.01137 1.89612 2.16696 2.73103 2.16143 3.18255 1.958 1.93783 1.86412 1.81195 1.81051 2.87038 1.33583 1.3274 1.89193 1.37386 1.28443 1.17414 1.13428 1.06516 0.520411 0.512715 0.404294 0.185874
threshold=-0.076403075534164186 -0.25458774547638519 70.863261370653362 0.019432395364522684 -0.14609887729099866 0.034963085307917495 4.0123646980884846 0.018103555606600045 0.026000144107256488 0.010415344946126793 0.29283092043381304 0.04251366305519156 -0.12360763992199385 0.021836857736178706 0.34641080760415538 -0.10801436931387425 0.061124040333654824 69.415202942880924 15.310079925378561 -0.39204328293154989 0.0034120980391616489 0.011857641020950794 0.018296470923873476 0.1344188055913719 0.18472165435931046 -0.018799853057183288 0.52162968483123107 0.010743232270563303 0.067826922353948285 0.052622579331328752 0.0072750659203350007 0.010743232270563303
decision_type=2 2 2 2 2 2 2 2 2 2 2 2 2 2 2 2 2 2 2 2 2 2 2 2 2 2 2 2 2 2 2 2
left_child=1 18 9 16 -5 6 -6 8 -4 24 12 14 13 -11 -12 -14 17 20 -1 -20 -3 29 -23 -24 25 -2 -27 -19 -18 -9 -10 -31
right_child=2 3 7 4 5 -7 -8 21 30 10 11 -13 15 -15 -16 -17 28 27 19 -21 -22 22 23 -25 -26 26 -28 -29 -30 31 -32 -33
leaf_value=-0.0016058535149078006 -0.0023603413056477972 -0.0009856445625307578 0.0038197696520710146 0.0054463412284989051 -0.0015955903349290656 0.0040007572541258139 -0.0085855287910089825 0.0030737569233504677 -0.0022848016591524357 -0.00047188853372878529 0.0010887092664169094 -0.0066484804354915647 -0.0028902307795349103 0.0050425466052599534 0.0061658029999505579 -0.00032290878745444172 -0.0018032456317226978 0.0012939440070831474 0.0001158208422760927 0.0098558010340944018 0.0015434138915260106 -0.0031845281999673906 0.0017745829343273232 0.0056350014325136887 -0.0028185382930155942 -0.0016123412943635528 0.002525242722314764 0.0079030646469444039 -0.0067815709441794826 0.0084055904272662598 -0.006449232484370679 0.0054081448178627707
leaf_weight=115 153 1184 118 108 7364 156 110 146 128 629 3170 109 804 448 202 8566 104 119 131 179 934 161 1187 286 156 181 1952 125 106 106 107 101
leaf_count=115 153 1184 118 108 7364 156 110 146 128 629 3170 109 804 448 202 8566 104 119 131 179 934 161 1187 286 156 181 1952 125 106 106 107 101
internal_value=-4.64197e-06 -0.000873526 0.000493887 -0.00106421 -0.00148385 -0.00158194 -0.00169847 0.00194852 -0.00150649 0.000285956 6.06316e-05 0.00114106 -0.000299372 0.00182195 0.00139285 -0.0005432 0.000198299 0.000599665 0.00375221 0.00573987 0.000129625 0.00256231 0.00196165 0.00252413 0.0015711 0.00187065 0.00217414 0.00467976 -0.00431611 0.00534273 -0.00418095 0.00694307
internal_weight=29445 10735 18710 10310 7738 7630 7474 2340 353 16370 13928 3481 10447 1077 3372 9370 2572 2362 425 310 2118 1987 1634 1473 2442 2286 2133 244 210 353 235 207
internal_count=29445 10735 18710 10310 7738 7630 7474 2340 353 16370 13928 3481 10447 1077 3372 9370 2572 2362 425 310 2118 1987 1634 1473 2442 2286 2133 244 210 353 235 207
is_linear=0
shrinkage=0.05


Tree=3
num_leaves=48
num_cat=0
split_feature=10 18 26 10 26 17 26 17 24 5 13 17 18 24 28 26 1 9 17 17 5 24 13 5 3 9 17 16 5 9 2 26 28 16 5 16 21 5 13 17 14 9 17 22 9 9 27
split_gain=5.15098 4.61484 4.9095 2.87532 2.84425 5.40367 3.15242 3.79183 2.52446 2.42384 3.08149 2.86324 2.22588 2.05178 3.00334 2.30977 2.25094 2.22176 2.20949 1.95396 1.88888 1.71413 2.73482 2.38071 1.69392 1.59354 1.57651 3.4915 1.62301 1.53624 1.46347 1.45777 1.36351 1.27089 1.18913 1.18685 1.05591 1.02734 0.9879 1.19335 0.931564 0.901937 0.892263 0.887676 0.866179 0.844233 0.58452
threshold=-0.14854976524522875 0.038382976855891975 -0.017731818648939742 -0.23054102318882611 -0.017731818648939742 0.023122957186111622 0.030196009272687844 0.020734113617639483 0.072163440486781041 -0.07416559804693483 71.506903274758784 0.019799516889531545 0.045062889052403694 0.018289999378048098 -0.073741003369919053 0.023374789752952711 -0.012313807716401058 -0.008143257884757003 0.016692974390101263 0.017016894035971827 0.29283092043381304 0.014998403916842264 39.668029483663609 -0.1690730881084743 -0.072353122463731864 -0.020845030986136045 0.033322216207010903 0.039932517140000588 0.24442662375973082 -0.043213922628785144 0.071902870951293787 0.017822791260728724 -0.027683945963772268 0.011299884009777435 0.081622020501769935 0.023936762616867484 0.395605895229103 -0.23007396890092816 27.263600733853306 0.017648552065880646 -1.3283980417956103 0.020863798331922871 0.028274285811180428 -0.11885269529030303 0.017015487633823437 -0.047209511699431876 -0.0103879152828783
decision_type=2 2 2 2 2 2 2 2 2 2 2 2 2 2 2 2 2 2 2 2 2 2 2 2 2 2 2 2 2 2 2 2 2 2 2 2 2 2 2 2 2 2 2 2 2 2 2
left_child=1 13 3 24 5 30 9 8 32 11 29 44 35 16 15 19 20 37 36 -15 25 22 -4 -24 43 -1 28 -28 -23 -11 38 -12 -8 -17 -19 -9 -18 -16 -2 -40 -22 -7 -26 -3 -6 -20 -5
right_child=4 2 21 46 6 41 7 12 -10 10 31 -13 -14 14 17 33 18 34 45 -21 40 26 23 -25 42 -27 27 -29 -30 -31 -32 -33 -34 -35 -36 -37 -38 -39 39 -41 -42 -43 -44 -45 -46 -47 -48
leaf_value=-0.0019113222827264545 0.0018477064644847607 0.0053533092577559638 0.0021306849330854183 -0.0020208319649100306 -0.001160650703489356 0.0075004581409556584 0.001506322539444863 0.0028397256513847465 -0.0089856434307992467 -0.0042091098950095334 0.0047228070535249387 -0.007069516672636382 0.0090885108150315745 0.0023528611788390559 -0.0023380974789268712 0.0070177688250957423 -0.0056173971785196605 -0.0024703187990642583 -0.0017099489603571436 -0.0044670613382955171 0.006244595011310845 0.00046159474054847829 -0.01129388504157474 -0.0021618655172240889 -0.00023335158824920656 6.1714510540231794e-05 0.0094024112115481083 -0.0019999102735350472 -0.0063389517107190416 0.0013169733811575009 -0.0078913299636915336 0.00093925771687265475 -0.0023836109652294771 0.0022670755734796166 0.0023333393131442209 -0.001836111196587512 -0.0010055955162384133 0.0033714048908844302 -0.002991859296085279 -4.7037395787613096e-05 -1.0000184030816106e-05 0.0021469385805339071 0.0055494730044275279 0.0099576423671745608 0.0019787671693499379 -0.0039163434142834358 0.0026177720801921138
leaf_weight=1873 179 195 165 168 510 172 286 368 125 128 1041 160 103 194 104 169 130 1493 594 229 145 561 121 174 130 2256 140 129 104 7207 100 337 1061 843 141 215 2742 325 1098 501 101 145 137 226 386 1605 114
leaf_count=1873 179 195 165 168 510 172 286 368 125 128 1041 160 103 194 104 169 130 1493 594 229 145 561 121 174 130 2256 140 129 104 7207 100 337 1061 843 141 215 2742 325 1098 501 101 145 137 226 386 1605 114
internal_value=-2.12528e-05 -0.000656597 0.00137482 0.00410638 0.000667449 -0.000986622 0.000971858 -0.000757663 -0.00218846 0.00135391 0.0016281 -0.000908381 0.0023125 -0.0010276 6.86249e-06 0.00176352 -0.00141068 -0.00121505 -0.0021276 -0.00133925 -0.000579708 -0.000525903 -0.00302426 -0.00590754 0.00584922 -0.000833296 0.000704553 0.00393438 -0.000601949 0.00122054 -0.00200587 0.00379751 -0.00155769 0.00306042 -0.0020558 0.00111536 -0.00121435 0.00198728 -0.00167485 -0.00206919 0.00367665 0.00505169 0.00273387 0.00782499 0.000191822 -0.00332035 -0.000145652
internal_weight=29430 15308 2364 970 14122 2195 11927 2158 1472 9769 8713 1056 686 12944 3498 1435 9446 2063 5071 423 4375 1394 460 295 688 4129 934 269 665 7335 1878 1378 1347 1012 1634 583 2872 429 1778 1599 246 317 267 421 896 2199 282
internal_count=29430 15308 2364 970 14122 2195 11927 2158 1472 9769 8713 1056 686 12944 3498 1435 9446 2063 5071 423 4375 1394 460 295 688 4129 934 269 665 7335 1878 1378 1347 1012 1634 583 2872 429 1778 1599 246 317 267 421 896 2199 282
is_linear=0
shrinkage=0.05


Tree=4
num_leaves=43
num_cat=0
split_feature=10 18 8 9 18 24 9 13 21 16 27 23 28 13 21 13 12 7 8 21 21 27 17 28 7 9 28 5 2 14 13 23 18 19 14 27 9 28 2 17 5 18
split_gain=4.95329 3.70628 3.43543 3.02152 2.43875 2.62732 2.2529 2.12583 2.11694 2.04294 2.34466 2.20221 1.94635 1.9315 1.92314 1.91559 1.67328 1.6565 1.63455 1.56551 1.48273 1.37714 1.33824 1.28783 1.26442 1.2506 1.24381 1.20096 1.17306 1.14588 0.974513 1.29531 0.972015 0.940958 0.923766 0.790761 0.661728 1.24168 0.640507 0.615448 0.610571 0.306619
threshold=-0.13417786308989485 0.040069472690228064 -0.12176868393584221 -0.11067384032890175 0.021900636838988328 0.063199951704055804 -0.085674442030990658 52.63156529969374 0.45565404523077724 0.010415344946126793 0.094899353808621592 -0.020355344972435404 0.06279211722136159 26.399504083497174 0.66664441865306756 47.123655640779347 72.931952487053124 0.078599285918223974 0.005068558921208611 0.57205560148148826 3.372599507643034 0.0089574696889418454 0.0088376951247627813 -0.15748499787574652 0.0039078666382373903 -0.036568237461645274 -0.042639740582745771 -0.096864939402375824 0.16103184175451238 1.429479194936228 45.859705960439292 -0.011970776018829508 0.030187318952016633 0.62028759678727885 -0.25793413120140507 0.0070482693846077868 -0.030323975138988653 -0.012241296275556033 -0.051342060135005078 0.031230393067075538 0.087788480071865585 0.028475997392271659
decision_type=2 2 2 2 2 2 2 2 2 2 2 2 2 2 2 2 2 2 2 2 2 2 2 2 2 2 2 2 2 2 2 2 2 2 2 2 2 2 2 2 2 2
left_child=1 4 3 -3 8 6 7 -6 36 19 13 17 18 38 -4 23 27 -12 -10 40 -8 32 24 -5 -21 41 -27 -13 -18 33 31 -24 -7 -16 -32 -14 -1 -38 -11 -17 -2 -15
right_child=9 2 14 15 5 21 20 -9 12 10 11 16 35 25 29 39 28 -19 -20 22 -22 -23 30 -25 -26 26 -28 -29 -30 -31 34 -33 -34 -35 -36 -37 37 -39 -40 -41 -42 -43
leaf_value=-0.0059586586675483407 -0.003826434702389467 -0.0035314397611655294 -0.0049049319118207521 0.0094109758258143338 0.0040928274801788995 0.0011938695617063786 -0.0015503350340973091 -0.0039216340386291956 0.00040196749753002091 0.0066446205015069752 0.0012690257336937156 -0.00065516307691319126 0.00024438109865877782 -0.0051551755129517329 -0.0015595213616649767 -0.00033616569787318982 0.00033032724818898049 -0.0063412866948056035 0.0034786377024371182 -0.0034048782780618323 -0.0069495974039990999 -0.00082068045084343318 -0.00016846734778497554 0.0043267212713462349 0.0030410754894872488 0.0017532458321554132 -0.0001862045371646924 0.0050021424146886942 0.0049111040698484199 0.0044557856891739673 -0.0017102317012281027 0.0055378707611784478 0.0075926554198727687 0.0022857398160179205 0.0025856509881819019 -0.0052102844569787404 8.097629675793709e-05 -0.0065072615169873924 0.0014925416453548199 0.0042807071630488192 0.00084374351477574405 -0.0018555719182897315
leaf_weight=136 142 125 199 235 325 100 8890 111 3160 140 162 108 100 127 484 169 765 128 500 176 129 174 122 265 134 939 6911 714 171 154 140 538 146 237 1179 198 245 101 106 126 138 158
leaf_count=136 142 125 199 235 325 100 8890 111 3160 140 162 108 100 127 484 169 765 128 500 176 129 174 122 265 134 939 6911 714 171 154 140 538 146 237 1179 198 245 101 106 126 138 158
internal_value=1.3248e-05 -0.000567056 0.00145251 0.00369488 -0.000848371 -0.00128597 -0.00145786 0.00205245 0.000124902 0.000741374 0.000430259 0.00194686 0.000505896 5.96596e-05 -0.000468323 0.00483109 0.00261278 -0.00209001 0.000822278 0.00200436 -0.00162756 0.00258361 0.00243605 0.00671632 -0.000618563 -7.23355e-05 4.57883e-05 0.00425885 0.0011672 0.000540689 0.00291454 0.00448306 0.00499152 -0.000295545 0.00212968 -0.00337986 -0.00300368 -0.00184218 0.00442462 0.00163579 -0.0015247 -0.00332592
internal_weight=29307 16309 1994 920 14315 9875 9455 436 4440 12998 10429 2048 3958 8381 1074 795 1758 290 3660 2569 9019 420 2289 500 310 8135 7850 822 936 875 1979 660 246 721 1319 298 482 346 246 295 280 285
internal_count=29307 16309 1994 920 14315 9875 9455 436 4440 12998 10429 2048 3958 8381 1074 795 1758 290 3660 2569 9019 420 2289 500 310 8135 7850 822 936 875 1979 660 246 721 1319 298 482 346 246 295 280 285
is_linear=0
shrinkage=0.05


Tree=5
num_leaves=30
num_cat=0
split_feature=10 7 17 8 9 21 4 25 9 8 17 25 25 1 6 26 17 8 17 19 18 14 24 8 10 1 17 18 3
split_gain=3.87473 3.55747 2.54954 3.00576 2.42766 2.4028 2.38204 2.32861 2.29773 3.59774 2.11907 5.59214 3.08201 2.11962 2.9296 2.0733 2.665 2.11949 2.03881 1.87557 1.55956 1.52643 1.38208 1.16174 0.978684 1.0207 0.965779 0.596301 0.492817
threshold=-0.14854976524522875 -0.15340592100093872 0.030538500252075142 0.093127061240080647 -0.043213922628785144 0.46218340473468345 0.16882955064432673 0.0051405894322691858 0.056661373593296378 -0.11774070437199745 0.023955599849971428 0.011128874927332008 0.016149377271544672 0.04134540228162787 0.041986825203625851 -0.017731818648939742 0.021953363825493743 0.13501306356084966 0.022981559142238123 0.69110452494476193 0.047298755514356056 0.26936009076631656 0.015101914704118371 -0.32734653198173014 -0.31103719993988937 -0.059723828574329611 0.020362680145143853 0.036047050275910313 0.043416937311426047
decision_type=2 2 2 2 2 2 2 2 2 2 2 2 2 2 2 2 2 2 2 2 2 2 2 2 2 2 2 2 2
left_child=1 23 3 5 27 7 -7 -3 9 21 11 15 13 14 -12 17 -17 -6 19 -13 -11 -4 -15 -1 25 -25 -5 -2 -28
right_child=4 2 8 26 10 6 -8 -9 -10 20 12 18 -14 22 -16 16 -18 -19 -20 -21 -22 -23 -24 24 -26 -27 28 -29 -30
leaf_value=6.5969718697791294e-05 -0.0057576376646705958 -0.0049320253995688637 0.0079208999603248113 -0.0015938874926445458 4.3846339168440973e-05 -0.00042599601912936844 -0.0040569188641421403 -0.00090525425749277502 0.0077396407939626698 -2.1658124869545007e-05 0.0013555826098987417 -0.0014161250090678965 0.0094364982858880682 -0.0051366475576055531 0.0082399003028978731 0.001333361506115174 -0.0024620952578173231 -0.0047782064771136543 0.004305026664641564 -0.0049561895936971034 -0.006389881402172848 0.00093483217687733008 0.0010292628602573924 0.01077953140581182 0.0015205794662480879 0.0037872301028478925 -0.0095556193132186329 -0.00096692960285166708 -0.0048721177565098257
leaf_weight=150 182 654 174 102 1170 11604 470 796 140 271 593 1144 144 149 209 8850 488 283 115 556 149 142 233 108 107 101 125 101 102
leaf_count=150 182 654 174 102 1170 11604 470 796 140 271 593 1144 144 149 209 8850 488 283 115 556 149 142 233 108 107 101 125 101 102
internal_value=-5.65513e-05 -0.000611665 -0.000747746 -0.000913168 0.000536749 -0.000798295 -0.000567336 -0.00272147 0.00186823 0.000751387 0.000629863 0.000429732 0.0025296 0.00168958 0.00314963 0.000861627 0.00113501 -0.000895342 -0.00213808 -0.00257393 -0.00228086 0.00478159 -0.00137577 0.00368948 0.0054095 0.00740048 -0.00563521 -0.00404788 -0.00745114
internal_weight=29412 15195 14729 13853 14217 13524 12074 1450 876 736 13934 12606 1328 1184 802 10791 9338 1453 1815 1700 420 316 382 466 316 209 329 283 227
internal_count=29412 15195 14729 13853 14217 13524 12074 1450 876 736 13934 12606 1328 1184 802 10791 9338 1453 1815 1700 420 316 382 466 316 209 329 283 227
is_linear=0
shrinkage=0.05


Tree=6
num_leaves=43
num_cat=0
split_feature=10 18 26 10 9 18 26 9 11 1 23 24 23 5 13 26 26 3 21 7 24 26 16 5 11 28 5 13 16 16 5 21 11 28 5 9 16 5 23 13 6 0
split_gain=3.45438 3.35611 3.89699 2.92556 2.34069 2.09923 3.36822 3.54146 2.57831 1.93556 2.3092 1.87658 1.93915 1.89581 1.78233 1.72122 1.80977 1.69536 1.68399 1.62294 1.50497 1.59071 1.4898 1.82552 1.67037 1.49572 1.4555 1.407 1.29323 1.72855 1.64232 1.25398 1.16052 1.13184 1.12585 0.983402 0.916761 0.801829 0.672988 0.576794 0.606534 0.468662
threshold=-0.14854976524522875 0.038382976855891975 -0.017731818648939742 -0.23971400576645166 -0.043213922628785144 0.02148435721089165 0.039047923660944457 -0.024084454508305927 0.11991363909335929 -0.0057711227216857832 0.011819032997357428 0.015101914704118371 -0.0012801698255683334 -0.1690730881084743 71.192984099119315 0.017822791260728724 -0.014721829319539191 -0.0039275776461542003 0.49964280484192336 -0.11151255005507792 0.022227400334969397 0.031883431150147253 0.010415344946126793 0.64143693633960608 0.86578568474344475 -0.044908255436850779 0.31256205416255906 41.716536631236046 0.018228546275663421 0.02438285346374422 0.071456317274144157 0.5817439073876246 0.17037769964008068 0.058225614580478598 -0.051814463133889148 -0.048160411592461864 0.027787889680322152 -0.18842422109726933 -0.014488853090090013 33.797478789445478 -0.027426747670255821 0.0060230619767074342
decision_type=2 2 2 2 2 2 2 2 2 2 2 2 2 2 2 2 2 2 2 2 2 2 2 2 2 2 2 2 2 2 2 2 2 2 2 2 2 2 2 2 2 2
left_child=1 5 3 17 41 18 9 -8 -9 10 -7 13 -13 -4 22 16 -16 36 32 -11 33 -22 27 25 -25 -24 -14 38 30 -30 -17 -29 37 -20 -18 -15 -3 -1 -6 -5 -41 -2
right_child=4 2 11 39 14 6 7 8 -10 19 -12 12 26 35 15 28 34 -19 20 -21 21 -23 23 24 -26 -27 -28 31 29 -31 -32 -33 -34 -35 -36 -37 -38 -39 -40 40 -42 -43
leaf_value=0.001230064743572007 -0.0019192394092603917 0.0047555093885618396 -0.0076357777878188361 -0.003518753697164357 -0.00013285752480669545 -0.00058781270543211881 0.0092327808348660455 0.0044738246279302984 -0.0011706872160699466 0.0031392929877047658 -0.0046544110108243334 0.0058344867074480045 0.00069282628946358972 0.0032057364620268342 -0.0026018671265463961 0.0008448066663008947 0.00060231088945756153 0.00015825337862031014 0.00030166431896748284 -0.0027266214808512879 0.0047214631254591244 -0.00038834400969039605 0.001587977107734651 0.0069416304724012126 0.0011018161779447876 -0.00038975369108971161 -0.0051243954038521812 -0.0028297317894931326 0.0051541232741672644 -0.0015172293838454276 -0.0046807182406998077 0.0011711156809656902 -0.0069889207139809048 -0.0034764481637837353 0.0043985053082691841 -0.0028422176222339638 0.0089005380813265214 -0.003118055804007445 0.0038291318510529728 0.003899066230180756 -0.0014220612630117359 -0.0061403508451933582
leaf_weight=182 124 286 156 100 128 3840 122 270 807 122 384 156 646 100 129 351 245 122 2410 3522 385 252 1096 167 459 7484 129 228 238 164 218 1389 113 216 963 205 250 254 659 101 114 140
leaf_count=182 124 286 156 100 128 3840 122 270 807 122 384 156 646 100 129 351 245 122 2410 3522 385 252 1096 167 459 7484 129 228 238 164 218 1389 113 216 963 205 250 254 659 101 114 140
internal_value=-5.53506e-05 -0.000577878 0.00115339 0.00358102 0.000506305 -0.000895795 -0.0013097 0.00115896 0.000244371 -0.0016859 -0.000957503 -0.000543508 0.000748334 -0.00315241 0.000594773 0.00186381 0.00302744 0.00547799 8.87031e-05 -0.00253023 0.000519767 0.0027 0.000342497 5.30624e-05 0.00265972 -0.00013712 -0.00027546 0.00145087 0.000261572 0.00243248 -0.00127218 0.000606989 -0.00247334 -9.10198e-06 0.00362858 -0.000859282 0.00668883 -0.00130301 0.00318474 -0.000381539 0.00107763 -0.00415771
internal_weight=29426 15244 2365 973 14182 12879 9067 1199 1077 7868 4224 1392 931 461 13918 2308 1337 658 3812 3644 3263 637 11610 9206 626 8580 775 2404 971 402 569 1617 549 2626 1208 305 536 436 787 315 215 264
internal_count=29426 15244 2365 973 14182 12879 9067 1199 1077 7868 4224 1392 931 461 13918 2308 1337 658 3812 3644 3263 637 11610 9206 626 8580 775 2404 971 402 569 1617 549 2626 1208 305 536 436 787 315 215 264
is_linear=0
shrinkage=0.05


Tree=7
num_leaves=48
num_cat=0
split_feature=10 25 16 28 12 26 26 18 16 2 28 8 13 10 12 24 26 5 7 10 4 25 24 27 18 28 7 4 27 26 16 5 25 8 10 19 2 18 14 13 10 10 25 24 26 10 24
split_gain=3.36056 3.12058 3.79179 3.47937 3.37941 2.81693 3.0656 2.67799 2.05095 2.06814 1.95222 1.94078 1.88702 1.76287 1.75093 1.69859 3.97544 1.61445 2.05957 1.51752 2.19373 1.48095 1.46856 1.37473 1.3563 1.19925 1.1889 1.24198 1.13291 1.12724 1.2943 1.2129 1.06039 1.04747 1.03478 1.03217 0.997141 1.34625 0.949716 1.06854 0.915071 1.13149 0.882576 1.61244 0.847323 0.804234 0.7527
threshold=-0.1370103539740736 0.0052115203049092349 0.017026672477747844 -0.12261313219591945 28.480407202745017 -0.017731818648939742 0.030196009272687844 0.029636621382641472 0.019309528347077526 -0.08052130974092879 1.0000000180025095e-35 0.13966428811419709 72.52894938279313 -0.28114422476272538 1.8075818491969076 -0.0092960111132233663 0.015541818345189974 -0.14266929479148263 -0.021544625332711117 -0.28476023114633758 0.057852769340120076 0.010016533032084024 0.064645900692687067 -0.015406208980877521 0.037472569425996652 0.11258843429382394 0.023106233514440192 0.094932154156732632 0.067736014804079994 0.017822791260728724 0.014502793400899177 -0.060479723654417721 0.0137828822592306 -0.044883299887990828 -0.086604204678546612 0.34186291874429547 -0.074306089812420914 0.02482168279297247 1.7672042171003095 71.192984099119315 -0.41852270683919746 -0.21998161398523283 0.0062475395423633806 -0.068571606557500539 -0.032228033364129431 -0.032274969784645773 -0.0023315683580671927
decision_type=2 2 2 2 2 2 2 2 2 2 2 2 2 2 2 2 2 2 2 2 2 2 2 2 2 2 2 2 2 2 2 2 2 2 2 2 2 2 2 2 2 2 2 2 2 2 2
left_child=1 2 13 14 46 11 12 22 9 35 -11 26 23 36 -3 24 -17 33 -19 21 -21 -10 34 25 -16 -7 27 32 -25 31 -31 -14 -2 -15 -8 -5 -1 -38 39 -9 -6 -42 -28 -44 -13 -46 -4
right_child=5 3 4 8 40 6 7 38 19 10 -12 44 29 17 15 16 -18 18 -20 20 -22 -23 -24 28 -26 -27 42 -29 -30 30 -32 -33 -34 -35 -36 -37 37 -39 -40 -41 41 -43 43 -45 45 -47 -48
leaf_value=0.0018400923043261957 -0.00088425197093733104 -0.0034468193843419995 -0.0029747709388766677 -0.0026642463160921944 -0.0098120055834038395 0.001591000105002885 0.00059249247716198789 0.0017911469603692888 -0.0014716418676812282 -0.00013133528197666248 -0.0023566503868282618 -0.0071488119530273815 -3.1591095797590573e-05 -0.00055119659238726012 0.0022086503955385532 -0.0016875707392408129 0.0033197934345376547 0.00041056241236187165 -0.003618478575766906 -0.0012666397276511864 0.0018055250330166431 0.0028204580545668208 -0.0066727680120548406 0.00020471361365936923 0.0067124512579215508 0.0050694423221828919 -0.0024001505987253039 0.0036866869544330536 0.0020469974193471109 -0.0027327240710913366 0.0032462936433463744 0.0044984274584143735 -0.0047018267336286649 0.0026197064236941517 -0.0024130659203887295 -0.0089824179364047171 -0.0018861025767959241 -0.0065466202871808836 -0.0020584922804693252 0.0076147197333921212 -0.0035616790461972417 -0.0075409004407400206 -0.00099822239459078843 0.0056536269083950824 0.00098923287414346295 -0.0049385400875259873 0.00084234843500178647
leaf_weight=131 805 155 203 146 108 2280 425 371 256 2896 1494 154 176 399 391 697 919 896 491 1762 867 935 149 4325 292 278 100 117 1034 164 202 921 235 750 878 116 786 193 114 100 528 270 156 219 101 132 355
leaf_count=131 805 155 203 146 108 2280 425 371 256 2896 1494 154 176 399 391 697 919 896 491 1762 867 935 149 4325 292 278 100 117 1034 164 202 921 235 750 878 116 786 193 114 100 528 270 156 219 101 132 355
internal_value=5.06916e-05 -0.000438026 -0.00145793 3.89759e-05 -0.00360734 0.000633981 0.00093843 -0.000819728 -0.000441238 -0.0011462 -0.000888652 -0.00108762 0.00132024 -0.000594865 0.00169683 0.00204362 0.00116006 0.000132509 -0.00101572 0.000417267 -0.000253491 0.00189789 -0.00197046 0.00101538 0.00413414 0.00196903 -0.000332723 -0.00119742 0.000560176 0.00296998 0.000567171 0.00377164 -0.00174688 0.00151858 -0.00143274 -0.0054616 -0.00225669 -0.00280488 0.00203644 0.00302757 -0.00549261 -0.00490803 0.00177349 0.00288646 -0.00427104 -0.00236899 -0.000546317
internal_weight=29472 16036 5110 10926 1464 13436 11417 2037 8472 4652 4390 2019 9380 3646 2454 2299 1616 2536 1387 3820 2629 1191 1452 7917 683 2558 1632 1157 5359 1463 366 1097 1040 1149 1303 262 1110 979 585 471 906 798 475 375 387 233 558
internal_count=29472 16036 5110 10926 1464 13436 11417 2037 8472 4652 4390 2019 9380 3646 2454 2299 1616 2536 1387 3820 2629 1191 1452 7917 683 2558 1632 1157 5359 1463 366 1097 1040 1149 1303 262 1110 979 585 471 906 798 475 375 387 233 558
is_linear=0
shrinkage=0.05


Tree=8
num_leaves=36
num_cat=0
split_feature=5 4 16 17 25 25 28 23 13 5 9 4 24 4 18 24 21 21 25 25 19 17 25 4 9 12 5 8 5 9 17 17 23 19 5
split_gain=2.65203 2.12868 1.99828 2.14376 5.09919 3.48694 2.65954 2.52866 2.1748 2.14864 1.87462 1.81417 3.3987 1.80541 1.6559 1.5877 2.08412 1.5787 1.62495 1.55561 1.37608 1.29179 1.22698 1.2267 1.15815 1.49839 1.0887 1.06957 1.06078 0.804409 0.732944 0.580893 0.575997 0.948642 0.40128
threshold=-0.071966979310694887 -0.2439200522815568 0.010415344946126793 0.020574434875642231 0.011128874927332008 0.0053025385766275043 -0.13711161323385254 -0.010339775653388115 65.89066249556636 0.48632632046957386 0.034771586129692229 0.066468953412781487 -0.024031641709839621 0.25341624225454923 0.032368656331066586 -0.053425753127361357 4.0123646980884846 0.56332899749791288 0.0049490173175545703 0.005011098091822222 0.79286258960303291 0.0088376951247627813 0.005214044796954735 0.098515000918662846 -0.11067384032890175 18.051964085604002 0.013735991199784083 0.002428290002991496 -0.12991133772419913 -0.0074270740121961101 0.014116252685506425 0.018914023314020655 0.00012900516841840573 0.46039633377077166 0.039120915784635953
decision_type=2 2 2 2 2 2 2 2 2 2 2 2 2 2 2 2 2 2 2 2 2 2 2 2 2 2 2 2 2 2 2 2 2 2 2
left_child=1 24 19 4 8 7 -6 14 10 -9 -4 12 -7 -13 -5 28 17 18 -17 30 -8 -21 -10 -19 -1 -26 29 -28 -3 -23 32 -27 33 -2 -34
right_child=2 15 3 5 6 11 20 9 22 -11 -12 13 -14 -15 -16 16 -18 23 -20 21 -22 26 -24 -25 25 31 27 -29 -30 -31 -32 -33 34 -35 -36
leaf_value=-0.0015048037333285241 0.0042800267760969785 -0.0019537906894798985 -0.00043475663950602752 0.0075726522393353762 0.0055664699194167043 0.0040436308632813642 -0.0021278275571068712 -0.00461380007235241 0.003617293352382932 0.00087991170708457973 0.0018005977389833436 0.0038277394250483586 -0.0005468617830605224 0.000647836365029574 -0.0012910485591775939 -0.0037998105433938063 -0.007484826426529749 2.9723486158923987e-05 -0.00080812237032051491 -0.0035808358974810245 -0.0053257557607655492 0.0024177257399423981 0.00077237256729064578 -0.0015953559066240221 -0.00074984555393286536 0.0034382417491745677 -0.0018299115269549257 0.0028758712556777324 -0.0082926492994143206 -0.002442528572511214 -0.00036690392051440707 0.008370417057705427 0.0065249718586489081 0.0002939045130078866 0.0035647236025721611
leaf_weight=123 311 165 5590 109 100 544 1643 555 677 262 1127 1314 1558 676 102 682 110 6694 1357 168 423 120 861 1405 109 103 145 722 110 293 146 142 184 287 303
leaf_count=123 311 165 5590 109 100 544 1643 555 677 262 1127 1314 1558 676 102 682 110 6694 1357 168 423 120 861 1405 109 103 145 722 110 293 146 142 184 287 303
internal_value=2.09986e-05 -0.000592053 0.000391118 0.000173712 -0.00023791 0.00101151 -0.00239712 -0.00159182 0.000328638 -0.00285205 -5.97016e-05 0.00166552 0.000641163 0.00274753 0.00328783 -0.00074014 -0.000639533 -0.000565259 -0.00180878 0.0016523 -0.00278258 0.000541387 0.00202466 -0.000252192 0.00267487 0.00412713 0.00108243 0.00208886 -0.00448933 -0.00103035 0.00295904 0.00629689 0.00340659 0.00236695 0.00468317
internal_weight=29220 11000 18220 15541 10421 5120 2166 1028 8255 817 6717 4092 2102 1990 211 10523 10248 10138 2039 2679 2066 1448 1538 8099 477 354 1280 867 275 413 1231 245 1085 598 487
internal_count=29220 11000 18220 15541 10421 5120 2166 1028 8255 817 6717 4092 2102 1990 211 10523 10248 10138 2039 2679 2066 1448 1538 8099 477 354 1280 867 275 413 1231 245 1085 598 487
is_linear=0
shrinkage=0.05


Tree=9
num_leaves=48
num_cat=0
split_feature=10 28 5 21 25 25 17 25 25 17 18 25 2 17 17 25 26 25 25 25 13 26 25 8 8 10 12 17 21 12 21 17 10 28 26 27 14 11 5 24 7 5 11 25 28 13 2
split_gain=3.11616 3.14033 4.08485 2.53329 2.6688 2.05111 2.14299 3.17696 2.67232 1.97899 1.93783 1.90134 2.36646 1.9269 1.89106 2.9274 2.32931 1.85323 1.76527 1.71481 1.65917 1.60035 1.46908 1.39802 1.37424 2.526 1.3695 1.43622 1.35715 1.3499 1.27799 1.25522 1.74531 1.21429 1.15408 1.13979 1.43348 1.0859 1.40036 1.0639 0.976317 0.869318 1.63018 1.61734 1.09876 1.09021 0.839074
threshold=-0.072790166075968984 -0.033965458336534519 -0.24122747973229722 0.68113730375168524 0.0052115203049092349 0.0050205919233691455 0.021079841475409342 0.011128874927332008 0.0065773673889554293 0.019171914554994073 0.014776617353596703 0.0082079470429723897 0.013909894344804831 0.025384517364225732 0.020493598267952811 0.011018240823565039 -0.016168076012210372 0.0056629006525763352 0.011128874927332008 0.013002810186629203 40.711763246615199 -0.0022699419953178808 0.0053689742032570235 -0.071832110175823013 -0.014148950951419324 -0.26817565916397973 21.50520351661471 0.020292781050746733 0.50593448572151567 25.524832843140278 1.0125974066221173 0.021725016262508369 -0.03466658814784656 -0.12261313219591945 0.026305515741475886 -0.00059706963130923263 0.73162291311571115 0.45475660792246847 0.14918616949115029 -0.07682151557402743 -0.035270654098032143 0.35083070752495121 0.30821825408235143 0.004883426404645186 0.010733237308109879 60.998243938677014 0.0098539328526645615
decision_type=2 2 2 2 2 2 2 2 2 2 2 2 2 2 2 2 2 2 2 2 2 2 2 2 2 2 2 2 2 2 2 2 2 2 2 2 2 2 2 2 2 2 2 2 2 2 2
left_child=1 3 18 4 9 31 7 8 22 29 46 12 -8 -14 15 28 39 -18 26 -20 33 -10 -7 -11 25 -6 -3 -28 -4 -1 -17 41 -33 -12 -22 -9 -37 38 -13 -16 -26 42 -2 45 -44 -43 -5
right_child=5 2 14 10 24 6 11 35 21 23 20 37 13 -15 16 30 17 -19 19 -21 34 -23 -24 -25 40 -27 27 -29 -30 -31 -32 32 -34 -35 -36 36 -38 -39 -40 -41 -42 43 44 -45 -46 -47 -48
leaf_value=0.0011674729015911309 0.003582413650011856 -0.00091494695235536821 -0.0028764215922731954 0.0027021498125715279 0.0015011462344259351 0.00085647597931423505 0.0053886072581862008 -0.0059432298899748538 0.00095232992481493462 -0.0029329178280394228 0.0024787160335148837 0.0051337825150049032 6.1131354340287155e-05 -0.0080398788002785295 0.00064007904471956919 -0.0016506937790031588 -0.0028019294671666546 0.00045953161968780303 0.0030248320565936775 -0.0052567037377388957 -0.00065849930919875015 0.0048340307685367347 -0.0017300870248717248 -0.008586162372028033 0.0061605385922807827 -0.0027793228205696117 -0.0041387656003025507 -0.0088878926360848719 -0.0002079217802794061 -0.002550572139746046 -0.004669072900549338 0.0028956298185512427 -0.0064459677389822907 0.00054200984053284394 0.0011665916449209053 0.0023490830077308004 -0.0036209320628386638 0.0057676097879829332 -0.0027297473219126309 0.0044667628732681418 0.0011642490765988852 0.0040230232570874725 -0.0033582203042208897 -0.00064005219247277589 0.0012756763883400462 0.010443934191599353 0.0077143981401506514
leaf_weight=374 835 170 538 337 789 971 147 254 731 274 1448 119 276 100 315 723 585 1705 159 103 2884 417 1263 182 147 612 421 256 4166 703 681 100 100 1835 1238 145 328 378 108 429 292 168 148 109 943 109 111
leaf_count=374 835 170 538 337 789 971 147 254 731 274 1448 119 276 100 315 723 585 1705 159 103 2884 417 1263 182 147 612 421 256 4166 703 681 100 100 1835 1238 145 328 378 108 429 292 168 148 109 943 109 111
internal_value=-9.11368e-06 -0.000319235 -0.000951939 0.000258518 -0.000887548 0.000850412 0.000287021 -0.000242917 0.00040168 -0.00242839 0.000750773 0.00221744 9.57866e-06 -0.00209339 -0.000604306 -0.00111113 0.000416031 -0.000373636 -0.00381763 -0.000230886 0.000557582 0.00236232 -0.000605847 -0.00518926 0.000396206 -0.000368695 -0.00492711 -0.0059346 -0.00051312 -0.00125944 -0.00311474 0.00202497 -0.00177517 0.00139621 -0.000110352 -0.00324158 -0.0017908 0.00412606 0.00139254 0.00284659 0.00283727 0.0023537 0.00191966 0.00451941 0.000647063 0.00654966 0.00394402
internal_weight=29226 21477 10251 11226 3373 7749 5237 4109 3382 1533 7853 1128 523 376 9142 6108 3034 2290 1109 262 7405 1148 2234 456 1840 1401 847 677 4704 1077 1404 2512 200 3283 4122 727 473 605 227 744 439 2312 1926 386 1091 277 448
internal_count=29226 21477 10251 11226 3373 7749 5237 4109 3382 1533 7853 1128 523 376 9142 6108 3034 2290 1109 262 7405 1148 2234 456 1840 1401 847 677 4704 1077 1404 2512 200 3283 4122 727 473 605 227 744 439 2312 1926 386 1091 277 448
is_linear=0
shrinkage=0.05


Tree=10
num_leaves=45
num_cat=0
split_feature=18 25 17 25 28 25 26 21 11 17 13 25 17 13 8 4 25 28 7 27 11 25 1 25 17 24 13 1 24 27 27 9 22 18 11 23 17 28 18 2 27 28 19 9
split_gain=3.08502 3.32387 3.59648 3.75741 3.27735 3.83378 3.2741 3.40153 2.99349 3.53973 3.01507 2.86013 2.56205 2.96977 2.26856 2.27126 2.12572 2.08675 2.0101 1.99743 1.9509 2.48991 1.80663 1.70489 1.67569 1.61071 1.60897 1.54857 1.35596 1.28767 1.20577 1.16798 1.11791 1.07116 0.979557 0.970149 0.62713 0.981524 0.734408 0.459261 0.395943 0.629303 0.688183 0.391884
threshold=0.021968425240708127 0.0050880154720233757 0.020574434875642231 0.011128874927332008 -0.098649895005001362 0.015729029249237299 -0.020461775962104963 0.50593448572151567 0.47744888946424408 0.02204868733456114 17.360199430527988 0.0096828193187429041 0.025251375046472468 39.24354111792853 -0.099581939598651012 -0.011977674080868082 0.005214044796954735 -0.057404664563422352 -0.054003866354968282 0.063804606114521337 0.043401852538519255 0.0077274923043224239 -0.011285420234142416 0.012555411514229719 0.02012991763631158 -0.018017994193723571 66.398167749320223 -0.012313807716401058 -0.011270349441704018 0.0854230534725023 0.021509998669059619 -0.03798488773243907 -0.1923058187048616 0.018296470923873476 0.71967457490191 -0.010864378293567565 0.014063447838718884 -0.04922153762450298 0.020216020721118482 -0.047638567940698866 0.067736014804079994 -0.02656982562792198 0.44000244134024968 -0.027369178213293596
decision_type=2 2 2 2 2 2 2 2 2 2 2 2 2 2 2 2 2 2 2 2 2 2 2 2 2 2 2 2 2 2 2 2 2 2 2 2 2 2 2 2 2 2 2 2
left_child=6 8 3 20 5 -5 40 31 9 10 -2 12 25 -14 19 -16 26 30 -10 -13 21 -3 34 -6 -22 -4 28 -12 -9 -24 -18 -8 -28 -19 -20 -11 37 -33 -38 -37 41 43 -43 -1
right_child=1 2 11 4 23 -7 7 16 18 35 27 14 13 -15 15 -17 17 33 22 -21 24 -23 29 -25 -26 -27 32 -29 -30 -31 -32 36 -34 -35 -36 39 38 -39 -40 -41 -42 42 -44 -45
leaf_value=-0.003656455198103942 0.006383529291064902 0.0015290981291804606 0.0042114428323660425 0.0041849410373682554 -0.0051069808618095201 -0.0065310275213877585 -0.0059833764658003248 0.0039709220620734566 -0.0055345163240000141 -0.0022156398295301873 -0.0008003178175018474 0.0042807115806361941 0.0020789930671881673 -0.0041629861866518854 -0.0018135218860578655 0.0016757113123274836 0.0026402539981764776 -0.0014253835610200521 0.0066631335210734725 -0.0011367269620497593 0.00064705631511616582 -0.0042370855337877603 -0.0018754422678174953 -0.0021242325443796791 -0.0036788829714770165 5.502058835309265e-05 0.0059192214472308319 -0.0032825452352011246 0.001126105758656893 0.0026258158184266295 -0.0025880644404401767 0.003047749554241171 0.0023578683265324824 0.00053816518507580674 0.0014055202744545088 -0.010459079227495331 -0.0041499215804147891 -0.0021745243590373465 -0.00014221583260223269 -0.0065298312583401217 -0.00037624681202435228 -0.0023118848331319559 -0.0073963092373217042 0.00071581708670790105
leaf_weight=103 110 288 281 346 695 110 149 476 122 106 1225 1079 261 706 610 1981 1066 1334 185 202 4351 535 439 1542 236 1367 369 1290 3490 249 123 177 547 1449 170 104 260 183 204 261 122 119 151 102
leaf_count=103 110 288 281 346 695 110 149 476 122 106 1225 1079 261 706 610 1981 1066 1334 185 202 4351 535 439 1542 236 1367 369 1290 3490 249 123 177 547 1449 170 104 260 183 204 261 122 119 151 102
internal_value=-1.20676e-05 -0.000393748 -3.49482e-05 -0.000737341 -0.0022634 0.00159995 0.000678173 0.000896584 -0.00162231 -0.00243526 -0.00171912 0.000842421 -0.000435114 -0.00247823 0.00170522 0.00085424 0.00120496 0.000346052 0.000538125 0.00342644 2.23041e-05 -0.00221927 0.00124844 -0.00305092 0.000424488 0.000763731 0.00190377 -0.00207351 0.00146754 -0.000246353 0.00209939 -0.00190956 0.00379252 -0.00040304 0.0041454 -0.00642651 -0.00117291 0.000393094 -0.00238791 -0.0076494 -0.00291702 -0.0035696 -0.0051554 -0.00148098
internal_weight=29275 18851 14590 8103 2693 456 10424 9827 4261 3096 2625 6487 2615 967 3872 2591 8854 3972 1165 1281 5410 823 1043 2237 4587 1648 4882 2515 3966 688 1189 973 916 2783 355 471 824 360 464 365 597 475 270 205
internal_count=29275 18851 14590 8103 2693 456 10424 9827 4261 3096 2625 6487 2615 967 3872 2591 8854 3972 1165 1281 5410 823 1043 2237 4587 1648 4882 2515 3966 688 1189 973 916 2783 355 471 824 360 464 365 597 475 270 205
is_linear=0
shrinkage=0.05


Tree=11
num_leaves=45
num_cat=0
split_feature=10 26 26 27 11 18 26 18 28 25 10 23 26 24 25 8 10 28 26 13 25 16 8 10 9 7 1 3 1 22 25 18 18 11 7 27 7 25 27 9 13 16 8 22
split_gain=2.35287 2.06045 2.33404 3.11066 2.09646 2.04831 2.38722 2.36694 2.98027 2.40776 2.61533 2.75566 2.21362 2.03647 1.70035 1.95251 1.69978 1.69542 2.79917 1.59724 1.50465 1.46398 1.46146 1.44827 1.31252 1.22179 1.32774 1.19748 1.1814 1.15306 1.14774 1.3554 1.18267 1.07097 1.05607 1.29644 1.01021 0.924464 0.767661 0.761202 0.677677 0.618611 0.56929 0.366114
threshold=-0.072790166075968984 -0.017731818648939742 0.03071313802823428 -0.025684566782114556 0.4906416768484953 0.040069472690228064 -0.016168076012210372 0.022055133601192409 0.054008177176302803 0.0050205919233691455 -0.40565363950971983 -0.018799853057183288 -0.021318197966662174 0.015231612043157485 0.0128030275035861 -0.099581939598651012 -0.24304896071539792 -0.12261313219591945 0.015541818345189974 40.711763246615199 0.011018240823565039 0.01487381879854891 0.13966428811419709 -0.20999733424892028 -0.049087988772755768 0.031167208660390692 0.011880619441750452 -0.03783234211060859 0.025833650597697936 -0.32426431132946892 0.0086974777571446563 0.029636621382641472 0.029960678818374512 0.18790789541408007 -0.0017903587026048549 0.0063629125967246134 0.07713083510260467 0.015392746994419938 -0.10206165676260452 0.023185033739425934 51.536025331515582 0.031088848128373276 0.055625589573935937 -0.023318166692611966
decision_type=2 2 2 2 2 2 2 2 2 2 2 2 2 2 2 2 2 2 2 2 2 2 2 2 2 2 2 2 2 2 2 2 2 2 2 2 2 2 2 2 2 2 2 2
left_child=5 22 27 40 28 7 16 8 12 10 -9 -12 43 19 33 -16 37 18 -11 -8 -6 -19 25 -21 -14 39 -27 -3 -5 -18 32 -32 -29 -15 -10 -36 -24 38 -7 42 -4 -31 -2 -1
right_child=1 2 3 4 20 6 13 9 34 17 11 -13 24 14 15 -17 29 21 -20 23 -22 -23 36 -25 -26 26 -28 30 -30 41 31 -33 -34 -35 35 -37 -38 -39 -40 -41 -42 -43 -44 -45
leaf_value=-0.0019210681759762916 -0.0031611136446896373 0.0052579219685721179 -0.0037408169873312798 0.0005262847300561926 -0.00022000915504416779 0.0070510745449878639 0.0015948602453059798 -0.0077771042447346145 -0.0068391485914617084 -0.00056728260862941218 0.0034741723473671938 -0.0022984350552043543 -0.0022008874201994042 -0.00086405735689206668 0.0031066980675942351 -0.0036973002368049564 -0.0035634188623777751 -0.002180622123962357 0.0036950537140159668 -0.0080053261114136111 0.006912928336317202 -0.00047189636042928215 -0.0074001177455291908 -0.0014782945544263998 0.0010606721003722775 0.0060004338438910268 -0.0011383279711008071 0.0013851426539698971 -0.0039656362201928438 0.00069004050551633848 0.001410911022711454 0.0057845240531953328 -0.00069893257231599926 0.0049165929497590397 0.001454163654241711 -0.0034640090563778968 -0.0017187233283262515 0.0079081197480681802 0.0019595458156028505 -0.0054770861284452535 -0.0093703874951013583 0.0053355110258390022 0.0013702002554921257 -0.005474139068336872
leaf_weight=154 118 199 110 327 136 105 143 195 128 1089 228 2217 327 107 176 263 116 1557 596 168 162 6431 139 172 5440 136 125 3938 265 213 448 293 823 319 200 406 179 174 251 105 104 108 168 137
leaf_count=154 118 199 110 327 136 105 143 195 128 1089 228 2217 327 107 176 263 116 1557 596 168 162 6431 139 172 5440 136 125 3938 265 213 448 293 823 319 200 406 179 174 251 105 104 108 168 137
internal_value=-1.22334e-05 0.000732798 0.00104011 -0.00106416 0.000237275 -0.000282664 0.00112195 -0.000452864 0.000296466 -0.000866204 -0.00220457 -0.00176013 0.000661037 -0.000237959 0.00121425 -0.000969501 0.00301766 -0.000500932 0.000940345 -0.00283871 0.00365763 -0.000804957 -0.0014231 -0.00470342 0.000875735 -6.77052e-05 0.00258149 0.0014476 -0.00148446 0.000709055 0.00130978 0.00314029 0.00102488 0.00346465 -0.00271249 -0.00184085 -0.0042021 0.00492117 0.00346126 -0.00183609 -0.00647668 0.002253 -0.000499363 -0.00359382
internal_weight=29195 7775 6805 1104 890 21420 2315 19105 6792 12313 2640 2445 6058 1348 865 439 967 9673 1685 483 298 7988 970 340 5767 652 261 5701 592 437 5502 741 4761 426 734 606 318 530 356 391 214 321 286 291
internal_count=29195 7775 6805 1104 890 21420 2315 19105 6792 12313 2640 2445 6058 1348 865 439 967 9673 1685 483 298 7988 970 340 5767 652 261 5701 592 437 5502 741 4761 426 734 606 318 530 356 391 214 321 286 291
is_linear=0
shrinkage=0.05


Tree=12
num_leaves=30
num_cat=0
split_feature=10 7 9 4 17 23 2 17 4 2 17 9 16 4 18 9 22 9 16 5 17 16 23 9 4 6 17 12 21
split_gain=3.26995 2.89758 2.28186 2.00294 1.93479 1.8991 1.6976 1.40789 1.39086 1.62961 1.35806 2.14504 1.77324 1.67399 1.36992 1.34447 1.32738 1.16877 1.4906 1.3187 1.15544 1.78113 1.21217 1.12302 0.97188 0.822067 0.731659 0.472447 0.229839
threshold=-0.1534538465668259 -0.15340592100093872 -0.042298488112708581 -0.25458774547638519 0.023675354239296724 -0.020921226197887662 0.16103184175451238 0.014281435752488981 -0.30856265090445467 -0.060638927274204606 0.029636004815080611 0.055475203122940193 0.039932517140000588 0.11915334656211531 0.021900636838988328 -0.0031456947691324562 0.024897837268058574 -0.11067384032890175 0.024544027039271908 -0.0022883062645479564 0.029636004815080611 0.030616834952638328 0.021881346108803438 0.074739151842905596 0.20496887515638754 0.0010645950123989725 0.0163997653914832 62.651828838312881 1.1839502024906368
decision_type=2 2 2 2 2 2 2 2 2 2 2 2 2 2 2 2 2 2 2 2 2 2 2 2 2 2 2 2 2
left_child=1 17 27 8 5 16 20 24 -3 -10 13 12 -12 14 -5 -9 26 -1 19 -19 22 -22 -6 -15 -7 -18 -4 -2 -29
right_child=2 3 4 10 6 7 -8 15 9 -11 11 -13 -14 23 -16 -17 25 18 -20 -21 21 -23 -24 -25 -26 -27 -28 28 -30
leaf_value=-0.00062465178253981674 -0.0006723787497537728 -0.0017364973705261946 -0.0013739836781923127 0.0001223077272696737 0.0020184836584238009 0.0013061274209106176 0.0068759519269401131 -0.0013130190773884662 0.00070884208061865401 0.0091278308666220467 0.001455197798599304 0.0066519839050039192 -0.0040202300255351492 -0.0020476772668077434 -0.001044365840045148 0.00049488342855916808 -0.004815447656225596 0.0059716287586810204 0.0099580846270363715 -0.0015943348961006299 -0.0035333016164362709 0.0035817467079729119 0.0078378678979352124 -0.0065473101133466122 -0.0033797778613634602 -0.00097458598551741771 0.002338267244358963 -0.0061189732938282081 -0.0029603154980577528
leaf_weight=133 101 100 305 3623 851 5329 181 1317 105 127 584 147 198 1040 8236 4692 334 134 102 101 219 147 100 160 113 239 235 134 101
leaf_count=133 101 100 305 3623 851 5329 181 1317 105 127 584 147 198 1040 8236 4692 334 134 102 101 219 147 100 160 113 239 235 134 101
internal_value=3.43775e-06 -0.000518724 0.000539816 -0.000645513 0.000637115 0.000434601 0.00233564 0.00062625 0.00319281 0.00531751 -0.000736614 0.00111052 6.88363e-05 -0.000868017 -0.00068794 9.86432e-05 -0.00153716 0.00334429 0.00491067 0.00271987 0.00171165 -0.000675618 0.00263041 -0.00264763 0.00120883 -0.00321341 0.000241533 -0.00353228 -0.00476142
internal_weight=29188 14790 14398 14320 14062 12564 1498 11451 332 232 13988 929 782 13059 11859 6009 1113 470 337 235 1317 366 951 1200 5442 573 540 336 235
internal_count=29188 14790 14398 14320 14062 12564 1498 11451 332 232 13988 929 782 13059 11859 6009 1113 470 337 235 1317 366 951 1200 5442 573 540 336 235
is_linear=0
shrinkage=0.05


Tree=13
num_leaves=34
num_cat=0
split_feature=21 25 1 16 8 17 17 5 24 2 7 8 5 16 27 17 16 16 0 16 28 11 9 17 2 17 12 16 20 21 7 25 17
split_gain=2.04884 2.41683 1.71469 1.71293 1.709 1.93081 1.66678 1.4472 2.01605 1.29224 1.35451 1.75464 3.28619 1.59356 1.47734 1.28376 2.33309 1.21831 1.13789 1.13388 1.02915 0.971703 1.24308 1.15312 0.944758 1.29047 0.79121 0.70814 0.693935 0.671553 0.621765 0.456301 0.399202
threshold=0.58611392087295033 0.005511025630459126 0.039608066891779321 0.0076841856087699924 -0.022722591866345506 0.029170337018384892 0.0096499718526397733 0.38721018429386084 0.010523533367309603 0.16103184175451238 -0.12889573070334728 -0.0051282913476633487 -0.23007396890092816 0.025267409709071039 0.020818187906689937 0.023955599849971428 0.03708051286321306 0.016091366255770439 0.0075137834504867005 0.013722027660523691 -0.2185583317156011 0.25476298964698435 0.043437420957120561 0.018344189049161418 -0.064631565014692624 0.019551858020155969 27.00446013946129 0.016157727530608536 0.00038505273116540289 0.71244884773215966 0.14490815835626461 0.0050880154720233757 0.010630241022075285
decision_type=2 2 2 2 2 2 2 2 2 2 2 2 2 2 2 2 2 2 2 2 2 2 2 2 2 2 2 2 2 2 2 2 2
left_child=1 7 4 6 5 19 31 18 -9 10 13 14 -13 17 -12 -11 30 -5 24 -3 -15 23 -23 -6 25 -1 -26 28 -20 -8 -17 -2 -31
right_child=3 2 -4 9 21 -7 29 8 -10 15 11 12 -14 20 -16 16 -18 -19 27 -21 -22 22 -24 -25 26 -27 -28 -29 -30 32 -32 -33 -34
leaf_value=-0.00071735838831115805 0.0014044221096410955 -0.0045532080711348467 -0.004770864361471238 0.0048963995859408237 0.0018289251121217914 0.0053252106445142999 0.0016478188551945596 0.0046209950787266972 -0.0035600826164384879 -0.0016194067977090935 -0.00023368131278021171 -0.0042192504845442805 0.00046700621636422467 0.0022071733150369256 -0.0016929443064709147 0.0046476141894327512 -0.0014104145789404581 -0.00063435781051136093 -3.7152419784380236e-05 -0.00054989032723600623 0.0086386718727602084 -0.00067749162822250755 0.0034702932257593302 0.007676103889368408 -5.8559159515425567e-05 -0.0082423519356996707 -0.0022045226338623619 -0.006907960750500701 -0.0050154432892005017 0.0086716444881278134 0.010067054943435572 -0.0025792715857247024 0.0046519214352592824
leaf_weight=104 189 243 158 127 212 112 111 185 127 124 7458 386 12128 128 2260 102 114 461 119 650 121 454 300 140 665 126 1213 188 170 105 110 116 150
leaf_count=104 189 243 158 127 212 112 111 185 127 124 7458 386 12128 128 2260 102 114 461 119 650 121 454 300 140 665 126 1213 188 170 105 110 116 150
internal_value=-6.48462e-05 -0.000968737 0.000253267 0.000128188 0.000629303 -0.000863119 0.00261916 -0.00192584 0.00129088 5.71203e-05 5.35665e-06 -6.89829e-05 0.000322457 0.00197993 -0.000573045 0.00271075 0.00435781 0.000560211 -0.00231409 -0.00163926 0.00533252 0.00198544 0.000972821 0.00415451 -0.00181507 -0.00483975 -0.00144464 -0.00451938 -0.00296556 0.00489404 0.00745959 -0.000110688 0.0063071
internal_weight=29356 5166 2269 24190 2111 1005 671 2897 312 23519 23069 22232 12514 837 9718 450 326 588 2585 893 249 1106 754 352 2108 230 1878 477 289 366 212 305 255
internal_count=29356 5166 2269 24190 2111 1005 671 2897 312 23519 23069 22232 12514 837 9718 450 326 588 2585 893 249 1106 754 352 2108 230 1878 477 289 366 212 305 255
is_linear=0
shrinkage=0.05


Tree=14
num_leaves=34
num_cat=0
split_feature=10 25 18 10 9 25 25 28 7 8 8 5 8 2 25 28 13 1 10 18 9 13 16 9 8 5 11 8 13 9 21 5 20
split_gain=2.35086 2.51126 2.6653 2.56103 2.20912 2.08615 3.10707 2.33927 2.18039 2.1606 2.02982 2.04554 1.97095 1.8779 1.76554 1.67273 1.48702 1.37357 1.66132 1.44604 1.31383 1.30544 1.16168 1.14837 1.37594 1.09697 1.40042 1.15072 1.08082 0.76168 0.608613 0.571366 0.504978
threshold=-0.1588219641301821 0.0050205919233691455 0.020618973202739713 -0.28114422476272538 -0.047209511699431876 0.011237085120643546 0.0065773673889554293 1.0000000180025095e-35 -0.13992915809623671 -0.25035373572068215 0.46512104256057302 0.64143693633960608 0.14775458482683448 0.16103184175451238 0.011342996220503892 0.33128271758653122 73.248106985692871 -0.056392352329645394 -0.27731009202934848 0.028793902305385952 -0.0092936064021131842 13.979561215071472 0.013235804756012898 0.084070731145102565 0.078020074614845072 -0.2930942910244711 0.14619247176758002 0.015796990826937866 25.50257413479854 0.0026393761357460526 1.0000447308969012 0.013735991199784083 0.00019035697235081364
decision_type=2 2 2 2 2 2 2 2 2 2 2 2 2 2 2 2 2 2 2 2 2 2 2 2 2 2 2 2 2 2 2 2 2
left_child=1 2 25 5 32 6 7 -3 -8 30 11 13 29 14 -6 -14 -11 20 22 -20 -4 -5 -19 24 -23 -1 28 -28 -27 -13 -7 -15 -2
right_child=4 3 17 21 10 9 8 -9 -10 16 -12 12 15 31 -16 -17 -18 18 19 -21 -22 23 -24 -25 -26 26 27 -29 -30 -31 -32 -33 -34
leaf_value=-0.0042696042260485555 -0.0016587931053677939 0.0019641422618085105 -0.0024583495977962815 -0.0061742594564781978 0.00059136065310583848 0.0086602465579441439 0.0023205273470316592 -0.0026911037176293238 -0.0035969287185878178 0.0018657334187002551 -0.006101220593504284 0.0042810373368910425 9.4558095842635272e-05 0.0022864946958143263 -0.0010309583007369375 0.0069699315647345182 -0.0043169764697640429 -0.0089733378720878026 -0.00088665089040643262 -0.0046533009025572234 0.0037159133308957665 -0.00054975095338502251 -0.0040050136461287659 0.0044337416328066453 -0.0039834235523759495 -0.0026753573115915062 -0.0053535413286513898 0.00097727876525502389 0.0023335826784614141 0.010406565653001153 0.0040403891047519156 0.0074438287485651834 -0.0061241086941461421
leaf_weight=124 113 1567 194 108 11617 132 197 326 742 1318 115 102 421 100 1960 112 105 146 872 360 155 5876 606 110 307 125 152 136 778 101 155 116 144
leaf_count=124 113 1567 194 108 11617 132 197 326 742 1318 115 102 421 100 1960 112 105 146 872 360 155 5876 606 110 307 125 152 136 778 101 155 116 144
internal_value=-6.96958e-06 -0.000458094 -0.00159419 -7.93617e-05 0.00043477 0.000828688 -3.97815e-06 0.00116245 -0.00235546 0.0022077 0.000515421 0.000567793 0.0031361 0.000430747 0.00035716 0.00153929 0.00140953 -0.00260885 -0.00311769 -0.0019873 0.000283802 -0.000723693 -0.00496961 -0.00063015 -0.000720241 0.000205968 0.000671939 -0.00236399 0.00164021 0.00732871 0.0061652 0.00505617 -0.00416076
internal_weight=29492 14591 3648 10943 14901 4542 2832 1893 939 1710 14644 14529 736 13793 13577 533 1423 2333 1984 1232 349 6401 752 6293 6183 1315 1191 288 903 203 287 216 257
internal_count=29492 14591 3648 10943 14901 4542 2832 1893 939 1710 14644 14529 736 13793 13577 533 1423 2333 1984 1232 349 6401 752 6293 6183 1315 1191 288 903 203 287 216 257
is_linear=0
shrinkage=0.05


Tree=15
num_leaves=37
num_cat=0
split_feature=5 18 25 17 17 25 25 28 26 13 9 2 27 25 21 9 21 1 26 9 26 23 17 17 1 4 4 9 18 9 4 7 9 5 3 8
split_gain=1.57062 1.97791 3.37917 3.40705 2.84071 3.38351 2.84313 3.07172 2.31504 2.00373 2.2394 1.97304 1.9615 1.89986 1.89794 1.86626 1.62617 1.48429 1.4475 1.54614 1.3677 1.33559 1.09589 1.04496 0.934216 2.21288 1.50351 1.36755 0.876742 0.804166 0.939332 0.760967 0.623308 0.57308 0.251352 0.269262
threshold=0.31918822176613743 0.022055133601192409 0.0050880154720233757 0.022252322063761345 0.020574434875642231 0.011128874927332008 0.011128874927332008 -0.098649895005001362 -0.020996685374855214 26.823373316933395 0.0073522805972906511 0.051803746927665435 0.0096351492552488888 0.0046682607885180447 0.55839436228915107 0.029541256932103192 0.5817439073876246 -0.056392352329645394 0.026998821141855815 -0.0069884865737738769 0.022467148622224212 0.024370086390634652 0.025251375046472468 0.017949720323814911 0.039608066891779321 0.37132405001383811 0.022962820889829375 -0.062132280378050568 0.034915711825045471 -0.048160411592461864 0.14085423633926722 0.031933918027643012 0.011967066765228076 0.45031668018414511 -0.029149278589136903 -0.073256546166670031
decision_type=2 2 2 2 2 2 2 2 2 2 2 2 2 2 2 2 2 2 2 2 2 2 2 2 2 2 2 2 2 2 2 2 2 2 2 2
left_child=1 8 3 9 6 16 11 -8 32 17 -11 -4 -7 15 29 33 -6 -3 19 -16 22 24 -5 -20 25 27 -26 -15 -28 -10 -31 -23 34 -2 35 -1
right_child=13 2 4 20 5 12 7 -9 14 10 -12 -13 -14 21 18 -17 -18 -19 23 -21 -22 31 -24 -25 26 -27 28 -29 -30 30 -32 -33 -34 -35 -36 -37
leaf_value=-0.004090685715060681 -0.0011470110174856211 0.0065900574329980591 -0.0004274084583815287 -0.0064377037811708714 0.0018095018379482451 0.0034889949083595131 0.0016666164871821821 -0.0029034453359184365 -0.0048623137616371128 -0.0030240049802095952 -1.2540575613578161e-05 0.0024521129931799521 0.00083464610820655697 -0.0043521298666525151 0.0021569895585184348 0.0089983214368618541 -0.0014358498215060159 -4.6769575708331402e-06 -0.0010611587653304522 0.00060007299186652923 -0.010022471218684128 -0.0061135866207000364 -0.0015587312699272507 0.0032934585472121983 0.0046203533390370933 0.0080375877548217907 -0.00022305256278585002 0.0012295342146251406 -0.0045260896303570657 -0.00021828067088619101 -0.0044833053744455084 -0.00057145385040382817 0.00033270255921201576 0.0040543119630289323 -0.0050030119867164186 -0.00060977038858982268
leaf_weight=125 103 129 3930 239 505 1207 448 2051 131 1368 1125 701 1644 115 2574 138 1638 252 1239 4191 123 106 222 155 101 116 273 2398 209 1060 147 149 126 109 193 100
leaf_count=125 103 129 3930 239 505 1207 448 2051 131 1368 1125 701 1644 115 2574 138 1638 252 1239 4191 123 106 222 155 101 116 273 2398 209 1060 147 149 126 109 193 100
internal_value=1.59147e-05 -0.000125041 -0.000477684 -0.0018564 -8.44486e-05 0.000830046 -0.00072498 -0.00208416 0.000422204 -0.00114892 -0.00166504 8.46814e-06 0.00195839 0.000962132 0.000603909 0.00447299 -0.00067108 0.00222819 0.000890147 0.00119246 -0.00533804 0.000607704 -0.00408818 -0.000576965 0.000884215 0.00128577 -0.00092657 0.000974106 -0.00208889 -0.00114154 -0.000737716 -0.00287524 -0.00274995 0.00152725 -0.00367917 -0.00254361
internal_weight=29440 25623 15582 3458 12124 4994 7130 2499 10041 2874 2493 4631 2851 3817 9497 350 2143 381 8159 6765 584 3467 461 1394 3212 2629 583 2513 482 1338 1207 255 544 212 418 225
internal_count=29440 25623 15582 3458 12124 4994 7130 2499 10041 2874 2493 4631 2851 3817 9497 350 2143 381 8159 6765 584 3467 461 1394 3212 2629 583 2513 482 1338 1207 255 544 212 418 225
is_linear=0
shrinkage=0.05


Tree=16
num_leaves=39
num_cat=0
split_feature=18 18 26 8 2 11 11 8 5 25 1 21 28 25 6 5 4 10 5 11 8 21 1 25 5 3 25 2 25 5 1 2 13 18 28 28 27 22
split_gain=1.65701 2.36622 2.70848 2.33491 2.35843 1.8418 2.78021 5.0539 2.61958 2.07698 2.70813 2.50271 1.70032 1.58118 2.43514 1.49522 1.68823 1.45309 1.44587 1.70193 1.63268 1.43009 1.46707 1.44765 1.41868 1.33898 1.33536 1.4527 1.32945 1.31243 1.24792 1.00916 0.912641 0.763064 0.761544 0.682037 0.545068 0.438027
threshold=0.040069472690228064 0.021968425240708127 -0.022149266468631686 -0.091244857083230865 0.17550335652281393 0.51378571797669381 0.80550731111602991 0.14775458482683448 0.24442662375973082 0.0051416702069699465 -0.0086759702402394705 0.74388653715398878 -0.040455044424078206 0.010874721529706553 -0.041162794435529386 0.60992766250795161 0.13435177943885815 -0.45947988735376732 0.013735991199784083 0.14042778955678539 -0.050310001310457535 0.873528010575363 0.00063205342784999907 0.006231017371683259 -0.1690730881084743 -0.013263640874750958 0.0052164518800610999 0.049848664460326104 0.0082620569287899185 0.28144428439377805 -0.042643473656095936 0.025006020973685209 55.912348813966126 0.04639034705950585 -0.028895636324710591 -0.12261313219591945 0.047650711090783011 -0.10079175355483916
decision_type=2 2 2 2 2 2 2 2 2 2 2 2 2 2 2 2 2 2 2 2 2 2 2 2 2 2 2 2 2 2 2 2 2 2 2 2 2 2
left_child=1 2 36 13 12 9 15 25 -9 10 17 -12 33 14 28 16 -7 -3 19 31 -21 22 -11 -23 -14 -8 27 -20 -2 32 -26 -4 35 -5 -28 -15 37 -1
right_child=3 5 18 4 -6 6 7 8 -10 21 11 -13 24 29 -16 -17 -18 -19 26 20 -22 23 -24 -25 30 -27 34 -29 -30 -31 -32 -33 -34 -35 -36 -37 -38 -39
leaf_value=-0.0023983148359084166 0.0075029483848364558 -0.006218034476310445 0.00058238306107748152 -0.001982130451084997 0.0058678786644035842 -0.00022156144145350036 0.00052877931583599001 -0.010972932642464074 -0.0022903679261044424 0.0012068265657494727 -0.006146407880276308 -0.0018484544676700548 -0.0045027657141103053 0.008540676377559989 -0.0050482641446835076 0.0063020760355026479 0.0030798330111458986 -0.00012640673090830181 0.0017719440770472437 -0.0056836654435046628 -0.00045792765141117241 0.00060328773577820582 -0.00063772831783423295 -0.0012713082193055634 0.0040512629198552717 0.0081167273740046213 0.0019892909258599572 0.006134171518452608 -0.00017763606806778733 -0.00083102662992175854 -6.6115716348004555e-05 0.0031434809552641435 0.0021096052577567483 -0.0074938455666197796 -0.00026599511048532775 0.0046394158564507957 -0.00068465970978461976 -0.0061068637282941608
leaf_weight=149 107 104 2648 152 157 770 101 101 621 2296 527 948 143 203 134 176 779 1668 2198 159 2493 1325 2032 4624 232 137 520 209 119 105 890 450 172 107 1336 250 145 171
leaf_count=149 107 104 2648 152 157 770 101 101 621 2296 527 948 143 203 134 176 779 1668 2198 159 2493 1325 2032 4624 232 137 520 209 119 105 890 450 172 107 1336 250 145 171
internal_value=3.78651e-05 -8.29719e-05 0.000502609 0.00120162 3.28889e-05 -0.00046151 0.000734662 -0.00142207 -0.00350496 -0.000698993 -0.00180136 -0.00338406 -0.000568222 0.00300405 0.000292248 0.00193493 0.00143873 -0.000483929 0.000675845 0.000158504 -0.000771235 -0.000350702 0.000340806 -0.000853786 0.000187474 0.00489663 0.00137364 0.00215072 0.00345875 0.00434138 0.00078525 0.000954395 0.00521034 -0.00425917 0.000365874 0.00638766 -0.00322774 -0.00438007
internal_weight=29458 26687 10478 2771 1681 16209 2685 960 722 13524 3247 1475 1524 1090 360 1725 1549 1772 10013 5750 2652 10277 4328 5949 1265 238 4263 2407 226 730 1122 3098 625 259 1856 453 465 320
internal_count=29458 26687 10478 2771 1681 16209 2685 960 722 13524 3247 1475 1524 1090 360 1725 1549 1772 10013 5750 2652 10277 4328 5949 1265 238 4263 2407 226 730 1122 3098 625 259 1856 453 465 320
is_linear=0
shrinkage=0.05


Tree=17
num_leaves=15
num_cat=0
split_feature=17 21 25 3 2 7 17 26 11 17 7 25 17 25
split_gain=1.67106 1.7525 1.49658 1.87845 1.3896 1.27805 1.39642 2.7611 1.94326 1.03537 1.3889 1.01714 0.979556 0.795844
threshold=0.033864259424107736 4.0123646980884846 0.0094492990987811738 0.015060860200248884 0.17550335652281393 -0.1628911673739121 0.014344623870968102 -0.016168076012210372 0.51378571797669381 0.041475503013776914 -0.0072866480739741104 0.012567608656194841 0.025815415623466138 0.0095914859343645426
decision_type=2 2 2 2 2 2 2 2 2 2 2 2 2 2
left_child=1 4 3 -2 5 13 7 -7 -8 10 -4 -12 -6 -1
right_child=2 -3 9 -5 12 6 8 -9 -10 -11 11 -13 -14 -15
leaf_value=0.0061862823548010336 0.0039910136392164825 -0.0048136454556242832 0.010066180015075031 -0.0048457433281988982 0.00051076326235804871 -0.0015960622225404623 -0.00057831491959784863 0.00076112968146375059 0.0007978110976227218 0.00021158678020951867 0.0057488759824708621 -5.5200819714138147e-05 0.0069684816400210061 0.0007626861584841783
leaf_weight=130 106 192 101 139 115 1466 15063 8142 3092 158 180 130 120 141
leaf_count=130 106 192 101 139 115 1466 15063 8142 3092 158 180 130 120 141
internal_value=1.10224e-05 -5.28634e-05 0.00224475 -0.00102249 -2.05286e-05 -5.26247e-05 -8.5979e-05 0.000401467 -0.000343945 0.00365156 0.00497398 0.00331491 0.00380832 0.00336441
internal_weight=29275 28461 814 245 28269 28034 27763 9608 18155 569 411 310 235 271
internal_count=29275 28461 814 245 28269 28034 27763 9608 18155 569 411 310 235 271
is_linear=0
shrinkage=0.05


Tree=18
num_leaves=42
num_cat=0
split_feature=10 18 8 9 3 13 24 28 9 4 18 8 1 28 9 25 4 26 13 22 26 5 27 27 11 20 22 10 11 11 5 18 25 0 9 21 13 24 21 18 28
split_gain=2.29998 1.65434 2.61354 1.78694 1.66238 2.33775 2.2027 2.11147 1.45758 1.43505 1.57279 1.3994 1.28512 1.24769 1.23594 1.55866 1.21071 1.45653 1.1814 1.8236 1.57063 1.7447 1.17572 1.12882 1.09578 1.09306 1.02493 0.957034 1.36788 1.72435 1.0749 1.18503 1.14427 0.932647 0.8406 1.3432 0.82 0.839547 0.743079 0.699455 0.490033
threshold=-0.1588219641301821 0.038382976855891975 -0.091244857083230865 -0.11067384032890175 0.083764962112597 70.863261370653362 0.024766677006788477 -0.06073177462426254 -0.044220068122641114 0.016894415200712446 0.04639034705950585 -0.25035373572068215 -0.015547367149441436 -0.039345929224393832 -0.10175878944029108 0.0063540810705228681 0.12634728982996959 0.00020085708049288889 69.714187006903401 0.060055270797318573 0.018276153923009856 -0.060479723654417721 0.063804606114521337 -0.083120890043210924 0.51378571797669381 0.012665164304448863 -0.13606256375738363 -0.11731826886458595 0.52920847597624965 0.28273628446756244 -0.071966979310694887 0.024741945131034542 0.0050787996714238238 0.034963966679656629 0.025061660077995821 1.0257670187691545 73.641914540914073 0.014572150380477768 0.99156991902998992 0.032690546685425044 -0.19735141023703709
decision_type=2 2 2 2 2 2 2 2 2 2 2 2 2 2 2 2 2 2 2 2 2 2 2 2 2 2 2 2 2 2 2 2 2 2 2 2 2 2 2 2 2
left_child=1 4 3 -3 6 34 14 12 39 10 26 40 -8 27 -1 -16 17 -11 19 25 21 -20 -13 -9 -22 -15 -4 30 29 -29 32 -32 -10 -21 38 -36 -7 -38 -6 -2 -5
right_child=8 2 9 11 5 36 7 23 13 16 -12 22 -14 18 15 -17 -18 -19 20 33 24 -23 -24 -25 -26 -27 -28 28 -30 -31 31 -33 -34 -35 35 -37 37 -39 -40 -41 -42
leaf_value=0.0038135499748811648 -0.0053051880793268009 -0.0032144187100699088 -0.0037629225157841946 0.003784390229460163 -0.0049902222891456084 -0.0091912402444554921 -0.00037292578606120053 0.0037959939346770065 -0.0034600832905139658 0.0074080524440115723 -0.0069142498638976521 0.0027211938534096322 0.0033607146179518441 0.00066083197760044544 -0.00046306591537373181 -0.0019426178405455902 -0.0022441836031229824 8.4368058920113582e-05 -0.0010866678147546114 -0.0011754242544330384 -0.0012506317249414767 0.0031400761292940346 -0.0025829416397604938 -0.0014061453165447788 0.0021687398310258851 -0.0036298129571437849 0.0020067840567882488 0.0014288921002104569 0.00611525679791107 -0.0027199733241039174 0.00521119785424196 0.0010739338301367907 0.0035285997638680243 0.0021098980534340166 0.0028713762475010216 -0.0033421413902583168 -0.00027044947724789379 -0.0057334772854852334 0.00049804221181308527 -0.00056255108789558621 0.008110652836249857
leaf_weight=143 154 131 157 120 156 104 312 119 124 109 171 765 882 6330 6440 2460 196 180 304 2812 744 1240 121 843 342 152 151 900 109 347 479 271 111 234 267 129 100 237 102 157 144
leaf_count=143 154 131 157 120 156 104 312 119 124 109 171 765 882 6330 6440 2460 196 180 304 2812 744 1240 121 843 342 152 151 900 109 347 479 271 111 234 267 129 100 237 102 157 144
internal_value=3.73103e-05 -0.000409421 0.000838691 0.00231862 -0.000637338 -0.00249673 -0.000455532 0.000980585 0.000475867 -0.00112789 -0.00306908 0.0029489 0.00238509 0.000548514 -0.000797926 -0.000872021 0.000789287 0.00284659 0.000344986 8.60367e-05 0.00128311 0.00230787 0.00199681 -0.000762637 -0.000173813 0.000560218 -0.000934268 0.00160554 0.000743905 0.000274396 0.0027917 0.00371627 -0.000159046 -0.000923039 -0.000599623 0.000847276 -0.00531013 -0.0041124 -0.00282044 -0.002911 0.00614417
internal_weight=29349 14539 2245 1281 12294 1095 11199 2156 14810 964 479 1150 1194 14499 9043 8900 485 289 12158 9528 2630 1544 886 962 1086 6482 308 2341 1356 1247 985 750 235 3046 654 396 441 337 258 311 264
internal_count=29349 14539 2245 1281 12294 1095 11199 2156 14810 964 479 1150 1194 14499 9043 8900 485 289 12158 9528 2630 1544 886 962 1086 6482 308 2341 1356 1247 985 750 235 3046 654 396 441 337 258 311 264
is_linear=0
shrinkage=0.05


Tree=19
num_leaves=48
num_cat=0
split_feature=10 17 25 4 25 17 21 7 4 25 17 23 13 17 25 5 28 17 2 25 4 3 25 11 5 6 17 17 13 17 18 11 28 25 1 27 25 8 1 3 5 25 17 18 24 10 21
split_gain=1.6064 1.92057 3.386 1.77267 1.71751 1.60148 1.54703 1.52 1.51695 1.47985 2.56023 1.78177 1.41512 1.61391 2.47211 2.17792 1.8739 1.83459 1.60865 2.13244 1.73119 1.47085 1.39587 1.39402 1.38476 1.36538 1.36366 1.2155 1.53874 1.07757 1.64562 1.35385 1.06233 1.51617 1.67576 0.957304 0.949432 0.959674 0.930809 0.831791 0.771121 0.695477 0.668045 0.618995 0.584845 0.570944 0.446301
threshold=-0.1588219641301821 0.023955599849971428 0.011128874927332008 0.2473771732589162 0.005511025630459126 0.021953363825493743 0.83390373034082133 -0.028242971426317761 -0.040160737507858583 0.0050205919233691455 0.022144541325586655 0.0056346507364309914 61.420398503471183 0.020574434875642231 0.0060846217192054922 -0.12556017380336662 -0.18245767833159773 0.015284673344821019 0.11924105945097664 0.0060206451522004907 -0.11710525292046346 -0.0072482806086068821 0.0049949746814800374 0.13114637497119866 0.43967776381857931 -0.066219870326519423 0.02482557446970848 0.012617630269402354 25.959803241656868 0.020734113617639483 0.028079071626988469 0.21390139506332154 0.074284886955154797 0.015245545592464797 0.084343444216238642 -0.009839815995574706 0.012472642331025047 0.078020074614845072 -0.027121397750722805 0.076516939918985352 -0.25723389319604295 0.012555411514229719 0.02482557446970848 0.04108293293823085 -0.00033248252699669129 -0.072790166075968984 0.64873415348187857
decision_type=2 2 2 2 2 2 2 2 2 2 2 2 2 2 2 2 2 2 2 2 2 2 2 2 2 2 2 2 2 2 2 2 2 2 2 2 2 2 2 2 2 2 2 2 2 2 2
left_child=9 2 3 29 22 24 35 8 -8 10 25 26 13 16 15 -15 17 -11 19 39 -21 -18 -3 -16 -5 44 -12 28 -27 31 -31 -2 36 34 -34 45 37 -6 -28 -14 -29 -9 -20 -35 -1 -4 -37
right_child=1 4 6 5 32 -7 7 41 -10 12 11 -13 18 14 23 -17 21 -19 42 20 -22 -23 -24 -25 -26 27 38 40 -30 30 -32 -33 33 43 -36 46 -38 -39 -40 -41 -42 -43 -44 -45 -46 -47 -48
leaf_value=0.00060856293904472077 0.0015304649351045611 0.0017559603448281042 0.00010762542972456565 -0.0019447073839510016 0.0059051626462001952 -0.0058708727011176128 -0.0028084723230774617 -0.0047457337710026578 0.0051937043149117585 -0.0013492321921512486 -0.0063955073509449987 -0.0084660463405728317 0.0024037626558189094 0.0018220012497047753 0.0033371298622762954 -0.004429675984000481 -0.0011039785048335448 0.0048811495853787355 -0.00034164252479445021 -0.0069081280813686769 -0.0019602384516394264 0.00078404083506949636 -0.0054582119446187731 0.00094940531722293364 0.0034674837624792151 -0.0050478829157677516 0.0031887514977011291 -0.0032906065788619794 0.0014336972811257659 -0.00099877233273527617 0.0042973494725774492 0.00023793989863018082 0.0035707441782111661 0.0098627900668298435 -0.0033760571865005294 0.0041257274508311901 -0.0031177873081457215 -0.00027597156279769388 -0.0031730875872669679 -0.002725707001381499 -0.0010232945035968629 -0.0022753943736977598 0.0041815500840686063 0.0046164117802188478 0.0058486120557743257 -0.005065746078645756 0.0006691125344997585
leaf_weight=106 2870 146 113 437 107 179 121 480 116 185 132 177 351 239 948 334 3498 327 153 208 1178 1463 124 1721 162 104 114 495 766 212 476 6889 618 115 101 136 119 152 116 102 1547 701 175 110 107 101 298
leaf_count=106 2870 146 113 437 107 179 121 480 116 185 132 177 351 239 948 334 3498 327 153 208 1178 1463 124 1721 162 104 114 495 766 212 476 6889 618 115 101 136 119 152 116 102 1547 701 175 110 107 101 298
internal_value=7.04118e-05 0.000435616 0.000239039 0.000581417 0.00207676 -0.00172107 -0.00162117 -0.00254609 0.0011082 -0.000303253 -0.00117238 -0.00435484 -1.06155e-05 0.000273705 0.00115776 -0.00182208 -0.000249979 0.00262994 -0.00115406 -0.00172939 -0.00270278 -0.000547201 -0.00155722 0.0017975 -0.000480976 -0.000623471 -0.00234466 -0.000906131 0.000658888 0.000752886 0.0026654 0.000618055 0.00281895 0.00371585 0.00259491 0.000402802 0.000579069 0.00227762 -1.98282e-05 0.00124878 -0.00157291 -0.00327943 0.00207165 0.00729789 0.00324089 -0.00233401 0.00175229
internal_weight=29429 14883 13291 11225 1592 778 2066 1418 237 14546 3664 539 10882 8715 3242 573 5473 512 2167 1839 1386 4961 270 2669 599 3125 362 2912 870 10447 688 9759 1322 944 719 648 378 259 230 453 2042 1181 328 225 213 214 434
internal_count=29429 14883 13291 11225 1592 778 2066 1418 237 14546 3664 539 10882 8715 3242 573 5473 512 2167 1839 1386 4961 270 2669 599 3125 362 2912 870 10447 688 9759 1322 944 719 648 378 259 230 453 2042 1181 328 225 213 214 434
is_linear=0
shrinkage=0.05


Tree=20
num_leaves=24
num_cat=0
split_feature=16 10 12 7 27 4 25 13 27 17 25 25 4 28 17 24 21 19 16 24 17 21 13
split_gain=1.96127 1.88002 1.61845 1.4527 1.39573 1.35297 1.99626 1.35259 1.18912 1.59113 5.67079 2.01847 1.32373 1.18505 1.08004 0.985458 1.90822 0.930633 0.873638 0.709132 0.515667 0.544416 0.213577
threshold=0.0075215694245768377 -0.050574014719820586 99.999999992551224 -0.15340592100093872 0.088683848741774943 0.20496887515638754 0.0056090833310236008 52.108428556178815 0.049503313320930671 0.020574434875642231 0.005511025630459126 0.0077274923043224239 -0.15099826299216965 -0.27247174510400068 0.0093055964573299059 -0.019285852245095266 1.330997773151571 0.12158767375723882 0.021364569028956757 0.002542010946896434 0.0101241028792889 0.66325642767275295 49.132425082466767
decision_type=2 2 2 2 2 2 2 2 2 2 2 2 2 2 2 2 2 2 2 2 2 2 2
left_child=14 3 4 13 5 6 -3 -7 9 11 -11 -5 -10 -2 22 16 -6 -14 -15 -17 -16 -22 -1
right_child=1 2 -4 8 15 7 -8 -9 12 10 -12 -13 17 18 20 19 -18 -19 -20 -21 21 -23 -24
leaf_value=0.0012098348691842024 -0.0013517755079025758 0.0018823523314372985 -0.0042198933495218747 -9.3445157073247527e-05 0.0025186272389168428 0.0024313950867140138 -0.00064292714800242873 -0.0028383199153152313 -0.0053759988431560969 -0.0023476832858347523 0.001592394243131995 -0.00142816024974047 0.0017904276542578844 0.0017073555301734909 0.006929796590654503 0.0052110733913902484 -0.0056339237796405716 -0.0011741636613631051 0.0069213236479554324 0.0022190938901944057 0.00038343259025011854 0.0047712181509570193 -0.0017028672463896843
leaf_weight=167 142 1847 161 10026 214 158 1358 531 177 1227 3571 3948 286 173 121 260 108 3558 150 831 116 181 101
leaf_count=167 142 1847 161 10026 214 158 1358 531 177 1227 3571 3948 286 173 121 260 108 3558 150 831 116 181 101
internal_value=-5.22799e-05 -0.000115376 0.000718853 -0.000311504 0.000868681 0.000380232 0.000812359 -0.00162988 -0.000367946 -0.0002008 0.000584792 -0.000470535 -0.00114826 0.00245509 0.00258984 0.00221477 -0.000215769 -0.000953593 0.0041287 0.00293212 0.00417841 0.00305747 0.000112137
internal_weight=29412 28726 5468 23258 5307 3894 3205 689 22793 18772 4798 13974 4021 465 686 1413 322 3844 323 1091 418 297 268
internal_count=29412 28726 5468 23258 5307 3894 3205 689 22793 18772 4798 13974 4021 465 686 1413 322 3844 323 1091 418 297 268
is_linear=0
shrinkage=0.05


Tree=21
num_leaves=38
num_cat=0
split_feature=10 9 16 25 17 28 16 28 24 26 17 9 24 18 11 27 8 28 18 24 21 7 17 11 7 17 16 16 21 28 24 3 28 18 23 27 21
split_gain=1.49188 1.90757 1.59586 1.68318 4.19194 1.52064 1.44458 1.34699 1.29505 1.24879 2.43855 2.31172 1.96094 2.50125 1.74362 1.7307 1.71039 1.67459 1.75779 1.49152 1.44055 1.38761 1.50865 1.14302 1.11968 1.11282 1.04437 2.66778 1.03307 0.921813 0.917814 1.45759 0.882757 0.818757 0.691957 0.658356 0.399438
threshold=-0.1588219641301821 -0.043213922628785144 0.032989322812551049 0.011237085120643546 0.021505091326622653 0.26517637145379508 0.038209775047213797 0.40031397032156374 0.072163440486781041 -0.017731818648939742 0.021393292592314723 0.0081148805969388799 0.013610702268622711 0.028079071626988469 0.0025125538393796503 0.021509998669059619 -0.15490890002893828 -0.040455044424078206 0.03085225464690923 0.0085797178679013503 0.68794310467681907 -0.072514180193471098 0.013070641206458811 1.1976801142677143 -0.078868198382952823 0.028715241848405099 0.02920432286475598 0.03708051286321306 1.0000447308969012 -0.13237909918117982 -0.0082424069032124275 -0.0098143066135629713 0.11470524368601366 0.037472569425996652 0.00556106299397341 -0.024404236439215406 1.1030691843967679
decision_type=2 2 2 2 2 2 2 2 2 2 2 2 2 2 2 2 2 2 2 2 2 2 2 2 2 2 2 2 2 2 2 2 2 2 2 2 2
left_child=9 33 3 5 8 23 -4 -7 -5 10 11 17 13 21 -15 16 29 18 -1 -16 -12 34 -23 -3 -18 -6 32 -28 -13 -14 31 -22 -17 36 -11 -19 -2
right_child=1 2 6 4 25 7 -8 -9 -10 12 20 28 15 14 19 26 24 35 -20 -21 30 22 -24 -25 -26 -27 27 -29 -30 -31 -32 -33 -34 -35 -36 -37 -38
leaf_value=-0.0017045978730814437 -0.0063578301781000426 0.00073426820583077468 0.006788295750567293 -0.0019696463751360219 0.0031632773839343521 -0.0030323016789346141 0.00022822696850785326 0.0018238450585791209 -0.006954288810043687 0.00061549519702181919 -0.0015371924004110391 0.0072992025025462419 0.0046949381543941 -0.0089575850313643596 -0.0015938106490326822 -0.0014874854373826598 -0.0036089215187255193 -0.0012227961798715924 0.0021287224207469963 -0.0049301275873212033 0.0039770111227588984 0.00040708589202773484 -0.0017029736858406759 -0.0040177216459142077 0.00039397735524255098 -0.0019908251229935558 0.0051718170540093374 -0.0047327388207618658 0.00056638269362827909 0.00060644493599991422 0.0073315604957773497 -0.0022143623339785736 -0.0056732211676459258 0.00057287333626300106 0.0044513483557172794 -0.0047093307683312826 -0.0024021397753299593
leaf_weight=683 156 11126 183 1370 576 519 155 197 144 409 167 126 356 106 1446 1181 185 225 532 436 489 1340 2303 128 3137 128 178 110 104 225 135 118 141 100 165 340 108
leaf_count=683 156 11126 183 1370 576 519 155 197 144 409 167 126 356 106 1446 1181 185 225 532 436 489 1340 2303 128 3137 128 178 110 104 225 135 118 141 100 165 340 108
internal_value=-5.7427e-05 0.000294949 0.000384535 0.000303645 -0.000961502 0.000538073 0.00377998 -0.00169618 -0.00244375 -0.000415894 0.00050944 -0.000462417 -0.000646398 -0.00125607 -0.00271815 3.98045e-05 0.000608789 -0.00107194 -2.61399e-05 -0.00236673 0.00265843 -0.000566811 -0.000926833 0.00068022 0.000171059 0.00222617 -0.00133954 0.00138883 0.0042548 0.00311161 0.00360273 0.00277342 -0.00193392 -0.00328012 0.00171814 -0.00332089 -0.00473959
internal_weight=29527 14890 14526 14188 2218 11970 338 716 1514 14637 2919 2010 11718 6205 1988 5513 3903 1780 1215 1882 909 4217 3643 11254 3322 704 1610 288 230 581 742 607 1322 364 574 565 264
internal_count=29527 14890 14526 14188 2218 11970 338 716 1514 14637 2919 2010 11718 6205 1988 5513 3903 1780 1215 1882 909 4217 3643 11254 3322 704 1610 288 230 581 742 607 1322 364 574 565 264
is_linear=0
shrinkage=0.05


Tree=22
num_leaves=19
num_cat=0
split_feature=17 21 25 16 25 2 21 9 16 0 25 17 17 3 17 18 4 16
split_gain=1.66786 2.10559 1.45143 2.24192 1.64272 1.32037 1.22832 1.95597 1.90044 1.36046 1.24222 2.22676 1.97328 1.16984 0.500675 0.469041 0.538552 0.46333
threshold=0.033864259424107736 4.0123646980884846 0.0094492990987811738 0.038209775047213797 0.012567608656194841 0.16103184175451238 0.60398480284299583 0.037762471224800039 0.026264313944271277 -0.021860055656188589 0.0059869811313051869 0.021183570681531174 0.017545613319527264 0.027268003132866706 0.022252322063761345 0.036047050275910313 0.07568989618559209 0.032989322812551049
decision_type=2 2 2 2 2 2 2 2 2 2 2 2 2 2 2 2 2 2
left_child=1 5 13 17 -5 6 7 9 -9 -1 12 -12 -8 -2 -3 -7 -17 -4
right_child=2 14 3 4 -6 15 10 8 -10 -11 11 -13 -14 -15 -16 16 -18 -19
leaf_value=0.0021754277507238114 0.0023240449886769059 -0.0076340167931889628 0.0047996298111073919 0.0053313346245515815 -0.0024606879103995696 0.00036162078763256865 0.00083614256824233394 0.0022951569835386368 -0.0044684807300412405 -0.0014067872155951325 -0.00070761892784878936 0.00078266203027798481 -0.00080855464729745691 -0.0046324979736764209 -0.0026797004775324998 0.0070803017086990827 0.0020835800636892338 0.008798398106249378
leaf_weight=283 125 101 155 108 181 101 8419 772 120 4178 8365 3579 2328 117 103 104 112 136
leaf_count=283 125 101 155 108 181 101 8419 772 120 4178 8365 3579 2328 117 103 104 112 136
internal_value=-7.09716e-06 -7.09957e-05 0.00221342 0.00357056 0.00045121 -3.45879e-05 -7.08595e-05 -0.000752152 0.00138525 -0.00117954 8.98631e-05 -0.000261059 0.000479871 -0.00103924 -0.00513257 0.00317425 0.00448941 0.00666847
internal_weight=29387 28565 822 580 289 28361 28044 5353 892 4461 22691 11944 10747 242 204 317 216 291
internal_count=29387 28565 822 580 289 28361 28044 5353 892 4461 22691 11944 10747 242 204 317 216 291
is_linear=0
shrinkage=0.05


Tree=23
num_leaves=14
num_cat=0
split_feature=8 28 2 28 17 5 5 27 8 1 17 16 27
split_gain=1.40096 2.09906 1.24113 1.23358 1.49201 1.2862 1.85335 1.37315 1.08878 0.981729 0.866377 0.992936 0.72166
threshold=0.46512104256057302 0.40031397032156374 0.16103184175451238 0.27524365735028594 0.022837479597835997 -0.071966979310694887 -0.12556017380336662 0.0854230534725023 0.30163171839599406 0.036488195341491954 0.023955599849971428 0.03708051286321306 0.083740769960810549
decision_type=2 2 2 2 2 2 2 2 2 2 2 2 2
left_child=1 2 3 5 8 6 -1 -7 -5 -3 -4 -12 -6
right_child=-2 9 10 4 12 7 -8 -9 -10 -11 11 -13 -14
leaf_value=-4.5772861907486343e-05 -0.0055032882651152174 0.0067973519494813513 -0.00096697428390627035 -0.0062370365610946964 0.0032694914450207796 0.00010947328597222222 -0.0015396192957986016 0.0015674670149224111 -0.00041600240433278183 0.00086790462806705417 0.006481197053540705 0.00030645303075503121 -0.0022652483192733795
leaf_weight=7992 115 165 111 243 131 15406 2805 1804 120 121 180 102 107
leaf_count=7992 115 165 111 243 131 15406 2805 1804 120 121 180 102 107
internal_value=4.57281e-06 2.62003e-05 -1.58357e-05 -5.41734e-05 -0.0022955 -6.0768e-06 -0.000433866 0.000262304 -0.00431273 0.00428874 0.00277491 0.00424778 0.000781184
internal_weight=29402 29287 29001 28608 601 28007 10797 17210 363 286 393 282 238
internal_count=29402 29287 29001 28608 601 28007 10797 17210 363 286 393 282 238
is_linear=0
shrinkage=0.05


Tree=24
num_leaves=17
num_cat=0
split_feature=8 28 12 10 25 17 23 28 8 24 9 28 16 23 28 8
split_gain=1.41567 1.47363 1.51586 1.30455 1.95178 2.00511 2.10404 1.93006 2.09342 1.73519 1.47077 1.46605 1.37059 1.33516 0.855641 0.570027
threshold=0.46512104256057302 0.40031397032156374 72.543280284976035 -0.1588219641301821 0.0050084456750764403 0.017361919779699059 -0.018799853057183288 -0.14509980779408185 -0.2700907222068093 -0.0032305794714092557 -0.046227589376800375 0.27524365735028594 0.032989322812551049 0.0054292698338836995 -0.013249549683047255 0.034675071094137706
decision_type=2 2 2 2 2 2 2 2 2 2 2 2 2 2 2 2
left_child=1 3 -3 4 5 14 -7 9 -9 -6 15 12 -12 -13 -1 -5
right_child=-2 2 -4 10 7 6 -8 8 -10 -11 11 13 -14 -15 -16 -17
leaf_value=6.771208752664162e-05 -0.0054080032664956907 0.006905029668372923 -0.00048989285770360206 -0.0016317074588233873 0.0032911171963978972 0.0033987011064468831 -0.0036317506840570454 0.0065336917087228767 -0.00046907987867521013 0.00021859332295811842 0.00038620142116129076 -0.003711368976076069 0.0045257371744792446 0.001172483849509711 -0.0022322664258738775 -0.006363928308710457
leaf_weight=1619 123 154 126 175 721 117 1177 108 9023 1267 13354 408 203 213 539 100
leaf_count=1619 123 154 126 175 721 117 1177 108 9023 1267 13354 408 203 213 539 100
internal_value=-5.50998e-05 -3.26317e-05 0.00357731 -6.74575e-05 -0.000401311 -0.00143989 -0.00299608 -7.88754e-05 -0.000386252 0.00133292 0.000269122 0.000339368 0.000448186 -0.00203623 -0.00050675 -0.00335252
internal_weight=29427 29304 280 29024 14571 3452 1294 11119 9131 1988 14453 14178 13557 621 2158 275
internal_count=29427 29304 280 29024 14571 3452 1294 11119 9131 1988 14453 14178 13557 621 2158 275
is_linear=0
shrinkage=0.05


Tree=25
num_leaves=24
num_cat=0
split_feature=17 4 16 12 13 5 5 16 5 11 2 24 17 9 17 5 11 25 5 4 16 7 9
split_gain=1.32343 1.43075 2.11266 1.40527 1.38783 1.43832 1.1351 1.56541 1.70195 1.30716 1.2917 1.40665 2.30876 1.21779 1.50537 1.32617 0.997443 0.963502 1.14317 0.825011 1.81392 0.746041 0.310879
threshold=0.034963085307917495 -0.010697974139096454 0.030616834952638328 64.053928200081387 55.741650243465763 -0.16632981996126503 -0.076403075534164186 0.03708051286321306 -0.11099466406618173 1.1335027481162059 0.16103184175451238 0.081565186248356861 0.020893040507612193 0.074739151842905596 0.025251375046472468 -0.17729459386422017 0.13114637497119866 0.0050067765913260611 0.91216658844353471 -0.021440193472600563 0.017172927531368374 0.094131494167590493 0.0022803323431451754
decision_type=2 2 2 2 2 2 2 2 2 2 2 2 2 2 2 2 2 2 2 2 2 2 2
left_child=6 4 -3 -4 5 -2 7 8 13 10 11 16 -13 14 -1 -15 -8 -11 -19 20 -10 -21 -12
right_child=1 2 3 -5 -6 -7 9 -9 19 17 22 12 -14 15 -16 -17 -18 18 -20 21 -22 -23 -24
leaf_value=-0.00016301455962893294 0.0061421254798851646 -0.00064919308074212713 0.011693367676572036 0.0037261058709176249 -0.0044531069341731686 -0.0018910080241466608 0.0011142160345873268 -0.0055431706248782577 0.0011519993683780222 0.0010437466625589878 0.0021351112418022812 -0.0079850212298686416 0.0020870020696893334 -0.0077297229293699019 0.0023883015306829479 5.405229343783244e-05 0.00010502312498865349 -0.0085430724335242517 -0.0011817223100828974 -0.0032864141137351611 -0.0037422151624228262 0.00052681985675104412 0.0059507190861560443
leaf_weight=7716 114 130 102 121 120 109 2946 148 535 100 102 132 100 107 625 112 14495 107 104 852 293 151 112
leaf_count=7716 114 130 102 121 120 109 2946 148 535 100 102 132 100 107 625 112 14495 107 104 852 293 151 112
internal_value=2.79557e-05 0.00218232 0.00441696 0.00737032 -0.000117465 0.00221562 -2.42223e-05 -0.000437155 -0.000364429 0.000214919 0.000270796 0.000224041 -0.00364363 -6.84764e-05 2.81583e-05 -0.00374898 0.000275488 -0.00299882 -0.00491473 -0.00174802 -0.000579891 -0.00271234 0.00413206
internal_weight=29433 696 353 223 343 223 28737 10539 10391 18198 17887 17673 232 8560 8341 219 17441 311 211 1831 828 1003 214
internal_count=29433 696 353 223 343 223 28737 10539 10391 18198 17887 17673 232 8560 8341 219 17441 311 211 1831 828 1003 214
is_linear=0
shrinkage=0.05


Tree=26
num_leaves=28
num_cat=0
split_feature=8 10 21 25 26 1 17 1 25 25 11 26 24 4 16 9 5 21 17 19 4 10 7 25 4 11 24
split_gain=1.35429 1.35934 1.89525 2.02255 2.71451 2.06853 1.83119 2.28248 2.77876 1.76806 2.06534 1.88925 1.7707 1.17666 3.21098 1.77457 1.14156 1.07893 1.06606 1.27051 0.994777 0.922454 0.87092 0.840286 0.692447 0.571495 0.568362
threshold=0.46512104256057302 -0.072790166075968984 0.54330204092305745 0.0051311067954129376 0.015541818345189974 -0.01162259658410769 0.024102380171045035 0.039608066891779321 0.016149377271544672 0.011128874927332008 0.21870650950761819 -0.017731818648939742 0.013418993601083453 0.094932154156732632 0.018146144522138342 0.045165378396859308 -0.23355650345649573 4.0123646980884846 0.021393292592314723 0.73085636403391463 0.29819826216086592 -0.3209395524340764 -0.12422086847447215 0.0086375079457511935 0.061878589204961705 0.77555348292102499 -0.010290794188917816
decision_type=2 2 2 2 2 2 2 2 2 2 2 2 2 2 2 2 2 2 2 2 2 2 2 2 2 2 2
left_child=1 2 3 5 23 26 9 20 25 10 12 -12 -3 17 16 -16 -15 22 19 -11 -8 -6 -4 -5 -7 -9 -1
right_child=-2 6 13 4 21 24 7 8 -10 18 11 -13 -14 14 15 -17 -18 -19 -20 -21 -22 -23 -24 -25 -26 -27 -28
leaf_value=0.001216869158966836 -0.0054182029880694644 0.0039705911912157254 0.0017230278451525708 -0.0011000173939542432 0.0057684558037127479 -0.0039517697056161731 0.0037545088505648058 -0.0055254337685515312 0.0069712357858068077 -0.0010858574801235284 -0.0025979166519891194 0.0005857361064822694 -0.001236210591991299 -0.0069069177853193003 0.0023965696935173558 -0.000930220463314262 -0.0021507071563081639 -0.0039280072176401878 0.0021758973669445728 -0.0055362256905906147 0.0094861792834864851 0.0012438210819332531 0.00014083963262836259 -0.0044583374463244641 -0.0079161946068216169 -0.00032505300501361491 -0.0018191252761330886
leaf_weight=212 115 734 927 913 136 491 174 112 102 505 517 4723 210 140 761 847 1276 157 146 235 134 656 14087 234 142 100 565
leaf_count=212 115 734 927 913 136 491 174 112 102 505 517 4723 210 140 761 847 1276 157 146 235 134 656 14087 234 142 100 565
internal_value=-2.88573e-06 1.84155e-05 -0.000185304 -0.0012784 -0.000230588 -0.00271932 0.000588998 0.00318994 0.000190166 0.000360174 0.000659463 0.000271624 0.0028123 1.58934e-05 -0.000884715 0.000644212 -0.00262095 0.00019541 -0.00172877 -0.00249915 0.00624816 0.00202078 0.000238528 -0.00178515 -0.0048411 -0.00307242 -0.000990772
internal_weight=29351 29236 21544 3349 1939 1410 7692 622 314 7070 6184 5240 944 18195 3024 1608 1416 15171 886 740 308 792 15014 1147 633 212 777
internal_count=29351 29236 21544 3349 1939 1410 7692 622 314 7070 6184 5240 944 18195 3024 1608 1416 15171 886 740 308 792 15014 1147 633 212 777
is_linear=0
shrinkage=0.05


Tree=27
num_leaves=39
num_cat=0
split_feature=10 24 11 17 7 9 17 17 9 24 17 17 25 9 13 1 3 11 2 24 21 3 21 8 9 23 28 18 11 18 25 17 9 18 12 8 17 7
split_gain=1.48524 1.66728 1.54496 1.50567 1.2617 1.24553 1.85708 1.33654 1.26945 1.23387 1.47432 1.17861 1.11196 1.09067 1.08502 1.65559 1.06195 1.03861 1.14565 1.33501 1.91186 1.32696 1.02725 0.94919 2.1027 1.3805 0.885278 1.01719 0.766358 0.763176 1.19483 0.792544 0.675286 0.660058 0.58426 0.516953 0.405431 0.194931
threshold=-0.072790166075968984 0.013610702268622711 0.22556653290648213 0.024102380171045035 -0.14609887729099866 -0.0077919870922407144 0.012218976173304226 0.014881985251774152 0.036544210760884661 -0.017184839044271035 0.022572353255805856 0.015869997967425001 0.011128874927332008 0.037762471224800039 71.506903274758784 0.040462208930659445 0.012794357703407424 0.0049981049589654667 -0.032202360205854534 0.013749854147372067 0.71244884773215966 0.048982049890695441 0.85402855606846584 -0.11574819581451727 -0.0054348070543884788 0.02217795728413197 -0.24604369654107142 0.038120801149204263 0.18310133089612959 0.027666190247734635 0.0095914859343645426 0.012558925516972297 -0.0015392923134402434 0.03034568835757228 14.358231993578764 0.28567057787007849 0.017648552065880646 -0.063002912925380281
decision_type=2 2 2 2 2 2 2 2 2 2 2 2 2 2 2 2 2 2 2 2 2 2 2 2 2 2 2 2 2 2 2 2 2 2 2 2 2 2
left_child=4 2 11 5 26 16 8 -8 -7 10 13 22 -5 -4 15 -11 -3 29 23 20 -20 -21 32 24 -19 -25 -1 36 -24 31 -31 37 -2 -16 -33 -14 -28 -6
right_child=1 3 9 12 17 6 7 -9 -10 14 -12 -13 35 -15 33 -17 -18 18 19 21 -22 -23 28 25 -26 -27 27 -29 -30 30 -32 34 -34 -35 -36 -37 -38 -39
leaf_value=-0.00062666506937648827 0.0079193175653206639 -0.0081969879919151761 -0.0032823965722248737 -0.0014770166716553514 -0.0041645864356145137 0.00088025432329949581 -0.0032989937549247617 -0.00031429680284788733 0.0071992972290415005 0.0011417692333390861 0.0031553396641203525 0.0073432330151483654 0.0024750325470867785 0.0007992812408805386 0.0037043334510798542 -0.0028552181665947168 -0.0013218675770796835 0.00045370667289432447 -0.0019217119662796958 0.00065574026222362284 -0.00033516988552219324 -0.00080228692659217054 -0.0013933793422260113 0.00014682996607082174 0.0052287756318980241 -0.005741478088220545 -0.00095864052685177843 0.0064518786766623124 0.0025871345340760035 -0.0075389945484778806 -0.00085895297495881091 0.0040704848432664455 0.0028007889363497467 -2.920757938679061e-05 -0.0012944001380317644 0.0069589566280543113 0.0034360457337190157 -0.0012379563982540278
leaf_weight=199 101 102 489 123 132 327 545 1203 105 2181 178 132 161 246 548 294 125 1007 2929 3846 5399 2626 214 4126 299 102 107 164 278 138 130 101 178 151 102 107 103 100
leaf_count=199 101 102 489 123 132 327 545 1203 105 2181 178 132 161 246 548 294 125 1007 2929 3846 5399 2626 214 4126 299 102 107 164 278 138 130 101 178 151 102 107 103 100
internal_value=-3.39584e-05 0.000558045 0.00110586 -0.000418939 -0.00024731 -0.000886418 -0.000519395 -0.00124488 0.00241613 0.00069232 -0.000927512 0.00297756 0.00245886 -0.00191628 0.00115826 0.000666976 -0.00441113 -0.000310363 -0.000245039 -0.000474534 -0.000893165 6.41489e-05 0.00223013 0.000368716 0.00154693 4.77523e-06 0.00206761 0.00350119 0.000855773 -0.00219982 -0.00429868 -0.000906738 0.00465373 0.0028978 0.00137483 0.00426526 0.00119685 -0.00290311
internal_weight=29398 7788 4990 2798 21610 2407 2180 1748 432 4087 913 903 391 735 3174 2475 227 21037 20334 14800 8328 6472 771 5534 1306 4228 573 374 492 703 268 435 279 699 203 268 210 232
internal_count=29398 7788 4990 2798 21610 2407 2180 1748 432 4087 913 903 391 735 3174 2475 227 21037 20334 14800 8328 6472 771 5534 1306 4228 573 374 492 703 268 435 279 699 203 268 210 232
is_linear=0
shrinkage=0.05


Tree=28
num_leaves=34
num_cat=0
split_feature=11 19 21 13 2 9 11 3 17 4 3 1 10 28 2 10 8 10 16 21 10 16 5 20 8 5 21 17 3 2 24 5 21
split_gain=1.17015 1.20302 1.01209 0.996159 0.92965 1.30529 1.4349 1.06162 1.19569 1.01707 1.69339 1.51981 1.21197 1.06367 1.97076 1.13563 0.924292 0.969259 1.0999 0.955002 0.919597 0.755667 0.965046 1.08847 0.78374 0.63075 0.587159 0.570847 0.508866 0.523726 0.414224 0.381524 0.327792
threshold=0.011735597057616733 0.19999802526098118 0.55390001146015233 80.774599481867682 -0.031683783222905486 -0.050083640501652808 0.23799324159497329 -0.068194657740560369 0.018853836826505339 -0.13774231992659744 -0.00063540734650058262 -0.00095296359752650151 -0.28856226127644113 -0.067776932771047668 0.044402056763648397 -0.12860272093312028 -0.32734653198173014 -0.33463342104444194 0.016888497965145546 1.0483237724201395 -0.11731826886458595 0.010483421569629952 0.32664285845683244 -0.0011115716875519375 -0.21007774947406263 -0.076403075534164186 0.97875465760958091 0.011455832439813411 -0.02130296104206136 0.01904386296020644 -0.0036107264731004558 0.049642742321197815 1.0350821175783442
decision_type=2 2 2 2 2 2 2 2 2 2 2 2 2 2 2 2 2 2 2 2 2 2 2 2 2 2 2 2 2 2 2 2 2
left_child=2 3 30 21 5 6 26 20 -9 10 11 -6 -12 14 -11 -15 -4 18 32 27 -7 28 24 -24 -23 -21 -3 -19 31 -30 -1 -2 -18
right_child=1 4 16 -5 9 7 -8 8 -10 13 12 -13 -14 15 -16 -17 17 19 -20 25 -22 22 23 -25 -26 -27 -28 -29 29 -31 -32 -33 -34
leaf_value=-0.0024943871464051495 0.0050901603695666913 -0.00080672658091231675 -0.0053252023630913827 0.0053591436342434592 -0.0034851311066444301 -0.0013346300020045704 0.0077826254185242184 7.3347141749442995e-05 0.0023105337807592797 0.0001623087214421339 -0.0020023090680837035 0.0011939749145473836 -0.0081050947299445408 -0.00085839036169230208 0.0035366200745589708 7.5318466622719982e-05 0.0061376602637572483 -0.0025522087009665143 -0.0011620671666097097 -0.0056798876616732429 0.0032854135620736464 0.0039086094819423224 0.0050588035400692573 0.00082060246907986818 3.6331859487073182e-05 -0.00099017571583317489 0.0030740319530626662 0.0021351352472825406 0.00030771831103206903 0.0041615451530906773 -0.0068566126140332459 0.0012746448754332961 0.0021388839891490837
leaf_weight=118 190 161 101 116 262 1135 119 1666 931 2440 187 514 144 5286 526 8482 103 101 186 163 119 135 222 477 4075 128 247 182 401 113 101 100 102
leaf_count=118 190 161 101 116 262 1135 119 1666 931 2440 187 514 144 5286 526 8482 103 101 186 163 119 135 222 477 4075 128 247 182 401 113 101 100 102
internal_value=6.51002e-05 0.000132695 -0.00141031 0.000772019 -3.50274e-05 0.000617862 0.00295168 0.000298484 0.000875357 -0.00019524 -0.00166302 -0.000385826 -0.0046573 -9.81418e-05 0.00076072 -0.000283164 -0.000774285 -0.000297971 0.001622 -0.00160582 -0.000896205 0.00067888 0.000446159 0.00216664 0.000160502 -0.00361706 0.00154265 0.000462267 0.00209981 0.00115496 -0.00450619 0.00377447 0.00414803
internal_weight=29333 28048 1285 5829 22219 4378 527 3851 2597 17841 1107 776 331 16734 2966 13768 1066 965 391 574 1254 5713 4909 699 4210 291 408 283 804 514 219 290 205
internal_count=29333 28048 1285 5829 22219 4378 527 3851 2597 17841 1107 776 331 16734 2966 13768 1066 965 391 574 1254 5713 4909 699 4210 291 408 283 804 514 219 290 205
is_linear=0
shrinkage=0.05


end of trees

feature_importances:
vol_63d=95
nifty_vol_21d=86
mom_12_1=61
sma20_50=58
rs_63d=53
atr_pct=51
vol_21d=50
vol_ratio=49
dist_sma200=46
hi52_dist=42
rsi_14=39
nifty_dist_sma50=39
ret_63d=38
nifty_ret_21d=38
lo52_dist=33
rs_21d=30
ret_10d=29
dist_sma50=28
ret_5d=25
nifty_ret_5d=20
ret_21d=18
rsi_5=15
range_pos=9
turnover_z=8
boll_z=6
dist_sma20=5
gap=5
ret_1d=4

parameters:
[boosting: gbdt]
[objective: regression]
[metric: l2]
[tree_learner: serial]
[device_type: cpu]
[data_sample_strategy: bagging]
[data: ]
[valid: ]
[num_iterations: 400]
[learning_rate: 0.05]
[num_leaves: 48]
[num_threads: 0]
[seed: 42]
[deterministic: 0]
[force_col_wise: 0]
[force_row_wise: 0]
[histogram_pool_size: -1]
[max_depth: 6]
